// The contents of this file are licensed under the Creative Commons
// Attribution 4.0 International License: https://creativecommons.org/licenses/by/4.0/
// Neural Network File Format by Kyle Julian, Stanford 2016 (generated on 10/21/2022 11:53:16)
7,5,5,50,
5,50,50,50,50,50,50,5,
0,
0.0,-3.141593,-3.141593,100.0,0.0,
60760.0,3.141593,3.141593,1200.0,1200.0,
19791.091,0.0,0.0,650.0,600.0,7.5188840201005975,
60261.0,6.28318530718,6.28318530718,1100.0,1200.0,373.94992,
5.062811e-02,-1.169911e+00,1.213745e+00,-7.419132e-02,1.258058e-01,
-9.367235e-03,-8.505040e-01,-1.305786e+00,4.112050e-02,-2.519321e-02,
1.003076e+00,2.023479e-02,6.336423e-03,-1.305850e-03,9.167652e-03,
2.312942e-01,-4.266549e-01,-7.521810e-02,-5.037792e-01,-1.495654e-01,
-5.225382e-01,-1.637040e-01,2.085462e-03,-5.223871e-01,4.574133e-01,
1.217817e-01,-1.378171e+00,1.124216e+00,1.361496e-01,-1.013298e-02,
1.942041e-02,-6.287762e-01,-5.080049e-01,-4.089851e-01,4.150182e-01,
8.554226e-02,1.734812e+00,-9.445696e-01,1.044339e-01,2.635848e-03,
1.860780e-02,-1.259045e+00,1.216502e+00,1.883289e-02,4.264823e-02,
2.288259e-02,1.119427e+00,-1.300677e+00,-1.494555e-01,3.142117e-01,
2.988560e-01,-5.059993e-01,2.238361e-01,1.882329e-01,-5.153259e-01,
3.817813e-02,1.963959e+00,-1.883271e-02,1.744499e-02,-3.411559e-01,
1.644164e+00,6.055425e-03,1.443501e-02,1.107735e-02,4.498811e-03,
2.720577e-02,1.939202e-01,-9.394616e-02,-1.526161e-01,-6.271979e-01,
5.574985e-02,-1.907333e+00,1.717739e+00,-4.183581e-01,6.602326e-01,
1.848936e-01,-8.652704e-01,1.178746e+00,3.335278e-01,2.523960e-01,
-1.325530e-04,-3.187010e-03,1.515680e-03,1.934230e-02,1.252520e-03,
3.465957e-02,9.632122e-01,8.410921e-02,4.309643e-01,-6.017848e-01,
1.871230e-03,1.323702e+00,-1.428609e+00,-1.596204e-01,1.617578e-01,
-3.916161e-01,-1.715449e+00,1.979953e+00,-2.257189e-01,5.134705e-01,
6.296358e-02,5.543569e-01,1.836082e-01,-6.697855e-02,-2.840744e-02,
2.339624e-02,-4.970885e-02,6.314809e-02,-3.410962e-03,-2.056675e+00,
-2.644912e-02,5.353855e-01,8.017702e-01,2.683268e-01,-2.520126e-01,
-1.540008e-02,1.076412e-01,-1.602316e-01,6.927301e-01,-9.327266e-01,
-2.530252e-01,7.687416e-03,5.012088e-03,2.240143e-01,3.066455e-01,
3.216898e-02,-1.396506e+00,-6.479167e-03,6.141832e-02,-3.960026e-01,
-1.646947e-01,-1.259191e+00,-3.456704e-01,3.786898e-01,-1.852650e-01,
1.766501e-01,1.836801e+00,-2.417999e+00,-3.931369e-02,1.312196e-01,
1.300234e-02,1.445110e-01,-1.638582e-01,6.049880e-01,-1.103697e+00,
9.987820e-04,-1.771050e-02,1.246570e-04,-2.245460e-03,-7.266620e-03,
-1.571041e-01,1.371171e+00,-7.949695e-01,7.527218e-02,-2.320513e-01,
-6.144222e-03,-1.179403e+00,1.119154e+00,-2.623207e-01,8.613934e-02,
3.442328e-01,-1.257318e+00,1.476756e-02,4.114212e-01,-6.260470e-01,
4.787710e-04,-1.251240e-04,-3.556630e-03,-1.812850e-02,-1.333780e-03,
5.286498e-02,-6.077646e-01,6.278723e-01,8.464870e-02,-2.539237e-01,
-3.127786e-02,-2.290849e+00,-5.617606e-03,-2.300963e-02,4.849897e-03,
-4.237979e-01,1.043115e-01,1.683085e-02,1.247338e-01,-1.105906e+00,
-4.074067e-01,1.554229e+00,-1.829969e+00,-2.277123e-01,5.682777e-01,
-1.436483e-01,-7.139399e-03,-6.542906e-02,-1.131801e+00,-5.441485e-02,
-7.076265e-01,1.171947e-02,-8.952057e-02,-3.745910e-02,-3.532751e-01,
1.773617e-01,9.216050e-01,-1.748073e-01,2.203539e-01,-3.105548e-01,
6.965310e-03,1.420820e-02,-3.914140e-03,8.448680e-04,1.214790e-02,
-3.783924e-02,9.287409e-01,9.072978e-01,4.459737e-01,-1.243332e-02,
-9.240127e-02,-1.194364e+00,9.293177e-01,-1.880398e-03,-4.141650e-01,
1.382287e-01,-2.714067e-01,1.349952e+00,-1.682184e-01,2.850294e-01,
1.432340e-01,1.681567e+00,-1.664409e+00,3.082897e-01,-2.228435e-01,
-1.463440e+00,8.742516e-02,2.015884e-02,-3.760705e-03,-1.308883e-03,
-1.852849e-01,-5.619710e-02,-1.832031e-01,-1.067039e+00,8.592330e-01,
-2.962121e-01,-1.441504e+00,1.615633e+00,-2.692896e-01,4.873658e-01,
-2.269333e-02,1.778912e+00,2.436307e-02,6.803361e-03,-3.603526e-02,
-5.702457e-01,
-3.750733e-02,
2.705264e-01,
-2.512262e-01,
-2.392328e-01,
-3.742588e-01,
7.048200e-02,
-4.168501e-01,
-4.859801e-01,
-4.919568e-01,
-4.144496e-01,
-2.134408e-01,
4.516219e-01,
-1.655326e-01,
-6.143805e-01,
-1.336666e-01,
-1.438060e-02,
-1.574885e-01,
-6.918836e-01,
-2.224964e-01,
4.690848e-02,
-7.596278e-01,
-3.202111e-03,
1.028366e-01,
1.557321e-01,
-2.159364e-01,
-3.618825e-01,
3.049291e-02,
3.479888e-01,
-2.009820e-02,
-1.658609e-01,
-6.416200e-01,
-2.086864e-01,
-2.287480e-02,
1.436541e-01,
-1.805277e-02,
-4.263672e-01,
-2.858905e-01,
-3.676833e-01,
-1.946927e-01,
-1.340476e-01,
-2.085700e-02,
-1.318458e-01,
-2.281847e-01,
4.368284e-02,
-4.878913e-01,
-2.520761e-01,
7.560796e-02,
-3.731185e-01,
-9.183072e-03,
3.110338e-01,2.119078e-01,1.983318e-01,5.414281e-01,-1.736036e-01,1.903256e-01,1.145845e-01,-1.682606e+00,-3.676958e-03,-1.487529e+00,3.081974e-01,1.631871e+00,2.162700e-01,2.152432e+00,-2.162807e-01,5.920532e-01,-9.726190e-03,9.127108e-01,-1.219558e+00,-6.505068e-02,-8.688502e-01,1.832503e-01,-1.377419e-01,8.393310e-01,1.488816e+00,-4.383144e-01,-1.145082e+00,-2.573611e-01,-1.017606e+00,2.530050e-02,-2.319968e-01,2.025473e-01,1.649021e-01,9.035780e-03,-1.053991e+00,8.618854e-01,2.605347e+00,1.128118e-01,6.550022e-01,6.355119e-01,5.715362e-01,-2.671560e-02,8.502998e-01,-1.037170e+00,4.540822e-01,-6.779500e-01,1.985761e-01,8.756734e-02,5.305588e-01,-7.337110e-01,
-2.474768e-01,3.995958e-01,5.791251e-01,1.490939e+00,-2.359564e+00,-6.270003e-01,1.601350e-01,-6.685411e-01,-7.210096e-02,-4.438938e-01,7.983528e-01,4.701885e-01,5.464447e-01,2.251061e+00,6.600758e-01,-2.584283e-02,-3.234980e-02,7.456362e-01,8.321990e-01,1.839474e-01,-1.515240e-01,4.476058e-01,-4.799747e-01,-2.010543e-02,1.028332e+00,2.342595e-01,-1.455165e+00,-1.983493e-01,9.416837e-02,1.509620e-02,-5.466869e-01,-1.183477e+00,1.087036e+00,-3.306460e-02,4.522239e-01,-1.124613e+00,-2.096929e+00,4.910684e-02,6.339235e-01,-6.049795e-01,1.987471e-01,-2.512000e-03,2.479674e-01,-1.192527e-01,-2.304025e-01,4.735974e-01,5.501401e-01,2.270445e-01,5.474580e-02,-7.571120e-01,
6.497741e-01,1.549786e-01,1.365334e-01,1.221855e+00,-2.303873e+00,7.908415e-03,-5.823143e-01,-5.021273e-01,1.862153e-01,7.026007e-01,-5.616598e-01,-5.318506e-02,2.868017e-02,6.267604e-01,-2.195209e-01,3.715489e-01,-2.058060e-03,7.122059e-01,-3.187898e-01,-1.353686e-01,-1.246252e+00,2.683717e-01,-3.709798e-02,8.860239e-01,1.862666e+00,7.289555e-02,3.501261e-01,-2.233917e-01,1.814670e-01,2.403650e-02,-1.797022e-01,-7.642854e-03,1.708650e-01,2.125310e-02,-2.934929e-01,-1.391967e-01,6.598343e-01,3.675014e-01,1.679641e+00,-1.890099e-01,-3.546547e-01,3.811920e-02,-1.059131e-01,1.684220e-01,1.085106e-01,-1.499125e-01,-8.224526e-01,5.513256e-01,-1.100216e-01,6.148325e-01,
3.342670e-02,-2.010320e-02,1.107380e-02,3.931240e-02,1.726540e-02,-3.767470e-02,4.051750e-04,8.494050e-03,2.250740e-02,1.122550e-02,-1.965960e-02,1.314530e-02,-1.311510e-02,-1.349270e-02,1.670810e-02,1.359720e-02,4.541960e-03,-4.696560e-02,-3.933270e-02,-2.878420e-02,-2.055280e-02,-4.919890e-02,2.856770e-02,1.079840e-04,-4.214850e-02,-4.433790e-02,1.345700e-02,-1.312370e-02,-1.411970e-02,7.585930e-03,-4.168050e-02,-1.609380e-03,3.158060e-02,-1.408800e-02,9.742440e-03,-3.967860e-02,-3.228320e-02,-1.486560e-02,5.396230e-03,-6.324590e-03,1.262140e-02,1.969760e-02,2.379170e-02,6.468970e-03,-3.521280e-02,2.720590e-02,2.927610e-02,3.458030e-03,4.846360e-03,-1.194590e-02,
-8.019473e-01,1.115317e-01,5.399869e-02,8.912557e-01,6.424502e-02,-1.060720e+00,4.752410e-01,-4.628450e-01,2.541604e-02,-1.047755e+00,1.699051e+00,7.468641e-01,-2.749800e-02,1.821566e+00,-5.365356e-01,-2.825516e-01,-2.985190e-02,3.441956e-01,-9.043941e-01,1.984910e-01,-2.641790e-01,-1.110098e+00,7.355242e-01,-1.131318e+00,-3.798020e-01,4.077019e-01,3.026773e-01,1.390680e-01,-7.129669e-01,1.399650e-02,1.192831e+00,-4.547972e-01,2.808935e-01,3.160420e-02,2.128294e-01,1.035815e+00,-2.652753e+00,1.567654e-01,8.346580e-01,-2.093255e-01,3.734990e-01,1.416840e-02,8.120151e-01,2.836412e-01,3.109454e-01,-6.803221e-01,-7.650554e-02,5.374225e-01,1.193461e-01,8.740206e-01,
-1.064495e+00,3.954675e-02,1.791112e-01,-3.462349e-01,5.788064e-01,1.087926e+00,2.125067e-01,3.641804e-01,1.368425e+00,-4.145983e-01,-1.417699e+00,-7.490713e-01,1.808428e-01,1.257028e+00,-7.705445e-02,1.261089e-01,-2.339060e-02,-3.276477e-02,1.096601e+00,-4.799935e-01,1.615752e-01,9.539685e-01,-6.552338e-01,-1.119252e+00,-6.411442e-01,-5.730706e-01,-2.500878e+00,4.052680e-01,-1.407419e+00,-1.943880e-02,-2.915992e-01,1.587968e+00,1.174020e+00,-2.023330e-02,1.185425e+00,-6.713617e-01,-3.732853e+00,2.208297e-01,2.286601e+00,-1.359999e-01,1.479101e-01,1.379860e-02,-1.644804e-01,-1.923019e-01,-6.493549e-01,2.954528e-01,1.336873e-01,1.094977e+00,-4.231641e-02,-1.993852e-01,
2.765800e-02,2.332130e-02,-3.677700e-02,-6.065690e-03,3.237120e-02,-1.531470e-03,7.227570e-03,-4.368540e-02,-1.531610e-02,2.885120e-02,-3.173620e-02,-4.763970e-02,-2.258490e-02,4.484580e-02,4.110160e-02,-3.434830e-02,-1.196960e-02,-1.822550e-02,3.800620e-02,-9.394720e-03,-3.035790e-02,2.293060e-02,-1.420270e-04,-4.960560e-02,-5.045430e-02,-8.283140e-03,-2.092310e-02,2.987120e-02,-4.938160e-02,2.186820e-02,-5.137450e-02,-1.211330e-02,-2.001700e-02,-3.864220e-02,-1.986510e-02,-4.199370e-02,-3.316950e-02,-5.028990e-02,-1.112340e-02,1.003850e-02,-3.880390e-02,-3.371480e-02,4.213620e-02,-3.652230e-02,-2.129950e-02,2.120320e-02,-4.816830e-02,-5.631310e-04,-1.936390e-02,2.862390e-02,
-2.422185e+00,1.513822e+00,1.336305e-01,7.108992e-02,-1.421081e-01,-1.839719e+00,1.635857e+00,-1.457865e+00,-2.693378e+00,-1.930060e+00,-3.078689e+00,-1.521227e-01,1.757327e-01,6.404105e-01,-7.255178e-01,-1.021365e+00,-2.412450e-02,8.995368e-01,-4.315445e+00,-1.174387e+00,1.962509e+00,-5.372029e+00,2.768695e+00,-1.541706e+00,4.284632e-01,9.435071e-01,3.275990e+00,-1.839131e+00,-1.191003e+00,3.309700e-02,-7.225499e-01,-4.420046e+00,-5.056307e-01,4.728740e-02,-1.634634e+00,-8.062965e-01,-1.884657e+00,-1.607733e+00,1.657675e+00,5.239359e-02,2.918673e-01,-1.998670e-02,1.598058e+00,-1.183115e+00,3.374490e-01,-1.812521e+00,-3.277881e-01,1.957066e+00,-9.975519e-01,9.844249e-01,
-4.814340e-02,-2.614690e-02,-1.921070e-03,-6.107910e-03,6.856910e-04,2.824330e-02,-5.050060e-03,-4.183800e-02,-5.342150e-02,-4.722420e-02,3.459540e-02,3.494260e-02,-5.133170e-02,-1.734540e-02,3.024310e-02,-2.477120e-02,1.697250e-02,-2.683010e-02,-2.921320e-03,4.345510e-02,9.026250e-03,3.671540e-02,-2.757300e-02,-2.249140e-02,3.228020e-02,3.731580e-02,-3.636380e-02,8.110940e-03,1.376670e-02,-4.666390e-02,-1.935310e-02,-5.410860e-02,2.912300e-02,4.216120e-02,-3.496340e-02,-4.245670e-02,1.960060e-02,-2.163960e-02,-2.851190e-03,-3.882010e-02,-1.932960e-02,-2.986360e-02,-4.013480e-02,-1.342260e-02,-5.440460e-02,1.326420e-02,-2.370440e-02,-2.694510e-02,3.799850e-02,-2.398830e-02,
-4.557987e-04,-9.624836e-01,2.746896e-01,8.882787e-01,7.917898e-01,-5.131555e-01,2.540248e-01,7.481233e-01,-1.731545e-01,5.871196e-01,-2.015101e+00,-8.084161e-01,3.050255e-01,9.285703e-01,-3.470631e-01,-2.762719e-01,2.771970e-02,7.222692e-01,5.611759e-01,4.548225e-01,4.675652e-01,2.010342e-01,-1.934121e+00,2.673225e-01,-1.309750e+00,9.204803e-01,2.074580e+00,6.369371e-02,-3.536104e-02,3.940530e-02,2.983889e-01,-3.662946e-01,-2.000266e-01,1.800050e-02,-5.815673e-02,8.924596e-01,1.349390e+00,6.356079e-01,2.339163e-01,-7.139855e-02,9.251851e-01,-5.021490e-02,7.662859e-01,7.231560e-01,-1.173834e+00,5.783423e-01,-5.088240e-02,-4.637917e-01,4.371287e-01,-7.370948e-01,
3.364598e-01,-2.605794e-02,-1.215474e-01,3.625376e-01,-1.523870e+00,-4.414206e-01,4.052733e-02,1.724426e+00,-1.003654e+00,-1.092356e-01,-4.766775e-01,-7.751296e-02,-8.600355e-02,-1.073688e+00,2.355733e-02,5.766786e-01,8.053140e-03,-7.345499e-01,2.633583e-01,1.649443e-01,-5.044431e-01,1.845754e+00,-2.262334e-01,1.532023e-01,-6.479532e-01,1.870342e-01,-8.635227e-01,2.729378e-01,5.046869e-01,3.668730e-02,-6.318685e-01,8.141045e-01,7.062944e-01,-3.426220e-02,-4.522336e-01,8.287519e-01,-1.286925e+00,2.158380e-01,9.992860e-01,8.473236e-01,-9.209827e-01,2.842100e-02,-1.459422e+00,6.424212e-01,-6.501678e-01,-5.846883e-01,-5.802958e-01,2.399103e-01,-3.262897e-01,-3.766846e-01,
1.113175e+00,2.713777e-01,-1.481434e-01,5.737169e-02,-3.898016e+00,2.167482e-01,4.139350e-01,6.439109e-01,1.247513e+00,7.005556e-01,9.390983e-01,-1.585985e+00,-9.463875e-02,4.235315e-01,-1.964971e-01,1.557960e-01,-2.040250e-02,6.067123e-01,5.117097e-01,-1.040729e-01,3.052711e-02,1.073990e+00,-1.233029e-02,7.013150e-01,-1.387411e-01,-1.338421e+00,1.119495e+00,-3.886345e-01,3.068071e-01,8.652430e-03,-3.876083e-01,2.192414e+00,4.099428e-01,4.241510e-02,3.805113e-02,-2.539697e+00,5.198828e-01,3.752196e-01,2.932469e-01,2.776345e+00,9.343753e-01,4.244680e-02,-5.729684e-02,2.097089e-01,-8.183569e-02,4.161218e-01,2.407539e+00,-4.973772e-01,1.006940e-01,-2.560194e+00,
2.734660e-02,-1.789165e-01,-2.129024e-02,-3.106901e-01,-1.056365e+00,-4.661070e-01,-6.605224e-01,-7.499660e-01,4.665822e-02,1.682782e-01,-6.486599e-01,1.469274e-01,7.200901e-02,-2.748913e-01,-2.638850e-02,-1.716092e-01,4.587110e-02,5.388434e-02,-4.354993e-01,5.666227e-02,3.194454e-02,1.671420e-01,3.792822e-02,-8.366544e-01,-2.376713e+00,6.229085e-02,2.481656e-01,2.151332e-01,5.046722e-01,5.249190e-03,-1.855327e-02,1.641497e-01,1.889235e-01,-2.043670e-02,4.472937e-01,3.371040e-01,9.139954e-01,8.166460e-02,1.919764e-01,8.172911e-01,-2.133071e-01,-2.923090e-03,-1.308590e-02,-4.690460e-01,1.007084e-01,-5.685228e-02,3.932502e-01,8.878640e-01,1.200996e-01,2.064499e-01,
-4.254330e-02,-2.670450e-02,-8.040360e-02,-2.249200e-02,1.970590e-02,2.696480e-02,-4.743860e-02,-4.784610e-02,2.276610e-02,1.310160e-02,1.069270e-02,-1.464380e-03,-3.663550e-02,2.029850e-03,3.620990e-02,-3.732980e-02,-3.425350e-02,-5.583800e-02,-3.494610e-02,1.504560e-02,-6.835910e-02,-2.877470e-02,-5.117200e-02,-3.028840e-02,-1.495650e-02,1.309080e-02,1.238480e-02,3.834990e-02,-4.469220e-02,-2.706750e-03,2.591930e-02,-3.320440e-04,-2.664090e-02,2.290760e-02,-4.195780e-02,-3.035000e-02,3.300440e-03,-3.002180e-02,-3.230570e-02,-2.220970e-02,-4.396460e-02,2.504800e-02,-4.513010e-02,-4.841310e-02,2.364810e-02,-1.166260e-02,3.523320e-02,-1.896400e-02,-2.464730e-02,3.197550e-02,
-6.995238e-01,3.269088e-01,2.078248e-01,-1.016919e+00,-1.038753e+00,3.352500e-01,-3.390222e-01,2.736007e-01,1.441506e-02,9.066669e-01,6.659563e-01,-9.499816e-01,1.404355e-01,1.064994e+00,8.760123e-01,1.274839e-01,2.850320e-02,6.090099e-01,-1.483461e-01,8.273543e-01,2.094162e+00,5.945392e-01,-1.006026e-02,4.852670e-01,-4.401577e-02,-4.412531e-01,-7.849337e-01,4.331710e-01,1.447813e-01,-5.158690e-02,-4.146853e-01,-1.389902e+00,1.823478e-01,2.161770e-02,-6.720935e-01,4.464581e-01,-1.659305e-01,2.733774e-02,1.177965e+00,8.191690e-01,4.036344e-01,8.525250e-03,-1.075280e+00,-7.394816e-01,-9.458998e-01,-4.848896e-01,-2.443981e-01,-1.055339e+00,9.725332e-01,-1.247445e+00,
6.330716e-01,-7.108719e-01,-1.748708e-01,4.277455e-01,-1.604324e+00,6.807263e-01,-3.866449e-01,3.203438e-01,1.314162e+00,8.154451e-01,-1.073996e+00,-3.215611e-01,-2.040791e-01,-4.020692e-01,8.865754e-02,3.032984e-01,6.435450e-03,3.658888e-01,-1.265353e+00,-6.182047e-02,-7.331691e-01,-1.950891e-01,2.074824e-01,1.813166e+00,-8.985526e-02,-7.704344e-02,-5.758801e-01,6.891491e-01,-2.747093e-01,-1.282690e-02,-4.326512e-01,-2.511915e-02,-3.397956e-01,4.142280e-02,7.401780e-01,5.570807e-01,-5.287449e-01,3.231838e-01,-9.742872e-01,-7.115918e-02,-1.236515e-01,-1.689300e-02,-5.438805e-01,-1.224080e-01,2.381052e-01,4.042764e-01,6.218893e-01,-9.669349e-01,-9.775059e-02,2.395843e-01,
-1.427362e-01,-3.776090e-01,-4.698527e-01,-4.284275e-01,-3.387414e-01,-3.160546e-01,-5.011539e-02,6.011561e-02,-3.769880e-01,-9.073825e-02,1.259851e+00,-3.382617e-01,-8.809111e-01,-1.343251e-01,-9.025778e-02,3.132386e-02,3.376330e-02,1.328076e-01,-1.213954e-01,1.859916e-01,-9.736435e-02,3.840356e-01,2.766815e-01,-1.096580e-01,2.078537e-01,-1.122583e-02,2.121905e-01,5.097668e-01,1.165013e-01,-2.368650e-02,-7.794458e-02,-1.653666e-01,-3.542952e-01,4.420540e-03,1.829475e-01,2.584794e-02,-1.177367e-01,-8.406780e-02,8.524428e-02,-6.077443e-01,2.888089e-01,3.653710e-02,2.214691e-01,-9.833518e-02,-3.572093e-04,1.797364e-01,1.640542e+00,1.738937e-01,2.053707e-01,-1.873721e-01,
-4.050700e-01,-4.058045e-01,-8.299535e-01,3.806356e-01,-4.713269e-01,-5.297732e-01,1.414047e-01,-4.595730e-01,-3.553580e-01,-2.280280e-01,1.448426e+00,8.156550e-02,-1.740019e+00,-2.792859e-01,1.029829e-01,-1.825371e-01,-1.113740e-02,-1.829778e-01,-8.195294e-02,4.830298e-01,1.494081e-01,-1.830790e+00,-1.599880e-02,1.050824e-01,1.338339e-01,3.151926e-01,-5.295281e-02,7.009564e-01,9.074984e-02,6.255350e-02,-7.910131e-02,-5.132109e-02,5.895926e-02,4.564290e-02,5.613273e-01,-4.545468e-03,2.685982e-01,2.838105e-01,1.160647e-01,-7.382736e-01,-1.301350e-01,5.324900e-02,9.291314e-02,-1.536651e-01,4.490274e-02,-3.743077e-01,4.883611e-01,-7.298163e-02,1.500745e-01,6.556740e-02,
-6.928922e-01,8.804417e-01,1.902940e-01,6.905359e-01,-1.912500e-01,-8.417201e-01,4.705906e-02,-1.599505e-02,-1.010633e+00,-8.355109e-01,5.169641e-01,7.727783e-01,1.583795e-01,1.464516e+00,4.651314e-02,-2.076372e-03,1.675630e-02,3.740784e-01,-1.060897e+00,1.465378e-01,3.590365e-01,-1.412089e+00,-1.360725e-01,-1.831776e+00,-3.359057e-01,5.629676e-01,1.255973e+00,-2.374792e-01,-8.904783e-01,5.027890e-02,8.028356e-01,1.188980e-01,2.913320e-01,1.045230e-02,5.194625e-01,9.471405e-01,-4.157765e-01,5.713617e-01,1.116346e+00,5.286680e-01,1.152954e+00,-4.429610e-02,3.817248e-01,6.567446e-01,-1.415708e-01,-1.535377e+00,-4.603139e-01,9.928809e-01,1.636510e-01,1.165189e+00,
3.558110e-03,6.797570e-03,-5.483600e-03,4.818050e-02,-3.970410e-02,-4.164650e-02,2.530880e-02,-1.796240e-02,-4.544880e-02,-4.551730e-03,-3.674030e-02,-1.537330e-02,-5.311510e-02,3.909020e-02,-5.925250e-03,-1.204960e-02,4.406740e-02,4.719710e-02,-5.157250e-02,1.890200e-03,-4.977100e-02,3.201570e-03,-4.201450e-02,2.489980e-02,2.471760e-02,3.460640e-02,-3.170980e-02,-6.748350e-03,-3.873110e-02,-1.753160e-02,2.890920e-02,3.748160e-02,7.683170e-03,-3.880950e-02,-2.146660e-02,-4.540710e-03,1.700450e-02,1.658630e-02,-4.305020e-02,-3.567380e-02,-3.177440e-02,2.800990e-02,2.958880e-02,-5.596670e-02,1.850850e-02,-1.973290e-03,-1.224850e-02,9.197250e-03,-1.154070e-02,1.991920e-02,
3.221080e-02,-9.526370e-03,1.736270e-02,-4.428790e-02,7.186960e-03,-3.365740e-02,-5.262850e-02,-4.539590e-02,-1.238180e-02,-3.768860e-02,-6.964240e-02,-1.912410e-02,9.917560e-03,-7.823990e-03,3.585440e-02,5.106350e-03,-2.241280e-02,-2.598570e-03,-4.684590e-02,1.959810e-03,-1.744760e-02,1.240130e-02,-4.075300e-02,-2.926070e-02,-4.248580e-02,1.637340e-02,1.835140e-05,4.567490e-03,-2.489480e-03,4.255500e-02,3.174340e-02,-2.285330e-02,-1.414860e-02,3.974130e-02,-5.483820e-02,-3.230970e-02,1.512880e-02,1.320660e-03,-5.507510e-02,8.206260e-03,-4.060280e-02,1.979650e-02,2.201640e-02,3.841140e-02,-3.075730e-03,-4.271750e-02,-1.652040e-02,-2.873360e-02,2.483770e-02,-1.648880e-02,
-2.815623e-01,1.494975e-01,-6.221158e-02,7.529934e-01,-2.198987e-01,8.352988e-01,-3.776415e-01,-6.602462e-01,2.684616e-01,-1.337277e+00,7.403020e-01,3.888615e-01,-8.537697e-03,6.667016e-01,-4.107413e-01,-9.032461e-02,-3.745250e-02,-1.507487e-01,-1.587288e+00,-1.860093e-02,1.179156e+00,5.468235e-01,-1.922420e-01,6.279650e-01,1.193892e-01,9.666441e-01,8.674226e-01,-4.403175e-01,-5.316063e-02,-1.061490e-02,-4.968007e-01,-6.501341e-01,-5.462425e-01,-1.191510e-02,-5.274885e-01,2.804789e-01,-1.716620e+00,-8.572616e-02,3.162029e-01,-1.671963e+00,2.537947e-01,-1.843330e-02,-7.570550e-01,-5.585118e-03,5.880973e-01,-1.793717e-01,-9.519014e-01,6.864344e-01,-2.402398e-01,-7.826120e-02,
9.346567e-01,-3.452982e-01,3.624770e-02,1.574058e+00,3.598867e-01,-6.982874e-01,-3.511241e-01,-3.811105e-01,-8.824802e-01,9.522349e-01,-4.648300e-01,2.898626e-01,6.784521e-02,-6.350894e-03,7.874421e-02,3.589792e-01,4.128270e-02,1.020911e-01,6.177697e-01,-6.863191e-01,5.297462e-01,-1.640180e+00,-2.175446e-01,2.935889e-02,-1.279545e-01,-5.892316e-01,4.810762e-01,6.954865e-01,3.112879e-01,3.587380e-03,-2.641670e-01,-1.337542e-01,-2.288767e-01,4.197620e-03,3.783484e-01,5.268221e-01,4.125695e-01,-3.908308e-01,-6.958620e-01,-4.014271e-01,2.434248e-01,1.788130e-02,-1.210029e+00,4.321750e-01,5.832665e-01,-2.310752e-01,-2.738863e+00,-1.433099e-01,3.283517e-01,-1.791395e-01,
-8.756581e-01,-1.075222e-01,-1.158985e-01,7.011439e-01,6.672114e-01,-3.051110e-01,3.867593e-01,-2.714454e-01,2.525834e-01,-2.230853e-01,-2.803185e-01,2.999225e-01,-1.805257e-01,5.500735e-01,-1.316157e-01,-1.162100e-01,6.133980e-03,2.271433e-01,5.248096e-03,-3.692891e-02,5.777851e-01,-8.302270e-01,2.607706e-01,-1.852942e+00,-5.413705e-02,9.304533e-02,1.125721e+00,-4.104136e-01,-1.426320e-01,-1.019910e-02,9.533251e-01,-1.104879e+00,-2.367996e-01,3.821520e-02,1.101686e+00,3.737335e-01,-1.307019e-01,1.967484e-01,-1.131901e-01,-5.292628e-01,9.279482e-01,-3.389010e-02,3.316191e-01,7.252339e-01,-5.067616e-01,-1.524426e-01,1.144176e-01,4.701798e-01,-7.887610e-02,5.354530e-01,
5.155094e-01,-3.125989e-01,2.999443e-01,-5.737891e-01,-9.618774e+00,-9.332754e-01,-1.875777e-01,-6.208682e-01,-8.559066e-01,-9.764956e-02,8.285306e-01,-8.258861e-01,3.127671e-01,-1.068493e+00,-3.085787e-01,7.293525e-02,-2.468330e-02,-5.409932e-01,-4.039637e-01,-1.634051e-01,1.016433e+00,-9.592706e-01,3.609562e-01,9.381004e-02,7.953245e-02,3.955328e-02,1.064001e+00,6.302345e-01,-2.353303e-01,-3.060240e-02,1.488631e+00,1.386192e+00,3.053195e-01,5.372380e-03,2.803290e-01,7.635455e-01,-1.176211e+00,4.450671e-02,-2.579308e-01,3.346921e-01,-4.162537e-02,-6.355190e-03,3.903461e-01,-8.345908e-03,6.703597e-01,-9.257669e-02,7.908863e-01,-2.968233e-01,-9.705980e-02,-7.461054e-01,
-6.352792e-01,6.314825e-01,1.879306e-01,-9.615939e-02,-8.276470e-01,-1.041973e+00,-8.386968e-01,5.682824e-01,-1.568162e+00,3.825600e-01,7.795653e-01,-6.529102e-02,2.430382e-01,1.594512e+00,-8.424653e-01,-1.271258e+00,9.975030e-03,3.641963e-01,-2.561754e-02,4.232222e-01,-1.063085e-01,5.660972e-02,-8.258784e-01,1.577107e+00,1.019531e+00,1.696523e+00,-4.636886e-02,7.702696e-02,-2.268211e+00,4.179130e-02,-4.347062e-01,-1.092719e+00,2.152524e+00,-1.491500e-02,5.330268e-01,-6.308667e-01,2.718476e+00,5.127602e-01,-1.550725e+00,5.233538e-01,-2.027981e-01,-3.142350e-02,1.128500e-01,8.665774e-01,-1.996577e-02,-1.112645e-01,9.281989e-02,-2.822604e-01,-2.348468e-01,1.185110e+00,
-5.011865e-01,-6.230328e-01,1.371518e-02,8.157928e-02,2.431574e-01,4.808984e-01,1.319667e-01,2.326190e-01,-2.662977e-01,5.577579e-01,-4.479581e-01,-7.554024e-01,5.067746e-02,1.721367e+00,-3.159159e-01,-3.104430e-01,-5.213310e-02,-4.462788e-01,3.668047e-01,1.524298e-03,3.317785e-01,1.163342e+00,7.844320e-01,8.104990e-01,4.746647e-01,1.759300e+00,-1.326082e-02,2.467920e-01,-5.090154e-01,2.919500e-02,6.887947e-01,1.560876e+00,-3.871502e-02,-3.140650e-02,-2.013286e-01,-5.261899e-01,-3.626068e-01,-3.106939e-01,9.168115e-01,2.770399e-01,6.095127e-02,-1.267970e-02,3.757370e-01,-4.911576e-01,-3.118349e-02,2.179811e-01,-2.995497e-01,-9.021191e-03,-1.639720e-02,8.907106e-01,
2.330590e-03,-2.072590e-02,3.152980e-02,-1.057810e-02,-2.688700e-02,-5.141500e-03,-8.374110e-04,3.437720e-02,1.770490e-02,1.857950e-02,3.425060e-02,-5.029640e-02,-3.631980e-02,-5.394250e-02,-3.945480e-02,2.599890e-02,1.357200e-02,-4.451030e-02,-3.567560e-03,-5.456440e-02,-5.026980e-02,2.246490e-02,6.163800e-03,-4.126530e-02,-6.531280e-03,3.865130e-03,-5.227390e-02,-5.412230e-02,-3.565410e-02,-2.060980e-02,2.822930e-02,2.185110e-02,-2.615100e-02,3.566920e-02,3.230350e-03,2.513000e-04,-5.346080e-02,2.134500e-02,3.632700e-02,-1.979420e-02,1.561760e-02,-3.778560e-02,-2.493980e-02,-3.288100e-02,-1.788970e-02,-5.007090e-02,-5.196390e-02,-2.497470e-03,-5.547580e-02,3.791500e-02,
-7.493394e-01,-4.480629e-02,9.883597e-02,-2.527553e-01,2.756687e-01,-3.999435e-01,-6.618692e-02,-1.535735e-01,-3.225857e-01,-8.995482e-01,2.174038e+00,1.048919e-01,6.818395e-02,-7.298552e-01,-3.727331e-01,-4.340822e-01,-9.896620e-04,6.500495e-01,-8.163729e-01,9.696441e-02,-2.685902e-01,-3.044436e-01,-6.693764e-01,-1.434527e-01,3.127979e-01,3.301235e-01,-1.153799e-01,2.804733e-01,-5.456289e-02,5.877960e-02,-3.844768e-01,-1.108290e+00,-6.119201e-01,1.575930e-02,-6.217747e-01,1.877721e-01,3.986404e-02,-3.134195e-01,5.666932e-01,-4.768263e-01,-6.800178e-01,2.932330e-02,-1.492661e-01,-1.438508e-01,3.504383e-01,-4.860353e-01,-1.075599e+00,3.965669e-01,4.307746e-01,-3.299702e-02,
-7.516226e-01,-5.344984e-02,5.688982e-02,-2.111006e-01,-2.021824e+00,-1.080981e+00,5.127040e-01,-3.003789e-01,-5.279353e-01,-1.005090e+00,8.275431e-01,3.437515e-01,1.355608e-01,2.979587e-01,3.270477e-01,5.577031e-01,-2.453500e-02,-8.814131e-01,-1.013386e+00,-8.098297e-01,1.635418e+00,-1.963004e+00,1.681857e-01,-1.809731e+00,1.084160e+00,3.581740e-01,-1.357482e-02,-3.705359e-01,-3.605270e-01,-5.952900e-03,8.439615e-02,4.530663e-01,1.117420e-01,5.786520e-03,3.581889e-01,3.653310e-01,-3.432585e-01,-4.805853e-01,1.305608e+00,-3.593867e-01,4.098460e-01,-3.142780e-02,3.413139e-01,-7.915697e-03,-4.809264e-01,-2.335017e+00,-5.844156e-01,9.902839e-01,-1.402157e+00,1.312197e-01,
6.803723e-01,1.015828e+00,-1.093929e-01,-3.797815e-01,2.336252e+00,-1.676208e-01,9.157684e-01,1.678264e+00,-5.288053e-01,9.952751e-01,2.579213e+00,1.470305e+00,-2.190369e-01,9.340879e-01,7.843612e-01,-3.652791e-01,3.103490e-02,7.929097e-01,-1.931947e+00,-2.593138e-01,3.798321e-01,-9.284942e-01,9.530504e-01,-5.629723e-01,-9.571350e-01,6.293949e-01,9.923092e-01,-3.877714e-01,3.880717e-02,4.632370e-02,2.298759e-02,9.649549e-01,9.318792e-01,8.689770e-03,1.311611e+00,1.368044e-01,-1.848613e+00,1.532591e-01,1.575715e+00,1.890084e+00,7.612223e-01,-3.189440e-02,-1.498583e-01,-6.259947e-01,3.633901e-01,-9.749320e-01,1.247061e+00,-5.269307e-01,4.143319e-01,7.345229e-01,
8.121001e-01,-8.367484e-01,-3.524572e-02,-2.435882e+00,-1.833227e-01,1.612295e-01,1.455558e-01,-1.721674e+00,9.902069e-01,-3.681363e-01,-2.627590e+00,6.464219e-01,1.003106e-02,9.317541e-01,-1.202275e+00,-1.228606e+00,1.298760e-02,8.708605e-01,-6.915928e+00,-1.415236e+00,7.421146e-01,-3.741609e+00,6.885649e-02,-1.381715e+00,1.117623e+00,5.531164e-01,9.418157e-01,-1.700316e+00,-3.730960e-01,2.711310e-02,-2.014427e-01,3.322621e-01,4.041759e-01,2.546210e-02,-1.228037e+00,1.745085e+00,-3.121868e+00,-2.035037e+00,4.494490e-01,4.016692e-02,9.927624e-01,-8.354890e-03,1.076453e+00,-3.046279e+00,-2.724555e+00,-2.750046e-01,-1.002735e-03,2.084247e-01,-6.842167e-01,6.289782e-01,
-1.065753e+00,2.030735e+00,2.571909e-01,6.521986e-01,-9.012974e-02,-1.336696e+00,1.185505e+00,3.110914e-02,-8.188350e-01,-9.569232e-01,-7.994907e-01,-4.777058e-01,2.717373e-01,2.777636e-01,-3.588353e-01,-8.953919e-01,-4.946740e-02,2.726533e+00,1.095434e-01,2.413146e-02,1.935379e+00,-2.374012e-01,-1.335963e-01,-3.755820e-01,4.020275e-01,-7.122885e-01,2.133184e+00,-7.093273e-01,-6.578017e-01,-3.867600e-04,-7.919070e-01,8.996610e-01,-1.309204e+00,2.808040e-02,-5.413454e-01,-9.815128e-01,-7.345535e-01,-4.172685e-03,-2.121285e+00,-1.565691e+00,1.071799e+00,-3.054750e-02,8.903672e-01,-7.509141e-02,-5.858312e-01,-1.056866e-01,6.588892e-01,1.011706e-01,-7.570577e-01,1.236962e+00,
1.294004e+00,3.022447e-01,3.148422e-01,8.680221e-01,-5.730228e-01,9.426053e-01,-2.442983e-01,1.522107e+00,1.670588e+00,1.209694e+00,4.240765e-01,9.224031e-01,3.657464e-01,3.885052e-01,2.231345e-01,1.226606e-02,-8.386310e-03,8.590961e-01,1.445610e+00,1.274541e-01,1.504437e-01,5.307205e-01,1.538282e-01,-4.754281e-01,-2.685257e-01,1.345553e+00,1.384724e+00,-2.663439e-01,9.377356e-01,1.695040e-02,-4.216610e-02,1.626340e+00,1.081365e+00,3.685100e-02,3.210648e-01,1.259590e+00,-9.569479e-01,2.197591e-01,1.547614e+00,6.681204e-01,1.205612e+00,2.841720e-02,-1.009690e-01,7.386435e-01,-4.696876e-01,6.067572e-01,-1.901154e-01,1.611879e-01,1.273897e-01,1.000702e+00,
-5.820327e-03,1.025895e-01,-1.849733e-01,9.027663e-01,-9.619266e-01,1.166034e-01,-3.390823e-01,-8.320683e-02,5.088624e-01,-2.755058e-01,1.731914e-01,-1.708471e-01,-1.113618e-01,6.323015e-01,-1.457816e-01,-2.381821e-01,-2.924670e-02,-1.873786e-01,3.413670e-01,2.109742e-01,1.853437e-01,3.521964e-01,-3.324089e-01,-7.860096e-01,-1.319459e+00,-1.342139e-01,-2.727171e-01,8.137313e-02,5.291938e-01,1.940020e-02,5.016781e-01,5.823635e-01,-6.469353e-01,2.363840e-02,4.338778e-01,2.925504e-01,-1.108438e-01,2.421253e-01,2.083554e-01,3.982808e-01,-1.526367e-01,1.049140e-02,-2.344286e-02,4.625940e-01,-2.616161e-01,-3.136045e-01,-4.492056e-01,-7.928228e-01,-6.512672e-02,2.506460e-02,
2.461220e-02,2.892130e-02,-6.110050e-03,3.288140e-03,-2.882170e-02,1.218840e-02,-2.923870e-02,2.667420e-03,-3.707850e-02,-1.683510e-02,3.838620e-02,-1.393800e-02,-2.714990e-02,1.869260e-02,-4.808460e-02,-1.749720e-02,3.625740e-02,-3.882580e-03,2.764900e-02,-4.940010e-02,2.680540e-02,-1.691840e-02,3.130120e-02,-4.213980e-02,-8.475960e-03,-1.199270e-02,2.837750e-02,1.325410e-02,-9.243410e-03,2.845590e-02,-2.283660e-02,-8.939130e-03,-5.020870e-02,-2.492290e-02,-4.074030e-02,2.391930e-03,3.139740e-02,-4.847560e-02,-4.984600e-02,-3.271870e-02,2.772700e-02,-5.091080e-02,-4.138430e-02,-3.003110e-02,-1.592000e-02,5.037620e-03,8.428440e-03,-4.928850e-03,-8.443150e-03,-1.006690e-02,
-3.208384e-01,3.726031e-01,3.552433e-01,4.194812e-01,-1.366548e-01,-1.007120e+00,7.946893e-01,-1.282396e-02,-2.702924e-01,4.629883e-01,5.394127e-01,9.974230e-01,3.455617e-01,3.062641e-02,-5.961867e-02,-4.338616e-01,2.393730e-02,-7.364497e-01,-1.252067e+00,-4.020825e-01,1.002062e+00,9.332777e-01,4.920772e-02,4.837985e-01,9.340014e-01,7.898732e-01,2.341550e+00,-6.734752e-01,4.601819e-02,7.452870e-03,5.831741e-01,-3.063734e+00,3.096993e-02,2.032740e-03,-9.645540e-01,-5.203058e-01,-3.074494e+00,3.689574e-02,3.260889e-01,-3.136626e+00,1.783825e-01,-1.176400e-02,3.362274e-01,3.264167e-01,5.281977e-01,-4.536361e-01,-6.144574e-01,4.643821e-01,3.443876e-01,-6.536485e-01,
8.109149e-01,-9.851635e-01,-1.171071e-02,3.933624e-01,-7.345389e-01,8.877701e-01,-2.645198e-01,9.966214e-01,4.480569e-01,1.664688e-01,3.419609e-01,6.906397e-02,2.397080e-02,-8.689196e-01,4.315988e-01,6.261322e-01,-1.912280e-02,1.367393e-01,1.165998e+00,1.792936e-01,-2.677347e-01,7.965547e-01,-6.195749e-01,-1.693020e-01,3.614356e-01,-1.075069e-02,-6.482521e-01,3.830707e-01,5.677494e-01,2.289700e-02,4.608319e-01,1.366663e+00,-6.022016e-04,4.306620e-03,2.191106e-01,1.984130e-01,-1.113251e+00,6.234207e-01,5.659527e-01,-1.479087e+00,-3.237614e-01,1.109440e-02,-8.653418e-01,3.905915e-01,-5.955333e-01,-9.741447e-02,-3.900032e+00,-1.739823e-01,1.659045e-01,-6.723705e-01,
-7.511815e-01,-8.268138e-01,-2.003352e-02,4.522431e-01,-2.223016e+00,1.681291e-01,3.641247e-01,-7.793623e-01,-3.342145e-01,-1.142086e-01,-1.743814e-01,9.657594e-01,3.724419e-02,1.457349e+00,-5.418784e-03,-1.478540e-02,3.010560e-02,2.344617e-01,-2.704304e+00,2.562574e-01,-3.200962e-01,-6.923735e-01,1.351697e-01,1.678208e-01,-4.730272e-01,-7.287388e-01,-5.454698e-01,4.580972e-01,-3.669112e-01,2.067540e-02,3.480873e-01,-1.464192e+00,7.089983e-01,-2.095950e-02,-4.890594e-01,2.067763e+00,1.509218e-01,-1.244854e-01,-1.503349e+00,-8.586342e-01,-2.332211e-01,6.004990e-04,3.087070e-01,-1.201479e-01,-1.179704e-01,1.270781e-01,3.052199e-01,-1.555640e+00,5.513790e-01,8.941424e-01,
-2.553115e-01,-7.703483e-01,-1.490998e-01,-9.789103e-01,-2.049253e-01,-5.111978e-01,-1.284191e+00,1.477060e+00,1.799763e+00,6.531694e-01,-3.511399e+00,-4.192857e-01,-1.426459e-01,-9.234438e-01,-6.725057e-01,-3.031208e-01,1.296650e-02,5.141268e-01,-1.335740e-01,-1.205516e-02,-6.546172e-01,-1.255706e+00,-7.059378e-01,-2.143523e+00,-4.257445e-01,1.920926e-01,9.716137e-01,1.032098e-01,3.932838e-01,-1.175260e-02,3.921722e-01,1.232063e+00,-2.959101e-01,-1.300120e-02,-3.252755e-01,1.951067e-01,5.080001e-02,3.518021e-01,-1.610569e+00,5.118821e-01,8.908975e-01,6.127730e-02,1.550612e-02,2.678847e-03,1.406211e+00,9.614642e-01,-1.281196e-01,-1.501052e-01,-3.005466e-01,-1.288069e+00,
-4.710680e-01,-1.766887e-01,-6.679938e+00,5.301797e-01,-5.627044e-01,-1.605700e-02,1.449480e-01,1.912942e-02,-1.133563e-01,5.924010e-03,-2.465441e-01,6.815809e-02,-9.177794e+00,-3.755841e-02,-1.205304e-02,-4.258853e-02,1.727350e-02,-1.470323e-01,-1.319856e-01,1.982598e-01,1.024748e-01,2.889537e-01,1.472864e-01,3.944640e-01,5.920740e-02,1.081320e-01,7.592245e-02,1.594338e-01,2.905211e-02,-9.996240e-03,-1.694064e-01,2.722768e-01,-1.887476e-01,5.276560e-02,3.940333e-01,-1.505469e-01,-5.302959e-02,2.288135e-01,2.390439e-01,-1.222098e-01,-4.840669e-02,-2.364100e-02,8.686547e-02,-3.610462e-01,-9.800223e-02,-1.197130e-01,-1.336225e+00,7.579266e-02,3.351405e-01,-1.960127e-01,
4.189920e-02,-5.277620e-02,-4.576550e-02,-3.277340e-02,1.290480e-03,-4.807140e-02,-6.028190e-02,1.066910e-02,2.016810e-02,3.119720e-02,1.129290e-02,-3.364180e-02,2.414680e-02,-2.442140e-02,8.773280e-03,3.066460e-02,-4.362860e-02,-3.015790e-02,4.080050e-02,1.348500e-02,2.779730e-04,3.435230e-02,-2.446030e-02,-1.734780e-02,1.743420e-02,-7.539110e-03,-1.590110e-03,-3.930840e-02,7.707350e-03,-4.859570e-02,-2.020320e-02,-1.910340e-02,-4.422180e-02,-7.310200e-03,-4.186950e-02,3.594720e-02,1.069730e-02,-5.971250e-03,-3.101030e-02,1.767110e-02,-1.081420e-02,-2.233860e-02,-2.269190e-02,-3.668460e-02,-3.852100e-02,-5.224750e-02,-2.368700e-02,4.312200e-02,-4.441970e-02,-2.508900e-02,
-1.259019e+00,-9.872474e-01,2.433139e-01,-1.047845e-01,-2.807279e+00,-7.715943e-01,9.260002e-01,-1.407880e-01,-6.943398e-01,-1.291002e-02,1.189908e+00,-1.537008e-01,2.221890e-01,1.395427e+00,-3.308455e-01,3.601866e-01,2.060840e-03,-5.108829e-01,4.190746e-02,4.698573e-01,-1.084521e+00,-1.558323e+00,7.085823e-02,5.515970e-01,1.551401e+00,3.167542e-01,-2.431701e-01,-6.201977e-03,-4.594330e-01,-1.996020e-02,3.171766e-01,1.334733e+00,4.468416e-01,3.773510e-02,-4.456712e-01,-2.035195e-01,7.364433e-01,2.292233e-01,9.892641e-01,-3.103241e-01,-2.776157e-01,-3.051670e-03,2.811996e-01,3.540741e-01,5.453899e-01,-3.418075e-01,5.234911e-01,-5.832799e-01,4.873484e-02,2.414482e-01,
7.422516e-01,6.892091e-01,-8.875452e-01,-7.819809e-01,-4.556653e+00,-5.097932e-01,5.517282e-01,-5.712126e-01,-8.618624e-01,-1.706955e-01,1.178141e+00,-1.563922e+00,-8.294114e-01,-4.772566e-01,-4.565937e-01,-4.613203e-01,6.394630e-03,1.300294e+00,-4.910550e+00,-1.611467e-01,-1.318457e+00,1.249040e+00,-3.242532e-01,2.186638e-01,-4.036734e+00,1.185149e-01,-2.749172e-01,-2.606413e-01,3.123764e-01,-1.624790e-02,-6.508708e-01,2.617741e+00,2.206628e+00,2.903630e-02,1.743455e-01,-3.547102e-01,5.582010e-01,2.868658e-01,-2.648008e-01,-6.308767e-01,-1.201779e+00,-4.884510e-02,3.728718e-01,1.579280e-01,3.016798e-01,-7.488215e-02,-2.488379e+00,8.738236e-02,-4.397421e-01,-1.335438e+01,
-5.248814e+00,-9.546133e-02,-1.147526e-01,1.193542e-01,1.958367e+00,-1.285451e+00,7.669964e-01,8.146908e-01,-1.187209e+00,5.257908e-03,9.927592e-01,-3.689235e-01,-2.006995e-02,2.059320e+00,-1.133017e+00,-8.401396e-01,4.700270e-02,-4.368730e-02,2.489028e-01,-6.494501e-01,1.805460e-01,2.077044e+00,3.918034e-01,9.012021e-01,3.714530e-01,1.907429e-01,1.189233e+00,-1.573923e-01,-1.282522e+00,1.763150e-04,2.426671e-01,-3.788761e+00,7.152442e-01,-4.515040e-02,-2.049491e-01,5.282397e-01,-3.722607e-01,-2.632295e-01,4.286826e-01,-1.052388e+00,6.658552e-01,1.494860e-03,6.244724e-01,9.099899e-02,-4.643947e-01,-5.826340e-02,-7.732882e-01,-5.883514e-01,8.269352e-02,3.424899e-01,
-2.702185e+00,-1.570572e+00,9.001245e-02,-4.036857e-01,-3.238593e-02,-2.534419e-01,2.708208e-01,2.398827e-01,-3.624750e+00,4.200005e-01,-5.646776e-01,1.686268e-01,1.789408e-01,1.803935e+00,-5.492443e-01,-1.578329e-01,1.045720e-02,-1.259394e+00,7.079740e-01,-5.865090e-01,4.026105e-02,-4.475850e+00,-2.216742e+00,-5.839005e+00,-9.974257e-01,-9.767605e-01,-3.064468e+00,-5.974236e-01,-3.821351e-01,1.034810e-02,4.494039e-01,-8.306777e+00,-3.614630e-01,-4.060900e-02,4.779423e-01,-1.202371e+00,-3.086898e+00,-1.365161e+00,2.938475e-01,2.101504e+00,-1.669447e+00,5.219560e-02,-2.546452e+00,-7.768493e-01,3.128559e-01,1.189430e+00,-1.503733e+00,1.157795e+00,-5.217708e-01,4.285281e-02,
-1.173266e+00,1.065380e+00,2.215078e-01,2.003414e-01,-4.001747e+00,4.577435e-01,6.850823e-01,-4.517080e+00,-1.922716e+00,-2.952873e+00,8.625853e-01,-1.180248e+00,2.709866e-01,-2.197471e+00,1.186631e+00,-7.573676e-01,9.757870e-03,-2.264238e+00,-4.192396e+00,-5.939760e-01,-1.532758e+00,-4.371938e+00,-2.961548e+00,4.576323e-01,1.258706e+00,-8.101844e-01,-2.379626e+00,4.175489e-01,-1.944986e-02,-3.078910e-02,-3.090097e+00,-4.934716e+00,1.060292e+00,2.830850e-02,-1.855128e+00,1.430932e+00,-2.910167e+00,-1.070190e+00,-7.946081e-02,-9.836022e-01,-3.312257e+00,2.539740e-02,-8.466944e-01,-1.079782e+00,-5.518098e+00,-1.293765e+00,-1.463457e+00,3.281708e-01,-4.910848e-01,-3.495908e+00,
-2.963876e-01,-1.176828e+00,-9.638808e-03,-2.887969e-01,-2.881642e+00,3.128065e-01,8.646591e-01,-4.327274e-01,8.521090e-02,3.381304e-01,-8.643138e-01,-5.081559e-01,5.047829e-02,-4.846905e-01,1.170989e+00,-1.382550e-01,-1.515050e-02,-1.287418e+00,1.676587e+00,8.479241e-02,6.129906e-01,-9.741781e-01,-2.308152e+00,-2.106849e+00,-3.600552e-01,-3.571451e-02,-1.757236e+00,7.507714e-01,-4.076202e-01,-1.256910e-02,8.035830e-01,5.722796e-01,-8.280632e-01,1.673060e-02,-6.783833e-02,-8.822089e-01,7.599048e-02,-4.041182e-01,1.547081e+00,-1.817469e+00,-3.429266e-01,3.040850e-02,-4.887257e-01,2.750062e-01,1.674926e-01,-1.348827e-02,-1.047662e+00,3.823686e-01,5.179570e-01,-7.522666e-01,
-3.168522e+00,-3.751887e-01,-1.166819e-01,-2.204340e-01,-2.246342e-01,-2.084693e+00,4.272000e-01,1.329027e-01,-1.941791e+00,6.880313e-01,4.535471e-01,-1.417563e-01,-9.360245e-02,-3.805148e-01,-1.656432e+00,6.586245e-01,-2.028090e-02,1.976684e+00,-1.530689e-01,-4.193999e-01,2.968444e-01,-9.818092e-01,5.077263e-01,-1.092349e+00,-1.396580e+00,-1.494434e+01,-3.035637e+00,-4.368369e-01,2.915158e-01,4.592550e-02,1.019571e+00,-2.072360e+00,-1.909969e+00,5.225010e-02,6.683956e-01,-2.115334e+00,1.428530e+00,-1.039564e-02,-2.332414e+00,-1.024031e+00,5.918529e-01,4.218880e-02,-1.600769e-01,-3.189568e+00,1.694914e+00,1.038136e+00,-9.797840e-01,-6.618547e-01,1.630067e-02,9.492500e-01,
4.137990e-03,3.701790e-03,4.150390e-03,-3.215870e-02,-3.322630e-02,-2.651780e-02,-3.692610e-03,-3.137400e-02,-3.963160e-02,1.296770e-02,-3.787680e-02,3.512310e-02,1.947930e-02,3.944670e-02,4.113950e-02,1.888760e-02,-7.795370e-03,-1.420140e-02,4.103920e-02,7.076590e-03,-6.076660e-03,2.528190e-02,-8.714030e-03,-5.967920e-02,-3.148170e-02,-2.158030e-02,8.407000e-03,-3.615830e-02,2.101630e-02,-6.277720e-03,2.027180e-02,3.569050e-03,1.333370e-02,9.335660e-03,-5.914920e-02,-8.134760e-03,-2.129300e-02,3.701350e-03,-5.649670e-02,2.665010e-02,3.853370e-02,-2.476860e-03,-4.169620e-02,-1.373450e-02,-4.327600e-02,-1.329990e-02,1.282430e-02,-5.398720e-02,-1.729080e-03,-3.597860e-02,
3.117461e-01,
-1.568695e-01,
-1.142247e+00,
-6.152060e-03,
-6.436270e-01,
7.036095e-01,
-6.569320e-03,
1.422390e+00,
-1.100940e-02,
-1.140703e+00,
-1.232916e-01,
-1.438069e-01,
-2.061343e-01,
-5.279240e-03,
-1.097814e+00,
-5.696682e-02,
2.969176e-01,
-5.178978e-02,
-1.045889e+00,
-3.852720e-02,
-3.023030e-02,
2.023128e-01,
-8.504605e-01,
-1.040868e+00,
-9.221709e-01,
7.451983e-01,
-3.400891e-01,
-1.001840e-02,
2.290488e-01,
8.184003e-01,
-1.080168e+00,
1.637758e+00,
1.133126e+00,
-1.325678e-02,
4.324827e-01,
-8.077300e-03,
-3.230500e-01,
-3.490562e-01,
-1.052524e-01,
4.863895e-01,
7.894195e-01,
-2.062830e-02,
-7.122279e-01,
-2.963364e-02,
5.788012e-01,
1.374650e+00,
7.521779e-01,
5.068536e-01,
4.708888e-01,
-2.512050e-02,
1.770435e-01,5.837470e-03,-6.158844e-02,3.657600e-02,-7.550993e-02,-1.816858e-02,1.711740e-02,-5.924557e-01,3.393700e-02,3.424690e-01,-1.270211e-01,6.607943e-01,2.605915e-02,-1.232170e-02,3.175829e-01,-7.990336e-02,2.244256e-01,3.998457e-01,2.406602e-02,-3.216790e-02,-6.533450e-03,1.484751e-01,-4.460917e-03,4.460200e-01,1.800103e-02,9.505115e-02,3.922173e-01,-3.032150e-02,3.754758e-01,2.840259e-01,2.248251e-01,3.389015e-01,1.494433e-01,-7.770021e-02,-1.389187e-01,-2.065450e-02,-2.349101e-01,-1.200002e-01,8.084523e-03,-7.933617e-02,-1.760933e+00,7.300920e-03,-2.731793e-01,-2.006205e-01,-1.071731e-01,8.229079e-02,-3.302225e-01,-2.210602e-01,-3.139261e-01,3.909180e-02,
-4.338571e-01,1.065499e+00,3.198179e+00,3.130540e-02,-2.063256e-01,6.258115e-01,-4.574060e-03,7.537388e-02,-4.264180e-02,6.101784e-02,2.166766e-01,-3.345418e-01,9.751852e-01,-5.973390e-03,-1.504846e+00,9.589018e-01,-4.524423e-01,-7.792863e-01,8.886392e-01,2.730750e-02,8.250540e-03,-6.911868e-01,1.014238e+00,1.737837e+00,1.048487e+00,-5.040597e-01,-5.961038e-02,4.214930e-02,9.214182e-01,2.925736e-01,-7.397824e-02,9.884321e-01,9.029758e-02,-1.429279e+00,1.890992e+00,2.373680e-03,-4.817453e-01,1.656540e+00,1.713958e+00,1.514630e+00,-1.015235e+00,3.899600e-02,3.798912e+00,1.108383e+00,5.035607e-01,-8.503500e-01,5.373554e-01,-2.461612e-01,3.069900e-01,3.239710e-02,
-2.551823e-01,-1.428525e-01,-5.360802e-01,1.679560e-02,-2.041820e-01,5.049807e-02,-1.678950e-02,5.960733e-02,8.882960e-03,-6.899737e-01,2.095871e-01,-1.565435e-01,-4.930276e-01,-1.692920e-02,5.597629e-02,-5.729482e-01,-8.371706e-02,-6.857775e-01,-6.033974e-01,2.445630e-02,-8.157560e-03,1.803581e-01,-2.483212e-01,2.138582e+00,6.206456e-02,-3.075870e-02,3.698037e-02,3.656230e-02,-9.558563e-01,-2.999955e-01,-1.435657e+00,3.721976e-02,-4.363873e-02,2.168407e-01,-8.366716e-01,2.737430e-03,8.742865e-03,6.655817e-01,-2.627650e-01,8.973310e-01,-2.740282e+00,1.883610e-03,2.623106e-01,8.514775e-02,2.759908e-01,-1.830977e-01,8.046784e-01,2.938630e-02,3.046943e-01,3.765460e-02,
1.319515e+00,-7.961810e-01,-1.020553e+01,-3.016510e-02,-9.468395e-01,6.219289e-01,1.575440e-02,8.622464e-01,2.443800e-02,2.853572e-01,-5.337325e-01,-8.248938e-01,-1.250711e-01,-2.307960e-02,-7.556208e-01,1.145138e-01,5.098936e-02,-1.493410e+00,-1.205505e+00,3.576020e-02,-4.586510e-03,4.426377e-01,-1.265046e+00,-4.254377e-01,-1.208716e+00,1.623997e+00,7.497091e-01,2.550450e-02,-2.277060e-01,-5.074160e-01,-3.223106e-02,1.762781e-01,-2.040591e-01,9.855737e-01,-1.133680e+00,3.398040e-03,8.386327e-01,7.241591e-01,-7.980018e-01,-2.779810e-01,-1.104635e+00,3.381460e-02,5.472310e-01,-1.954581e+00,6.427208e-01,-4.371578e-01,-2.713280e-01,-3.207473e-01,-6.916541e-01,-4.919770e-02,
2.466460e-01,-5.988289e-01,5.288936e-01,8.001980e-03,-1.074474e+00,3.111579e-01,-3.298720e-02,5.473743e-01,7.017610e-03,1.534960e+00,6.312453e-01,-6.811208e-01,-2.090528e+00,5.063290e-02,-3.703265e-01,3.544686e-01,-7.480854e-01,-7.206282e-01,-6.071532e-01,-2.781000e-02,-2.080100e-02,6.087903e-01,2.675123e+00,-2.260390e+00,-1.482388e+00,-1.580315e-01,7.251425e-01,2.087140e-02,-1.520451e+00,6.008657e-02,9.764621e-02,9.466434e-01,6.662926e-01,1.585918e+00,-1.658084e+00,-4.905610e-03,6.347382e-01,1.013190e+00,7.479972e-01,1.990686e+00,-1.824359e+00,8.095340e-04,7.896490e-02,2.198490e+00,-6.117741e-01,-8.342887e-01,-1.814165e-01,-1.789144e-01,1.752834e+00,-2.960860e-02,
1.613017e-01,1.019809e-01,1.408053e+00,9.893350e-03,-3.957476e-01,-6.940303e-01,1.157490e-02,1.786329e-01,-1.842380e-02,7.369627e-01,-2.212228e-01,2.326866e-01,5.596359e-01,3.688730e-03,-2.768592e+00,-2.219386e+00,3.283795e-01,1.075721e+00,-2.925730e-01,1.233800e-02,5.316800e-02,4.040974e-01,-3.862747e-01,5.808797e-01,2.841184e-01,-5.130942e-01,-1.192296e+00,-4.524090e-02,1.123612e+00,2.293747e-01,1.523056e-01,-7.006054e-02,-1.799664e-02,1.202173e-01,-2.480312e-01,-2.927450e-02,4.031850e-01,2.971989e-01,-3.081759e-01,6.475502e-01,-8.147439e-03,2.413980e-02,6.513727e-01,7.073199e-01,-3.044267e-01,-4.214956e-02,3.397056e-01,1.506203e-01,3.230440e-01,-5.105780e-02,
5.750054e-01,-1.192809e+00,-1.156153e+00,3.798390e-02,-2.849365e+00,1.347477e-01,-2.811760e-02,-1.712402e+00,-7.383960e-03,-2.800391e-01,7.414770e-01,-3.424948e+00,-1.280811e+00,3.916180e-03,-1.343893e+00,5.108567e-02,-8.721739e-01,-3.008648e-01,-3.188865e+00,3.668410e-02,6.721020e-03,9.991277e-01,6.388885e-01,-1.601065e+00,-5.549985e-01,1.059517e+00,1.708513e+00,-3.741420e-02,-3.633926e+00,-2.383444e+00,3.407616e-01,2.226223e+00,2.153740e-01,2.666464e+00,9.467796e-03,-4.746670e-02,-1.812598e+00,3.505425e+00,6.626026e-01,-1.114204e+00,-4.471191e+00,-1.695490e-02,-4.250849e-01,-1.327043e-01,9.220803e-01,-6.205809e-01,-3.211186e+00,1.205063e-01,-2.938578e-01,-3.173990e-02,
2.267642e-01,4.911546e-02,1.627826e-01,4.590970e-02,3.029526e-01,1.754430e+00,3.056050e-02,-5.932332e-01,1.583400e-02,4.118249e-01,-8.868827e-01,7.257646e-01,6.716780e-01,-2.132130e-02,3.714590e-01,3.936687e-01,1.862734e-01,2.356480e-01,1.838078e+00,8.662220e-03,4.020470e-02,-6.169355e-01,2.357807e+00,2.117717e+00,-4.774325e-01,-7.786555e-01,1.317722e-01,-3.643230e-02,7.824595e-01,-1.115160e+00,-3.975644e-02,-7.897674e-01,-7.584570e-01,1.537523e-01,1.372716e+00,4.819690e-02,-5.885820e-01,2.391480e+00,-9.650282e-01,-1.093614e-01,3.920897e+00,2.662430e-04,-2.572850e-02,1.010891e-01,8.140986e-01,-2.753685e-01,-2.708753e-01,-2.440728e-01,5.408899e-01,-2.683620e-02,
4.956345e-01,5.327008e-02,-2.010702e+00,-1.583100e-02,3.222085e-01,4.034750e-02,4.455980e-02,7.575646e-01,3.369530e-02,2.597601e-01,-2.423607e-01,8.931269e-02,-6.229846e-01,-1.233030e-02,-5.908669e-01,1.032170e+00,2.889371e-01,6.763483e-01,3.116442e-01,4.783770e-02,-2.927810e-03,3.837893e-01,-4.248580e-01,5.419045e-01,3.237047e-01,-1.479619e-02,2.905578e-01,-1.194760e-02,5.751814e-01,3.512026e-03,-7.767406e-01,-4.864238e-01,3.549604e-01,-9.361473e-02,7.288802e-02,-2.901150e-02,6.223381e-01,-5.537285e-01,-4.860820e-01,2.233691e-01,4.707750e-01,-2.963950e-03,-5.623712e-01,1.565718e-01,7.642923e-02,2.458793e-01,-2.701118e-02,-1.742531e-02,1.329915e-01,-1.376490e-02,
5.439023e-01,9.120125e-01,-1.039507e+00,-2.660790e-02,-7.433088e-01,-2.993306e-01,8.801440e-03,5.671807e-01,2.676930e-03,8.241997e-01,-3.348683e-01,-6.913739e-01,2.899753e-01,1.635660e-02,-3.981012e-01,-2.065553e-01,2.429537e-02,-5.010917e-01,-1.938629e+00,-3.823800e-02,1.467250e-02,-2.737222e-02,-2.800608e+00,8.560356e-01,-1.154369e+00,6.475517e-01,7.045395e-01,4.513370e-02,-5.539104e-01,-3.181391e-01,1.212875e+00,-2.666486e-01,-5.655667e-01,2.545979e-01,-3.447073e-01,-1.897400e-02,6.514710e-01,1.909951e+00,9.757863e-02,-5.973137e-01,1.841980e+00,-3.086800e-02,1.059157e-02,-2.540348e-01,8.898512e-02,-2.838298e-01,8.309135e-01,-8.792532e-01,-4.178548e-01,3.076070e-02,
1.516105e+00,-2.131306e+00,9.394225e-01,6.215180e-03,-1.167805e+00,4.252436e-01,3.526210e-03,1.567607e+00,-2.707210e-02,6.105626e-01,1.399953e+00,2.058022e-01,3.948419e+00,-2.725490e-02,8.357321e-01,-6.633916e-01,-1.946301e-01,8.215744e-01,-1.021211e+00,-3.199590e-02,-6.032010e-02,-8.934279e-01,1.398756e+00,-3.562449e+00,-1.042171e+00,-4.172622e-01,-2.662958e-01,-1.746600e-02,-1.802983e+00,-6.757755e-01,1.363693e-01,6.625240e-02,-4.899391e-04,2.237465e+00,3.255330e-01,-1.576060e-02,-4.315057e-01,-1.498179e+00,-1.274693e+00,9.013634e-02,-7.269950e-01,1.392620e-02,-1.170352e+00,1.531557e+00,-9.689813e-01,2.158533e-01,-5.768446e-01,2.034229e+00,3.278384e-02,4.882970e-02,
9.867465e-02,-1.966814e-01,-4.400297e-01,-2.960810e-02,-5.349482e-01,-9.489588e-03,1.322140e-02,9.716662e-02,1.096090e-02,1.382228e-01,-9.248547e-02,3.261281e-03,-4.641387e-01,-1.744300e-03,-4.762114e-01,6.189092e-01,7.387578e-02,-9.679013e-02,-2.716838e-01,4.690160e-02,-3.374320e-02,-9.679103e-02,-2.914371e+00,-3.627858e-01,2.663857e-01,2.168569e-01,-1.504980e-01,-7.498240e-03,-6.012506e-01,-3.605046e-01,-1.928128e-03,-1.711743e-01,-6.456883e-02,1.573185e-01,-2.492895e-01,-2.280780e-02,-7.267925e-01,3.059494e-01,-8.101998e-02,-6.874397e-01,1.280575e-01,-4.616880e-02,1.012130e-05,1.573909e-01,2.316956e-01,1.890921e-02,1.209903e-01,1.176266e-01,4.774394e-03,-9.285730e-03,
4.020046e-02,2.070162e-01,-6.079901e-01,-3.459610e-02,-1.886428e-01,-3.750272e-01,-9.093800e-03,2.286516e-02,-2.385150e-02,1.645943e-01,-8.453783e-02,-3.036879e-01,-1.944310e-01,2.948540e-02,-2.191618e-01,-2.002240e-01,-4.201738e-01,1.427529e-01,-1.084426e-01,4.281340e-02,5.128400e-03,8.684687e-02,-1.580727e-01,-2.006469e-01,-4.466581e-01,2.769364e-02,3.826985e-01,-4.211830e-02,1.391347e-01,1.608241e-01,-3.650048e-01,-1.071617e-01,4.749680e-02,2.531493e-01,2.497396e-01,-2.358190e-02,4.072403e-01,-2.431258e-01,-1.322165e-01,-2.691982e-01,-4.354536e-01,-1.228460e-02,-2.299939e-01,-2.352926e-01,-1.002931e-01,1.518735e-01,-1.985943e-02,-2.240894e-01,9.697654e-02,5.125230e-02,
-5.450820e-01,3.139030e-01,1.169038e+00,1.597360e-04,7.060797e-01,-3.885088e-01,-2.884260e-02,-7.779509e-02,4.620690e-02,-4.314011e-01,2.094803e-01,1.973827e-01,4.622482e-01,-7.491200e-03,1.146342e+00,-2.144302e-01,2.008756e-01,-2.084140e-01,1.058985e-01,3.150760e-02,-4.370180e-02,3.766085e-01,-6.078871e-02,-4.153232e-01,2.195673e+00,-1.429408e-02,-1.846361e-01,-1.262900e-02,-2.147875e-01,1.017060e-01,5.996550e-01,-3.813973e-01,-5.087333e-01,-8.379340e-01,9.484914e-01,1.958080e-03,1.385808e-01,-1.401474e+00,-2.952424e-02,6.675389e-01,9.987518e-01,3.993430e-02,-8.933902e-01,1.324269e-01,5.481719e-01,-7.929686e-02,-9.488549e-01,6.778834e-01,-2.047553e-01,8.653780e-03,
3.977784e-01,5.656373e-01,-2.359062e+00,-3.289230e-02,-6.727638e-01,-1.395731e+00,8.904560e-03,2.794972e+00,-9.694980e-03,9.391680e-01,-4.898182e-01,-5.634943e-01,1.724466e-01,2.458060e-02,-5.445753e-01,3.234904e+00,6.822150e-01,6.113614e-01,-7.244159e-01,2.939710e-02,4.096350e-02,4.377683e-01,-3.306337e-01,-1.877122e+00,5.378232e-01,3.065426e-01,-8.285643e-01,-3.422890e-02,2.660133e+00,1.515300e+00,-4.511328e-01,8.734174e-02,6.249714e-01,1.670419e-01,1.372769e+00,-3.513240e-02,1.310072e+00,-1.388708e+00,2.613663e+00,5.732539e-02,-1.506218e+00,2.425950e-02,2.204534e+00,1.778154e+00,1.111566e+00,1.476959e-01,2.985119e+00,-1.017725e+00,-2.136230e-01,6.333520e-04,
2.122783e-01,-5.213452e-02,7.454302e-01,2.916510e-02,-2.282432e-01,4.060630e-01,2.176650e-03,-1.162140e-01,-7.806060e-03,2.020746e-01,4.509336e-03,-8.040923e-05,4.858688e-01,-4.438220e-02,9.291555e-02,7.548531e-01,-2.878921e-01,-5.432402e-01,-1.128152e-02,2.641060e-02,-9.314690e-03,-1.519362e-01,1.008115e+00,1.401516e+00,2.748418e-01,-1.425684e-01,-6.974009e-01,-1.782300e-02,6.810470e-02,-4.040851e-01,-9.895524e-02,1.657449e-01,-3.111551e-01,-2.618163e-01,3.516079e-01,2.110610e-02,-2.161557e-01,2.982067e-01,1.764447e-01,2.645958e-01,2.738934e-03,-1.320750e-02,-2.463667e-01,6.145982e-01,2.524549e-01,-4.436976e-01,-1.082772e-01,-2.346761e-02,-4.003443e-01,4.206290e-02,
1.503825e-01,3.721233e-01,2.919797e-01,1.601650e-02,-5.207362e-01,-2.727548e-01,-6.792510e-03,-2.955460e-01,3.100010e-02,6.414837e-01,3.586484e-01,7.827778e-02,1.191859e+00,-4.545520e-02,-8.897574e-02,4.653435e-01,-7.790858e-01,4.212250e-03,1.265668e+00,6.440980e-03,1.097020e-02,3.023084e-01,-4.848930e-01,-4.358715e-01,-3.906719e-01,-8.673907e-02,-9.761446e-01,1.662150e-02,-2.656384e-01,4.492677e-01,-2.326836e-02,2.478213e-01,2.560185e-01,-3.760368e-01,-1.530391e+00,4.672160e-03,-3.405015e-01,2.296031e-01,2.098474e-01,8.238495e-01,5.740075e-01,2.419410e-02,5.985090e-01,9.483153e-01,-7.418312e-01,6.587882e-02,-5.959389e-01,-1.081165e+00,6.863276e-01,-2.354220e-02,
-3.903980e-02,9.349460e-03,-1.502350e-02,1.019080e-02,-1.478140e-02,-5.636810e-03,9.054090e-03,-2.712840e-03,-1.726030e-02,-2.726610e-02,-3.637510e-02,-3.601450e-02,-9.958640e-03,1.872510e-02,2.404590e-02,1.933900e-02,1.965070e-02,-1.340910e-02,4.900010e-02,-2.966660e-02,7.135070e-03,1.854100e-02,-1.955890e-02,1.697550e-02,-2.118020e-02,-6.002960e-03,-1.926580e-02,-4.082030e-02,2.607620e-02,2.504590e-02,-3.018900e-03,-1.615940e-02,1.721130e-02,-2.782750e-02,2.486900e-02,1.708480e-03,-2.096380e-02,-5.140840e-02,-2.308970e-02,-1.791700e-03,-1.078390e-02,2.257150e-02,3.848780e-02,-1.610830e-02,-4.096810e-02,-4.000450e-02,-4.353230e-02,-3.594570e-02,-4.703750e-02,1.574490e-02,
-1.977012e-01,1.944153e-01,-2.283403e-01,-4.336820e-02,4.148484e-01,1.707605e-01,-2.709380e-02,-7.213835e-01,2.494960e-02,1.246084e+00,-9.325643e-01,-8.735617e-02,1.008845e+00,-6.674600e-03,1.963567e+00,9.844338e-01,-1.657014e+00,7.715856e-01,2.433900e-01,-2.128400e-02,1.286630e-02,5.162539e-01,3.559991e-01,-1.005412e-01,1.698961e+00,-5.128275e-01,-9.863972e-02,2.158770e-03,-7.686764e-02,8.327314e-01,2.549796e-01,3.981124e-02,-1.486519e-01,-4.229691e-01,9.487622e-01,-4.494680e-04,-1.294235e-01,-7.661893e-01,4.212030e-01,-9.966095e-01,8.801036e-01,3.573730e-02,9.033459e-01,1.638465e-01,-1.538653e-02,6.056060e-01,-2.582255e-01,8.357894e-02,5.215784e-01,-4.011490e-02,
-8.490139e-02,4.569883e-02,-3.590169e+00,2.913210e-02,1.439588e-01,3.525460e-01,4.082590e-03,-1.749220e-02,-3.225720e-02,9.391751e-01,-3.674168e-01,6.490105e-01,7.318057e-01,1.624510e-02,-4.509193e+00,-4.774714e-01,3.959432e-01,2.720402e+00,6.042765e-01,-3.737150e-02,3.669940e-02,1.008469e+00,-4.252156e-01,6.427711e-01,9.928398e-01,-3.945817e-02,8.718543e-02,2.442950e-02,-8.552828e-01,-2.077300e-01,6.166424e-01,2.665648e-01,-3.169317e-01,-7.247290e-01,-7.250723e-01,1.381370e-02,1.869105e-02,9.490593e-01,-5.379497e-02,4.704331e-01,1.871831e-01,5.628290e-02,-6.922662e-01,1.614588e+00,-4.883579e-01,8.911902e-02,5.965225e-01,-2.353071e-01,3.472318e-01,2.444230e-02,
2.897940e-01,-1.007835e+00,5.456181e-01,3.373690e-03,2.178299e-01,6.623311e-01,2.833310e-03,1.795007e-01,-4.308680e-02,1.226124e-01,-1.615115e-01,-5.155813e-01,-1.944931e-01,-6.756990e-03,7.391751e-01,6.649373e-02,3.580916e-01,-1.556885e-01,1.271280e-02,2.757720e-02,2.871570e-02,1.386224e-01,-2.239343e-02,-9.810577e-01,8.456268e-01,4.589250e-01,-1.064479e-01,-1.507880e-02,5.595079e-02,-2.187216e-01,3.087296e-01,2.747743e-01,-5.774509e-01,9.608695e-02,1.169725e-01,4.601370e-02,9.532410e-02,1.263889e-01,-7.411605e-01,2.247969e-01,-6.898375e-01,4.618790e-02,-5.096637e-02,6.045954e-02,4.552567e-02,3.754329e-01,1.930861e-01,-1.595355e-02,4.796374e-01,3.619090e-02,
-1.269400e-02,-1.126060e-02,-2.957210e-02,3.380900e-02,-1.193810e-02,-2.637110e-02,1.310560e-02,-2.400530e-02,2.734250e-02,3.416240e-02,1.456970e-04,-2.760910e-02,3.805040e-02,-2.486020e-02,3.724500e-02,-4.075960e-02,-4.894200e-02,2.836600e-02,-3.257330e-02,1.648350e-02,4.643210e-02,-4.207480e-02,-2.221230e-02,1.829640e-02,7.547300e-03,2.251000e-02,3.473260e-02,3.219810e-02,-2.069260e-02,-2.087310e-02,-4.513760e-02,-8.595030e-03,-5.117180e-02,-3.802000e-03,-4.872220e-02,-1.257840e-02,1.434600e-02,-5.065060e-02,-3.474960e-03,-2.869860e-02,4.095100e-02,-3.514530e-02,1.481440e-02,9.920240e-03,-4.378610e-02,-1.556350e-02,-6.912530e-03,-2.274720e-02,-4.875940e-03,2.224610e-02,
-1.311537e+00,1.573756e-01,7.442365e-01,-5.315850e-02,4.641375e-01,-3.738494e-02,-4.946140e-02,5.512959e-01,4.020020e-02,-3.266991e+00,5.446420e-01,-6.076683e-02,-4.911624e-02,-2.836040e-02,1.549935e+00,3.288674e-01,1.057803e-01,6.222012e-01,-7.401613e-02,3.916000e-02,-1.337350e-02,-6.152490e-01,1.337985e-01,6.087210e-02,1.350582e+00,1.298535e-01,-8.771805e-02,-2.488020e-02,5.574304e-01,2.983159e-01,-1.321958e-01,1.337958e-01,-2.443041e-01,-3.118243e-01,1.621360e+00,-2.634970e-02,-1.423967e+00,-4.517404e-01,5.913087e-01,6.418649e-01,9.443487e-02,2.497660e-02,8.144719e-01,-6.664596e-01,-7.194055e-01,6.353066e-01,2.751377e-01,-1.989685e-01,8.794841e-01,3.236570e-02,
1.727160e-01,-1.681644e-02,4.414197e-02,5.427930e-03,1.507992e-01,4.447169e-01,2.350270e-02,1.598586e-02,-1.968830e-02,8.671142e-01,-3.041981e-01,5.023355e-01,5.037365e-02,1.144680e-02,6.760730e-01,6.774935e-01,7.283741e-01,3.836404e-01,1.096621e-01,-2.025640e-02,1.497040e-02,9.201703e-01,-2.357357e-01,-1.612572e-01,7.177066e-02,2.162046e-01,-8.632334e-01,1.734010e-02,-9.091398e-01,-2.364115e-01,2.083541e-03,1.807954e-01,-2.312075e-01,-3.547902e-01,-1.061625e+00,2.491560e-02,-8.085724e-02,-2.708844e-01,4.661864e-01,1.212104e-01,1.968099e-01,-3.284980e-02,1.590842e-01,-1.681564e-01,5.316772e-01,3.427617e-01,3.292293e-01,-2.027535e-01,1.076430e-01,-3.971650e-02,
-8.827215e-02,-2.351551e-01,-4.038720e+00,3.468670e-02,-5.489077e-02,-5.598329e-01,4.186520e-02,-4.669192e-01,-2.190080e-02,9.840151e-01,5.894145e-02,-1.321529e-01,1.650588e+00,-5.335280e-02,-6.843792e-01,-9.151527e-01,2.167618e-01,1.217313e-01,-2.934230e-01,4.341570e-02,5.585980e-02,6.228468e-02,-3.513736e-01,1.031786e-01,9.920070e-01,-1.313915e-01,4.492316e-01,-3.036030e-02,-2.890716e-01,4.901744e-01,-1.776255e-01,-8.468015e-02,4.734502e-01,-3.343020e-03,5.059282e-01,-2.767480e-02,-7.835756e-01,-1.112267e-01,1.979164e-01,-1.171822e+00,2.276826e-01,6.238330e-03,-3.616089e-01,-3.800330e-01,-2.916496e-01,-1.381562e-01,-4.890941e-01,5.090372e-02,3.178607e-02,1.952890e-02,
5.045747e-02,-1.669481e-01,-8.735847e-01,8.304790e-03,-1.998406e-01,1.332906e-01,-4.253720e-02,3.444473e-01,-1.500610e-02,-4.173553e+00,-7.709888e-01,2.153651e-01,5.094773e-01,-1.309510e-02,-2.352403e+00,-1.708016e+00,-1.298002e-01,1.071877e+00,-5.453342e-01,-4.397680e-02,2.815330e-02,-8.660604e-01,-2.777785e-01,1.135439e-01,-1.010329e+00,-6.171504e-01,9.459303e-01,-4.200520e-02,-1.679985e-01,-2.170418e-01,-1.276311e-01,2.955154e-01,1.974838e-01,-8.530815e-02,4.339320e-01,2.154730e-02,8.728029e-01,1.122952e+00,9.658768e-02,-8.081781e-01,-3.038920e-01,-2.750990e-04,-1.050666e+00,3.937058e-01,3.526840e-01,-1.704100e-01,2.368439e-01,1.808533e-01,-1.432950e+00,-4.312250e-02,
-3.939744e-01,7.977315e-01,2.715815e-01,-1.323960e-02,1.018958e+00,-2.054127e-01,3.138830e-02,9.953136e-01,2.265110e-02,4.214357e-02,1.348515e+00,3.031879e+00,2.578959e+00,-8.382460e-04,5.807050e-01,1.827091e+00,-3.837202e-02,2.173438e-01,1.985429e+00,4.186360e-02,3.509910e-02,8.553925e-01,3.673674e-01,1.543485e+00,1.008767e+00,-1.041399e+00,1.346058e+00,-1.342250e-03,-1.849410e+00,-1.874386e+00,1.726090e-01,-5.387205e-01,-3.849637e-01,-1.594343e+00,2.019511e+00,-4.525210e-02,6.066265e-01,6.299616e-01,-4.085250e-01,-1.123053e-01,5.684472e-01,-4.011320e-02,2.278647e+00,1.607526e+00,6.816494e-01,1.424357e+00,1.852218e+00,8.857386e-01,1.028982e+00,-5.140930e-02,
1.681412e-01,3.756149e-01,1.072828e+00,7.985060e-03,-5.840352e-01,-3.299623e-02,1.570030e-02,8.791298e-01,3.730200e-02,8.423479e-01,2.242209e-01,2.264524e-01,-6.471419e-01,-3.011290e-02,-9.440339e-01,-4.029821e-02,-1.092730e-01,-7.137859e-01,6.251062e-01,3.394140e-04,-1.938440e-02,5.699390e-01,-5.919421e-01,-1.733181e+00,-9.399878e-01,-1.540496e-01,-1.268894e-01,-7.075280e-03,-5.001824e-01,4.262791e-01,-3.992750e-01,2.453296e-01,3.272143e-01,3.873197e-01,8.770304e-01,-2.380100e-02,-3.501389e-01,-8.890134e-01,1.229933e+00,-1.050866e+00,-1.345410e+00,-4.829150e-03,3.640243e-01,1.860622e-01,3.181352e-01,1.803492e-01,1.845226e-01,6.831734e-01,-1.208948e+00,1.572450e-02,
-2.011390e-01,1.886752e-01,1.707822e+00,8.174160e-03,6.933819e-02,9.449292e-01,5.892710e-04,3.742449e-01,4.410430e-02,-1.033872e+00,3.245658e-01,1.210585e+00,1.626163e+00,3.218560e-02,1.402330e+00,2.229364e-01,-1.465073e-02,1.749881e+00,5.537860e-01,1.409460e-02,4.271490e-03,-3.877719e-01,5.929336e-01,-1.384056e+00,1.204792e+00,-2.070907e-01,-4.598455e-02,3.457180e-02,-7.097857e-01,-6.407555e-01,-2.223216e-01,3.338853e-01,-5.683860e-01,-3.627633e-01,-1.013512e+00,-1.017860e-02,6.359724e-01,7.218358e-01,-5.077762e-01,-9.099785e-01,-1.206875e+00,-1.976200e-02,-1.064842e+00,-6.895663e-01,3.370908e-01,-2.152306e-02,8.038706e-01,5.533302e-01,4.239036e-01,-4.728170e-02,
1.925460e-03,7.546900e-03,-1.178870e-02,1.905090e-02,4.040000e-02,-5.069830e-02,1.557480e-02,1.610220e-02,9.118880e-03,1.541100e-02,-4.205000e-02,-4.590450e-02,-1.349950e-02,-4.276760e-02,-3.561200e-02,1.484980e-03,-4.090240e-02,3.894060e-02,-4.039840e-02,-1.229860e-02,-2.255410e-02,-2.335710e-02,-2.254630e-02,-2.345200e-02,2.041130e-03,-2.030030e-02,3.023500e-02,-2.896920e-02,-4.531720e-02,1.030820e-02,-3.147950e-02,1.241880e-02,-2.840900e-02,1.144670e-02,-4.322380e-02,2.007830e-04,-6.931180e-02,-5.333330e-02,-3.854370e-02,-3.191880e-02,-3.207590e-02,-1.691920e-02,2.506890e-02,-3.777180e-02,-2.169970e-02,-4.734910e-02,5.456430e-03,-5.134690e-02,-4.320850e-02,-4.028430e-02,
-1.107162e-01,-3.298498e-03,-3.195421e+00,1.248930e-02,-1.153081e-01,-4.924809e-01,3.566080e-02,1.333757e-01,-1.262490e-02,1.070903e+00,7.467221e-01,-1.380038e+00,1.225813e+00,-1.279090e-02,1.517318e+00,3.521519e-01,9.634177e-02,-4.984599e-02,4.134388e-01,-2.003090e-02,-3.311940e-02,7.746434e-01,2.320008e-01,1.004990e+00,2.071285e-01,-6.627923e-02,1.311543e+00,3.391270e-02,1.699662e+00,-2.214645e-01,1.879658e-01,9.119001e-01,-3.811785e-03,2.276362e-01,-4.359037e-01,1.148100e-02,1.934700e-01,2.184209e-01,9.841715e-02,7.293233e-02,-7.649029e-01,1.472910e-02,-2.467801e-01,-1.983884e+00,-3.465019e-01,1.717785e-01,7.451770e-01,5.233454e-01,6.715689e-01,-4.842560e-02,
4.648083e-01,-2.358748e-01,-2.959823e-02,3.812980e-02,-5.284323e-01,-4.001805e-01,-4.562920e-02,-3.383230e-01,-2.387310e-02,-1.678275e+00,5.796019e-01,3.247953e-01,-1.325882e+00,1.204210e-02,-8.346148e-01,-5.105318e-01,8.491494e-01,7.702125e-01,-4.962907e-02,-2.835770e-02,3.174050e-02,4.105219e-02,1.779965e+00,6.209632e-01,4.127778e-01,-1.273822e+00,-1.848192e+00,-2.903970e-02,-8.595892e-01,1.035080e-01,2.269279e-01,1.003065e+00,-8.188222e-02,-8.482450e-02,1.762259e+00,-3.168960e-02,-5.082827e-02,-3.532616e-01,-2.866590e-01,9.240568e-01,4.607785e-01,-1.379830e-02,8.499996e-01,1.345324e+00,4.738309e-01,-2.075690e-02,5.865496e-01,5.839626e-01,-1.278731e+00,-3.080730e-02,
-2.420260e-01,-1.818926e-01,-2.418806e-01,-1.256690e-02,-3.820242e-01,-4.285725e-01,3.999650e-02,1.463770e-02,1.037610e-02,6.532544e-01,-9.066218e-02,-5.124843e-01,1.049576e+00,-1.835480e-02,-1.157791e+00,7.507694e-01,-2.104464e-01,-7.581221e-01,-5.974610e-01,-3.716570e-02,-1.833490e-02,-4.845711e-01,-4.741395e-02,-1.950413e+00,1.032086e-01,2.753542e-01,7.813931e-02,-1.678120e-02,4.208171e-01,1.137945e+00,1.574244e-01,3.057966e-01,-5.322509e-03,2.795158e-01,1.305924e+00,-1.237470e-02,2.372455e-02,-6.170228e-01,-4.824540e-02,-1.209919e+00,-6.382418e-02,1.568410e-02,6.746734e-01,-3.158559e-01,2.610351e-01,2.869865e-01,1.123697e-01,-2.004599e-01,-2.578712e-02,-2.287220e-02,
-1.014638e+00,5.213562e-01,4.528156e-01,-2.657890e-02,3.586404e-01,4.652325e-01,3.350630e-03,2.638173e-01,3.355480e-02,4.879015e-01,4.628912e-02,5.811428e-02,7.661898e-01,4.262620e-02,-9.642720e-02,5.765466e-01,-5.684161e-01,4.934011e-02,4.302360e-02,-3.119400e-02,-2.796440e-04,1.388784e-01,7.475051e-02,-4.313257e-01,9.825806e-02,-4.167996e-02,-2.102188e-01,2.219300e-02,4.423282e-01,-6.117057e-01,2.888114e-01,4.094286e-01,-1.740663e-01,-4.824225e-01,1.010369e-01,4.639120e-02,-3.338957e-01,-1.424616e-01,7.022431e-01,-2.511315e-03,2.944935e-01,2.820410e-03,5.994598e-01,-1.285226e+00,2.299172e-01,3.045654e-01,9.239656e-02,4.298458e-01,1.364094e-01,2.312230e-02,
-1.296180e-02,-1.860950e-02,7.170790e-02,2.791310e-02,-7.425270e-02,-2.313610e-03,-1.422100e-03,-2.089890e-02,2.622330e-02,4.235310e-02,7.801680e-03,2.505780e-02,4.195040e-02,1.844800e-02,5.112630e-02,2.580250e-03,-9.291910e-02,-6.867540e-02,-2.173970e-02,3.098240e-02,-2.885040e-02,-6.186440e-02,-1.924180e-02,2.525470e-02,-1.750630e-02,2.237690e-03,-3.049170e-03,-3.624260e-02,3.920120e-02,-4.335410e-02,6.259670e-02,-1.749730e-02,-5.966260e-02,-5.157760e-02,-2.041620e-03,3.581220e-02,-7.982980e-03,-1.049850e-02,-1.542160e-02,4.567880e-02,4.267510e-03,2.494110e-02,2.563240e-02,-4.493270e-02,-1.319910e-03,5.424760e-02,2.670330e-02,2.231430e-02,4.775640e-03,-3.879860e-02,
-2.685721e-01,3.656815e-01,-1.965850e+00,-3.663340e-02,-4.517548e-01,6.163546e-01,-4.730040e-02,1.930755e-01,-8.013240e-03,-1.342434e-01,4.964965e-01,2.824222e-01,-4.077016e-01,5.048300e-02,1.669279e+00,-4.217056e-01,-2.995499e-01,3.887308e-01,-1.395421e+00,-4.727070e-02,8.121740e-03,1.168882e+00,-2.852164e-01,1.564695e+00,-9.702808e-01,7.088587e-01,7.774656e-01,-3.712950e-02,-1.403006e-01,-5.655212e-01,1.300691e+00,-3.092862e-01,-2.852460e-01,-1.031785e-01,-5.746700e-01,2.064040e-03,3.986124e-01,6.553984e-02,2.056904e-01,-1.059828e+00,-8.735143e-01,2.878980e-03,5.602583e-01,5.608843e-02,-8.580399e-01,-1.500475e+00,-4.071996e-01,5.754637e-01,-1.525902e-01,-3.098850e-02,
8.803307e-02,5.655846e-01,8.542536e-01,4.440320e-02,3.220180e-01,-1.663320e-01,4.730150e-02,-2.546240e-01,2.959880e-02,4.667741e-01,-3.965062e-01,-1.145896e+00,1.067527e+00,-2.045610e-02,9.863575e-01,3.408976e-01,8.826776e-01,1.199816e+00,8.325037e-01,-1.510740e-02,-8.984150e-03,-1.607635e-01,-5.113815e-01,1.534504e+00,6.819693e-01,6.812517e-02,-4.602453e-01,-3.924230e-02,1.141535e-03,-5.810055e-01,-3.012648e-01,-2.643354e-01,-6.699070e-02,-6.471022e-01,3.348659e-01,-3.002680e-02,-1.788525e-01,-1.049514e-01,-4.862963e-01,-3.575629e-04,1.186892e+00,4.114400e-02,4.538972e-01,-1.344869e-01,-2.134696e-01,-3.156115e-01,-1.486515e-01,1.371510e-01,-4.410800e-01,9.853380e-03,
5.265107e-01,-4.916233e-02,-2.203078e-01,2.389950e-02,-2.939618e-02,2.343622e-01,-3.430660e-02,5.333603e-01,-2.191300e-02,-2.651241e-01,-1.774851e-01,-1.361985e-01,1.202357e+00,1.069070e-02,9.848052e-01,8.502313e-01,-8.312052e-01,-1.214884e+00,1.402822e-01,-3.591110e-02,-3.434140e-02,6.902887e-01,3.740865e-02,3.282198e-03,8.049568e-01,-2.252592e-01,2.402553e-01,-2.596240e-02,9.758966e-01,-2.365437e-01,-4.694623e-01,-1.356786e-02,-1.665097e-01,1.513024e-01,2.672485e-01,-3.590570e-02,5.087042e-01,1.248226e-01,-7.049537e-01,3.185982e-01,-2.895575e+00,1.777630e-02,2.465729e-01,1.022277e+00,-9.782663e-02,4.296123e-01,8.762835e-01,2.350634e-01,8.632733e-01,2.764430e-02,
3.934432e-01,2.292550e-01,2.484360e+00,-4.635030e-02,-1.873531e-01,-1.727376e-01,5.001110e-02,1.309813e+00,-1.999130e-02,4.918187e-01,-1.763278e-01,8.572105e-03,5.577348e-01,-1.632700e-02,4.491273e-01,4.885375e-01,-6.590720e-01,-1.595445e-01,5.820565e-01,-1.741650e-02,-1.235400e-02,6.932453e-02,-4.604203e-01,-4.236522e-01,1.173413e-01,-3.827527e-01,6.655905e-01,2.978760e-02,-6.234983e-01,2.543178e-01,-3.192907e-01,-1.037034e-01,1.580043e-01,-2.837827e-01,7.982166e-01,-8.749640e-03,-2.611315e-01,-3.612086e-01,-3.296969e-01,1.013560e+00,3.526002e-01,2.320710e-02,2.545019e-01,7.844430e-01,1.802703e-01,2.608450e-01,-6.154402e-01,-6.198650e-02,5.112760e-01,3.560940e-02,
-3.601200e-03,-1.154470e+00,1.028134e+00,-4.089480e-02,-9.193299e-01,-9.991332e-01,-1.174410e-02,3.813201e-02,4.596580e-02,-8.466312e-01,8.851737e-01,1.517388e+00,2.801384e+00,3.036930e-02,-1.246974e+00,3.940149e-01,-8.009627e-01,8.572059e-01,2.001981e+00,2.791650e-02,1.185970e-02,-8.402259e-01,8.754241e-01,-3.557968e+00,2.818316e+00,8.461064e-01,-2.219846e-01,-5.210160e-02,-1.157792e+00,1.661220e-01,1.206707e-01,8.022752e-01,-1.338983e-02,-1.587988e+00,6.537945e-01,9.654770e-03,1.052013e+00,1.199427e+00,7.158300e-01,8.948289e-01,1.252195e-01,4.209450e-02,7.178496e-02,2.142368e-01,-4.414369e-01,-8.000785e-01,1.097910e+00,1.099316e+00,3.671641e-01,-3.954540e-02,
9.547462e-02,-1.955659e-01,4.838961e-01,-1.129190e-02,4.180688e-01,-2.172188e-01,2.137300e-02,-2.874391e-01,-3.407050e-02,2.612729e-01,2.087657e-01,-6.671631e-03,-6.646588e-02,-1.223000e-02,7.652363e-02,1.759868e-01,5.525941e-01,5.613076e-01,1.669565e-01,-3.915230e-02,2.179760e-02,4.220399e-01,4.130719e-01,-6.794275e-01,4.372546e-01,-5.920281e-01,-4.904308e-01,-1.957450e-02,-2.681161e-01,-2.964975e-02,9.864426e-02,1.599618e-01,-9.301646e-01,-4.005727e-01,-4.981277e-01,-2.490960e-03,2.316539e-01,3.947438e-01,2.159903e-01,2.665826e-01,-2.665059e-01,2.762200e-02,3.605673e-01,6.674266e-01,-7.741161e-01,1.571694e-01,2.147811e-01,-1.061328e-01,2.893790e-01,9.489070e-04,
9.459204e-05,-2.833240e-01,1.472800e+00,-2.461720e-02,-2.084159e-01,-1.564670e-01,-2.475330e-02,-6.900175e-01,2.188900e-02,-3.074684e-01,3.180818e-01,-4.013059e-01,-7.453755e+00,3.239720e-02,4.741843e-01,8.948640e-01,-9.576313e-01,2.417647e-02,1.878716e-01,3.699380e-02,4.485560e-02,-2.813008e-01,-3.423978e-01,1.730121e-01,2.407882e-01,-4.155428e-01,-6.691924e-02,1.774950e-02,5.637830e-01,-1.445510e-01,1.861222e-01,-1.541549e-01,-3.385773e-02,3.272385e-01,-1.210993e+00,2.813360e-02,-8.639570e-02,-1.961000e-01,3.383365e-01,-1.757268e-02,-2.952698e-01,-6.243600e-03,2.393438e-01,-1.613476e-01,3.829367e-01,-1.182550e+00,-1.317307e-01,3.392551e-01,1.137007e-01,3.465490e-02,
-1.081391e+00,6.067618e-01,2.738992e+00,-3.132510e-02,4.171937e-01,-7.542978e-01,3.416240e-02,2.964368e-01,-1.480520e-03,-3.081115e+00,-6.212866e-01,-9.238970e-01,1.001889e+00,-3.006450e-02,-2.262695e-02,3.041072e-01,1.513641e-01,8.207321e-01,9.022839e-01,-4.740590e-02,1.057250e-02,3.256360e-01,6.738257e-02,-2.273230e-02,1.009017e+00,2.387837e-01,1.724896e-01,-1.519000e-02,-1.929008e-01,1.269096e-01,-2.985571e-01,-5.583919e-01,1.107363e-02,-1.685215e-01,1.159936e+00,9.418350e-03,1.635171e-01,-5.090391e-01,8.670717e-01,1.297060e+00,-1.594538e-01,-4.438910e-02,1.845291e+00,4.542522e-01,-1.936034e-01,-3.774529e-01,8.058699e-01,8.905478e-01,-2.238401e-01,2.752210e-02,
4.078005e-01,-9.267600e-01,1.611054e-01,-3.873410e-02,-4.280216e-01,5.402948e-01,3.005200e-02,2.645751e-01,-5.177010e-02,-2.491329e-01,1.921889e-01,-2.551037e-01,-1.011004e+00,-1.283410e-02,-4.803866e-01,-8.644708e-02,-1.368004e-01,-1.055842e+00,-1.438216e+00,-5.727580e-03,4.474600e-02,3.711514e-01,1.515775e+00,-1.258418e+00,-1.323016e-01,2.956461e-01,-4.348906e-01,-1.965880e-02,3.618173e-01,1.350514e-02,-1.486872e-01,4.265304e-01,-5.348675e-02,1.046130e+00,-4.113345e-01,-8.140440e-03,-7.581905e-02,-3.247683e-01,9.417978e-01,9.972311e-02,-4.303539e-01,1.909330e-02,-1.871266e+00,1.050565e+00,-1.254856e-02,3.472755e-01,-3.948622e-01,-9.672463e-02,9.823874e-02,-1.758400e-02,
-6.917753e-02,2.010712e-01,1.618747e+00,3.856920e-03,-5.450121e-02,-1.189394e-01,3.966490e-02,-3.507903e-01,-4.106580e-02,5.376388e-01,-3.611517e-01,-2.071397e-01,1.701294e-01,-4.336280e-02,-2.309017e+00,-1.091911e+00,7.365304e-02,2.143003e-01,-2.924748e-01,3.516230e-02,-3.652210e-02,-4.375916e-01,-1.983881e-01,-2.968657e+00,-7.083543e-02,-2.240318e-01,-2.874329e-01,-1.700360e-02,7.188562e-01,4.041697e-01,2.744132e-01,-3.467935e-01,1.721590e-01,-4.194292e-01,2.620933e-01,3.963560e-02,-3.627363e-01,2.080206e-01,-8.533732e-01,-4.993369e-01,-5.227995e-02,2.188830e-03,2.449800e-01,-2.893231e+00,2.472915e-01,6.902478e-02,6.183971e-01,2.032596e-02,-1.579959e-01,5.197470e-02,
-4.493543e-01,-9.267830e-03,1.780522e-01,-3.384320e-02,-1.091025e-01,-2.304941e-01,-5.673500e-03,1.351444e-01,2.937710e-02,-2.519331e+00,-1.379928e+00,-1.234465e-01,-1.262806e-01,-1.834130e-02,1.658849e+00,5.222014e-01,3.886323e-01,-3.086805e-01,-1.751736e+00,8.359660e-03,-1.701460e-02,-4.482232e-02,-4.747217e+00,1.946680e-01,-8.212494e-02,-3.571351e-01,2.180216e-01,-3.806410e-02,8.114902e-01,1.142379e-01,-8.747306e-01,4.354688e-01,-2.667674e-01,-2.451439e-01,-3.452837e-02,-3.578690e-02,8.672721e-01,-3.635685e-01,4.172243e-01,-4.072212e-02,-1.724490e-01,-2.252390e-02,-3.284164e-03,2.765361e-01,-2.657498e-02,-1.982219e-01,9.442964e-03,-1.288759e+00,-6.700729e-02,-6.514120e-02,
1.035194e+00,-8.078599e-01,-4.925221e-01,-2.566790e-02,-1.425944e+00,-3.139146e-02,4.912170e-02,-1.049614e+00,-5.243540e-03,-4.158327e-01,6.142957e-01,7.554930e-01,2.055295e+00,-3.696660e-02,2.794028e-02,1.400739e-01,-3.609075e-01,-9.275913e-01,-1.671498e+00,2.837490e-02,3.918410e-02,-2.531169e-01,3.797174e-01,-1.221981e+00,-1.818450e-01,7.000235e-02,9.383222e-01,5.419930e-02,-1.080885e+00,-4.629833e-01,5.510279e-01,2.053823e-01,-1.881446e-01,1.481475e+00,3.394372e-01,-1.225360e-02,-6.192353e-01,1.100506e+00,6.854345e-01,-5.859119e-01,-2.689814e+00,-3.548700e-02,-1.178202e+00,-6.791905e-01,1.009910e+00,-7.732597e-01,1.338836e+00,2.540885e-01,9.476350e-02,1.332380e-02,
2.729553e-01,4.623966e-01,-6.658238e+00,1.137050e-02,3.573633e-01,-1.402884e-01,-4.195060e-02,7.207696e-01,1.411130e-02,9.028525e-01,-3.753891e-01,-1.276174e+00,1.443243e+00,-1.550950e-02,-2.744424e+00,-1.543442e-01,-1.090891e+00,-1.119778e+00,7.027920e-01,3.167360e-02,1.992670e-02,-4.422632e-01,2.435753e-01,-1.077794e+00,-9.833251e-01,1.390231e-01,-1.102445e+00,-3.011040e-02,9.940100e-01,3.689584e-01,9.114585e-01,5.703750e-01,9.508031e-02,-2.996665e-01,-5.490579e-01,-3.200280e-03,-1.751501e-01,-1.705514e-01,-1.156189e+00,-1.217336e+00,-1.238084e-01,-5.056950e-03,-8.318146e-01,-1.977238e+00,-6.104742e-01,2.555877e-01,-4.396208e-01,-1.380616e-01,-6.439411e-01,9.595150e-03,
6.323184e-01,-3.005740e-01,1.932542e+00,2.551800e-02,2.250271e-01,7.056712e-01,-6.453470e-03,-2.563048e-01,-3.392520e-02,3.592443e-01,-7.295548e-01,-3.398842e-01,-2.856376e+00,-5.537640e-03,1.205125e+00,7.678845e-01,-2.888974e-01,1.029285e-01,-6.564046e-01,2.408630e-02,-1.492030e-02,1.221858e+00,-5.499859e-01,-1.287661e+00,-8.666525e-01,5.721610e-01,6.606165e-02,2.944070e-02,-3.799908e-01,-3.568474e-01,9.430110e-01,-8.277974e-01,2.344803e-01,2.787966e-01,-3.164090e+00,-2.771480e-04,-1.431224e-01,6.950259e-01,3.953909e-01,-8.653763e-03,-2.034685e+00,2.055430e-02,2.759576e-01,2.807312e+00,-5.222090e-01,-6.311319e-01,5.486364e-01,1.012933e+00,2.064067e-01,-4.426960e-03,
-4.947130e-02,-6.325410e-03,8.216010e-03,3.615680e-02,4.122260e-02,-9.316970e-03,-1.458780e-02,-7.915680e-03,-1.235000e-02,3.970830e-02,3.126010e-02,-4.639950e-02,-1.420520e-02,-3.349690e-02,-2.422400e-02,-3.949900e-02,-1.297590e-02,-4.351330e-02,7.475200e-03,-1.188660e-02,-3.903770e-02,-2.401960e-02,-1.904890e-02,3.699690e-03,5.405210e-03,-1.682320e-02,-2.894860e-02,-5.036360e-02,2.598960e-02,-3.522870e-03,-3.109610e-04,-2.093390e-02,-5.768870e-02,-2.561600e-02,-1.926320e-02,-1.364030e-02,-2.520870e-02,-5.452890e-03,-7.201070e-03,2.064200e-02,-4.451650e-02,-1.116410e-02,-2.539350e-02,-1.945990e-02,-8.058130e-03,3.413010e-02,3.026520e-02,1.959400e-02,-2.713120e-02,1.465600e-02,
2.528635e-01,
-1.347134e+00,
5.917627e-01,
-2.239365e+00,
-1.532101e+00,
-3.248273e-01,
-1.765716e+00,
1.545235e+00,
-8.095940e-01,
-5.112774e-01,
9.528859e-01,
6.921662e-01,
1.190877e-01,
3.082429e-01,
1.360894e+00,
6.298817e-02,
-4.458186e-01,
-3.065750e-02,
-1.122041e+00,
-5.126317e-01,
-7.943684e-04,
-1.066140e-02,
-2.905770e-01,
-7.797711e-01,
5.861430e-01,
-2.011893e-01,
-3.061774e+00,
-7.756071e-01,
-1.671860e+00,
-2.278610e-02,
-2.971220e+00,
8.621331e-02,
-6.643960e-01,
-1.898330e-01,
-3.832780e-02,
-5.842621e-01,
1.001586e+00,
9.316471e-01,
-1.727191e-01,
-3.810643e-01,
7.365066e-01,
-5.794613e-01,
-1.233325e+00,
-8.063012e-01,
3.973337e-01,
1.437325e-01,
-1.429678e+00,
-3.649335e-02,
-2.517940e-01,
-9.868250e-03,
3.696883e-01,2.652689e-01,7.021604e-01,-1.636596e-01,-1.518559e-01,1.588373e-01,1.897719e-01,-2.937858e-01,-9.344052e-02,-9.931824e-02,-5.385379e-01,3.527318e-01,4.857214e-01,-1.068979e+00,3.362470e-03,-5.217266e-02,1.020331e+00,1.660700e-03,2.210008e-01,1.165056e+00,-3.404949e-01,2.384240e-02,7.959786e-01,-6.288047e-01,-6.083040e-01,9.642470e-01,6.429322e-01,-3.730411e-01,1.546830e+00,4.677870e-02,-5.019655e-03,-9.842234e-02,3.511927e-01,4.568445e-01,-3.411830e-02,-4.009872e-01,1.099859e-01,-3.643833e-01,-3.338898e-01,-3.335185e-01,-4.717512e-01,7.047080e-01,3.610716e-01,-5.543597e-01,-2.413830e-01,1.407080e+00,-4.283853e-02,-3.207232e-01,4.326237e-01,9.969170e-03,
6.556879e-01,1.761591e-01,1.611521e-01,9.902797e-01,3.024450e-01,-1.056133e+00,-4.533820e-01,-3.726577e-02,-1.271501e+00,9.396160e-03,1.738879e-01,-2.020201e+00,-3.623963e-01,1.602339e+00,-2.183141e-01,8.842099e-01,1.183068e+00,4.813690e-02,-2.315265e-01,-6.029621e-01,1.152294e-02,-2.129790e-02,-1.099271e+00,-3.124436e-01,7.596474e-01,-2.579077e-02,9.386311e-02,-1.087691e-01,4.411574e-01,2.522100e-02,-7.451282e-01,-2.761956e-01,7.261922e-01,-3.851755e-01,-7.537280e-02,6.288493e-02,1.059313e-01,-2.441917e-02,7.945835e-02,-5.060924e-01,-6.593466e-01,1.025074e+00,6.986116e-01,-9.056956e-02,1.044982e+00,1.782832e+00,6.898611e-01,9.202394e-01,-9.254360e-02,-3.704680e-02,
4.861518e-01,3.427896e-01,1.896639e+00,1.377134e-01,-4.481146e-01,-3.256333e-01,-3.450422e-01,-3.249207e-02,-5.240662e-01,-3.124456e-01,-2.084855e-01,5.496363e-01,8.486326e-01,-9.638117e-02,1.242349e-01,2.904352e+00,-8.651080e-01,3.578060e-02,-4.362114e-01,1.100014e-01,-5.253969e-01,-2.666590e-02,-8.543308e-02,-3.463941e-01,1.170638e+00,2.479875e+00,1.229998e-01,6.289429e-01,-6.448557e-01,-1.946390e-02,2.061771e+00,9.608619e-01,4.311136e-01,-8.220307e-01,-4.032020e-02,4.767170e-01,2.063565e-01,5.478359e-01,-1.545498e+00,-2.958886e-01,-8.095438e-01,1.080835e+00,-1.361685e+00,7.606251e-01,-1.620349e-01,-3.816432e-01,-4.961086e-01,-2.370519e-01,-2.412899e-01,-1.498970e-02,
-5.837011e-02,-4.262690e-01,-1.226085e+00,6.462736e-01,3.417222e-01,-4.697843e-01,-7.145274e-01,-3.586631e-01,-2.359479e-01,3.034479e-01,1.100245e-01,-2.520730e+00,5.531639e-01,5.483752e-01,-1.101471e-01,-1.960100e+00,7.649927e-01,2.929660e-02,1.577934e-01,1.396084e-01,1.453856e+00,-6.957670e-03,-6.408311e-01,-5.265297e-01,9.316925e-01,-1.430288e+00,-3.114485e-01,4.125562e-01,-9.261405e-02,-4.355670e-03,1.132922e+00,6.245874e-01,4.514568e-01,7.125152e-01,6.236080e-02,5.360484e-02,-4.726345e-01,-3.992990e-01,8.263488e-01,-5.566018e-02,7.269942e-01,2.541915e+00,1.020462e+00,1.221230e-01,2.501549e+00,-2.042668e+00,3.898168e-02,-1.494913e+00,3.857840e-02,3.537800e-02,
-4.085020e+00,3.881719e-01,1.284587e+00,-4.670238e-01,4.591078e-01,1.017565e+00,3.238969e-01,-7.214274e-01,4.306649e-01,1.191428e+00,1.293357e-01,2.642050e-01,4.967807e-01,-8.311245e-01,5.063184e-01,-1.918920e-01,1.102213e+00,-5.556160e-02,3.044014e-01,1.982184e+00,1.899866e+00,-3.006150e-02,1.138379e+00,-5.980910e-02,-1.897780e-02,2.416990e+00,4.823259e-02,1.067419e+00,3.958697e-01,3.932350e-02,1.150051e+00,2.150915e-01,1.342264e+00,9.579536e-01,3.132760e-02,-7.337080e-01,-3.031390e+00,2.378589e-01,1.511778e+00,-9.736954e-01,-2.915995e+00,2.757494e+00,8.535596e-01,4.552577e-01,-2.121858e+00,1.848776e+00,8.350349e-01,2.851283e+00,4.436808e-01,2.655630e-02,
9.639016e-01,6.607593e-01,-1.050360e-01,-1.086969e+00,-3.194048e-01,2.354286e-03,2.044089e-02,-1.125009e-01,-7.586976e-01,1.696972e-01,1.826827e-01,4.406791e-01,4.420786e-01,-5.848774e-01,-7.980915e-03,1.344320e+00,8.020034e-01,-8.506170e-03,-1.177740e+00,5.711829e-01,1.658825e-02,-4.399570e-02,-7.288072e-01,-1.209329e+00,-1.176546e+00,-1.695746e-01,-5.358869e-01,2.674285e-01,9.550185e-01,3.153720e-02,4.586566e-01,1.594875e-01,4.010985e-02,2.649004e-01,-1.024280e-01,1.504860e-01,3.339550e-01,-4.293748e-01,5.972672e-01,2.215056e-01,1.006679e+00,-1.762774e+00,1.572934e+00,5.076036e-01,1.671931e+00,-3.351370e-01,-1.791523e-01,6.134372e-01,-7.737926e-01,3.636660e-02,
-1.446377e+00,1.260877e+00,9.354917e-01,-4.746022e-01,1.158879e-01,-1.263302e+00,9.419444e-01,-1.009609e-01,-8.660510e-01,2.892818e-01,8.487722e-01,9.621995e-02,1.157465e-02,9.923939e-02,2.761641e-01,9.398779e-01,1.310340e+00,1.756700e-03,-1.152388e+00,-4.465337e-01,-8.379177e-01,-2.550350e-02,1.535460e+00,8.682992e-01,1.383815e+00,-1.142550e+00,-5.203012e-01,-1.649362e+00,-1.518873e+00,-4.804430e-02,-1.614748e+00,3.704628e-01,-1.236475e+00,-3.115505e-01,-5.459940e-02,-7.131687e-01,-1.884085e+00,3.304159e-01,-4.319803e-01,-4.052112e-01,-3.617461e+00,2.641721e+00,-5.946195e-01,-4.316088e-01,2.279431e+00,3.357115e+00,8.661114e-01,-7.631785e-01,-9.699864e-01,-4.668270e-02,
-1.266780e+00,2.238518e-01,7.656198e-01,2.189104e-01,-1.672387e+00,-3.922356e+00,-2.251685e-01,-5.723716e-01,-6.474745e-01,1.641647e+00,5.369917e-01,-2.473108e+00,-1.397552e+00,-4.143178e-01,2.135953e-02,-2.246004e+00,-1.637746e+00,3.864540e-04,-8.287219e-01,-1.761869e+00,-3.580691e+00,1.657620e-02,-3.246757e+00,-1.013426e+00,8.428711e-01,-1.256044e+00,-5.090107e-01,2.671207e-01,-4.355237e+00,3.959820e-03,-1.151517e+00,8.305048e-01,2.257914e+00,-1.319200e+00,-1.591030e-02,1.482362e+00,1.070322e+00,7.302231e-01,-2.145225e+00,9.346935e-01,1.876297e+00,-2.564312e+00,-2.270930e+00,-2.430282e-01,6.820517e+00,-4.874304e+00,3.755615e-01,9.970317e-01,5.232094e-03,1.306880e-02,
-1.053465e+00,-5.111452e-01,2.095136e+00,-7.725550e-02,-3.260740e-01,9.632574e-01,7.730759e-01,-3.834037e-01,3.415920e-01,-2.579972e-01,3.450639e-01,2.057865e-01,-8.554348e-01,9.724920e-01,2.050288e-01,-1.023401e+00,3.715405e-02,1.713290e-02,-1.793270e-01,7.246568e-01,1.183266e+00,-4.272810e-03,2.728363e+00,1.519066e+00,-4.710612e-02,7.623590e-01,7.678329e-02,7.789084e-01,-8.214588e-01,1.976480e-02,4.524733e-01,-4.004529e-03,4.126588e-01,-1.629880e-01,1.465770e-02,6.429322e-01,-1.876385e+00,5.561111e-01,8.900179e-01,-2.159427e-01,-1.541317e+00,-1.884715e-01,1.519420e+00,-8.167909e-01,1.854141e+00,-4.858215e+00,3.263560e-01,2.799140e-01,-1.324499e-01,-2.104140e-02,
1.779501e+00,-5.244533e-01,1.909517e+00,-6.800401e-01,-3.588452e-01,7.450203e-01,-1.072071e-01,-4.240231e-01,-4.202022e-02,1.948133e-01,-9.355872e-01,3.386030e-01,1.323914e+00,-3.761240e-01,-8.611364e-01,2.187515e+00,2.690001e+00,-3.718670e-02,1.981853e+00,-1.640098e+00,1.549637e+00,-2.345390e-02,-6.248335e-01,2.620224e+00,3.000144e+00,1.544609e+00,-8.679520e-01,6.588945e-02,-1.367239e+01,-4.665950e-02,3.365440e+00,1.588030e+00,7.230982e-01,1.482090e+00,4.224670e-02,1.604426e+00,1.044570e+00,8.152185e-02,3.719651e-01,2.428155e+00,1.906134e+00,3.471620e+00,-4.010330e+00,3.526571e-01,1.589416e+00,4.289682e+00,-7.373427e-01,4.705976e-01,-5.662422e-02,-5.046150e-02,
2.737328e-01,1.910664e-01,2.512275e-02,-2.204904e-01,-1.750491e-01,6.379283e-01,3.359233e-02,-1.969333e-01,-3.382275e-01,-4.343626e-01,8.076743e-02,6.905068e-01,9.030291e-01,7.024069e-01,-2.984301e-01,-1.893675e+00,3.214973e-01,3.752170e-02,1.024020e-01,-6.973497e-01,8.362310e-04,1.703320e-02,-2.224022e+00,-1.622974e+00,5.948045e-01,2.991075e-01,3.704596e-01,-7.568146e-02,-1.076000e-01,2.769750e-02,1.555058e-01,-6.327378e-01,4.091939e-01,-3.042672e-01,-2.393260e-02,4.953599e-01,5.771326e-01,-7.563200e-04,4.758855e-01,2.155666e-02,1.332391e+00,1.607498e+00,1.092782e-01,2.458537e-02,-1.251556e+00,3.824038e-01,-4.310834e-02,-9.079062e-03,-4.008017e-01,1.650890e-02,
1.278001e+00,3.773125e-01,5.433560e-01,5.125570e-01,2.117340e-01,1.485915e-01,2.158688e-02,-5.903325e-02,-2.302157e-02,2.792205e-01,-3.164131e-01,-1.447042e+00,1.574169e+00,2.072566e-01,-1.644581e-01,2.160501e-01,-1.310390e+00,-5.339380e-03,-1.066637e-01,5.337529e-01,-9.360372e-01,4.523690e-02,-9.521271e-01,-3.465378e-01,2.479739e-01,-2.461312e-01,1.560774e-01,5.703784e-02,-2.979458e-02,5.029280e-02,-5.376709e-01,-6.135823e-02,4.686060e-01,1.212604e-01,-8.628500e-03,-2.359284e-01,-3.057580e-01,4.218107e-01,-3.935656e-02,-2.006555e-01,4.868893e-02,5.971620e-01,-3.255886e-01,2.793481e-01,-8.359902e-01,8.027947e-01,1.537194e-01,1.511791e-01,2.210226e-02,4.581230e-02,
7.398702e-01,7.862428e-01,1.899179e-01,-7.440389e-01,-8.974787e-01,-3.756170e-01,3.041295e-01,4.447020e-01,-2.740263e-02,-1.943872e+00,-2.683121e-01,9.784636e-01,2.128124e+00,6.865857e-01,-5.298470e-01,8.599568e-01,1.871989e+00,-4.119360e-02,-2.838868e-01,-3.600156e+00,-3.074878e-02,8.745220e-03,2.203279e+00,5.152841e-01,1.288985e+00,1.551519e+00,-1.592564e-01,1.567061e+00,-1.732554e-03,-6.788660e-03,2.337437e+00,7.462314e-01,-2.989855e-01,1.724530e+00,8.707910e-02,-5.112776e-01,-6.703615e-01,2.061182e-01,-3.009419e-01,-2.564358e-01,1.162262e-01,1.726972e+00,2.409642e+00,3.120415e-01,9.842250e-01,-2.081975e+00,-3.480890e-01,-6.878818e-01,-2.169222e-01,-2.461990e-02,
-1.396518e-01,-1.037843e-01,3.689886e-01,-4.630536e-01,9.549146e-03,3.365270e-02,-7.805356e-02,-1.403087e-01,2.398515e-01,1.599481e-02,-1.620667e-01,9.280657e-01,-6.963272e-01,-3.501338e-01,-6.529636e-02,-6.069055e-01,8.243155e-01,8.975540e-04,-5.759667e-01,3.519694e-01,1.717874e-01,-3.933310e-02,1.877536e-01,-1.445059e+00,-2.100383e-01,-8.196542e-01,-3.291738e-01,2.449793e-01,-1.007297e-01,4.042070e-02,1.310983e-01,-2.458028e-02,1.526190e-01,4.796774e-02,1.179330e-03,-5.765827e-02,6.225622e-01,1.390464e-01,4.260527e-01,-3.709690e-01,-1.463959e+00,2.558646e-01,-6.493973e-01,1.240900e-01,1.318147e-01,-7.636400e-02,4.312922e-02,3.000489e-02,-1.015170e-01,-4.992990e-03,
2.892974e+00,-1.377422e-01,5.245880e-01,1.841526e-01,-2.846153e-01,5.146734e-01,-1.377953e+00,2.464112e-02,9.422421e-02,7.980295e-01,-3.058805e-01,1.445419e+00,1.165107e+00,1.547724e+00,-2.680944e-01,2.488806e+00,1.748792e+00,2.055240e-02,8.649925e-01,6.972651e-01,-1.359846e+00,-3.539300e-02,1.097172e+00,5.041019e-01,8.818569e-01,6.312931e-01,-2.991827e-02,-3.415304e-02,2.472915e+00,-1.496320e-02,-2.509436e-01,1.185623e-01,7.947495e-01,-8.628564e-01,-8.116700e-03,-1.861179e-02,-1.022132e-02,-3.172807e-01,4.046552e-01,7.447137e-01,1.091751e+00,-1.215447e+00,2.635457e+00,-4.171318e-02,-1.571652e+00,2.484089e+00,-2.850115e-01,3.631367e-01,-5.191530e-01,-5.213880e-02,
-3.343386e-02,6.767857e-01,2.623392e-01,3.906244e-01,-2.422392e-01,-1.983859e+00,7.187353e-03,-7.380813e-02,8.107856e-01,3.136277e-01,3.285313e-01,9.716467e-01,1.103949e+00,1.585408e+00,-6.578746e-02,2.767766e-01,1.748669e+00,-1.399450e-02,-4.077994e-01,-3.091299e-01,-3.654250e-01,3.622770e-02,7.582172e-01,1.075663e+00,-6.670166e-01,1.575441e+00,1.735303e-01,-1.700748e+00,1.781304e+00,3.860960e-02,9.451174e-02,-5.430426e-01,-1.694704e-01,-7.260606e-01,5.300320e-02,6.996548e-01,-6.589828e-01,7.981552e-02,-5.570936e-01,3.791363e-01,-9.372202e-01,3.851187e-01,4.738974e-01,-9.561784e-01,1.737332e+00,2.246460e+00,9.506617e-02,-2.246399e-01,-1.600512e+00,-4.982370e-02,
6.836363e-01,5.627674e-01,-1.508224e+00,-7.108446e-01,-3.153905e-01,1.172259e+00,-4.446819e-01,-2.484142e-01,4.081720e-01,-5.136973e-01,-1.542669e-01,-2.040370e+00,5.709671e-01,1.447499e+00,-3.387054e-01,8.401926e-02,7.320541e-01,-2.507450e-02,4.995952e-02,9.840403e-01,4.084753e-01,-7.903180e-03,1.290138e+00,4.722140e-01,9.107212e-01,-1.061898e+00,-1.136248e+00,6.025148e-01,1.247540e+00,-1.228330e-02,4.619301e-01,1.451658e-01,4.374498e-01,7.581933e-01,6.667730e-03,1.415953e-02,8.087063e-02,-1.288670e-02,-3.279876e-01,-2.844142e+00,1.572032e+00,4.341234e-02,1.383038e+00,8.045814e-01,8.745404e-01,3.295192e+00,2.395849e-01,-6.548421e-01,5.885344e-01,2.307530e-02,
-1.265868e-01,-6.055097e-01,7.289427e-01,6.110678e-01,1.718602e-01,8.577488e-01,-3.659732e-01,-1.119374e-01,-7.539625e-01,-1.375679e+00,3.642097e-02,-1.610101e+00,1.090740e+00,2.885567e-02,-4.822904e-01,1.072683e+00,4.936751e+00,1.949900e-02,2.499085e-02,-1.542229e+00,1.295615e+00,-2.936900e-02,2.336924e+00,-5.691964e+00,2.575197e+00,2.699012e+00,5.518163e-01,5.454947e-01,-3.455075e-01,-2.754030e-02,3.940688e-01,9.859730e-02,-1.838552e-01,1.612368e+00,-2.652490e-02,1.000074e+00,1.072266e+00,-2.806045e-01,-7.638045e-01,1.040621e+00,6.348620e-01,2.497554e+00,-3.900057e-01,-2.417972e-01,2.021952e+00,1.722403e+00,2.171565e-01,-3.808805e-01,-3.503929e-01,1.231640e-02,
1.542923e+00,-8.040526e-02,9.999127e-01,-4.252166e-01,-4.999987e-01,2.672544e+00,-7.430280e-01,6.852906e-01,-4.231736e-01,1.068734e-02,6.427059e-02,5.062258e-02,3.022645e-01,1.122507e+00,-1.286173e-01,7.176964e-01,1.740869e-01,2.546020e-02,5.212362e-01,1.723216e+00,2.821604e-01,-6.107200e-03,-1.116782e+00,-9.960820e-01,2.224717e-01,6.973556e-01,4.720024e-01,4.887621e-02,9.310247e-01,-1.121750e-02,1.503776e+00,-2.057339e-02,-2.394235e-01,4.794867e-01,3.293970e-02,1.113209e+00,4.920093e-01,-1.363851e+00,-3.714563e-01,-1.465693e-01,2.004048e+00,-1.907209e+00,5.335405e-01,-3.840744e-01,2.977368e-01,-8.521598e-01,-2.440570e-01,-2.727227e-01,5.831575e-01,3.557890e-02,
-1.922435e+00,-3.889080e-01,-1.010784e+00,1.063003e-01,5.281118e-01,-5.218230e-01,4.451322e-01,-4.217137e-01,2.827539e-01,4.745619e-01,-2.247597e-01,-6.421338e-01,2.214355e+00,-9.898708e-01,5.897580e-02,2.771022e-03,4.837549e-01,3.258070e-02,1.416840e+00,2.174549e-01,-1.514110e-01,1.534670e-02,-2.956461e-01,2.022283e+00,5.277728e-01,-3.135394e-01,-3.943796e-01,9.665329e-02,9.743132e-01,-1.664350e-02,1.318906e-01,-6.112184e-02,-5.012025e-01,-3.678355e-01,-1.522130e-02,1.074880e+00,-1.444801e-01,-3.337804e-01,2.157123e-01,3.234972e-01,-2.057882e+00,8.081667e-01,4.846056e-01,8.826193e-01,1.375801e+00,9.642873e-01,7.261540e-01,-2.081213e-03,-5.461303e-01,4.132490e-02,
1.929245e-01,-1.690968e-01,8.928005e-01,-6.441751e-02,-7.251928e-01,7.585160e-01,-2.165182e-01,8.254611e-02,-5.579078e-01,3.345261e-01,-4.273132e-01,-2.720363e+00,2.272250e+00,-1.173065e+00,-7.368773e-02,-2.398541e-01,1.070005e+00,-1.123220e-04,-7.258589e-01,-8.276753e-01,-3.850065e-01,3.434690e-02,1.024325e+00,-1.792759e+00,2.370726e+00,-1.699677e+00,5.565560e-01,1.447825e-01,1.386781e+00,-3.680000e-03,-4.423654e-01,4.450655e-01,1.723961e-01,1.938349e+00,-1.617160e-02,5.945649e-01,5.847142e-01,-1.009749e-01,-1.639690e-01,5.564927e-01,2.314471e+00,2.545782e+00,2.333002e+00,8.604747e-01,-9.799495e-01,2.286040e+00,-4.391002e-01,9.805685e-01,1.048792e-01,1.334400e-02,
1.477931e+00,5.591550e-02,1.602415e+00,1.135777e-01,2.018999e-01,1.432294e+00,-1.103224e-01,-2.395323e-01,7.464940e-01,-3.442189e-01,-4.554866e-01,8.747156e-01,-3.248304e-01,-1.090311e+00,-4.879846e-01,1.414034e+00,-1.400088e-01,-2.893400e-02,9.150575e-02,-4.891204e-02,1.358837e+00,-4.650490e-02,-2.555316e-01,4.726628e-01,-1.803572e-01,-1.382612e+00,1.079750e-01,1.037691e-01,8.152333e-01,-2.625660e-02,9.881790e-01,-9.642231e-01,1.497522e-01,-2.261136e-01,6.961730e-02,3.631369e-01,-1.542488e+00,4.100277e-01,6.673180e-01,8.571542e-01,1.977812e-02,2.771130e+00,-5.129049e-02,6.245417e-01,2.294548e+00,3.247008e+00,5.439563e-02,-2.512193e-01,7.639143e-02,4.423890e-02,
-7.202812e-03,8.858481e-01,-3.086051e-01,-5.268645e-01,-7.506588e-01,-1.873097e+00,3.541448e-01,-5.349908e-01,4.346902e-01,3.357655e-01,-6.779408e-01,-5.028794e-01,2.565427e+00,3.583285e-01,-1.605968e-01,1.975209e+00,1.134219e+00,-2.906520e-02,6.788768e-01,2.462259e-01,1.175340e+00,2.333900e-02,4.541368e-01,1.473753e+00,1.028345e+00,5.994555e-01,7.187492e-01,5.145980e-01,-2.988075e+00,3.597790e-02,7.117068e-01,-5.048504e-01,1.169027e-01,5.460094e-01,-7.229440e-03,-8.992696e-01,8.061077e-02,2.557088e-01,-9.436562e-01,2.488431e-01,6.116021e-01,1.448107e+00,2.551272e+00,-5.747771e-02,1.259409e+00,1.300954e+00,-1.937967e-02,1.841886e+00,3.878470e-01,4.527710e-02,
-3.690679e-01,-4.399945e-01,1.298077e+00,-9.890590e-01,-7.954348e-02,6.258056e-01,-6.367772e-02,-1.012673e-01,-3.302721e-01,-4.189824e-01,5.455680e-03,2.967568e-01,4.197266e-01,4.942082e-01,-1.330719e-01,-1.942560e+00,-1.223305e+00,2.605400e-02,9.254472e-02,1.037789e+00,-3.112036e-02,-1.661880e-02,2.345132e-01,-1.300855e+00,3.671022e-01,-2.166365e-01,-2.440522e-01,1.154236e-01,4.665460e-01,-3.879000e-02,2.143630e-01,5.413863e-04,-5.119124e-01,5.819815e-03,-6.369190e-03,-4.344849e-01,1.651998e-01,2.414179e-01,-9.053475e-02,3.681600e-01,-2.048522e-01,2.729654e+00,3.134142e-01,3.609589e-01,-2.525519e-03,1.466241e+00,-1.629246e-01,-2.851029e-01,-5.598341e-01,4.332780e-02,
-1.879093e-03,1.387503e+00,7.067102e-01,1.790853e+00,-9.202880e-01,-8.774649e-01,2.026177e+00,6.517138e-01,1.906823e+00,-7.026831e-01,-3.915752e-01,3.268675e+00,8.869392e-02,6.163481e-01,4.180745e-01,1.676094e-01,4.048054e+00,1.413610e-03,-6.734521e-01,3.801851e-01,-2.115682e-01,-3.445160e-02,-1.610577e-01,1.705968e+00,-9.441277e-01,8.194250e-01,-1.203259e+00,-9.759451e-01,3.120397e+00,1.886950e-02,7.111360e-02,1.194473e-01,-8.969054e-01,4.864653e-01,-2.619070e-02,1.401366e+00,1.830104e-01,5.905031e-01,5.621053e-01,1.298483e+00,5.388653e-01,6.790696e-01,7.177224e-01,3.247068e-01,-1.260881e+00,2.057220e+00,7.787481e-01,5.410605e-02,8.260015e-01,3.401450e-02,
1.096148e+00,4.676259e-01,6.460732e-01,-4.045668e-01,-2.181014e-01,2.825081e-01,-1.110143e-01,2.752972e-01,5.954265e-01,2.599092e-01,-1.262850e-01,1.332310e+00,-9.380512e-01,1.032337e-01,-9.792227e-02,1.123562e+00,1.198362e-01,-8.653110e-04,2.813691e-01,-1.077168e+00,-2.682840e-01,2.830730e-02,-3.239462e-01,8.991948e-01,-9.734789e-01,-2.649046e-01,-7.549444e-03,-5.697633e-02,7.556774e-02,2.282700e-02,1.268518e+00,2.478964e-01,-4.929370e-01,-4.502068e-01,9.406740e-03,1.225739e+00,8.614253e-01,-5.578589e-01,-3.923521e-01,-2.179480e-01,-3.316985e-01,7.368705e-01,4.815134e-01,-3.141031e-01,-4.779893e-01,-5.656030e-01,-6.259393e-02,4.242726e-01,-6.246519e-01,-5.245960e-02,
6.664320e-01,-1.155081e-02,2.852766e-02,-7.375032e-01,-4.985145e-01,1.604409e+00,-2.140493e-01,2.868412e-01,1.061308e+00,4.155765e-01,-1.343022e-02,1.906741e+00,3.833697e-01,-7.137514e-01,-2.007224e-01,-2.687618e-01,7.653030e-01,-3.079860e-02,9.803224e-01,1.834852e+00,-4.909177e-01,2.455270e-02,1.042558e-01,-7.181018e-02,-3.164022e-01,-2.183135e-01,1.243260e-01,-4.117825e-01,7.773917e-01,-1.394580e-02,1.292111e+00,-1.400548e-01,-7.061178e-01,-5.128334e-01,4.594600e-03,1.120617e+00,1.259201e+00,-1.168798e+00,5.028180e-01,1.120353e+00,5.788251e-01,-5.745776e-01,1.108162e+00,2.563829e-02,4.500564e-01,-1.516028e+00,-5.473666e-01,-3.405282e-02,1.245510e-02,-3.576680e-03,
1.105761e+00,-3.412834e-01,1.071898e-02,-4.502200e-01,-7.498138e-02,7.854704e-01,-4.006845e-01,9.071871e-02,5.314109e-01,5.160046e-03,9.697186e-02,7.354175e-01,5.155840e-01,2.327289e-01,-1.187076e-01,-6.382024e-02,-3.232035e-01,-1.971090e-02,4.163349e-01,4.930050e-01,8.562105e-01,-2.644690e-02,-1.596657e-01,3.416618e-01,-1.058603e+00,-8.161153e-02,-1.136459e-01,-3.959277e-02,-2.380416e-01,-4.097990e-03,-3.586423e-01,-3.970276e-02,-1.057247e-02,-4.650478e-02,-6.689460e-02,2.741792e-01,2.909791e-01,-9.345834e-01,-5.507833e-01,-2.237060e-02,4.890072e-01,5.166889e-01,4.720170e-01,2.718156e-01,-2.769338e-01,1.994898e-01,7.242715e-02,-4.658904e-01,7.570668e-02,4.206190e-02,
-4.999760e-03,-3.942610e-02,-6.686110e-03,1.244230e-02,-3.453620e-03,8.240440e-03,-4.048620e-02,-3.816290e-02,-3.152010e-02,2.215550e-02,1.439850e-02,-5.188650e-02,-1.495390e-02,-4.850990e-02,-3.161940e-02,-4.764230e-02,-1.474170e-02,-6.693160e-03,-2.700110e-02,3.516870e-02,1.176500e-03,2.566510e-02,3.751510e-02,-2.027120e-02,-2.770540e-02,5.269170e-04,-4.477570e-02,-1.992390e-03,-2.034610e-03,-8.091750e-03,2.177840e-02,-1.880490e-02,-2.268060e-02,2.250530e-02,-3.713170e-02,-4.424770e-02,-4.072780e-02,-4.296450e-02,1.831490e-02,3.002450e-02,1.379350e-02,-1.392120e-02,1.456710e-02,8.528790e-03,-4.742950e-02,3.387020e-02,2.400030e-02,-3.901350e-03,2.286780e-02,-5.192800e-03,
2.167994e-02,2.249045e-01,-5.956333e-02,-6.941111e-01,-1.487173e-01,3.789098e-02,-2.677116e-01,-1.825062e-01,-1.212351e-01,-1.406677e+00,9.670322e-02,1.183263e+00,-1.576938e-01,6.372330e-01,-1.377676e-01,1.078916e+00,2.230745e-01,-1.016010e-02,3.258897e-01,2.478433e-01,5.924164e-01,-4.428350e-02,3.975500e-01,8.613794e-01,8.708428e-01,9.097310e-01,5.187532e-01,-7.581024e-01,3.598538e-01,3.790320e-02,2.294766e-01,-7.884870e-02,5.166841e-01,9.805208e-02,3.084190e-02,3.542994e-02,5.222287e-01,-1.267582e-01,-8.582075e-01,-3.054147e-01,1.203668e+00,-9.913233e-01,-1.654280e-01,-1.219695e+00,-2.806756e-01,-2.456255e-01,-2.316653e-01,-1.158849e-02,4.944586e-01,1.959270e-02,
-1.534593e+00,7.832715e-01,3.777290e-01,3.294716e-01,1.995903e-01,-1.120807e+00,-1.576648e-01,4.037630e-02,1.283920e-01,-3.736440e-01,-1.214803e-02,-9.369361e-01,3.918074e-01,6.641725e-03,-4.565447e-02,5.688607e-01,-2.597555e+00,-4.053560e-02,5.479545e-01,6.192279e-02,-5.560933e-01,2.677340e-02,4.477565e-01,-1.731395e+00,1.121140e-01,-6.482027e-01,2.879063e-01,3.742205e-01,-4.458419e-01,6.271840e-03,-3.416003e-01,1.437016e-01,-5.376323e-01,1.683122e-01,4.219260e-02,4.692925e-02,5.255429e-01,-3.733296e-01,-2.589298e-02,4.353774e-01,-2.235039e+00,-2.622996e+00,-5.293105e-01,2.113931e-01,-9.086816e-01,1.516117e+00,2.694379e-01,-2.017195e-01,-2.507517e-01,1.547200e-02,
-4.796727e+00,-7.313916e+00,-3.738464e-01,9.236950e-01,9.286038e-01,-8.529034e-01,5.933261e-01,7.918613e-01,-1.337884e+00,-3.277781e+00,-4.136478e-01,-3.185854e+00,-5.763533e+00,-7.752220e-01,-2.159053e+00,-5.583586e+00,2.190495e-01,1.677560e-02,6.990570e-01,-1.015876e+00,-9.033659e-01,-3.265240e-02,-2.494622e+00,8.877969e-01,-2.774612e+00,-7.444713e-01,-1.319796e+00,-2.288659e+00,1.062468e+00,4.485080e-02,3.271011e+00,-2.710319e+00,-3.292686e+00,1.021456e-01,-3.496950e-02,2.345744e+00,-1.803268e+00,-8.099271e-01,-2.646944e+00,-4.514935e+00,-1.349661e+00,1.269033e+00,-3.206241e+00,3.302982e-01,-6.598835e+00,-4.298960e-02,1.809658e+00,-1.561620e+00,3.178236e-01,4.047740e-02,
-1.103243e+00,-8.614622e-01,-1.792668e+00,1.565681e-01,1.883699e-01,4.274377e-01,-2.313616e-01,-5.799690e-01,-1.091827e+00,-3.049931e+00,-1.235062e-01,1.123164e+00,5.616247e-01,-1.831410e+00,4.240163e-01,4.310980e-01,-1.822701e+00,-4.152210e-02,7.428746e-01,-2.734200e+00,-3.046685e-01,-5.756240e-03,-3.803220e-01,-1.617951e+00,-1.872034e-01,-1.152765e+00,-2.348482e+00,-1.060467e+00,-5.971560e-01,-2.760680e-02,1.261254e+00,-8.495679e-02,-9.090118e-01,-1.006564e+00,-1.696300e-02,-1.304188e+00,-1.112414e+00,-5.644099e-01,1.069597e-01,6.140647e-01,-4.183380e-01,6.463281e-01,4.277392e-01,2.707821e-01,-5.235740e+00,2.879669e-01,-2.530053e-01,9.290188e-02,2.674335e-01,4.180010e-02,
8.243504e-01,1.712845e-01,3.365061e-01,-5.065880e-01,-1.040834e-01,-2.794326e-01,1.396509e-01,8.421877e-02,4.799007e-01,2.293276e-01,3.594960e-01,2.423835e-01,-1.448321e+00,-2.643145e-01,-3.674938e-02,-9.372492e-01,1.164756e+00,3.394810e-02,2.095122e-01,-8.419542e-01,-4.847832e-01,2.399140e-02,8.169527e-01,5.989298e-01,-6.715706e-01,-7.094305e-01,-1.846221e-01,-1.666575e-03,4.283167e-01,2.414070e-02,8.564790e-01,4.502978e-02,-4.077957e-01,-2.072795e-01,5.083330e-02,7.029379e-02,3.277619e-01,-6.001667e-01,-4.701810e-01,1.425505e-01,7.113365e-01,1.253470e-01,1.420920e-01,1.611139e-01,8.701708e-01,-2.458682e+00,1.848511e-01,7.744486e-01,-1.380547e-01,4.097810e-02,
2.240919e+00,9.511763e-01,-1.745453e-01,1.290597e+00,-5.574037e-01,-1.029057e+00,6.035443e-01,-2.371472e-01,2.037514e-01,7.581531e-01,-1.075883e+00,1.969950e+00,6.255311e-01,-1.052327e+00,1.121892e-01,1.324123e+00,3.689730e-01,-3.768180e-02,-5.024756e-01,1.064508e+00,-1.694392e+00,4.657680e-02,6.948959e-01,1.292117e+00,1.664128e+00,-7.657421e-01,5.949083e-02,3.827342e-01,1.170092e+00,3.802880e-03,1.449141e-01,-4.066137e-01,-7.347460e-01,-1.347061e-01,8.364280e-03,-2.101114e-01,4.036039e-01,-1.361423e-01,7.480176e-01,9.273477e-01,1.428770e+00,1.350150e+00,-1.644802e+00,-2.595007e-01,-2.275336e+00,-1.186260e+00,-3.799677e-01,1.083334e+00,5.263563e-01,-2.082650e-02,
2.478595e+00,1.682488e+00,-6.427026e-01,3.674603e-01,-2.064095e-01,1.220460e+00,4.851231e-01,-7.930809e-01,1.097765e+00,1.107867e+00,-2.306916e-01,5.147484e-01,2.154972e-01,-5.720393e-01,-4.560480e-01,1.974801e+00,5.756549e-01,-8.588690e-03,-1.793730e+00,1.900996e+00,-3.330113e-02,-4.322070e-02,2.203038e+00,7.721640e-01,1.048379e+00,1.898750e+00,2.987489e-01,7.469314e-02,-4.520280e+00,-3.435480e-02,6.303434e-01,2.387365e-01,-1.028368e-01,8.434095e-01,-3.267320e-02,-3.669395e+00,-6.196797e-01,-1.154994e+00,2.594989e-01,6.511906e-01,-5.776969e-02,5.376559e-01,1.801373e-01,3.877308e-01,2.393234e+00,1.373241e+00,6.813106e-01,2.068249e+00,-4.772879e-01,-3.045250e-02,
3.018028e+00,4.139599e-01,-6.211954e-01,6.121964e-02,-4.090818e-01,1.270521e+00,-3.741432e-01,2.713810e-01,2.547178e-01,4.683942e-01,2.611691e-01,3.621046e-01,1.086320e+00,1.084268e+00,-2.090819e-01,1.918024e+00,6.990169e-01,1.612560e-02,8.887213e-01,6.930974e-01,-3.886878e-01,-1.115580e-02,1.010142e+00,2.426738e-02,-1.350065e-01,1.403106e+00,4.746907e-01,5.316200e-01,-1.213158e+00,-5.520200e-03,7.453333e-01,-6.843654e-01,2.266871e-01,2.787257e-01,-3.169360e-02,3.634486e-01,4.233073e-01,-1.027631e+00,-4.726222e-01,1.275044e+00,7.926797e-01,-2.723255e-01,1.185393e+00,-5.145440e-02,1.129613e-01,1.382483e+00,-7.759364e-01,-9.937348e-01,4.402699e-02,3.568330e-02,
8.912029e-01,1.641059e-01,-4.816150e-01,5.737381e-01,3.197331e-01,1.186330e+00,3.848277e-02,-2.978827e-01,2.963028e-01,1.645147e-01,-9.552846e-01,1.126619e+00,1.202423e+00,-1.414083e+00,-4.721883e-01,-5.812735e-03,3.183857e+00,3.252370e-02,-1.030371e-01,6.185625e-01,9.863090e-01,-2.237290e-02,1.571337e+00,1.917691e-02,1.747852e+00,-2.300963e-01,-4.428794e-01,1.303417e+00,1.352145e+00,2.740410e-02,1.022166e+00,-7.253686e-01,-2.411753e+00,-3.289230e-01,-1.347320e-02,3.904589e-01,9.834902e-01,2.077121e-01,-2.429604e+00,1.644397e+00,1.124591e+00,2.750757e+00,2.212553e+00,7.240228e-02,9.495602e-01,5.618584e+00,5.920421e-01,6.753091e-01,-3.676853e-01,-1.325250e-02,
2.147122e-01,1.322102e-01,1.121484e-01,-9.231298e-02,6.301562e-02,-1.177350e+00,-3.081064e-01,-4.920468e-01,-7.254790e-02,6.341889e-01,-1.004209e-01,-6.259170e-01,2.631546e-01,5.101846e-01,4.022054e-01,2.364596e+00,-1.019775e+00,8.409030e-03,-6.095702e-03,-1.864570e+00,-1.179232e-03,-2.437060e-02,-9.958891e-01,1.929862e+00,-8.565084e-01,2.583856e-01,1.437725e-02,-2.670677e-02,-2.590659e+00,-3.306130e-02,1.562686e+00,-1.638543e-01,-1.686543e-01,-6.491122e-02,-2.642970e-03,2.036391e-01,2.021103e-01,1.705687e-01,2.099176e-01,1.608039e-01,4.779600e-01,2.130985e+00,2.674012e-02,4.169844e-01,-1.874424e+00,2.045433e-01,-7.807196e-01,-3.439924e-01,-1.290524e-02,-2.895010e-03,
