// The contents of this file are licensed under the Creative Commons
// Attribution 4.0 International License: https://creativecommons.org/licenses/by/4.0/
// Neural Network File Format by Kyle Julian, Stanford 2016 (generated on 10/21/2022 11:25:38)
7,5,5,50,
5,50,50,50,50,50,50,5,
0,
0.0,-3.141593,-3.141593,100.0,0.0,
60760.0,3.141593,3.141593,1200.0,1200.0,
19791.091,0.0,0.0,650.0,600.0,7.5188840201005975,
60261.0,6.28318530718,6.28318530718,1100.0,1200.0,373.94992,
-7.100258e-01,-9.675970e-02,1.077063e-01,-7.333745e-02,-1.305675e-01,
-4.571893e-01,1.230914e-01,-1.386566e-02,-4.414296e-01,3.973493e-01,
-1.528935e+00,7.144484e-02,-1.360619e-02,-3.488271e-02,2.205941e-02,
3.128389e-01,1.683248e+00,-7.329693e-01,1.775993e-01,-1.327873e-01,
-1.015918e+00,-7.552233e-02,-8.592905e-01,-1.999441e-02,4.156150e-02,
-3.006074e-02,-4.024951e-01,-7.664720e-01,-2.657763e-01,1.497629e-01,
2.747553e-02,-5.282288e-02,3.928240e-02,6.266015e-02,6.093057e-01,
-1.117945e-01,1.340565e+00,-3.322908e-01,-1.951048e-01,5.099972e-02,
-2.631667e-02,2.277228e-01,-1.569197e-01,8.326418e-01,4.749465e-01,
-1.754356e+00,-2.905722e-03,2.302445e-02,3.088654e-02,1.718367e-02,
-4.811878e-01,-1.103246e-01,9.813061e-02,3.620505e-01,-2.707057e-01,
-1.110807e+00,-2.142629e-01,1.427127e-01,-4.762193e-02,3.573482e-02,
-8.244408e-01,-1.425354e-01,-3.200972e-01,-3.044110e-01,1.723196e-01,
-3.095614e-01,-1.205407e+00,1.042079e+00,-8.741090e-02,-2.921450e-01,
-4.337457e-01,-3.344759e-02,-1.016731e-01,-9.348407e-01,-4.063501e-01,
-6.192710e-03,-7.013420e-03,1.175600e-03,4.741660e-05,6.108170e-03,
1.443236e-01,2.718382e-01,-2.790599e-01,-7.299495e-01,-1.181523e+00,
-6.580655e-02,1.079857e+00,9.095643e-01,4.612263e-01,-3.301550e-01,
-2.644485e-02,-1.995418e-02,-1.921735e+00,2.239902e-02,-1.797048e-02,
-1.472361e+00,1.113085e-02,-1.174577e-02,-2.443112e-05,-1.436299e-01,
9.107209e-04,-9.378576e-02,1.327197e-01,2.200582e-01,-1.181786e+00,
-7.548134e-02,-1.596948e+00,1.760052e+00,-4.690261e-02,2.393834e-01,
-9.247990e-02,2.955900e-02,8.479070e-03,-5.016420e-02,-6.503350e-02,
1.075570e-01,5.151540e-02,1.341529e+00,-1.460307e-02,-4.501357e-02,
1.610412e-02,-7.634132e-02,1.127267e-01,-5.578015e-01,-9.404078e-01,
-3.501777e-01,4.184755e-01,-1.851077e-01,4.387544e-02,1.455459e-03,
1.122290e-02,-6.894590e-03,-1.709660e-02,4.821500e-03,3.397260e-03,
2.415194e-02,-7.531700e-02,1.161391e-01,-1.037960e+00,-9.300129e-01,
-7.026140e-01,-1.425359e-02,2.288905e-02,-6.091598e-01,-4.069324e-01,
1.163249e-02,2.138989e+00,1.298838e-02,9.198763e-02,-1.456790e-01,
4.773248e-03,2.236164e-02,1.117714e-02,-2.063511e-01,-1.620675e+00,
1.192600e-01,2.738991e-01,-1.739708e-01,-1.796834e+00,-2.839467e-01,
-2.679365e-02,-9.761869e-02,1.187951e-01,-1.006814e+00,-1.427055e+00,
-2.713271e-02,-1.319871e-01,1.704558e-01,-7.076181e-01,-1.111704e-01,
-1.418960e+00,7.309508e-02,1.224758e-01,-1.940102e-01,-3.871225e-02,
-3.287458e-01,1.192567e+00,-1.310293e+00,9.793628e-02,-3.549725e-01,
1.477328e-02,9.569005e-01,7.650228e-01,-2.801588e-01,2.618007e-01,
-6.978069e-02,-2.401974e-02,-5.997595e-01,1.352190e-01,-6.719890e-01,
-1.124721e+00,-1.708986e-02,-5.618924e-02,-5.321906e-01,-9.962646e-02,
-1.731136e-02,2.527820e-01,-1.903881e-01,-7.402729e-01,4.674965e-01,
1.763519e-02,-7.539718e-01,-1.001335e+00,-1.625619e-02,4.414510e-03,
-4.105036e-02,-6.088504e-01,-8.082184e-01,4.465361e-01,-1.915295e-01,
-1.216373e+00,3.020374e-01,1.764807e-01,-3.640841e-01,-3.768162e-01,
1.002341e-01,1.009524e+00,-1.161193e+00,-2.643178e-01,7.662919e-01,
-1.698277e+00,1.722650e-02,3.392775e-02,2.867295e-02,4.316699e-02,
-1.566107e-02,4.521372e-02,1.616470e-02,-1.193785e+00,8.485463e-01,
-5.914534e-02,-1.442334e-01,-1.825736e-02,7.451915e-01,-1.469326e+00,
3.225075e-01,-2.058506e+00,3.375084e-01,-4.484753e-02,-7.028957e-02,
-1.748406e-03,8.802830e-01,-1.338563e+00,-1.157719e-01,-2.531506e-01,
5.985677e-03,1.034243e-01,7.739388e-01,-3.699774e-01,-2.245708e-01,
1.090723e-01,
-1.619863e-01,
-2.053128e-01,
-6.286403e-02,
-2.515578e-01,
5.133706e-02,
1.726554e-01,
-4.910170e-01,
-2.175947e-01,
-3.368092e-01,
-2.077547e-02,
-1.218944e-01,
-1.827817e-01,
-6.405219e-02,
-6.594786e-01,
-2.301850e-02,
-5.674048e-01,
-1.670692e-01,
1.729093e-02,
-4.063316e-01,
2.927975e-01,
-1.242847e-01,
-1.062510e-01,
9.648676e-02,
-5.252979e-01,
1.173660e-02,
-2.816360e-02,
-7.418142e-02,
-7.592351e-01,
5.105310e-02,
-7.427539e-01,
-3.130777e-01,
-3.480517e-01,
1.599741e-01,
-3.920177e-01,
8.318682e-02,
1.562825e-01,
-4.317123e-01,
-4.114068e-01,
8.776325e-02,
-7.779822e-03,
-8.032008e-02,
-2.346978e-01,
-2.199772e-01,
-4.255268e-01,
-1.520758e-01,
-2.424502e-01,
-2.713494e-02,
-2.170569e-01,
-2.951478e-01,
4.161783e-01,-1.189834e+00,9.320448e-02,1.237572e-01,8.324089e-01,1.042856e+00,1.618567e-01,9.087974e-02,6.876542e-01,-6.187495e-02,9.965341e-01,-3.240990e-02,1.988590e-01,2.014605e-01,-2.691986e+00,-1.212400e-02,2.866678e-01,-2.502784e-01,-9.954645e-02,-3.233347e-01,9.464274e-01,1.376743e-01,5.024660e-02,-2.097285e-02,4.452734e-01,7.283211e-01,-1.163230e-02,2.607326e-01,-1.482381e+00,2.067642e-01,4.320472e-01,6.075300e-01,-1.878383e-01,-1.852718e+00,3.215176e-02,-6.297866e-02,-5.115710e-02,1.523432e+00,-1.025056e+00,7.997760e-02,-9.622781e-01,-6.354296e-01,4.680137e-01,1.171980e+00,-3.433047e-01,-5.647956e-01,-2.372337e-01,-3.399412e-01,-6.251351e-01,-2.032416e-01,
-5.716510e-02,-2.400450e-03,3.176680e-02,1.491320e-02,2.740830e-03,2.933090e-02,-5.599110e-02,-3.720580e-02,5.930050e-04,-2.003220e-02,-5.524380e-03,-3.734910e-02,-2.282290e-02,-6.846900e-03,5.756540e-03,-1.604780e-02,-3.353680e-03,7.358160e-03,-3.997140e-02,-3.701270e-02,7.258450e-03,-1.142710e-02,1.133180e-02,-3.164780e-02,4.812630e-02,4.347800e-03,-1.991830e-02,-2.187750e-02,9.400470e-03,1.468290e-02,2.174250e-02,-4.003430e-02,2.986550e-02,2.079670e-02,2.772480e-02,-1.771170e-02,-2.269780e-02,3.850620e-02,-3.990540e-04,-4.931690e-02,3.361590e-02,2.386940e-02,-2.007810e-02,-6.227130e-02,3.656600e-02,-3.646070e-02,8.392040e-03,-3.184560e-02,-1.630640e-02,3.130970e-02,
3.401985e-01,-2.579143e-01,2.636508e-02,7.330890e-01,-1.589356e-01,5.206866e-01,-1.071827e+00,-4.832403e-01,-8.298302e+00,-9.457465e-02,5.526869e-01,-3.149645e-01,1.915057e-01,3.610357e-01,3.707223e-01,-1.973190e-02,-4.806390e-01,3.960137e-01,-5.904742e-01,-3.814189e-01,-1.696645e+00,-1.031457e-01,7.253370e-02,3.915972e-01,2.411114e+00,2.257094e-01,-6.488760e-03,1.337196e+00,-1.486358e+00,-3.609312e-01,-1.588162e-01,-1.115280e+00,1.328056e-01,1.720516e+00,1.181883e-01,8.403488e-01,1.945644e-01,1.768029e+00,3.293380e-01,6.505167e-01,8.203001e-02,1.303012e+00,-6.194149e-02,7.573689e-01,5.244469e-01,1.045161e+00,-2.811051e-01,1.734211e-01,-2.868856e-01,8.353448e-02,
-1.778399e-01,-2.210715e+00,-1.196222e-02,3.906112e-01,-7.243528e-02,-6.013906e-01,-1.645725e+00,6.347731e-01,1.375932e-01,-6.304559e-02,6.053048e-01,-1.568384e-01,1.627634e-01,-6.895525e-01,-1.489352e+00,-6.724500e-03,9.164862e-02,7.458240e-01,2.094087e-01,-4.068754e-01,-9.191911e-02,5.086737e-01,-7.525160e-03,4.215241e-01,-2.010962e-01,-3.410250e-01,-4.631290e-02,3.889768e-01,-7.113465e-02,3.710719e-01,1.124482e+00,1.619156e-01,1.218864e+00,-1.529526e+00,-6.622524e-02,3.722452e-01,-8.861022e-01,9.478810e-01,-6.058573e-01,4.903928e-01,-1.030360e+00,-2.406857e-03,2.465285e-01,-1.540226e+00,7.415821e-02,-3.964903e+00,-2.989554e-01,-5.840897e-01,3.483527e-01,8.374663e-01,
2.571780e-02,-2.510730e-03,1.312370e-02,-5.883680e-02,-2.563830e-02,1.137370e-02,-1.946070e-02,-3.952320e-02,-1.364780e-02,1.202280e-02,7.330280e-03,-3.540910e-02,-2.866930e-02,-2.256050e-02,-2.512810e-02,-1.934690e-02,1.798010e-02,-5.576550e-02,-3.084710e-02,-2.951850e-02,-5.614790e-03,-1.518920e-02,3.886000e-02,2.459290e-02,-3.935720e-03,-1.973840e-02,-3.537190e-02,-5.394530e-02,-3.931220e-02,4.042980e-02,-1.040250e-02,1.360480e-02,1.066920e-02,-3.744660e-02,1.401030e-02,2.863580e-02,9.344260e-03,4.740550e-03,-3.559330e-02,2.715940e-02,-5.621430e-02,1.002430e-02,-8.664430e-03,-5.385970e-02,-4.599320e-02,-2.804620e-02,-1.563590e-02,-3.604680e-02,-2.007110e-02,-5.290310e-02,
3.911527e-01,1.092064e-01,2.399493e-01,5.086220e-01,-1.243528e+00,1.844949e+00,1.410028e-01,-3.515126e-01,1.501635e-01,3.244434e-01,-3.914416e-01,8.839670e-01,9.742264e-02,-1.854198e+00,7.447594e-01,-4.796000e-02,7.924274e-01,6.666229e-01,-9.219676e-01,8.846874e-01,7.127745e-01,-3.172556e+00,-4.475070e-02,1.746720e-01,8.717334e-01,1.150663e-01,-1.911400e-03,7.271718e-01,-7.939584e-01,4.280798e-01,-3.164657e+00,1.732895e-01,-2.785506e-01,-6.079829e-01,-7.913363e-01,4.633479e-03,7.452331e-02,-6.844973e+00,5.986544e-01,1.279568e-01,5.298722e-01,-7.703542e-01,-1.852445e-03,6.381135e-01,5.139011e-01,-6.547950e-01,-9.699796e-01,-3.610750e-01,-1.040379e+00,-4.576462e-01,
-3.581972e-01,-8.923717e-01,-2.804518e-01,1.317366e-01,3.213895e-01,3.661166e-01,1.051057e-02,-2.626677e+00,-3.113887e+00,-1.455133e-01,-6.832461e-01,6.883267e-01,4.929423e-01,-1.790720e-01,-9.429778e-01,-1.492300e-02,8.517365e-01,2.812853e-01,-3.097003e-01,-5.962946e-01,7.193585e-01,1.497474e-02,-8.214980e-03,-4.396515e-01,6.441656e-01,1.830106e-01,2.822090e-02,7.869525e-02,-2.230660e+00,-5.168226e-01,-2.466395e+00,-3.365992e-01,-3.773273e-01,3.553057e-02,-6.045683e-01,-1.492137e-01,7.508250e-01,-6.434743e-01,-1.789653e-02,-2.816976e-01,1.905273e-01,-2.943863e-01,-4.721070e-02,3.927928e-02,3.284659e-01,3.816202e-01,-8.052405e-02,2.152539e-01,4.084724e-01,-7.401464e-01,
-5.852536e-02,-2.035400e-01,3.059150e-02,1.213538e+00,-3.028073e-01,-9.595885e-01,-2.956045e-02,-8.271880e-01,1.101528e-01,6.897495e-01,-2.659777e-01,-1.302467e-02,-3.283661e-01,4.118464e-01,-1.064356e+00,6.058860e-03,3.695472e-01,6.592775e-02,2.769807e-02,4.774052e-01,2.875950e-01,9.525750e-01,5.093660e-02,1.725214e-01,-2.428724e-01,-1.116526e+00,-3.542080e-02,8.447047e-01,4.518214e-01,1.479388e+00,2.447181e+00,7.231480e-01,-2.246376e-01,-8.426356e-01,-9.694328e-02,5.606385e-01,-1.024514e+00,-5.483481e-01,-4.496823e-01,-5.670000e-01,-6.689718e-01,-1.844999e-01,1.529883e-01,-8.013324e-01,-5.446649e-01,-4.228104e+00,-4.078971e-02,7.318115e-01,8.705201e-01,4.739899e-01,
6.449789e-01,-2.185761e-01,-4.761785e-02,1.028402e-01,6.691470e-01,3.247069e-01,8.953843e-01,5.490941e-01,3.257198e-01,3.430296e-01,1.123106e+00,-5.685326e-01,6.094261e-01,-3.235515e-01,-4.184113e-01,1.355840e-02,-4.026042e-02,8.233147e-03,4.640667e-01,-7.668931e-01,3.543747e-01,3.579643e-01,4.530730e-02,3.371632e-01,1.642872e+00,5.933616e-01,-2.348150e-02,-2.086830e-01,1.252580e+00,9.926906e-02,-8.441179e-01,-3.853730e-01,1.406387e-01,9.521220e-01,-2.678968e-01,-3.692594e-01,-8.137340e-01,7.608782e-01,-3.796800e-01,-6.001778e-01,-2.808819e-01,7.993159e-01,9.394955e-01,-7.775889e-02,-1.850727e-01,-6.228267e-01,-3.211229e-01,-1.158331e-01,-5.176542e-01,-9.233243e-01,
-1.821279e-01,6.060445e-01,4.966821e-01,3.931194e-01,9.510007e-01,1.012237e+00,-1.196576e-01,4.261492e-01,2.842317e-01,4.554426e-01,-5.396363e-01,-5.022552e-01,4.788094e-01,2.967071e-01,-1.868060e+00,-2.544910e-03,1.320549e+00,7.241365e-01,-8.142686e-01,2.388669e-01,-6.809911e-01,-1.091889e-01,6.411630e-02,-6.527571e-01,-1.590442e-01,1.918332e-01,4.259550e-02,2.994405e-01,-3.306806e-01,3.289732e-02,1.969687e+00,7.686469e-02,-6.527193e-02,3.974655e-01,2.741429e-01,-7.334266e-02,3.911611e-01,1.125545e+00,3.910908e-01,2.774922e-01,2.637738e-01,3.599779e-01,4.640568e-01,-4.317748e-02,4.138767e-01,1.386572e-01,-8.281530e-02,4.471764e-01,-3.718485e-01,9.237711e-01,
-1.360967e-01,-3.340293e-01,2.573746e-02,5.064933e-02,-4.259245e-02,-6.952254e-01,-1.619046e+00,2.623952e-01,1.675730e-01,-8.752662e-02,1.140443e-01,-1.496484e-01,2.061881e-01,-5.702268e-01,4.150847e-01,-1.841240e-02,-1.016454e-01,3.977623e-01,-5.484918e-02,6.757562e-02,6.141859e-01,1.854220e-01,-3.765680e-02,-5.871184e-01,-7.079317e-02,6.195580e-02,1.064860e-03,2.104843e+00,-1.072149e+00,2.693016e-02,7.873023e-01,-1.530014e-01,-2.144906e+00,5.923395e-01,-4.902310e-01,-1.236576e-01,-3.196522e-01,-3.625969e-01,9.279041e-01,6.048089e-01,-9.738294e-02,7.743353e-01,-2.472920e-01,9.832546e-03,-5.162814e-02,-5.033174e-02,3.222137e-01,-1.101575e-01,3.034087e-01,-6.350552e-02,
4.978074e-02,4.514110e-01,4.185699e-01,2.405542e-01,-3.188080e-01,-4.057251e-01,-1.061666e+00,1.356215e-01,2.142671e-01,3.740691e-01,1.342371e+00,6.540220e-01,-5.014139e-02,9.343193e-01,3.662363e-01,-9.158730e-04,-3.285152e-01,9.529033e-02,7.850187e-01,6.270244e-01,-6.030976e-01,6.923379e-01,-3.596370e-02,8.310819e-01,-1.481419e+00,-2.433994e-01,1.216030e-02,-2.929706e-01,-1.043180e+00,-1.422791e-01,7.403938e-01,2.374992e-01,1.491243e-01,-3.054299e-02,4.938655e-02,1.089656e+00,-6.130659e-01,-6.170771e-01,-6.217182e-01,-2.096284e-02,-2.546858e-01,-2.446363e-01,-9.976103e-01,2.939620e-01,1.620561e-01,1.663954e-01,4.722716e-03,-1.516007e-01,1.547494e-01,-7.426941e-01,
-8.216552e-02,8.157777e-02,1.263000e-01,-6.007487e-01,-5.332687e-01,-1.293230e+00,4.381608e-01,1.878128e+00,8.832213e-01,-2.808342e-01,4.285432e-02,1.134633e-01,8.513648e-02,-4.417547e-01,-5.136284e-01,2.796740e-02,-1.291171e+00,-1.485369e-01,-3.272620e-01,2.605362e-01,-8.548658e-01,4.788810e-01,3.004070e-02,-3.747801e-02,2.472465e+00,-6.556308e-01,1.781830e-02,1.471806e+00,5.885509e-01,1.407166e-01,-1.129986e+00,-3.927304e-01,4.527159e-02,-6.827478e-01,5.586760e-02,-2.323776e-01,-1.401560e-01,2.836013e+00,4.325381e-02,-9.836326e-01,-2.865092e-01,-2.655925e-01,-4.440622e-02,4.559672e-01,4.161291e-01,8.367376e-01,2.101332e+00,-1.450737e-01,5.601391e-01,7.676174e-01,
2.497443e-01,-1.103247e+00,-9.074152e-01,-6.538090e-01,-1.013068e+00,2.293833e-01,6.728690e-01,-6.472503e-01,-5.687876e-01,3.742628e-01,-5.201052e-01,5.506753e-02,4.063486e-01,5.420169e-01,7.929901e-01,1.355980e-02,-1.349474e+00,7.259879e-02,-3.014374e-01,2.455970e-02,-3.219673e-02,1.788016e-01,9.426160e-02,-1.445499e-01,7.254869e-01,1.730669e+00,2.686560e-03,-8.760203e-02,4.643211e-01,4.573931e-01,-1.634546e+00,2.386468e-01,-8.286299e-02,3.718339e-01,8.890314e-01,2.869643e-01,-8.135669e-01,-3.598221e-01,-1.411026e+00,1.034092e+00,1.196903e-01,6.214004e-01,6.806380e-01,-4.244240e-03,8.042232e-01,-2.105284e+00,-2.811889e-01,2.789304e-01,-1.152888e+00,5.128199e-01,
6.611552e-02,-4.586869e-01,-6.657832e-01,-3.340897e-01,2.906117e-01,-1.184257e-01,1.371820e-01,-8.645093e-02,3.106196e-01,1.727471e-01,2.396405e-01,9.124047e-02,2.747634e-02,8.497706e-02,6.389052e-01,3.370630e-02,4.231513e-01,4.322964e-01,-2.009692e-01,3.428847e-01,1.096513e-01,7.462651e-02,-1.987170e-02,2.155632e-01,8.268373e-01,-1.317227e-01,-2.870720e-02,3.540094e-01,-1.253567e-01,-7.605785e-01,1.736995e+00,-3.428218e-01,-2.774060e-01,-6.524451e-01,-1.223537e-01,7.139280e-02,5.729936e-01,-2.596598e-01,3.464112e-01,4.989668e-01,3.718366e-01,5.227662e-01,1.695345e-01,3.109558e-01,7.632508e-02,4.194839e-01,-2.195611e-01,2.043001e-01,3.613312e-01,3.204627e-01,
-1.456495e-01,7.202698e-01,1.568769e-01,3.017876e-01,-1.259599e-01,-9.961357e-02,1.702185e+00,-5.738398e-01,-4.936014e-01,-2.354495e-01,5.008084e-02,2.376677e-03,9.580766e-03,9.797985e-01,2.738571e+00,3.566200e-03,1.172851e-01,1.085834e-01,-7.116529e-02,2.810348e-01,5.732515e-01,-7.579460e-02,8.145830e-02,-1.600214e-01,1.627892e+00,5.679393e-02,2.965280e-03,4.801193e-01,-5.865010e-01,-6.022462e-01,-5.429435e-01,7.287131e-02,-1.279744e+00,4.193642e-01,-1.732347e-01,-9.729449e-02,-2.272459e-01,4.536416e-01,-1.459110e-01,7.828588e-01,-3.544711e-01,-9.019576e-02,-2.014440e-01,4.177893e-02,-1.679542e-01,-1.815541e+00,1.313739e+00,2.008275e-01,4.425060e-01,7.026908e-03,
-1.763925e-01,-2.251541e-01,3.353046e-01,-3.315051e-01,4.974149e-01,1.162523e-01,1.485971e-01,-3.360200e-01,1.084344e-01,1.073570e-01,9.213943e-02,-2.940924e-01,1.061999e-01,3.377284e-01,-1.120212e-01,-1.874710e-02,-1.155870e+00,-4.054814e-02,-1.392011e-01,-2.888554e-01,-2.258836e-01,-4.345816e-01,6.701220e-02,-1.585069e+00,-6.818522e-02,4.728927e-01,-2.915140e-02,2.815413e-01,1.705249e+00,-2.703114e-01,-1.257441e+00,-3.180593e-01,-1.479035e-01,-4.444826e-01,1.004428e+00,3.832457e-01,-2.032976e-01,-1.122200e+00,4.902645e-01,3.639998e-01,3.118504e-02,-2.736602e-01,4.687177e-01,-1.121495e-01,6.060795e-01,-4.045713e-02,-1.477022e-01,2.542271e-01,1.554022e-01,8.090189e-01,
2.422031e-01,-1.798867e-01,3.287432e-02,5.800524e-02,1.911896e+00,-5.189344e-01,-4.403926e-01,-2.620288e-01,1.771666e-01,1.340747e-01,-6.233105e-02,1.316379e-01,9.104431e-01,-3.170779e-01,-1.279643e-01,-2.306780e-02,1.263792e+00,2.033119e-01,-2.533276e+00,-4.235762e-01,2.664101e-01,2.590954e-01,8.063180e-02,-1.548736e+00,1.264935e-01,-4.197482e-01,-2.399530e-02,5.049096e-02,-1.128154e-01,-1.761217e-01,-1.813146e+01,-4.654090e-01,-1.433652e-01,-1.993197e-01,-3.184246e-01,-5.879120e-02,2.357246e-02,-2.901368e-01,1.485344e-01,-1.755559e-01,2.564660e-01,4.256427e-01,-1.337760e-01,5.420983e-02,1.124653e+00,-3.235183e-01,-5.744138e-01,6.065228e-02,1.640860e-01,5.731868e-01,
-3.201237e-01,3.564784e-02,-1.032971e-01,1.387455e-01,7.091846e-02,-8.534320e-02,1.828167e-01,2.945632e+00,-2.846724e-03,-3.074780e-01,1.126460e+00,1.543287e-01,5.438397e-02,-2.954218e-01,1.126053e-01,6.632300e-02,-3.202688e-01,1.382649e-01,8.231368e-02,7.910101e-02,-6.786113e-01,1.287320e-02,-6.723320e-02,-9.857319e-01,-1.736829e+00,-1.311302e-01,3.840530e-02,7.375609e-01,1.866259e+00,-1.213692e-01,-2.131158e+00,-2.191087e-01,8.740199e-01,4.556004e-01,3.209586e-01,-4.198990e-01,-6.228459e-01,2.488139e-01,9.476960e-01,1.019181e+00,3.869886e-01,-1.177466e-01,3.064233e-01,-8.339244e-01,1.282488e+00,-1.859936e-01,2.817388e-03,1.089066e+00,-4.870590e-01,6.032059e-02,
-7.395823e-01,2.947138e-01,-2.647206e-01,4.415252e-01,9.762027e-03,2.596107e-01,3.854160e-01,-3.934366e-01,-2.489853e-01,-4.245177e-01,-2.409297e-02,9.730469e-02,1.704007e-01,-1.584957e-01,6.025586e-01,3.949370e-02,7.007407e-01,-2.832013e-01,-6.053814e-01,1.216062e+00,4.796401e-01,-4.798400e-01,5.571520e-02,5.746807e-01,1.683434e+00,-4.594157e-01,3.500050e-04,4.407811e-02,-1.027941e+00,-4.405418e-02,-1.059579e+00,-6.401480e-01,1.877690e-01,-3.772820e-01,-6.133960e-01,-3.549448e-01,4.925348e-01,-3.580689e-01,-2.294320e+00,-9.698970e-01,1.505614e+00,1.398253e-01,-6.183518e-01,-5.157207e-01,-1.396258e+00,-2.217285e-01,-2.903107e-01,-1.923972e-01,3.608015e-01,-2.835682e-01,
-2.034087e-01,1.019881e+00,-2.009202e-01,-9.601259e-01,6.204196e-01,9.901197e-02,5.021581e-01,-2.114730e-01,-2.403277e-01,-5.629974e-02,-1.421050e-01,-1.645038e-01,-5.064735e-01,2.710540e-01,1.263909e+00,2.523620e-02,1.177710e+00,-4.052516e-01,-8.665547e-01,4.070423e-01,9.629484e-01,4.586733e-01,1.789030e-01,9.073094e-02,1.826903e+00,-1.445999e+00,3.822110e-02,4.762498e-01,3.102925e-01,-2.991093e+00,5.346552e-01,-1.703121e-02,-1.148815e-01,-4.002168e-01,-9.679020e-01,4.371878e-01,-4.036503e-01,-5.310491e-01,2.649487e-01,4.911297e-02,4.519080e-01,1.124286e+00,-1.233508e+00,1.043736e+00,7.074911e-01,-2.760761e+00,1.722025e-01,7.052715e-01,6.076584e-01,-2.519778e-01,
-3.280606e-02,-8.921489e-02,-1.450194e-01,1.469803e-01,-3.903595e-01,3.364117e-01,-3.716877e-01,-2.424092e-02,7.158528e-02,-4.700299e-01,-1.435329e-01,-4.790367e-03,1.775748e-01,-3.212294e-01,-1.287847e+00,-3.444230e-02,1.034556e+00,4.454306e-01,-3.358023e-01,7.219753e-01,4.403049e-01,3.470678e-01,-3.454210e-02,9.661847e-01,-9.816264e-01,-3.458098e-01,-4.691580e-02,-6.343720e-01,6.721807e-01,3.314027e-01,1.226843e+00,-1.253591e-01,2.291837e-01,1.155320e-01,6.596053e-01,3.615730e-01,-2.286058e-01,2.064076e+00,6.512455e-01,-1.081883e+00,-2.946160e-01,-1.241376e-01,-7.460076e-01,5.436163e-01,-7.842546e-01,1.177702e-01,-3.554328e-01,4.639889e-01,7.066143e-01,-1.032506e-01,
-7.008789e-02,-1.571719e-01,-1.201522e-01,4.028315e-01,1.010661e-01,1.399125e-01,4.137710e-01,-1.355814e-01,-4.309886e-01,9.929820e-02,-2.909870e-02,3.456617e-01,5.654926e-01,-5.127914e-01,1.378266e+00,-4.921440e-03,6.911321e-01,-2.193303e-01,3.015847e-01,6.362104e-01,4.923683e-01,2.131644e-01,1.220080e-01,-4.413172e-01,1.828031e+00,4.546205e-01,7.784240e-03,9.615167e-01,3.469579e-01,9.685422e-02,-1.835511e-01,5.929850e-01,3.346826e-01,4.120102e-01,5.955188e-01,-3.129998e-01,1.995497e-02,6.128190e-01,-4.604369e-01,6.003128e-01,-1.466394e-01,-1.190181e-01,6.085518e-01,-8.208522e-01,-1.502874e-01,-6.686815e-01,-4.093007e-01,9.367636e-02,5.933560e-01,2.873729e-01,
-1.709631e-02,-4.131585e-01,-4.585266e-03,-1.447175e-01,6.709883e-02,-1.613403e-02,4.441269e-01,1.595533e-01,-2.151526e-01,-7.552737e-02,2.360336e-02,1.136486e-01,-2.656915e-01,-3.977645e-01,-4.143400e-02,3.284090e-02,-2.690040e-01,2.384127e-02,-2.120851e-01,-1.025794e-01,-3.556279e-01,2.089936e-01,1.510660e-02,6.273855e-02,-1.794670e-02,-2.890792e-01,2.416790e-02,-1.747693e-01,-3.870760e-02,6.480274e-02,5.481748e+00,-2.238571e+00,-2.846442e+00,1.385710e+00,6.598030e-02,1.551826e-01,-2.496365e-01,1.432200e-01,-1.230983e-02,-2.523977e+00,1.410436e-01,-1.100144e-01,-3.280120e+00,4.920759e-01,1.789185e-01,1.003417e+00,4.322552e-01,-5.219043e-02,-2.740846e-01,-4.422192e-01,
2.373909e-01,8.317066e-02,8.236488e-01,-5.818813e-02,1.757640e-01,3.029417e-04,-7.456084e-02,2.282946e-01,-9.398160e-02,2.382866e+00,-8.059525e-02,2.640719e-01,1.876173e-01,6.051951e-02,4.531496e-01,-1.542740e-03,2.383191e-02,5.068858e-02,2.072253e-02,1.406633e+00,4.377845e-03,2.628444e-02,1.402240e-03,-6.154798e-02,1.260801e-02,1.106754e-01,-2.995990e-02,4.627081e-02,-5.530142e-02,1.099764e-02,2.468395e-01,4.158598e-02,-8.739991e-02,7.811268e-02,3.023039e-01,1.975294e-02,3.979954e-03,1.877051e-01,1.453024e-01,-4.028897e-02,-2.508430e-02,-4.087629e-02,2.540177e-01,1.300839e-01,3.732238e+00,1.299589e-01,2.519264e-02,6.680241e-03,1.059414e-01,8.882149e-02,
9.389713e-01,3.374839e-01,1.774594e+00,-2.565807e-01,2.737605e-01,-8.975110e-02,4.653446e-02,-2.552866e-01,-1.952654e-01,2.470007e+00,-5.720830e-02,1.339121e+00,6.554362e-01,8.132923e-02,7.702267e-01,4.652400e-02,6.511941e-01,-1.672181e-01,-4.633790e-02,2.891343e+00,8.181664e-02,-2.077001e-02,3.291870e-02,-4.203946e-01,-1.198781e+00,-2.289144e-01,-3.944810e-02,1.445195e-01,3.635511e+00,-2.831785e-01,-4.080494e-02,5.864711e-01,2.793484e-01,2.667090e-01,9.336644e-01,8.444775e-02,2.403319e-01,-3.371393e-01,1.336659e+00,8.559503e-02,-4.511006e-01,-8.344981e-02,1.015017e+00,8.751561e-02,1.081829e+00,3.551618e-01,-1.295150e-01,-3.422916e-01,1.666370e-01,6.321007e-01,
-4.532869e-01,6.841305e-01,1.113793e-02,5.743589e-01,4.912474e-01,8.649614e-01,1.133841e-01,-1.368778e+00,5.405053e-01,9.892029e-02,1.906710e-01,-8.663781e-02,7.093807e-01,-3.774688e-01,2.569465e+00,-2.182240e-02,-4.618580e-01,8.724735e-01,-4.922756e-01,1.427976e+00,-4.866054e-01,2.211954e-01,-5.384880e-02,-4.209676e-01,-2.235151e-01,-4.391178e-01,-4.217400e-02,8.769901e-01,-1.687650e+00,9.208912e-01,6.404190e-01,1.709349e-01,-2.986732e-01,4.860587e-01,-1.507287e-01,-8.576134e-01,-3.098124e-01,7.218198e-01,3.806621e-01,-1.089896e+00,8.640069e-01,3.987329e-01,-8.250896e-01,2.082475e-01,-1.001128e+00,-5.557622e-01,4.672189e-01,7.641016e-01,-7.000929e-01,-1.346654e-01,
-4.678811e-01,3.469602e-01,-1.498006e-01,3.948984e-02,5.741094e-03,-1.125851e+00,1.192219e+00,1.769692e-01,-6.982400e-01,5.322152e-02,7.348683e-01,-2.745737e-01,-7.134104e-01,4.119691e-01,-1.039526e+00,7.977320e-03,-9.239077e-02,-3.686955e-01,9.574065e-01,-3.997777e-01,1.431660e+00,5.741580e-01,9.154340e-02,-4.413501e-01,2.022555e-01,-7.404243e-02,-1.933060e-02,-6.406475e-02,2.782570e-01,8.079543e-01,5.835094e-01,3.838572e-02,-3.603192e-01,-5.458524e-01,5.091367e-01,2.406563e-01,-5.010444e-01,9.153194e-01,-9.725376e-01,-4.817987e-01,-9.280676e-01,-3.052144e-01,3.143955e-01,6.588962e-01,1.527633e-01,-7.256088e-01,-6.913549e-02,1.143431e+00,8.603975e-01,2.955953e-01,
4.511333e-01,3.693045e-02,-4.823922e-02,-4.885787e-02,7.225336e-01,1.507598e-02,-1.042478e+00,1.123724e-01,-8.303793e-01,4.019155e-02,-1.464275e-01,-1.747760e-03,-3.275213e-01,-3.769138e-01,-4.342738e-02,1.215320e-02,2.365558e-02,1.817377e-01,-5.277994e-02,-5.908815e-01,-8.890422e-01,-2.139336e-01,7.492710e-02,-1.706660e-02,8.220342e-01,-5.007716e-01,1.359110e-02,7.848169e-01,4.515533e-01,-2.371862e-01,-2.797166e+00,-1.286846e+00,1.257846e+00,1.023640e+00,-4.783600e-02,-1.596397e-01,-8.710489e-03,7.619094e-01,-8.642731e-02,-1.467013e+00,-4.909963e-01,-1.531372e-01,-1.789277e-01,-8.178328e-01,1.031116e-01,6.139023e-01,1.228335e+00,1.796055e-01,1.831476e-01,3.284981e-01,
-8.011054e-02,-2.704555e+00,-3.809242e-01,8.098330e-02,6.415465e-01,-3.145681e-01,-9.483443e-01,-1.040165e+00,1.190477e-01,-6.137429e-01,-3.436111e-01,9.035841e-02,-6.022112e-01,4.938319e-01,1.187824e+00,1.830210e-02,7.788282e-01,-2.781526e-01,-4.632756e-01,1.808797e+00,2.342184e-01,-4.862044e-03,1.506470e-01,-8.414311e-01,-1.013813e+00,-6.331139e-01,4.233300e-02,1.619858e-01,1.642569e+00,1.597897e+00,6.074390e-01,-1.063313e-01,8.563368e-02,-8.111798e-01,-3.178122e-01,-2.660633e-01,-7.064487e-01,1.353716e+00,-7.262239e-01,-1.024704e+00,-1.153453e+00,-1.102233e-01,1.021692e+00,-3.564050e-01,-2.932450e-01,-3.536186e+00,1.118545e-01,1.046943e+00,4.187247e-01,3.758181e-01,
3.990290e-02,2.710451e-02,1.171321e-01,-1.057471e-01,1.583882e-01,2.147277e-02,1.205400e+00,3.655369e-02,-2.223548e-01,1.631904e-01,6.950685e-02,1.301736e-01,-6.498159e-02,-4.602083e-01,-2.694897e+00,-6.872450e-03,3.979302e-01,9.306513e-02,3.742740e-01,4.993315e-02,-3.593363e-01,1.883018e-01,3.189140e-02,-3.925971e-01,5.494928e-01,-1.881838e-02,3.224140e-02,1.193509e+00,-2.207413e+00,1.248152e-01,7.157959e-01,-9.763594e-01,-7.640035e-02,-4.968356e-01,2.796494e-01,-2.257198e-01,6.294459e-03,6.686315e-01,-1.563849e-01,-5.629239e-01,-1.945881e-01,-1.688863e-01,5.582018e-01,4.187763e-01,-4.676160e-01,-8.163714e-01,2.657818e-01,-1.949433e-01,-6.996469e-01,1.329971e-02,
1.698223e-01,3.359301e-02,-6.770415e-02,-8.303768e-02,-6.533821e-01,5.149016e-01,5.128230e-01,4.490500e-01,2.365899e-02,-1.459542e-01,-1.247242e-01,4.281777e-02,3.589427e-01,-4.680208e-01,1.602641e-01,6.878180e-02,4.963423e-01,2.763453e-01,-5.311052e-02,4.551026e-01,-3.024563e-01,1.394587e+00,6.322170e-02,1.059009e-01,-1.771075e+00,6.394281e-01,-2.212290e-04,3.589466e-01,-2.371361e-01,3.582117e-01,-2.985089e+00,7.191179e-01,-4.535646e-01,9.842082e-02,6.463423e-01,6.547253e-01,3.446184e-01,-2.352374e+00,-5.071809e-01,-1.708775e-01,6.189440e-01,-1.096862e+00,-2.265827e-01,9.034130e-02,-1.114424e-02,-1.353884e-01,-6.686359e-02,9.037217e-02,-1.656152e-01,-1.986737e-01,
2.199816e-01,2.334570e-01,-3.339898e-01,3.713240e-02,3.808366e-01,2.561765e-01,-9.904308e-02,-2.548961e-01,-1.513074e-01,-5.596660e-01,2.004619e-01,-8.164281e-02,2.961028e-01,1.438448e-02,-4.677716e-01,-9.648180e-03,2.457563e-01,3.797768e-02,5.181188e-01,4.139930e-02,2.670214e-01,-3.083843e-01,1.275970e-01,-2.275327e+00,9.320264e-01,-4.795440e-02,5.172370e-03,-1.746220e-01,-1.198272e+00,1.717962e-01,9.833755e-02,-1.928668e-02,3.004372e-01,-1.536362e-02,-4.372386e-02,-6.901902e-02,-5.515124e-01,2.126143e-01,-1.023508e+00,2.990348e-02,6.362923e-01,-1.773358e-01,2.378163e-01,-3.511361e-01,2.027659e-02,-1.700019e-01,-5.999321e-01,2.418972e-01,-1.145701e+00,1.484482e+00,
-3.452050e-01,-3.388970e-01,4.319821e-01,8.995652e-01,-6.909314e-01,1.928630e-01,-1.035399e-01,-7.579508e-01,4.603188e-01,3.645231e-01,-9.759779e-02,-2.312768e-01,2.437399e-01,1.788855e-01,-7.122704e-01,3.654960e-04,1.327991e-02,4.525613e-01,-6.453630e-01,-3.684672e-01,3.438919e-01,-4.625134e-01,9.986000e-02,-1.821194e+00,9.136975e-01,8.855638e-01,2.152500e-02,2.367237e-02,1.410818e+00,2.810865e-01,-1.200194e+00,-1.179176e-01,2.069764e-01,4.239903e-02,5.411909e-01,3.652402e-03,5.699267e-01,1.930821e+00,-1.339470e+00,-1.823743e+00,1.691773e-02,-9.320132e-02,2.694500e-01,-2.471431e-02,-2.732143e-01,-1.008190e-01,-2.842138e-01,-6.727383e-01,-1.207592e+00,-1.691500e+00,
-2.039084e-01,5.982345e-01,2.320369e-01,-7.541426e-01,8.018254e-02,6.063604e-01,4.111229e-01,-6.007267e-01,1.725335e-01,-1.327507e-01,-1.637076e+00,6.959742e-02,3.235944e-01,1.181443e+00,1.595471e+00,-7.259590e-03,-6.512529e-02,-3.563553e-01,-3.605385e-01,-8.557655e-01,4.678337e-01,2.786426e-01,6.210510e-02,-6.792151e-01,-1.564132e+00,4.820068e-01,4.882470e-02,-2.395605e-01,4.185534e-01,6.686538e-01,-2.912169e+00,1.041620e+00,-4.913933e-01,-7.015392e-01,2.788544e-01,3.250455e-01,6.830285e-01,8.387035e-01,9.202750e-01,4.412824e-02,8.795636e-01,2.148746e-01,8.641389e-01,1.659346e+00,8.473415e-01,2.243228e-01,-4.258326e-01,3.346067e-01,4.062142e-01,-9.147572e-02,
9.907326e-02,1.647400e-01,-4.146710e-02,-7.956856e-01,-2.037572e-01,7.251998e-01,-6.681531e-01,-5.698138e-01,5.356057e-02,1.433937e-01,3.763499e-02,3.070459e-01,5.793509e-01,-1.006652e+00,4.794887e-01,-2.956780e-02,-1.108844e+00,1.009943e+00,3.745913e-02,-3.450520e-01,-5.962461e-01,-1.518669e+00,4.089720e-02,4.853776e-02,-2.795999e-01,2.452112e-01,4.387640e-04,2.279833e-01,-8.865959e-03,-9.147308e-02,-5.653301e-01,6.082515e-01,1.195351e-01,4.949730e-01,-2.655796e-01,-1.138035e+00,7.764962e-01,1.303537e+00,3.169675e-01,6.356773e-01,9.285140e-01,8.661648e-01,-6.774254e-01,-9.818610e-01,2.167251e-01,4.003343e-01,-2.503673e-01,-4.471640e-01,-1.256893e+00,-1.801384e-01,
-2.369138e-01,-3.145914e-02,9.772026e-02,-8.333685e-01,2.445854e-02,-5.054709e-01,3.849561e-01,-7.330359e-01,-3.520116e-02,-5.458964e-01,-3.125786e-01,-8.030840e-03,-6.686142e-01,-1.028602e-01,9.727137e-01,-1.493240e-02,-6.569628e-02,-2.060672e-01,-5.029290e-01,2.185240e-01,2.755596e-01,-9.534471e-03,3.963870e-02,2.355194e-02,7.254890e-01,-3.945693e-02,-6.601780e-03,8.869814e-01,8.984309e-01,3.353414e-01,2.262867e+00,2.991177e-01,-5.411466e-01,-1.452513e-02,-4.954884e-01,-1.338078e-01,-9.990678e-01,1.026190e+00,3.190755e-03,-7.238170e-03,-6.898193e-01,4.254417e-01,-2.816258e-01,-4.052866e-01,7.234148e-01,-2.775861e+00,9.643576e-02,-4.445643e-01,2.525461e-01,5.166563e-01,
3.434348e-02,-4.034148e-01,-4.185868e-01,9.466134e-02,6.974705e-01,-4.415976e-01,-4.069349e-01,7.198582e-01,4.896865e-01,-4.160156e-03,-8.645119e-01,2.836408e-02,2.505114e-01,6.990716e-01,-6.346475e-01,-2.619780e-02,2.673456e-02,-3.493733e-01,4.731483e-02,-1.044197e-01,-7.210017e-03,1.302302e+00,1.323230e-02,-2.127221e-01,-2.200492e-01,3.218276e-01,-2.100300e-02,-1.157187e-01,7.155972e-01,2.467845e-01,-9.800635e-01,-4.063614e-01,2.666864e-02,-2.749246e-01,-3.522227e-01,2.027084e+00,-2.220908e-01,2.815819e-01,5.316649e-01,7.633227e-01,3.113764e-02,-1.167480e-01,2.100253e-01,-2.704578e-02,-9.575497e-02,9.759848e-02,-9.304748e-01,4.109516e-01,-3.557887e-01,3.458352e-01,
-9.845471e-02,5.502729e-01,-1.611770e-01,-4.904161e-01,-4.342969e-01,-1.009049e-01,-1.902831e-01,1.646604e-01,-4.079616e-02,-4.191582e-01,1.203532e+00,-2.362747e-01,3.769984e-01,-4.659253e-01,4.157040e-01,-4.867700e-03,6.224806e-01,3.945602e-01,-1.132412e-01,-7.388888e-01,-6.105695e-01,-4.518387e-01,-1.673500e-02,9.487541e-01,4.528568e-01,9.362964e-01,-2.076330e-02,6.711280e-01,2.239557e-01,1.325472e+00,-7.198750e-01,1.169947e+00,-3.487614e-02,3.698861e-01,-1.029036e-01,-4.828460e-01,5.014809e-01,3.218837e-01,-7.197477e-01,4.216677e-01,7.205814e-01,2.732514e-01,6.049050e-02,-4.583444e-01,4.758947e-02,-4.709450e-01,-5.076022e-01,-3.890126e-01,-9.824968e-01,-6.439665e-01,
-6.858061e-02,1.955538e-01,-3.139543e-01,1.780571e-01,6.873100e-02,9.504094e-01,6.557292e-01,-4.130264e-01,-5.778353e-01,-7.058811e-01,3.951806e-01,-1.851362e-01,1.594271e-01,-2.358957e-02,3.550654e-01,-2.435060e-03,-1.156325e-01,2.171961e-01,-1.212866e+00,8.166640e-01,-3.182695e-01,-2.814081e-01,9.884850e-02,-6.946030e-01,-5.152376e-01,-9.912525e-02,-1.360420e-02,6.887689e-01,2.094055e-01,-4.424898e-01,-7.072042e-01,6.588336e-01,-1.277550e-01,2.904071e-01,5.599547e-03,2.254865e-01,1.398077e-01,2.197918e+00,4.723694e-01,-1.206756e-01,-1.814791e-01,-7.016927e-01,-1.227851e-01,2.362349e-01,6.732379e-01,-3.334483e+00,-1.735314e+00,2.111262e-01,1.072677e+00,-5.110480e-01,
-5.611379e-02,2.349527e-01,3.337686e-01,1.519332e+00,2.476750e-01,5.114322e-01,-2.901084e-01,2.796946e-01,3.422379e-01,-3.065681e-02,4.527710e-01,1.139949e-01,1.111825e-01,1.959070e-01,-1.109144e+00,4.059970e-02,1.124036e+00,-9.118243e-02,9.358951e-02,2.279766e-01,2.755185e-01,-4.246500e-03,-2.572090e-02,-3.372252e+00,-2.291978e+00,4.165900e-02,-3.336990e-02,-1.142157e-01,3.775255e-01,1.252788e-01,-2.547093e+00,-5.627984e-01,2.312468e-01,-1.136621e+00,8.030037e-01,3.789033e-01,-1.848452e-01,-1.339827e+00,-6.159261e-01,2.635303e-02,-4.586871e-01,-6.652067e-01,-4.927945e-01,4.506306e-01,-1.235236e+00,-5.106208e-02,-6.628291e-01,-8.151369e-02,1.082034e+00,-2.998170e+00,
3.790430e-02,3.399710e-02,-2.047350e-03,-3.128030e-02,-1.853720e-02,-3.012510e-02,-2.659910e-02,2.672520e-02,-4.711000e-03,-3.505700e-02,-1.188350e-02,4.201240e-03,-2.942710e-02,2.130210e-02,-3.304500e-02,-3.176810e-02,3.969500e-02,3.370170e-02,-5.051530e-02,-2.923670e-02,-3.305500e-02,1.852750e-02,-9.923100e-03,-3.504810e-02,1.903300e-02,1.870450e-02,1.245600e-02,3.919190e-02,1.504760e-02,-7.006860e-03,-5.363640e-02,-5.643780e-02,1.237650e-02,-1.558820e-02,-1.564420e-02,2.666530e-02,-4.531060e-02,2.697280e-03,-3.582660e-03,4.702530e-03,-3.037020e-02,1.358170e-02,1.937070e-02,9.323670e-03,-4.730350e-02,-4.659960e-02,-2.319340e-02,-2.192880e-02,-3.612560e-02,-4.742710e-02,
-3.671475e-01,2.222349e-01,5.802109e-01,-4.275053e-02,-6.541872e-02,7.525370e-01,7.187592e-01,-1.264851e-02,1.307068e-01,-7.688164e-02,-2.210396e-01,9.188473e-02,-3.825541e-01,-1.487438e-01,1.301504e+00,2.829000e-02,-6.286286e-01,5.696955e-01,-7.069452e-02,1.931539e-01,-2.516812e-01,-1.169330e-01,1.243070e-01,-1.376610e+00,2.019353e-01,-3.700569e-01,-1.886030e-02,1.591947e+00,-9.548453e-01,-2.795658e-01,3.732570e-01,6.682519e-02,-1.087474e+00,3.992592e-01,6.378572e-01,1.674110e-01,6.493070e-01,1.508689e-01,-9.275814e-01,-6.266615e-01,-1.219303e-01,6.491469e-02,-7.687602e-01,9.141035e-02,-4.347093e-01,-2.495496e+00,8.141260e-01,4.581308e-01,4.502492e-02,9.408240e-02,
8.763523e-02,-1.059757e-01,1.461501e-02,1.456118e-01,3.299331e-02,3.375608e-03,2.037386e-01,-5.811975e-03,2.571676e-01,6.704465e-02,2.496721e-01,-3.699428e-02,-4.287641e-02,8.813965e-02,-8.366360e-03,4.263040e-02,-5.335277e-02,3.182139e-01,4.989427e-02,-2.775844e-02,2.874369e-01,1.352661e-01,2.229670e-02,2.462223e-01,-7.892055e-02,1.517526e-01,-3.994200e-03,7.193864e-02,-3.048821e-02,2.074409e-01,2.092964e-02,-3.759980e-02,3.537838e-04,-7.875207e-02,4.657635e-03,1.666256e-01,9.875749e-02,4.578178e-02,-5.001441e-02,-3.962706e-02,8.153383e-02,1.609295e-01,-3.892225e-02,6.298256e-02,4.560439e-02,-1.755707e-01,3.005286e-01,1.844325e-01,-1.108533e-02,-8.009417e-02,
-2.565267e-01,-8.017193e-02,-4.980846e-01,2.668237e-02,-3.110842e-02,-5.618587e-01,2.994508e-02,-7.213587e-02,-1.144232e-02,-6.738919e-02,2.458388e-01,4.053061e-01,2.144793e-02,3.442901e-01,8.879824e-01,-4.447190e-02,1.255245e+00,1.306409e-01,-3.796010e-02,1.801390e-01,-7.759999e-01,-4.429193e-01,1.169160e-01,6.498802e-02,1.726480e+00,-1.694585e-01,-5.930640e-02,-2.855308e-01,1.372011e+00,-1.020859e-01,1.237446e+00,1.584551e+00,4.939009e-01,4.458206e-01,5.739273e-01,1.343666e-01,1.878652e-01,-8.579570e-01,1.179304e+00,-1.233500e-01,3.456660e-01,-2.634176e-01,-4.730569e-01,1.017760e+00,-5.142425e-01,-4.900201e-01,1.633525e+00,3.816030e-01,4.762218e-01,1.710357e-01,
-2.812861e-01,-3.526388e+00,-1.489870e-01,-1.852719e-01,-8.909078e-01,3.992540e-01,-7.040858e-01,5.646911e-02,-3.605300e-01,-8.675456e-01,-4.962620e-01,-7.822869e-01,-1.780162e-01,-3.738157e-01,6.575115e-01,-4.318570e-02,5.689673e-01,-3.328266e-01,2.919915e-02,-6.069570e-01,-5.371154e-02,1.161046e-01,2.003820e-02,-2.071981e-01,-1.662421e+00,-6.303336e-02,-1.353470e-02,4.423859e-01,7.551039e-01,2.068265e-01,-1.347804e+00,7.600624e-03,1.695790e-01,2.895166e-01,-6.728804e-01,-6.141911e-01,-6.839072e-02,1.364471e+00,-1.232898e-01,-2.023870e-02,-7.937735e-01,-5.292691e-01,2.262561e-01,4.047239e-01,-2.078940e+00,-3.136513e-01,-4.811740e-02,-2.350833e-01,-1.937193e-01,-1.363338e-01,
-1.749068e-01,6.955116e-02,8.784994e-01,1.312958e-02,-8.663254e-02,2.115315e-01,4.858719e-01,-4.026039e-02,8.948787e-02,2.092485e+00,5.647356e-01,4.243563e-01,-3.774914e-02,-2.827613e-01,-2.801887e-01,2.307350e-02,-3.019060e-01,-9.737354e-02,1.576653e-01,6.554654e-01,-3.829105e-03,1.296684e-01,-1.752070e-02,4.984428e-01,-7.322701e-01,-3.095277e-02,-3.086190e-02,1.807264e-01,1.073834e+00,8.917949e-02,-1.754973e-01,-1.012963e-01,-2.708911e-01,-2.817261e-01,-1.117614e-01,1.425447e-01,-2.292468e-01,-3.669529e-01,3.154666e-01,3.431689e-01,9.183624e-02,3.036072e-01,5.038314e-01,4.702315e-02,3.730033e+00,8.406971e-02,-3.486186e-02,-3.747840e-04,-5.237141e-02,-1.129113e-01,
-2.286845e-01,1.192395e-02,2.154001e-02,7.673451e-01,1.103439e-01,-8.213125e-01,-1.644846e-01,-8.299132e-02,2.306073e-01,-5.079466e-02,1.991379e-01,-1.250662e-01,2.641582e-01,3.467682e-01,-1.591202e-01,-1.993180e-02,-4.712173e-02,-5.734890e-01,2.879193e-01,4.292152e-02,1.329364e-02,1.218768e+00,1.091430e-01,2.827567e-01,6.643403e-01,-3.317355e-01,-1.943660e-02,1.362542e-01,-8.546437e-02,-2.131803e-01,-3.326362e+00,4.598019e-02,8.754452e-02,-1.528661e-01,-3.065070e-02,1.036498e+00,-3.385724e-01,-1.547425e+00,7.890914e-02,2.475293e-01,-5.001227e-01,-6.238965e-01,-1.165561e-01,1.047532e+00,-1.916372e-01,-8.404238e-02,-2.884671e-01,8.458418e-01,7.729805e-01,3.294488e-01,
-2.562170e-02,-3.011214e-01,-3.855403e-01,1.594390e-01,-3.793542e-02,-6.483309e-02,1.688073e-01,-4.822317e-01,-2.728437e-02,-8.019740e-01,-1.526793e-02,-1.595333e-01,4.638548e-01,-2.223096e-01,6.877091e-01,-3.874030e-02,5.846812e-01,7.777860e-03,2.916376e-01,-9.924604e-01,-6.539568e-01,-1.778023e-02,-5.623180e-02,-3.874802e-01,9.285961e-01,-4.326494e-01,-1.629200e-02,4.221765e-01,6.287516e-02,1.927724e-01,-1.505518e-01,4.974406e-01,-4.699714e-01,9.178966e-01,1.639487e-01,-5.246928e-01,1.506882e-01,-5.272343e-01,1.409101e-01,5.636076e-01,-1.126546e-01,3.771637e-01,-6.778759e-01,-3.826062e-02,-3.869640e-01,-7.769814e-02,5.046371e-01,-9.228542e-02,7.793827e-02,4.369819e-01,
-3.361980e-02,2.318470e-02,-5.349640e-02,3.883810e-03,1.633840e-02,2.003250e-02,-7.893040e-04,-4.123690e-02,-3.401290e-02,-4.933930e-03,-2.898870e-02,-2.103910e-02,-1.605860e-02,-1.544970e-02,-7.397180e-04,2.506870e-02,-4.693810e-02,2.647620e-03,-1.668770e-02,-4.432580e-02,-2.984270e-02,-3.071790e-02,3.349910e-02,1.050040e-02,-6.140920e-03,-5.420190e-03,-1.589230e-02,3.132240e-02,3.554610e-02,-4.860760e-02,-3.206730e-02,3.551630e-02,-4.771110e-02,-4.803860e-02,-2.121750e-03,4.076150e-02,-4.029410e-02,1.984210e-02,6.263030e-03,3.435870e-02,-3.285760e-02,-1.768890e-02,4.398390e-02,1.723740e-02,-5.312660e-03,-3.574710e-02,-3.087920e-02,2.600680e-02,-3.037760e-02,-2.076650e-02,
7.421529e-02,
-2.431780e-02,
-1.406409e+00,
5.683508e-01,
-1.770800e-02,
-7.089019e-01,
-4.919747e-01,
-4.975592e-01,
-3.905157e-01,
-8.931783e-02,
-6.684150e-01,
5.114354e-02,
-4.003590e-01,
-7.014071e-01,
-6.887341e-01,
-6.099045e-01,
-1.553440e-01,
5.448449e-01,
6.754692e-01,
5.302638e-01,
-4.428658e-01,
-4.799472e-01,
2.493294e-02,
-5.705579e-02,
-7.464485e-01,
4.756703e-01,
4.357026e-01,
-9.024925e-01,
-1.704310e-01,
2.667982e-01,
5.485076e-01,
-7.845683e-01,
6.441143e-01,
7.166498e-01,
-9.421591e-01,
1.215495e+00,
3.916602e-01,
-3.214999e-01,
4.482644e-01,
9.101897e-02,
-8.787659e-01,
-6.802840e-03,
-1.935399e-01,
2.757241e-01,
-8.146071e-01,
-1.203512e-01,
-7.236250e-01,
-1.003567e+00,
5.310377e-01,
-1.071240e-02,
-4.428992e-01,7.385210e-03,-4.011793e-02,1.560751e-01,1.948520e-02,7.391689e-01,2.804376e-01,2.958104e-01,6.202478e-01,7.505072e-01,-4.706797e-01,-2.991170e-01,-4.131279e-02,2.052879e-01,-1.968096e-03,4.604755e-01,1.261760e-01,1.420659e-01,-6.435606e-01,6.950725e-02,-2.486432e-01,-2.866798e-01,-1.849476e-01,-2.801485e+00,1.739523e+00,6.452082e-01,2.625806e-01,3.260274e-02,-1.645735e-01,-1.044288e-01,8.459321e-02,-1.576490e-01,3.711965e-01,-1.013518e-01,8.463906e-02,5.117083e-02,-8.315019e-03,-4.290933e-01,-3.259868e-02,2.718105e-01,2.403213e-01,-1.284070e-02,-2.305106e-01,9.831309e-02,1.000267e+00,7.770799e-01,-1.431859e+00,7.768781e-01,-7.688426e-01,9.978900e-03,
8.923693e-02,-4.049260e-02,1.745565e-01,-1.361075e-01,4.614380e-02,7.995374e-01,-1.552981e+00,1.375723e-01,-1.103697e-01,-1.316020e+00,-4.296207e-01,-2.025326e-01,-9.420652e-02,-1.191769e+00,-3.675792e-01,-2.004730e-01,2.705587e-01,-8.815711e-02,-3.217010e-01,1.801911e-01,1.578533e-01,1.037872e-01,1.587558e-01,9.483115e-01,-2.076935e-01,-2.639163e-01,1.452558e-01,-9.377760e-02,-5.112201e-01,-1.557097e-02,1.500077e-01,-7.916525e-02,5.577563e-01,-1.713623e-01,-2.448207e-01,3.666981e-01,-9.713807e-01,4.080317e-01,-4.522226e-01,6.540516e-01,-1.949970e-01,2.932280e-02,-6.277081e-02,-5.106033e-02,4.944669e-02,5.638571e-01,8.407077e-02,3.127683e-01,4.628824e-01,-2.808830e-02,
7.011393e-02,-3.224520e-02,-1.323547e-01,2.334414e-01,1.710670e-02,1.066746e-01,2.715651e+00,9.642348e-03,4.837745e-01,1.376026e+00,3.763143e-01,-5.291742e-01,-5.190687e-01,-4.312228e-01,2.682875e-01,-2.910568e-01,-9.370568e-02,-6.201487e-01,-5.813270e-01,5.193252e-01,1.255559e-01,1.568411e-01,-5.071536e-01,-8.964138e-01,1.565410e+00,1.151405e-01,1.169264e-01,-1.072839e-02,6.276836e-03,-2.732894e-01,-3.183986e-01,-5.823520e-03,-3.687080e-01,3.719312e-01,-2.737263e-02,-6.601850e-02,4.201581e-01,-1.117649e-01,-6.348677e-01,-4.118977e-01,2.533484e-01,1.496210e-02,-2.454599e-01,-4.981653e-02,1.287150e+00,4.133794e-01,1.513182e-01,6.754143e-01,-1.045474e-01,-1.681280e-02,
2.309450e-01,-1.705720e-03,8.463237e-02,1.005985e-01,-1.333700e-02,8.433053e-01,-2.396398e+00,-2.139775e-01,-1.977414e-01,1.695124e+00,-1.984505e+00,4.167913e-01,1.228800e+00,3.595557e-01,7.062618e-01,-5.531437e-01,2.758565e-02,2.731055e-01,-1.792644e-01,3.342070e-01,3.562160e-01,5.313910e-01,5.624392e-01,-1.105719e+00,9.501439e-02,-1.055755e-01,-7.537529e-01,-7.825611e-01,-1.778216e+00,9.497351e-01,-2.395231e-01,-6.373530e-01,-8.504812e-01,1.883546e-01,-1.941264e-01,-5.041119e-01,-8.428795e-01,9.478857e-02,-9.525962e-01,3.943381e-01,2.304691e-02,2.880460e-02,-2.249106e-01,-8.917389e-02,-1.556070e-01,6.318607e-01,-2.981307e-02,1.810190e-01,-3.714427e-01,-4.877570e-02,
5.474679e-01,-2.480130e-02,-2.168063e+00,-2.444393e-02,7.026200e-03,2.827089e-02,2.477483e-01,-3.714846e-01,-9.405617e-01,-1.200197e+00,-1.195143e+00,-1.319071e-01,1.427964e-01,-7.238785e-01,2.720367e-01,6.306297e-02,-1.115615e+00,6.083505e-01,3.510178e-01,-3.884921e-01,1.063239e-01,6.704179e-01,-7.487418e-02,-5.493004e+00,2.815169e-01,-3.098804e-02,-1.144624e+00,-1.326269e-01,6.763756e-01,1.515433e+00,-1.024959e+00,-3.940279e-01,1.138972e+00,6.538259e-01,4.608325e-01,-4.479646e-01,4.490287e-01,-9.256030e-01,1.092963e+00,-4.353389e+00,-7.473853e-01,4.054330e-02,1.856521e+00,-8.899852e-02,-6.219170e-01,-2.933342e-01,-5.014763e-01,-6.935101e-01,3.359608e-01,-6.129050e-03,
1.385157e-01,4.103220e-02,1.200646e-01,2.755966e-01,7.646780e-03,5.720662e-01,6.971663e-01,-1.263978e-01,2.257791e-01,4.803877e-01,-1.838270e-01,2.144051e-01,5.428032e-02,4.182811e-01,-9.085544e-02,-6.410836e-02,-3.621581e-01,1.734992e-01,7.334351e-02,-4.083258e-02,1.505904e-01,-6.499238e-02,3.636595e-01,-4.991127e-01,-2.391607e+00,1.241043e+00,3.085187e-02,-5.368315e-02,3.745460e-01,-3.051696e-01,7.689721e-01,3.107623e-01,-5.288530e-02,9.451681e-02,2.804780e-01,4.605419e-02,7.578169e-02,1.031388e-01,1.577928e-01,4.064255e-02,2.239854e-01,-2.154490e-02,8.478141e-02,1.670261e-01,-2.588671e-01,-1.923935e-01,1.197719e-02,-2.054904e-01,6.108011e-02,-2.450290e-03,
-3.146653e-01,-4.071190e-02,1.349848e-01,2.585042e-01,1.493330e-02,6.931172e-01,-1.023897e+00,-4.341936e-01,-9.265195e-02,6.213845e-01,1.097602e-01,-3.306406e-01,-1.346538e+00,3.194470e-01,-2.514004e-01,-1.144601e+00,4.128576e-01,5.038275e-01,2.996503e-01,3.590671e-02,1.863074e-01,2.406049e-01,-1.980009e-01,-1.814461e+00,-7.051044e-01,2.648490e-01,1.566303e-01,-2.247369e-01,-3.829983e-01,-4.410523e-01,-7.715955e-01,-5.047371e-01,5.486550e-02,-4.604817e-01,4.384485e-02,8.424096e-02,-6.920567e-01,1.721210e-01,3.268173e-01,3.071066e-01,2.021361e-01,4.037550e-02,6.255793e-02,-3.317896e-02,2.838360e-01,-7.474268e-01,4.666722e-02,9.864960e-01,-2.250848e-01,-1.647140e-02,
-2.675551e-01,4.629360e-02,-8.583684e-03,-5.033195e-03,-2.319150e-02,-3.998733e+00,1.268054e-01,-5.171661e-01,-7.780606e-02,-1.268893e-01,2.195013e+00,-3.112012e-02,-1.519029e-01,8.200385e-01,-2.074888e-01,-6.251165e-01,5.109437e-01,4.534608e-01,-1.707933e-01,3.810048e-01,-2.715803e-01,6.809859e-01,-2.050516e-01,-7.449296e-01,-2.916498e-01,1.638615e-01,2.161516e-01,-5.440451e-02,1.419888e-02,1.374870e-01,-2.911826e-01,2.029562e-01,6.509488e-01,-2.562880e-01,-2.028401e-01,1.109601e-01,3.476534e-01,2.020705e-01,-1.364706e-01,3.902627e-01,2.449978e-01,3.456000e-02,5.427219e-01,7.183830e-02,3.978550e-01,7.492595e-01,1.454942e-01,-2.618219e-01,2.432065e-01,3.815670e-03,
-2.561063e-01,6.047550e-03,7.541076e-01,-9.722137e-03,-4.329310e-03,2.182602e-01,-6.027092e+00,1.705792e-01,-1.341497e+00,-1.024599e+00,-2.691202e+00,-2.563325e+00,8.625447e-01,-6.206542e-01,-5.385875e-01,4.577508e-01,-1.284392e+00,1.554086e+00,2.429335e-01,-1.421616e+00,8.783007e-01,2.188906e-01,-4.669247e-01,-3.313760e+00,-1.141778e+00,1.187707e+00,6.630866e-02,-2.751256e+00,-9.245947e-01,-2.587658e+00,-7.397766e-01,-3.068214e-01,-1.122478e+00,1.004761e+00,-8.132858e-01,-4.951042e-01,-8.034614e-01,-1.193524e+00,9.681264e-01,9.165475e-01,1.534593e+00,-1.459930e-02,3.343863e-01,1.064113e-01,-1.798209e+00,-3.937158e+00,-6.950327e-01,-5.803690e-01,-2.004614e+00,-4.220730e-02,
-2.002825e-01,4.929510e-02,2.974637e-01,-7.497112e-01,-3.523980e-02,7.800204e-02,-5.126061e-01,-1.474070e-01,-3.509685e-01,-9.039484e-01,1.014085e+00,3.412196e-01,2.630819e-01,-8.418878e-01,-2.828965e-01,-3.528470e-01,-1.567698e-01,6.265815e-01,-4.506223e-02,-6.543227e-01,6.212511e-01,-1.302483e-01,4.164771e-01,2.176423e-01,1.590605e-01,-3.652721e-01,5.373776e-01,-4.639107e-01,-3.791148e+00,3.021472e-01,8.464534e-01,-6.803712e-01,-2.569256e-01,6.196983e-01,3.778856e-01,5.155249e-01,6.452386e-01,2.517104e-01,-2.506189e-01,4.221471e-01,1.551958e-01,-7.284040e-03,-1.229852e+00,-8.187978e-02,1.559543e-01,-2.186431e-01,-2.785483e-02,3.942874e-02,-6.911755e-01,-2.757500e-02,
-5.324749e-01,-3.836730e-02,2.827160e-01,-8.406055e-04,1.110470e-02,9.996173e-01,-1.138846e-01,5.411201e-01,-3.394051e-01,-1.688370e-01,2.003210e-01,-1.236524e-01,-2.576642e-01,8.495301e-01,-4.426179e-01,-2.297092e-02,7.000430e-01,-1.048391e+00,2.534989e-01,-6.533116e-01,3.593228e-01,-2.742531e-01,5.775747e-01,-1.203273e+00,3.487069e-01,-1.002524e-01,1.275661e-01,-9.112256e-01,8.255832e-01,3.293739e-01,3.647878e-01,-1.851507e-01,1.784831e-01,-3.185504e-01,8.188324e-02,4.744495e-01,-2.303268e-01,2.377947e-01,1.857264e-01,1.108239e+00,3.820858e-02,2.812730e-02,3.140282e-01,4.796538e-02,1.213922e+00,-4.463433e-01,5.062773e-01,-1.729529e-01,-2.583457e-02,1.640550e-02,
-3.865962e-01,4.025860e-02,-2.687734e-01,-4.924294e-02,1.268740e-02,5.800833e-01,5.578157e-02,7.506809e-01,-2.624808e-01,-2.272139e-01,-1.074210e-01,-6.845422e-01,1.376915e-01,-1.627507e-01,2.079871e-03,-2.321776e-01,-2.728096e-01,4.593857e-01,-1.100449e-03,4.785322e-01,4.767546e-01,7.036114e-01,2.480301e-01,-6.986738e-01,-2.477741e+00,-2.133545e-01,6.797763e-01,5.598194e-01,-1.342187e-01,6.867636e-01,-2.753778e-01,-4.386701e-01,2.071257e-01,1.073995e-01,-2.058251e-01,1.049575e+00,-7.229497e-01,-4.122830e-01,9.802068e-02,-7.945492e-01,6.580650e-01,-4.478710e-02,-5.701793e-02,8.510352e-02,4.571182e-01,5.781955e-01,-2.993954e-01,1.920504e+00,3.413554e-01,6.957870e-03,
-1.487215e-01,3.358120e-02,-3.598748e-01,2.836315e-01,3.835020e-02,7.982588e-01,-1.770628e+00,-5.389090e-01,3.506505e-01,-9.935889e-01,-7.563008e-01,-4.876812e-01,7.023126e-01,-2.621822e-01,-6.268129e-01,2.978580e-02,-3.741541e+00,7.442369e-01,6.821625e-01,-2.219426e-01,-5.386727e-03,6.158817e-01,4.503198e-03,9.760550e-01,6.157730e-02,3.152381e-01,-1.046721e-01,4.891898e-01,2.262270e-01,-9.002951e-02,-2.175018e-01,5.203124e-01,-1.124603e-01,5.822849e-02,-4.649076e-01,1.087565e-01,1.566170e-01,-1.167262e+00,-3.103449e-01,-1.051074e+00,6.382515e-01,1.006760e-02,7.750747e-01,-1.945083e-02,5.428576e-01,-1.680140e+00,1.181069e-01,5.708813e-01,-1.133610e+00,1.466210e-02,
1.561354e+00,2.365000e-02,-3.591659e+00,-1.097828e+00,-2.261830e-02,-2.519853e+00,-2.773554e+00,-3.574126e-01,-3.580008e-01,8.304108e-03,-1.233676e-02,-4.817888e-01,-1.421085e+00,-4.683205e-01,-5.582601e-01,-2.221409e-01,-4.905663e+00,6.508510e-01,-1.230131e-01,-1.371301e+00,1.771675e+00,4.218875e-01,4.011185e-01,-1.474200e+00,8.877484e-01,-2.480386e-01,-1.512397e-02,5.289773e-01,2.234448e+00,9.938708e-01,-1.042001e+00,-8.756945e-01,-9.474851e-01,9.118530e-01,-4.655298e-01,-1.944568e+00,-2.061889e-01,4.739041e-01,5.804458e-01,7.014298e-02,1.706295e-02,-2.567330e-02,4.221853e-01,2.424051e-01,1.018137e+00,-1.938069e+00,-5.933768e-01,-3.106363e+00,-1.091109e+00,-2.859800e-02,
-1.403488e-02,3.194430e-02,3.625310e-02,-3.750190e-02,-4.689520e-03,-3.968810e-02,-3.090684e-02,-3.787067e-02,-4.908204e-03,2.094870e-04,-1.699514e-02,-4.295870e-02,2.532415e-02,2.752390e-02,4.386840e-02,-3.631091e-02,2.892790e-03,-2.024074e-02,-9.770983e-03,1.738791e-02,6.453242e-03,-4.167312e-02,-3.957593e-02,-1.533900e-02,-4.540610e-02,1.485405e-02,2.857294e-02,7.854660e-03,2.054150e-02,5.199360e-04,8.048214e-03,3.114060e-03,-4.903807e-03,1.394385e-02,-3.323104e-02,-4.488470e-02,-4.718198e-02,-9.947580e-03,-5.370420e-02,2.810460e-02,1.745580e-03,-4.253680e-02,-5.279839e-02,3.340030e-02,-5.707967e-02,-3.809730e-02,3.985130e-02,-3.800410e-02,-5.814278e-02,-5.040190e-02,
1.607839e-01,4.998610e-02,6.417487e-01,-1.960944e-01,-4.298350e-02,-4.645079e-01,-9.336647e-01,1.273723e-01,-5.960106e-01,-5.615248e-03,-1.183409e+00,-2.215413e-01,-1.642771e-01,1.112053e-01,4.129266e-02,-2.856150e-02,4.192549e-01,-3.814086e-01,1.686967e-01,-4.288295e-01,8.657428e-02,3.076495e-01,3.993852e-01,-9.186196e-01,3.452090e-01,9.815934e-02,-1.007030e-01,-1.312715e-02,-3.597282e-01,2.361137e-01,2.445389e-01,-1.281324e-01,8.097030e-01,-7.588675e-02,-2.329760e-01,3.432479e-01,-5.915504e-01,3.693422e-02,1.390131e-01,-2.083403e+00,-4.021379e-01,-4.097030e-02,4.467834e-01,9.832222e-02,2.693129e-01,4.719729e-01,-3.089937e-01,2.864616e-01,-4.143814e-01,1.512900e-02,
8.434457e-02,4.599390e-02,4.393086e-01,-3.911695e-01,-4.081430e-02,-1.615952e-01,-1.166963e-02,5.010904e-01,-1.465603e-01,4.940655e-01,-8.828881e-01,-3.554837e-01,-1.415454e-01,-1.948052e-01,-1.648995e-01,-2.091748e-01,2.618770e-01,-5.484256e-01,2.623184e-01,-2.335780e-01,7.661059e-03,-3.732237e-01,2.753014e-01,5.346134e-01,4.845261e-02,3.152023e-01,3.797446e-01,-1.251271e-01,7.474829e-01,-2.348462e-01,-4.727103e-01,8.124573e-01,1.463928e-01,-5.339517e-02,4.692572e-02,2.194434e-02,1.683185e-01,8.462886e-02,-1.904116e-01,-6.015816e-01,5.713816e-01,-3.634850e-02,7.268301e-01,1.458843e-01,5.105739e-01,-2.044773e+00,-3.469611e-01,-3.322484e-01,-2.619753e-01,2.532070e-02,
2.340130e-02,2.931770e-02,-2.319170e-02,-1.932790e-02,-4.061280e-03,-4.200530e-02,-5.194480e-02,-4.586230e-02,3.424280e-02,1.248700e-02,2.171980e-02,-1.397710e-02,-1.858960e-02,-1.975500e-02,2.453920e-02,1.144570e-02,-1.483780e-03,-1.506080e-02,-5.085520e-02,-1.972580e-02,-2.074830e-02,-5.178350e-02,-5.080100e-02,-2.226610e-02,-3.650060e-02,1.858960e-02,-1.684550e-03,-1.380520e-02,-1.132770e-02,-2.187170e-02,-3.376620e-02,9.638840e-03,1.956810e-02,-1.783200e-02,-1.227970e-02,-8.961880e-03,-4.246770e-02,-9.188940e-03,-1.350340e-02,-2.046360e-02,-4.986550e-02,-1.415570e-02,-2.448810e-02,-3.365050e-02,4.903670e-02,3.798050e-03,-3.380230e-02,-4.596920e-02,-1.189210e-02,3.546130e-03,
3.293321e-01,1.082940e-03,-2.495450e+00,-1.088206e-01,-1.577250e-02,-7.937073e-01,-2.315990e+00,-5.695447e-03,2.972359e-01,-1.979997e+00,3.237477e-01,6.227378e-01,-6.482016e-01,3.566651e-01,-8.167680e-01,-2.011772e-01,1.834900e-02,1.749193e+00,-2.316323e-01,-7.515218e-01,4.185137e-01,-5.960818e-01,8.036608e-01,2.146519e+00,6.451145e-01,-6.113518e-01,-7.036206e-01,-4.536051e-01,4.688653e-01,5.449038e-01,2.136936e-01,4.056923e-01,1.849457e-01,7.983245e-01,6.609833e-01,-1.041345e+00,-1.237745e-01,-2.495714e-02,-2.678993e-01,1.497621e+00,-3.753681e-01,1.793740e-02,-5.616782e-01,5.044107e-02,9.649152e-02,1.033779e+00,5.858397e-01,-2.205591e-01,-1.561817e+00,-7.999150e-03,
-7.418057e-03,1.836430e-02,-3.404462e-01,2.466681e-03,8.995660e-03,-4.526756e-01,4.550031e-01,6.711445e-01,1.026685e+00,-6.901712e-01,-5.947513e-01,-5.418042e-01,-1.045475e+00,6.857699e-01,-4.872756e-01,5.173857e-01,-1.603484e-01,1.734151e-01,-2.667125e-01,-2.599448e-02,-3.583888e-01,1.514125e-01,-1.979636e-01,3.675242e-01,-9.845547e-02,-6.544473e-01,5.058902e-01,2.942809e-02,6.216384e-01,5.418562e-01,-6.618693e-01,1.040843e+00,6.005676e-02,3.937790e-01,1.589828e-01,4.850882e-01,-7.854452e-01,-1.932791e-01,-2.255420e-01,-1.864305e-02,-4.235391e-01,-5.150110e-02,-7.303741e-03,-4.983191e-01,7.112177e-01,5.089002e-01,-5.471011e-01,-3.828467e-02,2.036167e-01,-2.735970e-02,
1.201508e-01,4.081600e-02,1.032549e+00,-3.368498e-01,-2.673490e-02,-4.849664e-01,6.473583e-02,-5.938496e-01,3.509846e-01,-1.249381e-01,-2.432177e-01,6.229163e-01,-2.707924e+00,9.609060e-01,6.942365e-01,2.684211e-01,-2.048275e+00,-2.517465e-01,-6.589521e-01,-6.835886e-01,-3.520832e-01,-2.261392e-01,9.325011e-01,4.500103e-01,-1.853705e+00,-7.946678e-01,9.607282e-02,9.618138e-02,4.957230e-01,-7.552425e-02,2.566665e-01,9.161415e-01,-2.407092e-01,3.003292e-02,7.830873e-01,-3.228605e-01,2.164834e+00,1.218936e+00,-5.792496e-01,3.914934e-02,5.956523e-01,1.605680e-03,-1.199490e+00,1.045626e-01,5.099707e-01,-9.482371e-01,-1.551285e+00,2.109804e+00,1.029637e-02,3.645840e-02,
3.517530e-02,-1.495720e-02,-4.423520e-02,-1.258240e-02,-1.721300e-02,-2.388270e-03,1.362830e-02,-1.197720e-02,-4.195310e-02,3.800310e-02,3.116240e-03,3.071300e-02,-1.979980e-02,-2.252740e-02,4.020070e-02,-3.139050e-02,1.174240e-02,1.484050e-02,2.418800e-02,-2.072720e-02,2.234070e-02,-3.184290e-02,-2.990150e-02,-5.639350e-03,1.687710e-02,-3.952590e-02,-1.305890e-02,-4.718860e-02,-3.980800e-02,1.498740e-02,-5.582220e-02,2.304300e-02,-7.688100e-03,3.108440e-02,-1.040000e-02,-4.120880e-02,3.130130e-02,-4.459980e-02,-2.577280e-02,-1.843890e-02,3.555870e-02,-4.820380e-02,-1.655630e-02,-1.125880e-02,-1.138960e-02,2.991350e-02,-5.001070e-02,-4.382960e-02,-1.803830e-02,-3.210200e-02,
-1.706209e-01,-1.687860e-02,-4.317423e-01,-2.666563e-01,1.136640e-02,-5.536255e-01,1.875374e+00,3.216938e-01,1.854062e-01,1.170267e+00,6.859753e-02,-3.061431e-01,-4.000948e-02,-5.506094e-01,-1.458463e-01,-1.601000e-01,2.496444e-01,-1.836508e+00,-6.068348e-01,2.001268e-02,2.102599e-01,-2.439615e-01,3.898073e-01,-1.345472e-01,1.482537e+00,1.974062e-01,8.781322e-01,2.223719e-01,2.773407e-01,2.053741e-02,-3.727817e-01,-2.039470e-01,-6.570266e-01,1.497113e-01,1.260174e-01,1.331883e-01,-9.110535e-03,-2.038562e-01,-2.778338e-01,-1.182801e-01,1.538690e-01,-4.893490e-03,-2.860093e-01,-1.494030e-01,7.179028e-01,-7.575030e+00,3.247253e-01,7.530010e-01,-5.687618e-01,5.046570e-02,
6.971194e-01,-3.803130e-02,7.717756e-01,-3.875442e-01,-3.673670e-02,-1.315491e-01,3.366553e-01,-5.035609e-03,-3.259189e-01,-6.501312e-01,2.484388e-01,-2.269730e-01,-7.223161e-01,3.831114e-01,-1.480611e-01,3.092117e-01,-3.390007e-01,8.230765e-01,4.720854e-01,-7.489489e-01,1.507225e-01,-7.273364e-02,-1.297490e-01,1.485011e+00,-9.776396e-02,1.042832e-01,2.048128e-01,-1.543699e-01,5.147691e-01,-3.752365e-01,-3.929754e-01,4.013340e-01,-9.567631e-01,1.145331e-01,-5.111930e-01,-2.041604e-01,1.086977e-01,5.284097e-01,6.234819e-02,1.183148e+00,-1.776340e+00,2.312110e-02,-1.773409e-01,9.276501e-02,-1.618610e+00,7.007748e-01,-2.798069e-01,2.016782e+00,-7.886917e-01,-1.861050e-02,
-1.189729e-01,2.807780e-02,-1.267656e-01,5.403669e-01,4.441380e-02,2.328324e-01,1.607929e-01,-6.186271e-01,-2.173415e-01,3.385335e-01,-2.911278e-01,-5.923779e-01,8.014172e-01,4.531621e-01,9.910091e-02,2.762111e-02,-4.736540e-02,5.467044e-01,1.939971e-01,2.711419e-02,-4.664080e-01,5.786660e-01,-5.477589e-03,-8.070534e-01,1.321375e-01,1.581879e-01,-3.357865e-01,-2.830977e-01,-5.819385e-01,-3.617547e-01,1.824953e-02,-3.417903e-02,-1.009967e-01,-1.408707e-01,-2.334264e-01,-1.327727e-01,1.182725e-01,-3.029507e-01,6.118040e-01,-2.409429e-01,2.756914e-01,-9.534520e-03,3.683331e-01,-7.372276e-02,-3.354102e-01,7.161800e-01,-2.804950e-01,1.838323e-01,-4.124721e-01,4.631940e-02,
-4.501075e-02,2.865080e-02,-4.708622e-01,-4.227181e-01,-1.778320e-02,2.934263e-01,-1.502254e+00,1.226140e+00,3.299841e-01,-9.735223e-02,-3.471426e-01,-9.018428e-01,4.072323e-01,1.240793e+00,-9.654752e-01,-7.330142e-01,7.126483e-01,1.140024e+00,-8.411209e-02,-2.528050e-01,5.301778e-01,2.312048e-01,-2.760870e-01,-1.905437e+00,6.894092e-01,-2.423434e-01,2.316658e-01,-1.329700e+00,-3.094935e-01,-3.459628e-01,-9.019435e-01,-9.378121e-03,-1.308401e-01,-2.242749e-02,-8.434146e-02,7.537721e-01,-1.109441e+00,-8.961532e-03,9.299792e-02,1.244453e+00,3.727452e-01,2.774720e-02,-1.705019e-02,-1.220342e-01,-1.805989e-01,1.597536e+00,1.100139e+00,3.354105e-01,5.339580e-02,4.195330e-02,
-7.276371e-03,1.868710e-02,-1.328401e+00,-3.061113e-01,2.169500e-02,-1.157881e+00,-1.416588e+00,-7.632710e-01,-1.369783e-01,-7.377449e-01,-1.964756e+00,-7.795797e-02,5.816998e-01,-7.023008e-01,4.377804e-01,7.272578e-01,3.633492e-01,-1.308899e-01,6.153275e-01,4.725297e-01,5.199469e-01,6.526637e-01,-1.814027e-01,-4.157621e-01,8.785160e-02,1.659858e-02,-7.707397e-01,-1.191411e-01,-8.960848e-02,5.984437e-01,-2.475232e-03,5.027275e-01,1.902090e+00,2.484344e-01,-5.844368e-02,-4.391625e-01,8.462068e-01,-4.172156e-01,-5.027114e-01,-1.123046e+00,-2.570367e-01,-1.269840e-02,8.991974e-01,-9.362151e-02,-6.789648e-01,-7.886110e-02,-5.507138e-01,-1.300664e+00,7.578338e-01,-1.086410e-02,
-2.294970e-01,-2.016050e-02,-4.970895e-01,-5.169771e-01,-2.628660e-02,-3.598296e-02,-4.536756e-01,-2.139364e+00,2.943979e-01,6.765421e-01,-2.440832e+00,-9.409375e-01,7.888062e-01,8.213541e-01,-3.514549e-01,3.135828e-01,6.691772e-01,-9.814653e-01,4.035197e-02,1.213577e+00,-1.405439e+00,-5.627010e-01,-1.318232e-01,2.185773e-01,-5.062186e-01,8.483462e-02,-4.039848e-01,6.942402e-01,-5.540273e-01,-1.784264e+00,2.315525e-01,3.056217e-01,8.466069e-01,-7.597714e-01,-2.716064e-01,2.182088e-01,-5.039197e-01,-6.561977e-01,-7.432464e-01,1.189013e+00,-2.462128e+00,3.930470e-02,9.920458e-01,-2.170160e-02,-1.971687e+00,-2.159133e-01,8.213002e-01,-2.300787e+00,9.402441e-01,7.541880e-03,
-4.858499e-01,-2.130260e-02,-4.265675e-01,4.500179e-01,2.087560e-02,1.286945e-01,-1.452901e+00,-1.809068e-01,3.733393e-01,1.159191e-01,6.843413e-01,9.823026e-03,3.276761e-01,-1.880001e-01,1.545665e-01,3.570765e-01,-6.542723e-01,4.371279e-01,3.181167e-01,2.341160e-01,-2.619608e-01,-1.322773e-01,-5.148262e-01,-7.102610e-01,1.385090e+00,2.832734e-01,6.140790e-01,4.569722e-01,-1.707221e-01,-1.184378e-01,1.567295e-01,-1.191758e-01,1.093977e-02,-2.587569e-03,8.868017e-02,2.924286e-01,-2.451991e-01,5.172383e-02,1.692601e-01,1.406524e-01,3.020466e-02,-5.189270e-03,-6.967332e-02,1.820448e-01,-5.368399e-01,2.640161e-01,6.907564e-01,3.905018e-03,1.445917e-01,6.642150e-03,
2.112133e-01,9.098280e-03,-4.458212e-01,-1.069208e-01,1.525850e-02,-1.883311e+00,5.558422e-01,-1.143384e-01,7.297933e-02,-2.146271e-01,-6.626306e-01,-3.175814e-01,-1.248559e-01,8.198036e-02,-3.150688e-01,-7.641755e-02,-3.543141e-01,-7.049733e-03,-5.460192e-03,-1.870704e-01,-3.966827e-01,-6.378820e-01,-4.733202e-01,3.227557e-02,4.399807e-01,3.703864e-02,1.004526e-01,-4.048893e-02,-6.027275e-01,-3.659692e-01,-4.142434e+00,1.790459e-02,-3.535799e-01,-1.485458e-01,-2.226765e-01,4.936300e-01,-1.224911e+00,-4.248637e-02,-3.309677e-01,1.999536e-01,-1.198438e-01,3.787790e-02,9.496363e-02,1.769276e-02,8.445137e-02,-1.590625e-01,-9.191086e-01,-6.874456e-01,1.065952e-01,-2.896540e-02,
-1.050324e-02,1.773030e-03,-4.177689e-01,-1.871655e-02,-9.371270e-03,-1.076895e-02,3.568771e-01,7.983281e-02,1.780053e-01,3.400333e-01,2.301631e-01,2.715944e-01,1.971139e-04,-1.793769e-01,-1.690766e-01,1.698215e-02,7.919623e-01,-3.498255e-01,1.534566e-01,9.732559e-02,-5.167002e-02,3.006161e-02,-2.253159e-01,2.235521e-01,-1.743196e+00,6.383544e-01,6.302743e-02,1.119194e-01,9.964303e-02,6.691022e-03,6.919940e-02,-2.092395e-01,-1.841979e-01,9.865465e-02,-5.679466e-02,-4.656462e-02,2.482251e-01,-1.763077e-02,1.958258e-01,9.609868e-02,-5.647958e-02,3.281170e-02,-4.843899e-02,2.788606e-01,6.269643e-04,1.009470e-02,-2.296765e-01,-1.102537e-02,5.020518e-02,-3.938110e-02,
9.402639e-01,5.151080e-02,-5.479429e-01,1.950905e-02,-8.808640e-03,1.642465e-02,-5.740545e+00,1.148078e+00,4.893971e-01,2.669998e+00,-6.718771e-01,-1.093077e+00,4.633112e-01,1.041669e+00,-1.942491e-01,-4.206990e-01,-5.303956e-01,-6.966032e+00,-3.732278e-03,-1.615486e+00,7.163343e-01,-1.828984e-01,1.216819e+00,6.524249e-02,-1.922555e+00,4.798086e-02,2.336051e-01,-4.973495e-01,3.114751e-01,2.388857e-02,9.089711e-01,-4.635464e-01,3.276891e-01,-2.297502e-01,-3.501606e-01,4.261510e-01,-5.232598e-02,2.887781e-01,1.625835e-01,-2.371589e-01,-1.375840e-01,7.842410e-03,1.548439e-01,2.975226e-02,1.342657e+00,3.201045e-01,-3.117974e+00,-1.757039e-01,-1.662704e+00,4.988300e-03,
2.583494e-01,-3.880920e-02,-5.280840e-01,2.658395e-01,-3.916830e-02,-1.225790e+00,-1.101786e-01,-4.151044e-01,1.994675e-01,1.051352e+00,3.047191e-01,2.853220e-01,7.340761e-01,4.267223e-01,2.491747e-02,-2.361167e-02,1.918528e-01,8.486080e-01,-1.415775e-01,2.831359e-01,-2.522486e-01,-3.531866e-01,-2.786370e-01,1.266887e+00,-5.455451e-01,2.499849e-01,-6.761600e-01,-2.073134e-01,7.353079e-01,-1.172359e-01,-7.848351e-02,1.883764e-01,6.782058e-01,1.010727e-01,-8.278464e-02,-5.556247e-01,6.519197e-01,6.471054e-03,2.336473e-01,1.812382e+00,-4.006912e-01,-1.267820e-02,2.252104e-01,9.364446e-02,-2.209359e-01,-9.257530e-02,3.460014e-01,-2.752904e-01,7.687060e-02,-3.331750e-02,
4.296223e-02,-4.660650e-02,2.785804e-01,-1.533603e-02,-1.838680e-02,-1.359690e-01,-2.080760e+00,2.322643e-01,4.449790e-01,2.065649e-01,6.846096e-02,-3.715732e-01,1.467940e-01,-8.093708e-02,-1.430398e-01,4.245465e-01,-8.100487e-02,1.125691e-01,-1.507045e-01,-2.245278e-01,-1.877188e-02,3.097444e-02,-2.472987e-02,-1.095188e-01,2.607102e+00,-6.484526e-02,-1.159952e-01,3.827463e-02,5.227662e-01,3.030296e-02,-5.357810e-01,-2.981441e-03,1.204956e-01,9.333435e-02,-1.113896e-01,-3.384154e-02,-5.918249e-02,-6.799698e-02,5.545349e-02,-2.189608e-01,-8.519559e-03,-4.157150e-02,-1.258755e-01,1.933250e-02,5.160186e-01,-7.392283e-04,6.864526e-01,9.910107e-02,-5.965816e-01,-2.522830e-02,
-6.304491e-01,5.096950e-02,-8.007756e-01,2.650841e-01,3.111470e-02,1.305287e-01,3.936392e-01,-3.672765e-01,-5.160711e-01,9.111966e-01,5.092381e-01,-5.132319e-01,-1.944841e-01,-2.649494e-01,4.103463e-01,-5.740719e-01,9.046640e-01,6.530840e-01,-1.680265e-02,-8.488890e-01,9.834240e-01,5.452880e-01,-1.268183e-01,-3.687501e-01,-5.047858e-01,1.945556e-01,4.533919e-02,-4.773377e-02,-3.255111e-01,-5.039701e-01,1.596500e-01,-2.514720e-01,-5.238197e-01,6.453341e-01,-5.597153e-02,-1.555335e-01,-3.350894e-01,-4.470041e-03,3.202347e-02,2.040812e-01,-2.948937e-01,3.949480e-02,-3.418166e-01,7.215381e-02,-5.222189e-01,-1.006891e-01,6.502030e-01,-1.354223e+00,1.149295e+00,2.628630e-06,
-4.193268e-01,-4.396280e-02,1.585349e-02,-1.682390e-01,4.102700e-02,9.543526e-01,1.104344e+00,-7.389462e-01,3.729044e-02,5.685213e-01,-1.090865e-01,2.838340e-01,-1.021888e+00,1.651236e-02,6.750054e-01,1.929352e-01,-1.652495e-01,9.037293e-01,-6.430514e-01,3.497049e-02,1.812718e-01,-8.297359e-01,1.080733e-01,1.453813e+00,3.964269e-01,-7.579655e-02,-4.440114e-01,8.285475e-01,-8.525736e-01,9.573351e-02,-6.214699e-01,3.651815e-01,-2.674004e-01,-1.435231e-02,-9.425514e-02,-1.180125e-01,-1.717038e+00,-8.972957e-01,9.887503e-02,2.214646e+00,-4.263195e-01,1.136440e-02,1.083900e+00,-6.935623e-02,2.960689e-01,2.518199e-01,7.596914e-04,5.946702e-01,4.014318e-01,3.934210e-03,
-1.579730e-01,3.934400e-02,-4.205379e-01,2.629754e-02,8.628200e-03,4.355991e-01,1.244073e-01,1.054683e-01,-1.927463e-01,5.413049e-01,6.708319e-02,2.555963e-02,-3.885366e-01,-2.377148e-02,-6.522548e-02,-4.634209e-03,3.392632e-01,-1.240384e-02,-4.229941e-02,3.575418e-01,7.104312e-02,1.577775e-01,-8.481596e-02,-3.790243e-01,2.813236e+00,7.496364e-02,-1.582719e-01,3.878537e-02,-1.231226e-01,1.182810e-01,-5.862490e-02,-3.317223e-01,1.903633e-01,-2.291007e-02,-1.739386e-01,1.105880e-01,1.389251e-01,-9.337837e-02,-2.851011e-02,2.943625e-01,5.252072e-02,3.815540e-02,-8.802335e-02,-8.936733e-02,-3.827352e-01,-1.294066e-01,2.035427e-01,3.985412e-02,-1.597104e-01,-4.320230e-02,
-1.532154e-01,3.741860e-02,-2.668318e-02,-2.103012e+00,1.790470e-02,-7.582266e-01,-2.147113e-01,5.727991e-01,7.756621e-02,2.275856e-01,-5.584704e-02,4.255600e-01,-1.490469e+00,2.375056e-01,-7.063396e-02,1.684112e-01,-5.277179e-01,2.971556e-01,5.692585e-01,7.897220e-01,4.764704e-02,-1.176285e-01,-2.272759e-01,4.298801e-01,2.340472e-02,4.156728e-01,-3.186962e-02,-2.334204e-01,-4.135488e-01,-3.444015e-01,-6.397583e-02,2.848070e-02,-1.865079e-01,-3.295046e-01,4.728449e-01,1.752170e-01,4.526666e-01,3.208036e-01,1.127789e-01,1.386517e-01,3.415990e-01,1.976230e-02,1.573862e-01,1.212684e-01,2.820931e-01,6.684513e-02,-2.746404e-01,1.755370e-01,1.414625e-01,3.565390e-02,
-1.335611e-01,-3.791570e-02,9.031823e-02,-6.756970e-01,-3.063830e-02,1.521727e-01,2.812675e+00,7.172348e-02,-2.780669e-01,7.078388e-01,1.151293e+00,2.732247e-01,1.065858e-01,7.404702e-03,1.445946e-01,3.900742e-01,8.363033e-01,1.640231e+00,1.345121e-02,-1.483439e-01,4.695469e-01,9.447722e-01,-6.409518e-02,1.697785e+00,-9.904200e-02,8.943349e-03,-8.454651e-01,-6.353465e-01,9.614372e-01,-1.798741e-01,-1.323334e-01,-2.656395e-01,-3.947382e-01,5.406481e-01,2.885945e-01,-3.334685e-01,-4.331484e-01,-6.624959e-02,5.416131e-01,4.971027e-01,1.266133e-01,4.747320e-02,-4.150276e-01,-8.333411e-03,-5.290639e-01,5.674040e-01,6.249397e-01,3.097298e-01,3.847112e-01,2.123260e-03,
1.482512e-01,3.699830e-02,-2.886442e-01,-4.464437e-03,2.768550e-02,4.971135e-01,1.408184e-01,-6.944385e-04,2.922372e-01,-7.943717e-01,-2.603945e-01,-6.002466e-01,-3.084489e-01,-4.416231e-01,-5.104363e-03,2.577784e-01,-5.205358e-01,9.336314e-02,1.884125e-01,-1.915047e-01,1.810045e-01,-7.729844e-02,1.984486e-01,-6.842908e-01,-3.164973e-02,4.402848e-02,2.065209e-02,1.761507e-01,9.074423e-01,-3.233279e-01,-8.346625e-02,6.618819e-01,2.728653e-01,1.820653e-01,3.580239e-01,-4.460797e-01,9.937396e-01,-4.850015e-01,-4.342132e-01,5.529014e-01,9.855606e-02,-9.966310e-03,-1.034470e-01,5.182974e-02,2.655945e-01,-4.868843e-01,-9.401660e-02,-5.455406e-01,-6.031935e-01,-3.123420e-02,
4.118245e-01,-3.473080e-02,5.815477e-01,-1.025074e-01,-3.748300e-02,-1.011934e-01,4.380164e-01,9.502494e-02,-9.991270e-02,-2.383739e-01,5.833380e-01,2.818228e-01,-5.174379e-01,-2.373010e-02,-2.703590e-01,-4.152326e-02,1.295631e-01,1.565054e-02,-3.824759e-01,-1.945040e-01,4.127159e-01,-7.314160e-02,6.095793e-02,1.766437e+00,-9.758197e-03,2.001203e-01,-1.001370e-01,1.760702e-01,5.026636e-01,-1.609117e-02,2.971958e-01,5.723457e-01,-4.392284e-01,3.116367e-01,7.751597e-02,-3.461513e-01,3.868060e-01,6.520368e-01,-2.719713e-01,3.513705e-01,8.223844e-02,-1.193980e-02,-4.166577e-01,4.853782e-02,-1.771858e-02,-9.496406e-02,2.321973e-01,1.339530e+00,-4.252739e-01,3.611400e-02,
5.221401e-01,4.030960e-02,8.430239e-01,4.416500e-01,-2.229490e-02,-1.098474e+00,7.047048e-02,-2.125672e-01,-6.859176e-01,6.907640e-01,1.729115e+00,5.261027e-01,-4.172858e-01,9.838931e-02,-4.645015e-01,-1.479116e+00,3.833633e-01,2.886424e-01,-5.156478e-01,-1.440241e-01,-8.836021e-01,1.291956e-01,3.176529e-01,2.099646e+00,-2.189618e-01,-1.835335e-01,2.690269e-01,4.291421e-01,1.587769e-01,5.895944e-01,-1.250046e-01,-4.634663e-01,4.674001e-02,6.331224e-01,3.210630e-01,-1.062564e+00,9.808273e-01,1.824756e-01,-3.588066e-01,4.206261e-01,7.056249e-01,5.249440e-04,-4.946386e-01,7.333330e-02,7.591731e-01,1.565919e-01,7.413475e-02,8.194614e-02,-4.878940e-02,3.205080e-02,
1.428491e-01,-2.884340e-02,7.152747e-03,-2.491484e-03,-3.589020e-02,-3.062005e-01,3.659999e-01,-9.324554e-02,2.259847e-01,1.756707e-01,7.455208e-02,2.487717e-01,7.062954e-02,2.313127e-01,-2.664965e-01,-3.598558e-02,4.907679e-01,-5.975134e-01,-6.041389e-02,-1.235109e-01,-1.550523e-01,-2.007807e-02,-1.502086e-01,7.980618e-01,9.729620e-01,3.815426e-01,-6.675362e-02,1.208710e-02,-4.734948e-02,3.207179e-01,2.093412e-01,1.327337e-01,-2.679450e-01,-1.589196e-01,1.200981e-03,-2.990857e-01,-3.236633e-01,-7.923968e-03,-6.275859e-02,6.947967e-01,-1.037537e-01,2.173560e-02,1.416514e-02,3.355645e-02,-3.242593e-01,9.700232e-01,7.697772e-01,-5.466722e-01,4.325222e-03,-1.979530e-02,
8.731333e-02,-1.358930e-02,6.811768e-01,-1.637622e-01,-2.552520e-02,9.898604e-02,-2.538248e+00,-1.219208e-02,-3.748389e-01,-1.703011e-01,2.222147e+00,4.336968e-02,-8.140366e-01,4.244820e-01,-2.173932e-01,1.706830e-01,-8.975506e-01,1.106993e+00,-1.669826e-01,2.313309e-01,1.464986e-01,1.889863e-01,5.660588e-02,6.273086e-01,1.231974e+00,-2.480817e-01,7.388892e-03,-3.246520e-01,1.847869e+00,6.814703e-01,6.716192e-01,6.534715e-01,-2.294506e-01,1.860207e-02,-1.586589e-01,-5.431498e-01,1.160421e-01,-2.436533e-01,8.433039e-02,4.078206e-01,7.627175e-01,-1.496720e-02,-1.112986e+00,-1.384582e-02,1.875562e-01,-9.631143e-01,-1.409367e+00,4.315625e-01,-1.279886e+00,-3.801100e-02,
5.644362e-02,2.121060e-02,3.808229e-01,-1.759840e-01,2.667870e-02,9.509911e-01,5.207705e-01,-5.538197e-01,2.409891e-01,3.518153e-02,8.693054e-02,9.171240e-02,2.199994e-01,3.854387e-01,5.446352e-01,-5.540690e-02,-2.907418e-01,1.129797e-01,-7.542871e-03,5.268637e-01,-5.981981e-01,9.856836e-02,-1.386149e-01,-1.603607e+00,1.706637e-02,1.714274e-01,-3.644340e-01,-9.113833e-01,-3.751801e-01,7.338268e-03,-3.272921e-01,-5.732858e-01,-4.301730e-01,4.716031e-02,-1.749755e-01,-9.797833e-01,-2.497757e-01,1.305297e-01,-2.142075e-01,1.280414e+00,-9.232808e-01,4.324680e-02,2.130885e-01,1.228414e-01,-6.992732e-01,5.130107e-02,3.673194e-01,-1.833019e+00,4.510880e-01,2.783540e-02,
9.461406e-01,1.358690e-02,3.148290e-03,8.511385e-01,-4.268820e-02,1.388875e-03,-2.294064e+00,3.172100e-01,-1.226290e+00,-4.495808e-02,2.983957e-01,-6.311692e-02,5.072280e-01,1.668225e+00,4.135039e-02,-1.761564e+00,1.357518e+00,-2.968151e-01,6.559356e-02,-2.745439e-02,9.139320e-01,-6.059861e-01,2.978919e-01,-2.867603e+00,-5.180240e-01,-4.460604e-01,1.245140e-01,3.005722e-01,4.150430e-01,-5.643355e-02,-6.511433e-01,-6.925848e-01,-6.569512e-01,2.640743e-01,6.767957e-01,4.319924e-02,3.261768e-01,4.129798e-01,-8.744755e-02,-4.993062e-01,-1.860735e-01,5.122910e-03,5.104731e-01,6.696083e-02,2.068036e-01,1.997176e-01,-7.827517e-01,-1.312589e+00,-3.295580e-01,-2.347440e-02,
-1.837839e-01,-5.129410e-03,-4.884545e-01,-1.333593e-01,5.148560e-02,7.719560e-01,-4.647623e-01,8.320317e-01,3.659710e-01,8.036377e-02,-7.000021e-01,-5.608326e-01,6.160212e-01,-6.064582e-01,-5.112172e-01,-5.739073e-02,1.958799e-01,-2.366487e-01,4.037791e-01,-9.078251e-03,8.784959e-01,4.393499e-01,-3.106383e-01,-2.334378e+00,-1.719635e-02,2.234438e-01,8.911363e-03,2.979837e-01,-9.393717e-02,7.247280e-01,-7.135361e-02,-2.144026e-01,4.387368e-03,-4.942551e-01,-3.560196e-01,1.414426e+00,-1.416453e+00,-6.536461e-01,6.093419e-01,-9.464818e-01,7.427189e-02,-1.826710e-02,5.257245e-01,1.630813e-01,-2.719885e-01,2.407526e-01,-3.559490e-01,-1.059087e+00,1.695743e-01,-1.391670e-02,
-7.061907e-01,-1.438430e-02,-7.712305e-01,1.237469e+00,-1.217160e-02,1.502524e+00,3.810529e-01,-4.478349e-01,-1.156570e+00,1.104075e+00,-1.441141e+00,-6.329072e-01,2.718082e+00,1.889675e-04,-1.375664e-01,-7.418496e-01,-2.752203e+00,-7.255504e-01,-3.681539e-01,4.477507e-01,-1.064264e+00,-2.265473e-02,-2.808775e-01,-3.958023e+00,1.113427e-01,2.637384e-01,-4.549159e-01,-1.193950e+00,-1.623985e+00,-8.280697e-01,-3.281088e-01,-1.198891e+00,-2.382727e+00,7.310517e-01,-6.228999e-01,-4.472628e-01,-6.569924e-01,-1.313292e+00,1.470235e+00,5.003627e-01,-6.433789e-01,6.609010e-03,3.395484e-01,-1.498419e-01,-1.606552e+00,3.831224e-01,9.402970e-04,-3.023936e+00,4.082243e-01,3.187120e-03,
-2.513840e-01,5.317850e-03,6.143097e-02,1.272423e-01,1.277520e-02,-6.701931e-01,-4.877899e-01,1.018422e+00,-8.442770e-01,-1.239529e+00,-8.441936e-01,-1.721936e+00,4.848800e-01,1.220263e-01,-3.251121e-02,-2.401814e-01,8.039609e-02,5.690157e-01,3.968141e-01,-7.243704e-01,2.215316e-01,6.489061e-01,-3.513457e-01,-2.439844e+00,-1.162614e+00,6.382374e-01,4.950783e-01,1.578821e-01,-2.085519e-01,-5.037102e-02,-3.011994e-01,-1.055003e+00,5.248824e-01,7.443780e-01,-7.078417e-01,-2.757632e-01,-1.092872e+00,-2.997653e-01,6.094415e-01,-8.545012e-01,3.405261e-01,5.207710e-02,5.303501e-01,-1.989511e-01,7.762775e-02,-6.735708e-01,-1.177688e-01,-7.914314e-02,-1.244306e+00,-1.370640e-02,
-2.784289e-02,-2.623440e-02,-3.075211e-02,-6.320976e-02,-3.000510e-02,2.959977e-01,-3.340749e-01,-8.918855e-02,-1.183074e-01,-5.746543e-02,-4.764647e-01,-6.481758e-02,2.114497e-01,6.374431e-01,2.213289e-01,-1.583344e-01,2.758602e-01,7.039952e-01,3.554308e-01,-2.555168e-01,-2.216606e-02,2.017652e-01,7.699091e-01,1.213129e+00,1.631977e+00,6.103320e-01,-6.920761e-03,-3.807945e-01,-4.593763e-03,1.957844e-01,-4.689711e-01,-1.575118e-01,-4.068888e-01,1.988842e-01,5.346622e-02,-4.207464e-01,-6.951680e-02,8.725025e-02,1.218933e-01,4.887280e-01,3.016842e-03,-2.190780e-02,9.747387e-02,2.392099e-01,-2.608544e-01,1.661882e-01,-5.247424e-01,-2.557256e-01,2.822133e-01,-2.388630e-02,
-1.242137e+00,
-4.084384e-01,
-1.197602e+00,
3.483105e-01,
-1.047768e+00,
2.467889e-02,
-3.054341e-01,
-1.058587e+00,
1.879663e-01,
-6.504779e-01,
-1.029042e+00,
1.113535e+00,
-1.188952e-01,
1.360713e-01,
-2.087909e-02,
1.027129e-01,
-1.038913e+00,
-1.306260e-02,
-6.056814e-01,
-4.936740e-01,
-2.929539e-01,
-1.273610e-02,
-1.124755e+00,
-1.989042e-01,
8.783491e-01,
-5.995261e-01,
-6.040442e-01,
6.576997e-01,
-2.352770e-01,
1.477653e+00,
1.109403e-01,
-2.376550e-01,
-5.042281e-01,
-1.292897e+00,
3.606741e-01,
-4.601268e-01,
4.071767e-01,
-8.887843e-01,
-1.315043e+00,
9.220205e-01,
-3.421634e-01,
-3.801221e-01,
-3.752963e-01,
-1.489511e+00,
7.820994e-01,
-4.960031e-01,
5.728977e-01,
2.193922e+00,
1.137051e+00,
2.370187e-01,
-6.148674e-02,-5.869418e+00,2.274889e+00,1.292688e+00,6.231158e-01,1.364917e-01,-1.112596e+00,-1.358607e+00,-7.442587e-01,-7.352382e-01,-9.531643e-01,1.553425e-01,-1.891943e+00,-9.585078e-01,1.099880e-02,-1.739362e+00,-2.304337e+00,3.689070e-02,-2.290946e+00,-1.787862e+00,-5.955477e-01,2.411000e-02,-1.230579e+00,-5.359969e-01,2.059730e-02,2.511304e-01,-1.143044e+00,5.256050e-01,-5.810902e-02,-5.312672e-01,-7.749411e-01,-1.112351e+00,5.175018e-01,-2.552181e+00,5.426619e-01,1.224764e+00,6.611954e-01,-6.318831e+00,-3.482754e-01,3.747165e-01,-6.966667e-02,-1.804296e+00,-1.783206e+00,1.239361e+00,-2.341444e+00,-6.620371e-01,-1.456529e+00,1.226364e+00,1.409747e+00,3.283878e-01,
5.882757e-01,-5.348990e-02,-5.737020e-01,5.614573e-02,-6.903929e-02,-1.536196e-02,-9.271875e-02,1.413420e-02,-4.035769e-01,5.578578e-01,1.544796e-01,-4.545946e-01,1.818690e-01,-2.143289e-01,-2.552000e-02,-4.655437e-01,-3.359932e-02,-2.131750e-02,-8.482336e-02,1.864289e-01,-2.854717e-01,4.120520e-03,-2.691626e-01,1.108749e-01,1.289739e-01,-2.551245e-01,-3.898534e-02,-9.317623e-04,-4.550761e-02,-3.332081e-01,2.340328e-01,-2.923858e-01,-2.305606e-01,-7.889284e-01,-3.213615e-01,5.124289e-01,-4.673363e-02,-1.046260e+00,4.039146e-01,-2.156212e-01,-4.341626e-01,-3.715123e-01,-5.075222e-01,1.873194e-01,3.904893e-01,7.415540e-01,1.991664e-02,-3.300022e-01,9.843177e-02,1.688998e-01,
7.023411e-01,-2.018050e+00,1.205816e+00,5.246422e-01,4.369575e-03,-1.137665e-01,-1.183848e-01,2.193616e-01,-1.477778e-01,1.710728e-01,3.768289e-01,-2.278979e-01,4.284151e-03,1.292398e-01,4.194260e-02,2.658701e-01,3.017691e-01,3.487150e-02,6.612782e-02,2.642200e-01,1.898979e-02,-1.090440e-02,-6.092940e-01,2.655369e-01,-3.251065e-02,1.618312e-01,-6.675704e-02,-3.025063e-01,1.906960e-01,1.167098e-01,2.654766e-01,-2.589426e-01,3.313564e-01,4.670957e-01,2.891195e-01,3.754783e-01,-3.479116e-01,-4.586954e-01,2.202457e-02,-1.364474e-01,-1.821058e-01,-1.505429e-01,-2.442329e-01,1.681482e-01,4.357489e-01,-3.402123e-01,-2.508531e-01,8.685940e-02,7.472251e-02,3.301998e-01,
-2.138159e+00,9.095333e-01,3.134789e-01,-3.784748e-01,1.962603e-01,2.865150e-01,-3.835546e+00,-7.178290e-01,-3.496529e+00,5.756320e-03,-7.933552e-01,-4.899035e-02,1.802286e-01,-1.979519e-01,-3.011900e-02,-6.339210e-01,8.333939e-01,1.224000e-02,1.728198e+00,3.126478e-02,-4.103111e-01,-2.074060e-02,1.041851e+00,1.158092e+00,-1.950188e+00,4.460830e-01,-7.330118e-01,-4.750774e-01,-1.046932e+00,-1.405120e+00,-1.161943e+00,1.374246e+00,3.256607e-01,3.340523e-01,-7.916158e-01,-2.260353e+00,-1.004132e-01,5.567768e-01,-1.055753e+00,-8.577459e-02,-8.924908e-01,8.661383e-01,6.434742e-01,-1.415809e-01,2.497285e-01,-1.070025e-01,5.618370e-01,6.457281e-01,-5.699181e-01,2.522513e-01,
8.214931e-01,-8.595306e-02,-4.291251e-01,4.576001e-01,-2.874788e-01,5.557536e-01,-1.256234e+00,2.245250e-01,-1.187171e+00,5.632463e-01,-5.116537e-01,-6.512076e-01,-2.315995e+00,-2.763416e-01,2.399420e-02,6.571530e-01,3.439638e-01,3.267190e-02,-6.459916e-01,-3.430664e+00,-6.934052e-02,4.020650e-02,-3.715845e-01,-2.302642e-01,1.023398e-01,8.958728e-01,-2.965815e-01,-1.195119e-01,-1.804944e-02,-4.968607e-02,-2.048253e-01,2.223760e-01,2.959316e-01,6.184883e-01,5.732213e-01,2.770122e-01,4.901473e-01,4.715620e-01,2.576944e-01,-2.287247e-01,-3.026287e-01,-9.845869e-02,-3.429275e-01,-2.885318e-02,3.893718e-01,2.535513e-01,3.264865e-02,-2.938108e-01,1.021836e-01,-1.130309e-01,
-4.759222e-01,1.627022e-01,2.629862e-01,-3.776597e-01,-1.051551e-01,-6.159088e-02,-4.932674e-01,-4.707370e-03,-3.883550e-02,-4.375300e-01,-5.456137e-02,-1.070944e-01,-3.154590e-01,-3.993959e-02,5.831869e-03,-1.342185e-01,1.249851e-01,-7.286060e-03,3.576683e-02,-6.296069e-01,-1.523376e-01,4.817900e-02,2.201049e-01,-1.163095e-02,-4.830066e-02,1.986805e-01,-2.215092e-01,1.633563e-02,6.737170e-02,-1.793521e-01,-3.296217e-01,-9.778143e-01,-1.123331e-01,-1.471987e+00,3.519044e-01,2.523225e-01,-3.731689e-01,2.751424e-01,-4.336276e-01,2.180564e-01,-3.661210e-02,-2.276630e-01,-2.948079e-02,4.441616e-01,-1.535218e-02,-2.100652e-01,-1.754287e-01,-7.751411e-02,2.743962e-01,2.438170e-01,
-7.154888e-02,5.606939e-02,-2.360489e-02,7.779412e-02,-6.481910e-02,4.438212e-01,-3.002905e-02,-9.996440e-02,-2.106390e-01,1.555062e-01,5.398841e-01,-2.056899e-01,1.776918e-01,-1.394432e-01,2.272860e-02,-1.982509e-01,1.469465e-01,2.850290e-02,6.252107e-02,7.688665e-02,-2.856718e-01,2.425840e-03,-4.399893e-02,-4.160032e-02,-4.509737e-02,-7.658910e-02,-2.460865e-01,-3.637952e-01,-2.088472e-01,-2.521487e-01,2.181739e-01,4.063474e-02,7.391523e-02,1.135681e+00,-2.930117e-01,2.357403e-01,3.225930e-01,1.454206e-01,2.293022e-01,-4.098126e-01,-2.672340e-01,-1.613168e-01,5.159914e-01,2.305703e-01,-2.614530e-01,-4.053328e-01,-1.720565e-01,-1.877808e-01,-1.949218e-01,-5.696312e-02,
-1.443520e+00,-5.551641e-02,-1.108360e+00,-1.027356e-01,6.011097e-01,5.284271e-01,7.420983e-01,-2.063041e-01,1.435693e+00,2.003183e+00,-2.237574e-01,-3.075192e-01,-1.828331e-02,7.886031e-02,9.637800e-03,-4.298854e-01,1.825463e+00,2.506680e-02,-2.216416e+00,-4.439265e-01,-2.308782e-01,-1.180850e-03,2.143488e+00,-4.730736e-02,2.111986e-02,4.666682e-01,5.448728e-02,9.087007e-02,-6.280890e-01,1.561740e-01,4.947097e-01,-1.075850e+00,1.512239e-01,-3.028135e-01,9.205915e-02,5.526767e-01,-8.363816e-01,-1.088017e+00,1.340727e+00,-4.907628e-01,-4.312198e-01,-2.858354e-01,9.551138e-02,-4.045298e-01,-4.400965e-01,-2.083022e+00,-2.935033e-02,3.565939e-02,-5.252200e-01,-9.873337e-01,
-4.047315e-01,1.800478e-01,8.889109e-01,-2.673235e-03,-2.108912e-01,-1.935171e-02,2.215912e-01,4.991764e-02,-6.032399e-03,-5.070221e-01,6.393093e-01,5.158533e-01,-2.507344e-01,3.725460e-01,-2.187125e-02,4.286653e-01,-3.523429e-01,-2.917940e-02,-5.467141e-01,-4.330446e-01,-2.562661e-01,1.688350e-03,1.768703e-01,-2.408336e-01,-1.237213e-01,1.242378e-01,5.935320e-01,2.768968e-01,6.120202e-01,6.564463e-01,3.195803e-01,5.683823e-01,-2.881125e-02,1.090896e-01,2.847915e-01,-4.439136e-01,-2.141122e-02,-6.212727e-01,-1.029800e-01,1.015986e-01,-1.914786e-01,-3.886888e-01,-1.538540e-01,5.682807e-01,1.426608e-01,4.666587e-02,1.668257e-01,2.816284e-01,8.250396e-03,-1.171798e-01,
5.370733e-01,7.409719e-01,-3.253189e-01,1.838100e-01,-7.017099e-02,2.948559e-01,3.099488e-01,-3.495701e-02,-3.568756e-01,-4.230276e-01,-1.090927e+00,3.815943e-02,1.471353e-01,-8.537363e-02,3.888480e-02,1.342974e-01,1.532248e-01,4.977800e-03,-2.321096e-01,-1.376661e-02,-2.147744e-01,1.191800e-02,6.283860e-01,5.637339e-02,-4.778121e-02,-8.535433e-02,-2.753972e-01,-3.097290e-01,2.786666e-01,-1.722936e-01,2.936592e-01,-3.270108e-01,-8.450173e-02,-9.869738e-01,1.506165e-01,-3.119357e-02,-1.040361e-01,-9.203803e-01,2.977448e-01,3.634810e-01,-2.567027e-01,-1.638215e-02,-4.369952e-01,1.979857e-01,1.001078e+00,2.421588e-01,-1.138997e-01,8.358094e-02,-2.014186e-01,-1.651205e-01,
3.794533e-01,3.975146e-02,-5.618605e-02,-1.670401e-01,-2.204619e-02,2.506912e-01,1.725792e-02,-9.724979e-02,-5.979131e-01,2.602105e-01,-2.021925e-02,-1.951831e-01,5.051792e-03,1.434513e-02,-2.867950e-02,2.683244e-01,-2.208014e-02,-4.886560e-02,1.566102e-01,-2.500457e-01,-1.289000e-01,-2.933850e-02,1.194998e-01,-2.418750e-02,-2.057852e-01,-3.746679e-01,-1.672928e-02,-1.770142e-01,2.478531e-01,-1.939017e-01,-1.650319e-01,-1.210350e-01,1.788323e-01,1.437768e-01,8.584004e-02,3.134377e-01,6.746962e-01,-6.977930e-02,2.114757e-01,-5.517457e-02,1.523054e-02,-1.909613e-01,5.097033e-01,-6.598213e-02,2.297591e-01,-2.726724e-01,-3.577837e-01,7.846102e-03,-3.561928e-02,3.285101e-01,
-5.630021e-01,4.974367e-01,1.129171e+00,4.756395e-01,-1.199572e-01,-2.473048e-02,1.382583e+00,1.176256e-02,5.275072e-02,-1.261012e-01,1.147194e+00,2.330017e-01,3.208875e-03,3.920138e-03,-3.700891e-02,-3.298464e-01,-1.635245e-01,-7.955120e-03,2.014671e-01,-1.173549e+00,-4.705511e-01,-4.604270e-02,-1.756673e-01,-9.159157e-01,-8.950780e-01,1.023514e+00,7.817861e-02,-2.963457e-01,3.749135e-01,-1.969715e-01,-2.890066e-01,-4.570719e-01,4.590232e-02,5.820361e-01,-1.583636e-01,1.110965e-01,-2.736504e-01,8.199698e-01,1.764060e-01,7.893528e-02,-1.563581e+00,1.313341e-03,-8.182114e-01,3.176568e+00,-2.375339e-01,-5.059208e-01,1.005089e-01,-5.242026e-01,3.088525e-01,3.430174e-01,
-2.147640e+00,8.731504e-01,8.152480e-02,6.524186e-01,-2.884438e+00,-5.496770e-01,3.213695e-01,2.765976e-01,2.275229e-01,-1.009005e+00,-3.462003e+00,-1.433267e+00,-2.247714e-01,-3.838149e-02,-4.834120e-03,4.972636e-02,3.305174e-01,-1.459650e-02,7.512714e-03,2.648254e-01,1.976097e+00,3.351160e-02,2.155302e+00,5.921345e-01,-1.299603e-01,-7.998752e+00,-1.272129e+00,1.295252e+00,3.825597e-01,-1.841082e+00,1.088551e+00,1.226307e+00,-1.176687e+00,-3.259402e+00,-2.128160e+00,2.006299e-01,-1.053856e+00,-8.978952e-01,3.400266e-01,-3.347090e-01,-9.568647e-01,-2.336154e-01,-1.086289e-01,-2.737465e+00,-1.306011e+00,9.663486e-01,-2.998705e-01,3.183902e-01,6.939487e-01,4.396480e-01,
-3.353884e-01,-2.041363e-01,1.732556e-01,-4.653078e-01,-2.889887e-01,-4.520828e-01,-4.057500e-01,3.961596e-01,2.770466e-01,2.459720e-01,-9.234176e-02,7.440607e-02,-2.013461e-02,6.350999e-02,1.554860e-03,3.201653e-01,2.238547e-01,-1.518500e-02,-3.241403e+00,-3.819501e-01,-1.565490e-01,-2.180330e-02,5.127809e-03,2.011635e-01,-8.878167e-02,-9.591259e-01,-2.995403e-01,-2.555658e-01,-1.103324e-02,3.451641e-01,6.096958e-01,7.589959e-02,-3.315692e-01,1.042645e+00,7.218706e-02,3.133566e-01,-2.802263e-01,1.705590e+00,7.843537e-01,2.885464e-02,-1.487294e+00,-2.210956e-01,6.143276e-01,-3.517111e-01,-5.240458e-01,2.980364e-01,-1.158850e-01,-3.307580e-01,3.333862e-02,-1.180697e-01,
-2.483280e-01,1.889251e-01,8.401502e-01,-4.815632e-01,-4.170242e-01,2.152506e-01,-2.571267e-02,-3.186848e-01,2.168942e-01,-1.895705e-01,-2.505471e-01,-1.531651e-01,-7.059120e-02,-1.287805e-01,9.185570e-03,-2.630748e-01,-5.683916e-02,1.474290e-03,1.771054e-01,3.259466e-01,-1.450076e-01,3.755730e-02,2.613119e-01,-2.317607e-01,9.107448e-02,7.494786e-02,-1.861397e-01,-2.680450e-01,-6.001321e-02,8.795106e-02,-1.054200e-01,5.495700e-01,-2.257652e-01,-1.883315e+00,2.751684e-01,4.561396e-02,-2.215158e-01,-9.953643e-02,-2.764275e-02,-3.421727e-01,-2.076415e-01,-3.667203e-01,-2.034646e-01,2.058358e-01,3.120689e-01,-1.503835e-01,-1.911508e-01,-4.147489e-01,9.924589e-02,2.046824e-01,
-3.794965e-01,-2.627975e-01,1.669502e-01,-9.064677e-01,-1.813997e-01,-7.295720e-02,3.628228e-03,-4.525275e-01,1.824014e+00,-3.200922e-01,-6.615442e-01,7.371889e-01,2.020234e-01,2.546053e-02,3.181597e-02,9.108523e-02,3.420898e-02,-3.218570e-02,-2.319296e-01,-2.772850e-01,-7.528629e-02,3.827730e-02,3.610550e-01,-3.585760e-01,1.467275e-01,-3.752876e-02,-6.636829e-01,1.752111e-01,-1.367008e-01,-3.505607e-01,2.277945e-01,5.542095e-01,5.607733e-01,1.877123e+00,5.514276e-01,2.858051e-01,9.694468e-02,8.770174e-01,3.857962e-01,4.623505e-01,5.521616e-01,-4.953065e-01,-4.015338e-01,-8.202498e-01,4.065556e-01,-4.688855e-01,7.203375e-01,-1.212312e+00,-2.331764e-01,7.508988e-02,
2.723342e-02,4.959600e-01,-2.912451e-01,2.081671e-01,8.068347e-02,8.280201e-01,-2.489267e-01,1.736629e-01,2.019410e-01,-9.329430e-01,4.055197e-01,-2.780857e-01,6.064188e-01,-3.337372e-01,-2.281060e-02,-6.222990e-01,1.441489e-01,-2.511240e-02,2.606180e-01,1.963199e-02,-2.951140e-01,3.125670e-02,2.920554e-01,1.277323e-01,4.721154e-01,-5.179898e-02,-6.834150e-02,2.655250e-02,2.012758e-01,1.181229e-01,-6.818563e-02,1.883039e-02,-7.009562e-01,1.139190e+00,-1.144700e-01,-7.118869e-01,-2.987642e-01,-1.572057e+00,3.831778e-01,9.337017e-03,-2.209260e-02,-1.552840e-02,4.533882e-01,-1.157415e+00,-5.953119e-01,5.462400e-01,-2.286066e-02,-7.867339e-02,-4.776363e-01,3.963668e-01,
3.061016e-01,3.550620e-01,1.794060e+00,2.816846e-01,1.360865e-02,3.400237e-01,-7.438537e-01,1.649986e-01,-1.743749e-01,-1.013092e-02,3.917853e-01,-9.249496e-02,-1.493509e-01,4.662679e-02,-3.920730e-02,1.308408e-01,-5.838136e-02,3.259490e-02,-3.003316e-01,-8.231778e-02,-1.309091e-01,8.093410e-03,-3.229255e-01,-2.769179e-01,1.665029e-01,6.055868e-01,-3.720409e-01,-4.732919e-01,-7.218214e-02,-6.250833e-02,1.088852e-01,-7.989611e-02,4.033302e-01,-1.260251e+00,4.483430e-01,-2.566672e-01,2.292841e-01,6.060084e-02,6.073970e-02,3.801700e-01,-7.758248e-01,-4.029611e-01,-3.119096e-01,-4.141991e-01,-7.201263e-03,-5.578704e-01,-8.061706e-01,-1.896619e-01,6.103244e-02,-6.854939e-02,
1.242167e+00,1.011739e+00,-6.185547e-01,-1.661162e-01,7.976809e-01,1.693221e-03,-8.626755e-02,-1.251446e-01,2.685824e-01,-4.186450e-03,-3.467619e-01,-1.904661e-01,-8.847670e-01,-1.584276e-01,-4.698560e-02,-2.054261e-01,-4.876343e-01,-3.840500e-02,-8.967947e-01,4.156340e-01,9.563547e-02,1.145440e-02,1.841966e-01,3.227299e-01,2.032420e-01,-4.794738e-01,-4.653148e-01,-5.861501e-01,3.183141e-01,-3.816339e-01,5.358922e-01,-1.074461e+00,7.056303e-01,7.835967e-01,1.527451e-01,1.473006e-01,4.115730e-01,-1.200937e+00,-4.559373e-01,-9.639828e-02,-6.025484e-01,4.184499e-01,-1.830936e-01,-1.585425e+00,7.617477e-02,-1.065417e-01,1.443346e-01,-3.663264e-02,1.411470e-01,-3.101775e-02,
2.563415e-01,-2.566124e-01,-8.078812e-01,-2.004545e-01,4.135443e-02,3.495393e-01,-6.884663e-01,-6.487651e-02,1.974959e-01,1.068284e-01,-1.545895e-01,-4.019823e-01,1.229154e-01,-1.180688e-01,-8.152480e-04,5.808155e-01,8.946347e-01,5.177320e-02,4.868692e-01,-3.037975e-03,1.990863e-01,-2.135820e-02,-2.316295e-01,2.702400e-01,-9.370194e-02,3.334315e-01,-2.137839e-01,3.254864e-02,-1.121132e-01,-4.135472e-02,8.417310e-01,2.501098e-02,-5.742653e-02,3.821414e-01,-1.624733e-01,5.357442e-02,5.753888e-02,9.897516e-01,-4.797781e-01,-2.502244e-01,-3.185129e-01,4.551466e-01,-4.583050e-01,8.997294e-01,-3.918462e-01,2.835008e-01,-2.621693e-02,4.691258e-03,-1.991910e-01,-4.896135e-02,
-3.413889e-01,6.115730e-01,4.914641e-01,-1.617510e-01,-5.432378e-01,1.056439e+00,-5.148317e-01,8.938239e-01,8.898612e-01,-1.897362e+00,5.476291e-01,-2.954854e-01,1.480420e-01,4.913034e-01,3.130484e-02,4.838152e-01,-4.397849e-01,-1.320330e-02,8.183017e-01,-1.625845e-01,-5.615685e-01,3.681560e-02,1.296722e+00,-2.378241e-01,1.733455e-01,7.533661e-01,1.062432e-01,1.098503e+00,-4.377951e-02,6.983889e-01,-1.267937e+00,3.430527e-01,-9.952489e-01,-3.346656e+00,8.053995e-01,2.941270e-01,-1.542220e-01,3.393251e-01,5.126256e-01,4.663414e-01,1.015468e-01,-1.419616e+00,-4.275046e-01,-4.225075e-02,2.406087e-01,6.432208e-02,7.858931e-02,2.446951e-01,-2.206020e-01,-4.667153e-01,
-7.673739e-01,-3.367786e-01,6.083528e-01,-9.579395e-02,-6.398315e-02,-5.198441e-01,-3.314985e-01,4.174907e-02,3.368168e-01,-9.393468e-01,8.174359e-01,-2.482460e-01,1.294213e-01,3.251705e-02,2.928360e-02,1.239979e-01,1.493759e-02,8.702240e-03,3.627759e-01,3.391737e-02,3.829394e-03,-2.232370e-02,8.517882e-01,1.203503e-01,-2.337505e-01,3.946583e-01,2.424397e-02,-2.337983e-01,4.503223e-01,3.163350e-01,-1.974373e+00,-1.433171e+00,-1.378746e-01,3.114094e+00,2.637337e-01,6.263521e-03,8.355482e-01,9.762106e-02,3.782507e-01,7.402004e-02,2.531306e-01,-1.698008e-01,7.587649e-01,-1.539551e-01,4.893877e-02,6.137228e-02,3.145696e-02,-2.481548e-02,-2.806990e-03,7.695880e-01,
1.516935e+00,2.503993e-01,7.830130e-01,2.518624e-01,-3.272136e-02,1.135522e+00,-4.773086e-01,-5.923846e-02,-3.362020e-01,4.551796e-02,1.096445e+00,-1.922257e-01,2.888104e-02,-2.009579e-02,3.629300e-03,-1.184685e-01,5.029520e-02,3.354280e-02,-2.504676e-01,5.871797e-03,2.602838e-02,1.378250e-02,-1.402039e-02,-1.294921e-02,4.525417e-01,3.336770e-01,-1.548719e-01,-2.216668e-01,-4.725932e-02,-6.655259e-02,6.330532e-01,1.370719e-01,4.871414e-01,-7.683988e-01,1.720697e-01,-1.227732e-01,-3.119241e-01,-4.567988e-01,2.758927e-01,-3.993202e-01,3.301158e-02,-2.337696e-01,7.446656e-02,3.292837e-02,2.869183e-01,-2.779140e-01,-1.832635e-01,-3.481170e-01,1.608526e-01,5.653276e-01,
2.131340e+00,-5.483469e-02,7.146111e-01,1.954532e-01,1.170428e+00,-5.088466e-01,-2.672079e+00,4.212498e-02,1.476616e-01,-5.879829e-01,-1.147778e+00,-1.022023e+00,3.175706e-01,1.750530e-01,1.092090e-02,3.130082e-01,-3.229080e+00,2.452000e-02,6.996849e-01,-7.279743e-01,-1.399754e-01,4.125930e-02,1.016317e+00,3.851277e-01,-1.299711e-01,1.247638e+00,-1.047876e-01,3.037744e-01,4.544925e-01,2.890423e-02,-3.799380e-01,-5.019470e-01,-8.603791e-01,-5.924710e+00,-9.445485e-01,-1.211830e-01,-2.726469e-01,2.584013e-01,-5.705994e-01,2.851925e-02,2.287305e-01,-4.783843e-01,2.995526e-01,-3.114740e+00,-5.473163e-01,-1.672112e+00,1.457871e-01,5.845161e-01,-8.414036e-01,-9.307019e-01,
5.521364e-01,-5.731077e-01,-4.728842e-01,1.113755e-01,-3.248513e-01,4.452540e-01,-5.011938e-02,5.630570e-01,-2.794722e-01,1.096057e+00,6.427504e-01,-4.319822e-01,-1.955272e-02,-2.359839e-01,-1.470020e-02,6.306671e-01,1.257113e-02,4.663230e-02,-4.493517e-02,3.555902e-01,8.391139e-02,9.765290e-03,2.093319e-01,1.973896e-01,-6.420735e-02,-5.218389e-01,7.782235e-02,1.663248e-01,2.014492e-02,1.533628e-01,6.096649e-01,3.821095e-01,-2.476892e-01,2.144664e+00,-1.587957e-01,2.183290e-01,1.209344e-01,3.265727e-01,2.296990e-01,1.766998e-01,1.029746e-01,1.577609e-01,-4.331741e-01,4.043651e-01,-2.243298e-01,-2.318187e-01,1.057765e-01,6.319156e-02,2.183314e-01,1.390364e+00,
-6.122943e-01,3.391691e-01,-1.074424e+00,6.039079e-03,5.307459e-01,3.321790e-01,-6.140618e-01,-2.046986e-01,3.063082e-01,-6.765679e-01,4.522341e-01,-3.243813e-01,-2.318876e-01,-4.454185e-01,2.428700e-02,-1.493719e-02,5.878937e-01,2.983980e-02,-2.624575e-01,1.397168e-01,-2.108709e-01,-3.752850e-02,4.916650e-01,7.385804e-02,2.782367e-01,-1.034183e-01,-2.669519e-01,-1.498452e-02,2.249071e-01,8.476930e-02,-2.097930e-02,-1.267951e-01,-1.699460e-01,9.213521e-02,5.704256e-02,-2.141296e-01,5.775103e-02,-4.010262e-01,-2.389109e-01,-2.727562e-01,-4.555334e-01,5.735615e-01,1.475182e-01,4.139668e-01,3.519992e-02,-5.600490e-02,2.968939e-01,4.678324e-01,-1.676683e-01,-1.832542e-01,
-7.448955e-02,2.965926e-01,-5.421407e-01,-8.112247e-02,-4.193143e-02,3.771845e-01,9.557823e-01,1.248344e-01,4.849420e-02,-2.557236e-01,5.108445e-01,1.029573e+00,2.192342e-02,3.070717e-01,-2.765981e-02,1.933381e-01,-2.892009e-01,3.449520e-02,1.049405e-01,4.528561e-01,8.928212e-02,1.577590e-02,-2.222336e-01,1.567209e-01,6.445112e-01,-3.051726e-02,4.266286e-01,8.736464e-02,2.029126e-01,2.380435e-01,1.515678e-01,1.674594e+00,-2.721043e-02,-4.626915e-01,1.019609e-01,-3.914738e-01,-1.208954e-01,-4.474015e-01,-7.165641e-01,-1.884882e-02,1.977481e-01,1.517174e-01,2.891173e-01,2.863803e-02,3.251839e-01,1.785059e-01,-1.336672e-01,2.908027e-01,3.468454e-03,-2.217072e-01,
-4.399491e+00,3.352353e-01,1.976247e+00,-1.479395e-01,-6.294782e-02,-4.756140e-01,2.594788e-01,-5.594127e-01,1.650887e+00,8.855873e-02,-6.112200e-01,-2.612785e-01,1.160481e+00,-1.099237e-01,3.840404e-02,-3.076985e-01,-3.093564e+00,-4.033530e-02,-6.210110e-02,-6.639450e-01,-2.156789e-01,-3.124730e-02,1.404496e+00,-1.095477e+00,-5.715050e-01,1.231929e+00,-1.896449e-01,-2.435116e-01,5.634802e-01,-4.338549e-01,1.897284e-01,-6.218410e+00,-4.375240e-01,-2.970910e+00,-2.975652e+00,3.733830e-01,-2.825625e+00,-2.601200e-02,-6.315735e-01,-4.268135e-01,1.643525e-01,-1.402896e-01,1.503364e-01,-4.128076e+00,6.694920e-02,6.785907e-01,2.020526e-01,4.906927e-02,3.185336e-02,3.320347e-01,
9.672182e-02,-3.285743e-03,-1.205734e+00,-2.576790e-01,9.822638e-02,-5.602987e-01,1.214853e+00,-2.534204e+00,-1.306530e+00,4.592943e-01,-4.801400e-01,1.246472e-01,1.390773e-01,2.335589e-01,4.918451e-03,-7.898188e-01,-1.482580e+00,2.581410e-02,-1.693040e-01,-5.923548e-01,1.313000e-01,2.588460e-02,-2.640642e-01,4.454571e-01,-1.092306e+00,7.448941e-03,-6.780147e-01,-1.823103e+00,-6.524153e-01,-1.216972e+00,2.418247e-01,-2.543102e-01,1.433322e-01,-1.164356e+00,-2.939773e-01,6.878266e-01,-2.925563e-01,1.176020e+00,-2.271480e-01,5.991248e-01,2.126814e-01,-6.467655e-01,4.791990e-01,-2.897573e+00,-4.900907e-02,-6.436182e-01,-9.029535e-01,-6.785606e-01,4.395715e-01,3.411213e-01,
-3.297529e-02,-2.861940e-01,-6.306034e-01,-1.082905e-01,3.621205e-01,5.358532e-02,2.079220e-01,-3.177379e-01,4.590023e-01,3.077436e-01,2.730223e-02,-8.563304e-02,6.473944e-02,2.487920e-02,2.551230e-02,-5.934101e-01,4.252662e-01,3.566910e-02,4.567284e-01,7.279266e-02,4.386500e-01,4.365970e-02,7.493068e-03,6.224933e-01,3.109631e-01,-4.316084e-01,-6.117412e-01,4.009649e-02,-2.660809e-01,-6.826358e-01,-9.913443e-02,3.532104e-01,-4.527066e-01,6.933571e-01,-5.801881e-01,1.829885e-01,-4.698482e-02,1.036004e-01,-7.126107e-01,-2.074698e-01,5.415971e-01,1.019087e+00,1.059548e-01,-4.701694e-02,-5.166008e-01,5.843031e-01,8.322358e-02,1.665824e-01,1.857907e-01,7.684786e-02,
1.016551e+00,3.415001e-02,-2.880296e-01,-3.635878e-01,1.213551e-01,4.369227e-01,-4.641382e-01,-2.137546e-01,3.183100e-01,-2.391389e-01,6.446642e-01,-4.130933e-02,9.714299e-02,7.057044e-02,5.440197e-03,3.095540e-01,1.636322e-01,-6.395610e-03,-8.295007e-02,-8.975342e-02,1.621801e-01,2.067560e-02,-2.051233e-01,9.630739e-02,-4.922318e-01,-6.435223e-01,4.893043e-02,1.772023e-01,1.696694e-01,2.213692e-01,1.435039e-01,-4.664440e-01,1.361943e-04,1.966398e+00,5.230752e-02,4.349372e-02,5.786732e-03,3.256685e-01,8.112742e-03,-3.871047e-01,3.708567e-01,-7.284115e-02,-1.269507e-01,1.299921e-01,-2.768891e-02,2.979238e-01,8.077219e-01,2.316218e-02,-1.851268e-01,-7.467145e-02,
5.836621e-01,-3.422568e-01,-7.444671e-01,4.397340e-02,-1.521685e-01,1.062313e-01,-5.954118e-01,-1.651750e-01,1.502950e-02,1.104093e-01,-7.117682e-01,-3.478915e-01,-2.581773e-01,-2.280583e-01,-4.207190e-03,4.911305e-01,2.393742e-01,2.548720e-02,2.346702e-01,1.736991e-01,1.001482e-01,-1.629570e-02,-1.005552e-01,-5.544948e-01,-1.223804e-01,-2.816840e-01,-1.829743e-01,-3.936356e-01,2.123695e-01,1.667696e-01,-1.831133e-02,-4.483231e-01,-2.480327e-01,-4.216307e-01,1.066076e-01,6.780243e-02,4.913517e-01,-8.641055e-02,2.883602e-01,6.484741e-03,-1.483750e-01,-1.517823e-01,4.115589e-02,1.010848e+00,1.261713e-02,-1.120846e+00,-5.731739e-01,-2.938377e-01,3.558788e-02,9.561033e-02,
9.194443e-02,-3.721633e-01,9.534796e-03,1.362433e-01,-3.267615e-01,3.301820e-01,2.886544e-01,-1.316695e-01,-3.874127e-01,-5.479625e-01,5.513497e-01,-3.600141e-01,6.135007e-01,-7.888812e-02,-4.138210e-02,4.178033e-01,9.596789e-01,-2.586120e-02,-5.995510e-01,-3.052602e-01,-1.689137e-01,4.065470e-02,-7.154088e-01,-5.318470e-01,-2.790069e-01,1.327280e+00,-5.124201e-02,1.400904e-01,-4.036587e-01,1.829163e-01,2.481449e-01,-6.141202e-01,-2.051311e-01,4.249745e-01,5.522199e-02,-1.425399e-01,3.025718e-02,5.653310e-01,-7.816856e-01,-1.426025e-01,1.540654e-01,1.992253e-01,6.445171e-01,1.901780e+00,2.825478e-01,3.563237e-01,-4.333926e-01,2.146257e-01,4.269357e-02,1.026062e-01,
1.481007e+00,-1.738822e-01,3.176691e-01,1.115430e-01,1.455133e-01,5.064398e-01,-2.140720e-01,5.600860e-02,-6.232100e-01,4.553430e-01,1.338049e-01,2.646019e-02,-2.530604e-01,-6.139310e-02,3.536830e-02,-1.894611e-02,-1.421203e-01,2.966570e-02,4.708721e-03,8.191349e-03,1.485664e-01,-1.063440e-02,-1.149320e+00,1.828016e-01,-6.413718e-02,-1.518653e+00,-9.778605e-02,1.985707e-01,-4.441604e-01,-4.599715e-02,9.608128e-02,6.856233e-01,-1.680614e-01,-1.959639e+00,-5.792124e-02,1.031784e-01,-4.604917e-01,6.685961e-01,4.881551e-01,1.087760e-01,-3.645509e-01,1.156916e-01,-2.588266e-01,6.379052e-01,6.092912e-02,-8.674595e-01,-1.584033e-02,4.243539e-02,-1.540237e-03,5.540246e-01,
-1.226650e-02,3.931904e-01,4.995695e-02,-2.376010e-01,-4.145868e-02,2.265007e-01,-6.266850e-01,-6.076881e-01,1.049287e+00,-9.051462e-01,-1.026561e+00,-1.616311e+00,9.937915e-01,-8.962160e-02,-1.358320e-02,-2.769304e-01,2.826800e-01,-3.146340e-02,1.703810e-01,1.932331e-01,-2.688793e-01,3.415150e-02,-9.803519e-03,3.567784e-01,1.178318e-01,6.889426e-01,-1.190991e-01,2.830284e-01,-3.489869e-01,-4.207045e+00,2.783446e-01,-2.060821e-02,-1.719886e-01,-3.837970e-02,7.068534e-01,-8.825850e-01,-7.318109e-01,-5.599108e-02,-1.794530e+00,-8.873258e-01,1.973234e-01,4.319236e-01,-6.483092e-01,-1.843470e-01,-3.527100e-02,7.866697e-01,6.386972e-01,1.752663e-01,-3.113743e-01,-1.957794e+00,
1.853179e+00,-6.492615e-01,-1.762692e+00,-3.058107e-01,1.776741e-01,5.801365e-01,-2.560490e-01,-5.480750e-01,8.310375e-01,9.885783e-01,-2.569465e-01,9.063019e-02,-6.587691e-01,-7.199257e-02,5.484370e-03,1.795073e-02,-2.879707e-02,-1.586980e-02,5.271730e-01,5.630891e-01,5.888156e-01,1.146030e-02,-1.742750e-01,6.847651e-01,3.088279e-01,-1.178320e+00,-1.100179e+00,2.856736e-01,-3.995737e-01,-7.898580e-02,-1.664312e-01,-1.323274e+00,1.885436e-02,-4.118869e+00,-2.111316e-02,4.346524e-01,-8.638734e-01,-6.097776e-01,-4.418261e-01,-7.312062e-01,-1.116648e+00,8.391974e-01,-2.026223e+00,1.420425e-01,-3.325464e-01,-8.293990e-01,-2.329186e-01,5.275675e-02,8.004244e-02,3.042446e-01,
8.708001e-02,-2.624508e-02,4.440164e-01,-4.955435e-02,-1.383405e-01,-2.891419e-01,-1.734716e-01,3.113640e-01,-3.688242e-01,3.441139e-01,-9.329171e-02,-7.379364e-03,-3.767041e-01,2.597534e-02,5.369714e-03,3.044818e-01,-1.200862e-01,2.271690e-02,-3.434563e-01,-3.170759e-04,-1.101105e-01,4.744960e-03,-2.570096e-01,-4.144955e-01,2.227969e-01,2.622063e-02,8.026382e-01,2.756718e-01,2.525842e-02,6.154180e-02,3.569362e-01,5.062665e-02,2.630242e-01,-1.467627e-01,1.853639e-01,2.160829e-02,-8.187253e-02,-7.270136e-01,1.738325e-01,8.041358e-02,5.920056e-01,-7.354671e-01,-1.251061e-01,-1.656733e-02,-5.598159e-02,7.317252e-02,1.616235e-02,-2.011906e-01,-1.246268e-01,5.343449e-02,
-2.345872e-02,8.223157e-02,-6.152152e-01,-1.292884e-01,1.266988e-02,1.920522e-02,-2.658010e-01,2.744342e-01,2.621078e-01,1.192784e-01,-4.964071e-01,1.067234e-01,-2.376425e-02,-4.856596e-02,-4.220323e-02,9.842323e-02,-1.020397e-01,-9.438040e-03,-1.014256e-01,1.984571e-02,4.550474e-01,-4.719930e-02,1.119178e-01,3.112446e-01,1.345834e-01,-3.145311e-01,-6.624260e-02,2.781578e-01,-1.679948e-01,1.635513e-01,3.734120e-01,-8.234095e-02,-1.210382e-01,-2.048800e-01,6.564939e-02,2.947739e-01,-2.489659e-01,-2.330615e-01,2.716264e-01,2.198406e-01,-4.875937e-02,3.148879e-01,-1.061769e+00,-1.817369e-01,8.611748e-02,2.993558e-01,3.284804e-01,1.063500e-01,-5.303789e-02,6.468103e-01,
