// The contents of this file are licensed under the Creative Commons
// Attribution 4.0 International License: https://creativecommons.org/licenses/by/4.0/
// Neural Network File Format by Kyle Julian, Stanford 2016 (generated on 10/21/2022 11:04:23)
7,5,5,50,
5,50,50,50,50,50,50,5,
0,
0.0,-3.141593,-3.141593,100.0,0.0,
60760.0,3.141593,3.141593,1200.0,1200.0,
19791.091,0.0,0.0,650.0,600.0,7.5188840201005975,
60261.0,6.28318530718,6.28318530718,1100.0,1200.0,373.94992,
-1.615503e+00,-5.941101e-01,-3.216770e-01,-4.258435e-02,2.839909e-01,
-5.888170e-01,-1.485192e-02,-1.934837e-02,-1.015029e+00,-4.996208e-01,
3.458669e-02,1.072615e+00,1.487989e-02,4.007645e-01,-3.785833e-01,
1.406193e-02,-1.312967e-01,1.563043e-01,-1.566887e+00,-5.182479e-01,
-8.494627e-01,8.115165e-01,-6.102743e-02,1.492402e-01,-3.421394e-01,
-6.891914e-02,2.712846e-01,-5.428432e-01,5.692158e-01,-9.385567e-01,
-1.335058e-02,5.139849e-01,-6.572669e-01,8.253291e-02,-3.135141e-01,
-7.264630e-03,5.659568e-01,-7.279715e-01,-4.094407e-01,1.374727e+00,
-1.448675e+00,-8.761381e-02,7.440019e-02,-2.651697e-01,1.023888e-01,
2.046877e-01,1.420453e+00,5.894778e-03,-2.411694e-02,1.689901e-01,
3.021400e-02,8.138748e-02,1.236221e+00,7.689815e-02,7.934684e-02,
-2.159463e+00,2.577604e-02,2.612776e-02,-6.442454e-02,1.625717e-03,
2.582522e-02,1.148617e+00,1.184105e-01,-1.411756e-01,-4.860452e-02,
-6.383857e-02,5.312717e-02,-4.865259e-02,-1.229979e+00,8.439091e-01,
-1.372580e-01,-1.339550e-03,3.247840e-04,-2.504650e-02,-1.351710e-02,
-2.101747e+00,6.727637e-02,-3.184356e-03,3.138282e-03,1.076371e-01,
-3.066856e-01,-9.427335e-01,1.288963e+00,1.423215e-01,-5.063053e-01,
-6.403090e-03,3.619310e-03,-2.204190e-03,9.173580e-04,2.167080e-02,
9.433887e-01,-1.285139e-01,9.032414e-02,-3.617097e-02,-1.674792e+00,
-1.892561e+00,1.432266e-01,-2.213135e-01,-1.444941e-02,-3.797042e-02,
-1.355360e-01,2.442740e-03,-5.130920e-04,-3.782470e-02,-1.598640e-02,
-3.968154e-01,-4.591969e-02,-5.143886e-02,1.254941e-01,3.610719e-01,
-6.562939e-02,-1.070150e-01,-8.348231e-01,-7.814080e-01,6.210251e-01,
-8.312938e-01,-3.608316e-03,5.896169e-01,-4.873973e-02,2.025828e-01,
-2.033204e-02,1.490191e-01,6.675039e-02,-5.853859e-01,9.454026e-01,
-8.203276e-01,2.764955e-01,-1.235796e-01,1.605277e-01,4.332488e-02,
-8.409586e-02,9.846566e-01,1.568159e-01,-1.982784e-01,-1.940137e-01,
8.104538e-02,6.448883e-01,3.297369e-01,3.921122e-01,-1.238484e-01,
-3.262066e-02,3.598416e-01,-4.899913e-01,-2.628712e-01,-1.684502e+00,
1.204517e-01,3.893127e-01,1.185411e+00,1.774854e-01,3.728433e-02,
2.772024e-02,-2.560020e-01,9.393437e-01,-4.277779e-01,3.514155e-01,
-1.825407e+00,-2.002463e-02,2.027623e-02,1.059881e-02,-5.224186e-02,
4.855008e-02,1.710696e+00,-1.767610e+00,-4.613260e-02,3.531599e-01,
-2.124024e+00,-2.811305e-02,2.628412e-03,1.042046e-01,-1.063240e-01,
3.797849e-02,1.718827e-01,-1.479729e-01,-1.693616e+00,-5.317559e-01,
-1.133994e+00,1.005166e-01,-8.319530e-02,-1.235408e-01,4.166250e-02,
-3.114284e-02,-2.692204e-01,4.471050e-01,-8.826984e-03,-1.871071e+00,
2.628254e-01,-1.309473e+00,6.850569e-01,-2.670038e-01,1.330814e-01,
-5.809148e-02,1.384443e+00,1.085253e-01,-2.841947e-01,1.613260e-01,
-1.163522e+00,4.216368e-01,-8.436822e-01,4.628956e-03,8.685812e-02,
-1.569850e-03,-2.048860e-02,-2.614130e-03,-1.815320e-03,-4.544270e-03,
-9.684377e-01,7.876855e-02,5.081446e-02,-7.966400e-01,-1.033972e-01,
-5.023582e-02,-3.347036e-01,-7.370004e-02,-1.023304e+00,-1.716322e+00,
-2.034881e-02,-6.408414e-01,-1.346155e+00,2.652694e-01,-1.250639e-01,
1.001947e-02,7.245162e-01,4.410032e-01,-3.155608e-01,1.404314e-01,
2.164080e-02,-1.028530e-01,7.644700e-02,-1.156698e+00,7.304890e-01,
1.578661e-02,-1.119296e-02,-7.398524e-01,-5.139170e-01,2.793847e-01,
1.932083e-02,6.785464e-02,-1.820934e-02,-4.860899e-01,-6.073658e-01,
1.669583e-02,5.041844e-02,-4.989829e-02,-1.688077e+00,-6.042160e-01,
-7.429767e-01,3.858492e-01,1.444412e-01,2.582922e-02,6.624023e-03,
-5.777112e-01,
-9.103063e-01,
2.528651e-02,
-7.290977e-01,
-1.433046e-01,
6.186493e-02,
2.040675e-01,
-9.691449e-02,
-3.862074e-01,
2.264325e-01,
9.093966e-02,
-5.476462e-01,
-4.728834e-01,
-2.842715e-01,
-6.648220e-02,
-5.499467e-01,
3.220195e-01,
-2.265190e-02,
-4.087732e-01,
-5.791072e-01,
-7.227570e-02,
2.110389e-01,
1.336160e-01,
-1.229402e-01,
6.641705e-02,
-2.191868e-02,
-2.215715e-01,
1.867820e-01,
-6.966580e-01,
-5.346716e-02,
1.504595e-01,
-3.651234e-01,
-3.673614e-01,
-5.745125e-01,
-7.587746e-01,
-1.165826e-01,
-8.543358e-01,
5.246544e-01,
5.658255e-01,
-2.385325e-01,
-2.441080e-02,
-6.748016e-01,
-5.983732e-01,
-5.916769e-02,
4.336117e-04,
-4.900582e-02,
7.911222e-02,
3.890221e-01,
-6.210984e-01,
-5.520257e-02,
1.890843e+00,2.417655e+00,5.251901e-01,-9.594195e-02,1.165754e-02,-1.780419e-01,6.959710e-01,2.943028e-01,7.466074e-02,2.794030e-03,8.930293e-02,-4.328414e-01,3.971978e-01,-2.718773e-01,1.488820e-01,1.385362e-02,5.062793e-01,-1.868800e-02,9.386439e-02,5.050862e-01,1.222620e-01,3.697937e-02,2.892554e-01,4.493423e-01,-4.695249e-01,-1.427724e-01,1.915469e+00,-1.063488e+00,-9.280132e-01,-7.312970e-01,8.919170e-01,2.307517e-01,-3.047737e-01,-2.275275e-01,-2.395486e-01,-3.234096e-02,-1.829896e+00,3.571520e-01,6.789001e-01,-6.787142e-01,-4.738760e-03,2.300150e-01,-2.782061e-01,-5.918180e-01,-4.852619e-01,-6.629543e-01,-9.032311e-01,-7.634928e-01,4.937633e-01,-2.108227e-01,
-2.043535e-01,-1.357299e-01,-2.110009e-01,-1.691350e+00,4.954148e-02,-2.568489e-01,8.150015e-01,3.208817e-01,9.610331e-01,9.540371e-02,-1.648979e+00,-5.862905e-01,7.047086e-01,-5.435567e-02,1.808270e-01,4.897462e-01,-6.195557e-02,4.678810e-02,-7.722892e-02,-4.008239e-01,1.613280e-01,4.884320e-01,3.117164e-01,-1.242204e-01,-2.869321e-01,5.649542e-01,1.956859e-01,-2.481487e-01,-5.905384e-01,-1.295156e+00,-7.064877e-01,-3.454808e-01,3.651623e-01,7.205947e-01,-7.093124e-01,1.199112e-01,4.878170e-01,-9.876763e-01,-1.462922e-03,-7.117750e-02,1.965120e-02,7.954562e-01,-6.490639e-01,-4.633585e-02,3.379525e-02,1.268226e-01,2.865923e-01,1.574575e-01,1.456960e+00,-1.783613e-01,
-1.302816e-01,1.618019e+00,-3.950386e-01,3.162356e-01,6.482562e-01,1.856035e-02,3.353928e-01,-4.983476e-02,7.738835e-01,8.942022e-01,4.956428e-01,1.181230e+00,-5.210304e-01,-5.999180e+00,1.998560e-01,6.386594e-01,2.317573e-01,1.491450e-02,3.681971e-01,-2.549175e+00,2.494980e-01,-7.516034e-01,-2.106801e-01,-8.175322e-02,-2.437560e+00,-4.547644e-01,-4.112710e-01,-9.515558e-01,1.012125e+00,-4.663580e-02,-4.287398e-01,5.984424e-01,-5.486042e-01,1.455075e+00,5.615720e-01,2.966754e-01,1.495228e+00,-2.406720e-01,1.628601e-01,4.860887e-01,-4.186990e-02,1.224126e+00,5.977838e-01,2.981690e-02,-4.882353e-03,-8.821746e-01,-4.310156e-01,-3.561684e-01,3.299173e-02,-1.451181e-01,
4.802627e-01,-7.538395e-01,1.552270e-01,3.030149e-01,-3.652014e-01,-5.045527e-01,4.539759e-01,9.194348e-03,5.074670e-01,6.350918e-01,-1.153982e+00,-8.182090e-02,-2.157924e+00,-2.748620e+00,1.511350e-01,-4.014091e-01,-3.572861e-01,-4.900320e-03,-1.348110e-01,-5.399913e-01,1.714660e-01,8.659914e-01,1.084163e-01,2.480506e-01,-3.119244e-01,1.823475e-01,-2.091899e-01,-2.295234e-02,2.002748e-01,-1.298548e+00,-3.749180e-01,3.802994e-01,1.651454e-02,-8.302909e-03,-1.887244e-01,7.102942e-02,1.358060e-01,-1.893731e-01,-1.154597e-01,-3.212083e-01,2.699690e-02,3.454726e-01,-4.398499e-01,-3.668262e-01,-2.599981e-01,-4.030893e-01,1.497855e-01,-1.062764e-01,5.520021e-01,-1.890972e-01,
-4.363710e-02,-3.533040e-03,-4.387490e-02,-4.810460e-02,-3.469290e-02,2.946140e-02,-3.285610e-02,4.596970e-03,-5.325500e-03,-9.406510e-03,6.603730e-03,9.695810e-03,1.274100e-02,-3.909890e-02,-2.443610e-03,-3.817690e-03,-8.769490e-03,-1.999080e-02,-1.521330e-02,-2.443470e-02,2.772490e-04,-4.587530e-02,1.760910e-02,1.499890e-03,-2.380850e-02,-1.920670e-02,-1.456070e-03,-3.394880e-02,-5.941130e-03,1.101100e-02,4.502620e-02,-4.942620e-02,1.979960e-02,4.622080e-03,3.753870e-02,3.104910e-03,-4.070090e-02,-3.432250e-02,-3.757830e-02,2.011810e-02,1.482170e-03,-4.522150e-02,1.229450e-02,4.250440e-02,6.168150e-04,-3.614010e-02,-2.832570e-02,-4.768040e-02,1.322790e-02,1.256710e-02,
-4.744998e+00,-3.402339e-01,-3.107401e-01,-1.180552e+00,1.554328e-01,2.442252e-01,-2.088611e-01,4.541311e-01,6.197859e-02,6.792505e-01,-1.154478e-01,2.107952e+00,-1.028585e+00,-1.205209e+00,1.884230e-01,1.822220e+00,-6.609892e-01,-1.004150e-02,-2.309587e+00,1.687641e+00,2.023090e-01,2.957513e-01,-2.753022e-02,-5.411146e-01,-1.586884e-01,4.724913e-01,-3.696568e-01,1.839869e-01,5.609757e-01,7.726766e-01,-4.491274e-01,8.332795e-01,-2.343917e-01,2.200068e+00,-1.959702e-01,4.099036e-01,2.885376e+00,-7.118091e-01,7.309297e-02,-1.025761e+00,1.165780e-02,-8.781585e-01,-6.885495e-01,4.047298e-01,3.871668e-01,5.791404e-01,7.457560e-02,3.864221e-01,1.171505e+00,3.978310e-01,
1.929638e+00,3.840339e-01,2.809645e-01,5.060855e-01,4.221936e-01,7.631100e-02,-4.876589e-01,5.078264e-01,7.500387e-01,2.005114e-01,-1.051183e+00,2.492955e-01,-1.180552e-01,2.345466e-01,1.711950e-01,-3.264242e-01,-7.164121e-01,1.710750e-02,-1.968701e-01,1.353599e+00,1.104790e-01,-1.832198e-01,7.463541e-02,2.041077e-01,3.453403e-01,2.120914e-01,-1.514055e+00,1.020082e+00,8.073136e-01,3.854844e-01,-4.569362e-01,-1.724080e-01,-5.592973e-01,-1.269330e+00,7.021700e-01,8.813944e-02,1.768492e+00,-7.903418e-01,4.130019e-01,1.534967e-01,2.170220e-02,-1.193846e+00,-5.361899e-01,7.375615e-01,-4.726617e-01,-2.117651e-01,-5.685945e-01,1.243208e+00,6.651459e-01,4.698954e-01,
3.787955e-01,2.648807e+00,-1.440240e-01,7.071566e-01,1.535377e-01,9.719648e-02,2.410438e-01,-2.026926e-01,-1.226313e-01,2.232576e-01,7.897560e-02,6.271906e-01,-6.903036e-01,9.021049e-01,1.727280e-01,2.205518e-01,-1.228877e-01,-5.260970e-02,-1.592055e-01,-8.483421e-02,1.568540e-01,-3.225000e-01,-1.720457e-01,1.498622e-01,-1.983502e+00,-4.104059e-01,4.147797e-01,-1.677037e-02,-1.008239e-01,-8.252551e-02,2.432433e-01,-1.720977e-01,1.075526e-01,-9.575587e-01,9.605299e-02,6.594331e-01,1.885081e-01,-1.117665e-01,1.083874e-01,2.403772e-02,3.067070e-02,4.594460e-01,-4.957904e-01,-3.500598e-01,2.788858e-01,-3.639569e-01,-1.478026e-01,1.871351e+00,-1.539120e+00,-3.149987e-02,
-2.000520e-02,-4.914060e-02,3.324560e-03,-4.674880e-03,-4.595860e-02,-5.280300e-02,2.403880e-02,-3.634520e-02,-3.427990e-02,-7.745270e-03,-3.237800e-02,4.513190e-02,3.759040e-02,-3.963470e-02,2.735250e-02,-4.754880e-02,-2.484140e-02,-3.183700e-02,6.096410e-04,4.497530e-02,-2.055340e-02,9.368520e-03,-3.242240e-02,-2.480670e-02,-1.337850e-02,-4.489900e-02,-1.658350e-02,-4.578950e-02,3.448060e-02,-3.433750e-02,4.312080e-03,2.583180e-02,1.851600e-02,-5.338290e-04,-9.124330e-03,2.729740e-02,8.213530e-03,-1.387010e-02,1.501700e-02,-2.043370e-02,-2.611420e-02,-7.669750e-04,1.685150e-02,-2.769130e-02,-3.376330e-02,2.338980e-02,-4.464890e-02,1.270980e-02,-3.790040e-02,-3.099730e-02,
6.686451e-01,8.612061e-01,-2.667462e-02,1.290726e-01,-1.154823e-01,-5.091956e-02,4.047597e-03,-1.373745e-01,2.590514e-01,-3.215905e-01,-2.091659e-01,3.708337e+00,3.822619e-01,1.647881e-02,2.264280e-01,8.620591e-01,3.380178e-01,-3.043430e-02,-2.832387e-01,2.011933e+00,2.057070e-01,2.779105e-01,-1.137133e-01,6.201876e-01,2.186937e-04,5.552840e-01,4.683365e-02,-1.289815e-01,3.630381e-01,-2.931923e-01,8.535154e-02,1.570602e+00,1.901826e-01,1.897079e+00,3.244588e-03,1.311292e+00,1.165587e-02,-1.400652e-01,-1.786896e-01,2.810177e-01,-1.595820e-02,1.149604e+00,-2.033179e-01,-1.181479e-01,-6.731945e-02,-6.822246e-02,6.308296e-02,7.631720e-03,1.245244e-01,6.371163e-01,
1.400539e+00,-1.619297e+00,-1.974260e-02,-9.143066e-01,6.019496e-01,-3.049216e-01,2.797606e-01,2.818778e-01,2.206818e-01,1.596838e-01,-2.764123e-01,5.257785e-01,4.428353e-01,-1.187804e-01,1.343810e-01,1.968853e-01,4.045577e-01,4.715010e-03,1.975893e-01,8.697731e-02,1.604930e-01,-5.173468e-02,-1.397855e-01,-2.386736e-01,-8.030775e-01,1.954888e-01,1.231578e-02,6.556345e-01,-5.681056e-01,1.909967e-01,-1.093142e+00,1.653037e-01,9.218027e-01,-7.639632e-01,-1.559597e+00,5.745055e-01,1.009723e+00,-8.791276e-01,6.528788e-01,3.817344e-01,5.539820e-02,-1.376568e-01,4.329045e-01,1.884637e-01,-3.564808e-01,8.948082e-02,-1.581609e-01,6.477074e-01,2.281693e+00,-7.901467e-03,
-4.223785e-01,1.860145e+00,-1.131454e-01,-4.152585e-01,-1.272106e-01,-6.772767e-02,-1.702529e-01,1.974086e-01,4.821727e-01,-8.601466e-01,2.697933e-01,2.721864e+00,2.114130e-01,5.119360e-02,1.617580e-01,1.446185e+00,2.602206e-02,-4.533910e-02,1.181746e+00,-2.297235e+00,1.895170e-01,-1.476724e-01,-3.737612e-01,3.601723e-01,-7.688173e-02,-1.404835e-01,1.364950e+00,-2.415521e-01,4.827659e-01,3.586975e-01,4.754012e-02,7.568052e-01,-2.134343e+00,1.683502e+00,1.296552e-01,2.515630e-01,-3.544497e-01,3.287683e-02,-1.205968e+00,-8.375384e-01,2.118390e-02,-7.556256e-01,3.295458e-01,5.288470e-01,4.782227e-02,-1.067434e-01,3.793791e-02,-2.542659e-01,-4.858288e-02,1.256050e-02,
-9.238255e-01,2.099597e-01,-4.696302e-01,7.742466e-01,-1.883316e-01,1.478005e-01,1.092444e+00,2.033074e-01,3.949582e-01,1.693173e-01,4.574380e-01,1.493750e+00,1.218390e-01,3.170760e-01,3.267950e-02,9.107646e-01,6.955056e-01,-1.719190e-03,3.882961e-01,-2.131722e+00,1.067210e-01,-3.382291e-01,-9.448851e-01,3.677261e-01,-6.826591e-02,1.752389e-01,-6.486679e-01,-1.233468e+00,1.781978e+00,2.145760e-01,1.662210e-01,1.257885e+00,-1.047078e+00,8.466665e-01,-4.323966e-01,8.508365e-01,-5.670785e-01,1.705389e-01,-1.895124e+00,-1.166805e+00,-1.041350e-02,-1.092064e+00,3.132507e-01,1.908742e-01,3.228503e-01,3.066823e-01,-7.731876e-01,-5.660783e-01,-8.232797e-01,1.463772e-01,
5.082192e-01,8.436670e-01,1.605474e-01,-1.791864e+00,-9.782939e-02,7.817809e-01,-3.493873e-01,1.800021e-01,-1.535124e-01,3.437426e-01,-4.207228e-01,3.151847e-01,2.854648e-01,-4.559326e-01,-3.221340e-02,-1.568628e-01,6.060789e-01,-1.257430e-03,9.488651e-02,-6.729937e-01,-4.992500e-02,-2.067202e-01,2.463563e-01,-1.889341e-01,-2.974080e-01,-8.549434e-02,-5.837628e-01,7.222930e-01,5.811495e-02,-6.075100e-01,-6.809741e-01,3.004017e-01,1.883405e+00,5.541582e-01,-1.807297e+00,2.519755e-01,-2.170525e+00,-9.581805e-01,1.194567e-01,-1.769686e-01,-7.270270e-04,-4.447599e-01,5.553498e-02,-5.475206e-01,-8.707626e-01,7.815523e-02,2.804394e-01,4.400856e-01,1.889860e+00,4.025529e-01,
-1.001656e-01,1.257580e+00,-2.461588e-01,-7.433524e-01,4.780370e-01,5.332102e-01,-2.665676e-01,9.175811e-01,2.861019e-01,9.359682e-02,-1.068996e+00,-1.354543e+00,1.056699e+00,2.736778e+00,-8.539220e-03,4.587876e-01,4.433760e-01,4.108300e-02,5.742657e-01,-3.698809e-01,-1.252180e-02,1.057635e-01,-9.632617e-01,-3.924775e-01,4.709335e-01,3.021415e-01,-2.338110e-02,-1.199799e-01,2.063874e-01,-3.250711e-01,-3.566435e-02,-1.947573e-01,1.662731e-01,8.725035e-01,4.750185e-01,-2.765366e-01,2.437955e+00,-3.560823e-01,-4.065219e-01,-3.466425e-02,-7.201670e-03,8.683290e-01,3.256713e-01,5.032959e-01,-3.840931e-01,-2.190684e+00,4.250681e-01,-8.684245e-01,7.910768e-01,1.255927e-01,
-4.977950e-02,9.365260e-03,-1.924360e-02,7.289070e-03,3.501470e-02,-1.291540e-02,2.930140e-02,2.550070e-02,3.687860e-02,2.380230e-02,-4.421530e-02,3.151410e-03,1.351990e-02,-3.140860e-02,1.493400e-02,3.352080e-02,1.243060e-02,-1.620080e-02,-1.021390e-02,-3.299720e-02,-4.375980e-02,-2.348130e-02,-4.066250e-02,-6.272040e-03,-5.166410e-02,3.577980e-02,-2.184940e-02,-6.643080e-03,-3.941560e-02,-1.394210e-03,-4.760010e-02,-2.048200e-02,-8.077700e-03,-1.849430e-02,-5.088410e-02,-1.549540e-02,-1.572160e-02,-1.983610e-02,-3.196550e-02,2.423370e-02,-4.919100e-02,-4.133440e-02,3.570610e-02,-1.137300e-02,-4.570770e-02,-2.659160e-02,-4.376090e-02,-3.792080e-02,-3.259680e-02,3.376630e-02,
-1.029708e-01,-3.632531e-02,2.224815e-01,-1.938575e-01,-2.518429e-02,3.647125e-01,1.720853e-01,1.540236e-02,-1.293671e-01,-8.350648e-02,6.700685e-02,1.420615e-01,1.035597e-01,2.083419e-02,3.925460e-02,5.837813e-02,1.925229e-01,4.402310e-02,2.984575e-01,1.349157e-01,1.659300e-02,3.680153e-02,-7.352489e-02,-2.083775e-01,-2.666313e-02,-2.593605e-02,-3.607222e-02,2.556860e-01,-3.466791e-02,6.221128e-02,-3.282961e-02,-3.582882e-02,-9.514099e-02,6.926035e-02,-1.910615e-01,-1.550945e-01,2.203033e-01,2.788024e-01,-4.602675e-02,-1.095190e-01,2.310290e-02,1.695499e-02,-6.782554e-02,2.439314e-01,-1.784632e-01,-2.441072e-02,-4.884553e-02,1.564911e-01,-1.016047e-01,-1.440284e-01,
-1.628429e+00,-6.968600e-01,3.030599e-01,1.058988e+00,-5.952972e+00,-2.104146e+00,2.791938e+00,2.167492e-01,-2.109371e-01,-2.042226e+00,2.144973e-01,-2.353059e+00,-2.072200e-02,1.346072e+00,-2.110670e-02,-6.285451e-02,-2.861515e-02,2.061270e-02,-1.215338e+00,-2.001250e+00,3.701950e-02,-7.206516e-03,1.557989e+00,1.287755e-01,-2.755793e-01,2.397411e-01,-5.678050e-03,-8.165742e-01,3.997869e-01,8.562452e-01,7.757158e-01,-1.308402e-01,-1.905271e+00,1.390484e-01,6.357057e-01,-4.618097e-02,-9.579254e-01,5.383383e-01,-3.617288e-01,-8.397402e-01,1.965010e-02,-7.518017e-01,2.155676e+00,-1.749268e+00,1.009606e+00,-3.949846e+00,1.257906e+00,-2.704525e+00,1.398918e+00,-8.922716e-01,
1.392227e+00,3.705721e-01,-3.592708e-01,2.240386e+00,-1.374804e-01,-1.089339e+00,5.210694e-01,-6.255936e-02,7.047382e-01,1.374290e-01,-8.506573e-01,1.044438e+00,1.201947e-01,-1.005545e-01,-1.433530e-02,-9.236000e-01,-1.259683e+00,4.641960e-02,3.177349e-02,1.988247e-01,-1.646820e-01,-4.284560e-01,-6.050725e-02,-1.888315e-02,-3.518200e-01,1.760570e-01,1.671930e-02,3.912238e-01,-1.720083e-01,-1.059010e+00,-9.053319e-01,-5.231526e-01,1.726823e+00,-6.773120e-01,-2.093197e+00,-2.387086e-01,1.537480e-02,-1.038260e+00,1.072108e-01,-7.843284e-02,-4.647130e-02,-1.618105e+00,7.080668e-01,-3.233785e-02,-2.621487e-01,1.965381e-01,1.528324e-01,3.780974e-02,2.503376e+00,-1.977964e-01,
-1.657527e+00,1.825077e+00,-5.560340e-01,-7.739147e-01,-8.687998e-01,6.932797e-01,4.811562e-01,1.301326e+00,-3.454805e-01,-2.957160e+00,3.350878e-02,4.835156e-01,1.324160e-01,1.034714e+00,1.571810e-01,2.895123e-01,3.811249e-01,-4.863370e-02,-1.136951e+00,-1.380785e+00,2.005430e-01,-6.706854e-01,-1.529462e-01,-3.476148e-01,-6.271350e-01,-2.662556e-01,2.495900e+00,-5.706922e-01,1.943131e-01,-1.137932e-01,-4.943158e-01,5.599582e-01,-2.151261e-01,7.503076e-01,-9.411225e-01,5.291032e-01,1.506696e+00,2.281607e-01,-6.217714e-01,3.747555e-01,3.884920e-02,1.837246e+00,5.042709e-01,1.988461e-01,-1.805357e-01,-5.364674e-01,-8.980793e-01,-1.563848e-01,-4.509714e-01,-8.423704e-03,
3.187566e-01,2.337441e-01,7.835538e-02,-1.538277e-01,-7.277076e-02,3.008173e-02,-2.415825e-01,8.637287e-03,6.130131e-01,-1.466132e-01,2.180631e-01,3.937201e+00,-7.373441e-02,1.407692e-01,1.805900e-01,2.368216e+00,9.636565e-02,5.927080e-02,-5.822813e-01,2.797583e+00,2.625590e-01,3.732133e-01,-1.148646e-01,1.986202e-01,-9.786820e-02,3.904543e-01,-1.754222e-02,6.688093e-03,2.236119e-02,7.437791e-02,1.613270e-01,1.093106e+00,1.177833e-01,2.196951e+00,-4.818817e-01,5.152154e-01,-6.233422e-01,-3.753788e-02,-3.190171e-01,-3.033870e-01,-2.500020e-02,9.628669e-01,-3.376216e-02,-4.613157e-02,-1.250249e-01,4.308570e-02,1.646805e-01,-9.025283e-02,-1.496243e-01,1.784900e-01,
-1.672914e-02,2.979537e-01,-2.926475e-01,5.704315e-02,7.723094e-01,-8.080474e-01,6.541745e-03,7.062251e-02,1.116723e+00,-1.957236e-01,-3.327019e-02,1.864208e+00,3.353128e-01,-5.574802e-01,1.693730e-01,1.527012e+00,-2.609106e-01,-2.032370e-02,-2.656592e+00,8.390706e-01,2.308740e-01,2.028068e-01,-1.633150e-01,-1.051669e+00,5.213190e-03,2.957208e-01,3.147925e-01,-9.842796e-02,-6.739923e-01,-7.104654e-01,9.947944e-01,5.007440e-01,-4.043090e-02,1.980240e+00,-6.006346e-01,2.462635e-01,-8.780180e-01,-1.200321e+00,2.135805e-01,5.646802e-01,3.859960e-02,6.919702e-01,5.312346e-01,5.508516e-01,-2.452801e-01,1.934995e-01,-3.198031e-01,4.038717e-02,8.106365e-01,-9.895552e-02,
6.329921e-01,-1.883393e-01,-5.272524e-01,-1.514728e+00,4.250789e-01,-2.353244e+00,-2.349139e+00,-5.980796e-01,3.271500e-01,-4.270643e-01,1.510885e-01,-5.299938e-02,-8.074540e-01,-3.992379e-01,3.454740e-02,6.578026e-02,-1.607656e+00,-4.163600e-02,7.904264e-02,-3.706502e-01,2.826540e-02,4.303161e-01,5.829445e-01,-3.190113e-01,5.873086e-02,-2.758746e-01,-1.038031e-01,8.369907e-01,-1.335499e+00,-3.718271e-02,2.246924e-02,-2.347284e-01,-2.097943e+00,-1.084577e-01,7.271460e-01,3.556883e-01,-3.369736e+00,-5.233775e-01,8.824815e-01,-1.293473e+00,2.774100e-02,3.435703e-01,2.980050e-02,-2.767439e-01,-1.839614e-02,4.316230e-01,1.500798e+00,8.849100e-01,1.168406e+00,3.867411e-01,
-2.655213e+00,-3.074130e-02,2.412600e-01,6.924370e-03,2.861726e-03,1.624825e-01,3.623540e-01,-3.567289e-01,-4.835091e-01,-5.829862e-02,-1.084039e+00,1.413888e-01,-2.582115e-01,-2.681860e-04,3.241270e-02,-9.132077e-02,9.236360e-02,3.496110e-02,-2.318797e-02,-4.575500e-01,-1.276400e-02,-2.814163e-01,-3.558214e-01,9.310522e-02,-1.387779e+00,-2.835631e-01,-2.380152e-01,-3.089189e-01,-3.875356e-01,1.420502e-02,5.131904e-01,-1.461660e-01,-2.930063e-01,-2.474184e-01,-3.116100e-02,2.859090e-04,2.119312e+00,-6.896605e-02,5.314562e-01,2.713148e-01,-1.160060e-02,6.123520e-03,-5.259178e-01,3.115501e-01,-2.980172e-01,9.009150e-03,1.697931e-02,-6.704785e-01,6.878570e-03,1.514617e-02,
-4.178468e-01,9.821114e-01,-8.921437e-01,2.277903e+00,-1.603162e-01,6.983856e-01,1.520945e+00,4.287895e-01,-3.425890e-02,-1.657743e-02,8.923143e-01,1.583530e-01,-1.132700e-01,8.234481e-01,-9.643550e-02,8.080461e-03,9.783714e-01,-2.139410e-02,2.090039e-01,-2.338807e-01,-1.208450e-01,-5.967501e-01,-9.066547e-01,-2.202933e-02,-2.757833e-01,-2.260804e-01,2.977100e-01,-6.413454e-01,1.798016e+00,-2.254848e-01,7.566015e-01,-1.431185e-01,8.997324e-03,1.488444e-01,-9.654687e-01,-1.255744e-01,-7.878243e-01,9.051139e-01,-1.654070e+00,4.592404e-01,4.048650e-02,-9.551310e-02,4.156247e-01,-5.818916e-01,-2.891574e-01,2.210639e-02,-1.118725e+00,-6.267292e-01,-1.692041e+00,-1.276047e-01,
1.827462e-01,3.871298e+00,6.597526e-02,-2.636386e-01,-1.374120e-01,-1.055264e+00,9.268361e-01,-4.632959e-01,5.406498e-01,-8.742954e-02,-1.324069e-01,1.222259e+00,6.203988e-01,-1.026818e-01,2.568860e-01,-7.193533e-01,3.925187e-01,3.909570e-03,5.541784e-02,-4.475014e-01,1.659000e-01,-4.194322e-01,-4.587617e-01,2.072883e-01,-8.571146e-01,-1.119680e-01,1.156340e-01,1.000998e-01,1.972111e-02,2.872060e-01,3.644632e-01,-1.282345e-01,1.714129e-01,-1.590528e-01,1.606005e-01,3.639894e-01,2.162218e-02,-1.341171e-01,1.329059e-01,6.331867e-02,1.764490e-02,1.343220e-01,8.346272e-01,-2.456030e-02,-3.313483e-02,-2.048784e-02,7.348496e-01,1.242051e+00,9.270512e-01,2.520166e-01,
1.167384e+00,9.687461e-01,-3.026938e-01,1.956423e-01,2.278111e-01,3.480145e-01,2.012427e-01,2.141012e-01,-4.104507e-01,-6.379002e-01,1.755878e-01,1.741951e-01,4.019673e-01,6.510185e-01,1.374980e-01,-3.431414e-01,-3.008309e-02,-1.938770e-02,-8.405558e-01,3.720455e-01,1.401250e-01,1.241012e+00,7.813013e-02,-7.610275e-01,5.445935e-02,-1.806466e-01,4.582890e-01,-7.068736e-01,3.082017e-01,1.719492e-02,-9.492385e-01,3.032545e-01,4.951931e-02,4.646835e-01,-1.121308e-01,1.327030e-01,2.529880e+00,-7.578780e-01,1.925199e-01,6.272615e-01,-2.138940e-02,-7.014987e-01,-1.460707e-01,1.185444e-01,9.920971e-02,-2.499977e-02,1.953969e-01,8.021239e-01,-3.177771e-01,2.075613e-01,
8.913861e-01,5.519134e-01,-4.260501e-02,-8.975084e-01,-3.586552e-01,-2.254127e-01,-5.859773e-01,-2.665479e-01,2.443300e-01,-7.864723e-01,-1.126666e+00,1.394634e-02,1.726846e+00,-4.903011e-01,1.669320e-01,1.103083e+00,-7.577547e-01,-3.403480e-02,8.958787e-02,-4.370928e-01,1.979040e-01,-6.213470e-01,2.095915e-01,-9.042206e-01,9.912973e-02,3.994395e-01,1.524663e+00,-5.596668e-01,-1.866432e+00,5.384814e-01,-4.223483e-01,1.078007e-01,-4.296741e-01,9.325628e-01,9.065776e-01,1.521281e+00,2.393415e+00,-1.930436e-01,1.871767e-03,9.863517e-01,-2.992650e-02,1.321279e+00,2.705050e-01,8.217714e-01,5.895489e-01,5.031236e-01,-3.089507e-01,-1.227085e-01,-1.046159e-01,-7.782522e-01,
-3.772522e+00,-9.469697e-01,-1.489716e+00,6.482016e-01,1.002257e-01,8.213712e-01,-7.785486e-01,-1.056393e+01,-1.210667e+00,-2.031663e-01,9.815016e-01,1.005913e+00,-1.030510e-01,5.990146e-01,-2.836310e-02,-5.325955e-01,-1.424359e-01,-4.044950e-02,5.111463e-01,6.509619e-01,1.801600e-02,-6.019121e-01,2.737232e-01,-1.375510e-02,3.636498e-01,7.404806e-02,3.152021e-01,8.631102e-01,1.240827e+00,3.107237e-02,4.624346e-01,4.860925e-01,6.639934e-01,-1.203696e-01,-5.216027e-01,-4.058303e-01,-1.212079e-01,-7.784513e-01,-1.418413e+00,4.534363e-01,2.483770e-02,8.720691e-01,3.003124e-01,-5.735026e-01,-4.541594e-01,-1.342527e+00,-1.397707e+00,2.154320e-01,1.191100e+00,6.544135e-02,
2.753033e-01,3.549879e-01,-4.053715e-01,3.951081e-01,-9.752387e-01,5.360176e-01,-6.246206e-01,1.609405e+00,5.411636e-01,-2.071702e+00,-3.083449e-01,-6.188116e-01,1.022650e-02,-8.420449e-01,-1.238580e-02,-2.211785e+00,-2.952489e-01,7.018100e-04,3.184699e-01,-7.360278e-01,-5.077620e-04,-6.190474e-01,3.189466e-01,3.765187e-01,-4.575642e-01,2.284314e-02,-2.780433e+00,7.346970e-02,6.392133e-01,-2.593319e-01,-2.343747e-01,-1.184990e-01,-6.259697e-01,5.529002e-01,1.720449e-01,8.987975e-02,9.900868e-01,7.427915e-01,-1.235089e+00,2.686926e-02,4.076290e-02,-1.246359e+00,1.626114e-01,1.453032e-01,-7.599572e-02,-3.751203e-01,-9.360477e-01,2.933672e-01,1.629634e-01,-9.220527e-02,
3.304930e-01,3.793921e-01,-1.220433e-01,7.483567e-01,-5.543463e-01,6.636264e-01,1.645147e-01,7.085789e-03,-2.248139e-01,-4.376119e-02,6.284050e-01,-6.202814e-01,-7.383515e-02,-2.003585e-01,2.060100e-01,1.193393e+00,3.182104e-01,-6.259280e-03,1.006492e-02,-1.271152e+00,1.515580e-01,4.457744e-01,3.147563e-01,-1.455159e-01,-2.209936e-01,6.939166e-01,-1.299777e+00,4.660978e-01,4.212126e-01,-2.909828e-01,1.519180e-01,4.808585e-01,2.851341e-01,7.474647e-01,-5.789183e-01,1.560605e-01,3.567673e-01,-1.056859e+00,1.478637e-01,3.563407e-01,-2.527930e-02,-3.737210e-01,5.503076e-02,-5.893310e-01,-4.317310e-01,-2.786542e-01,2.049582e-01,-1.823559e-01,2.241325e-01,3.805595e-01,
-8.914990e-01,-2.746941e-01,-1.689366e-01,4.210451e-01,-8.679093e-01,-2.083433e-01,-4.857528e-01,-3.331717e-01,-5.568721e-02,-1.759721e-02,1.563193e-01,-8.889574e-01,1.197527e+00,8.512583e-01,8.275150e-02,1.186954e+00,2.722666e-01,-2.280900e-02,-1.029196e+00,7.094193e-02,6.731860e-02,1.191695e-01,-4.323006e-01,-3.620442e-01,-4.156976e-01,6.194257e-01,-9.076139e-01,1.466635e-01,-9.638396e-02,-3.947145e-01,-7.657374e-01,-7.488571e-02,1.440181e+00,1.217657e-01,-7.731639e-01,-1.683170e-01,3.847522e-01,-2.822484e-01,-2.749057e-01,-3.231104e-01,-4.548550e-03,-1.296712e-01,-2.398614e-02,-9.550743e-02,2.773879e-01,1.592897e+00,3.500931e-01,3.673983e-01,5.346870e-01,-4.074781e-01,
-1.922440e-02,-2.858200e-02,-6.181637e-03,-1.918560e-02,1.891370e-02,-1.752956e-02,-6.733648e-03,-3.502550e-02,1.299310e-02,-1.102864e-02,2.818630e-02,-3.811770e-02,3.270350e-02,9.120860e-03,-9.199460e-04,3.003750e-02,-4.821877e-02,3.001930e-02,1.178372e-02,-4.493740e-02,2.294410e-02,1.579310e-02,-4.405240e-02,-2.774000e-02,1.143850e-02,-3.270990e-02,4.007460e-02,-1.607034e-02,-2.043621e-02,-4.872610e-02,2.445530e-02,-4.141910e-03,-1.441768e-02,-1.611210e-02,4.169710e-02,-4.398690e-02,-4.075540e-02,-1.920854e-02,-5.910662e-02,-3.411140e-02,3.611430e-02,-3.292260e-02,4.346700e-03,1.570355e-02,8.398560e-03,-4.194990e-02,-3.325830e-02,-1.313036e-02,3.786840e-03,-1.840860e-03,
1.400266e+00,6.224260e-01,9.398878e-02,-1.103605e+00,-4.193866e-01,9.504082e-01,7.058523e-01,-1.085240e+00,1.800290e+00,2.911101e-02,5.199298e-01,-3.633322e-01,6.454245e-01,1.759140e+00,2.071020e-01,6.467785e-01,1.490786e-01,-1.368550e-02,-1.638348e-01,-1.075258e-01,1.512250e-01,-2.527684e-01,-5.781428e-01,-1.284803e-01,-1.329690e+00,5.853513e-01,4.399078e-01,7.097616e-01,-8.198467e-01,-9.256512e-02,1.626153e-01,-1.476293e-01,-1.745933e-02,1.910385e-01,1.028429e+00,2.141990e-01,-7.497384e-01,-7.781248e-02,-7.341499e-01,-9.641993e-02,-2.315710e-02,2.836500e-01,1.106299e+00,-2.545436e-01,2.758559e-01,2.261827e-01,9.346114e-03,-7.530071e-01,6.667975e-01,-1.025842e-01,
-9.849869e-01,-2.432491e-03,-7.716518e-01,3.406242e-01,1.136353e+00,8.573323e-01,-3.810615e-02,3.307726e-01,-5.359911e-02,-2.054989e-01,8.875840e-01,1.093848e+00,1.606047e+00,3.371983e-01,2.293110e-01,7.574559e-01,9.730115e-01,4.129330e-02,1.173502e-01,2.053811e+00,2.279710e-01,-1.772626e-01,-2.231404e-01,1.738568e-01,4.267270e-02,-2.861685e-02,-7.650080e-01,-3.339300e-01,6.602895e-01,-3.876551e-01,1.715909e-01,2.034671e-01,2.946173e-01,-3.040496e-01,-5.231131e-01,-2.946232e-01,-2.544979e-01,-2.925615e-01,-6.728167e-01,6.868443e-01,5.323110e-02,8.848370e-01,9.157512e-02,-4.864760e-01,-4.610575e-01,-1.220957e-01,-4.454276e-01,1.551077e-01,-2.969570e-01,6.936068e-01,
-1.752947e-01,1.973375e+00,-5.336823e-01,-4.918706e-01,2.360032e-01,-4.306224e-03,2.218663e-01,-7.503588e-02,1.290714e+00,1.561632e-02,1.039694e-01,3.883864e+00,-1.681982e-02,-9.142629e-02,2.089420e-01,1.351442e+00,1.751515e-02,3.023120e-02,7.470846e-01,-1.176640e+00,1.026600e-01,-8.879867e-01,-9.749661e-02,1.709171e-01,-3.163319e-01,-3.894804e-01,1.079476e-01,1.142923e-01,-3.800283e-01,-1.331679e-01,1.424661e-01,9.445205e-01,3.943292e-01,2.014482e+00,-5.002392e-02,9.120368e-01,-6.312064e-01,-1.674130e-01,-4.823961e-02,-2.861841e-01,4.127310e-02,-5.526991e-01,3.552670e-01,-3.172243e-01,-3.230275e-02,-2.049860e-01,4.023871e-01,-4.145591e-01,3.011112e-01,3.621531e-01,
2.032013e+00,-1.468506e-01,5.247400e-01,-1.021137e+00,1.662512e-01,1.216911e+00,6.517331e-02,7.137181e-01,-1.071559e+00,4.704971e-01,-1.306503e+00,7.375417e-01,-4.458706e-01,-9.094993e-02,2.222080e-01,-1.137200e-01,9.132276e-01,-1.599820e-02,1.173204e+00,-3.666160e-01,1.946710e-01,-1.071043e+00,-1.076910e+00,-8.618330e-01,-1.048853e-01,-6.627281e-01,1.330172e-01,-7.830741e-01,-2.175343e-01,-5.887841e-01,-6.217808e-01,-1.627087e-01,2.323586e+00,2.599762e+00,-3.683940e-01,-2.885573e-01,4.098481e+00,-5.819700e-01,-1.698845e-01,4.510306e-01,3.041070e-02,-4.883796e-01,-5.740461e-01,2.872396e-01,-6.326277e-01,-9.144885e-02,-6.097866e-01,5.546591e-01,6.883652e-01,-1.869062e-01,
-1.071310e+00,8.870302e-01,-1.530105e-01,3.208824e-01,-1.295431e-02,-9.798978e-02,-5.955150e-01,-1.176012e-01,8.810955e-01,-1.079544e-02,-6.516847e-01,-9.197941e-01,5.714800e-01,3.346627e-01,1.572520e-01,7.511348e-01,1.280290e-01,2.654190e-03,-2.782465e+00,1.131050e+00,1.135520e-01,5.852868e-01,-1.385788e-01,-1.297673e-01,-1.398057e-01,9.405230e-01,-1.582779e-02,-1.484802e-01,3.517651e-01,-1.105110e+00,5.143856e-02,3.876559e-01,-4.776723e-01,5.907211e-01,4.049573e-01,3.957826e-01,-2.128867e+00,1.220650e-01,1.730863e-01,-1.598549e+00,-4.695870e-02,-1.877972e+00,4.208730e-01,-8.359830e-02,-2.134510e-01,-4.672701e-01,2.570779e-01,-2.787819e-01,-1.457960e-02,5.733497e-01,
1.277084e+00,-2.482179e-01,1.060930e+00,1.312316e+00,5.671669e-01,-1.372111e-01,-4.587944e-01,3.698606e-01,1.174945e+00,9.620536e-01,-7.271804e-01,5.884174e-01,-1.156144e+00,-2.830328e-01,2.531520e-01,3.728765e-01,1.454002e-01,4.946830e-02,-5.170049e-01,1.891964e+00,1.978020e-01,1.269679e+00,6.103361e-02,4.556354e-02,-7.757870e-01,-1.189725e+00,6.082598e-01,-2.633938e-01,6.930955e-01,8.888172e-02,4.055957e-01,-2.385693e-01,3.872217e-01,2.955360e-01,5.253003e-01,5.882285e-01,-1.080606e+00,8.894510e-01,-5.190824e-01,-6.259227e-01,-2.473830e-02,2.046632e-01,-1.696697e-01,9.247170e-02,-3.629388e-02,5.540792e-01,-4.477352e-01,2.910900e-01,-8.631311e-01,-1.024916e-01,
3.734830e-02,2.339580e-02,-2.400850e-02,9.300750e-03,-3.469640e-02,-4.145700e-02,7.458890e-03,-4.744480e-02,3.844500e-02,1.282990e-02,-8.925540e-03,-1.682360e-02,-2.106300e-02,-6.997750e-04,1.197930e-02,4.362680e-02,-4.008960e-03,4.877910e-03,-2.573790e-02,3.701060e-02,2.711270e-02,-2.679290e-02,1.752680e-02,-4.999130e-02,-4.594530e-02,-3.797900e-02,-2.326800e-02,9.460480e-03,-2.252050e-02,8.053290e-03,-5.480440e-02,-1.847000e-02,-2.442920e-02,-8.975790e-03,-3.821350e-02,-6.387940e-03,4.057880e-02,-4.270210e-02,-2.192160e-02,-4.487970e-03,-6.568470e-03,4.376110e-02,-2.310150e-03,-4.423290e-02,2.870560e-02,3.374070e-02,1.236540e-02,-5.171780e-02,-1.210320e-02,-8.175730e-03,
-1.183677e+00,1.532599e-02,-3.633409e-01,1.351938e+00,-6.225569e-01,8.992764e-02,1.756864e-01,-1.930711e-01,-3.800295e-01,-1.717441e-02,-7.756580e-01,6.253926e-01,1.624436e-01,-1.296964e-01,2.016540e-01,4.876687e-01,-7.760277e-01,-1.389790e-02,-2.281086e+00,2.783910e-01,1.844250e-01,3.654429e-01,1.846303e-01,-1.089124e+00,-1.348535e-01,2.558667e-01,-8.587312e-01,2.550713e-01,-6.180211e-01,-1.459735e+00,-1.334515e-02,1.746133e+00,-1.311555e-01,-2.856144e-01,-2.546487e-01,8.239259e-01,4.466280e+00,-8.027680e-01,-4.377566e-01,3.471174e-01,3.043130e-02,2.294573e-01,5.627059e-01,-7.170402e-01,-3.508713e-01,1.319366e-01,5.126963e-01,-1.578996e-01,-1.208018e-01,1.403414e-01,
-2.964860e+00,-1.323576e+00,5.381418e-01,7.853510e-01,-4.713978e-01,7.925181e-01,-1.190665e-01,-4.745143e-01,-5.070730e-01,1.160969e+00,4.889596e-01,1.349892e-01,-1.647529e+00,-4.597256e+00,-7.833180e-02,-1.046098e+00,2.023660e-02,2.798390e-02,1.428798e-01,1.120774e+00,-7.278210e-02,-1.319831e-01,1.218677e-01,-4.006806e-02,-1.029325e+00,-2.301263e-01,-5.365340e-01,8.262735e-01,1.145631e+00,4.385193e-01,1.205067e-01,-3.735517e-01,5.449273e-03,-5.127512e-01,1.349047e+00,-2.927704e-01,-4.365095e-01,-1.224012e+00,7.693399e-01,1.574841e-01,-1.038760e-02,-1.671456e+00,-1.359054e-01,-1.004310e+00,-4.585191e-01,-2.197844e+00,9.466355e-02,5.260375e-01,3.108328e-01,-8.130517e-01,
4.865775e-01,4.125956e-01,-6.717573e-01,1.392745e+00,-1.334146e-01,-1.987819e-01,7.087531e-01,-1.246594e-01,-4.176868e-02,-4.074867e-01,-1.218358e-01,-9.992512e-02,-3.953140e-01,5.556533e-01,2.183640e-01,-2.721385e-01,8.744671e-01,5.543780e-03,-1.143405e-01,-2.181593e+00,2.187950e-01,2.987681e-01,-8.822151e-01,-1.099323e-01,1.112240e-01,5.768480e-01,5.066392e-01,1.791099e-01,9.262051e-01,3.348665e-02,6.397887e-01,3.287178e-01,-1.581697e-01,5.690241e-01,-6.187842e-01,3.683002e-01,-1.458499e+00,6.459116e-01,-6.760210e-01,1.069347e+00,2.057300e-03,1.896043e-01,6.440044e-01,-4.747908e-01,-1.153839e-01,4.308751e-01,6.337523e-02,-2.591851e-01,-1.093340e+00,1.277378e-01,
-3.521529e-01,-1.366886e+00,-1.246910e+00,-6.059036e-01,-8.213615e-01,-4.496813e-01,-4.262756e-01,6.528772e-01,1.082222e+00,-2.331445e-01,-3.755338e+00,-2.236353e-01,-1.077890e+00,-6.512314e-03,1.582450e-01,1.293422e-01,-1.564027e+00,-3.318360e-02,-1.406346e-01,-7.782783e-01,2.421320e-01,2.674533e-01,4.428451e-01,-3.810003e-01,-1.058726e+00,1.966657e-01,-1.132760e+00,-1.041063e-01,-1.929453e+00,-8.719379e-01,-1.076961e+00,2.817817e-01,-2.014441e+00,-1.467340e-01,9.163996e-02,4.518026e-01,-1.236283e+00,4.826194e-01,2.714482e-01,-8.616646e-03,-9.272720e-03,-8.846411e-03,1.117780e+00,6.646833e-01,9.067650e-01,-3.355912e-02,-3.172217e-01,-3.017012e-01,-6.594167e-01,6.721407e-02,
-1.559358e-01,1.561133e+00,6.569722e-01,-1.508024e+00,-5.519990e-01,1.084777e+00,-4.605189e-01,-2.355102e-01,1.274331e+00,-8.191286e-01,1.907579e-01,4.264507e-01,1.508114e+00,-6.354335e+00,1.531000e-02,-9.175368e-01,-2.268850e-01,-3.777580e-02,2.461803e-02,-7.693894e-02,-2.382550e-02,-3.872901e-01,7.709766e-01,8.827864e-02,-5.248324e-01,3.097050e-01,3.750491e-02,1.598590e-01,2.512153e-01,4.309931e-01,-3.643807e-01,1.055935e-01,4.847612e-01,8.635251e-01,4.297619e-01,-1.888469e-01,8.233969e-01,-5.230690e-01,-7.982889e-01,2.963880e-01,-6.714580e-03,2.080001e-01,-1.175602e-01,-4.242998e-01,-1.938711e-01,2.898519e-01,8.401573e-01,-4.725429e-01,-5.384663e-01,-7.656890e-02,
6.927052e-01,1.416635e+00,-3.542357e-01,-4.145938e-01,1.933766e-01,4.125364e-01,5.275228e-01,4.547437e-01,-4.476874e-01,-1.143693e+00,-5.779089e-01,3.251103e-01,1.548073e+00,3.741101e-01,2.335530e-01,4.814875e-01,2.334674e-03,5.184030e-02,1.204573e-01,3.232441e-01,2.229280e-01,-2.460096e-01,-7.584392e-01,-5.459346e-01,1.476000e-01,8.437026e-02,2.297940e-01,-9.075748e-01,5.715135e-02,-5.877901e-02,-9.066492e-01,-1.835015e-01,-3.977841e-01,-8.972555e-02,6.742605e-01,-9.031694e-02,3.291304e+00,-3.795467e-01,-9.982704e-02,4.914609e-01,-2.908680e-02,-1.247175e+00,1.038887e-01,6.883255e-03,-3.339866e-01,1.780535e-01,-3.540779e-01,5.993942e-02,-2.623009e-01,-5.907826e-01,
1.548377e-01,-2.052537e+00,-5.031106e-01,8.353516e-01,-1.027475e+00,-1.300913e-01,-3.230396e-01,-6.835706e-03,2.698802e-01,-2.189512e-01,-4.073562e-01,2.896213e+00,1.469215e+00,8.386425e-02,2.052990e-01,1.404517e+00,6.767221e-03,2.677030e-02,-1.562789e+00,4.819789e-01,1.142940e-01,-6.366489e-01,1.710745e-01,1.029495e+00,2.326279e-01,-1.241886e-01,8.095145e-01,-4.575747e-02,4.003651e-01,-1.166334e-01,-3.596240e-01,1.019115e+00,-4.012026e-01,2.118119e+00,7.470628e-01,1.007083e-01,1.309947e+00,-1.159513e-01,4.058288e-02,1.648004e-01,4.197670e-02,6.808481e-01,-1.011946e-01,2.392987e-02,5.556507e-01,1.373480e-01,1.708752e-01,7.848282e-03,-7.502761e-01,-1.328503e-01,
6.593885e-01,6.538436e-01,-1.312208e-01,-1.347544e+00,1.546178e-01,5.527859e-01,5.244177e-01,2.911609e-01,2.340464e-01,-9.880412e-01,-1.265534e+00,-8.372288e-01,-1.638608e+00,6.570756e-01,1.868190e-01,2.442915e-01,3.018205e-02,-2.531990e-02,8.715092e-02,1.397210e+00,1.437450e-01,7.195655e-01,-8.677893e-02,-8.109614e-04,-5.771817e-01,5.071318e-01,-1.345045e-01,5.772395e-01,2.258507e-01,1.275367e-01,2.851179e-01,3.506640e-01,-1.294930e-01,1.501727e+00,5.961472e-01,-7.103519e-01,1.189030e+00,-2.756546e-01,4.205258e-01,-2.653888e-01,-1.348470e-02,-1.571152e+00,-1.328485e-02,2.089545e-01,-6.964599e-02,2.670421e-01,-4.821203e-01,4.046219e-01,1.853815e-01,-2.469034e-01,
9.632794e-01,1.268914e+00,-3.254903e-01,-5.607972e-01,3.730030e-01,1.030287e-01,1.004669e+00,7.554375e-02,4.770948e-01,-4.433328e-02,2.169908e-01,3.894754e-01,-3.212759e-01,-1.090086e-01,1.553940e-01,-6.156321e-01,-2.079812e-01,-1.920410e-04,-4.919579e-02,4.944418e-01,1.796510e-01,-2.934251e-01,-6.184085e-01,5.303760e-02,-1.220051e+00,1.011510e-01,-1.776998e-01,-1.511803e-01,7.119561e-01,-4.330712e-01,2.029928e-01,-1.068644e-01,-9.521194e-01,-2.639630e-01,-1.719037e-01,-1.241062e-01,6.803270e-01,5.194720e-02,1.019675e+00,-2.923599e-01,-1.441040e-02,-8.087552e-01,-2.383345e-01,-5.900573e-01,-2.561948e-01,4.870081e-02,-4.276384e-01,-3.172744e-01,-7.025587e-01,-9.169165e-02,
-1.951188e-02,-6.056104e-01,-2.884316e-01,5.999398e-01,4.333968e-01,5.995595e-02,-5.586534e-01,-3.292975e-01,-1.071340e-01,-2.685009e-01,6.160980e-01,-1.079474e+00,-2.559915e-01,1.060763e-01,1.999490e-01,2.691447e-01,-1.069643e-01,-5.188300e-02,2.895182e-02,-9.750705e-01,2.425610e-01,2.753085e-01,-6.358454e-01,-1.131329e-01,2.625541e-01,3.440301e-02,-2.504866e-01,3.297141e-01,8.850269e-01,1.281635e-02,2.745717e-01,-9.680324e-02,-6.830026e-01,6.462296e-01,6.159348e-01,-2.057989e-01,-2.854178e-01,-3.722755e-02,3.968879e-01,2.189314e-01,3.050740e-02,6.309864e-02,3.223331e-01,1.234255e-01,-3.101176e-01,1.485962e-01,-2.813756e-01,4.259945e-01,-4.394065e-01,3.534370e-01,
-4.172865e-01,
1.559447e-01,
-1.008510e+00,
3.531266e-01,
-1.035820e-02,
-6.975749e-01,
-3.839956e-01,
-7.205620e-01,
-3.741040e-03,
-7.412297e-02,
-3.530160e-01,
-9.304692e-01,
-6.113742e-01,
-1.054283e+00,
2.987566e-01,
-9.327550e-03,
2.057492e-01,
-4.293857e-01,
-7.461877e-01,
-5.449937e-02,
-1.173752e+00,
-5.037437e-01,
6.859681e-01,
-2.411534e-01,
-8.160749e-01,
1.136449e-01,
-2.031109e-01,
5.328346e-01,
2.546642e-01,
4.927246e-01,
1.337705e-02,
2.204718e-01,
-1.219855e-02,
-7.837229e-01,
-1.352740e-01,
-5.862916e-01,
-2.753231e-01,
-2.959648e-01,
-4.118815e-01,
-4.546970e-03,
2.808382e-01,
-6.643959e-01,
-5.916939e-01,
1.256004e+00,
2.352363e-01,
1.332754e+00,
-4.266988e-01,
-4.469402e-01,
3.075709e-01,
-9.703095e-02,
4.322722e-01,-6.991445e-01,-7.126145e+00,-4.656469e-01,7.653270e-03,6.804289e-01,7.516590e-01,-1.828918e-01,2.486290e-02,-4.127204e-01,4.789227e-01,4.702646e-02,3.012932e+00,-1.457159e+00,3.103111e-01,3.883560e-02,8.347199e-03,7.898118e-02,-1.036334e+00,1.646005e+00,3.378111e-01,-1.665610e-03,4.259292e-01,-1.366766e+00,-2.580774e-01,3.858725e-01,-9.490961e-01,3.518372e-01,-1.453842e+00,-2.369594e-01,-2.729636e-01,3.388642e-01,1.255280e-02,1.017639e+00,-1.816383e+00,-3.930931e-01,-7.949008e-01,-3.259546e-01,9.268115e-01,3.984330e-02,-2.186985e-01,6.513780e-02,-1.232682e+00,4.972385e-01,-4.170805e+00,-8.153942e-01,-4.398707e+00,9.457701e-02,1.627936e-01,-1.036811e+00,
-5.601266e-01,-3.442346e-01,-3.143570e+00,1.043308e+00,-3.303010e-03,-2.547936e-01,3.107452e-01,-8.900905e-01,3.002720e-03,-1.017999e+00,-1.757244e-02,-1.213990e+00,-4.355795e+00,-1.599400e-01,6.154000e-01,3.707540e-02,-6.938330e-02,2.386320e-01,-7.764572e-01,-1.328470e+00,8.433360e-01,-3.414012e-01,-8.952288e-02,7.272073e-01,-3.066350e-01,-9.637357e-02,3.608750e-01,7.024686e-01,-9.443079e-01,-1.602832e+00,1.759061e-01,5.183661e-01,3.356620e-02,-2.241211e-02,3.808452e-01,-3.486299e+00,-7.637022e-02,1.479360e+00,5.635958e-01,3.157860e-02,6.829250e-01,1.623893e-01,8.991465e-01,-1.716047e-01,2.722275e+00,-1.722428e+00,-2.118350e+00,3.879376e-01,1.614437e+00,-3.027112e-02,
-5.152713e-01,1.049172e-01,1.598849e+00,-6.688008e-02,3.575130e-02,2.866699e-02,7.993565e-02,-4.811589e-03,2.631270e-02,3.315003e-01,8.178499e-02,-6.156300e-01,9.067725e-02,-3.026305e-01,-4.917086e-01,1.725600e-02,9.457333e-02,1.044874e-01,2.451963e-01,-1.377630e-02,-5.387064e-01,3.815485e-01,1.132220e-01,-1.573782e-01,-5.140389e-01,1.205915e+00,-2.779536e-01,-4.430138e-01,1.662775e-01,2.990074e-01,-1.686009e-01,-8.372916e-02,-5.501520e-03,-1.819810e-01,-1.500555e-02,4.504850e-01,-2.459069e-01,1.299752e+00,3.194749e-01,-2.494700e-02,-2.101769e-01,1.060414e-01,-4.546838e-02,1.357888e-02,2.223243e-02,2.428405e-01,-1.920883e-01,1.355010e-01,-2.332274e-01,-2.674915e-01,
-3.516595e-01,-1.520508e+00,-6.635064e-01,-2.012444e-01,4.035770e-02,-1.072983e+00,1.670766e-01,-9.739578e-01,8.935360e-03,1.237721e+00,-3.900694e-01,-6.177309e-01,2.582088e-01,-2.303444e+00,3.738505e-01,4.241250e-02,-2.117794e-01,-1.093723e-01,-5.233060e+00,-4.922347e-01,-1.128929e+00,1.249981e+00,-6.484186e-01,-1.463954e+00,5.159437e-01,-1.461475e-01,-1.194819e+00,2.856759e-01,-4.200512e-01,4.579683e-01,2.616040e-01,-6.651121e-02,-8.220328e-03,-4.752635e-01,1.444981e-01,-5.169959e-02,-2.845249e-01,2.578580e-01,-5.003874e-01,-1.076160e-02,-9.395777e-01,1.407457e+00,-2.583560e-01,4.846174e-01,-1.138188e+00,2.455254e-01,-3.112358e-01,-7.169472e-02,-7.260525e-01,-7.716836e-01,
-6.044173e-01,-1.354753e+00,-1.726980e-02,3.184913e-01,2.663600e-02,-1.988488e-01,8.992416e-03,7.726056e-01,-3.913710e-02,-3.242098e-01,-5.258102e-01,1.499893e-01,5.128233e-01,7.931219e-01,1.425637e+00,-2.055320e-02,-3.321003e-02,-2.101032e-01,-9.651455e-01,8.971218e-01,-1.365957e+00,-7.211270e-01,5.371358e-01,-1.080534e+00,-2.986621e+00,-4.296040e-01,1.158111e-01,4.410558e-01,1.518296e+00,7.009392e-01,-8.997715e-01,4.336123e-01,4.168535e-02,5.005692e-01,-8.827935e-01,-4.317887e-01,-5.309853e-01,4.918880e-01,3.704918e-01,3.101130e-02,-3.151412e-01,8.314348e-01,-9.111124e-01,-9.516671e-02,1.309835e-01,7.475013e-01,5.478974e-01,-6.339064e-01,-2.210636e-01,-1.378320e+00,
1.817293e-01,-1.088077e+00,1.849247e-02,-1.021862e+00,-2.300960e-02,3.285170e-01,6.254843e-01,-5.006299e-01,-3.557070e-02,3.592944e-01,2.500843e-01,-4.366089e-01,1.668392e+00,-2.080940e+00,-3.886342e-01,-1.763860e-02,6.830140e-02,-1.627745e-01,-6.529458e+00,3.612297e-01,-4.333327e-01,-2.581878e-01,5.564346e-01,2.138164e-01,-1.392272e+00,7.870498e-02,-2.338806e-01,-7.137610e-01,4.171326e-01,-2.639127e-01,4.100253e-01,4.114866e-02,1.586690e-02,-1.041134e-03,-1.296219e-02,-2.541284e-01,4.519180e-02,6.713513e-01,-2.787166e-02,3.598640e-02,2.646559e-01,3.640884e-01,-4.955258e-01,-2.840950e-01,1.204285e-01,-7.560112e-01,2.413617e-01,8.830401e-02,1.544910e-01,-1.358789e-01,
-8.345157e-03,-3.950296e-02,3.431680e-02,-7.110593e-02,2.523500e-02,-1.399920e-02,-5.436664e-02,1.978624e-03,3.080340e-02,5.052033e-03,-1.345813e-02,-4.446950e-02,2.571537e-02,3.212470e-02,1.574152e-02,4.422250e-02,1.755450e-02,-4.635310e-02,3.341340e-02,3.959969e-02,-2.395120e-02,-3.869710e-02,5.355236e-03,-1.875150e-02,4.078972e-02,-6.520447e-02,-3.217766e-02,-2.345072e-02,-4.842970e-02,3.865822e-04,-1.225730e-02,-4.850625e-02,-1.852570e-02,-5.035490e-02,-2.868300e-02,4.552680e-02,-4.982174e-02,1.288770e-02,-6.807238e-02,-3.764720e-02,-2.570030e-02,-4.314098e-02,4.150351e-03,8.604527e-03,2.676380e-02,-2.083238e-03,4.327070e-02,-8.105802e-03,5.656087e-03,-5.413698e-02,
7.054790e-01,7.786107e-01,2.154881e-02,-1.035238e+00,2.015860e-02,-4.673617e-02,-5.855161e-01,-5.292283e-02,4.530830e-02,7.884642e-02,-1.244312e-01,-7.597402e-01,3.390273e-01,-1.330098e+00,1.372450e+00,-4.157770e-02,-1.412520e-02,4.657140e-01,-1.465259e+00,-2.148647e-01,9.879500e-02,-5.172514e-01,-6.795002e-01,1.201230e+00,-8.461487e-01,7.647986e-01,1.689234e-01,1.429256e-01,-9.389067e-01,2.438212e-01,-3.811262e-01,-2.415681e-01,-1.572860e-02,-2.145669e+00,-9.829381e-01,-2.307280e-01,-6.077201e-01,9.795579e-01,-4.783209e-01,5.402350e-02,-6.219819e-02,-4.699378e-01,3.285395e-01,-2.320926e-01,7.017580e-01,-5.618707e-01,7.347146e-02,2.880843e-01,-7.930703e-02,-2.480838e-01,
-2.352260e-01,-3.099547e-01,-4.850100e-01,8.793852e-01,3.733700e-02,4.126953e-01,-1.308238e-01,3.239040e-03,-3.357560e-02,-9.497119e-02,5.869934e-01,-5.992642e-01,8.791671e-02,-3.486602e+00,1.999983e+00,-3.244020e-02,-1.189034e-01,2.313786e-01,-3.330202e-01,-2.333470e+00,-1.831974e-01,-2.331873e-01,-2.316305e-02,8.510730e-01,2.547858e-01,-1.036304e+00,-8.006828e-01,1.676660e-01,6.424918e-01,-1.243756e+00,-7.587674e-01,5.192221e-01,5.868800e-04,1.010060e+00,-1.013954e+00,-2.796420e+00,-5.654638e-01,7.071307e-01,-2.746410e-02,-3.618430e-02,2.072150e-01,-1.053316e+00,1.169083e+00,9.077158e-03,-1.082300e-01,5.466424e-01,3.639590e-01,-6.650279e-01,1.685285e+00,6.963989e-01,
-4.799254e-01,-8.448355e-01,-7.432305e-01,3.333677e-02,-1.602810e-02,-1.801098e-01,5.339870e-01,1.750910e-01,9.689150e-03,-2.093682e-01,-4.253320e-01,-1.400647e+00,1.827700e+00,3.227338e-01,-4.011905e-01,7.039510e-04,-3.043126e-01,-5.910662e-01,1.981870e-01,1.689260e-02,-1.592348e+00,-6.576825e-01,-3.967201e-02,-5.654789e-01,-2.399626e+00,2.554752e-01,-7.732916e-01,3.643845e-01,6.351181e-01,-1.428438e-02,1.522270e-01,-1.955681e-01,-2.803281e-02,7.495186e-01,-5.259894e-01,-3.399451e-01,3.757802e-01,-2.092652e-01,-7.119960e-01,-2.237710e-02,-4.772859e-01,3.173193e-01,-7.663881e-01,-5.128611e-01,-5.575257e-02,-2.810967e-01,-2.287954e+00,-7.845441e-01,3.211063e-01,2.733594e-01,
-2.088417e+00,5.951634e-01,1.372093e+00,7.164103e-01,-3.881050e-02,-2.290175e-01,1.888695e-01,6.969149e-01,3.545820e-02,-5.084995e-01,1.175718e+00,1.311305e+00,-1.050585e+00,9.646422e-01,-1.199194e+00,4.773630e-02,-7.467739e-02,1.314553e+00,8.150085e-01,-1.554383e+00,-1.018263e-01,-3.125503e-02,-7.759207e-01,1.413991e+00,4.626826e-01,-2.277486e-01,9.531928e-02,-9.280466e-01,-5.939245e-01,-1.688183e-01,-1.295726e-01,6.434240e-01,-3.143330e-02,1.367310e+00,-7.633858e-02,-1.989280e-01,7.308974e-01,1.129210e+00,5.006406e-01,1.887070e-03,1.074822e-01,5.493618e-01,1.054596e-01,-7.267777e-01,-9.807407e-01,-6.915700e-01,-2.704221e+00,3.425825e-01,5.961798e-01,1.022776e+00,
-1.816204e-01,1.201533e+00,6.713311e-01,1.504620e-01,-4.777190e-02,-2.208603e-01,3.409842e-02,2.800476e-01,-3.336370e-02,-1.271445e-01,3.720642e-01,-2.325044e+00,3.152872e-01,2.228709e-01,-4.278364e-01,-2.502750e-02,1.837313e-01,1.878429e-01,2.374661e-01,-3.113855e-01,-2.859663e-02,5.091380e-01,-8.633786e-02,3.141323e-01,-5.378915e-01,2.265783e-01,2.871409e-01,-1.990790e-01,-1.826985e-01,-4.361385e-02,3.901057e-01,-4.355914e-01,3.985560e-02,2.162369e-01,5.871395e-01,-2.995165e-01,2.374334e-02,-6.156189e-02,1.843709e-01,-5.990770e-03,8.916227e-01,2.674288e-01,6.093457e-01,8.311846e-02,-5.186785e-01,2.790939e-01,1.778197e-01,5.968544e-01,1.344362e-01,6.738175e-01,
4.184026e-01,1.789920e-01,6.692815e-01,2.675422e-01,-4.190590e-02,1.818681e-01,1.432000e-02,-4.809559e-01,-3.855570e-02,-2.259923e-01,9.664238e-01,1.495906e+00,-2.238743e+00,9.169459e-01,-7.115272e-01,-4.680020e-02,-1.828624e-02,9.920264e-01,6.510401e-01,5.185545e-02,6.124928e-03,-3.839622e-01,-8.674572e-01,8.855686e-01,1.759560e+00,-8.786698e-02,-2.141870e-01,-6.325839e-02,-1.402132e+00,-5.990441e-01,1.134761e-01,5.094825e-01,-4.772370e-02,-2.537267e-01,1.650144e-02,-6.308373e-03,4.170565e-01,3.168367e-01,2.271084e-01,1.578090e-02,1.475860e-01,4.176679e-01,2.961651e-01,-1.016978e+00,5.173716e-02,-1.523963e+00,-1.210907e-01,3.198130e-01,6.300580e-01,5.586939e-01,
2.455857e-01,6.003684e-01,7.566690e-01,-1.988326e+00,-2.462310e-02,-7.973531e-01,-5.274900e-02,-9.253500e+00,9.456720e-03,-3.032324e-01,-8.077397e-01,8.748626e-01,-3.948121e-01,-5.641056e-01,-1.705738e-01,-4.456730e-02,-1.537043e-01,4.936557e-01,1.693119e+00,6.720793e-01,5.046329e-01,3.300857e-02,-9.354468e-02,1.465063e+00,1.180642e+00,-2.312634e+00,1.870013e-01,-2.734104e-01,-8.223051e-01,-4.104259e-02,1.207721e+00,-1.364110e+00,-2.458646e-02,-1.540169e+00,2.953578e-01,-7.962416e-01,4.741610e-01,-1.499212e+00,3.135530e-01,-4.301530e-05,-7.431440e-01,2.063102e-01,-7.354641e-01,-4.446864e-01,1.497359e-01,4.269981e-01,7.730965e-02,3.748386e-01,1.120470e-01,8.799885e-01,
2.052001e-01,-1.180548e-01,1.408523e-01,1.020774e-01,-3.041400e-02,7.573195e-01,1.084087e-01,7.205889e-01,-3.520610e-02,5.930136e-01,5.718613e-01,-5.283895e-01,4.391593e-01,5.627080e-01,-1.328915e-01,2.125350e-03,6.485946e-02,-8.521251e-02,1.413089e-01,-5.516119e-02,4.393188e-01,-5.233987e-02,-5.383239e-02,1.226086e-01,-1.871448e-01,2.731649e-01,3.832033e-01,1.512293e-01,-4.014856e-01,-2.147485e-01,3.670578e-02,-2.244657e-01,1.336750e-02,-1.462413e-02,6.293016e-03,4.099672e-01,3.576153e-02,-1.408402e-02,5.527698e-01,-2.183230e-02,2.899252e-01,4.436898e-01,-2.444828e-01,-2.165629e-01,5.913497e-02,-9.148739e-02,-2.685233e-01,-2.042495e-01,1.610743e-01,1.632616e-01,
2.579370e-01,1.156430e-01,3.112201e-01,-2.324156e-01,3.700110e-02,1.692967e-01,1.017321e+00,-2.528507e-01,1.030470e-02,-8.235028e-02,-2.073733e-02,1.267177e-01,4.874446e-01,-3.108042e-01,8.410047e-02,-1.272680e-02,1.034073e-01,-4.269472e-01,-5.892636e-01,-1.044671e+00,-2.779615e-01,3.078904e-01,4.344195e-02,3.465310e-01,-1.194972e-01,2.632123e-01,8.741289e-01,-1.374720e-01,8.755786e-01,3.739744e-01,1.494255e-01,2.203022e-01,-1.197730e-02,-4.190445e-02,-5.524930e-01,3.183360e-01,-6.372864e-01,3.351070e-01,8.800480e-01,-8.948830e-03,-3.191229e-01,-4.890428e-01,5.765598e-01,8.307481e-01,-1.648176e+00,-9.104230e-01,4.264816e-01,-8.985986e-02,-1.952498e-01,4.512258e-01,
2.275660e-02,2.450840e-02,-4.292520e-02,4.445460e-03,-3.718750e-04,-4.854840e-02,-4.385030e-02,-3.630050e-02,-2.267860e-02,-1.940170e-02,1.430269e-02,-6.085650e-03,-2.461050e-02,-2.980240e-02,-3.297540e-02,1.306760e-02,2.882970e-02,-2.956830e-02,-2.293620e-02,-4.797340e-02,9.860770e-04,1.150520e-02,-3.494320e-02,3.594800e-02,-1.490720e-03,-4.804330e-02,-3.338580e-02,-3.305850e-02,1.751410e-02,1.949930e-02,-1.980660e-02,1.015520e-02,1.259990e-03,-2.018372e-02,-3.870320e-02,-4.921970e-03,-2.463004e-02,-4.848850e-02,-4.963400e-02,3.864540e-02,9.971980e-04,4.176157e-04,6.717580e-03,6.672880e-03,-7.730251e-03,4.841750e-03,6.420530e-03,1.419860e-02,-3.761892e-02,1.789937e-03,
2.994450e-01,1.779979e-01,1.144908e+00,-2.416783e-01,3.596920e-02,-5.105768e-03,-5.848628e-02,-4.424542e-01,3.873830e-02,2.047742e-02,1.969653e-01,-8.552566e-01,1.108719e-01,-2.680050e-01,-1.116882e-01,-3.406540e-02,-5.325947e-02,1.397500e-01,-1.029615e-01,-3.907112e-01,1.464942e+00,8.035289e-01,-5.198333e-01,-5.475553e-02,-1.312223e+00,3.355801e-01,-2.637369e-01,-2.996791e-03,4.947867e-01,-2.713498e-01,-1.238029e-01,-1.862481e-02,3.501610e-02,-1.004272e-01,6.749559e-01,7.268096e-01,1.644653e-01,9.816301e-01,5.110257e-01,3.918830e-02,6.002912e-01,-3.718413e-01,6.121231e-01,-8.706012e-02,-2.196539e-01,-4.609233e-01,5.681838e-01,4.945437e-01,-9.251097e-03,-4.936827e-01,
5.671815e-01,-1.913939e-02,-5.257720e-01,1.256287e-01,-3.432750e-03,-2.588228e-02,4.252297e-01,-1.827160e-02,3.725440e-02,1.015968e-01,-3.008246e-01,1.268805e+00,-1.460717e+00,-1.701945e-01,-2.321666e+00,3.540460e-02,1.427865e-02,-1.372168e-01,-1.763852e-01,-5.283338e-01,6.847025e-01,-6.353761e-01,-1.950164e-01,-2.553738e+00,3.995153e-01,-4.829107e+00,-3.220634e-02,-1.300250e-01,-1.450591e+00,4.923984e-01,3.323306e-01,2.043563e-01,4.615890e-02,-2.580473e+00,5.737308e-01,-6.681321e-01,4.058193e-02,3.598295e-01,9.543102e-01,1.668520e-02,-3.035509e-02,6.641415e-02,-9.485802e-01,2.505906e-01,1.360474e+00,5.382751e-01,-5.491480e-01,-2.480881e+00,-7.785059e-01,-1.014948e+00,
8.590399e-02,2.439851e-01,5.814868e-01,-2.835645e-01,-4.896270e-02,-2.233865e-01,2.398882e-01,-6.406582e-01,1.343240e-02,3.474149e-01,6.788471e-02,-3.636524e-02,5.061466e-01,-4.259595e-01,-7.708094e-01,2.368190e-03,2.429617e-02,5.013597e-02,-4.086545e-01,-1.246796e-04,-2.838331e-02,4.055263e-02,-3.756692e-01,-2.238625e-01,-2.195562e-01,-2.543799e-03,1.771749e-01,-6.089048e-02,7.710186e-02,-5.828151e-01,-4.486359e-02,-4.366389e-02,1.133560e-02,-3.608109e-01,4.104159e-01,2.275087e-01,1.043708e-01,1.370481e-01,-1.167535e-02,4.200790e-02,2.021130e-01,6.731942e-02,-4.093607e-01,7.955092e-02,-4.418638e-01,1.553185e-01,1.320959e-01,1.546300e-01,2.814958e-02,1.458390e-01,
-1.052225e+00,-1.283276e-01,4.925652e-01,1.160697e-01,1.741410e-02,4.875976e-01,-3.349441e-01,2.686961e-01,2.886650e-02,-2.045391e-01,-1.195124e-01,-6.249914e-01,6.131714e-01,6.717592e-01,-3.229634e-01,-9.158440e-03,5.340323e-02,-9.923123e-01,3.035471e-01,-6.945120e-01,1.888880e+00,9.483674e-01,-5.411096e+00,1.109727e+00,4.167715e-02,6.002423e-01,1.629654e-01,-2.109897e-01,-8.689184e-01,1.026139e-01,-1.470772e-01,3.713423e-01,-1.990260e-02,1.198431e-01,4.625298e-01,-9.547597e-01,5.577807e-01,-1.345283e+00,-9.491286e-02,-3.405170e-02,5.258988e-02,-1.048638e-01,5.348999e-01,-6.430123e-01,-1.013374e+00,-4.136433e-01,4.164053e-02,2.324474e-01,1.298386e-01,-5.305266e-01,
-1.919878e+00,-8.675142e-01,1.810070e+00,2.954790e-01,2.587670e-02,-5.450242e-01,-4.850523e-01,-1.008476e+00,2.774810e-02,-2.343197e-01,-9.073708e-02,1.757123e+00,-1.321718e-01,3.715304e-01,4.225236e-01,-4.585470e-03,-2.061737e-01,3.991521e-01,-3.061136e-01,3.700891e-01,2.421068e+00,6.773576e-01,-8.068188e-01,-2.421455e-01,-1.498602e+00,2.676279e-01,3.415296e-01,2.165742e-01,6.227540e-01,-6.840438e-02,-6.804638e-01,-5.049545e-01,-7.497860e-03,-2.140561e-01,-3.152784e-01,-8.655092e-01,-1.349913e-02,-1.056204e+00,7.647420e-02,-2.959840e-02,4.591633e-01,1.739819e+00,-1.251001e-01,2.712138e-01,-2.872185e-02,-7.614493e-02,-2.643389e-01,4.278060e-01,3.090066e-01,-6.123811e-01,
-1.084262e+00,1.099169e+00,3.397274e-01,1.245892e+00,4.549130e-02,5.897484e-01,-1.773755e-01,3.159963e+00,7.115700e-03,-1.015816e+00,3.831598e-01,-8.822801e-01,-6.699200e+00,-2.718771e-01,-9.763715e-02,-7.750960e-03,2.618740e-02,1.122394e+00,-4.761404e-01,3.483596e-01,-4.927027e+00,-6.487788e+00,-1.547647e-01,1.084783e+00,1.687087e+00,9.119759e-02,4.021810e-01,-6.502745e-01,-2.819266e+00,5.320541e-01,-6.782854e-01,6.578804e-01,6.260650e-03,5.407068e-01,-1.449851e+00,-2.192345e+00,3.865490e-01,-1.806586e-01,5.510395e-01,-1.107210e-02,7.697076e-01,-1.097040e-02,1.123731e+00,-3.789204e-02,-3.477497e-01,-4.903270e-01,-2.144298e+00,4.311931e-01,-8.746001e-01,-1.458869e-01,
5.434356e-01,6.688981e-01,-5.212611e-02,-6.243673e-01,2.504590e-02,3.853588e-01,2.821929e-01,-6.496039e-01,-3.501660e-02,6.575982e-02,1.591480e-01,-2.521704e-01,8.664012e-02,-1.226036e-01,1.277293e-02,2.992010e-03,1.123728e-01,-5.088339e-01,-2.529285e+00,-6.931182e-01,-1.417213e+00,1.357847e+00,-5.881872e-01,-2.352439e-01,-1.381821e+00,1.961876e-01,-1.987415e-01,-5.764226e-01,3.437511e-01,-9.829504e-02,8.727821e-02,-2.269670e-01,-2.028060e-02,4.389403e-01,9.356667e-02,3.717058e-01,-3.364619e-01,3.925590e-02,-1.069940e-02,2.237780e-02,-4.988505e-01,-3.178627e-02,8.041238e-01,-1.970186e-02,9.861336e-02,1.439515e-01,6.781940e-01,2.977818e-01,2.939366e-01,1.150007e-01,
-4.653838e-01,-8.024218e-01,-1.828488e+00,-4.949806e-02,-2.394740e-02,6.404561e-02,1.141240e-01,-9.865127e-01,-2.420900e-02,5.740910e-01,-4.357736e-04,1.073068e+00,-1.144576e+00,-2.073653e-01,-1.214446e+00,-2.091670e-02,1.438212e-02,-6.315795e-02,9.636481e-01,-6.937415e-01,-3.642177e-01,1.998739e-01,5.842928e-01,3.690790e-01,1.365147e+00,2.144908e-01,4.955273e-01,4.540975e-02,-2.173775e-02,1.455059e-01,-2.806333e-01,4.914733e-01,4.343920e-02,-1.407299e+00,-8.813989e-01,5.527313e-01,-7.238099e-01,2.556048e-01,-5.640844e-02,-3.406650e-02,-1.847495e-01,-2.376381e-02,-2.182937e-01,-5.738273e-02,4.574031e+00,-1.351362e+00,2.972201e-01,-1.145530e+00,-1.093406e+00,7.019321e-03,
-5.489748e-02,-4.125156e+00,-3.890456e+00,3.714681e-01,-3.470750e-02,-3.463070e+00,-1.051865e+00,3.268867e-01,-2.476510e-02,-4.907107e-01,-3.603848e+00,6.871567e-01,3.565572e-01,4.213580e-02,-9.740907e-03,2.841470e-02,-2.337109e-01,6.070662e-01,-2.517030e-02,-7.928606e-01,-1.153325e+00,-3.305455e-01,-7.878397e-01,-2.487138e+00,8.529254e-01,-2.090772e-01,1.489946e-01,-1.850397e-01,-2.242954e-01,-4.233272e-01,-1.742753e-01,-2.708649e-01,2.160047e-02,-3.618834e-03,-8.243916e-02,-2.034264e+00,1.664306e-02,-9.440023e-01,-2.929609e-01,-3.414480e-02,-3.644524e+00,1.279253e-01,6.927572e-01,1.611825e+00,1.025897e+00,2.956481e-01,1.968217e+00,-3.422524e-01,-7.441509e-01,2.056525e-01,
-3.855900e-02,1.673830e-02,-2.423850e-02,2.211940e-02,-8.028520e-03,2.690490e-02,-3.038230e-02,2.586880e-02,-1.997440e-02,-3.653970e-02,-4.374630e-02,-4.032270e-02,2.975090e-02,3.925120e-02,-2.383680e-03,-3.890920e-03,-2.719240e-03,3.981330e-03,-1.594630e-02,1.268470e-03,-4.233160e-02,3.221260e-02,-4.956730e-02,1.382980e-02,-3.976410e-02,-2.094540e-02,-4.156890e-02,-4.427990e-02,1.638900e-02,-3.048570e-02,1.118960e-03,-4.635740e-02,5.352840e-03,4.796400e-02,9.876750e-03,-3.921880e-02,6.580370e-03,9.601130e-03,-2.518550e-02,-2.684240e-02,2.595320e-02,-1.648810e-02,-4.990880e-02,-1.660460e-02,7.870310e-03,-1.321040e-03,4.444860e-02,-3.039330e-02,-1.292420e-02,5.446460e-03,
4.273737e-01,-6.355053e-01,-1.480653e-01,-7.816134e-01,3.081570e-02,-2.051764e-01,1.219156e-01,-1.028365e+00,2.004670e-02,3.684629e-01,2.812858e-01,-5.659647e-01,-3.288105e-01,-6.050175e-01,3.100591e-01,2.254020e-02,6.320983e-02,3.003984e-01,-3.546860e+00,9.502702e-01,-2.252473e-02,-4.275056e-01,-1.417462e-01,4.431591e-01,4.750259e-01,2.205760e-01,4.543123e-01,-1.581006e-02,-9.199128e-01,-2.406251e-01,-1.164394e-02,-3.816767e-02,-6.968220e-04,-2.716385e-01,3.953473e-01,-4.476923e-02,1.638891e-01,5.262622e-01,-2.572772e-01,1.761740e-02,-9.032178e-01,-1.008437e-01,7.766002e-01,-3.068359e-01,4.242618e-01,-8.152745e-01,-1.061387e+00,7.646357e-02,-2.095450e-01,-1.194419e-01,
8.211233e-02,-1.900051e-01,-1.413538e+00,-4.080770e-01,2.398390e-02,6.497633e-01,-6.048169e-01,8.143895e-01,-2.032380e-03,-7.625272e-01,4.669207e-01,2.317054e-02,-2.893871e-02,1.821892e-01,-1.811743e-02,3.413970e-02,-2.033580e-02,-5.228862e-01,3.426479e-02,4.350037e-02,3.700787e-01,-4.775360e-01,3.513453e-01,5.000889e+00,-4.993059e-01,2.304999e-01,-6.784819e-01,2.482309e-01,-1.469744e+00,-7.647724e-02,3.258845e-01,-3.001431e-01,-2.517040e-02,2.243951e-01,-1.045249e+00,-2.790448e+00,-5.552989e-01,-1.953086e+00,6.415161e-01,1.306690e-02,-2.347713e+00,1.145074e-01,-1.598318e+00,-1.045889e+00,-8.501105e-02,-2.827177e-01,3.071020e+00,-4.498609e-01,-5.488793e-02,1.041664e+00,
3.030587e-01,-5.723201e-02,-6.746132e-01,-5.279378e-01,-2.225980e-02,-4.469769e-01,2.345313e-01,-7.916642e-01,-3.321690e-02,-2.425576e-02,7.319803e-01,1.047205e-01,2.105719e-01,-1.403928e+00,1.038777e-01,4.421050e-02,-1.262436e-01,-5.892564e-02,-1.441038e+00,1.883102e-01,4.126484e-01,-1.410175e-01,3.261812e-01,1.675490e-01,1.199288e-01,2.989736e-01,-1.197768e+00,-9.565937e-01,-2.301257e-01,-7.586374e-02,4.785995e-01,-3.319601e-01,-3.192930e-02,6.646339e-01,-6.487457e-01,-3.968230e-03,-3.746582e-01,5.100327e-01,7.655970e-01,-9.708050e-03,-1.370937e+00,-1.875476e-01,-2.493998e-01,-2.529942e-01,-8.192186e-01,-2.700701e-01,7.722513e-02,-5.181555e-01,7.441862e-01,4.972106e-01,
-1.187496e-01,-1.084988e+00,2.966143e+00,1.296791e+00,-5.465300e-03,9.483823e-01,4.151865e-01,-8.516562e-01,6.543460e-03,-7.085180e-01,7.400603e-01,-7.477591e+00,1.478773e-01,-1.317814e+00,-1.081837e+00,9.527180e-04,-6.269937e-02,-2.557527e+00,1.020329e+00,9.368527e-01,-3.443068e+00,4.236462e-01,-3.034097e+00,7.831210e-01,1.184738e+00,8.036333e-01,-1.755037e+00,-9.706140e-01,-1.692822e+00,1.058480e+00,9.660453e-01,-6.948920e-01,1.358520e-02,1.191861e+00,-8.466370e-01,7.795015e-01,5.672435e-02,5.398072e-01,1.251793e-01,-4.076480e-02,-2.352357e-02,-7.604499e-01,1.866595e+00,-1.904285e-01,1.957195e+00,-7.647443e-01,-3.843417e+00,-3.334246e-01,-1.084199e+00,-7.032017e-01,
-2.253524e-01,3.793843e-01,1.785744e-01,-1.233096e-01,9.641440e-03,-2.935030e-01,2.995444e-02,1.059928e-01,3.539040e-02,2.805278e-01,-1.683050e-01,7.551975e-01,-1.471755e-01,-2.690472e-02,2.877034e-01,2.313560e-02,2.442220e-01,-5.751612e-01,-2.218398e-01,-1.003750e+00,3.506486e-01,2.583889e-02,-3.076676e-01,-7.120814e-01,3.703773e-01,1.929893e-01,-2.867222e-01,-3.826701e-01,-4.854670e-03,1.671659e-01,1.533879e-01,-9.532347e-02,-1.513971e-02,2.185892e-01,-5.845690e-02,1.374099e-01,-2.089411e-01,-2.975799e-01,3.612261e-01,1.728520e-02,-1.574380e-01,2.201782e-01,3.906014e-02,-2.976280e-02,3.132025e-01,-1.267085e-02,3.028315e-02,4.564735e-01,4.311011e-01,4.582077e-01,
1.875882e-01,1.550362e-01,-6.139096e-01,2.688294e-01,1.816680e-02,-1.126964e-01,2.829435e-02,-1.183259e-02,1.842630e-02,1.359257e+00,-6.368741e-02,7.328143e-01,-1.238863e-01,-4.181170e-01,1.663861e-02,3.753480e-02,4.251859e-02,-2.107852e-01,-1.072719e-01,5.485680e-01,4.060503e-01,3.901537e-01,4.469820e-02,-2.340712e-01,-2.445696e-01,2.589699e-01,2.277726e-01,2.118081e-01,2.260048e-03,-1.563752e-01,3.420079e-01,-4.764702e-02,-2.240620e-02,2.855781e-01,3.271439e-01,2.227467e-01,-4.734648e-02,-4.092287e-02,2.527629e-01,3.185950e-04,7.061558e-01,-2.038840e-01,1.125173e-02,-1.610071e-01,-4.458208e-01,6.544098e-02,1.258364e+00,2.944851e-01,2.411558e-01,2.852282e-02,
1.337510e-01,-1.770909e-01,7.592037e-01,-5.676008e-01,1.972280e-03,1.013549e+00,8.654529e-01,-3.098596e-01,-1.123830e-02,-1.276810e-02,-2.504458e-01,-4.652610e-01,-9.284022e-01,4.489439e-01,8.399051e-01,-3.836900e-02,1.614895e-02,-3.130341e-01,-7.253311e-01,-4.987674e-01,6.598169e-02,8.847308e-01,-5.681213e-01,-2.612980e-01,-3.043228e+00,-2.384191e-01,-5.965954e-01,-3.318920e-02,1.771241e-01,-3.755977e-01,-2.047155e-01,-1.858464e-02,-4.676510e-02,2.553540e-01,1.116430e+00,9.704183e-02,-1.784695e-01,-1.581903e-01,-2.545481e-03,2.080780e-02,-6.390651e-01,-2.473204e-01,1.112459e+00,7.950576e-01,5.084860e-01,-7.029597e-01,3.561811e-01,-2.044538e-01,5.114397e-01,8.419863e-02,
4.934101e-01,4.579305e-01,9.695449e-02,8.685660e-02,3.648010e-02,-2.138446e-01,5.070207e-01,3.004130e-01,-8.776140e-03,3.751299e-01,7.204170e-01,-7.509824e-01,-2.963111e-01,-2.245023e-01,-3.021628e-01,-3.290740e-03,7.274134e-02,-4.164161e-01,1.588942e-01,1.893326e-02,-1.035513e+00,1.569852e-01,-4.634764e-01,2.095013e-01,-3.206705e-01,2.219851e-01,1.145889e-01,3.954656e-01,-3.283567e-01,-6.916068e-01,4.401586e-01,2.985623e-01,-4.718960e-02,5.553885e-01,1.161101e-02,-6.378196e-01,1.181432e-01,1.320716e-03,5.692804e-01,-2.191500e-02,1.421925e-02,-1.168551e-01,-3.314958e-01,-4.732713e-01,-3.454809e-01,-7.978165e-01,1.782725e+00,2.792478e-01,9.437059e-01,4.838185e-01,
9.289700e-01,5.667801e-01,-2.250528e-01,-5.077018e-01,7.609460e-03,-9.035006e-01,8.000216e-01,2.675375e-01,2.323440e-02,2.159852e-02,-2.075124e-01,-6.496756e+00,3.370386e+00,-7.813722e-01,-6.577263e-01,3.602350e-02,5.773355e-02,-7.512810e-01,-1.418650e+00,-2.550246e+00,6.711951e-01,-1.563261e+00,-1.837422e+00,2.021377e-01,-1.851819e+00,1.098502e-01,1.701500e-01,2.794859e-01,1.615869e-01,-7.414066e-01,3.565235e-02,-1.906854e-01,-4.198410e-02,6.691249e-01,2.687700e-01,-6.402589e-02,3.610733e-01,7.431796e-01,-7.837068e-02,-2.368400e-02,-9.849537e-02,6.961876e-01,-6.501023e-01,-7.012642e-01,1.677883e-01,-6.817859e-01,-2.398685e+00,3.035450e-01,2.056100e+00,9.883503e-01,
-4.243853e-01,6.276019e-02,1.254450e+00,-1.950102e-01,3.388360e-02,7.612253e-01,-2.235585e-01,1.073063e+00,4.436960e-02,2.489680e-01,-2.199389e-01,-1.268690e+00,5.760550e-01,-2.379652e-01,-4.338629e-01,2.819320e-02,-6.641129e-02,-2.222300e-02,7.135859e-01,-5.114890e-01,1.916998e+00,-5.226236e-01,-1.911278e-01,7.033176e-03,9.946364e-01,-4.055549e-01,-2.986351e-01,4.341011e-02,-7.707693e-02,-1.057131e+00,-8.781125e-02,4.837628e-02,3.809530e-02,6.444687e-01,-5.229433e-01,1.207424e-02,7.770376e-01,-8.499596e-01,-5.185634e-01,-6.980530e-03,-1.010401e-01,1.759843e-01,-1.063636e+00,-3.197305e-01,-7.947551e-01,-2.104328e-01,-1.150752e+00,-3.261734e-01,2.800687e-02,3.061764e-01,
-4.679698e-01,1.266008e+00,1.293432e+00,9.024897e-01,-1.898450e-02,-2.732771e-02,-1.272444e-01,4.121216e-01,-3.141160e-02,1.985208e-01,7.122074e-01,2.278056e+00,-4.460880e-01,-1.278391e+00,3.240546e-01,4.132390e-02,-2.223578e-02,1.133266e-01,-2.126974e-01,7.257282e-01,-4.344261e-01,-3.751947e-01,-1.107367e-01,8.551246e-01,-5.661945e-01,3.789206e-02,5.583747e-01,-3.476202e-01,2.268282e-01,2.881459e-01,-2.312125e-01,8.314105e-01,-7.984210e-03,1.434498e+00,-3.065072e-01,3.629400e-01,-3.061534e-01,1.343063e+00,5.817152e-01,4.176370e-02,2.141466e-01,2.073411e-01,3.921403e-01,6.382742e-02,-4.661072e-01,-8.119303e-02,2.795202e-01,1.500177e-01,-2.561134e-01,1.073466e-01,
-4.735708e-01,9.016947e-03,1.462411e+00,-2.491791e-01,-1.883120e-02,1.195816e-02,-7.526834e-02,7.127301e-01,3.169160e-02,5.358050e-01,-2.564814e-01,-1.705395e+00,6.456754e-01,5.022060e-01,-1.661979e-01,-2.060010e-02,1.903298e-02,-3.014550e-01,5.967146e-01,5.970533e-01,-6.795888e-02,-8.827298e-01,3.704243e-01,-1.292892e-01,-5.498866e-01,-4.907867e-01,-3.351398e-01,3.720344e-01,5.564431e-02,-3.922974e-01,-5.189732e-01,6.499239e-02,-1.628350e-02,-2.790931e-01,8.806302e-02,7.773969e-01,-1.104500e-01,-7.236128e-01,2.325818e-01,-4.664230e-02,1.810232e-01,1.719071e-01,-4.375205e-01,2.771573e-01,4.399447e-01,-3.271215e-02,1.381992e+00,-8.609865e-02,2.739031e-01,4.274732e-01,
1.237437e-01,7.061632e-01,-3.060791e+00,-1.023266e+00,-1.826530e-02,1.298702e-01,1.745835e-01,-2.047748e+00,4.010400e-02,-5.396745e-01,-4.796593e-01,9.141329e-03,1.454955e-01,-8.317651e+00,6.763659e-01,2.707350e-02,3.963803e-02,1.013238e+00,-1.750667e+00,7.047356e-04,1.286908e-01,5.961689e-01,1.499299e-01,-1.284008e+00,9.276566e-02,1.768326e+00,4.565153e-01,-3.032628e-01,5.027125e-01,1.046828e+00,-2.759216e-01,-2.780746e-01,-3.881156e-02,1.188683e-02,3.680312e-01,-1.254011e+00,-9.162799e-03,-6.491793e-01,-7.552030e-01,-3.631670e-02,1.367494e-01,-4.693711e-01,-4.311627e-01,1.603111e-01,5.065752e-01,-6.610493e-02,-1.409384e+00,2.383114e-01,1.225729e-02,-5.365924e-01,
1.245370e-01,1.841529e-01,-1.467171e+00,4.917781e-01,5.579620e-03,1.347802e-01,-2.914272e-01,1.453859e-01,-2.558360e-02,3.857554e-02,-3.233834e-01,-2.742521e+00,-1.416954e+00,1.109000e+00,9.093363e-01,-3.439370e-02,2.596703e-01,3.298047e-01,-2.913795e-01,-1.124218e+00,-5.726910e-01,3.081377e-01,1.717413e-01,-7.374628e-01,1.372584e+00,2.313235e-02,8.111227e-01,2.530503e-01,-4.037934e-01,7.319472e-02,-4.747694e-01,5.497883e-01,-1.789830e-02,-1.675177e-01,4.112063e-01,-1.277316e-01,-2.738801e-01,2.735566e-01,-6.707367e-02,-5.735550e-03,1.477269e-02,-2.058671e-01,4.399553e-01,2.168052e-01,-6.071683e-01,-8.363887e-03,-9.630404e-01,6.651407e-01,-7.744611e-01,-5.578268e-01,
-8.325423e-01,1.324171e-02,6.090885e-01,-1.979215e-01,1.983080e-02,-4.550909e-01,2.240552e-01,6.635990e-01,-1.748140e-02,6.620999e-02,3.316492e-01,-4.676462e-01,6.272014e-01,5.677758e-02,-2.083724e-01,2.577730e-02,8.452677e-02,-6.388555e-02,3.718052e-01,-1.127241e-01,-8.889028e-01,6.340832e-01,-3.276141e-01,-3.202377e-01,-6.006014e-01,-2.735758e-01,-9.965214e-02,-2.193106e-03,-2.859475e-02,-2.801301e-01,-2.508891e-01,-1.608333e-01,1.303400e-02,2.410839e-01,7.998841e-01,3.905289e-02,-9.795459e-02,1.593301e-01,9.298506e-01,-3.578170e-02,-2.189632e-01,-4.932963e-01,3.396134e-01,6.135303e-02,4.017094e-01,-3.478377e-01,5.821207e-01,3.960636e-01,8.092039e-03,-2.857621e-01,
1.724329e-01,2.719456e-01,1.030928e+00,-4.963527e-02,-3.891290e-02,3.140556e-01,5.806752e-03,2.716349e-01,-2.384270e-02,5.543381e-01,-8.948549e-02,-2.513540e-02,3.468589e-01,-3.797236e-01,2.428616e-01,-3.159520e-03,-2.100542e-02,2.227563e-01,-2.357584e-01,-3.094645e-01,-3.520140e-02,9.516468e-02,5.751281e-02,3.590793e-01,-4.472761e-01,1.784989e-01,-3.375985e-02,-5.983340e-02,-3.047425e-01,1.864778e-01,5.190408e-01,-3.013416e-02,3.765790e-02,1.284784e-01,-1.775356e-01,-3.035456e-02,-1.286609e-01,-3.408059e-01,-4.592384e-01,-2.124460e-02,-2.195676e-01,8.680690e-02,1.416195e-01,1.611788e-01,1.475442e-01,-3.639860e-01,3.930205e-01,-1.378159e-01,-4.422064e-01,1.148117e-02,
-2.968097e+00,-5.066023e-01,1.076311e+00,5.264793e-01,-4.834210e-03,1.430054e-01,1.085335e-01,-4.581532e-01,-2.763080e-02,-1.477087e-01,-7.925489e-01,-2.311747e+00,3.145777e-01,8.283930e-01,-6.061183e-01,-2.505000e-03,-1.021543e-01,1.837480e-02,1.679695e+00,-1.129360e+00,-1.999453e-01,-6.168408e-02,-4.892247e-01,1.147143e+00,-5.009695e-01,2.386917e-02,1.987941e-02,4.998266e-01,5.566375e-01,-8.439289e-01,-2.898270e-01,3.737690e-02,2.020180e-02,6.315852e-01,6.982061e-01,5.975756e-01,2.651012e-01,1.073930e+00,-2.455281e-01,6.158430e-03,-3.722953e-01,3.857248e-01,7.102980e-02,3.155075e-01,6.078199e-01,5.840681e-01,-3.666750e+00,5.570409e-01,4.402594e-01,6.601990e-01,
-3.266108e-01,1.056712e-01,1.604295e-01,3.972947e-01,4.589780e-02,6.530720e-02,1.327206e-01,-8.158982e-01,-1.522670e-02,-1.460208e-01,1.837427e-01,1.518348e+00,-2.897610e-01,4.913300e-01,-2.769617e-01,-3.636620e-02,-4.102025e-02,2.620432e-01,-5.266426e-01,7.348511e-01,2.808659e-01,-2.912799e-01,6.985167e-01,1.036465e+00,-9.514621e-01,1.806673e-01,8.575101e-01,1.523800e-01,9.537687e-01,1.471484e-01,-5.074886e-01,3.758318e-01,4.690210e-02,-1.279899e-01,-4.465537e-01,5.765960e-03,-4.121686e-01,-6.397672e-01,4.199343e-01,-1.611190e-02,8.433778e-01,5.132994e-01,1.128569e+00,-3.514064e-01,-4.151796e-01,-7.681140e-01,-1.002446e+00,1.120987e-01,-8.555054e-01,2.123988e-02,
-1.107919e+00,1.369056e-02,-4.934828e+00,3.585124e-01,3.571440e-02,8.304290e-01,1.573305e-01,9.408689e-01,-6.115040e-03,2.487212e-01,-7.016632e-02,-5.427956e-04,-7.032637e-01,3.317710e-01,4.888051e-01,1.724500e-02,1.344859e-01,-1.392437e+00,2.937432e-01,-2.413783e-01,-4.178530e-01,-4.134256e-01,3.124951e-01,-7.954243e-01,-1.070473e+00,-1.599345e-01,8.410742e-02,-2.486353e-01,7.836021e-01,7.234375e-01,-3.463326e-01,5.115061e-02,3.676094e-02,1.725520e-01,-5.978066e-01,4.785829e-01,-5.443699e-01,-1.759230e-01,-3.903891e-01,4.558990e-02,2.096547e-01,-2.400105e-01,-6.246713e-01,-9.702417e-02,3.914688e-01,4.608390e-01,2.926795e-01,6.414843e-03,7.630805e-01,-5.284740e-01,
-7.013676e-01,-9.818829e-01,-2.059886e-01,6.063396e-02,-1.352700e-02,4.318302e-01,-2.306000e-01,-8.273478e-02,-2.049300e-03,3.808870e-01,3.111726e-01,-6.393740e-02,-1.255055e+00,1.155857e+00,-5.084551e-01,9.081860e-03,-1.804402e-02,-1.745640e-01,7.552481e-01,-5.907120e-01,-5.176273e-01,5.688983e-01,-3.862318e-01,5.200610e-01,2.994666e-01,-8.939128e-01,4.197122e-01,5.667220e-01,-6.486027e-01,-2.131734e+00,-2.908871e-01,-5.631950e-01,-2.544190e-02,-4.101430e-01,3.988150e-01,1.575021e-01,2.803760e-01,4.337076e-01,1.278415e-01,2.247680e-02,-8.322631e-02,5.351511e-01,3.617717e-01,-1.524878e+00,-4.282214e-01,-5.543805e-01,-1.193915e+00,2.893327e-01,3.677754e-02,-1.345945e-02,
8.225400e-03,2.515930e-02,7.178740e-03,-1.340030e-02,2.650430e-02,-1.330200e-02,-7.953380e-03,4.236730e-02,2.009390e-02,1.272280e-02,-1.669700e-02,-5.168180e-02,2.297080e-02,1.447010e-02,3.442280e-02,-2.621270e-02,-2.768920e-02,-2.483320e-03,-3.618120e-02,-4.925710e-02,-1.280360e-02,-2.518880e-02,-3.756780e-02,-3.773670e-03,-1.886490e-02,-1.544410e-04,3.217310e-02,2.089930e-02,-8.408890e-03,-5.022760e-02,-4.561590e-02,-4.297300e-02,4.953480e-03,2.963010e-02,1.395380e-02,-5.764580e-02,-3.057590e-02,-3.299750e-02,-5.500130e-03,-4.745100e-03,2.286250e-02,-2.262490e-02,-7.356190e-03,-1.642820e-02,4.442730e-02,-3.856580e-02,-3.182180e-02,-5.348350e-02,-2.367370e-02,1.931760e-03,
-8.198876e-01,3.295624e-01,-7.012226e-02,1.361395e-01,4.356240e-02,-3.868597e-01,4.621640e-02,-2.577354e-02,3.419920e-02,-3.041141e-01,-7.160681e-01,-1.543260e+00,-2.049464e+00,1.685398e-01,-2.816451e-01,-3.549390e-02,-6.886135e-02,3.020726e-01,4.513522e-01,-3.072778e+00,7.564657e-01,-2.848178e-01,-1.415579e+00,-4.437402e-01,-1.285277e+00,2.704160e-01,-2.668050e-01,2.675100e-01,-4.486907e-01,-4.552574e-01,-3.443524e-01,-3.832961e-02,2.241990e-02,1.205297e-01,1.045869e+00,-5.287482e-01,9.089581e-02,6.791440e-01,5.738109e-03,-4.616430e-02,3.609510e-01,-8.005026e-02,3.217130e-01,-3.692577e-01,-2.290980e-01,1.347085e+00,-4.008245e-01,-9.791369e-01,-3.624493e-01,-1.366818e-01,
1.114549e-01,1.518490e-01,-1.609734e+00,1.626204e-01,4.148620e-02,-1.785880e-01,1.638445e-01,3.534904e-01,-3.268900e-02,-5.685518e-01,3.414343e-01,5.845575e-01,3.239462e-01,-9.210228e-01,-2.194442e-01,2.557220e-02,1.438925e-01,-4.052982e-01,-4.441442e-01,-5.241019e-01,-7.141736e-01,-4.043235e-01,-1.197709e-01,4.782906e-01,-8.568602e-01,1.028684e-01,4.308938e-01,-1.575667e-02,6.213252e-02,-5.320347e-03,1.080718e-01,5.942886e-01,2.516220e-02,2.722702e-01,1.937931e-01,5.879589e-01,-2.946340e-02,1.717143e-01,4.605688e-01,-6.311590e-03,-7.841984e-02,8.085888e-04,3.113118e-01,-2.903094e-01,-3.876305e-01,2.204535e-01,4.739198e-01,-2.713419e-01,4.930635e-02,1.903297e-01,
1.035611e+00,
-1.499386e+00,
3.195770e-01,
-4.149066e-01,
1.940054e+00,
5.389180e-01,
-4.388412e-02,
1.272415e-01,
-1.676864e+00,
1.169257e+00,
-1.294939e+00,
-1.820867e-01,
-7.982526e-01,
-8.377138e-01,
1.437286e-01,
5.050433e-02,
-4.184262e-02,
2.861282e-01,
-1.898932e-01,
2.045556e-01,
-1.737910e+00,
-2.881276e-01,
-6.641045e-01,
2.371406e-01,
-3.575847e-01,
-6.512735e-01,
-1.239620e-02,
-3.100405e-01,
3.186786e-01,
2.904259e-01,
-5.995186e-02,
1.364027e-01,
-1.941886e-01,
-8.763182e-01,
8.437048e-02,
-5.958825e-01,
-1.514259e+00,
-9.963409e-01,
2.519292e-01,
3.219902e-02,
-4.032733e-02,
5.923507e-01,
3.238739e-01,
-2.124527e+00,
-2.208291e-02,
4.575353e-02,
-8.163775e-01,
-3.083900e-02,
-3.989669e-01,
-5.288850e-02,
-5.374966e-01,6.625098e-02,-3.892038e-02,3.119813e-01,5.762806e-02,-2.136181e-02,4.783050e-02,4.094713e-01,1.930131e-01,6.584036e-02,-4.385462e-02,8.212122e-02,2.340418e-01,-3.143862e-01,-3.159811e-03,-2.932407e-01,1.424903e-02,-2.470548e-01,8.389419e-02,1.070523e+00,-1.454490e+00,-8.106779e-02,2.093426e-03,6.486472e-01,7.046730e-01,-5.544055e-01,-1.396000e-02,2.330969e-01,-1.489385e+00,-3.469030e-01,-2.296539e-01,3.808784e-01,-1.399510e-01,4.701663e-01,-6.407211e-02,-4.787360e-01,3.574712e-01,-1.897728e-01,4.996835e-02,3.715167e-01,-3.883464e-02,-2.384730e-02,-4.313202e-01,1.975202e-01,-9.379725e-02,3.350883e-01,1.187062e-01,3.839120e-02,4.998102e-01,3.924875e-01,
1.169745e-01,2.133682e-01,-8.119086e-02,1.381641e-01,-3.723527e-01,-2.687480e-01,4.743650e-02,5.081715e-01,1.775462e-01,3.169800e-01,6.702543e-01,-4.992961e-01,-1.990991e-01,2.313744e-02,-2.595105e-01,4.668182e-01,-2.524068e-03,-3.738752e-01,2.525202e-01,1.842474e-01,-3.167131e-01,1.779889e-01,-2.222380e-01,-1.581982e-02,2.142177e-01,4.823409e-01,-1.693510e-02,2.295560e-01,-8.079351e-02,3.194528e-01,-3.587862e-02,-3.781592e-01,-4.662877e-01,-1.265400e-01,-1.738209e-01,2.231336e-01,1.914555e-01,-1.101730e-01,-3.491969e-01,-1.758389e-01,-3.966538e-01,2.525122e-02,1.569659e-01,-4.629054e-01,-1.199075e-01,2.055145e-02,5.546647e-02,-2.092030e-02,-8.178176e-01,-4.682151e-01,
5.401292e-01,-8.652996e-01,1.627576e+00,-6.346130e-03,-4.890321e-01,-2.173292e-01,-3.272697e-02,6.436126e-01,6.976773e-01,-1.731231e-02,1.827580e-01,-1.010587e+00,1.867384e-01,-2.696136e-01,6.533695e-01,1.771685e-01,3.127944e-02,9.126357e-02,-4.825554e-01,1.530079e-02,9.408985e-01,3.287188e-01,9.116027e-01,1.784857e-01,4.987525e-01,3.358248e-01,-6.361730e-03,-2.369119e-01,2.430798e-01,5.615105e-02,-2.295959e-01,-9.528587e-02,4.776076e-01,-9.375875e-02,6.243735e-02,9.751184e-02,-1.971509e-02,4.410025e-01,-2.519126e-03,-3.212239e-01,1.562858e-01,9.540469e-01,6.554946e-01,-1.064105e-01,2.093578e-01,5.618274e-01,4.574137e-01,-5.523030e-02,-1.317254e-01,1.109096e+00,
1.501063e-01,5.358593e-01,-1.808496e-01,-4.678021e-01,-2.565898e-01,4.347129e-01,-4.705533e-03,7.226853e-02,-3.305595e-01,1.130767e+00,1.453540e+00,5.028375e-02,-7.560408e-01,1.992792e-01,-4.999510e-02,-3.407078e-01,-3.577336e-02,-6.754766e-02,-3.215291e-01,1.246948e-01,8.539765e-02,3.154312e-01,-3.172702e-02,7.891392e-02,3.550570e-01,2.179276e-01,4.594240e-02,1.393528e+00,-8.827270e-01,8.525110e-01,-7.293582e-02,-5.375066e-02,4.805504e-02,-9.765506e-01,2.090205e-01,2.762169e-01,-1.054444e+00,-4.578024e-01,5.495622e-01,1.251371e-01,6.237044e-01,9.710058e-02,4.917075e-01,-8.634808e-01,-6.547221e-02,-2.287546e-01,-1.746731e-01,-1.282920e-02,-6.585010e-01,1.125677e-01,
-1.530163e-01,-9.903549e-01,1.793689e-01,-1.340098e-01,-1.075879e-01,-7.316507e-01,-4.876800e-02,-1.817928e-01,-7.144454e-01,-5.299605e-01,9.908742e-02,-1.119164e+00,-1.265722e-01,2.580193e-01,4.872786e-01,4.707515e-01,-4.832840e-02,-1.472069e-01,2.983985e-01,8.666369e-01,-7.418089e-01,7.825208e-02,9.167846e-01,1.442529e+00,-6.880581e-01,-5.250467e-01,4.156490e-02,2.125144e-01,-1.392154e-01,9.538288e-02,-3.612875e-01,3.128081e-01,-9.982581e-02,-3.170840e-01,6.790137e-02,4.996921e-02,9.055586e-01,3.921778e-01,-4.532401e-01,4.669984e-03,-1.382880e+00,-2.036428e-01,1.004418e+00,1.029142e-01,5.696723e-01,-1.005742e-01,-8.104553e-01,3.921550e-02,1.133279e-01,3.722751e-01,
2.708168e-01,-6.970011e-02,1.767890e-01,-1.691521e-01,-8.724487e-01,9.465273e-02,-1.321080e-02,4.640607e-01,-3.358759e-01,-4.163845e-02,1.966705e-01,-1.032686e+00,4.940327e-01,3.992867e-01,-4.799778e-01,4.325491e-02,1.902687e-02,-4.395410e-01,2.460235e-01,-1.156294e-01,2.151640e+00,7.853793e-01,2.750528e-01,9.317724e-01,-9.187465e-01,-7.136695e-01,1.444640e-03,-2.251153e-01,-1.528244e-01,3.243132e-01,-2.493242e-01,4.192693e-01,3.386828e-01,-1.715545e-01,-4.942511e-01,6.664584e-02,-3.739622e-01,-3.499543e-02,-2.307487e-02,-2.845539e-01,3.671144e-01,4.241395e-01,3.479650e-01,4.739190e-02,2.275920e-01,1.893369e-01,7.322767e-01,-3.919200e-02,-8.159760e-02,8.808483e-01,
1.191159e+00,-1.524633e+00,-3.356191e-01,2.467791e-01,-1.385696e+00,3.995163e-02,-1.873250e-02,7.727300e-01,-1.673455e+00,-1.312628e+00,-3.529846e-01,6.408244e-03,-6.500970e-01,-4.531330e-01,-7.927034e-02,-1.050459e+00,4.760940e-02,2.084900e-01,-1.663348e-01,-1.940179e-01,9.184885e-01,-8.041862e-01,2.018306e+00,1.856889e-01,-1.006341e+00,-4.045259e+00,4.307420e-03,-1.255509e+00,-4.435483e-01,3.995468e-01,2.481530e-02,1.440800e-01,-2.606661e-01,3.280930e-01,4.206565e-01,8.944102e-01,-2.950011e-01,-3.660595e-01,4.041252e-01,-2.220975e-01,6.974216e-03,-9.861159e-02,5.194847e-01,5.215857e-02,6.097389e-01,-3.104618e-01,1.785201e+00,-2.201470e-02,-1.622953e-01,-1.109364e-01,
-2.144879e-01,3.491128e-01,1.134434e-01,-8.370347e-02,-1.610870e-01,1.201302e-02,-1.685775e-03,4.804075e-01,-1.771650e-01,-4.959792e-01,-7.719088e-01,2.502853e-01,-1.739265e-01,-2.208272e-01,2.854213e-01,1.791935e-01,-1.437580e-02,2.715925e-01,2.135110e-01,4.522692e-02,3.645346e-01,-1.080531e-01,1.443524e-01,1.266384e-01,-1.280295e-01,7.385712e-02,-1.979510e-02,-2.142298e-01,-8.824766e-02,-6.534740e-01,-2.296693e-01,2.770922e-01,-3.476769e-02,1.203322e+00,6.001093e-01,-6.426975e-02,-1.473448e-01,1.651652e-01,2.329502e-01,-7.253157e-02,-4.721684e-04,2.087248e-01,-1.338513e-01,4.804720e-01,4.966662e-01,4.416318e-01,3.524049e-01,2.671270e-02,7.541604e-03,1.118776e+00,
-8.600298e-01,-4.520897e+00,4.367333e-01,1.289958e-01,-2.765929e-02,-3.038117e-01,-4.340057e-02,-4.675427e-01,-8.383830e-02,-4.695384e-02,1.520241e-01,4.465169e-01,-1.472107e-01,-4.662941e+00,8.329540e-02,2.089656e-02,2.304984e-02,1.295373e-01,2.154921e+00,-1.269794e-01,7.678644e-02,3.389575e-01,-3.352280e+00,-1.197324e+00,9.870250e-01,-4.526088e-01,-3.043130e-02,-1.031179e+00,-4.728475e+00,4.561684e-01,-4.120583e-01,-2.619707e-01,1.052314e-01,-1.224762e+00,-5.436337e-02,-7.715886e-02,-2.608168e-01,-1.119082e-01,2.093885e-01,4.048131e-01,-5.063703e-02,1.743805e-01,-1.472522e-01,-5.213913e-02,-4.238811e-01,2.167515e-01,-2.116207e-02,-3.085610e-02,-5.295357e-02,-3.012725e+00,
-8.878322e-02,3.595801e-02,4.644228e-01,5.797387e-01,-2.300132e-02,-2.008223e-01,-3.477773e-02,-5.331682e-02,1.097422e-01,-2.309394e-02,4.732220e-01,-1.098719e+00,5.299234e-01,2.322467e-01,-2.531547e-01,-7.010280e-01,8.023916e-03,-5.748195e-01,2.724713e-01,-6.293445e-01,3.555076e-01,6.839396e-02,-8.334650e-02,-5.071001e-01,1.852787e-01,1.900572e-01,-4.065990e-02,-1.263064e+00,-8.783588e-02,-5.851970e-01,-1.802815e-01,-2.933244e-01,-5.784593e-01,-5.605093e-01,-3.726405e-01,4.955088e-01,5.452846e-02,-3.433383e-01,1.336455e-01,1.065855e-01,-2.067117e-01,-3.882286e-01,-5.559137e-01,-4.701653e-01,-4.362987e-01,-2.139890e-01,3.566127e-01,-9.127520e-04,-6.471612e-02,-2.617780e-01,
-1.568683e-01,-3.968593e+00,-2.732494e-01,3.148543e-01,5.635946e-01,1.381009e+00,2.702710e-02,1.829881e-01,-5.814057e+00,1.719170e-01,-3.251742e+00,-8.997897e-01,-4.910059e-01,-7.656272e-01,8.865495e-01,-3.408017e-01,3.412477e-02,-2.487582e-02,-4.186406e-01,-1.431975e+00,-2.931286e+00,1.509674e-02,5.924094e-01,5.416776e-01,-1.402533e+00,-1.310983e+00,2.935100e-02,-3.179831e+00,2.564890e+00,6.896859e-01,-2.255210e-01,-2.496640e+00,-2.124547e-01,5.471889e-01,1.453292e+00,1.457211e+00,-9.186501e-01,-7.994063e-01,9.233803e-01,9.978882e-02,-2.058926e-01,-1.388266e+00,4.330904e-01,-9.181401e-01,1.813837e+00,-2.050013e+00,1.524045e+00,-2.592240e-02,-1.184973e+00,2.524150e-01,
4.554729e-01,-1.969277e+00,-2.068314e-01,-2.605038e-01,-6.391992e-02,-1.091274e-01,-1.697980e-02,-5.816521e-01,-2.492324e-01,-3.372447e-01,-1.019023e+00,-5.177308e-01,-5.720798e-01,6.328078e-01,2.133199e-01,3.474100e-01,-4.726970e-02,-2.182741e-01,-2.364772e-01,-8.254860e-01,-4.298032e-01,-3.274174e-01,4.654870e-02,-7.962964e-02,8.116979e-04,-3.306828e-01,-1.925130e-02,9.866471e-02,-1.315161e+00,1.522554e-01,-7.660341e-02,6.797770e-02,-6.709833e-01,-1.775713e+00,1.158704e-01,3.101115e-01,2.181250e-01,4.855645e-01,3.951920e-01,-9.262043e-01,1.829598e-01,7.153761e-01,4.305464e-01,8.084957e-02,-2.001644e+00,7.326814e-02,2.568257e+00,-3.069640e-02,-1.906987e-01,-1.084341e+00,
2.412096e-01,-8.793308e-01,2.196878e-01,-4.298599e-02,-2.848925e-01,-1.372703e-01,2.240315e-02,2.056088e-01,-8.798347e-01,3.246588e-01,3.256485e-02,2.529882e-01,-3.244512e-01,7.412611e-02,2.124428e-01,-2.622173e-01,4.248678e-02,1.261663e-01,-7.636711e-02,1.046098e-02,2.208669e-01,1.770631e-01,2.648444e-01,3.173869e-01,1.783554e-01,-4.337243e-01,2.465920e-02,1.545022e-01,6.907282e-01,6.349823e-02,-1.107628e-01,2.057843e-01,-5.120894e-01,-1.001226e+00,7.363834e-02,1.846752e-01,-4.474216e-01,-1.039367e-01,1.553208e-01,-1.268722e-01,5.537152e-03,-1.538294e-02,1.694961e-01,-4.448658e-01,5.114600e-02,-3.218258e-01,3.840543e-02,-1.182510e-02,-4.986098e-01,3.047056e-01,
-3.824731e-01,1.200759e+00,1.643608e-01,5.134516e-01,-2.893808e-01,9.918902e-03,-3.161780e-02,7.486442e-01,5.909539e-01,-7.643455e-01,-6.400617e-01,-1.523025e-01,4.085307e-02,-5.156366e-01,8.371004e-01,7.260961e-01,-7.617350e-03,-3.031539e-01,1.610601e-01,5.112270e-02,1.116616e+00,-3.474638e-01,4.547695e-01,-1.280179e-01,-1.123342e+00,-1.339639e+00,8.767970e-03,-9.259177e-01,-2.307266e-01,-1.634004e+00,-2.799445e-01,6.728637e-01,-2.096739e-01,8.609151e-01,4.482720e-01,-5.768132e-01,-1.796287e-01,2.390869e-01,-8.345904e-03,-5.541887e-01,-5.008998e-01,1.529743e-01,3.632005e-01,4.487456e-01,6.341524e-01,9.886557e-01,2.456481e-01,-1.473510e-02,9.318583e-01,1.554103e+00,
-2.276496e-01,2.827310e-01,9.980061e-02,1.627029e-02,-3.151602e-01,4.840536e-01,2.241612e-02,4.241597e-01,-4.032706e-02,-1.233929e-02,-4.258364e-02,4.475017e-01,-3.552290e-01,-1.341393e-01,1.874812e-01,4.665403e-03,6.889442e-03,-7.245574e-02,-4.262075e-01,-1.424766e-01,1.077035e+00,-2.269588e-01,2.026014e-01,3.071542e-01,2.121748e-01,-3.362873e-01,-4.633470e-02,-5.388309e-01,1.724316e-01,7.197009e-02,-3.645454e-01,-1.901139e-01,1.557942e-03,1.178097e+00,5.548480e-01,1.969002e-01,5.291033e-01,1.513688e-01,-1.501274e-02,-4.428028e-01,-1.387343e-01,-1.132847e-01,5.441273e-02,-6.443729e-02,-2.774105e-01,3.348840e-01,4.591691e-01,2.218870e-02,-1.705651e-01,3.744966e-01,
4.914377e-01,-2.279976e-01,2.848477e-01,-3.593089e-01,3.434795e-01,-4.908580e-01,7.029782e-02,2.619598e-01,1.241800e+00,-2.402621e-01,-7.074388e-01,1.243777e-01,7.414049e-01,5.919940e-04,-5.468220e-01,4.130327e-02,-4.358060e-02,-2.505547e-01,1.159885e+00,1.029317e-01,8.007302e-01,-2.769372e-01,3.885761e-02,-3.483827e-01,2.528971e-01,-2.321450e-01,-9.124420e-03,-2.507842e-01,-6.804899e-01,-4.681323e-01,-3.325862e-01,-1.504146e-01,2.175674e-01,3.872500e-01,-4.604214e-01,-3.366115e-01,2.451708e-01,-3.619357e-01,-3.024301e-01,5.005675e-02,1.069034e-01,6.170093e-01,3.038598e-01,2.278915e-01,2.692047e-01,4.088108e-01,3.859826e-01,1.910600e-02,4.128467e-01,-5.930796e-02,
-8.525734e-02,-3.769596e-01,-2.132661e-01,2.258531e-02,3.190235e-02,1.181724e-01,-5.556830e-03,-1.514163e-01,-1.057790e-01,-2.783536e-01,-2.542276e-02,-4.122116e-02,-4.581628e-03,-1.735298e-01,2.502330e-01,5.865375e-03,8.024730e-03,-7.700160e-02,-1.010743e-01,1.926533e-01,3.036210e-01,6.372511e-02,-4.667543e-01,1.520028e-02,-1.111274e-01,-1.100666e-01,2.133780e-02,2.921880e-01,1.397289e-01,-1.369033e-01,-2.249003e-01,1.486481e-01,9.493454e-01,-2.589226e-01,-1.176816e-01,-5.152413e-02,1.065926e-01,-1.799333e-01,2.206994e-01,-1.050411e-01,5.005310e-02,9.039687e-02,4.674401e-01,-1.728346e-02,1.793961e-02,-6.676815e-02,1.879439e-01,-9.749070e-03,4.838215e-02,1.599181e-01,
1.424282e+00,-1.684740e+00,1.259644e+00,-4.156365e-01,9.033864e-01,-6.224751e-01,6.073480e-03,-5.518796e-01,-6.584303e-01,2.188445e-01,-3.602086e+00,-8.086364e-01,1.680560e+00,9.026875e-01,-2.110476e+00,-1.353809e+00,3.090660e-02,-6.336916e-01,1.033251e+00,-9.700457e-01,1.662446e-01,-1.101603e+00,-1.075834e+00,-9.060055e-01,-1.840354e+00,5.229890e-01,3.721700e-02,-4.607825e-01,-2.250942e+00,-2.519619e+00,-2.814494e-01,-4.940849e-01,-2.158115e+00,-6.436189e+00,-1.314876e+00,-2.474890e+00,-1.734366e-01,-1.289502e-01,-1.025790e-01,7.576669e-01,3.035839e-01,1.604180e+00,-7.899271e-01,2.013465e-01,-1.957064e+00,7.624102e-01,1.359054e-01,-2.148050e-02,6.132320e-01,-1.532049e+00,
2.364671e-01,8.820552e-01,7.200077e-01,-2.532092e-01,7.390545e-03,1.276949e-01,1.171256e-02,3.054639e-01,-6.327218e-02,-1.180573e-01,-1.976950e-01,1.855500e-01,-2.540537e-01,2.066483e-01,2.335199e-01,9.961351e-02,-3.848220e-02,-1.447010e-01,1.755150e-01,2.076828e-01,9.244263e-01,-3.984583e-01,-2.166081e-01,3.762031e-02,-3.428443e-01,1.430947e-01,4.757540e-02,6.469154e-02,2.995461e-01,-3.391957e-01,-1.288207e-01,3.890156e-01,4.667649e-01,-1.085224e+00,4.351280e-01,-1.105506e-01,-4.342301e-01,-4.226775e-02,-9.131952e-02,-2.570688e-01,2.541710e-02,2.458928e-01,-5.588284e-02,-8.035427e-02,1.758632e-01,2.380211e-01,9.998231e-02,-1.323910e-02,-3.633169e-02,-4.715520e-01,
-1.301988e-02,9.255821e-01,2.827753e-01,3.019508e-01,-1.790179e-02,4.702966e-01,-3.095696e-02,7.365058e-02,1.331295e+00,4.238188e-01,-5.044628e-01,7.219113e-01,-3.020703e-02,1.696829e-01,1.092637e-02,6.095446e-01,-1.368170e-02,-2.415124e-01,7.265333e-02,-7.988761e-01,1.199645e-01,-2.471407e-01,-1.870938e-01,1.535049e-01,-3.015412e-02,2.179136e-01,3.612200e-02,4.948658e-01,-1.604964e-01,4.625870e-01,3.680335e-01,-6.857253e-01,8.294118e-02,1.767048e+00,-8.638754e-01,-2.085942e-01,-3.911109e-01,4.504743e-01,-1.625661e-01,3.733116e-01,2.186558e-01,-8.882299e-02,-1.023360e+00,-1.366820e+00,-2.784620e-01,8.320528e-03,-2.081836e+00,-1.731060e-02,-2.565455e-02,-8.228124e-01,
-3.795676e-01,1.984696e+00,1.650061e-02,2.321941e-01,-2.400972e-02,-4.316827e-01,1.471748e-02,3.965567e-03,-2.301056e-01,-3.207528e-01,-3.155262e+00,-4.379982e-01,-1.103903e-01,-1.554836e-01,-1.685624e-01,2.914229e-01,2.709990e-02,-4.845498e-01,1.259918e-01,-5.699139e-01,6.527820e-01,8.454177e-02,-5.087517e-01,-7.802205e-01,1.529008e-01,5.768633e-03,1.714860e-02,-5.127650e-01,-7.951133e-01,-4.980065e-01,-2.206625e-01,-5.014880e-01,-1.004004e-01,9.415387e-01,-3.886931e-01,-6.593948e-02,5.246070e-02,1.624434e-01,-5.331857e-01,-8.583755e-02,-2.416597e-01,2.946275e-01,-1.009463e+00,9.446129e-01,-9.997673e-02,1.323757e-01,-6.782230e-01,1.351150e-02,-1.511979e-02,-5.969270e-01,
-3.895563e-01,5.199867e-01,2.880203e-04,-8.628196e-02,-2.522990e-01,6.901037e-01,-1.903300e-02,4.346038e-01,3.119200e-01,6.248719e-01,1.240101e+00,-1.117989e-01,-3.140927e-01,-7.279258e-02,-2.638908e-02,1.085272e-01,1.295073e-02,-6.865497e-01,-9.800552e-01,-2.286904e-01,2.776763e-01,8.262207e-01,7.107185e-01,-1.640278e-01,-8.709638e-02,1.229652e+00,-2.008660e-03,2.030037e+00,1.580854e-01,5.104834e-01,-1.901703e-02,9.942196e-01,-6.199464e-01,-1.327949e+00,3.262387e-01,5.645728e-02,-1.154119e-01,6.534753e-02,7.733510e-01,-6.305521e-01,-9.392647e-02,3.958755e-01,-2.910014e-01,-4.678768e-01,1.945907e-02,-2.576464e-01,-3.658268e-01,-1.188290e-02,-6.162399e-01,7.984098e-01,
1.143064e+00,1.409433e+00,7.152236e-01,-1.098523e+00,-1.075920e+00,1.929984e-02,-2.315635e-02,-5.981506e-01,-2.110330e-01,-3.246914e-01,5.731810e-01,-5.523578e-01,1.392982e-01,3.582526e-01,1.279039e-01,-5.452676e-02,5.757728e-03,2.453441e-01,2.796340e+00,-2.343462e-01,1.986321e-01,-1.394578e-01,5.048288e-01,4.975107e-01,-1.951183e-01,-8.029536e+00,-2.254720e-02,4.218621e-01,3.396628e-01,-1.017740e-01,7.628896e-02,-4.816242e-01,-6.279729e-01,1.003558e+00,8.794816e-03,5.535730e-01,6.233375e-01,1.059216e-01,1.258020e+00,8.939043e-01,-3.656715e-01,7.469656e-01,-3.358814e-01,-5.208190e-02,-1.049663e+00,9.587821e-01,3.707628e-01,-1.212330e-02,8.782201e-01,1.422656e-02,
9.050982e-02,6.363562e-01,-3.521489e-03,-2.299640e-01,-1.552365e-01,-1.658728e-02,4.014170e-02,-3.552798e-01,-8.523253e-01,-2.399972e-02,3.845308e-01,6.168848e-02,-2.546755e-01,-3.379568e-01,-2.906716e-01,-2.649742e-01,1.078420e-02,-6.052365e-01,-5.310534e-03,1.108076e-01,-1.392459e+00,-1.714429e-01,-1.372945e-01,4.426974e-01,-1.223036e+00,4.618807e-01,2.061660e-02,-4.847381e-01,2.712635e-02,8.461480e-02,-1.340363e-01,-1.919873e-02,2.409377e-01,-1.351800e+00,-1.437693e-01,-4.000710e-01,2.208898e-01,2.268432e-01,-2.731834e-01,1.684121e-01,-3.805468e-01,-4.246459e-01,2.732563e-01,-6.921636e-03,-5.411068e-02,-2.697415e-01,6.677233e-02,4.861840e-02,2.881224e-01,-5.671655e-01,
5.406570e-01,-1.766754e-01,-2.244137e-02,1.395149e-01,4.541301e-01,2.663743e-02,5.830229e-02,9.772327e-02,-9.266163e-01,-5.184014e-01,-2.395469e-01,4.718564e-01,-3.723855e-02,-5.627258e-01,4.611040e-01,8.473800e-01,-5.123774e-03,4.887702e-01,4.936342e-01,2.154310e-01,2.442222e-01,9.227747e-02,2.282883e-01,-7.123889e-01,5.150511e-01,-4.477734e-01,6.729520e-03,3.144591e-01,5.997653e-01,1.205894e-01,2.651795e-01,2.279808e-01,6.619471e-02,1.634672e+00,5.038889e-01,6.229995e-02,-5.443344e-01,-7.001840e-02,-1.305918e-01,3.959421e-01,6.604373e-02,2.066057e-01,1.614049e-01,-6.471509e-02,3.595103e-01,7.061480e-01,3.353866e-01,-5.696940e-02,9.736215e-02,-1.547060e-01,
-6.455480e-01,1.057031e+00,7.484078e-02,6.487365e-02,9.963009e-02,-1.805394e-01,4.787931e-03,-1.141243e-01,3.408157e-01,-1.663628e-01,1.776701e-01,6.874006e-02,-3.118691e-02,-9.645256e-01,2.703952e-01,2.335303e-01,-1.218150e-02,-1.182964e-02,-7.416665e-01,-1.121935e-01,-7.071125e-01,-3.315771e-01,-4.150217e-01,2.767707e-01,4.219257e-01,1.238406e-02,-4.068530e-03,3.493266e-01,3.083952e-02,3.076120e-01,-3.498054e-01,1.094892e-02,2.233785e-01,3.316838e-02,-5.998233e-02,1.321871e-01,1.030358e+00,1.740772e-02,-5.500184e-02,2.310456e-02,-1.804036e-01,-5.533893e-01,1.232467e-01,-2.628487e-02,-1.022115e-01,-2.237277e-01,-7.950682e-01,-5.625910e-02,-3.553022e-01,3.250934e-01,
5.728374e-01,1.177186e+00,6.774744e-01,-1.630498e-01,-4.665846e-01,-3.019737e-02,4.141308e-02,-6.638961e-01,-1.607892e+00,-4.046510e-01,-6.492640e-01,-1.244634e-02,4.931706e-01,2.152482e-01,-2.763499e-01,8.604290e-01,-7.725860e-03,-1.855082e-01,-3.805104e-01,-4.066823e-01,2.602472e+00,-2.604621e-02,1.589695e-02,4.086547e-01,-1.318941e+00,-5.236070e-01,3.078820e-02,-5.679379e-02,-4.905050e+00,-1.114344e+00,-1.592709e-01,2.661286e-01,2.215986e-01,3.881942e-01,-8.452505e-01,-8.170571e-01,8.478718e-01,-5.896473e-02,-1.675752e-01,9.017397e-02,6.188774e-01,4.184707e-01,-9.704741e-01,1.274511e-01,-1.357347e+00,4.705186e-01,-6.358036e-01,-8.151340e-03,-4.622218e-02,8.933947e-01,
-2.087204e-01,1.274032e+00,1.326931e-01,-3.370683e-01,-3.414269e-01,-1.775574e-02,-1.216280e-02,-4.493280e-02,-5.475465e-01,-6.064855e-01,-4.056087e-01,2.380838e-01,-3.228545e-01,-1.136131e-01,4.014434e-01,1.944580e-01,2.996860e-02,3.306373e-01,4.241945e-01,-2.416732e-01,-7.889331e-01,9.984870e-02,-3.362865e-01,1.647526e-01,-7.428648e-02,-1.031017e+00,6.838460e-03,1.249537e-01,-8.208402e-01,1.903966e-02,6.814505e-02,-2.660136e-01,1.181345e-01,-3.506396e-02,-4.832039e-02,4.031597e-02,4.094369e-01,9.651501e-02,2.085789e-02,-1.533766e-01,-1.261387e-01,1.904323e-01,-1.907703e-01,-1.756454e-03,1.584187e-01,5.402334e-02,1.843747e-01,1.496320e-02,-7.212690e-01,5.990596e-01,
8.507029e-01,2.991976e+00,-7.231895e-01,-1.416948e-01,-1.769836e-01,-2.428846e-02,-1.224970e-02,2.249450e-01,1.195365e+00,5.499355e-01,-7.695003e-01,2.047673e-01,2.882944e-02,-4.300654e-01,-1.238998e-01,5.082072e-02,-2.723220e-02,-1.171492e-01,3.637194e-03,2.132163e-01,-5.542051e-01,-1.384141e+00,3.011166e-01,1.501537e+00,-8.927554e-01,-2.180114e-01,1.572940e-02,2.896448e-01,7.098858e-01,-1.121027e+00,-1.211909e+00,2.398164e-01,8.851386e-01,5.434403e-01,2.015534e-01,-6.675643e-01,-6.199306e+00,9.714429e-01,-7.663183e-01,-2.389205e-01,1.535313e-01,-1.039463e+00,-8.242027e-01,1.070191e+00,-5.318907e-01,1.192199e-01,-8.975981e-01,3.296630e-02,-6.948529e-01,-2.554753e-01,
-4.529422e-02,-9.929201e-01,-3.288760e-01,2.453030e-01,-2.848490e-01,1.519100e-02,3.193910e-02,-2.842096e-02,-4.349912e-01,-4.059915e-01,-3.257310e-02,-6.967110e-01,-5.762434e-02,-6.145025e-02,3.459960e-01,2.612930e-02,1.244730e-02,2.077767e-01,-6.151149e-01,3.730735e-01,-5.819416e-02,8.254509e-02,6.368871e-01,-3.984565e-01,-3.773207e-01,1.982607e-01,-2.365770e-02,-2.020210e-01,-6.537569e-01,-3.354108e-01,-2.263229e-01,-1.067596e-01,9.093239e-01,1.330787e+00,-3.484761e-01,4.344478e-02,4.881803e-01,3.252005e-01,1.476889e-01,-4.539458e-01,-2.704577e-01,-4.123461e-02,7.107109e-02,4.437000e-01,1.138191e-01,2.670270e-01,-3.135865e-02,-3.186590e-02,-1.116211e-01,1.512363e+00,
1.543648e+00,1.870966e+00,4.487357e-01,2.087853e-01,-1.160340e+00,7.673452e-01,4.584820e-02,5.312748e-01,1.318990e+00,1.077506e+00,8.080143e-01,-1.496654e+00,1.829957e-01,-4.943766e-01,-1.075002e+00,-6.749448e-02,-2.802483e-02,-7.124453e-01,1.093437e+00,-2.057328e+00,2.334419e+00,1.767754e+00,-1.199813e+00,1.389316e+00,1.975932e-01,1.625259e-01,2.692850e-02,-2.549287e-01,2.382180e-01,-3.900953e-01,2.369182e-01,-2.361470e-01,9.688893e-01,3.266415e-01,1.146655e+00,-1.415473e+00,-3.801882e-01,-1.586634e+00,4.431493e-01,7.178097e-01,2.421795e-01,3.444177e-01,3.329863e-02,9.349184e-02,-6.154881e-01,-1.452428e+00,-5.050897e+00,2.772050e-02,1.247284e+00,-2.886292e+00,
1.668439e+00,-2.061894e+00,3.878646e-01,-4.685355e-01,-7.478961e-01,3.347091e-02,4.183365e-03,-4.041801e-01,3.808049e-01,-1.124096e+00,-1.110713e+00,3.052859e-01,-3.939729e-03,-1.550800e-01,-1.099425e+00,6.347213e-01,-1.586500e-02,6.336133e-01,-8.846657e-01,-9.126195e-01,1.548490e+00,-2.987024e-01,4.655060e-01,9.127097e-01,-5.580340e-02,-6.956961e-02,3.740130e-03,3.332673e-01,1.845433e-01,-4.415642e-01,2.147541e-01,-7.235129e-01,2.635040e-01,1.181625e-01,-3.044082e-01,5.412298e-01,3.404624e+00,-3.798219e-01,-1.058416e-01,3.981251e-01,3.609167e-01,6.801479e-02,1.487652e-01,3.904608e-01,-1.000945e+00,9.682885e-01,1.883277e+00,-2.202310e-02,2.041018e-01,-1.950918e-01,
5.035850e-01,-6.032435e-01,-3.858902e-01,1.827794e-03,-4.017447e-01,-1.957081e-02,-2.924460e-03,1.058423e-01,-9.347463e-01,-6.977031e-01,-6.986739e-01,1.970069e-01,-2.237467e-01,2.589149e-01,-2.432581e-02,-5.085673e-01,4.067490e-02,-9.313159e-02,-6.386065e-02,3.594106e-01,-3.121555e+00,-1.490457e-01,-2.619854e-01,9.394262e-01,-4.728628e-02,-7.786338e-01,4.753710e-02,1.446603e-01,-1.423547e+00,-1.575110e-01,-4.389957e-02,-4.043105e-01,2.519353e-01,-4.174984e-01,7.978239e-03,1.411171e-01,1.475229e+00,7.672198e-01,-3.663928e-01,-9.884624e-01,-3.513714e-01,3.679115e-01,3.658363e-01,-2.320090e-01,3.072129e-01,9.466293e-02,-4.352464e-01,7.531150e-03,-2.393236e-01,-1.142838e-04,
-4.563247e-01,-5.665868e-02,7.354919e-02,-1.803132e-02,-7.442176e-01,-3.611270e-01,-2.298370e-02,6.404361e-02,-1.340448e+00,4.291636e-02,2.343726e-01,-7.423988e-01,-1.798968e-01,-7.240579e-02,1.579641e-01,-4.160137e-01,3.367080e-02,1.987031e-01,-4.990399e-01,-6.557819e-01,3.654000e-01,-2.026328e-01,4.880307e-01,-4.615040e-01,4.877284e-01,-3.564945e+00,1.984420e-02,-7.004458e-01,3.700938e-02,2.689573e-01,-1.902680e-01,-2.034883e+00,-1.618997e-01,-1.132900e+01,4.074874e-01,-1.385097e-02,7.332709e-01,2.961256e-01,-1.704001e-01,1.301034e-01,-1.814673e-01,6.734460e-01,5.671931e-01,7.127169e-02,7.081718e-01,-1.693941e-02,-3.345352e-01,4.393500e-02,-3.358129e-01,-5.120529e-01,
-6.765962e-01,-2.677491e-01,-3.388734e-01,4.086730e-01,-3.368952e-01,-4.519500e-01,3.980780e-03,-2.523590e-02,4.426145e-01,-8.493949e-01,-4.546899e-01,1.345032e-01,-4.329295e-01,8.447252e-02,3.095640e-01,1.665799e-02,-4.881200e-02,-5.347577e-02,5.412275e-02,6.020325e-01,1.042333e-01,1.647574e-01,3.295889e-01,1.054144e-02,2.102149e-01,2.777107e-01,4.325630e-02,-2.627669e-01,6.993057e-01,-1.200401e+00,-8.822464e-02,-1.405166e-01,5.063626e-01,-2.269712e-01,-2.781841e-01,-2.575106e-01,6.182695e-01,2.200703e-01,4.248748e-02,-4.519281e-01,-4.569158e-01,5.035895e-01,4.575675e-01,-1.770990e-01,1.861339e-01,6.563110e-01,2.462111e-01,4.778030e-02,-5.865009e-02,8.038954e-01,
3.560404e-01,-1.649466e+00,-8.685544e-01,1.457256e-02,2.207751e-01,3.606829e-01,1.192125e-02,6.096003e-01,-1.676334e+00,8.198613e-01,7.470655e-01,-3.355918e-01,-8.927050e-01,7.044839e-01,-3.660747e-01,4.666657e-01,-9.908202e-03,8.964402e-01,3.370672e-03,4.690496e-01,-2.916632e+00,-3.148039e-01,2.796916e-01,1.355479e+00,-6.822706e-01,2.053672e-03,-3.566910e-03,-2.589386e-01,-7.542645e+00,-1.261139e-01,2.304449e-01,-3.525549e-01,4.547897e-01,1.004421e-01,-6.860676e-01,4.189527e-01,-1.959446e+00,-1.311608e+00,-9.432285e-01,2.520278e-01,6.759715e-02,2.592188e-01,1.890874e-01,-5.587371e-01,3.928117e-01,-1.750237e-01,1.094970e+00,3.964790e-02,4.032708e-01,-1.791495e+00,
-4.436965e-01,-1.194710e-01,-3.827719e-01,-2.035084e-01,-4.648969e-01,-1.347600e-02,-3.426480e-02,5.269228e-01,1.098076e-01,-3.927155e-01,1.812369e-01,-2.641793e-01,5.108171e-01,-3.757875e-01,9.436635e-02,-5.723810e-02,-3.903468e-04,2.608598e-01,-7.665163e-01,1.139922e-01,-8.572581e-02,4.291555e-02,4.314205e-01,1.432641e-01,-6.372017e-01,3.635038e-01,4.401510e-02,-4.101683e-01,4.795423e-01,-2.837687e-01,1.143284e-01,2.402758e-01,4.988957e-01,6.292962e-01,6.262637e-02,2.844229e-01,-3.074980e-01,4.059376e-01,2.075166e-02,5.883737e-02,4.417188e-02,2.737502e-01,5.611203e-01,1.170916e-01,3.345810e-01,-6.246420e-02,-2.067905e-01,-3.104220e-02,-5.167786e-01,6.018685e-01,
5.148595e-02,9.904955e-02,-2.631928e-01,-1.067237e-01,-9.136139e-02,2.501467e-01,-1.442648e-03,1.244181e-01,-5.461329e-02,2.206102e-01,-2.409276e-01,3.847499e-01,-1.313490e-01,-2.004131e+00,3.679299e-01,-1.502475e-01,3.043519e-03,-2.752564e-01,-8.798608e-01,3.460157e-01,6.043668e-01,-1.425571e-01,-5.220314e-02,2.347084e-01,-3.792889e-01,-5.888704e-01,4.794790e-02,9.981616e-02,1.554156e-01,3.413176e-01,-1.158598e+00,6.332292e-02,3.861950e-01,7.202246e-01,4.014385e-01,-3.417812e-01,2.089904e-01,-3.621082e-01,-7.010040e-03,-1.958298e-02,-5.077867e-01,1.509086e-01,-1.190314e-01,8.269199e-01,-1.263628e-02,9.904057e-02,-6.834754e-01,-4.136860e-02,2.618009e-01,5.995469e-01,
