// The contents of this file are licensed under the Creative Commons
// Attribution 4.0 International License: https://creativecommons.org/licenses/by/4.0/
// Neural Network File Format by Kyle Julian, Stanford 2016 (generated on 11/01/2022 14:19:54)
7,5,5,50,
5,50,50,50,50,50,50,5,
0,
0.0,-3.141593,-3.141593,100.0,0.0,
60760.0,3.141593,3.141593,1200.0,1200.0,
19791.091,0.0,0.0,650.0,600.0,7.5188840201005975,
60261.0,6.28318530718,6.28318530718,1100.0,1200.0,373.94992,
1.387420e-02,-6.822840e-03,-1.784220e-03,6.069390e-03,-7.710710e-04,
2.351736e-02,-4.924862e-01,4.697264e-01,-1.089384e+00,2.252263e-01,
-2.080725e-01,4.269770e-01,3.466799e-01,5.368729e-02,-9.416492e-02,
3.172201e-02,-1.309493e+00,1.309146e+00,-7.540475e-02,-3.624640e-01,
-4.356230e-02,-1.448881e-01,1.690335e-01,-5.609192e-01,-7.999355e-01,
9.496184e-01,-3.061297e-02,-9.861440e-03,-2.764750e-02,-1.946369e-02,
9.710647e-02,-5.654223e-01,7.397270e-01,1.501911e-01,-3.513594e-01,
-1.453811e+00,-1.475954e-01,-1.231754e-02,5.070948e-02,6.285758e-02,
2.917629e-02,-2.887066e-01,4.784411e-01,-1.290312e+00,7.308578e-01,
1.117890e-01,4.669822e-01,-4.491429e-01,-1.709503e+00,6.929488e-01,
-2.252697e-02,1.649707e-02,2.220733e-01,-1.149642e+00,-8.860239e-01,
9.628251e-02,-1.856827e-01,-3.513480e-01,-1.017671e+00,5.589429e-02,
8.102726e-04,-4.832943e-03,1.854983e-01,-2.299929e-01,1.690599e-01,
1.000020e-02,5.255100e-04,-4.237000e-04,3.876530e-03,1.286400e-02,
4.566890e-02,-1.841694e-02,2.473226e+00,7.611547e-02,-3.778230e-02,
-4.870749e-02,-7.390301e-01,7.118636e-01,-1.863179e-01,3.026891e-01,
-8.356910e-01,-1.849106e-02,-9.346887e-03,-1.775211e-01,-2.911503e-02,
-1.210075e-01,6.274004e-01,-6.629928e-01,1.578002e-01,-7.505297e-01,
-1.693387e-02,-2.572128e-01,2.972536e-01,1.358144e+00,2.535191e-01,
9.189593e-02,-4.975205e-01,-5.405890e-01,-8.017487e-01,4.482878e-01,
4.266815e-01,-7.424902e-01,-1.391625e-01,-2.788831e-01,5.707551e-02,
-5.498410e-03,-2.696300e-02,2.518433e-01,-6.660144e-01,-1.280836e+00,
-1.225942e-01,-5.177572e-04,1.931908e-01,-1.076632e+00,1.584794e+00,
3.152680e-02,5.416123e-01,-5.080338e-01,-8.718675e-01,1.535928e+00,
-9.155761e-02,4.576770e-01,-3.727154e-01,-3.993109e-01,2.985032e-01,
1.627590e-02,3.572380e-03,4.519680e-04,-8.444680e-04,2.132000e-03,
8.219075e-03,-2.616508e-01,6.199330e-01,-6.942176e-01,5.560980e-01,
-4.183529e-03,-5.105159e-02,1.128748e+00,1.485044e-02,-3.786949e-03,
1.129304e-01,2.915589e+00,-1.965701e-01,6.714302e-02,-6.837536e-02,
1.278679e-02,8.897786e-01,-9.237472e-01,-1.084405e+00,5.566470e-01,
5.599197e-02,4.166292e-01,-3.129506e-01,-8.194445e-01,-7.120505e-01,
2.855144e-02,-1.283179e+00,7.794567e-01,1.187492e-02,-1.642691e-02,
-1.661071e+00,-1.252196e-01,5.181078e-02,-4.511418e-02,-3.137522e-03,
1.976393e-02,-2.112940e+00,-3.196426e-02,1.137421e-01,-2.569605e-01,
1.694790e-02,4.598204e-01,4.690157e-01,-2.330912e-01,9.439571e-02,
-7.370009e-03,-7.574346e-02,7.144567e-02,7.360116e-01,-3.951030e-01,
-2.058083e-02,3.736317e-01,-2.905304e-01,9.272949e-01,-1.143695e+00,
-9.423080e-01,-2.123294e-01,6.106086e-02,-5.990821e-02,-4.136970e-02,
5.102596e-01,-1.798962e-02,-7.597886e-01,1.086794e-01,4.685612e-03,
-1.450326e-02,-8.688068e-01,-1.782469e-01,-1.336816e-01,3.598210e-01,
-1.806514e-02,-2.642833e-01,2.140919e-01,-1.899073e-01,-1.247607e+00,
-1.913541e-02,-1.242962e-01,-7.564296e-01,-4.337937e-01,2.583650e-01,
-2.321701e-01,-1.761562e-02,-1.304012e-01,1.075418e-01,2.181944e-01,
-1.059235e-01,-2.479221e+00,1.826126e+00,-9.461948e-02,-9.977321e-02,
1.021900e-02,-4.141100e-05,1.343190e-02,-9.440040e-04,-4.255890e-03,
-3.776747e-01,-1.812179e-01,4.122218e-01,-7.593207e-02,-7.920925e-01,
-2.397820e-02,8.105600e-01,8.257917e-01,5.723900e-02,8.734206e-03,
-1.545865e+00,7.723182e-02,7.343719e-02,-1.019533e-02,-7.578914e-02,
-4.311969e-01,-1.918519e-01,-1.171527e-01,-2.041272e-01,-9.677505e-01,
-7.135468e-02,1.202890e-01,4.097742e-02,4.828574e-01,-1.997779e+00,
-1.932080e-02,
-1.109705e-01,
5.841210e-03,
1.524113e-01,
-1.308042e-01,
3.034196e-01,
6.672933e-01,
-1.448546e-01,
-1.166665e-01,
-5.870597e-01,
-4.073156e-01,
-2.980043e-01,
5.926362e-02,
-2.079940e-02,
6.924009e-02,
3.583671e-01,
-5.873057e-02,
-6.501429e-02,
1.309312e-01,
6.932499e-02,
1.787208e-01,
-5.326614e-01,
-3.262354e-03,
-4.904746e-01,
1.354415e-01,
-1.931380e-02,
7.639456e-02,
1.302709e-01,
1.218609e-01,
1.068751e-01,
-4.118540e-01,
-4.527176e-01,
-3.467671e-01,
-5.013170e-02,
3.327827e-02,
3.743206e-01,
2.271626e-01,
4.719247e-02,
2.577264e-01,
1.432691e-01,
-1.095070e-01,
2.910974e-02,
4.919322e-02,
-2.404314e-01,
-2.045110e-02,
-3.389328e-01,
2.867030e-02,
-2.757567e-01,
-5.737919e-01,
-6.189271e-01,
3.803920e-02,5.513372e-01,2.019583e-01,6.843521e-02,5.676737e-01,-1.185440e+00,-8.261136e-01,5.205485e-01,5.135328e-01,-4.390384e-01,-2.903148e-03,1.584767e+00,2.063871e-01,-8.161310e-03,-7.750861e-01,-6.549543e-01,3.405323e-01,-6.640250e-01,1.320709e-01,-1.455090e-01,1.041296e+00,4.477077e-01,5.981052e-01,-9.231493e-01,-1.533588e-01,3.150390e-02,5.929536e-01,1.616889e-01,4.556559e-01,-7.952399e-03,-3.180995e-01,-5.035443e-01,1.199504e+00,2.236423e-01,6.677139e-01,2.607546e-01,-9.273747e-02,-3.595340e-01,-2.359907e-01,-4.497192e-01,3.736293e-01,6.283672e-01,-1.863125e+00,9.496018e-02,-1.495950e-02,-6.501213e-01,1.360339e+00,3.533716e-01,2.357549e-01,1.132111e+00,
-1.748110e-02,-5.812669e-01,-1.297464e-01,9.117107e-02,-6.347056e-02,-2.525051e-01,-2.270079e-01,-3.413925e-01,-7.249614e-02,-1.093930e+00,6.662262e-01,-7.875523e-01,-3.464313e-01,4.283280e-02,-4.181923e-02,9.985755e-03,9.260374e-01,6.676155e-01,-5.459481e+00,8.076720e-01,1.122827e-01,7.176744e-01,-2.960776e+00,-3.845720e-02,1.657860e-01,1.676100e-02,2.678944e-01,1.433561e-01,-6.291999e-01,9.102511e-02,4.391508e-01,1.232854e+00,1.334317e+00,-3.391457e-01,3.871028e-01,9.810252e-02,8.468032e-02,5.306739e-01,2.797330e-01,-7.529165e-01,2.588466e-02,-1.169269e-01,-1.699152e+00,-1.839942e-01,1.091230e-03,6.062880e-01,4.908541e-01,2.952192e-02,1.301157e+00,1.266670e+00,
-3.296000e-02,-1.199468e+00,2.930533e-01,1.205216e+00,-8.212013e-02,-1.463657e-01,-1.460133e-02,8.546896e-02,-8.974534e-01,3.400492e-01,-3.863660e-02,4.517215e-01,-1.624503e-01,3.744490e-02,-3.650353e-01,-1.535725e+00,6.872871e-01,-7.100505e-02,4.203367e-02,1.310607e-01,-5.122074e-01,1.217069e+00,-8.235949e-02,9.819853e-02,8.175974e-01,-4.151570e-02,-9.139649e-01,-8.657608e-01,3.176996e-01,9.331350e-01,-5.866731e-01,-2.046986e+00,3.317532e-01,-1.221954e+00,-2.326634e-01,-3.213604e-01,4.590208e-01,2.915765e-01,4.853198e-01,-6.354163e-01,-3.311723e-01,4.456974e-01,3.063889e-01,4.165694e-01,1.029190e-04,1.452862e+00,-4.029150e-01,4.492678e-02,-6.864425e-02,9.694546e-01,
-1.122520e-02,6.166977e-01,-1.382466e-01,-1.606880e-01,5.589545e-01,-1.309758e-01,-1.583951e-01,-2.831307e-02,6.078759e-01,-7.474906e-01,7.905405e-01,6.174400e-01,3.958140e-01,2.344070e-02,-6.338763e-01,-1.181236e-03,-2.312299e-01,-2.612327e-01,-9.552436e-02,-6.343228e-01,3.192236e-01,1.358851e+00,-3.353680e+00,2.984800e+00,2.854431e-01,1.190930e-02,4.583274e-01,-4.322345e-01,1.909186e-01,-8.865960e-02,1.155923e+00,5.412329e-01,-2.603478e-01,-5.790919e-01,-3.427295e-01,-1.031577e+00,-1.337692e+00,3.042323e-01,-7.309886e-02,-1.152053e-01,3.769653e-01,-2.197202e-01,-2.308092e+00,-5.872053e-02,1.816720e-02,5.848054e-01,3.517373e-01,3.209773e-01,1.189941e+00,-2.837691e+00,
-2.695620e-02,-1.455601e+00,-3.820817e-01,1.930429e+00,-3.731466e-01,1.610311e-01,-1.643223e+00,-1.709071e-01,-1.293672e+00,7.073154e-01,-2.712228e-01,4.746148e-02,-3.766524e-01,-2.883890e-02,-5.125129e+00,-1.372544e+00,-1.386903e-01,2.428937e-01,5.414511e-01,-6.899945e-02,-6.611812e-01,1.920624e+00,-3.706778e-04,5.915751e-01,5.299050e-01,5.808700e-03,-1.154826e+00,-1.459850e+00,6.907575e-01,8.347647e-01,4.948054e-01,-4.319570e-03,1.250738e-01,-8.248796e-02,-7.890664e-01,-6.204925e-01,8.318101e-01,-6.048289e-03,4.775809e-01,-3.276661e-01,-3.936546e-01,3.015737e-01,1.044631e-01,3.750720e-02,-4.015760e-02,2.453734e+00,-4.813349e-01,-1.299444e-01,-6.641809e-01,-6.855468e-01,
1.701770e-02,5.782370e-03,-9.607660e-03,-5.031240e-03,-1.821880e-02,2.997210e-02,-2.464790e-02,-4.035490e-02,-5.266160e-02,-3.954860e-03,1.704370e-02,-2.715710e-02,-4.065390e-02,3.544200e-03,-1.956430e-02,-3.024440e-02,2.103420e-02,-4.588230e-02,-1.696550e-02,-4.243110e-03,-4.518530e-02,-1.467490e-02,4.106940e-03,-5.061590e-02,-1.749720e-02,7.895220e-03,3.994220e-02,8.983740e-03,3.195910e-02,9.163140e-03,1.730400e-02,1.520410e-02,1.090920e-02,1.814940e-02,-5.110590e-02,-4.175340e-02,-1.234380e-02,-5.377430e-02,-5.537200e-02,-2.600480e-02,4.081830e-02,1.661380e-03,4.314010e-02,2.302340e-02,3.402410e-02,2.810290e-02,-4.652420e-02,3.649550e-02,3.527740e-02,-1.856640e-02,
2.870050e-02,-4.679990e-02,-2.602640e-02,2.421430e-02,-3.723030e-03,-4.006610e-02,-2.782900e-02,-8.607420e-04,3.008360e-02,-3.411530e-02,-4.215010e-02,-1.600500e-02,-5.022350e-02,1.381080e-02,-6.239080e-03,-2.849600e-02,-3.868820e-02,-3.517040e-02,8.218810e-03,-3.299110e-02,3.369830e-03,2.256710e-02,1.877280e-03,-2.933870e-02,-1.822990e-02,2.274350e-02,-9.345950e-03,1.088270e-02,-4.282490e-02,4.064890e-02,-5.168330e-03,2.517840e-03,-2.088360e-02,-4.058110e-02,2.879930e-02,-8.100980e-03,2.997160e-02,-5.864860e-03,-2.512180e-02,-4.414500e-02,-1.084720e-02,-3.437870e-02,2.063510e-02,5.500940e-03,-3.313470e-02,-2.315570e-02,3.990250e-03,2.090880e-02,3.945860e-03,-5.053690e-02,
-1.192030e-02,-6.490014e-01,-7.761914e-01,-1.067216e-01,-3.341240e-01,6.410783e-02,-5.205782e-01,-3.200042e-01,6.305351e-01,-2.748919e+00,5.465168e-01,-9.935172e-01,-2.629513e+00,2.331700e-02,-6.519257e-01,-6.715242e-01,5.623594e-01,-1.676975e-01,-2.805725e-01,8.234005e-01,-5.016404e-01,2.032335e+00,-3.582065e-01,-6.971872e-01,4.124708e-01,-3.158030e-02,-6.795992e-01,-9.159127e-01,1.949246e-01,-2.406566e-01,5.863568e-01,1.531650e-01,5.663449e-02,-1.544533e+00,8.517668e-02,4.398062e-01,2.903182e-01,-3.804656e-01,3.582239e-01,-1.493322e+00,6.518424e-01,6.239846e-01,-4.783765e-01,1.039729e+00,2.479010e-02,7.366371e-01,5.408455e-01,-7.750211e-01,-7.636491e-01,2.895196e-01,
-1.499060e-02,-2.388812e-01,-1.158522e+00,-3.756119e-02,5.928153e-01,-1.910120e-01,2.406830e-01,1.245033e+00,-7.632957e-02,3.826340e-01,4.585508e-01,-6.951810e-01,6.677798e-01,1.114880e-03,-3.629422e+00,-9.578350e-01,1.716433e-01,-5.517324e-01,-1.080260e-01,1.095571e+00,1.650908e-02,4.683454e-02,-3.924738e-01,1.844026e-01,-1.217512e-01,-2.585780e-02,1.649796e-01,-4.122783e-01,1.303793e-01,-1.091528e-01,2.428487e-01,3.025015e-01,5.089441e-02,7.770324e-03,-3.772021e-01,3.350037e-01,-1.476719e-01,5.365968e-01,2.691092e-01,6.643485e-01,-3.112473e-01,1.886628e-02,1.591594e+00,8.904103e-02,4.345330e-04,-9.566029e-01,-3.307017e-02,6.759833e-01,-4.572408e-01,1.001921e-01,
2.542320e-03,1.847658e-01,4.748859e-01,-1.033195e-01,1.095626e+00,5.443576e-01,-5.410960e-01,1.360818e-01,4.277036e-01,-9.020847e-02,1.703353e+00,-9.116951e-02,-7.885063e-02,-2.104160e-02,2.615739e-01,-4.574317e-01,4.966377e-01,7.366273e-01,-1.716843e+00,5.175481e-01,-1.182240e-01,-3.878819e-01,7.773134e-01,-8.217083e-01,-8.278044e-02,-4.750670e-02,6.466227e-02,4.828006e-02,-5.996478e-01,-1.444588e+00,-3.920574e+00,-1.514372e-01,-1.005321e-01,4.065285e-01,6.543320e-01,2.546198e-01,-4.509082e-01,1.600863e-01,-4.185575e-01,4.352909e-01,3.494367e-01,2.705928e-01,6.972269e-01,1.949359e-01,3.504560e-02,3.920096e-01,3.107120e-02,2.390925e-01,1.647094e-01,-1.673732e+00,
-2.253300e-02,3.083431e-01,-1.823458e-02,2.895387e-01,3.462740e-02,4.626878e-02,-9.796914e-01,-9.565501e-01,1.673900e-01,6.852832e-01,-2.112316e-02,2.487064e-01,4.503012e-02,2.932630e-02,5.577133e-01,3.352782e-01,7.765259e-01,3.700022e-01,-1.212018e-01,9.212337e-02,-3.684176e-01,1.321686e+00,-7.664469e+00,-2.639229e-01,2.322876e-01,-3.350860e-02,3.606777e-01,1.777996e-01,-6.060423e-01,4.918522e-01,3.671318e-01,-9.195498e-01,-8.502391e-01,4.119006e-01,-1.170121e-01,-7.541841e-01,3.754221e-01,1.750669e-01,2.542866e-01,4.639150e-02,9.727719e-02,4.198005e-01,-1.987111e+00,-1.146582e-01,-1.098420e-02,5.499061e-01,-5.601997e-01,-2.400749e-02,1.145664e+00,2.113114e+00,
2.357090e-02,1.489359e-02,5.170498e-01,2.429257e-01,-4.370800e-01,8.233763e-02,-8.491430e-01,2.944701e-01,-9.555838e-01,-9.255432e-01,1.947251e-01,-8.429983e-02,-1.262787e-01,-5.770140e-04,-1.150445e+00,2.180080e-01,9.598224e-02,-1.597941e-02,-1.666496e-01,1.610882e-01,5.588710e-01,3.674273e-01,1.662495e-01,-3.602526e+00,1.121555e+00,-4.061750e-02,-1.037177e+00,-7.897875e-01,7.574058e-02,1.328120e+00,-1.127538e-01,1.765915e+00,1.296843e+00,8.786017e-02,-3.274960e-02,1.844818e-01,-9.889668e-01,1.036568e-01,-1.028785e+00,-1.041327e-01,1.739587e+00,1.662187e-01,-1.249248e+00,8.574098e-01,4.060430e-02,-1.742460e+00,-6.157103e-01,-1.407638e-01,8.952907e-01,-3.529491e+00,
-4.816450e-02,8.364631e-01,1.184114e-01,-4.838175e-02,5.995834e-01,2.866245e-02,-1.180893e-01,-2.564980e-01,2.814835e-01,3.879800e-01,3.171427e-01,-1.593248e+00,-4.137387e-01,2.147520e-02,4.884571e-01,-7.178262e-01,2.103369e-01,9.679974e-01,-2.340894e-03,-1.912564e+00,-1.408963e-01,1.493178e-01,5.685669e-01,-8.601557e-02,-4.614714e-01,-1.167250e-02,-3.868889e-01,3.697658e-01,5.401322e-01,-2.044883e-01,3.800250e-01,-9.566484e-01,1.114548e-01,-6.445816e-01,-7.385432e-02,2.778513e-01,-7.732852e-01,-3.213009e-01,2.821440e-01,1.152919e+00,-5.047480e-01,5.272486e-01,2.190270e-02,-4.228276e-02,-4.415410e-02,-2.149885e-01,-4.199918e-01,-1.411280e-01,-2.607976e+00,1.210933e+00,
-2.211810e-02,-8.253419e-01,-5.299379e-02,5.960371e-01,7.835859e-02,-2.427935e-01,-9.168630e-01,2.627555e-01,-3.641411e+00,4.590411e-01,-2.298011e-01,2.486891e-01,1.248830e+00,-8.086980e-03,7.799931e-02,-9.299371e-01,1.074363e+00,-6.490776e-01,1.232844e+00,2.886713e-01,1.709987e-01,9.339915e-01,-2.729002e+00,-1.554667e+00,2.941378e-01,1.064930e-02,7.000535e-01,-3.227113e+00,-1.032471e-01,-6.934327e-02,-7.262500e-01,-2.063762e+00,3.911079e-01,-5.014151e-01,2.717612e-01,-5.298223e-01,3.401965e-01,-9.532294e-01,4.534154e-01,-7.368853e-02,1.585415e+00,-8.889566e-01,8.372477e-01,-5.071772e-01,-2.960650e-02,-6.144620e-01,2.366056e-01,-3.508910e-01,-4.935118e-02,-4.384693e-02,
-5.422730e-02,-5.610787e-01,-4.276306e-01,-1.197335e-02,-1.331531e-01,-2.641914e-01,2.145710e-01,-4.234527e-02,5.334081e-01,-4.367232e-01,-3.766617e-01,-2.259277e-01,-3.595966e-01,-3.388630e-02,-6.348522e-02,-4.592183e-02,1.634943e-01,1.590055e-01,-1.353558e-01,-6.191416e-01,7.468937e-01,4.751501e-01,1.263846e-01,2.308418e-01,6.235078e-01,-3.945230e-02,-4.166481e-02,-1.150800e+00,-8.276382e-01,2.846815e-01,1.188100e-01,-1.142302e-02,-3.386090e-01,1.672099e+00,6.300548e-01,8.306774e-01,-1.067047e-01,-2.037288e-01,-8.010660e-02,3.671418e-01,3.423581e-01,-1.553465e-01,5.327278e-01,7.797991e-01,-1.523720e-02,2.099146e-01,-1.903693e-02,-7.110211e-02,2.204299e-01,2.821575e-01,
-2.573540e-02,3.640110e-01,4.345020e-01,-1.354807e+00,8.607976e-01,1.263133e-01,5.925072e-01,-2.433954e-01,7.391444e-01,-5.125755e-01,1.029674e+00,6.589418e-01,3.840818e-01,-1.373680e-02,-4.894873e-01,2.232314e-01,-2.545707e-01,4.310322e-01,-3.299949e-01,6.305935e-01,1.854338e-01,6.721204e-01,6.976045e-02,-9.123062e-01,-9.695676e-01,3.874800e-02,6.880501e-01,-2.498145e-01,-6.544141e-01,3.645359e-01,-7.640703e-01,2.126603e-01,-4.598580e-02,-9.727309e-02,9.413590e-01,1.504918e+00,-1.249321e+00,8.387746e-02,-4.589688e-01,-1.525811e-01,-7.110893e-01,7.460417e-01,-4.637544e-01,-1.665542e+00,3.820220e-02,-4.293029e-01,6.436406e-01,1.299408e-01,-9.337674e-01,-3.978420e-01,
-1.579210e-02,-1.353210e-02,1.858630e-02,-1.404770e-02,-1.312490e-02,-3.797190e-02,-3.171430e-02,-4.328160e-02,-3.320430e-03,-2.851530e-02,1.602990e-02,9.556290e-03,7.139870e-03,-4.268900e-02,-4.666580e-02,3.553880e-02,1.687370e-03,3.500430e-02,-3.073410e-02,4.745940e-02,-2.006280e-02,-2.175590e-02,-4.792610e-02,-1.626040e-03,-4.943250e-02,-4.197290e-02,1.843540e-02,1.516850e-02,3.303700e-02,-2.475650e-02,1.610110e-02,2.335350e-02,1.028160e-02,1.204090e-02,-2.048340e-02,2.144210e-02,-4.398330e-02,-6.599020e-03,-5.611680e-02,5.105790e-03,-4.919560e-02,3.663470e-02,2.805600e-02,-8.239490e-03,-3.968400e-02,-2.735080e-03,2.217790e-03,-4.574390e-02,-1.199320e-02,-3.373030e-02,
-2.499170e-02,1.324869e-01,-5.075254e-01,3.814593e-01,8.634718e-02,1.866785e-01,1.803591e-01,-3.690394e-01,6.260456e-01,3.274745e-01,-3.153802e-01,-1.505344e+00,4.991354e-02,-1.312740e-02,-9.351076e-02,-9.631855e-01,-3.072854e-01,6.702045e-02,-4.008730e-01,3.181022e-02,-3.301619e-01,-2.294488e-01,-4.188157e+00,-1.018580e+00,-1.579749e-01,-9.982120e-03,2.254855e-01,-7.305756e-02,-4.688780e-02,1.284378e-02,2.850417e-01,2.683693e-01,-1.431373e+00,-5.535533e-01,3.833580e-01,-7.238379e-01,6.532812e-03,-1.199009e-01,-2.301311e-01,2.894719e-01,6.586179e-01,6.862075e-02,-2.033248e+00,1.729605e-01,-1.154870e-02,-3.271541e-01,-4.859817e-01,8.898538e-01,-1.154448e-01,6.717322e-01,
8.733510e-03,3.075682e-01,-5.593236e-02,-7.939325e-02,-6.492085e-02,-9.832495e-01,-8.353167e-02,4.261550e-01,-2.872875e-01,-7.083710e-01,4.908576e-02,-9.286991e-01,-5.323855e-02,4.705080e-03,2.572248e-01,6.702192e-02,1.073047e-01,6.282287e-01,-2.530408e-01,9.678131e-02,1.172919e-01,1.821876e-01,-6.999021e-01,-1.018800e+00,5.315034e-01,4.713280e-03,-5.523242e-03,1.521651e-01,2.010524e-02,-6.494865e-02,6.217191e-02,-2.533674e-01,6.141314e-01,-2.050988e-03,9.337849e-02,2.518790e-01,-4.517311e-01,2.899232e-02,-6.056045e-01,4.582956e-02,-1.047521e-01,-1.559738e-01,3.995371e-01,7.802895e-02,-2.722390e-02,-1.066652e-02,-6.024127e-01,5.718389e-01,2.462301e-01,-7.816540e-01,
1.498860e-02,6.661859e-01,1.613259e-01,9.503292e-01,-1.649618e-01,6.920432e-02,2.370536e-01,-2.958598e-01,-4.001065e-01,-1.326466e+00,-1.483852e-01,-1.396418e+00,1.747681e-01,-5.018890e-02,4.365297e-01,-8.593253e-01,-1.726747e-01,9.840323e-01,1.541587e-01,-5.269572e-02,-3.750727e-01,4.088764e-01,-9.840880e-02,-1.090841e+00,3.818466e-03,3.882670e-02,-1.478022e+00,-1.967866e-01,1.078707e+00,-1.096317e-01,9.033836e-01,-1.758630e+00,1.058193e-01,6.827321e-01,-9.757488e-01,2.928847e-01,-8.554201e-01,-6.421250e-03,1.184267e-01,-5.488738e-01,-3.896545e-02,5.497836e-03,-4.907397e-02,4.749659e-01,-4.594340e-02,1.649675e-01,-1.388613e+00,-1.114684e-01,2.784626e-01,1.064851e+00,
-3.511370e-02,2.489664e-01,4.537810e-01,-1.020316e+00,1.206652e+00,2.675406e-01,1.074055e-01,-1.959391e-02,-2.270447e-01,-7.977266e-01,4.090134e-01,1.058092e+00,4.058965e-01,3.600290e-02,1.141919e-01,1.412469e-01,3.368226e-02,-1.328500e+00,-4.646091e-01,5.444166e-01,-7.391463e-02,-2.085911e-01,-6.654442e-02,-6.695113e-01,1.168786e+00,4.100570e-02,1.637570e-01,1.216879e-01,7.440960e-01,9.673998e-01,-1.084109e+00,1.234644e-01,-3.768562e-01,-1.118069e-01,1.810311e-01,6.151501e-01,-2.324440e-01,-1.818183e-01,-1.085586e-01,-3.161963e-01,-1.060931e+00,6.613521e-01,3.487320e-01,-1.302463e+00,-2.830040e-02,2.419593e-01,8.752848e-01,-2.395236e-01,1.937691e-01,7.941241e-01,
2.175550e-03,-1.128613e-01,3.346410e-01,2.706030e-01,5.303047e-01,-3.202501e-01,4.182461e-01,1.355203e-01,-3.576769e-01,1.625717e-01,1.572188e-01,1.427604e-01,4.217736e-01,-3.043650e-02,-2.788642e-01,2.137344e-01,5.082370e-02,2.461788e-01,-1.390729e-01,-4.181330e-02,-8.841317e-02,1.277325e+00,-7.366582e-01,-8.754475e-01,1.564608e-01,-5.479140e-03,1.369587e-01,2.591805e-01,-4.829561e-02,3.759571e-01,-6.754260e-02,-6.961166e-01,3.555211e-01,1.006505e-01,-5.374145e-01,-1.041077e+00,-1.407753e-01,1.834634e-01,-1.951263e-01,-3.403018e-01,-2.062786e-01,-2.588849e-02,-1.410830e+00,9.120652e-02,3.617400e-03,-8.466992e-01,-5.050756e-02,-1.133322e-01,4.557407e-01,-2.845863e-01,
1.487480e-02,9.190990e-03,1.542610e-02,-5.275270e-02,-7.103320e-03,-1.282620e-02,-3.409420e-02,-7.706500e-03,2.567840e-02,9.946850e-03,-3.182550e-02,1.347410e-02,-2.376180e-02,-7.631480e-03,1.456230e-02,2.101920e-02,2.154110e-02,-2.799900e-02,2.265200e-03,3.544830e-02,-2.983300e-02,-2.738860e-02,3.145920e-02,-4.757830e-03,-2.349850e-02,4.204970e-02,2.288730e-03,-2.151990e-02,9.490650e-03,-4.176510e-02,2.428100e-02,-2.543300e-02,8.865120e-03,-3.469390e-02,-6.024280e-02,-5.571260e-02,1.285610e-02,2.478290e-02,-5.171050e-02,-6.353240e-02,4.200400e-02,-1.859950e-02,2.804430e-02,7.574010e-04,-4.522830e-02,-1.338340e-02,-2.248830e-02,-1.180920e-02,8.483340e-04,-5.357300e-03,
2.605020e-02,-2.809784e+00,-3.044968e-02,2.551011e-02,9.825216e-02,3.775316e-01,4.752855e-02,-2.665055e-01,1.671781e+00,-1.316967e+00,8.846389e-01,3.953767e-02,-1.228097e+00,-1.005280e-02,-1.488023e-01,1.028172e+00,4.168863e-01,9.603522e-01,-5.184508e-01,-6.509161e-01,-3.976111e-01,-2.103562e+00,6.825236e-01,5.209157e-01,-1.811849e-01,-5.410080e-02,-1.716959e+00,-2.738186e-01,1.254838e-01,-1.003655e+00,2.052231e+00,1.709022e+00,-8.320963e-01,-1.945952e-01,-5.891715e-01,-1.017233e+00,1.247135e-02,-1.995278e-01,5.580606e-01,7.040163e-01,-1.621188e-01,-8.888113e-04,1.234678e+00,-2.445468e-01,3.541550e-02,-9.500477e-02,8.889955e-01,-2.625375e-01,1.763964e+00,7.283697e-01,
-4.262970e-02,-3.419690e-02,6.001990e-02,7.788610e-02,4.844440e-02,-1.850700e-01,-1.186650e-01,4.449750e-02,8.455710e-02,-3.304490e-02,2.139080e-02,1.752530e-02,5.135100e-02,-1.031130e-02,4.510160e-02,-1.758250e-01,7.186620e-02,7.446000e-02,-1.159050e-01,3.799240e-02,-1.343350e-01,1.119680e-02,-4.883460e-01,1.369880e-01,8.184560e-02,-2.795420e-02,-1.954590e-02,-9.577800e-02,-1.559720e-01,-1.246540e-01,5.667630e-02,-1.898780e-03,5.852880e-02,-1.563100e-01,-2.427900e-03,-8.561360e-02,-1.591730e-01,4.123630e-02,-1.856250e-01,-2.600410e-01,8.601870e-02,7.514570e-02,-2.346150e-02,2.668570e-02,2.315760e-02,4.626020e-02,5.340120e-02,1.007400e-01,6.828010e-02,-3.059370e-01,
1.445880e-02,-1.548243e+00,6.104147e-01,6.236182e-01,3.879979e-01,1.691019e-01,-2.033011e-01,-1.596797e-01,1.114328e+00,7.409117e-01,-9.161900e-01,-1.451257e+00,1.796180e-01,-3.469110e-02,-1.381175e-02,8.689086e-02,-1.680766e-01,7.418031e-01,3.682611e-01,-6.437691e-02,1.395884e-01,9.105406e-01,-4.502597e+00,1.315160e-02,-8.080522e-01,1.439900e-02,2.810020e-01,4.293232e-01,-7.615526e-01,-6.419342e-01,-1.209043e-01,1.553793e+00,-4.249336e-01,1.043205e+00,-6.977620e-01,-2.603092e-01,2.330118e-01,2.817731e-01,-4.023306e-01,-2.931600e-01,8.521620e-01,9.078311e-01,5.619155e-02,-6.501227e-01,-2.665650e-02,5.419203e-02,-8.061199e-02,4.870567e-01,3.099912e-01,-1.172341e+00,
4.092840e-02,-1.669560e-02,4.099100e-02,4.351710e-03,-3.332750e-02,2.272090e-02,-1.121250e-02,3.311300e-03,-4.174870e-02,3.028770e-02,-8.680140e-03,1.066700e-02,-5.312320e-02,4.189500e-02,-6.884860e-03,2.655960e-02,8.081020e-03,-5.547360e-02,1.581400e-02,-5.029320e-02,-1.059140e-02,-9.758580e-03,-3.074170e-02,8.111080e-03,-5.472230e-02,-1.536400e-02,8.863580e-03,-5.250750e-02,3.229430e-03,-3.694670e-02,-6.307250e-03,-1.513520e-02,1.463090e-02,-4.131090e-03,3.932760e-02,-5.650210e-02,1.153640e-02,-2.104020e-02,-3.415720e-02,-1.571170e-02,2.337270e-02,1.721980e-02,-2.799200e-02,1.304800e-02,1.567870e-04,1.956570e-02,1.880110e-02,2.756160e-02,4.687800e-02,2.146050e-02,
1.952630e-02,-4.075608e-03,5.483142e-02,-3.149380e-01,7.917932e-02,1.754971e-01,3.857925e-01,2.889571e-01,-3.217863e-01,-2.943311e-01,1.282901e-01,-1.083669e+00,6.157581e-01,-1.192180e-03,-1.202145e+00,7.465939e-01,2.784449e-01,-7.328450e-01,1.621117e-01,7.849780e-02,3.170445e-01,2.413867e-01,-7.516686e-01,-3.297362e-02,-1.726937e-01,4.713950e-02,-3.984616e-01,-3.964232e-01,1.375211e-01,-1.778276e-01,-4.341227e-01,-1.945343e-01,-2.834938e-02,-5.730671e-01,7.045043e-01,-3.301119e-01,-1.531961e-02,1.086891e-01,-2.029302e-01,8.606291e-01,6.328294e-02,5.043540e-02,-1.693937e-01,4.009254e-02,-2.562770e-02,-1.546363e-01,-1.987441e-01,-1.497649e-01,-3.085516e-01,-6.263291e-01,
-1.591030e-02,3.144550e-02,2.012370e-02,-2.491780e-02,-4.271660e-02,2.927220e-02,-1.944470e-03,-1.373660e-02,-2.412450e-02,-4.433810e-02,-7.995840e-03,-1.604230e-02,-4.110350e-02,1.282120e-02,1.247240e-02,-1.102020e-02,-4.693830e-04,-2.449550e-02,-3.969170e-02,-1.235410e-02,-1.774780e-02,3.404670e-03,-3.615880e-02,-1.885390e-02,1.050770e-02,-3.240830e-02,7.795050e-03,-3.171130e-02,-5.119160e-03,2.707760e-02,2.742710e-02,-4.141960e-02,3.523020e-02,-2.903860e-02,-2.188930e-02,-3.658580e-02,-2.919270e-02,-1.852710e-02,-8.921840e-03,1.326770e-02,-2.459260e-02,-2.929170e-02,-6.293120e-03,-6.060160e-03,3.718370e-02,1.293680e-02,-3.873200e-03,-2.944830e-02,-9.228120e-03,-2.772580e-02,
1.111320e-02,-6.961856e-01,-2.496397e-01,9.022874e-01,5.376412e-01,-1.813404e-01,3.726919e-01,-4.692345e-04,-1.287321e+00,-1.061266e+00,-2.330332e-01,7.825249e-01,-3.740839e-01,-1.282470e-02,3.994604e-01,-2.425064e-01,-1.107528e-01,4.537183e-01,6.530982e-02,-6.173846e-01,1.582726e-02,9.735913e-01,-6.352302e-02,1.245913e+00,-7.265924e-01,-4.848950e-02,3.850047e-01,-2.747734e-01,1.055520e-01,-1.823137e-01,7.727863e-01,-2.853445e-02,-3.900256e-02,3.333109e-01,-1.760127e-01,-3.221656e-01,1.276412e+00,4.513273e-02,3.157793e-01,4.257557e-01,-1.656503e-01,-3.922915e-01,2.976924e-01,1.037628e-01,-3.599550e-02,-1.201634e+00,-1.650199e-02,7.208438e-02,8.989599e-02,5.491631e-01,
-3.569990e-02,-4.865157e-01,7.089185e-01,5.422716e-02,1.680199e-02,4.493079e-01,5.767189e-01,3.012409e-02,-6.083533e-01,1.721757e-01,1.602573e-01,4.868484e-01,7.710057e-01,9.549320e-03,1.102710e-01,8.934976e-01,-1.134239e-01,8.427553e-01,1.436020e-01,2.377667e-01,6.508379e-01,-5.221835e-01,-5.301622e-01,7.595372e-01,-8.276612e-01,3.990070e-03,1.947633e-01,8.804364e-01,7.426237e-01,-2.896554e-01,-5.004852e-01,1.056185e+00,-4.659598e-01,-1.115587e-01,1.511054e-01,-2.109782e-01,-6.311335e-02,-4.532919e-02,-9.810947e-01,-2.734051e-01,-3.894565e-01,-1.907175e-01,9.513393e-02,-7.643821e-01,4.665920e-02,-6.121256e-01,1.216260e+00,2.354000e-01,-1.958523e-01,-2.397787e-02,
3.995400e-02,2.275262e-02,1.419574e-01,3.340210e-02,4.066771e-02,1.871970e+00,7.226528e-01,-1.515334e+00,-6.877246e-02,5.879530e-02,8.817604e-02,1.564213e-01,3.338615e-01,-2.474290e-02,-1.398207e-01,1.853579e-01,-5.944020e-01,2.311241e-02,9.090587e-03,1.178455e-01,4.729996e-01,1.543495e-01,1.323015e-02,1.484620e-01,8.059441e-02,-2.987700e-02,-3.118244e-03,-5.960686e-02,8.625217e-02,3.694090e-02,1.279053e-01,-7.064358e-03,-1.316992e+00,5.661308e-02,1.469013e-01,1.766632e-02,6.865459e-02,-1.210668e+00,3.535708e-01,1.927837e-02,8.833913e-02,-3.937645e-02,2.228744e-01,-3.589419e-02,3.815540e-03,-2.974755e-01,6.865393e-02,-1.541420e+00,6.544362e-02,-7.562539e-02,
-3.984900e-02,-4.749793e-01,4.565363e-01,4.770976e-02,2.798259e-01,-1.402642e+00,5.719641e-01,-3.692520e-01,-1.089293e+00,-3.064043e-01,8.415811e-01,-3.773628e-01,-1.116989e-01,-1.508550e-02,-7.581455e-01,-7.412079e-01,1.585004e-01,-1.317782e+00,1.594098e-01,-2.801766e-02,-4.399369e-01,4.110575e-01,-2.105170e-01,-8.067735e-01,-2.724015e-01,-3.494310e-02,9.512254e-01,1.768752e-01,3.643222e-01,-1.745998e-01,-1.557232e+00,-1.412218e+00,2.321719e-01,1.707944e-01,6.790631e-01,-3.598860e-02,-8.175177e-01,-3.022802e-01,-1.781389e+00,7.433223e-01,2.729650e-01,-6.774831e-01,-7.501561e-01,-1.339261e-01,1.979090e-02,-1.602996e-01,5.659744e-02,5.114151e-01,-2.588795e-01,-1.386046e+00,
-2.841790e-02,1.081285e+00,-3.454248e-01,-2.229922e-01,1.440689e-01,4.114722e-01,-3.855984e-01,2.238810e-01,-3.379772e-01,-2.670894e+00,-1.606424e-01,3.813615e-01,4.431378e-01,-2.592280e-02,2.436963e-01,-9.637886e-02,6.354445e-01,-3.549864e-01,-1.355009e+00,7.248648e-01,-8.543310e-02,2.430202e-01,-3.398961e+00,1.843720e-01,6.906338e-01,1.700670e-02,7.353138e-01,3.195057e-01,-4.000825e-01,-4.600714e-01,6.217713e-01,-1.190900e+00,3.557105e-01,3.761480e-01,-1.831464e-01,5.458392e-01,9.824435e-01,3.418353e-01,-4.273595e-01,-7.353138e-01,-4.402559e-01,5.301359e-02,-3.542584e-01,1.681478e-01,2.463810e-02,5.837150e-01,-6.195470e-01,-1.816692e-01,3.826476e-01,2.482101e-02,
2.817220e-02,6.130804e-01,1.679211e-01,7.199684e-01,5.232615e-01,-2.512683e-01,-5.557349e-01,-1.992228e-01,2.602682e-02,2.208053e-01,-1.082504e+00,3.904064e-01,8.083191e-02,-3.682320e-02,3.009041e-01,-4.386941e-01,2.837363e-01,6.608741e-01,1.427098e+00,9.259262e-01,2.144128e-01,-6.606875e-02,-7.983822e-01,4.226388e-01,-1.404174e-01,2.312110e-02,-7.956098e-02,8.655502e-01,3.442428e-01,2.244372e-01,1.702476e+00,-8.741649e-02,-5.756350e-01,1.130713e-01,3.444691e-02,-1.245078e+00,-2.921127e-01,1.215110e-01,1.173293e-01,1.427838e-01,-7.286301e-01,4.482742e-01,-5.977654e-01,1.200423e+00,-1.494890e-02,-3.759040e-01,3.588035e-01,5.844225e-01,-9.002656e-01,-3.300544e+00,
6.092980e-02,8.265586e-01,-4.334663e-01,-3.901655e-01,7.397655e-01,6.675970e-01,-7.962720e-01,-1.878444e-01,1.323790e+00,4.224331e-01,8.575805e-01,-9.772408e-01,2.651557e-01,2.184890e-02,-1.558411e-01,-7.307582e-01,-5.528777e-01,-1.602420e-01,1.813077e+00,-2.223003e-01,-1.079960e+00,-1.130555e-02,-5.034518e-01,-1.899751e-01,7.045388e-01,1.695150e-02,8.866225e-01,-3.766181e-01,-7.864839e-01,-2.861604e-02,6.897328e-01,3.874094e-01,8.670441e-01,-2.463190e-01,9.793460e-01,-5.141734e-02,-4.790573e-02,5.001138e-01,-2.220990e-01,-7.451798e-01,6.347566e-01,4.726332e-01,-2.467207e+00,2.562475e-02,2.651120e-02,1.342218e+00,1.037275e-01,3.794397e-01,6.645772e-01,1.683938e+00,
-4.428370e-02,-2.761606e-01,-1.610698e-01,-1.791562e-01,-1.064862e+00,3.315891e-02,4.329757e-01,3.289259e-02,-7.658572e-01,-1.036723e+00,-9.355013e-01,-6.054060e-01,8.393415e-02,4.122970e-02,4.604568e-01,-2.123772e-02,-7.741062e-01,-6.792142e-01,4.124857e-01,-2.606881e-01,6.264313e-01,3.831976e-01,-5.430551e-01,-1.014296e-01,5.028764e-02,-1.572990e-02,5.016471e-01,-1.046323e-01,4.400439e-01,2.512713e-02,-1.268401e+00,-4.381406e-03,5.000561e-01,-3.768017e-01,-6.433191e-01,-6.715696e-01,5.340428e-01,-2.041444e-01,6.299879e-02,1.215192e-01,5.084913e-01,2.716911e-01,1.194848e+00,5.277538e-02,-4.545850e-02,-4.822689e-02,-1.037256e-01,-7.180061e-01,1.452326e+00,-1.309925e+00,
-3.188200e-02,4.648831e-01,-7.608016e-02,-3.955220e-01,-1.090025e-01,9.796199e-01,-7.007172e-01,-5.916264e-01,1.700104e-01,-8.463992e-01,2.011792e-01,2.341024e-01,-3.785792e-01,8.484350e-03,2.187170e-01,2.374101e-01,8.480349e-01,2.701544e-01,-5.873190e-02,8.856217e-01,-1.225865e+00,5.889812e-01,-4.622843e+00,9.135300e-02,2.304300e-01,2.526040e-02,-2.266936e-01,5.614529e-02,1.903966e-01,-4.005340e-02,6.313195e-01,7.930960e-01,-9.437663e-01,-1.539260e+00,-2.784422e-01,-7.959383e-01,-4.088500e-01,6.585112e-01,-1.219326e+00,-3.142560e-01,-4.864085e-02,8.221827e-02,-1.667905e+00,3.370047e-02,1.551270e-02,1.870624e-01,-1.744572e-01,-2.134489e-01,8.781992e-01,1.224202e+00,
3.407670e-02,-9.943120e-01,-4.706605e-01,2.679847e-01,9.436255e-01,-9.376473e-03,2.505956e-01,1.389602e-01,3.853225e-01,4.759778e-01,6.182112e-01,6.734112e-03,-2.684954e-02,-2.616630e-02,-6.165947e-02,-6.901675e-01,-1.276195e-01,-3.563138e-01,-1.451563e+00,4.765863e-02,2.170241e-01,-2.225825e-01,-5.272152e-01,6.714981e-01,5.914903e-01,-9.252600e-03,-4.349452e-02,-2.750079e-01,-4.087657e-01,2.925438e-01,-1.844173e-01,-3.280666e-01,3.215106e-01,-3.569963e-01,-3.102003e-02,3.386134e-01,1.308403e-01,2.260481e-01,-2.477831e-01,-1.847036e-01,8.739446e-01,-5.573663e-01,-3.607520e-01,8.067928e-01,6.653220e-04,-3.851760e-01,2.060976e-01,1.195186e-01,-4.301108e-01,-7.046154e-01,
9.681910e-03,1.355464e-01,-6.213030e-01,5.461209e-01,5.039388e-01,6.330259e-01,-1.132691e+00,-6.307252e-01,-2.024840e-01,1.071955e+00,9.849156e-01,3.862191e-02,-3.041364e-01,9.523440e-03,2.229956e-01,-9.463651e-01,-2.700083e-01,4.379884e-01,-3.968535e+00,6.385826e-01,-2.107034e-01,9.691039e-01,6.231334e-01,3.416941e-02,-4.092371e-01,1.749290e-02,-3.126790e-01,2.300714e-01,-5.797639e-01,-5.980003e-01,1.457071e-01,3.986126e-01,-5.236350e-01,7.438824e-02,-6.244529e-01,1.499723e-01,4.613655e-01,-5.414570e-01,-6.165757e-01,-5.312043e-01,4.651617e-01,-1.859822e-01,-3.902274e+00,2.665352e-01,-5.688010e-03,1.351811e-01,4.612685e-01,-3.894313e-01,9.677234e-01,2.679487e-01,
-4.539090e-02,1.661486e+00,-2.689503e-01,-1.424424e+00,-3.817880e-01,1.012120e-01,5.057074e-02,3.399217e-01,-1.663750e+00,5.074906e-01,-4.571085e-01,5.939631e-01,1.553055e+00,-4.706640e-02,-1.279702e-02,7.966567e-02,6.891376e-01,7.568214e-01,-4.269175e+00,-9.452262e-01,-1.502352e-01,1.953921e-01,-1.122359e+01,-4.497101e-01,1.807720e-01,-2.143690e-02,2.102533e-01,-3.103978e-02,-2.437372e-01,2.399550e-01,-6.127031e-01,3.845842e-02,-8.741513e-01,6.552171e-01,4.079368e-01,-2.227544e-01,1.703740e-01,6.930656e-02,-8.654524e-02,-1.640293e+00,2.307953e-01,2.849184e-01,-1.264763e-01,-2.295398e-01,-2.368660e-02,1.220752e+00,-5.280464e-01,3.333348e-01,1.233945e-01,-4.004531e-01,
-3.450860e-02,2.967330e-03,1.814510e-02,-3.297820e-02,-4.379940e-02,1.726040e-02,-2.824810e-02,-4.225080e-02,3.035530e-02,-2.042720e-02,3.843450e-02,-2.347960e-02,-2.442670e-02,8.437650e-03,2.039590e-02,9.159730e-04,-3.734310e-02,-1.283200e-02,-2.083410e-02,-1.510600e-02,-3.534750e-02,-8.631470e-05,2.484440e-02,2.807670e-02,1.118030e-02,2.355230e-02,-3.149890e-02,9.132900e-03,-1.235540e-03,-5.406090e-02,4.222120e-02,-9.309950e-03,-1.283850e-02,-1.529300e-02,-1.827820e-02,9.031220e-03,-3.276860e-02,-4.213450e-02,-3.631880e-02,1.636110e-04,4.466300e-02,1.894480e-02,3.314540e-02,2.831550e-02,-2.905970e-02,2.740150e-02,-1.828850e-02,2.454560e-02,2.475130e-02,-2.250120e-02,
-1.234490e-02,-5.025282e-02,1.019259e-02,-6.985713e-02,2.604068e-01,-1.481524e+00,-2.499839e-01,8.207650e-01,1.687755e-01,3.970356e-01,6.974130e-01,8.375596e-02,9.754924e-03,1.316050e-02,4.478608e-02,-4.043162e-01,4.851722e-01,6.761184e-02,-6.353580e-02,-1.640539e-01,1.646584e-01,4.336346e-01,-1.842723e+00,1.877356e+00,-3.145655e-02,-2.750030e-02,-1.030639e-02,-1.214782e-01,-2.869940e-01,-9.623648e-03,7.380232e-01,7.218360e-01,1.359497e+00,-2.571917e-04,2.500018e-01,-4.162862e-01,-6.802119e-01,1.334250e-01,-3.867410e-01,-3.690438e-01,3.299206e-01,1.027802e-01,-4.750165e-01,-4.252529e-01,-1.095420e-02,2.180966e-01,1.745488e-01,1.014616e+00,8.729501e-01,3.791138e-01,
2.093240e-02,-1.836664e-02,2.005938e-01,1.058634e-01,6.361355e-01,-1.197900e-01,3.428792e-01,-2.795771e-01,3.024832e-01,-4.954443e-01,-5.160028e-01,2.237721e-01,-1.299452e-01,-2.364860e-02,4.084370e-01,-1.406315e-01,4.625151e-01,1.152890e-01,-3.257100e-01,-7.001638e-01,-4.555721e-01,1.401174e-01,1.347638e-01,8.210801e-02,-2.417303e-01,-4.002950e-03,-7.026924e-01,3.011757e-01,-9.956718e-01,-1.704839e-02,-2.883005e-01,-1.506256e-01,-1.949168e-01,-6.151380e-01,-5.509185e-01,2.960220e-01,2.601714e-01,-9.634371e-02,2.426544e-01,-5.112982e-01,-3.116865e-01,4.844506e-01,6.062378e-01,-4.013191e-01,-3.897180e-02,5.505406e-01,-2.482570e-01,8.435408e-02,1.960545e-01,6.293594e-01,
-4.279610e-02,4.535497e-01,-1.160331e+00,4.143259e-01,-1.392352e+00,-2.456502e-01,1.592427e-01,-4.029033e-02,3.687063e-01,1.378588e+00,-5.147363e-01,-5.827779e-01,-8.409815e-02,3.846830e-02,1.105202e-01,6.765454e-02,-2.409748e-01,1.606538e+00,5.346088e-01,-3.892572e-01,-1.196463e-01,-1.345884e-01,-1.152661e-01,1.098329e+00,-1.701553e+00,4.116840e-02,3.638199e-01,-1.510809e-01,3.367430e-01,-2.168267e+00,2.072020e+00,8.053084e-01,7.702999e-03,-7.605034e-02,-5.602128e-01,-1.299348e+00,2.167427e-01,1.301427e-01,3.121132e-01,-1.170742e-01,8.300573e-01,-6.524140e-01,-3.782697e-01,1.321295e+00,1.806750e-02,1.323068e-01,-6.958859e-01,-1.469300e-01,9.725784e-01,-6.727507e-01,
2.725340e-03,-5.472020e-02,-1.420870e-02,2.487340e-02,2.654990e-02,3.775500e-02,-1.392880e-02,3.911400e-02,-5.091320e-02,-2.679260e-02,-3.493300e-02,-1.102800e-02,-4.845030e-02,-5.022110e-02,-3.163410e-02,8.753910e-03,-1.981210e-02,-2.241210e-02,8.103180e-03,-2.334470e-02,-3.544060e-02,-4.951830e-03,-7.448100e-03,5.934150e-03,-5.049640e-02,4.172750e-02,3.658680e-02,-2.341020e-02,-4.367440e-03,5.474970e-04,7.956060e-03,-7.351710e-03,-4.855590e-02,-2.790380e-02,-3.822670e-02,-5.277570e-03,-3.609080e-02,1.695910e-02,-2.392390e-02,-5.102400e-02,-5.027690e-02,-5.333900e-02,9.754700e-03,3.872040e-02,-3.102030e-02,-3.832680e-02,-2.725760e-02,-7.915520e-03,3.655390e-02,-2.979520e-02,
1.567850e-02,1.101319e+00,-3.301489e-02,-3.654135e-01,3.378525e-01,-6.002649e-01,-3.093340e-01,-6.805291e-02,6.051177e-01,-7.362462e-01,1.785847e-01,3.597000e-01,-3.807093e-01,-3.627750e-02,2.234894e-01,6.444200e-03,5.035613e-01,3.786682e-01,-6.354136e-01,-1.033590e+00,-1.231614e-01,4.120585e-01,-1.674986e+00,2.681856e+00,5.589952e-01,2.949200e-02,-8.306050e-01,4.133807e-01,-8.746529e-02,2.594016e-01,-2.452658e-01,4.515890e-01,1.626506e+00,-2.885315e+00,-2.945158e-01,8.730180e-01,1.010200e-01,-3.785282e-01,-3.497991e-01,-5.993558e-01,-2.669898e-01,-2.120509e-01,-2.346890e-01,-2.716323e-01,5.271670e-02,5.105351e-01,6.125119e-01,2.750451e-01,1.288230e-01,2.826461e-01,
1.401720e-03,-8.427978e-01,7.809414e-01,8.012046e-01,-7.009805e-02,6.140117e-01,-6.765836e-01,1.784753e-01,-1.004338e+00,4.863742e-01,2.999289e-01,1.535001e-01,2.452184e-01,4.423480e-02,-1.138722e+00,-3.644525e-01,-1.802555e-01,2.121305e-01,3.412935e-01,-3.673728e-01,4.278460e-01,2.767557e-01,9.409530e-02,9.937574e-03,3.629686e-02,5.211520e-02,7.833850e-01,1.476360e-01,7.670148e-01,3.474589e-01,2.614534e-01,1.789814e-01,3.091858e-01,4.792876e-02,1.553142e-02,-1.114157e-01,-7.352841e-01,5.214413e-01,-7.810258e-01,1.064629e+00,-3.676923e-02,4.765490e-01,6.697578e-01,3.692015e-01,-6.516220e-03,5.699278e-01,4.739655e-01,3.916799e-01,-4.405554e-01,-8.777572e-01,
3.930880e-03,2.160105e-01,2.379473e-01,1.035796e-01,3.236369e-01,2.471874e-01,-5.186920e-01,1.292458e-01,-3.760678e-01,-4.325621e-01,7.890726e-01,2.793914e-01,-1.925951e-01,3.038330e-03,-2.443513e-01,2.203416e-02,8.197314e-01,7.824765e-01,-3.150547e-02,3.333230e-01,-1.188424e-01,5.306820e-01,4.461692e-01,1.117160e+00,-2.106778e-01,-2.580890e-02,-1.348658e-01,-5.591678e-02,-1.431953e-01,-2.092380e-01,1.225636e+00,9.956751e-01,8.116949e-01,-6.741072e-01,-2.323953e-01,-7.715424e-01,-3.876765e-01,7.181357e-01,2.683311e-01,-1.226836e+00,2.210236e-01,-1.519750e-01,-1.636996e+00,3.045527e-02,4.005940e-03,6.410689e-01,-4.570855e-01,2.429795e-01,1.001747e+00,1.273265e-01,
4.288150e-02,-3.208359e-01,2.259572e-01,2.498388e-01,-3.214504e-01,6.467491e-02,3.786992e-01,1.164539e-01,-3.936668e-02,-4.474064e-02,-1.567935e-01,5.823988e-01,7.010230e-01,-1.779080e-02,3.273711e-02,6.456558e-01,3.213418e-01,-1.529911e-01,2.278592e-01,3.523252e-01,-2.744721e-02,-3.492325e-01,-2.615499e-01,2.427273e-01,1.048692e-01,1.392360e-02,5.877720e-01,9.348637e-01,-6.913945e-02,7.344840e-02,5.607608e-01,-4.102356e-01,2.210135e-01,-6.018186e-01,2.184095e-01,-4.464816e-02,-9.009742e-01,1.289376e-01,-1.937656e-01,1.131758e-01,-8.261058e-02,-3.893085e-01,-2.533887e-01,1.547356e-02,-2.116080e-02,-8.379725e-01,-2.628089e-01,-2.191542e-01,1.548176e-01,-7.896851e-01,
-8.413510e-01,
-8.206069e-01,
6.384022e-01,
6.120535e-02,
-1.877815e-01,
-6.390290e-03,
-5.806660e-03,
8.370356e-02,
9.594816e-02,
-8.195969e-01,
-8.732880e-01,
-2.930983e-01,
-2.911498e-01,
2.275860e-01,
-3.466522e-02,
5.725201e-01,
-2.257200e-02,
1.062803e-01,
-1.349366e-01,
-1.129098e-01,
8.259606e-01,
7.253410e-01,
-1.948630e-02,
-1.666069e-01,
-4.354210e-02,
-2.144822e-01,
-1.187360e-02,
6.906516e-02,
-9.027830e-03,
-1.037899e-01,
-2.072254e-02,
7.989874e-01,
7.928056e-01,
-4.627097e-01,
-6.694694e-01,
-9.076186e-01,
2.103666e-01,
-4.667779e-01,
-6.603622e-02,
-5.428072e-02,
2.246160e-01,
-1.754980e-02,
-2.936419e-01,
6.092132e-01,
-6.033460e-01,
-1.450210e-02,
-4.206149e-01,
-1.074282e+00,
-6.067861e-01,
-2.010819e-01,
1.880184e-01,7.494693e-01,-3.052530e-01,-1.197577e-01,6.085077e-01,-4.201780e-02,2.089810e-02,8.824499e-02,-5.451136e-01,8.819700e-02,-6.935721e-01,-1.214134e+00,-5.766752e-01,-1.206597e-01,-4.926785e-01,-8.678295e-02,-3.307160e-02,8.064683e-02,1.169366e+00,1.699207e+00,-2.479887e+00,-1.004091e-02,-1.085760e-03,3.870291e-01,-4.894830e-02,9.628013e-01,-1.972920e-03,-3.277625e-01,1.393290e-03,3.581917e-01,8.910367e-01,1.287928e-01,9.217738e-01,-2.305984e-01,5.277376e-01,-1.625481e-01,1.866986e-02,-1.030460e+00,6.286742e-01,1.241293e+00,9.059722e-01,-3.066290e-02,-2.746853e-01,3.750207e-01,3.946993e-02,-2.684280e-03,1.102215e+00,-5.559978e-01,7.110482e-01,4.550127e-01,
1.209374e-01,-2.974230e-01,-3.424128e-01,-4.882846e-01,-1.845821e+00,-2.352810e-02,-3.222780e-02,-7.174720e-01,6.633377e-01,-4.857849e-01,9.419180e-01,-1.330520e-01,-1.096552e+00,8.277062e-02,4.424112e-01,6.735213e-01,1.023840e-02,5.611969e-02,-2.031749e+00,-3.523123e-01,-2.990812e-01,6.791540e-01,-1.831640e-02,-2.521034e-01,-5.623300e-02,6.077596e-01,-1.151880e-02,9.623418e-01,9.476840e-03,2.949335e-01,-1.127288e+00,5.561408e-01,-3.053927e-01,-3.399574e-02,-8.477135e-01,1.185453e-01,-9.422228e-02,-1.022029e+00,-3.585586e-01,1.225483e+00,-3.746205e-01,-2.986700e-02,-5.718904e-01,4.785841e-01,-1.191291e+00,-2.682480e-02,-2.009389e+00,4.030636e-02,-1.671303e-01,-1.343828e+00,
-6.193427e-01,-4.604807e-02,-4.918207e+00,1.695285e-01,-3.447450e-02,3.081580e-02,4.772960e-02,1.948241e-02,7.928494e-01,4.671460e-01,3.343886e+00,1.168048e-01,-1.473453e+00,1.901444e+00,7.827882e-01,-1.305911e-01,6.389750e-03,-5.799195e+00,3.378336e-01,-2.268331e+00,1.846121e-01,-3.681584e-01,-4.834250e-02,8.689718e-01,1.277480e-03,-4.237930e-01,2.558010e-02,1.743638e+00,-9.985840e-03,-7.253671e-01,-6.934615e-01,3.792920e-01,1.132430e+00,-1.081525e+00,3.343958e-01,2.403705e-02,-6.641027e-01,4.090230e-02,-8.175848e-01,-1.278178e+00,3.932496e-02,2.002920e-02,4.156758e+00,-1.734581e+00,-9.586689e-01,2.594420e-02,-3.962620e-02,-2.554694e+00,-1.756955e-01,-1.639954e+00,
-1.343295e-01,9.774636e-01,-1.091744e-01,-1.465445e-01,1.294134e-01,-4.537170e-02,3.929970e-02,5.061021e-01,1.733894e-01,9.509208e-01,-7.610211e-01,2.957222e-01,-8.046827e-03,-3.281286e-01,-9.986578e-02,6.716616e-02,-9.019020e-04,-2.877407e-01,1.416342e+00,-1.135868e-02,1.407275e-01,1.423097e-01,4.136200e-02,5.347414e-02,-2.294190e-02,-1.922321e-01,4.114180e-02,-5.202110e-01,-5.099980e-02,4.953883e-01,2.667301e-01,-1.424857e+00,1.513011e-01,2.101502e-01,1.222394e-01,1.275900e-01,2.497377e-01,-1.638199e+00,-5.199344e-01,-8.902113e-01,5.207996e-01,4.435030e-02,-2.357284e-01,4.256593e-01,-7.224702e-01,3.279040e-02,7.560381e-01,-6.964013e-02,-1.921064e-01,-3.076621e-01,
4.866407e-01,2.925360e-01,-4.615710e-01,4.535430e-02,-1.452540e-01,-1.981740e-02,-3.222060e-02,-1.603670e-01,-9.119963e-01,-1.577770e-01,-3.554490e-01,-2.122992e-01,-1.745988e-01,3.468690e-02,1.263403e-01,1.986651e-01,4.447850e-02,-5.676510e-01,-4.742011e-01,-1.667950e+00,-7.706771e-01,-2.348045e-01,-4.818250e-02,7.259336e-02,7.024550e-03,4.171400e-02,9.045900e-03,1.053442e+00,4.605850e-02,-1.916490e+00,8.146866e-02,-2.808596e-01,1.593629e+00,9.954510e-01,-3.912354e-01,1.246470e+00,-8.077541e-01,-1.978500e+00,-4.923110e-01,-6.483100e-01,7.179530e-01,-2.941420e-03,7.254330e-01,-2.153829e-01,2.811545e-01,8.781710e-03,1.190830e+00,2.342090e+00,2.416150e-01,7.012783e-01,
3.360447e-02,-8.444386e-02,-4.999357e-01,-2.490015e-01,3.696664e-01,5.751480e-03,-4.916190e-02,9.275905e-01,-1.245914e-01,-6.677631e-01,1.052743e+00,6.765016e-01,2.739376e-01,-1.000695e-01,3.933155e-01,3.307760e-01,-6.409480e-03,-4.066200e-01,5.589924e-01,-2.580755e-01,4.316062e-01,-1.039280e+00,2.742080e-02,-2.189623e-01,2.100500e-02,1.494730e-01,-9.080300e-03,-4.025012e+00,-6.660510e-03,1.484567e-01,6.427861e-02,-4.876115e-02,-8.146780e+00,-8.771790e-01,-4.306268e-01,3.991170e-02,-7.982252e+00,1.744724e+00,1.677862e-01,-9.697848e-01,9.610523e-01,-3.590090e-02,-4.819162e-01,-1.760674e-01,4.978874e-01,-4.168370e-02,-9.308300e-01,-3.964627e-01,6.756323e-01,-9.166899e-02,
-2.350181e-01,-1.703679e+00,-1.662156e+00,-7.069077e-01,-1.763455e+00,-6.531360e-03,-4.666770e-02,2.730428e+00,9.958841e-01,-2.008323e-01,7.742171e-01,-1.101239e-01,-1.307786e-01,2.103005e+00,4.518975e-01,-1.166527e-01,-2.243910e-02,1.410483e+00,3.675145e-01,6.225867e-01,-1.161200e-01,7.604887e-01,8.575120e-03,3.279582e-01,3.525470e-02,3.519989e-01,-3.364770e-02,6.848835e-02,3.416650e-02,-2.187975e+00,4.264811e-02,-2.595076e-01,1.829543e+00,-6.229352e-01,-1.544415e-01,3.714976e-01,9.143267e-01,-2.462405e+00,-2.040267e-01,1.494425e+00,2.005070e+00,-5.260680e-02,1.685529e+00,3.182548e-01,2.941723e-01,-1.376000e-02,2.784741e+00,1.964046e+00,-6.725134e-01,5.169228e-01,
4.137083e-01,2.048700e-01,1.412906e-01,-1.540840e-01,-2.072731e-01,2.840390e-02,-2.114540e-02,-4.424466e-01,-1.125684e-01,7.830141e-02,1.041352e-01,2.052619e-01,3.115584e-01,2.253204e-01,-5.261763e-01,7.792555e-01,-3.354520e-02,1.145858e+00,3.677582e-01,5.353087e-01,4.377277e-01,1.430213e-01,3.937910e-02,1.683593e-01,1.489530e-01,3.928939e-01,3.403450e-02,-1.582383e-01,-8.680890e-03,2.220626e-01,-4.980035e-01,-1.136410e-01,4.716966e-01,4.088722e-01,3.886381e-01,2.956880e-01,1.040936e-01,-4.767698e-01,-5.742199e-02,9.073206e-01,-4.511545e-01,4.613440e-02,-2.085623e-01,2.837851e-01,-2.072209e-01,3.351310e-02,2.510050e-01,4.116587e-01,-8.581263e-01,-1.599080e+00,
2.203133e-01,6.354779e-01,-8.143614e-03,4.107426e-01,1.814414e-01,4.169330e-02,-4.021480e-02,5.357319e-01,-5.057101e-01,-6.024865e+00,3.416083e-01,9.958652e-02,5.107949e-01,-8.765483e-01,1.599611e-01,5.658110e-02,3.290150e-03,-3.011014e-02,1.971142e+00,3.153763e-01,4.142351e-01,-5.752960e-01,-6.031750e-04,-1.026645e-02,-1.407000e-02,-4.509779e+00,4.013610e-03,6.657929e-01,4.193090e-02,1.959576e-01,2.550097e-01,1.528802e-01,-1.373546e-01,-2.325291e+00,1.039247e+00,-2.472363e-01,-5.461747e-01,5.831212e-01,-5.655530e-01,1.094087e+00,-2.058068e-01,3.469670e-02,9.069626e-01,-5.701664e-01,-7.568567e-01,4.167130e-03,-4.101145e-01,1.043963e-02,7.457518e-03,-3.323035e-01,
4.211318e-02,-4.903623e-01,6.775482e-01,3.864050e-01,4.130067e-02,6.314640e-03,-2.978910e-02,6.111756e-01,-1.835502e-01,1.540932e+00,2.787549e-01,-1.907816e-01,-5.956212e-02,1.462331e-01,5.313762e-02,3.690054e-01,3.149810e-02,2.254587e+00,7.312033e-01,5.800186e-01,-9.952623e-01,1.760152e-01,-3.740740e-02,1.122088e+00,8.155940e-02,4.543876e-01,-4.435540e-02,1.289036e+00,4.715250e-02,-1.019482e+00,3.472392e-01,-2.991340e-01,-4.506284e-01,9.379547e-01,-8.910056e-01,-2.221081e-01,1.244046e+00,7.110582e-01,5.808676e-02,4.051598e-01,6.584900e-01,1.369050e-02,4.332372e-01,8.586038e-01,7.226306e-01,1.129440e-02,-8.721721e-02,1.249316e+00,1.146515e-01,8.540216e-02,
-2.229824e-01,4.079733e-02,-1.027498e+00,1.809879e-01,1.159880e+00,1.582960e-02,4.822000e-02,4.670560e-01,-3.339049e-01,-7.445444e-01,-3.444601e-01,-3.985462e-01,4.921027e-01,-3.344124e-01,5.161289e-01,3.821776e-01,-2.724980e-02,-1.157278e-01,-1.877993e+00,7.371070e-01,3.983642e-01,4.253790e-01,1.404130e-02,2.102950e-01,-3.222420e-02,2.395696e-01,-2.978690e-02,4.715088e-01,-2.630040e-02,5.689567e-01,-6.021234e-02,3.742027e-01,8.223637e-01,-4.347985e-01,3.185184e-01,3.008284e-01,-3.076895e-01,5.589902e-02,4.576397e-01,-2.752053e-03,-3.421945e-01,2.854230e-02,-3.470216e-01,-6.283113e-01,-9.544716e-01,2.821230e-02,1.296934e-01,-1.577779e-01,-3.366461e-01,6.809519e-02,
-1.074957e-01,-5.579018e-02,9.748366e-02,1.759768e-01,9.939078e-02,-1.385830e-02,-6.504390e-03,-2.096507e-01,4.733463e-02,5.835660e-02,5.225360e-02,-1.492617e-01,-1.846925e-01,2.036372e-01,1.743131e-01,8.524361e-02,-4.093810e-02,6.767473e-02,2.002950e-01,-1.708553e-01,-1.961059e-02,-1.214187e-01,-3.910840e-02,7.086829e-03,-3.150720e-02,-2.163788e-01,-4.103620e-02,8.861338e-02,-3.760280e-02,-2.069467e-02,-1.324283e-02,1.435561e+00,3.170273e-01,1.011559e-01,-6.226749e-02,1.604390e-01,-1.386042e-01,7.188233e-01,2.801285e-01,1.570502e-01,2.258157e-01,-4.995180e-03,-4.422742e-01,-7.699845e-02,4.352022e-01,-4.918650e-03,3.932435e-01,7.610614e-02,-3.557581e-01,2.448759e-01,
6.139415e-02,-9.829148e-01,4.755448e-01,2.327645e-01,-1.024136e+00,-3.185760e-02,-2.923690e-02,-5.924530e-01,8.107039e-01,3.794121e-01,9.046789e-02,-1.614311e-01,-9.465791e-02,2.159687e-01,3.052250e-01,4.673533e-01,4.785230e-02,6.968871e-01,1.894982e-01,1.533312e-01,3.191407e-01,2.511548e-01,3.880500e-02,-4.091751e-01,8.050180e-02,1.590760e-01,-5.201580e-02,-9.427132e-02,-7.722870e-03,2.887729e-01,3.168626e-01,-3.518198e-02,-5.458896e-01,2.295429e-01,-1.140830e-02,-6.846436e-01,2.498072e-01,-6.072445e-01,1.421353e-01,-2.568220e-01,-2.374217e-01,-1.082380e-02,-1.008378e-01,-1.292896e+00,-6.273790e-01,5.097240e-02,-6.781428e-01,6.117470e-02,9.098362e-01,1.259694e-01,
2.722585e-02,1.848516e-01,-6.081737e-01,-9.337055e-03,6.081695e-01,3.484550e-02,1.551390e-04,-2.578106e-01,6.425869e-01,6.522189e-01,-1.165880e-01,-1.815493e-01,4.003011e-01,4.272385e-01,-9.768118e-03,1.369020e-01,-7.588890e-04,-6.559431e-01,-7.092393e-05,-2.349161e-01,3.030599e-01,-1.900824e-01,2.133580e-02,-4.996848e-01,6.339300e-02,-9.144098e-02,-6.271960e-03,-6.569525e-01,4.872890e-04,3.931185e-02,1.373300e-01,-1.233042e+00,4.150134e-02,6.653982e-02,3.057805e-01,-2.437036e-01,-3.734979e-02,1.341795e+00,1.553253e-02,-4.297749e-01,-1.092259e-01,4.255190e-02,-2.180590e-01,-4.992772e-01,3.756690e-01,-3.514940e-02,5.453186e-01,-3.065306e-01,4.059935e-02,-2.308357e-01,
7.230929e-02,1.388226e+00,-3.859120e-01,-2.327417e-02,7.763787e-01,-2.268090e-02,-1.308730e-02,-5.995060e-02,8.258126e-01,7.145683e-02,3.694905e-01,2.673802e-01,-4.554654e-01,-1.444159e-01,1.884717e-01,6.122459e-01,-3.640450e-03,1.604898e-01,-7.750938e-01,4.414867e-01,4.025050e-02,2.752147e-01,-7.613800e-03,-2.726508e-01,7.862110e-02,1.236558e-01,-1.074570e-02,7.256335e-01,-1.458760e-02,4.554982e-01,3.018795e-01,-9.488827e-01,-3.247634e-01,7.132675e-02,1.802291e-01,8.564451e-01,-7.512063e-01,-1.331143e+00,4.910249e-01,-1.107674e-01,-9.020740e-02,3.325150e-02,7.337870e-01,-3.480011e-02,-6.050727e-02,1.629910e-02,3.894244e-01,5.817685e-01,-3.144411e-01,-2.554735e-01,
6.064000e-01,-6.607682e-01,8.458998e-02,1.141649e-01,1.295016e+00,3.615920e-02,-2.734770e-02,8.785587e-01,5.681821e-01,2.490007e-01,2.320614e-01,1.229949e-01,-4.631462e-01,-7.749256e-01,-4.010839e-01,6.510829e-02,-7.234820e-03,-3.341575e-01,3.859600e-01,7.203619e-01,-2.225745e-01,-4.322168e-01,-1.815960e-02,-8.318614e-01,-4.980990e-02,1.236232e-01,-4.642570e-02,2.626520e-01,-2.622220e-02,5.884635e-01,1.508944e-01,-8.733970e-02,-7.965874e-01,-4.795121e-01,7.322311e-01,-5.557551e-03,-3.142323e-02,-2.772692e+00,2.042723e-01,-9.235529e-02,4.739267e-01,2.637730e-02,9.260332e-01,-1.878335e-01,1.104630e+00,-4.698600e-02,4.635575e-01,-5.959008e-01,1.238894e-01,6.538544e-02,
7.670490e-02,-6.594368e-01,-9.315038e-01,4.143954e-01,2.529499e+00,3.458350e-02,-3.680140e-02,4.836435e-01,1.109637e-01,3.052836e-01,5.297212e-01,-4.208981e-01,9.060053e-01,-2.017955e-01,-1.051400e-01,8.601946e-01,-4.948280e-02,1.867535e+00,6.005390e-01,2.786648e+00,8.997225e-01,-4.005852e-01,1.347040e-02,3.505174e-01,-4.710060e-02,3.083083e-01,1.335430e-02,2.931695e-01,-4.466060e-02,6.953510e-01,1.187996e+00,1.098956e+00,1.045385e+00,-3.287487e-01,6.688681e-01,2.157077e-01,1.540023e-01,8.425010e-01,1.025258e+00,1.687132e+00,7.459926e-01,1.026340e-03,6.654776e-01,-8.233609e-01,2.291704e+00,-3.286570e-02,1.044355e+00,-4.573511e-01,8.341995e-01,5.083183e-01,
2.847902e-01,-3.758870e-01,3.829876e-01,3.304589e-01,-1.055143e-01,-7.772590e-03,-4.713290e-02,1.722001e-01,2.582925e-01,1.143541e+00,1.177393e+00,-3.952058e-02,1.023931e+00,9.324829e-01,4.244786e-01,3.429086e-01,-3.041460e-02,-5.241033e-02,-4.662608e-01,1.806752e-02,6.399258e-02,3.823284e-01,2.238740e-02,2.994817e-01,2.699990e-02,-6.562253e+00,3.086830e-02,3.866562e-01,4.277270e-02,-4.144672e-01,-1.627497e-01,-2.780442e-01,8.088546e-01,-1.592002e+00,-2.221603e-01,-2.598187e+00,-1.237346e+00,1.115496e-01,-4.897073e-01,-6.048313e-01,7.523608e-01,-3.058530e-02,-9.311261e-01,-5.399856e-01,-1.629625e-01,1.806670e-02,-2.280019e+00,-4.881824e-01,-1.879360e+00,1.108934e+00,
-1.555449e-01,2.841711e-01,4.669683e-01,-7.266794e-01,1.204270e+00,4.436410e-02,5.882730e-03,-9.099837e-02,6.212893e-01,5.874414e-01,-8.429544e-01,2.468759e-01,3.390203e-01,-1.172172e+00,8.881078e-01,-1.607628e-01,-1.074190e-02,1.771592e+00,-8.779651e-01,2.630341e-01,2.841122e-01,-7.557412e-01,2.471540e-03,7.006350e-01,-2.454280e-02,3.749803e-01,1.786670e-04,3.617520e-01,-3.172930e-02,5.682550e-01,8.933656e-01,9.724692e-02,1.348618e-02,8.587978e-01,2.841269e-01,6.881743e-01,-2.177283e-01,1.763579e+00,6.068538e-01,2.828394e+00,2.072915e-01,-2.924750e-02,1.157015e+00,1.545624e-01,7.905223e-01,-5.071310e-03,-1.847827e-01,1.421036e+00,-6.522712e-01,1.557413e+00,
8.097593e-01,-3.812195e-02,2.960060e-01,-9.818133e-02,2.315544e-01,-2.881520e-02,-3.330080e-02,-6.618828e-01,8.015646e-01,2.250459e-01,-1.077242e+00,5.373611e-02,-3.898138e-02,5.068476e-01,1.390278e-01,-1.452387e-01,2.705100e-02,-8.967989e-01,4.216472e-02,1.101218e-01,-2.924022e-02,-4.907867e-01,-7.974460e-03,9.634992e-01,4.027300e-02,6.651521e-02,3.322670e-02,-3.656873e-01,-3.123540e-02,-4.970973e-01,1.280412e-01,2.060272e-01,5.254538e-02,5.155665e-01,-5.753877e-01,-3.504491e-01,4.909633e-01,-2.092089e+00,-1.053644e-01,7.084042e-01,1.230833e-02,3.914330e-02,-4.866182e-01,3.801872e-01,1.672673e-01,2.518520e-02,7.441647e-01,6.923535e-01,-6.857092e-01,6.398950e-01,
-1.965266e+00,1.266422e+00,-7.529197e-01,-1.207379e+00,-2.004862e-01,-2.187690e-02,-2.658250e-02,-8.302459e-02,7.612497e-01,-4.817539e+00,-7.637137e-01,-1.812764e+00,2.182499e+00,3.209970e-01,-6.830155e-01,4.829502e-01,-4.562470e-02,1.080361e+00,9.630151e-01,1.038193e+00,1.476805e-01,9.142560e-01,-2.540550e-02,-4.239624e-01,3.207930e-02,-2.622326e-01,-4.889760e-02,6.260252e-01,-5.662230e-03,-3.948752e+00,6.903247e-01,5.115432e-01,-9.102231e-01,-4.973344e-01,-1.033262e+00,-8.865836e-01,3.051755e-01,-2.015022e+00,1.636580e+00,1.772418e+00,-4.332325e-01,3.360750e-02,2.559870e-01,7.477044e-01,-2.999421e-02,3.262800e-02,-8.255387e-01,2.068565e-01,1.008988e+00,-2.601910e+00,
-4.213476e-02,-2.763437e-01,-3.020548e-02,-1.543874e-01,2.355893e-01,-2.570240e-02,4.201720e-02,-1.554484e-01,1.629045e-01,1.442053e-01,1.101022e-01,-1.113550e-01,-1.677636e-01,3.705934e-01,2.768422e-01,1.111533e-01,3.907710e-02,9.819798e-01,1.976385e-01,1.332600e-01,1.542773e-01,3.210187e-02,-4.578260e-02,2.041068e-01,6.573390e-02,1.297393e-02,2.650530e-02,2.671436e-01,3.114750e-02,8.408480e-02,9.561308e-02,-1.551092e+00,4.116320e-01,5.224490e-03,1.382982e-02,-3.684426e-02,-1.941843e-01,-1.412982e-01,3.634951e-01,-1.042583e+00,-3.224666e-01,3.972190e-02,1.351271e-01,-5.373935e-02,3.844707e-01,-5.190480e-03,1.538215e-01,8.401639e-03,3.478522e-01,2.893836e-01,
2.091163e-01,-1.621468e+00,3.475494e-02,2.836449e-01,4.517708e-01,-5.087930e-02,1.806560e-02,4.283221e-02,-4.858007e-01,-1.437527e+00,-5.165772e-01,-2.583591e-01,-3.098761e-01,-2.187517e-01,2.134093e-03,-2.745653e-02,-1.677170e-02,-9.937105e-01,1.175755e+00,5.141984e-01,-8.138495e-03,3.527520e-01,-1.571550e-03,1.030117e-01,9.545110e-03,-7.848583e-01,3.779940e-02,1.486047e+00,4.401600e-02,-3.647098e-01,-1.111454e-01,-2.054542e-03,5.731121e-01,-9.601727e-01,4.024690e-01,-1.249533e+00,1.835865e-01,-3.322461e+00,7.564971e-02,-6.107577e-02,-2.332323e-01,-4.944820e-02,6.885884e-01,8.662108e-01,-4.925178e+00,2.356360e-02,6.462002e-02,-1.300717e+00,3.557485e-01,-6.313309e-02,
1.062564e+00,-2.972184e-01,-2.602068e-01,-4.200305e-02,5.780061e-01,-2.906510e-02,-6.079890e-03,1.410351e+00,-4.267682e-01,-7.684693e-01,2.941810e-01,6.028932e-01,1.792367e-01,-5.444486e-01,-3.392650e-01,6.564947e-02,-2.477760e-02,1.155158e+00,-3.418559e-01,-1.420892e-01,8.793287e-02,3.266686e-01,3.434040e-02,4.785049e-01,1.380090e-01,-4.604537e-01,-3.285590e-02,1.342520e+00,-3.244620e-02,3.757000e-01,7.696807e-01,-2.589030e+00,7.713051e-02,-4.185781e-01,5.090870e-02,-2.195511e-01,-1.066489e+00,1.677851e-01,2.242084e-01,8.650894e-01,3.037218e-01,1.756540e-02,-4.989234e-03,8.999872e-01,3.903830e-01,2.367050e-02,-6.878275e-01,4.574241e-01,7.773073e-01,-2.667961e-01,
-1.869278e-01,-4.295637e-02,-6.563334e-01,8.090907e-02,7.640994e-01,1.217570e-02,2.050180e-02,8.447972e-01,-2.741394e-01,-3.411974e-01,3.636848e-01,-6.476574e-02,5.131129e-01,2.474949e-01,-6.014500e-01,-1.093795e-02,2.167260e-02,4.067745e-01,-2.832391e-01,6.981959e-01,1.300331e-01,2.201861e-01,2.963950e-02,9.067846e-04,-4.404970e-02,6.638691e-02,-2.874300e-02,9.168373e-01,2.323050e-02,-1.880950e-01,5.135055e-01,-9.894040e-02,8.902657e-01,-5.227616e-01,-2.449933e-01,9.527478e-02,6.351154e-02,-1.083491e+00,-5.431854e-02,8.496064e-01,3.273343e-01,2.460930e-02,-8.010478e-02,1.106560e+00,1.099128e-02,3.736390e-02,-1.634421e+00,-2.038275e-01,4.218696e-01,-2.852329e-02,
8.905731e-01,1.680379e-01,1.067257e-01,-6.186904e-01,1.152809e+00,2.703980e-02,-3.159970e-02,-4.851813e+00,-3.199078e-01,6.099999e-01,7.449983e-01,-4.883502e-01,1.230024e+00,-1.697694e+00,3.336738e-01,4.805102e-01,-3.371240e-02,-5.255038e-01,-1.684139e-01,9.230097e-01,-3.099481e-01,-7.019542e-01,2.765150e-02,1.366162e-02,2.519950e-02,-1.980536e+00,-2.769780e-02,1.138804e+00,3.495190e-02,1.528992e-02,-3.423043e-01,5.676522e-02,-4.469647e-01,6.683570e-01,1.623563e-01,-1.885285e+00,-1.240671e+00,2.085810e-01,-1.003818e-02,8.313099e-01,-1.648294e+00,1.192100e-02,-5.372748e-01,2.674655e-01,-2.460274e-01,4.405800e-02,-1.684147e+00,-2.209481e-01,-3.112551e+00,9.382494e-01,
-2.341000e-02,-4.670130e-02,1.694710e-02,1.497390e-02,-5.199400e-02,3.881010e-02,-2.982120e-04,6.840070e-03,2.139670e-02,1.252000e-02,4.158650e-02,-1.936550e-03,-2.480930e-02,-1.230010e-02,-3.740400e-02,-3.805970e-02,-1.140070e-02,3.154930e-02,2.674680e-02,1.213470e-03,7.667260e-03,-3.327040e-02,-3.403920e-02,-4.340270e-02,-3.852850e-02,-1.961960e-02,4.666780e-02,2.032560e-03,-2.986440e-02,-4.882960e-02,-1.033040e-02,-4.677390e-02,-1.763160e-02,7.019450e-04,-3.314480e-02,-3.380720e-02,-1.667920e-02,-3.576700e-03,3.831580e-03,4.118730e-02,-3.906380e-02,2.509800e-02,-4.042870e-02,-4.792660e-02,-3.088580e-02,2.687130e-02,-4.810810e-02,-5.201870e-02,-8.209510e-04,-2.165640e-03,
-8.114303e-02,6.125365e-01,-1.016607e+00,1.720932e-01,-8.293910e-03,7.754230e-03,1.880020e-02,7.044437e-01,-1.135026e+00,-9.851708e-01,7.031835e-02,-1.941901e-01,2.315211e-02,-2.246628e+00,7.041184e-02,2.185357e-01,3.641270e-02,-3.649998e-01,4.461547e-01,4.050827e-01,5.285596e-05,-1.977967e-01,-3.173780e-02,-2.246131e-01,-1.877520e-02,8.838014e-02,-3.685930e-02,1.966463e-01,-3.009750e-02,2.753005e-01,-7.441583e-02,-1.663449e-01,5.018753e-01,-7.052878e-01,3.025869e-01,-3.638967e-01,4.529588e-01,1.759783e+00,3.503597e-01,1.761385e+00,1.955611e-01,3.659780e-02,3.192948e-01,8.720336e-01,-1.943427e-01,3.443300e-02,4.095455e-01,-1.290835e+00,-1.361272e-01,2.253350e-01,
1.517302e+00,1.723747e+00,7.825265e-02,-2.849151e-01,3.021927e-01,4.481500e-02,-3.532180e-02,5.017282e-01,3.674856e-01,-4.102807e-01,2.003326e-01,-1.105848e+00,-1.108482e-01,1.591030e-02,-1.097631e+00,4.665515e-01,4.884190e-02,1.619413e+00,-1.008873e+00,-2.435243e-01,-7.521643e-01,4.589469e-01,-6.356350e-03,-5.417826e-01,1.621750e-01,-6.590425e-01,-2.904380e-02,1.271730e+00,-3.874980e-02,4.434354e-01,8.620097e-01,1.108378e-01,1.463439e+00,-8.783981e-01,8.413026e-01,-3.308470e-01,1.518253e-01,-5.080758e-01,2.257975e-01,-5.957594e-01,4.523671e-01,-4.459300e-02,-1.524340e-01,2.068692e+00,2.601469e-01,2.488330e-02,6.700109e-01,2.417885e-01,1.346032e+00,-8.088336e-01,
6.991062e-01,9.567963e-01,-1.495084e+00,7.660517e-01,-4.720882e+00,-1.719610e-02,9.235660e-03,-1.042655e+00,3.592235e-01,-1.260695e+00,-2.262189e+00,3.368722e-01,8.334198e-01,1.538721e+00,3.813750e-01,1.720990e+00,8.129120e-03,-1.977910e+00,3.315110e-01,-5.751578e+00,5.763143e-01,2.861843e-01,2.054680e-02,2.755211e-01,2.200870e-02,-1.432593e+00,-2.871500e-02,1.200567e-01,-3.415030e-02,-2.064416e+00,-1.297715e+00,5.474502e-01,1.700274e-01,-3.118888e+00,-1.970164e+00,-2.105848e-02,-5.038561e-01,-2.883257e+00,-1.131866e+00,-4.506671e+00,-1.871509e+00,1.165270e-02,-1.015502e+00,1.532273e+00,-7.409266e+00,-3.433600e-02,-9.388721e-01,-1.349045e-02,-7.534803e-02,3.328644e-01,
-1.930966e+00,3.775548e+00,-8.993713e-01,-5.760522e-01,-1.233948e+00,-1.225350e-02,2.749870e-02,-1.445174e+00,4.927853e-01,-1.933097e+00,-3.892436e+00,-5.746524e-01,8.872945e-01,7.482730e-01,-6.536058e-01,-1.877571e-01,-7.760300e-03,-1.282235e-01,7.455088e-01,-1.938641e+00,4.272159e-01,2.002132e-01,2.698370e-02,-4.081357e-01,1.280590e-02,-3.997757e+00,4.368650e-02,-1.559468e+00,-2.933590e-02,1.756048e-01,8.445051e-01,4.103842e-02,8.604915e-02,-3.310922e+00,-7.286312e-01,-5.979194e+00,-6.979979e-01,-6.373301e+00,1.744865e-01,-3.868023e+00,6.644792e-01,-8.445640e-04,-3.930998e+00,5.373158e-01,-9.559557e-01,-1.449610e-02,-1.559082e+00,-3.528599e-01,-2.040857e-01,-6.871364e-01,
2.395044e-01,-5.211084e-01,-5.616989e-01,-5.684343e-02,-9.405540e-03,1.866490e-02,-3.583060e-02,-2.054414e-02,-2.848935e-01,2.652843e-01,1.956043e-01,1.094513e-02,4.245410e-02,1.270890e-03,-1.754531e-01,4.059561e-01,-4.843310e-02,3.787070e-01,1.506770e-01,-1.562527e+00,-5.256174e-01,-1.233257e-01,3.697470e-02,-6.265617e-01,-2.662860e-02,-5.882835e-01,4.005520e-02,-4.392716e-01,-4.024970e-02,-8.750818e-01,2.128468e-01,-2.972652e-02,4.744923e-01,1.742858e-01,2.391411e-01,3.607967e-01,1.197544e-01,-1.421920e+00,1.597196e-02,-1.337350e+00,1.433640e+00,3.584950e-02,-5.045363e-01,2.498192e-01,-6.613234e-01,4.365670e-02,1.679700e+00,-4.578770e-02,-7.785081e-01,1.257214e-01,
-2.520578e-01,-3.096400e-01,-4.528266e-01,-2.826303e+00,-1.926491e+00,3.060780e-02,3.451650e-02,-1.131566e+00,-1.054823e-01,1.629700e+00,2.141983e+00,-8.723104e-01,5.571149e-01,-1.074361e-01,-4.760447e-01,-8.911512e-02,-1.801850e-02,2.125942e+00,-1.225463e-02,2.045846e-01,1.597963e-01,-1.780262e+00,2.188920e-02,1.456937e+00,-1.086920e-02,-1.283124e+00,-5.004940e-02,-1.402707e+00,-1.175300e-02,8.727769e-02,-2.837941e-01,3.774102e-02,-6.130605e-01,-1.656492e+00,3.637926e-01,-6.452255e+00,-5.311827e+00,1.419710e+00,-2.006432e+00,5.341624e-04,-1.477905e+00,2.974510e-02,-4.550400e-02,-1.004474e-01,-1.262900e+00,-3.810210e-02,-2.965371e+00,-6.914679e-01,9.318469e-01,-6.088606e-02,
-6.808537e-01,-4.479605e-01,-2.085966e-01,1.655847e-01,-2.935401e-01,-1.941730e-02,-4.100880e-02,4.688134e-01,-8.598156e-01,-3.168750e-01,3.971533e-01,-2.478310e-01,-5.731294e-02,4.372966e-02,9.354412e-03,-2.375266e-01,2.909350e-02,2.689299e-01,-1.806558e+00,-4.968012e-01,-1.016741e-01,3.146431e-02,3.493010e-02,3.465703e-01,8.218210e-03,-3.619108e-01,-6.817380e-02,1.370893e+00,-2.543920e-02,-3.837265e-01,5.939234e-01,6.389026e-01,-9.986275e-02,-1.094871e-01,-4.254054e-01,3.104799e-01,-2.695140e-01,1.980675e-01,2.113490e-01,-5.128881e-01,-1.452776e-01,1.514250e-02,-5.511155e-01,2.812785e-01,9.459744e-03,-4.637790e-02,-2.939810e-01,-1.129332e-01,7.556641e-02,-1.225103e+00,
2.951733e-01,1.518084e-01,4.127430e-01,-3.017139e-01,6.931540e-02,3.191390e-02,-3.787480e-02,-6.172290e-01,-6.232500e+00,6.907684e-01,-7.306516e-02,-2.775293e-01,-1.830408e+00,-5.689191e-01,-8.559697e-02,-2.410244e+00,-1.998230e-02,-6.085015e-01,-5.430630e-01,-1.515355e-01,-3.246946e+00,-2.882567e-01,1.874150e-02,6.865346e-02,-4.488060e-02,8.789550e-01,3.026600e-02,-4.515658e-01,5.354580e-03,-2.983577e-01,1.041672e+00,9.331543e-02,-6.927501e-01,9.255755e-01,9.060701e-02,-7.276260e-01,-1.717093e-01,4.632690e+00,2.072743e-01,9.873441e-01,5.663414e+00,-4.941470e-03,-3.756587e-01,3.195527e-01,8.984267e-01,5.081730e-02,-6.073843e+00,2.195786e+00,1.603562e+00,1.095573e+00,
-5.504055e-01,4.117167e-01,-2.318818e-01,-2.532896e-01,4.276594e-01,1.314650e-02,4.739890e-02,-1.188241e-01,1.265247e+00,-4.221309e-01,-8.339398e-02,-5.375366e-01,-3.588394e-01,-2.898008e-01,-3.231868e-01,5.130841e-01,1.425930e-02,1.039057e-01,3.030095e-01,-5.497216e-01,-5.220593e-01,3.467049e-01,-5.015170e-02,5.795829e-01,3.968530e-02,-4.809242e-01,2.612730e-02,-2.649395e-01,2.231870e-02,8.291227e-01,-6.607715e-01,1.157067e-01,8.679432e-01,-4.611312e-02,9.309897e-01,3.848273e-01,-6.383494e-01,1.453678e+00,3.087574e-01,9.959455e-01,-2.841476e-02,-1.370700e-02,6.257723e-02,1.003244e+00,-6.568433e-02,4.609880e-02,1.150787e+00,-3.783244e-01,1.155447e+00,1.453912e-01,
8.736688e-01,4.407721e-01,-8.401253e-01,2.353425e-01,5.309038e-01,3.189040e-02,2.172560e-02,1.301582e+00,1.277542e+00,-8.938253e-01,6.860621e-01,1.030738e-01,-2.028555e-01,9.171851e-01,1.046592e-01,1.323909e-01,-7.425370e-03,-3.146662e-01,-9.094674e-01,-1.248741e+00,-1.313289e-01,-6.284367e-02,2.899880e-02,1.190140e-01,8.062270e-02,-1.002103e+00,1.802840e-02,-5.928205e-01,-1.695800e-02,-1.414450e+00,9.348278e-01,6.922522e-03,-1.627199e+00,1.072982e-01,-2.772377e-01,7.514672e-01,-1.483288e-01,-1.899894e-01,-3.054486e-01,7.288548e-01,1.134816e+00,1.956740e-02,-4.886839e-01,7.703099e-01,-3.449336e+00,-4.024890e-02,2.080348e-01,8.780540e-01,6.672247e-01,-6.482692e-01,
3.114934e-01,3.946538e-01,5.411154e-02,2.832464e-01,6.388509e-03,1.475010e-02,-4.807510e-03,2.282334e-01,4.698157e-01,3.197037e-01,4.140566e-02,2.237516e-01,2.476545e-01,6.629618e-01,-4.685481e-02,1.215750e-01,5.865130e-02,-1.043648e-01,-4.871731e-02,1.997384e-01,-3.232823e-01,7.465696e-01,2.652160e-02,-8.269186e-02,1.619550e-01,-1.447444e-01,2.836770e-02,2.713538e-01,4.148160e-02,-7.383001e-01,3.063613e-01,7.133261e-02,4.211057e-01,3.821827e-01,-3.937296e-02,6.076706e-01,-6.164647e-01,-1.799050e-03,4.349249e-01,-1.168466e-01,1.985579e-01,-2.536130e-02,4.932927e-01,2.096364e-01,2.159154e-01,1.558720e-02,5.183832e-01,-5.125954e-02,5.799817e-01,2.640422e-01,
2.486478e-01,-2.027339e-01,1.336465e-01,-4.515666e-01,2.856862e-01,1.279610e-02,1.544380e-03,-5.431053e-02,6.502712e-01,-1.432792e-01,-6.878132e-01,5.239405e-02,1.270644e-03,-2.152730e-01,-1.023391e-01,-7.604626e-02,-1.203040e-02,-3.717832e-01,1.030896e-01,4.030567e-01,1.403050e-01,-4.383935e-01,-1.661080e-02,-2.296282e-01,-2.968370e-02,1.216597e-01,-1.382470e-02,-1.373003e+00,4.591670e-02,1.625335e-01,-3.367585e-01,-1.348674e+00,-8.158832e-01,6.788796e-02,2.631153e-02,3.499881e-01,2.355692e-01,-7.547206e-01,-2.299262e-01,-3.428573e-01,-4.002521e-01,-7.059150e-03,5.071102e-01,1.075701e-01,2.921252e-01,3.267110e-02,2.421747e-02,-4.633386e-01,4.288957e-01,7.919461e-01,
2.077361e-01,1.431970e+00,3.401881e-01,4.310465e-01,3.522918e-01,-3.783570e-02,1.033670e-02,-1.253856e-01,-1.968940e-01,-2.975001e-01,7.280530e-01,-7.413696e-02,1.174385e-01,5.512660e-02,7.820061e-02,-1.704421e-02,-3.958860e-02,1.041980e-01,1.120517e-01,3.928093e-01,-3.392715e-01,-2.601342e-01,-2.495900e-02,-7.348134e-01,1.368460e-01,2.428919e-02,-3.613460e-02,1.966647e+00,-3.762290e-03,-2.458503e-01,6.384128e-01,-1.443294e-01,4.509484e-01,-3.316092e-01,-8.687496e-02,4.713654e-01,-9.929277e-01,-6.237432e-01,-2.469872e-01,1.237718e+00,-4.694850e-01,-2.512500e-02,2.023110e-01,-5.972797e-01,-5.253883e-04,-2.075950e-02,1.051401e+00,-5.346262e-01,3.124457e-01,-3.950850e-01,
2.042372e-01,3.291300e-01,8.745089e-01,3.430969e-01,2.289000e+00,-9.331890e-03,2.794300e-02,9.715614e-01,-4.768643e-01,-7.452230e-01,-1.466757e+00,1.265409e+00,-9.498755e-01,-2.479116e-01,-1.714926e+00,-9.494395e-01,-2.616590e-02,9.796645e-01,3.064249e+00,-1.733874e+00,-3.028061e-01,-8.565306e-01,4.105700e-02,-1.127620e+00,-1.866350e-02,5.548320e-01,-3.966670e-02,6.527159e-01,-1.211100e-02,-6.140363e-01,-8.181602e-01,2.280436e-01,-2.870300e+00,3.912897e-02,1.405532e+00,4.058260e-02,4.034910e-01,-2.918381e+00,-1.036685e-01,-1.536353e+00,-3.939625e+00,-3.857150e-02,-3.211437e+00,-5.252822e-01,-2.050311e-01,-3.129430e-02,-2.052420e+00,1.195011e+00,-2.624669e+00,-1.697326e+00,
1.991274e-01,2.946768e-01,3.339184e-01,5.653601e-01,-3.980077e-01,-2.654320e-02,-2.055240e-02,2.504074e-01,-2.752719e-01,1.352466e-01,1.135174e+00,-1.393206e-02,7.029595e-01,-5.700705e-01,5.273922e-02,-7.209746e-02,-1.636770e-02,-7.007047e-01,1.048466e+00,-2.325668e-01,-2.431578e-02,-1.122293e-01,-4.474410e-02,-4.524665e-01,6.939150e-02,6.010730e-01,4.368520e-02,4.182542e-01,2.469600e-02,-1.211105e-01,2.656328e-02,-1.224084e+00,6.763573e-01,2.775865e-01,2.711240e-01,6.384059e-01,-1.893799e-01,3.962153e-01,-1.288326e-01,5.859414e-01,2.374740e-01,2.053210e-03,9.781886e-01,-6.351641e-01,-4.900245e-01,1.751180e-02,9.161542e-01,2.411113e-01,4.685495e-02,-2.235555e-01,
-2.569247e-01,4.299665e-01,-4.931022e-01,9.334819e-02,7.823291e-01,1.135100e-02,-3.226210e-02,8.965812e-01,-3.933312e-01,1.213588e-01,1.010235e-01,1.815963e-02,-3.167693e-02,-3.172951e-01,2.915164e-01,1.048571e-02,8.368060e-03,1.515804e+00,4.269739e-01,1.536373e-01,3.606893e-01,-1.422281e-01,3.481050e-02,-1.345331e-01,-1.272270e-02,-4.449971e-01,1.573320e-02,-1.354920e-02,1.350790e-02,3.393137e-01,4.817348e-01,-8.734721e-02,-2.262655e-02,-2.760503e-01,-2.670538e-02,-1.426029e+00,2.331060e-01,7.163243e-01,-1.938474e-01,1.022973e+00,3.942152e-01,-5.936830e-03,7.959732e-01,-2.405701e-01,2.724869e-01,-1.580900e-02,-3.005809e-01,-8.522022e-01,-1.552263e+00,-4.770279e-02,
-1.723900e-01,1.881290e-01,-1.857402e-01,-1.455410e-01,-1.548301e+00,-2.037280e-02,1.579270e-02,-2.064705e-01,-2.498647e-01,1.540018e+00,4.913660e-01,-5.750331e-02,-3.440799e-02,-1.272027e+00,-3.818743e-01,-3.831237e-01,8.289880e-03,-7.471160e-01,7.603467e-01,-2.345596e-01,-4.130995e-01,-5.344797e+00,1.346240e-02,7.504037e-01,-2.157530e-02,-6.605298e-02,-1.871680e-02,1.628568e-01,3.868700e-02,-1.867117e-01,1.761576e-01,-2.678139e-02,-3.100036e-01,-3.144460e+00,-2.714454e-02,8.427384e-01,6.618747e-01,-1.458190e-01,2.005904e+00,-1.434064e-02,7.196519e-01,1.498280e-03,4.418450e-02,-6.187808e-01,-2.570975e-01,-3.728100e-03,-6.152257e-01,5.272754e-01,2.132600e-01,-4.708998e-01,
4.706283e-01,5.849396e-01,-1.701849e+00,-3.165297e-01,4.321210e-01,2.554840e-02,-5.459320e-03,-1.636191e-01,2.080049e-01,-6.895451e-01,9.520543e-02,-3.580904e-01,-2.114499e-01,9.651126e-02,-2.926822e-01,1.465670e+00,1.326950e-02,8.937115e-01,-3.812224e-01,4.323969e-01,5.451097e-01,6.697120e-01,-2.123620e-02,1.142861e+00,2.679280e-02,1.258417e+00,5.146890e-02,1.464049e-01,1.465250e-02,1.582909e+00,-3.339188e-01,3.045063e-02,-1.618546e-01,-1.115577e-01,-4.927836e-01,6.657932e-01,1.223408e-01,1.452901e+00,-1.327230e-01,2.985729e+00,6.874470e-02,2.038080e-02,-1.433395e-01,-7.790033e-02,-1.002838e-01,-8.200670e-03,-5.034024e-01,1.211884e-01,-3.583699e-01,-4.237881e-01,
1.245068e-01,-9.966476e-02,1.162015e-01,-3.362715e-02,-1.080745e-01,-2.383260e-03,-2.869470e-02,-3.002204e+00,-7.209147e-01,-1.408758e-01,-1.278650e+00,-1.729724e-01,1.523714e-01,-1.029907e+00,2.556322e-01,5.855266e-02,-2.354820e-02,-5.623027e-01,6.678914e-01,3.267377e-02,9.100536e-02,4.340031e-03,4.925020e-03,5.473105e-02,-4.577550e-02,8.369283e-02,3.503710e-02,-3.678393e-01,3.864910e-02,1.692889e-01,1.523079e-01,-2.674955e-01,2.905429e-01,-2.336240e-01,-2.387997e-01,8.922759e-02,2.225032e-01,-2.122900e-01,2.277818e-01,1.668327e+00,-6.534600e-01,-4.465820e-02,-4.257530e-01,-3.085761e-02,-3.204339e-01,1.069100e-02,-1.649056e-02,3.933212e-01,1.030740e-02,1.083762e+00,
-2.495700e-02,-3.105910e-02,2.574780e-03,9.457990e-03,-3.646410e-02,-1.536230e-02,-1.337660e-02,1.365290e-02,-4.914780e-02,1.357308e-02,-1.662330e-02,-3.602250e-02,3.947040e-02,-1.719990e-02,5.067962e-04,-1.602650e-02,-4.031840e-02,-3.628440e-02,-1.880350e-02,-1.310350e-02,-6.027170e-02,-6.046547e-02,8.118760e-04,-3.848700e-02,2.132250e-03,-7.133930e-03,2.748470e-02,-2.287870e-02,3.500500e-02,-3.115560e-02,-2.812229e-02,-6.089568e-04,-1.666900e-02,3.583560e-02,1.269993e-02,-4.822240e-02,-4.106790e-03,-4.835120e-03,3.175150e-02,3.680930e-02,4.068370e-02,-5.297800e-04,-2.932510e-02,-5.632980e-02,-2.965269e-02,2.712440e-02,-4.204260e-02,2.848790e-02,-5.080830e-02,-1.689482e-02,
9.483110e-01,6.821675e-01,-1.711005e-01,4.390366e-01,-1.186570e-01,3.163130e-02,-4.687530e-02,-3.736382e-01,-2.038699e-01,3.448685e-01,6.282827e-01,8.579355e-02,-1.469637e-01,9.549800e-01,-3.169054e-01,-4.003493e-01,4.337460e-02,-4.420553e-03,-5.211847e-01,9.380335e-01,-3.555865e-02,9.549742e-02,-2.703170e-02,3.207542e-01,7.086790e-02,-8.584497e-02,-1.489240e-02,8.793793e-02,-1.377120e-02,4.712283e-01,2.543682e-01,-2.107323e+00,-5.395246e-01,-1.796705e-01,-1.281921e+00,-6.725646e-02,-1.052352e+00,1.753314e+00,1.630678e-01,3.200241e-01,1.423860e-01,3.104350e-02,1.338486e+00,-7.160472e-01,1.925575e-01,2.201410e-02,6.598600e-01,3.608640e-02,1.392055e+00,-3.009054e-01,
3.842016e-01,2.082747e-01,1.850461e-01,7.062535e-01,-4.744732e+00,-2.625510e-02,-1.352500e-02,2.179865e+00,-2.007769e+00,-1.586079e-01,-5.847544e-01,-2.051422e+00,1.093575e+00,1.375956e-02,-3.448278e+00,5.494109e-01,-3.521100e-02,-8.500147e-01,-2.028883e+00,-2.453649e-01,3.573576e-01,5.038985e-01,2.695210e-02,4.429867e-01,-2.691460e-02,-3.873216e-01,2.274350e-03,-3.595310e-01,-1.406480e-02,1.414778e+00,1.100883e+00,-9.714814e-03,1.250178e+00,-1.089903e+00,-9.388433e-01,9.774811e-01,-3.561551e-01,-1.418656e+00,-7.934449e-02,-1.978935e-01,4.445720e-01,-2.688560e-02,-1.573989e+00,-7.406392e-01,-3.297307e+00,3.882950e-02,-1.663506e-01,-2.012686e-01,-1.804874e+00,-9.886852e-01,
-1.423609e+00,-6.737580e-01,9.267141e-02,-1.329861e-01,2.348957e-01,2.998940e-02,-1.606700e-02,7.941261e-01,9.326177e-01,4.443326e-01,2.692036e-01,-5.867615e-01,-1.918417e-01,-3.763955e-01,-5.563312e-01,-4.841279e-01,-1.802860e-02,-1.605681e+00,2.513828e-01,7.450314e-01,-2.679089e-01,2.773218e-01,-3.569230e-02,7.275806e-01,9.450010e-02,4.095202e-02,-1.615620e-02,-1.264624e-01,-1.176110e-02,5.225611e-01,-1.042910e+00,-6.918703e-01,6.182071e-01,-1.548488e-01,1.223608e+00,-1.371661e+00,-2.803447e-01,-3.082198e-02,2.368933e-01,2.440311e-02,5.523685e-01,8.513740e-03,2.751530e-01,2.163242e-01,7.076966e-01,-1.100540e-02,3.796240e-01,1.460016e-02,5.286669e-01,2.343402e-01,
-5.928600e-01,
6.798575e-01,
2.880831e-01,
1.333892e-01,
-3.104802e-01,
1.067685e-01,
-1.217311e+00,
-8.512894e-01,
-1.423916e+00,
-2.112968e+00,
-1.058531e+00,
-3.514734e-01,
-2.887923e-01,
1.864015e-01,
-9.562974e-01,
6.440876e-01,
4.846800e-01,
-6.211918e-01,
-3.912956e+00,
-3.387338e-01,
-1.954450e-01,
1.910631e-01,
-1.020825e+00,
-1.907708e-01,
3.775174e-01,
-8.565637e-01,
-3.408600e-02,
-9.449984e-01,
-1.305310e+00,
1.208012e+00,
5.762020e-01,
-1.290378e-01,
1.478842e+00,
-2.446473e-01,
-7.219893e-01,
-1.338851e+00,
-2.161849e-01,
8.240643e-01,
1.164427e+00,
-6.871897e-01,
2.992449e-02,
-6.283177e-01,
-4.772177e-01,
1.129608e+00,
7.341899e-01,
-4.513247e-02,
-2.550290e-02,
-8.548861e-01,
5.591972e-01,
-1.296257e+00,
9.996190e-03,-2.612050e-03,-5.165770e-02,2.867410e-02,-4.330850e-02,-2.007410e-02,-2.336780e-02,2.321750e-02,3.371460e-02,-1.099460e-02,-2.100910e-02,-1.294860e-02,2.924760e-02,-3.260900e-02,-4.532060e-02,2.870710e-02,-4.074490e-02,-3.724930e-03,-4.271200e-02,-4.236770e-02,1.340990e-02,-9.386380e-03,4.209450e-02,8.762710e-03,-3.613580e-02,1.400210e-02,-4.692240e-03,-3.625720e-02,1.068650e-03,3.016720e-02,-6.711290e-04,4.071010e-02,2.740430e-03,2.924050e-02,1.746620e-02,1.294920e-02,-8.177090e-03,-4.747980e-02,-3.388380e-02,1.008800e-02,-1.345070e-03,-1.113300e-02,-3.948390e-02,-3.953190e-04,-3.631320e-02,1.046680e-03,1.259570e-02,3.145890e-02,-3.854830e-02,-4.761880e-02,
2.928660e-04,-1.505970e-02,-1.033190e-02,-4.256980e-02,3.817990e-02,7.578520e-03,3.672300e-02,1.691210e-02,4.439140e-03,2.015700e-02,-5.283810e-02,5.517900e-03,-3.693430e-02,-4.588060e-02,2.345730e-02,-1.133510e-01,-1.456810e-01,1.869620e-02,-4.202640e-02,3.504540e-02,-3.409380e-02,-8.538140e-03,2.298050e-02,1.444510e-02,-4.851610e-02,-5.090570e-02,-2.174900e-02,2.314470e-02,-4.277770e-02,1.798380e-02,-3.636430e-02,2.382900e-03,-8.640970e-03,-2.744850e-02,2.561840e-02,1.682150e-01,9.614470e-03,1.183150e-02,-3.598460e-02,4.612490e-02,-2.397200e-02,5.060080e-02,-8.025990e-02,-2.455500e-02,-2.116410e-02,1.558840e-02,4.868260e-02,-1.470620e-03,-9.250760e-03,2.752380e-02,
5.859374e-02,-1.249990e-01,2.146942e-01,-1.026049e-01,2.172627e-01,1.944145e-01,2.738582e-02,7.126180e-02,3.833572e-01,4.722002e-02,-8.136430e-02,-4.863429e-01,-1.450629e-01,4.514098e-01,2.423621e-01,2.656196e-01,-2.835182e-01,2.802481e-01,-1.283808e-01,5.737918e-01,-6.125870e-02,-3.916014e-02,-4.804208e-01,1.443595e-01,1.650649e-02,6.754696e-02,2.555370e-02,3.010777e-01,-4.216949e-02,7.546258e-02,2.014765e-01,-2.681908e-03,1.805381e-01,-6.873865e-02,-9.705640e-02,-1.333169e-01,-2.935007e-02,-3.600608e-01,6.537865e-01,-2.890755e-01,-1.507766e-01,-1.832367e-01,2.018736e-01,-1.865200e-01,-1.418373e-01,6.051710e-01,-4.268300e-02,4.098678e-01,9.615897e-02,-1.220071e-01,
4.866049e-02,-2.571663e-01,-1.041663e+00,1.077718e-03,-1.378828e+00,1.228792e+00,9.116779e-01,8.038808e-02,-2.224436e+00,-3.365379e-01,8.483554e-01,3.585916e-01,1.210631e-01,-8.682440e-01,-2.411228e-01,-9.818422e-01,-1.565608e-01,1.344709e+00,-2.350623e-02,2.912908e-01,-1.675701e-01,4.763238e-01,9.352946e-01,1.128168e+00,-1.240437e+00,1.154970e+00,-2.449700e-02,2.206008e-01,-4.320769e-01,8.169616e-02,-8.275905e-01,-2.226817e+00,3.133176e-01,-1.672898e-01,-7.652732e+00,-3.311504e-01,-1.610592e+00,-2.778607e-01,-1.486305e-01,1.556409e+00,-3.083773e-01,-3.059867e-01,-4.044152e-01,1.755607e+00,2.457516e-01,-4.439602e-01,3.186060e-02,-1.148528e+00,-8.172955e-02,-8.607434e-02,
-8.632819e-01,-1.272450e+00,8.329667e-01,-1.385330e+00,-5.255513e-01,-1.094975e+00,7.980007e-01,1.374792e-01,-4.631231e-01,-9.180076e-01,-1.430690e+00,-4.287422e-01,-5.810876e-01,-1.066700e+00,1.771885e-01,6.614994e-01,6.202463e-01,-4.633009e-01,-7.405585e-01,1.655865e-01,-1.192995e+00,1.340814e-03,6.610638e-01,-8.350235e-01,7.358447e-01,3.935077e-01,4.778740e-02,1.899465e+00,-1.773797e-01,-5.686966e-01,1.238410e+00,-1.811801e+00,7.388630e-01,1.018035e-01,-6.370324e-01,-6.268936e-01,5.535434e-01,6.498593e-01,-2.695233e+00,5.112749e-01,6.298597e-01,-4.530435e-01,-6.814107e-01,-5.266415e-02,-3.503266e-01,-9.718326e-01,1.937022e-02,4.412029e-01,9.616616e-01,1.447045e+00,
-1.204473e+00,-1.293743e+00,-1.054947e+00,5.333350e-01,-6.631774e-01,-2.168416e-01,2.097898e-01,8.395904e-01,-7.537569e-02,5.405379e-01,5.157588e-01,-2.138119e-02,-1.789607e-02,5.337079e-01,9.410144e-01,4.957021e-01,-7.814293e-01,6.951990e-01,3.164687e-01,6.327056e-01,1.950675e-01,5.559162e-01,3.838452e-01,-4.679817e-01,4.587984e-01,-1.584618e+00,4.405750e-02,1.238894e+00,6.238772e-02,1.901817e-02,2.416849e-01,-7.662706e-01,3.931256e-01,1.037638e+00,9.724037e-02,-6.050795e-01,-1.547228e-01,3.826964e-01,2.894895e-01,8.303219e-02,-1.295429e+00,3.179690e-01,4.081891e-01,2.045215e-01,2.376744e-01,1.003739e+00,2.549900e-02,7.224988e-01,2.006178e-01,-2.079867e-02,
1.315074e-01,5.709735e-01,9.998400e-01,3.565469e-01,1.029916e+00,-6.575131e-01,-4.176063e-01,-6.063293e-01,-6.130455e-01,-9.621151e-01,6.531413e-01,-3.138738e+00,-5.666074e-01,-1.601540e-01,7.467892e-01,1.794522e-01,5.060703e-01,-7.003019e-01,-3.596090e-01,-2.319325e-01,-2.557000e-01,9.502068e-01,-1.692532e+00,-4.338703e-01,-1.354771e+00,-2.629675e-01,-2.447930e-02,-6.852412e-01,-3.234912e-01,5.264581e-01,1.145227e+00,1.123911e+00,9.754423e-01,-2.773126e-02,1.004269e+00,-2.465534e-01,4.040073e-01,-1.941146e-01,2.367687e-01,-1.048263e+00,3.265878e-01,-8.251359e-01,7.944422e-01,-3.059963e-01,1.056031e-02,1.239965e-01,1.046620e-02,9.628846e-01,5.130917e-01,8.395529e-02,
2.463477e-01,3.690164e-02,4.605532e-01,-7.298892e-01,-1.141937e-01,-2.160537e-01,-9.559312e-01,-2.665014e-01,1.634696e-01,-6.587471e-02,1.698025e-01,-5.833867e-01,1.209811e-01,5.624856e-02,5.210331e-01,-2.161751e-01,2.922522e-01,-2.614895e-01,-1.837571e-03,-4.877211e-02,2.247264e-01,3.416318e-02,-1.880882e-01,-1.148418e-01,-6.136292e-01,-1.797704e-01,-3.785120e-02,-5.169193e-01,1.424581e-01,2.521222e-01,1.367545e+00,7.894220e-01,7.884981e-01,-7.643839e-01,-1.306908e-01,-5.872566e-01,6.367633e-01,1.659637e-01,-1.756470e-01,1.749234e-02,-6.173822e-02,6.849091e-01,6.117657e-01,-8.339235e+00,5.369899e-01,3.771888e-02,-6.574420e-03,1.163080e+00,-3.572235e-02,2.664883e-01,
-9.273869e-01,8.928791e-02,-6.409186e-02,-1.029268e+00,-7.729121e-01,1.964595e-02,1.634707e+00,3.518172e-01,-1.675704e-01,1.039891e+00,6.038259e-01,-3.131439e-01,-4.220322e-01,1.473214e+00,3.954907e-01,3.474144e-01,-4.226442e-01,-1.099574e+00,-5.180609e-01,5.205818e-01,2.557259e-01,1.355757e+00,1.321635e+00,5.961556e-02,3.177347e-01,-2.229279e+00,-5.009930e-03,5.795704e-01,3.613319e-01,1.731034e-01,1.336816e+00,1.102157e+00,-2.057221e+00,8.418709e-01,3.054258e-01,7.339994e-01,1.034184e+00,4.599842e-01,-6.013250e-03,4.348412e-01,-4.663824e-02,3.840464e-01,6.786265e-01,9.082136e-01,-3.206850e-01,-9.120262e-01,-1.572470e-02,8.039564e-01,8.002842e-02,-2.269890e-01,
-9.674938e-01,2.775080e-02,1.547635e+00,8.306093e-01,-1.382968e+00,9.491625e-01,-1.681954e+00,-2.948552e+00,-3.126413e+00,-1.196902e+00,-2.550564e-01,-4.912215e+00,2.079878e-01,-6.681104e-01,-9.754547e-01,-1.987739e+00,1.530348e+00,-2.898328e+00,1.765810e-01,-2.125416e+00,8.266082e-01,2.508635e+00,-1.911615e-01,-3.863136e-01,-9.754501e-01,1.530124e+00,-8.958660e-03,-3.414902e+00,-1.541724e+00,5.917003e-01,-1.450404e-01,3.808281e+00,1.023051e+00,-1.949944e+00,3.831482e-01,-1.239926e+00,4.370336e-02,-1.017008e+00,-1.014485e+00,3.798099e-01,5.268865e-01,7.127491e-01,5.180498e-01,-3.322165e-01,7.292739e-01,-2.284689e+00,2.157190e-02,-8.625789e-01,1.688658e-01,5.960639e-01,
2.019760e-01,-1.818565e-01,-2.194170e-02,-6.264061e-01,7.113445e-01,2.954363e-04,6.763797e-01,6.606334e-01,7.274567e-01,7.434213e-01,-1.686252e-02,4.445571e-01,7.366017e-01,-4.727103e-01,5.445066e-01,-2.679290e-01,8.830161e-02,4.716475e-01,-6.308976e-01,1.744176e-01,-1.979758e-02,1.247753e-01,-3.182636e-01,9.020611e-02,-4.443665e-01,1.726547e-01,-2.201210e-02,-6.748307e-03,8.753280e-02,8.515391e-02,3.543655e-01,2.963839e-01,-3.026119e-01,-3.453015e-01,-5.257977e-02,-5.499394e+00,2.461347e-02,3.327347e-01,-2.671129e-02,1.820647e-02,-1.554052e-02,2.516174e-01,6.241220e-01,1.386399e-01,-8.767935e-01,9.213339e-01,5.412405e-02,-3.237836e-01,-9.079261e-02,-5.514536e-01,
4.040458e-02,2.262029e-01,-2.877290e+00,-4.003556e-01,2.097169e+00,-1.117018e+00,-2.379091e+00,2.848974e-01,-1.521430e+00,-7.005401e-01,5.575187e-01,2.316888e-01,-3.519634e-01,2.058488e+00,2.329061e-01,-3.081595e-01,3.885595e-01,-1.405281e+00,5.166734e-01,-1.568995e+00,-4.843688e-01,-8.663639e-02,-2.066637e+00,1.328258e-01,-4.009411e-01,-1.007271e+00,3.788410e-02,-8.353809e-01,-1.306902e-01,-7.586135e-03,-9.325607e-01,1.693174e+00,-5.657201e-01,-5.502356e-01,-9.382855e-01,9.983166e-01,1.014343e+00,-8.605478e-01,4.082215e-01,1.434109e-01,-6.797090e-02,6.544314e-01,6.783937e-01,1.409589e-01,-6.831666e-01,-2.895987e+00,3.599540e-02,1.429781e-01,8.460848e-02,-4.260474e-01,
-4.457459e-01,1.135043e+00,9.593414e-01,-8.699947e-01,2.787313e-01,5.076556e-01,-2.699005e-01,1.562101e-01,-8.385243e-01,5.502418e-01,6.687024e-01,1.357875e-01,-2.175716e-01,1.122604e+00,-7.229847e-02,1.521394e+00,-5.401430e-01,-9.843928e-02,2.120521e-01,-1.323294e-01,-1.642854e-01,9.323650e-01,1.112334e+00,-6.810418e-02,-3.062792e-01,-1.456059e+00,-1.120240e-02,-2.334594e-01,-3.463496e-01,-1.096720e-01,-5.902024e-02,4.227217e-01,7.526607e-01,3.400369e-01,-2.022461e-01,-2.460171e-01,3.612523e-01,-3.486083e-01,-3.359620e-01,6.658770e-01,4.056470e-01,-4.423681e-01,2.669782e-01,6.551919e-03,4.490557e-01,1.758086e+00,-5.319973e-02,2.820530e-01,-2.531275e-01,-8.113130e-01,
-5.516500e-03,-1.692510e-02,-2.976800e-02,-3.956790e-02,1.314000e-02,3.320130e-03,3.120360e-02,5.203090e-02,-3.478310e-02,1.226350e-02,-5.793770e-02,-7.120550e-02,5.807260e-02,3.278000e-02,6.134570e-02,-2.047130e-01,-1.202610e-01,5.165370e-02,-2.876160e-02,1.678140e-03,-3.873330e-02,5.218900e-02,-4.514630e-02,5.945250e-02,-6.278530e-02,8.339380e-03,-3.798310e-02,-2.375260e-02,6.010850e-03,2.669990e-02,-4.350810e-02,1.804930e-02,-3.597040e-02,-4.141970e-02,3.718550e-02,1.042040e-01,6.093860e-02,-2.220880e-02,-5.949020e-02,-1.051320e-02,-1.890880e-02,2.524000e-02,-4.807090e-02,4.915150e-02,-1.181390e-02,-3.395940e-02,-4.538140e-03,2.092040e-04,1.778160e-02,4.070520e-02,
-1.017334e-01,-7.406085e-01,1.102749e+00,4.415658e-01,-1.565723e+00,1.402117e-01,-2.001960e+00,-4.846744e-01,-8.688089e-01,2.810885e-01,3.534413e-01,-1.213857e-01,5.326018e-01,-7.821938e-01,-5.241897e-01,3.034627e-01,-8.951575e-02,2.521320e-02,5.163559e-01,-1.575665e-01,-4.269229e-02,-3.198969e-01,-2.150972e-01,-3.977222e-01,-5.011875e-01,-6.643275e-02,-2.081800e-02,-1.191507e+00,2.320821e-01,5.719679e-02,-7.718235e-01,1.632175e-01,6.017857e-01,-1.389929e+00,-4.999432e-01,-1.658114e+00,4.194854e-01,-2.682488e-01,3.854801e-01,7.411174e-01,-7.178487e-03,-1.302548e+00,-1.473296e+00,4.494126e-02,1.761707e-01,2.673311e-01,-1.700529e-02,-1.021433e+00,-2.030917e-01,-5.037244e-02,
-6.540017e-01,5.773618e-01,1.337508e-01,-2.471525e-01,2.501380e+00,8.874676e-01,3.352084e-01,-5.859342e-01,3.503880e+00,5.205233e-01,4.614117e-01,-5.556214e-01,9.921718e-02,3.504385e-01,-4.086807e+00,6.936944e-01,-1.220991e+00,3.835896e-01,6.199115e-01,1.258062e+00,5.483764e-02,5.627767e-01,7.514982e-01,-1.083805e+00,6.286507e-01,2.489850e-01,-3.986870e-03,2.004886e+00,2.024661e+00,6.345958e-01,2.737931e-01,1.749884e+00,2.424158e-01,-7.564016e-01,1.161458e+00,1.533423e+00,-1.956407e+00,1.569284e+00,-6.651343e-01,1.168978e+00,2.588775e-01,-1.420552e-01,1.025266e+00,-4.234849e-01,3.214499e-02,2.402730e+00,3.648190e-02,-8.677362e-01,1.150956e+00,2.769009e+00,
-2.642386e-01,1.863061e-01,-3.317114e-02,-1.764321e-01,-4.939458e-02,5.357758e-02,5.580956e-01,-1.988280e-01,1.885626e-01,1.784018e-01,-1.454540e-01,-2.065648e+00,4.635448e-02,-1.020375e-01,2.857056e-01,3.350582e-01,-1.496180e-02,1.987420e-01,1.256086e-01,3.347380e-02,4.024114e-02,1.523044e+00,-1.066118e-01,1.304719e-01,-3.569375e-01,-2.209713e-01,3.801200e-02,7.160167e-01,-5.660172e-02,2.404491e-01,-1.677145e-01,3.841637e-01,-6.020046e-02,-5.331773e-01,-1.384122e-01,-7.521605e-02,1.287656e-01,3.275700e-01,5.478798e-01,-2.110532e-01,-1.565491e-01,-7.429034e-02,3.159545e-01,1.744921e-01,-1.298747e-01,3.907504e-01,-2.827110e-02,-3.998608e-01,1.557829e-01,1.127854e-01,
1.684074e+00,-6.368570e-01,-3.217274e-01,2.632056e-01,1.235604e+00,-3.865570e-01,3.827331e-01,1.111007e+00,1.338766e+00,9.619070e-01,5.020167e-01,4.146132e-01,5.246628e-01,-1.053117e+00,-3.226681e-01,-5.265977e-01,-3.964483e-01,2.703504e-01,6.155485e-02,3.774172e-01,-2.257062e-01,-6.872284e-01,1.926685e+00,-1.028670e+00,-1.865651e+00,-6.000708e-01,-7.134150e-03,1.655665e+00,-2.536342e-01,4.149888e-01,8.950434e-01,1.703458e+00,-3.227086e-02,7.167347e-01,-1.070088e+00,2.323866e+00,3.686171e-01,8.307495e-01,1.503985e-01,5.321311e-02,-3.291762e-01,7.441390e-01,1.418989e+00,-1.179677e-01,-8.755668e-01,-2.428046e-01,5.456990e-04,-2.661430e+00,-1.333850e-01,-1.527820e+00,
-4.468665e-01,7.980478e-01,3.819697e-01,-2.177145e-02,-1.270461e+00,2.927116e-01,-8.414819e-01,-8.362079e-01,3.927318e-02,-4.604892e-01,1.193344e+00,4.137951e-01,-1.218657e-02,-4.967401e-01,-9.819473e-01,9.404524e-01,7.272054e-01,-2.620385e-01,2.978292e-01,-1.875143e-01,1.243001e-01,-9.112197e-01,9.102242e-01,-8.815793e-01,-3.604587e-01,-1.707394e-01,-3.382530e-02,-8.821512e-01,-4.334919e-01,1.234052e+00,1.332259e+00,6.314901e-02,9.259125e-01,-1.067781e+00,1.092144e-01,-1.878031e+00,-1.144100e+00,4.905637e-01,8.158066e-02,2.433496e-02,6.684458e-01,-2.055383e-01,1.429096e-01,-3.986407e-02,6.934065e-01,-5.614920e-01,3.955574e-02,-4.712792e-01,2.582981e-01,1.886640e-01,
-3.674556e-01,2.877951e-02,1.050593e-01,5.130242e-02,-3.698801e-01,-1.373512e+00,-5.394672e-02,-6.048767e-01,4.596314e-01,-2.895747e-01,8.536799e-01,-1.253166e+00,-3.792233e-01,-1.205227e-01,1.238523e-01,-6.354559e-02,1.122120e+00,8.588143e-02,-7.255352e-01,-5.109036e-02,-4.744195e-01,-1.125160e-01,-1.098315e+00,1.445371e-01,-5.913738e-01,1.581966e-01,-4.149570e-02,-2.100797e-01,-6.013768e-02,6.443421e-01,-3.176634e-02,-1.272258e+00,9.416109e-02,-4.610375e-01,6.289782e-01,-6.687401e-01,-8.493125e-01,8.659881e-02,2.774688e-01,-1.046671e+00,6.999055e-01,-7.137088e-01,2.748083e-01,-5.092253e-02,-4.320193e-01,3.964893e-02,-2.977299e-02,-9.565769e-02,2.197075e-01,-1.105340e-02,
1.100756e+00,3.925433e-01,-1.617563e+00,1.011252e-01,-8.125903e-01,-5.215953e-01,-4.102362e-01,-2.689238e-01,-4.572290e-02,-1.992681e-01,-6.925229e-01,2.199667e-01,9.772346e-02,2.450301e-01,7.603302e-01,-7.744013e-01,-2.670644e-01,4.591775e-01,-5.131004e-01,-5.357722e-01,2.193501e-02,-2.170725e-01,2.377522e+00,-3.723044e-01,-5.193427e-01,3.374760e-01,7.487140e-03,-7.410792e-01,4.215620e-01,-1.196621e+00,-2.339775e-01,1.836429e+00,-2.685442e-01,-9.042695e-01,6.135685e-01,-1.182150e+00,-1.678455e-01,1.333576e-01,5.209919e-01,-3.701196e-01,-1.259288e+00,8.851454e-01,8.887210e-01,3.302228e-01,6.174105e-02,-1.263426e+00,8.439390e-03,-3.563088e-01,1.563772e-01,1.135502e+00,
-1.214630e-01,4.333330e-01,4.461361e-01,-6.232842e-01,9.489439e-02,-8.748184e-01,-7.734679e-01,-2.144219e-01,5.072408e-01,5.283744e-01,2.975457e-01,-5.417047e-01,7.627993e-01,-4.959015e-01,2.117801e-01,-2.599938e-01,-2.749293e-02,-1.114536e-01,1.115232e-01,5.917748e-01,2.005227e-01,-2.932315e-01,-3.450756e-01,3.532019e-01,1.828711e-01,-8.400508e-01,3.901380e-02,-4.707324e-01,6.216238e-02,1.381426e-01,3.901640e-01,1.498124e+00,4.186616e-01,-1.192629e+00,6.418793e-01,1.305411e-01,-1.672292e-01,1.422321e-01,-2.067194e-01,-2.696147e-01,8.204200e-02,-4.074263e-01,1.138705e-01,-4.260867e-01,-2.122099e-01,-1.159161e+00,-1.797790e-02,5.001332e-02,-6.281841e-01,-2.493389e-01,
-1.723404e+00,-2.223780e+00,-4.533034e-02,-7.745730e-01,2.864808e-01,-6.852557e-01,3.945594e-01,9.253778e-02,1.862188e-02,7.216104e-01,2.118616e-01,-2.576417e-02,-2.693519e-01,8.528275e-02,5.185367e-02,9.761583e-01,4.791600e-01,7.291270e-01,-9.124870e-01,-1.237919e-01,-5.579276e-01,-3.414090e-01,-5.767575e-02,-2.757025e-01,2.666066e-01,-3.525169e-01,-2.703030e-02,7.190633e-01,6.786112e-01,2.173452e-01,3.055039e-01,-2.252846e+00,8.274208e-01,-1.375574e-01,-9.640955e-01,-1.153670e+00,9.304675e-01,6.634155e-01,1.004742e+00,-1.365285e+00,5.066252e-01,2.966314e-01,1.522817e-01,-3.256643e-01,1.814224e-01,1.367495e+00,-1.410037e-02,-5.972217e-01,4.210404e-01,4.961724e-01,
4.179300e-01,-2.446242e-01,-9.999611e-01,3.670104e-01,-1.437388e+00,2.544189e+00,-5.595135e+00,-2.356912e-01,-4.998310e-01,6.319440e-01,-1.253452e-01,1.078683e+00,-1.005188e-01,1.688555e+00,-1.426322e+00,1.114578e+00,-9.074751e-01,-6.258177e-01,-1.817868e-01,7.985410e-01,1.304871e+00,1.251304e-01,2.358673e+00,-5.735250e-01,5.141782e-01,4.103323e-02,-5.321580e-03,3.441611e-01,-4.177695e-01,-4.321173e-01,4.087963e-01,1.259706e+00,3.322668e-01,-7.959870e-01,-3.291145e-01,-1.486241e+00,1.022066e-01,-4.247377e-01,6.401392e-01,1.122104e+00,-2.195676e-01,7.735355e-01,3.207454e-01,1.030188e+00,5.397022e-01,6.187717e-01,-9.745250e-03,-6.995954e-01,8.327400e-02,7.525064e-01,
4.569365e-01,-4.216367e-01,-3.072930e-01,2.516755e-01,-1.859867e+00,-2.197737e-01,4.636337e-01,9.583600e-01,-1.079922e+00,-3.141666e-02,4.769312e-02,4.291935e-01,-3.460142e-01,3.252368e-01,-3.891877e-01,1.295572e+00,-8.932298e-01,2.258638e-01,1.614934e-01,5.962286e-01,-7.914653e-01,-6.103880e-01,2.373245e+00,-3.184377e-01,-1.553558e-01,1.416569e+00,-1.574890e-02,2.696258e-02,-4.172895e-01,8.440670e-02,1.007326e+00,1.656830e+00,4.317160e-01,1.848829e-01,2.497895e-01,-2.263147e+00,-6.312206e-01,5.940471e-01,-4.727091e-01,3.163372e+00,7.483410e-02,-4.603545e-01,7.342625e-01,1.359981e+00,-4.960985e-01,2.241027e+00,1.894518e-02,7.100157e-01,2.418479e-01,1.625998e+00,
-2.150706e-01,3.246718e-01,-1.587779e-01,-5.969208e-01,-4.502282e-01,5.146559e-01,1.112117e-01,-2.951818e-01,-2.181849e-01,2.134543e-01,2.322325e-01,5.160387e-01,-6.315322e-02,-1.187335e-01,1.342299e-01,-1.453031e-01,2.443231e-01,-1.658937e-01,8.870125e-02,-2.148156e-01,-8.013109e-02,-4.027429e-01,-7.404068e-02,-5.921270e-01,3.359783e-03,-2.015287e-01,1.346370e-02,-2.137529e-01,-1.174034e-01,-1.080472e-01,-3.876438e-01,-8.633407e-02,1.526617e-01,-2.052072e-01,7.288158e-02,-1.988031e-01,1.444526e-01,1.022344e-01,-6.028888e-01,4.437638e-01,-3.145919e-03,-7.354682e-01,-1.821090e-01,9.426570e-02,1.056556e-01,-5.079491e-01,-1.499521e-03,1.098175e-01,6.579014e-02,-5.920160e-03,
-3.455288e-01,7.953062e-01,-9.335396e-01,-3.603526e-01,1.595950e-02,-6.145421e-01,2.688825e+00,4.137033e-01,1.560569e+00,-2.130980e-01,-1.209977e-01,7.792383e-01,7.540647e-01,1.305266e+00,-1.061073e+01,-6.445155e-01,-1.086590e+00,8.925414e-02,1.808541e-01,2.675970e-01,-1.946385e-01,-1.281997e+00,-2.924420e+00,-1.828121e+00,7.517563e-01,1.420890e+00,2.713340e-02,2.969782e-02,-6.164165e-01,4.897698e-01,1.080983e+00,-1.315556e-01,1.961711e-01,9.743235e-01,4.389173e-01,2.410653e+00,-2.387677e+00,7.407759e-01,1.028038e+00,4.407853e-01,4.799174e-01,-2.676750e+00,-1.183723e+00,1.789403e+00,-1.692675e+00,4.351649e-01,-1.916240e-02,-7.983680e-01,3.216251e-01,-1.601683e+00,
-5.484340e-01,-6.142679e-02,-1.133071e-01,-7.047425e-01,-1.348455e+00,2.885590e-01,-4.478908e-01,-3.113084e-01,-7.932978e-01,-8.888837e-01,-9.240285e-01,2.682670e-01,1.140060e+00,-1.150657e-01,-7.522917e-01,1.411929e-01,3.057742e-01,-1.250413e+00,-1.968494e-02,-6.930690e-01,5.466209e-01,-7.978161e-02,-2.249170e+00,-8.155614e-01,3.685704e-01,-6.958039e-01,-3.990030e-02,1.632253e+00,-7.141016e-01,-5.494090e-01,-1.310489e-01,-8.312718e-01,-7.523834e-01,-6.698060e-01,-6.875403e-01,-7.548456e-01,-9.418608e-02,9.047707e-01,-8.079754e-01,-3.128044e-01,-6.187518e-01,-8.639829e-01,1.769490e-02,3.460915e-01,2.102422e-01,-1.816695e+00,-2.714470e-02,9.470310e-02,-7.947343e-02,4.033896e-01,
9.045445e-02,-1.270971e-01,-5.081010e-01,5.645791e-01,5.716584e-01,-4.846408e-01,-2.278742e-01,4.618658e-01,4.181873e-01,7.759421e-02,4.815945e-01,7.754966e-02,8.527505e-01,2.554078e-01,3.883575e-01,1.524281e-01,-2.129766e-01,2.596304e-01,-2.524615e-01,2.812462e-01,-4.677039e-02,8.642212e-03,1.090954e-01,4.230397e-01,8.889654e-02,9.430251e-02,1.002910e-02,7.810448e-01,-1.129159e-01,-2.967664e-01,2.066080e-01,6.474407e-01,-8.535185e-03,-1.913400e-01,-2.896718e-01,1.748155e-01,-6.937767e-02,4.856014e-01,9.336234e-02,3.717861e-01,-1.530266e-01,1.138752e-01,-5.987030e-01,-3.096433e-01,-2.137130e-01,6.570909e-01,4.403220e-02,-6.764235e-02,-3.119202e-01,-4.161882e-02,
-4.730952e-01,4.764243e-01,-4.619037e-01,1.995118e+00,1.061875e-01,1.061704e+00,6.451337e-01,2.383988e-01,2.119659e+00,8.344809e-01,3.514671e-01,-9.926137e-01,4.553035e-01,6.112804e-01,9.614179e-01,-5.335063e-01,1.753954e-01,1.007874e+00,-1.008039e+00,-5.854684e-01,3.727611e-01,1.602074e+00,1.336997e+00,5.442740e-01,1.823200e-01,6.797254e-01,3.744900e-02,5.527999e-01,1.115972e+00,-7.517829e-02,6.247003e-03,-2.626420e-01,-2.459991e-01,7.968253e-01,1.051997e+00,-1.059461e+00,-7.268011e-01,6.703404e-01,1.432318e+00,2.546435e-01,4.835681e-01,6.095484e-01,8.806491e-01,1.135311e+00,-8.078197e-02,2.705160e-01,2.650350e-02,-4.870746e-01,-5.087310e-01,-1.138755e-01,
1.777460e-01,-6.277809e-01,-7.354912e-01,7.365904e-02,-3.118661e-01,2.300908e-03,-3.674348e-03,6.413400e-02,-2.071101e-01,8.114970e-02,1.133821e+00,-5.200608e-01,5.991388e-01,1.082766e+00,1.556453e+00,6.259525e-02,-5.661016e-01,-3.242376e-01,-2.294940e-01,5.013552e-01,-1.572087e-01,-1.208985e-02,6.568104e-01,4.492540e-01,2.489538e-01,7.734774e-01,-3.861190e-02,4.947076e-01,5.539439e-02,1.857614e-02,1.629111e-01,4.899283e-01,2.917253e-01,5.505177e-01,1.086390e-01,6.658628e-01,1.071701e-01,-6.386110e-01,5.232293e-01,-3.538487e-01,-3.197529e-01,1.958076e+00,1.798961e-01,5.556763e-01,1.708986e-02,7.657389e-01,-2.085760e-02,1.917141e+00,-2.143068e-03,6.100503e-03,
3.081169e-01,-5.553437e-01,1.144002e+00,6.964474e-01,-1.743915e+00,-1.119438e+00,-2.738371e-01,-4.278231e-01,-1.289391e+00,4.006030e-02,3.457892e-01,-5.693124e-01,-4.121297e-01,-3.309052e+00,-2.994891e-01,-1.198220e+00,-3.418180e-02,-1.720442e+00,9.198232e-01,-1.917505e+00,5.295634e-01,7.498885e-02,-1.731118e-02,-5.040127e-01,7.200062e-01,1.954178e+00,-9.316170e-03,-9.771737e-01,-1.557288e-01,-1.957100e-01,-9.926211e-01,2.124583e+00,1.480711e+00,-1.577095e+00,-1.603577e-01,5.539731e-01,-6.757420e-01,-9.181390e-02,-2.417920e-01,1.066430e+00,-4.791744e-01,5.965666e-02,1.623232e+00,8.033100e-01,1.400433e-01,1.331985e+00,-4.030640e-03,3.399880e-01,1.351200e-01,2.446017e-01,
6.996832e-01,-2.847940e-01,-3.870472e-01,-1.295459e+00,2.841517e-01,-4.606668e-01,5.708227e-01,2.231365e-02,1.910393e+00,-1.195045e-01,4.441847e-01,7.082393e-01,-5.861074e-02,-8.152864e-02,9.475529e-01,5.388570e-01,-6.197110e-01,-5.612270e-01,-7.489178e-01,-1.214126e+00,2.723477e-01,7.616135e-02,-7.616692e-01,-1.865187e-02,-1.720177e-01,-9.876961e-01,1.558490e-02,4.941977e-01,-4.575672e-01,4.818950e-01,-7.644436e-01,-1.408233e-01,-7.851046e-01,-1.080765e+00,4.707923e-01,1.226055e+00,1.187341e+00,4.135028e-01,4.957809e-01,-2.432442e-02,6.616954e-01,4.740117e-01,1.533504e+00,-1.547270e+00,-2.411088e-01,6.907420e-01,-5.001400e-02,9.225633e-01,3.584826e-01,3.335710e-01,
-5.039043e-01,2.803991e-01,-2.879446e-01,-1.194548e+00,-1.096195e+00,-8.729628e-01,8.619797e-01,-3.908126e-01,9.808247e-02,2.413332e-01,-1.200336e-01,-8.224968e-01,3.785262e-01,1.219186e-01,-4.033253e-01,5.208644e-01,4.279918e-01,-2.014347e-02,-7.976720e-01,8.680336e-01,-4.236302e-01,2.857214e-01,3.590975e-01,-5.141025e-02,-1.458699e-01,6.422592e-02,1.265290e-02,8.049806e-01,2.412470e-01,2.029960e-01,-2.323958e-01,-7.009099e-01,4.545617e-01,-1.025169e+00,-4.365524e-02,1.172122e-01,1.030901e+00,7.697634e-01,-2.156926e+00,-3.032472e-01,7.184210e-01,4.440053e-01,9.621077e-01,1.239257e+00,-3.813187e-02,1.896082e-02,-5.405882e-02,9.997625e-01,-1.095758e-01,4.197564e-01,
-6.437375e-02,4.403550e-01,-6.328533e-01,9.598257e-02,4.648703e-01,-2.789487e-01,9.147447e-02,-2.008633e-01,1.500566e-01,1.639039e-01,2.304670e-01,1.679433e-01,-6.267895e-02,3.989573e-01,1.483646e-02,-1.416111e-02,1.636787e-01,-2.939014e-02,-2.639237e-01,1.270044e-01,-3.103814e-01,4.042632e-01,5.449613e-01,-2.260737e-01,2.338397e-01,-3.246778e-02,-4.025490e-02,-2.388079e-01,2.496378e-01,1.043960e-01,2.735911e-01,-3.537814e-01,-2.078828e-01,1.501544e+00,1.640265e-01,3.196868e-01,-1.109307e-01,-1.961981e-01,1.138658e-01,1.173623e-01,1.363507e-01,2.589050e-02,4.726976e-01,7.341944e-02,-2.447759e-02,-4.618644e-02,4.140822e-02,-6.781540e-02,3.834343e-02,-2.720302e-02,
1.468037e-01,-1.058158e-01,2.538065e-01,3.322771e-01,2.112957e-01,-2.583164e-01,-2.814750e-02,1.806385e-01,-7.077474e-02,-2.725491e-02,-1.681904e-01,-1.076568e+00,2.782203e-01,2.532919e-01,4.742120e-01,9.379046e-02,-6.852976e-01,-6.524927e-01,6.113432e-01,-1.744842e+00,5.746368e-01,6.340807e-01,-4.942410e-01,-1.348539e-01,-1.660475e-01,6.951497e-01,3.669610e-02,1.199806e+00,8.015253e-02,-1.345163e+00,-2.433577e+00,1.710567e-01,2.531806e+00,-6.004311e-01,2.046264e-01,-1.193529e+00,3.183039e-02,-1.333764e-01,5.615613e-01,4.314930e-01,-3.179324e-01,1.130879e+00,-3.991239e-01,-1.358095e+00,1.918925e-01,8.908153e-01,-2.963220e-02,1.646649e+00,2.418611e-01,8.671213e-01,
-2.412553e-03,-2.297578e-01,5.948739e-01,8.479770e-02,7.419969e-01,-1.070506e+00,-1.362682e-01,-8.907267e-01,-3.575343e-01,-6.936349e-01,4.919417e-01,-1.355227e+00,-3.186025e-01,4.328100e-01,-1.454257e-01,-5.007234e-01,6.340102e-01,-5.131283e-01,-1.234363e-01,-3.313326e-01,-5.939608e-01,4.569026e-01,-8.332160e-02,1.705126e-01,-3.680146e-01,4.389366e-01,3.120160e-02,-4.531520e-01,-1.010852e+00,4.522049e-01,-2.776138e-01,-2.996223e+00,1.683856e+00,-3.026747e-01,7.334612e-01,-2.381613e+00,4.204489e-01,-5.861171e-01,-7.868116e-01,1.134454e-01,2.739064e-01,1.124893e-01,5.125722e-01,-8.856202e-01,2.115760e-02,-1.291260e+00,-4.416040e-02,7.905854e-01,2.246569e-01,2.769569e-01,
3.499156e-01,1.155787e-01,-1.022590e-01,-2.159051e-01,3.545976e-01,1.641178e+00,-3.634725e-01,-6.983064e-01,-1.519969e+00,2.938959e-01,-1.348797e-01,-2.525401e-01,4.971200e-01,-6.165610e-01,-1.001493e+00,-7.365062e-01,3.548184e-01,2.295375e-01,3.868021e-01,-5.653656e-01,6.937492e-01,-1.833581e-01,-7.330548e-01,-1.370813e-01,-7.039054e-01,-3.703754e-01,-4.271480e-02,-1.228039e+00,-4.671507e-01,6.743727e-01,1.471037e-01,1.156903e+00,4.504013e-01,1.175393e+00,5.293229e-01,4.003606e-01,1.519258e+00,-3.335293e-01,-4.371951e-01,5.289086e-01,-1.009581e+00,-2.799529e-01,-2.204581e-02,-1.432052e-01,7.328964e-01,4.470755e-01,-3.344400e-02,6.542662e-01,2.298229e-01,2.186273e-01,
