// The contents of this file are licensed under the Creative Commons
// Attribution 4.0 International License: https://creativecommons.org/licenses/by/4.0/
// Neural Network File Format by Kyle Julian, Stanford 2016 (generated on 10/21/2022 11:29:50)
7,5,5,50,
5,50,50,50,50,50,50,5,
0,
0.0,-3.141593,-3.141593,100.0,0.0,
60760.0,3.141593,3.141593,1200.0,1200.0,
19791.091,0.0,0.0,650.0,600.0,7.5188840201005975,
60261.0,6.28318530718,6.28318530718,1100.0,1200.0,373.94992,
-8.412337e-02,-9.799270e-02,1.219659e-01,3.053212e-01,2.983271e-02,
5.458816e-03,1.324271e+00,3.101753e-02,5.486953e-01,-1.970333e-01,
1.872432e-01,5.460635e-01,2.198753e-01,-1.689475e-01,-9.836840e-02,
1.177790e-02,-1.295130e-02,-3.531610e-03,5.573410e-03,-7.539200e-04,
3.411249e-02,-6.560901e-01,-6.259549e-01,-5.531882e-01,1.760342e-01,
7.840691e-03,-1.028646e-01,9.926040e-02,6.608550e-01,-1.046199e+00,
-1.778238e+00,-4.892658e-02,-3.290545e-02,9.023400e-02,5.407823e-02,
-5.511646e-01,-1.028809e-01,1.518506e-01,4.515355e-03,5.067568e-01,
3.882041e-02,2.286327e+00,-5.201107e-02,2.794295e-01,5.175449e-01,
3.994610e-02,2.261691e-01,-2.094167e-01,8.174056e-01,-8.830641e-01,
-3.288684e-02,-1.714638e-01,1.342320e-01,6.894226e-01,-1.331717e+00,
7.958223e-02,1.248243e+00,-1.872135e-02,6.699879e-01,-1.028888e+00,
-5.117014e-02,-1.776598e-01,-9.362670e-01,-1.109053e-01,1.244751e-01,
-1.921848e-02,-2.541894e-02,-1.569259e+00,7.439210e-02,-3.397385e-02,
8.685108e-01,-3.284433e-02,-1.771704e-02,5.056671e-01,-2.667214e-01,
1.050976e-02,1.345708e+00,1.253169e-02,6.117699e-01,-1.125722e+00,
-2.099960e-02,-5.090094e-01,-3.335317e-01,-3.259999e-01,1.788165e-01,
-2.108998e-02,-1.145323e-02,2.515600e-02,6.731668e-01,8.370445e-01,
2.540836e-02,1.924511e-01,-2.092146e-01,-1.747084e-02,-1.325873e+00,
-6.485106e-04,5.320749e-01,-5.208245e-01,3.647628e-03,-1.020603e+00,
7.089582e-03,2.871907e-01,-2.988543e-01,8.067520e-01,-1.054870e-01,
2.360644e-02,-1.621434e+00,1.282713e-02,5.807637e-01,-7.450722e-01,
9.877553e-03,6.002131e-01,4.420960e-01,-6.099144e-01,2.065503e-01,
-1.271921e+00,-5.401102e-04,-5.229734e-02,-5.028190e-02,-1.826693e-01,
1.897162e-01,9.723644e-01,-6.839759e-01,-1.912541e+00,-7.307168e-02,
-1.015633e+00,1.901198e-01,-6.130429e-02,2.345452e-01,-7.932672e-03,
-5.328215e-02,-3.693644e-03,-2.450432e-02,-1.123513e+00,-9.888826e-01,
-9.143294e-02,-2.348657e+00,2.239408e+00,-1.594386e-01,3.485916e-01,
-2.474157e-02,-1.409608e-01,3.455248e-01,-6.686541e-01,6.414331e-01,
-4.167643e-02,8.797911e-02,-9.254898e-04,1.273488e-01,7.191644e-01,
2.341989e-02,-5.279488e-02,3.287983e-03,5.465884e-01,-1.502487e+00,
-1.116410e+00,-2.525362e-01,3.146347e-01,-4.779899e-01,4.259219e-01,
1.040374e-02,-2.643583e-01,2.532063e-01,-1.354271e+00,4.403831e-01,
5.237826e-01,-8.258176e-02,1.812027e-02,-6.374181e-03,8.856449e-02,
-9.417928e-01,-4.700678e-02,7.550874e-01,1.465753e-01,1.814550e-01,
-9.524531e-01,9.805056e-02,-2.024441e-01,1.547446e-01,-2.659630e-01,
-5.135006e-02,4.364373e-01,7.798965e-01,-4.356586e-01,1.648351e-01,
-1.018655e+00,-5.617366e-02,-8.176831e-02,-8.157075e-02,-8.224458e-01,
2.619025e-02,2.406776e-01,5.451635e-01,7.582810e-01,-1.402314e+00,
2.434121e-02,-1.449651e+00,1.328374e+00,1.255275e-01,-1.198639e-02,
-2.058493e-01,-1.554792e-01,1.176525e-03,2.041105e-01,1.535878e-01,
6.529753e-02,8.404563e-02,1.433784e+00,3.775380e-01,-1.527085e-01,
-1.165328e-01,-5.321706e-01,5.550608e-01,-9.326079e-02,-1.889108e+00,
-5.012221e-02,2.034916e+00,-2.283073e+00,-6.084141e-02,3.765211e-01,
-3.692139e-01,2.927412e-01,5.704693e-02,3.051314e-01,-1.528937e-01,
-7.184353e-03,-5.025603e-01,5.070187e-01,8.862047e-01,-1.214268e+00,
-1.593164e+00,5.670269e-02,3.922409e-02,3.086411e-02,-7.147860e-02,
5.591792e-02,-4.976961e-01,3.119719e-01,-2.448597e-02,1.966437e-01,
7.570878e-02,-1.154652e+00,-1.705453e-01,5.423557e-01,-3.032511e-01,
1.619147e+00,3.301388e-02,1.223199e-02,-1.490170e-01,2.636453e-01,
1.658949e-01,
1.473994e-01,
3.320365e-02,
-2.094250e-02,
-6.599107e-02,
4.971840e-01,
-3.695250e-01,
2.567787e-02,
5.477750e-01,
1.805489e-01,
2.489486e-01,
-1.714343e-01,
1.348847e-01,
7.651677e-02,
3.990636e-01,
2.351535e-02,
4.127233e-02,
2.769775e-01,
4.100205e-01,
-1.421202e-01,
3.367219e-01,
-1.511918e-01,
-2.062134e-01,
-7.575693e-02,
-4.187913e-01,
-8.425157e-02,
-8.772434e-02,
-2.994987e-01,
1.502720e-01,
2.650504e-01,
-1.655106e-01,
-3.199009e-01,
-6.925650e-01,
-9.696114e-02,
-2.398498e-01,
-2.466715e-01,
-7.779041e-02,
-5.860029e-01,
-6.727308e-02,
-4.610167e-01,
6.258057e-02,
1.902382e-01,
-3.247302e-01,
-3.225968e-01,
-2.420852e-02,
3.803461e-01,
-3.348272e-01,
1.140831e-01,
1.551824e-01,
6.567046e-01,
2.253383e-01,4.411967e-01,5.973843e-01,1.699240e-02,-7.586243e-01,-8.902214e-01,-1.450088e-01,6.668578e-02,6.490151e-03,-2.383877e+00,-1.457237e+00,8.656848e-01,-1.379036e-01,2.188313e-02,3.281378e-01,-4.208587e-01,-1.863467e-01,3.568654e-01,1.541451e+00,-8.205233e-01,1.118370e+00,-1.071281e-01,-3.543511e-01,3.094392e-02,1.398156e+00,4.763884e-02,-1.050684e+00,2.329995e+00,8.053183e-02,-1.301319e+00,-1.230592e-01,3.185729e-01,1.439081e+00,-2.344644e-01,-9.763557e-01,-4.658911e-01,5.825723e-02,-3.283776e+00,-1.209912e+00,1.311900e+00,4.088955e-01,1.185098e-01,-4.271952e-01,2.688623e+00,9.313851e-01,5.665482e-01,4.956817e-01,1.918054e-01,6.956533e-01,-1.836515e-01,
-3.071834e-01,-3.615446e-01,-1.268137e+00,-1.638610e-02,-6.372590e-01,-9.073067e-01,2.392752e+00,2.621463e-01,3.102931e-01,1.762964e-01,6.986219e-03,1.397387e-01,-4.117523e-01,1.106359e+00,2.164052e-01,-5.440769e-01,-7.679355e-01,-7.059573e-02,-4.124290e-02,-4.431548e-01,1.443294e-01,-6.006601e-01,-4.932268e-01,1.923137e+00,2.137899e-01,1.458941e+00,-1.002867e-01,1.740815e-01,7.969014e-01,5.527874e-01,3.000058e-01,6.509212e-01,2.969964e-01,9.339810e-02,1.579669e+00,1.266573e+00,2.638039e-01,2.563152e+00,2.180504e-01,-2.085246e-01,1.166456e+00,-1.395125e-01,-3.811519e-01,-2.074743e-01,6.549924e-01,2.835358e-01,1.815404e+00,-1.480524e-01,-1.626468e-01,-2.251657e+00,
8.080170e-01,2.051022e-01,-7.274120e-02,1.264720e-02,-7.107938e-01,3.802575e-01,3.394345e-01,-2.301090e+00,5.214678e-01,-1.066400e+00,7.289672e-01,8.850435e-01,3.885605e-02,4.037226e-01,-1.479192e+00,1.165585e-01,4.807843e-01,-1.078432e+00,-3.161124e-01,-2.643258e-01,-2.381202e-01,-6.069673e-01,-2.209249e-01,1.179801e+00,-1.122009e-01,4.158278e-01,7.314147e-01,6.530246e-01,-5.442441e-01,-4.018111e-01,-7.699920e-01,-3.521167e-02,-6.878923e-01,1.162991e+00,-6.412677e-01,6.201751e-01,-2.278586e-01,-6.822439e-01,-1.167128e+00,-9.857864e-01,-5.354864e-01,9.747416e-02,2.165910e-01,-2.341048e-01,1.683537e-01,1.136255e-02,8.577734e-01,1.070701e+00,-8.182233e-01,2.618013e-02,
-7.087493e-03,-3.589950e-04,3.739370e-02,3.494630e-03,4.279315e-03,-2.334459e-02,-1.079780e-02,3.862590e-03,-4.056470e-02,3.305870e-02,-3.428570e-02,1.427570e-02,5.261062e-04,-5.649010e-02,-3.288659e-02,-2.203460e-02,-2.276745e-02,1.804831e-03,-2.326771e-02,4.587710e-03,-3.258810e-02,-2.179930e-02,3.690420e-02,-3.273600e-02,-3.035861e-02,-5.031590e-03,3.451773e-02,-1.321096e-02,2.622880e-02,-3.587374e-02,-4.747690e-02,-1.333850e-02,-2.992588e-02,-2.825229e-02,3.361480e-02,-5.664770e-03,-4.596342e-02,-1.422060e-02,3.933540e-02,-5.050390e-02,6.552210e-03,-3.226842e-02,-1.609110e-02,-3.878350e-02,-1.765610e-02,1.967090e-02,2.218030e-02,-2.227784e-02,1.868190e-03,2.364765e-02,
-6.079094e-01,8.674809e-05,5.477971e-03,-8.901070e-03,2.558595e-01,-4.495657e-01,1.284625e+00,-5.187176e-01,-9.145854e-02,6.088624e-02,-6.961476e-02,8.688096e-02,-1.687144e-01,3.466215e-02,-3.564699e+00,1.777868e-01,6.742992e-02,-7.418720e-01,-2.470421e-01,4.495529e-01,3.208181e-01,1.971286e-01,2.010639e-02,3.537425e-01,3.586624e-01,4.855425e-01,1.907565e-01,3.935393e-02,-5.371228e-01,3.303939e-02,6.082296e-01,4.457997e-01,-1.083540e+00,-2.652320e-01,3.395703e-01,8.346514e-01,-1.352278e-01,1.951857e+00,2.989126e-01,-1.605272e-02,-8.890904e-01,-4.422219e-02,3.775947e-01,-1.770089e-01,-1.593680e-01,9.503378e-04,9.603053e-01,-3.146466e-01,1.179374e-03,-1.954382e+00,
-2.851595e-01,4.097091e-01,-3.876472e-01,-3.276680e-02,7.828252e-01,-4.403983e-01,-5.528041e-01,-4.404291e+00,-2.167755e+00,-1.281704e-01,1.069143e-01,7.311711e-01,-1.158640e+00,2.726813e-01,4.595525e-01,-5.287058e-01,-1.088672e+00,2.598150e+00,2.114875e-01,1.136540e+00,-4.356076e-01,8.521883e-01,1.424030e-01,3.742268e-01,-2.397203e-01,-5.718454e-01,6.765180e-01,8.507824e-03,-1.262655e+00,-3.679450e+00,8.406824e-01,1.020306e+00,1.449890e+00,1.270971e-01,2.050886e-02,2.775735e-01,-4.222890e-01,2.306857e-02,4.573591e-01,-8.339498e-01,-1.914819e+00,1.453696e-01,1.606399e+00,8.063765e-01,-4.134873e-01,-1.034710e-01,-3.023857e-01,-7.926602e-01,-1.120851e-01,-3.239016e-01,
-2.556650e-02,-3.784540e-02,8.199470e-03,-1.657810e-04,-4.280670e-03,-4.544470e-02,8.538700e-03,-3.448890e-02,1.839400e-02,1.933560e-02,1.839360e-03,-3.577150e-03,-7.473230e-03,-1.517560e-02,-1.375920e-02,6.372280e-03,-2.317830e-02,-3.575680e-02,-4.276260e-02,-2.141970e-02,1.985390e-02,-4.968910e-02,1.402060e-02,-1.357810e-02,-5.522460e-02,-1.988070e-02,4.242650e-03,-1.095590e-04,2.313640e-02,3.219670e-02,-8.095850e-03,2.101390e-02,-4.251600e-02,-5.458680e-02,-1.619220e-02,-2.695160e-02,-4.471670e-02,7.178690e-03,2.580640e-02,3.198910e-02,-2.061320e-03,-2.771370e-02,2.786450e-02,-1.512610e-02,4.542300e-03,-1.562720e-02,-3.885580e-02,-2.950650e-02,-6.110200e-03,1.244970e-02,
-3.202248e-01,5.496742e-03,-1.363822e-01,1.862380e-02,1.457839e-01,6.816469e-01,2.378502e-01,-1.558225e-01,-9.975748e-02,-4.791533e+00,-2.386807e-01,1.147139e+00,-3.527992e-01,-4.398374e-02,-1.011890e-01,-9.828005e-02,2.062188e-02,6.101869e-01,7.717414e-01,-2.636400e-01,6.937270e-01,-1.989668e-01,2.216967e-01,-6.989204e-01,7.968038e-01,-3.051240e-01,-6.722203e-01,-6.766216e-01,-8.319283e-02,4.129965e-01,2.560870e-01,-8.163185e-01,-1.025723e-01,-1.327789e-01,7.734623e-01,-4.098049e-01,1.288696e+00,-1.214781e+00,1.201018e+00,-9.001355e-01,3.502690e-01,2.236040e-02,3.466922e-01,-9.479926e-01,2.329563e-01,-3.809505e-01,-2.197553e-01,-2.946859e-01,1.255004e+00,1.291693e-01,
-5.189916e-02,-1.840600e-02,-5.207937e-02,2.694160e-02,-4.453777e-02,-5.240560e-02,-4.334880e-02,-2.478840e-02,-5.355610e-03,-2.102950e-02,6.531544e-03,-2.794080e-02,-3.350720e-02,-2.865620e-02,-1.794750e-02,3.702070e-02,3.154923e-02,-4.995640e-02,3.583338e-02,-2.716960e-02,-3.673570e-02,1.627941e-02,-3.358063e-02,-2.233890e-02,-6.263340e-03,-3.793570e-02,2.215792e-02,2.806175e-02,2.358814e-02,-4.998239e-02,-1.877620e-02,-2.890897e-02,-9.324095e-03,3.230544e-02,-1.470160e-02,-1.602260e-02,6.369194e-03,-1.768110e-02,-1.032570e-02,3.048321e-02,1.752749e-02,-5.600100e-02,1.045274e-02,4.106580e-02,-4.075480e-02,-4.830362e-02,-3.630040e-02,-4.608653e-02,-5.492285e-02,-2.830489e-02,
-1.066148e+00,-6.820543e-02,-2.466344e-01,2.718280e-02,-1.402205e-01,-7.877192e-01,-1.327201e-03,-4.332058e-01,-4.795434e-01,1.112255e+00,-1.726946e+00,-2.823758e-02,-2.272665e-01,-3.196565e-01,-2.082488e-01,1.995958e-01,-7.898028e-01,-8.543691e+00,6.747555e-01,5.254091e-01,-6.676402e-01,5.337398e-01,3.453348e-01,1.343171e-01,9.969230e-01,-4.045140e-01,1.202103e+00,4.122011e-02,-2.340207e-01,-2.264241e+00,-1.633975e-01,1.810971e-01,3.567003e+00,-1.982933e-01,-4.289564e-01,-1.031809e-01,1.475719e-01,7.255819e-01,-5.385026e-01,-9.042577e-01,-4.068020e-01,1.594772e-01,-7.585839e-01,-3.833151e-01,-7.642642e-01,1.363490e+00,3.692834e-01,3.683008e-01,3.638810e-01,9.742612e-02,
-3.682420e-02,-1.440260e-02,2.701240e-02,8.872690e-03,-3.012340e-02,-8.141500e-04,-6.659760e-03,-2.057660e-02,2.742020e-02,1.396530e-02,2.537990e-02,-5.486910e-02,-1.078890e-02,-2.785200e-02,-2.492710e-03,-3.751120e-02,-1.942010e-02,-2.443760e-02,-5.924460e-03,3.191350e-02,-3.054690e-02,-3.611570e-02,3.474830e-02,-4.892280e-02,2.273320e-02,-4.189620e-02,-9.548820e-03,-2.234910e-02,3.456900e-02,-5.163450e-02,-2.511360e-02,2.676310e-02,1.778360e-02,2.420870e-02,3.429240e-03,2.174280e-02,-4.654220e-02,-1.746370e-02,-4.204840e-02,-4.261390e-02,-3.222870e-02,-2.705050e-02,-1.370120e-02,-5.457450e-02,-3.789090e-02,6.553400e-03,2.753990e-02,-3.136750e-02,-4.630150e-02,-6.024860e-02,
-3.720775e-01,2.513654e-01,-1.199702e-01,-1.222590e-02,3.296489e-01,-1.996293e-01,4.294726e-02,-3.472838e+00,1.051898e-01,-7.396167e-01,4.542702e-01,9.606901e-01,4.238401e-01,-1.046701e-02,-3.947911e+00,-3.551923e-01,3.073218e-01,2.374932e-01,9.331868e-03,2.560692e-01,4.763885e-01,-5.679521e-02,-2.211796e-02,-1.810571e-01,5.716714e-01,8.800257e-01,6.496576e-01,1.696001e-01,1.431587e-01,6.605987e-01,-2.397449e-01,6.190759e-01,-6.977098e-01,7.545236e-01,7.983402e-01,4.737344e-01,2.004592e-01,-6.735146e-02,-1.385289e-01,1.423191e-01,9.150574e-02,-9.961253e-02,4.580605e-01,1.167912e-02,4.374215e-01,5.282148e-02,8.852850e-01,4.376442e-01,-5.525037e-02,3.714684e-01,
-2.267393e-02,7.869360e-03,1.637170e-02,2.735990e-03,-2.937973e-02,-3.949380e-02,-3.610900e-02,-2.819322e-03,-1.263030e-02,4.047770e-02,-1.502510e-02,-1.306900e-02,2.164098e-03,-1.016091e-02,-5.063944e-02,-5.205510e-02,2.364246e-02,1.561759e-02,-5.086694e-02,9.403280e-04,-3.247970e-02,8.861586e-03,1.527340e-02,-7.530445e-03,1.429967e-02,3.734670e-03,-2.336310e-02,-3.035310e-02,5.522655e-03,-6.219601e-02,4.199870e-02,7.278099e-03,-5.637826e-02,-2.665100e-02,-4.128770e-02,-2.437210e-02,-2.262150e-02,2.899910e-02,-9.609300e-03,4.011250e-02,-9.059468e-03,2.733680e-02,2.802280e-02,-3.023509e-02,-3.770540e-02,-4.502680e-02,-2.604030e-02,2.162652e-02,-4.045915e-02,4.417287e-03,
4.356790e-01,1.539333e-01,2.554565e-01,1.299270e-02,6.597502e-02,-3.061968e-02,7.042674e-01,1.213893e+00,1.460373e-01,4.889486e-01,6.270203e-01,9.253865e-02,5.280269e-01,-1.758190e-01,-1.773768e+00,-9.603373e-02,5.141322e-02,-2.523538e+00,2.980978e-02,1.844582e-01,-4.850972e-01,3.330708e-01,-4.873207e-01,2.591489e-01,3.263407e-01,3.176558e-01,3.286709e-01,-5.054209e-01,-4.297421e-01,3.470250e-01,3.393468e-01,-4.919482e-01,1.165332e+00,-7.639940e-02,3.272273e-02,4.026152e-01,-6.235527e-01,-5.115277e-02,-4.948204e-01,-1.738317e-01,-1.304711e+00,4.944668e-01,-2.596449e-01,8.630797e-04,-2.526532e-01,5.226231e-02,-3.730385e-02,8.012403e-01,-3.406322e-01,-5.994886e-01,
-3.855750e-02,1.104480e-02,-3.312770e-02,3.227210e-03,-3.755240e-02,2.959030e-03,-4.767060e-02,3.120420e-02,-5.258620e-02,-3.501550e-02,3.287680e-03,4.517580e-02,-4.606240e-02,-4.168920e-02,-3.396810e-02,1.777280e-02,-4.442250e-02,2.955750e-02,-3.194760e-02,3.553030e-02,-1.754390e-02,-2.298810e-02,2.113630e-02,-5.048560e-02,2.116440e-02,2.364250e-02,-3.934530e-02,-1.877720e-02,-3.080080e-02,1.950660e-03,-6.289330e-03,-1.811300e-02,-1.651900e-02,-4.376510e-02,3.710690e-02,1.689620e-02,-3.928240e-02,3.249070e-03,4.046810e-02,-4.108190e-02,1.831500e-02,-2.120890e-02,-3.541910e-02,2.818170e-02,2.607510e-02,-1.611990e-02,8.762360e-03,-2.391320e-02,1.994440e-02,4.094850e-02,
1.084452e-02,-8.351794e-01,-8.381189e-01,2.501170e-03,-7.486382e-01,-1.585558e+00,-3.413020e-01,-3.052705e-01,-5.349700e-01,9.220775e-01,-9.084885e-01,-4.052474e-02,-2.707112e-02,-1.029941e+00,-1.543016e-01,-4.248538e-01,-5.023792e-01,-4.855657e-02,3.237417e-01,-3.333259e+00,6.611600e-01,6.745752e-02,4.383531e-01,-1.400103e-01,-8.482114e-01,-3.299294e-02,1.434393e-01,8.171485e-01,-2.223111e-01,-5.253994e-01,7.131018e-02,8.179117e-01,1.209331e+00,-1.268485e-01,-1.124151e+00,5.163410e-01,-5.183249e-01,1.624615e+00,-2.540511e-01,1.951802e+00,-7.522492e-01,3.595593e-01,1.481141e-01,3.124840e-02,2.772043e-02,9.917249e-01,-3.081450e-01,2.708019e-01,9.929334e-02,1.629226e-01,
-1.924442e-03,-8.666767e-01,7.858110e-02,4.054000e-02,-1.758977e-01,6.028804e-01,-1.358466e-03,-1.255743e-01,-6.233667e-01,-8.579630e-01,5.245457e-01,-1.134577e+00,1.236013e+00,5.134673e-01,-2.965086e-01,-5.840221e-01,6.759245e-01,1.262090e+00,4.069042e-01,8.701511e-02,-3.074926e-01,1.545909e+00,7.490699e-02,-2.819245e-02,-1.437021e-01,-3.441104e-01,-1.499557e+00,-7.596357e-02,-4.618743e-01,-6.513779e-01,4.819218e-01,-2.787405e-01,5.988508e-02,6.207575e-02,-4.720603e-01,-1.235214e+00,7.845345e-01,-4.034914e-01,-6.459512e-01,2.278930e+00,5.637262e-01,-1.238285e+00,6.545287e-01,-7.254577e-01,-8.577628e-01,3.655028e-01,-2.495283e-01,-1.678539e-01,7.955051e-01,2.334331e-01,
6.655038e-01,-1.918721e-01,5.069183e-01,-4.251690e-02,8.934046e-01,8.958865e-01,7.980239e-01,-3.991483e-01,-3.982239e-01,-2.141951e+00,-5.433518e-01,-1.930271e+00,3.905154e-01,-6.594470e-02,-5.606883e-01,-1.833415e-01,5.734154e-02,9.389682e-01,1.359940e-01,-4.901638e-01,-6.789483e-01,1.193184e+00,1.994749e+00,-4.102577e-02,-3.387593e-01,-3.366776e-01,-6.828735e-01,-9.532752e-01,2.687693e-01,-3.099203e-01,5.698190e-01,6.708097e-01,5.166714e-01,2.550513e-02,-7.862146e-01,-5.105493e-01,4.322606e-01,6.959105e-01,-2.488812e-01,2.351957e+00,3.836755e-01,-5.850481e-01,2.494434e-01,-3.450329e-02,2.534494e+00,-2.406515e-01,5.750933e-01,8.283975e-01,4.003082e-01,5.642086e-02,
-1.129846e+00,2.054565e-01,4.455602e-01,1.156180e-02,6.643578e-01,-1.521974e-01,3.968957e-01,-5.268976e-01,4.793276e-01,-1.079327e+00,-1.227819e+00,-1.123271e-01,1.271521e-01,-5.306031e-01,-7.370181e-02,3.695067e-01,1.178465e+00,3.044824e-01,-2.097673e-01,2.701493e-01,8.394892e-02,1.235355e-01,4.214495e-01,7.715072e-01,-2.549893e-01,2.942546e-01,5.204849e-01,3.176174e-01,9.515405e-02,-4.389651e-01,-1.652777e+00,6.546554e-01,3.759623e-01,-5.128283e-01,-1.045429e+00,-6.370761e-02,3.044263e-02,-9.744634e-02,-5.348934e-02,-1.816733e-01,9.724454e-01,-2.080287e-01,-1.733700e-03,2.400063e-01,-1.894175e-02,3.828520e-02,5.419030e-01,-1.055014e-01,1.037652e+00,-3.549553e-01,
2.053043e-01,-1.038692e-02,-1.128433e-01,-2.734890e-02,-3.527917e-02,-8.038224e-02,-9.812672e-02,-2.382612e-02,2.852449e-01,-1.747260e+00,-5.423806e-01,-3.329537e-01,2.622999e-01,-9.197021e-01,-1.769788e-02,-2.490270e-01,1.857326e-01,-5.007906e+00,5.740119e-01,-1.609902e+00,8.698088e-01,1.600980e-01,1.778123e-01,1.035266e-01,-2.816690e-01,-8.879802e-03,7.377306e-02,-1.578045e-01,-1.017691e-01,3.322778e-01,-2.479963e+00,1.021389e-01,2.049034e+00,2.328485e-01,1.262486e-01,-7.016613e-02,3.994111e-01,1.473854e+00,4.802769e-01,6.280289e-02,-8.839536e-01,-8.109029e-02,3.194399e-01,-5.060924e+00,-5.114806e-01,2.328553e-01,3.676034e-01,-4.266320e-01,-4.429123e-01,-4.045932e-02,
-1.428380e-01,-2.878408e-01,-3.060564e-01,-3.540490e-03,1.073096e-01,-5.915986e-01,9.851516e-01,6.314214e-02,4.403304e-01,9.901837e-01,3.900056e-01,-4.580385e-02,8.185496e-01,1.159511e+00,3.952155e-01,3.659741e-01,-5.923730e-01,-3.388314e-01,7.219424e-01,-4.875515e-02,3.823823e-01,9.271023e-01,-1.107378e+00,4.673750e-01,4.133056e-01,-2.722984e-01,-1.799321e-01,-1.195493e-01,-1.144735e+00,6.896050e-01,-9.686094e-01,-4.756802e-01,1.496896e+00,3.551592e-01,-1.126506e-01,-1.063677e-01,1.943438e-01,-9.128084e-01,-5.601367e-01,1.424823e+00,-2.694141e-02,-9.414400e-01,1.160788e+00,3.479804e-01,4.008147e-02,6.648297e-01,-1.900628e-01,-1.816933e+00,-1.251262e+00,-7.878067e-02,
-4.923018e-01,4.028737e-01,6.044636e-01,-3.879670e-02,2.430242e-01,1.153480e-01,-3.027561e-02,-3.051926e+00,-4.623753e-01,-1.621224e+00,2.429440e-02,-1.651168e+00,-2.401815e-01,-9.864891e-02,-3.647106e-01,-3.751728e-01,1.454379e-01,-4.922600e-01,7.711412e-02,1.655719e-01,-5.536380e-01,3.392787e-01,7.935878e-01,7.177529e-02,1.775399e-01,-7.402673e-01,9.457109e-01,3.482977e-01,3.760567e-02,-6.657440e+00,1.311572e+00,-2.656414e-02,-5.920970e-01,5.912533e-01,-2.694737e-01,1.718330e-01,-2.155544e-01,3.034084e-01,1.460493e-01,3.743528e-01,-7.095016e-01,4.318672e-03,7.301022e-01,3.580727e-01,-4.515039e-01,-6.697490e-01,3.757307e-01,1.641188e-01,-9.788137e-01,-1.707108e-01,
-2.056498e-02,5.423447e-01,2.045211e-01,-2.259930e-02,5.076399e-01,-2.729601e-01,-8.751757e-01,2.059364e-01,3.514137e-01,-1.238525e+00,5.683303e-01,2.055101e+00,-1.032192e+00,-2.929016e-01,-6.128869e-01,4.068179e-01,4.259179e-01,-4.109320e-01,-2.242638e-01,5.859846e-01,5.948628e-02,-5.094277e-01,2.056891e-02,-6.757336e-01,-1.230186e+00,6.206932e-02,8.041114e-01,-1.156745e+00,-3.525188e-01,8.200978e-01,-2.350211e-02,-7.071395e-02,-4.224521e+00,-1.112952e+00,2.355685e-01,-1.507608e+00,4.162389e-01,-3.982688e-01,6.319589e-01,-2.698164e+00,2.758694e-01,1.236918e+00,-4.748871e-01,-6.620729e-01,-5.548472e-01,-2.712927e-01,2.419076e-01,-5.183545e-02,-1.843690e+00,6.713361e-01,
2.465288e-01,4.384991e-01,9.493525e-02,-2.562950e-02,-5.157899e-01,5.238122e-01,-9.497003e-02,1.749835e-02,-1.877711e-01,2.176736e-01,1.031508e-01,5.002769e-01,-1.205294e-01,6.215619e-01,2.488644e-02,6.419238e-02,-7.148959e-01,1.710198e-02,-4.579553e-01,-3.828350e-01,-5.459037e-01,-4.670907e-01,-2.127997e-01,1.973444e-01,-6.429992e-01,1.622541e-02,4.618023e-01,-4.769342e-01,1.167267e+00,-3.502376e-02,-7.799600e-01,6.845018e-03,-3.327359e-01,-4.562730e-01,2.339393e-01,-2.894653e-01,1.941922e-01,2.120553e-02,-1.200021e-01,3.150127e-02,3.585133e-01,1.647361e-01,-6.430259e-02,-1.090678e-01,1.828213e-01,-2.372537e-01,1.488354e-01,4.188550e-01,3.890702e-01,1.032079e-01,
-4.314630e-02,-5.975430e-02,-5.316870e-02,8.954670e-03,-4.399680e-02,-2.445170e-02,4.393220e-02,-3.385500e-02,1.485600e-02,-8.598150e-03,-2.147820e-02,-4.145970e-02,-3.181140e-02,-2.217700e-03,-9.205280e-03,-4.264740e-02,2.990640e-03,2.462090e-02,-7.253380e-03,2.213390e-03,1.663310e-02,2.943290e-02,-1.881940e-02,2.390610e-02,-4.348260e-02,-1.333850e-02,8.762190e-03,1.863980e-02,-2.578660e-02,4.475800e-03,-1.911330e-02,3.849250e-02,3.581120e-03,-1.948010e-02,-2.444960e-02,1.462210e-02,-6.004790e-02,3.085850e-02,3.791300e-02,-2.883980e-02,-1.979920e-02,2.108940e-02,1.188180e-02,-2.644110e-02,2.843480e-02,-2.228790e-02,1.831550e-02,8.743240e-03,-8.521890e-03,-5.829910e-02,
4.203013e-01,-1.360122e+00,1.944753e-01,1.280950e-02,-1.677421e-01,-2.402014e-01,8.126742e-01,-1.228564e+00,-6.567425e-01,5.005353e-01,6.589873e-02,-1.012994e+00,9.868824e-02,-1.642222e-01,1.478067e-01,8.662260e-01,1.932196e-01,-1.183896e+00,-2.459917e-01,2.656347e-01,2.747552e-01,-9.198470e-01,5.430588e-01,7.731957e-01,4.403555e-01,-2.946190e-02,2.439721e-01,-1.829861e-01,-1.090257e-01,2.024658e+00,3.149084e-01,-2.483825e-01,-1.075348e+00,6.754874e-02,-2.145513e-02,-4.160059e-01,9.390956e-02,1.258434e+00,3.510574e-01,-1.249634e-01,-2.118628e+00,-4.780462e-02,5.989101e-02,-6.389235e-02,1.157443e+00,9.009273e-02,2.759636e-01,-9.600695e-02,6.418863e-02,-6.763174e-02,
-6.055040e-01,1.716113e-01,-3.212689e-01,1.461110e-02,2.199050e-01,1.681552e+00,-5.727299e-01,6.838038e-02,-2.105380e-01,-4.379575e+00,9.752331e-01,5.644681e-01,2.142668e-01,2.398974e-01,2.928911e-01,1.599199e-01,1.327928e-01,1.835722e-01,-4.258034e-01,-2.048598e+00,-1.328636e-01,-2.443764e-01,5.153016e-01,-1.684724e-01,9.432518e-01,2.243307e-01,-5.047243e-02,-5.593399e-01,2.073417e-01,2.318692e-01,1.346334e+00,9.877381e-01,1.429653e-01,1.007232e-01,-8.958606e-01,-1.597153e-01,2.413983e-01,-6.383679e-01,-1.450706e-01,-5.547335e-01,-9.987775e-01,2.806334e-01,-7.926803e-01,-1.321465e+00,4.452696e-01,-1.630225e+00,-1.612074e-02,-4.779119e-01,-1.564128e-01,-4.003270e-02,
9.588257e-03,7.283220e-02,-8.901144e-02,-2.390020e-02,1.565504e-01,-5.935159e-01,-1.829928e+00,-1.302027e+00,-4.573825e-02,-4.995914e-01,-1.694953e-01,6.421202e-01,-2.120434e-01,3.474817e-01,6.824745e-01,3.091883e-01,-6.794997e-01,-2.576120e+00,1.632013e-01,5.294504e-01,-5.766524e-02,-7.245690e-01,-4.913107e-03,6.477549e-01,3.331832e-01,-2.127130e-02,5.842850e-01,3.938428e-01,1.099891e-01,-3.971099e+00,1.702859e+00,2.479437e-01,-1.150288e+00,-1.926340e+01,4.313551e-02,1.037960e-01,-8.109607e-02,1.958109e+00,1.334282e-01,-7.765589e-02,-3.419518e+00,1.741730e-02,8.760486e-01,-1.378987e-01,-1.204814e+00,-4.816576e-01,6.538742e-01,-4.797285e-01,2.621623e-01,1.693329e-01,
4.322947e-01,-8.969997e-01,5.288467e-02,-3.172050e-02,6.536706e-02,-4.326673e-01,-2.770769e-01,2.395161e-01,-6.950299e-02,6.075177e-01,-1.749921e-01,3.696482e-01,3.005190e-01,4.273481e-02,-2.717900e-01,6.937717e-01,1.904981e-01,-1.536225e+00,-3.039280e-01,1.004418e+00,-2.380209e-01,-1.356943e-01,-8.517254e-01,2.864254e-01,-4.017704e-02,6.245875e-02,2.977964e-01,-1.508130e-01,-1.296533e-01,1.147167e+00,8.629304e-01,-2.420032e-01,-8.499392e-01,-4.420509e-01,-1.793804e-01,-7.501492e-01,1.208070e+00,1.588369e+00,6.985415e-01,1.317395e+00,1.312321e+00,-7.892026e-01,1.138706e-01,-8.685338e-01,-2.877080e-01,-2.425770e-01,3.570682e-01,-3.791015e-01,-6.070474e-01,1.328586e-01,
-1.756030e-02,1.079420e-02,-4.635866e-02,1.667770e-02,-1.511078e-02,1.240109e-02,-1.750780e-02,-2.588150e-02,-2.185520e-02,-2.536672e-02,2.918142e-04,-3.999770e-02,-2.879062e-02,7.394123e-03,-3.111673e-02,4.377255e-02,1.942503e-02,-3.272020e-02,-1.039337e-02,3.788773e-03,-1.366401e-02,3.267429e-03,-2.774090e-02,-4.214090e-02,-2.273504e-02,-3.989410e-02,2.434669e-02,-5.080330e-02,-2.593851e-02,1.494990e-02,1.195796e-02,1.991920e-02,-4.856640e-02,-2.537588e-02,-4.714490e-02,3.624360e-02,-2.198300e-02,4.335420e-02,2.338029e-02,-1.191650e-02,2.973500e-02,-2.730880e-02,1.342622e-02,1.471620e-02,-3.572690e-02,-4.195594e-02,-5.500690e-04,-1.025679e-02,1.596981e-02,3.453199e-02,
-2.130960e-02,2.568020e-02,-1.186560e-02,-2.270380e-02,-1.154770e-02,-3.725590e-02,-3.498130e-02,5.109080e-03,-4.100520e-02,4.426410e-02,-2.566960e-02,-1.983100e-02,1.239180e-02,-2.941600e-02,-3.901930e-02,-2.967210e-02,3.704300e-02,1.426530e-02,-2.638850e-02,4.249760e-02,8.046210e-03,-4.522570e-02,3.361730e-03,-2.547440e-02,-8.533460e-03,-4.597700e-02,1.331650e-02,-4.249410e-02,-5.334690e-02,4.002560e-03,2.847610e-03,4.575560e-02,-4.897240e-02,-4.596930e-02,3.670420e-02,1.834660e-02,-2.678400e-02,-7.260080e-03,-1.135820e-02,1.348820e-02,3.602750e-02,6.644080e-03,-2.676610e-02,-1.415820e-02,2.215260e-03,1.917800e-02,-5.982000e-03,9.474740e-04,-3.984290e-03,-4.955890e-02,
4.545660e-02,4.854957e-01,6.604910e-02,2.754130e-02,2.520250e-01,3.360411e-01,2.734519e-01,-1.561218e-01,-1.765774e-01,-1.128357e-01,2.524483e-01,-2.217434e-01,9.706073e-01,6.082554e-01,-6.216832e-02,-3.947486e-01,-1.499625e-01,2.845065e-01,1.688005e-01,-3.510503e-01,-1.077166e-01,-8.637033e-02,3.639141e-01,-2.788095e-01,4.222193e-02,-5.801919e-01,-2.607209e-01,-3.443834e-01,-9.441556e-02,-9.610911e-02,8.032894e-01,-3.310133e-01,-8.216451e-01,-1.236761e+00,-6.127707e-01,4.975142e-01,3.667043e-01,-2.474487e+00,1.185919e-01,-2.625126e-01,-3.958531e-02,-3.630478e-01,6.526967e-02,-9.392846e-01,5.357435e-01,-3.157287e-01,-5.123963e-01,5.567005e-01,3.526026e-01,2.452488e-01,
-1.219720e-02,-4.367290e-02,4.102250e-02,-2.176680e-02,-7.787640e-03,1.113600e-02,-4.698560e-02,-2.651490e-02,2.814900e-02,9.923240e-03,-4.159000e-02,2.801890e-03,-3.669910e-02,-3.548330e-02,-6.257460e-03,1.570720e-02,-8.702740e-03,3.060270e-02,-3.336480e-03,-4.923200e-02,-2.324950e-02,9.717170e-03,-4.846670e-02,8.897090e-03,-8.343850e-03,1.408470e-02,-2.696780e-03,-3.186890e-02,-4.203090e-02,-2.627840e-02,1.203740e-02,2.090600e-02,-6.494280e-03,-3.094870e-02,2.517770e-02,-4.911630e-02,1.402900e-02,-4.179070e-02,-3.022830e-03,1.288670e-02,-3.987380e-02,-4.985070e-02,-1.980760e-02,-1.741880e-02,2.539250e-02,3.978320e-02,2.305020e-02,-4.134650e-02,-3.418300e-02,-9.846380e-03,
-3.200260e-02,8.384450e-03,-5.190220e-02,-1.350500e-02,-1.338170e-03,-3.264030e-02,1.364600e-02,1.593240e-02,1.439990e-02,-3.180200e-02,-4.784220e-02,2.904220e-03,-3.575780e-02,-5.258140e-02,-2.392120e-02,-3.311180e-02,1.964690e-02,2.364930e-02,-3.960430e-03,-1.296990e-02,1.305240e-02,4.625790e-02,-9.613570e-03,2.351400e-02,1.109430e-02,-6.387370e-03,-1.975560e-02,-1.738880e-02,-5.919830e-03,-9.053230e-03,-1.272670e-02,-4.280080e-02,2.867940e-02,-5.046780e-02,-1.640390e-02,-2.108370e-02,-3.530250e-02,-2.793780e-02,3.984110e-02,-4.792130e-02,-5.555850e-02,-1.444220e-02,2.084050e-02,-4.569620e-03,2.638380e-02,-4.924860e-02,-4.361100e-02,7.157990e-03,-4.271060e-02,2.852150e-03,
1.473406e-01,1.142517e+00,5.181375e-01,2.035430e-02,-5.980366e-01,9.880674e-02,-5.692707e-01,-7.906530e-02,3.632477e-01,-6.089872e-01,-1.912135e-01,-3.260412e-01,-1.061224e+00,-5.765739e+00,-1.946294e-01,3.991198e-01,-1.198619e-02,-4.987914e-02,3.480991e-01,4.548982e-01,4.086988e-02,-3.867112e-01,-4.018288e-01,-3.720793e-01,1.419006e-01,3.415575e-01,-1.313545e-01,5.423843e-01,-3.681093e-01,4.261241e-02,-1.387826e+00,-1.723193e-01,1.120303e+00,7.918524e-02,8.106050e-01,-5.382358e-01,-1.738431e+00,-3.588986e-01,-7.092683e-01,2.537109e+00,4.770444e-01,-1.132887e-01,4.328117e-01,-7.136493e-01,-5.695241e-01,6.632011e-01,2.092140e-01,1.882593e-01,-8.234886e-01,-3.454283e-02,
-7.393184e-01,-2.702381e-02,3.994179e-01,2.343830e-02,5.763330e-01,-1.320868e+00,-2.484305e-01,2.100614e-01,7.704362e-02,7.061702e-01,-4.616072e-01,-3.526848e-01,-2.161835e-01,7.560891e-02,5.308913e-01,1.725177e-01,5.947090e-01,-1.033758e+00,1.940433e-01,-1.016687e-01,6.668351e-01,5.214882e-01,2.342165e-01,-4.791968e-01,2.441176e-01,1.023352e+00,6.347603e-01,2.658859e-01,-2.027857e-01,7.508104e-01,-9.730186e-01,-1.027794e+00,-5.925146e-02,1.834183e-01,5.838295e-01,4.852877e-01,-5.244977e-01,3.244613e-01,5.279418e-01,7.796063e-01,-9.950653e-02,8.024648e-01,1.279387e+00,-3.898081e-01,-1.631874e+00,-1.114670e+00,-7.645063e-01,-4.655358e-01,2.767887e-01,-9.713860e-02,
-2.647500e-02,-4.485977e-02,-3.044868e-02,-2.455260e-02,-6.010784e-03,-1.626990e-02,-4.521570e-02,3.536920e-02,9.759901e-03,3.958250e-02,-3.986740e-02,-1.706170e-02,1.409611e-02,-3.162910e-02,-4.589468e-04,-4.731600e-02,-5.387247e-02,-3.073112e-02,-4.321890e-02,4.133380e-02,-5.498029e-02,-3.163980e-02,-1.454471e-02,-1.555600e-02,6.812606e-03,2.830300e-03,-3.734210e-02,-4.494990e-02,-3.655893e-02,-3.225655e-02,1.088240e-02,-4.406200e-02,-1.916325e-02,-2.577809e-02,-2.580440e-02,2.350560e-02,5.719320e-03,2.079470e-02,-3.647040e-02,-1.158440e-02,-5.328410e-03,-1.071582e-03,2.454480e-02,-5.824140e-03,2.691020e-02,2.416040e-03,3.635890e-02,2.924516e-02,-5.314480e-02,2.223138e-02,
-1.755688e-01,-4.186340e-02,-8.844887e-02,-1.791620e-02,5.366805e-01,-4.909550e-01,1.081102e+00,-5.537474e-01,-2.383697e-01,2.102525e-01,1.226616e-01,-1.394345e-01,3.543632e-01,2.306303e-02,-1.067670e+00,1.582883e-02,1.285858e-01,1.348565e+00,-3.148783e-01,8.894609e-02,5.212553e-02,1.049906e-01,6.427101e-02,2.713832e-01,4.104894e-01,4.026500e-01,-2.285570e-01,-2.752371e-01,-2.041209e-01,-1.704065e+00,-1.412041e-01,2.444767e-02,-2.322420e+00,-1.286170e-01,-3.597161e-03,4.307949e-01,7.882577e-01,1.286574e+00,1.215669e-01,1.282236e-01,-1.369241e+00,-1.086724e-01,-1.276267e-01,2.858012e-01,1.937168e-01,3.349446e-01,5.949351e-01,1.161981e-01,2.671992e-01,-1.002173e+00,
6.224737e-01,-5.028046e-01,-2.831514e-01,-1.024260e-02,-7.038803e-01,-6.981585e-02,2.353807e-01,-1.618076e-01,2.086578e-01,-5.678130e-01,5.756751e-01,7.449694e-01,-1.900379e-01,5.369763e-02,-1.299394e+00,-1.436486e-01,6.469525e-01,4.379533e-01,1.295109e-01,1.270762e-01,-1.028358e-01,1.130644e+00,2.689938e-01,3.696997e-01,1.522923e-01,6.619728e-01,-2.613942e-01,1.773323e-01,-7.562058e-01,4.007331e-01,-3.471789e-01,-1.327600e-01,2.402579e+00,1.321523e+00,-2.505695e+00,1.967609e-01,-8.627101e-01,-4.172618e-02,2.550809e-01,2.380577e-01,-2.164609e-01,-4.132660e-01,-7.408652e-01,-3.016937e-02,-6.717176e-01,4.463010e-02,3.359260e-01,-1.049309e+00,-8.337364e-01,1.092201e-01,
-1.883672e-02,1.403568e-01,9.779655e-01,-3.227060e-02,-2.377326e-01,9.356414e-01,1.629887e-01,-2.813883e-01,9.521958e-02,-8.297076e-01,1.043621e+00,-8.453082e-02,4.223824e-01,-2.313966e+00,-1.047938e+00,-1.976223e-01,1.048020e+00,6.081950e-01,-5.278822e-01,-8.615155e-01,-1.905527e-01,-7.312230e-01,6.225512e-01,7.759921e-01,-4.623505e-01,3.203171e-01,7.297727e-01,-1.594777e+00,1.732623e-01,2.935246e-01,-6.419849e-01,-6.100303e-01,-6.241867e-01,1.739842e-01,-1.120333e+00,-1.404388e-01,-1.737593e-01,-2.294105e+00,1.932162e-01,-8.433049e-01,-6.864835e-01,2.866358e-01,-8.382597e-01,-1.391675e+00,3.740625e-01,-7.183471e-01,-2.081584e-01,4.593471e-01,-2.128858e-02,2.999389e-01,
-3.062692e-01,-6.045943e-01,-1.600272e-01,-2.194270e-02,-8.414562e-01,5.603610e-01,-2.894257e-02,7.277104e-02,-8.484699e-01,4.326035e-01,-6.710091e-02,-2.986820e-01,2.134635e-01,5.729143e-01,-1.435458e-01,-5.057932e-01,-7.246976e-01,7.880025e-01,-4.279896e-02,-3.425565e-01,-1.507839e-04,-7.940363e-02,8.973289e-02,7.449751e-01,-3.492865e-02,2.383579e-01,-6.043808e-01,4.746183e-01,-2.225264e-01,-3.980293e-01,-1.473768e-02,-2.831918e-01,-2.653751e-01,4.039052e-01,7.444147e-01,-2.721635e-01,2.337034e-02,8.967443e-01,1.755733e-01,3.132392e-01,-4.262659e-01,-2.778926e-01,3.567919e-01,2.673398e-01,-1.973428e-01,-3.921355e-02,6.723546e-01,-4.374412e-01,-5.947807e-01,-3.391364e-02,
4.990579e-01,-1.551968e-01,-9.292178e-02,9.534000e-03,-3.115275e-01,-3.803307e-01,-2.546001e-01,1.267626e-01,2.874635e-01,-1.195393e+00,4.984393e-01,8.779670e-01,4.979666e-01,3.079322e-01,1.388432e+00,3.046373e-02,-5.017606e-01,-6.137602e-02,3.276139e-01,-1.739190e-01,9.625065e-01,-3.837216e-02,-1.483339e-01,-4.408331e-01,9.762222e-02,-2.488379e-01,2.226879e-01,-4.704314e-03,-3.631819e-01,7.839205e-01,-5.235344e-01,1.627733e-01,-1.807869e-01,-1.973120e-01,7.062932e-01,-5.158700e-01,2.851259e-01,-1.186679e+00,-2.678073e-01,1.302357e-01,1.540662e+00,-2.063556e-01,1.424674e-01,-5.311619e-01,1.305431e-01,3.100364e-01,-3.587039e-01,-1.859477e-01,1.412896e-01,6.036602e-01,
-5.236716e-01,-1.156572e-02,-2.378640e-01,-1.756190e-02,-1.233869e-03,4.376290e-01,-4.725476e-02,-2.058056e-01,8.615091e-02,-6.095319e-01,-9.693197e-02,-6.920347e-01,-1.898335e-01,1.963443e-01,-2.265396e-01,-1.876560e-01,4.256399e-01,-4.498883e+00,1.231178e-01,9.768800e-01,5.169912e-01,-5.029417e-01,-2.453594e-01,-1.101767e-01,-7.591628e-01,-3.763786e-01,6.050417e-01,1.925783e-01,-6.929204e-01,1.424676e+00,-1.023756e+00,6.041324e-01,-1.467328e+00,1.689407e-01,-3.945520e-01,-3.619168e-01,-5.581071e-01,2.409066e-01,-1.717549e-02,-2.278714e-01,-2.928627e-01,6.968398e-01,3.198703e-01,-2.183609e-01,-3.924181e-01,-1.271627e+00,1.073256e-01,3.091065e-01,-2.608016e-01,1.916856e-01,
3.367307e-01,7.464163e-01,1.996714e-01,-3.670290e-02,-1.812312e-01,1.169223e-01,5.131931e-01,-2.140041e+00,-6.867484e-01,-1.876182e+00,3.265153e-01,1.784469e-01,-1.423817e+00,-3.774717e+00,1.273403e+00,-6.178161e-01,1.531913e-01,-7.949743e-01,-2.899156e-01,9.927189e-01,-4.634456e-01,1.092218e+00,2.199456e+00,5.425652e-01,-3.211011e-01,-5.585647e-01,-1.902676e-01,3.595774e-01,3.148848e-01,-2.805970e+00,6.933488e-01,-1.069745e+00,1.661869e+00,-3.260271e-01,6.867086e-01,1.256513e+00,-7.765358e-01,1.814671e+00,-3.761499e-01,-1.381813e+00,5.745698e-01,2.803927e-01,-4.484092e-01,5.113620e-01,-2.072675e+00,5.010974e-02,4.652757e-02,3.817325e-02,8.663938e-01,-3.830224e-01,
-3.847070e-01,-6.627361e-01,2.379676e-01,1.557830e-02,-8.667715e-02,8.371463e-01,6.392237e-02,-3.812104e-02,-1.684348e-01,-4.153415e-01,-7.924016e-01,-1.738633e-01,1.092901e-01,-5.634699e-01,9.973531e-01,8.510395e-01,6.465551e-03,1.737638e-01,3.759623e-01,-3.169108e-01,-7.063454e-01,-5.515367e-01,1.240527e-01,-7.901499e-01,4.140092e-01,-1.158468e-01,-8.330905e-02,-1.019523e-02,-7.178210e-01,-2.283250e-02,-4.149961e-03,5.766618e-02,8.076316e-01,-1.140357e+00,3.378264e-01,6.660765e-02,1.513458e-01,-8.935730e-01,-2.260831e-01,6.490905e-01,-7.034903e-01,-2.702496e-01,1.571864e-01,2.038579e-02,-2.930942e-01,8.277433e-02,-1.019132e+00,-4.528074e-01,1.395695e-01,1.410775e-01,
-8.335889e-01,-6.143380e-01,-3.955496e-02,2.217670e-02,-5.169483e-01,6.188338e-02,1.043950e+00,-2.472595e+00,-3.059478e-01,-6.074595e-01,3.069361e-01,1.965148e-01,-7.466080e-01,7.005807e-01,-2.352148e+00,-3.452410e-01,3.157863e-02,2.579617e+00,1.846469e-01,7.051656e-01,-5.565641e-01,5.683736e-01,1.383220e+00,-1.166445e-01,-2.095231e-01,6.910986e-01,-1.905740e-01,-2.362461e-01,-1.481954e-01,-3.427316e+00,7.226166e-01,6.181778e-01,3.312313e+00,-5.885570e-01,4.702307e-01,1.362902e+00,4.818272e-01,4.645799e-01,-1.794529e-01,2.359282e-02,-2.867289e-01,1.129949e-01,6.168874e-01,-8.625057e-02,4.559673e-02,3.359490e-01,-6.426168e-02,-2.825801e-01,3.188397e-01,-5.000491e-01,
1.096107e-02,6.735489e-01,-2.679008e-01,-5.347560e-03,-1.100849e-01,-7.418851e-01,-2.428476e-02,-1.129646e-01,6.712801e-01,9.886779e-01,-1.670654e-01,1.640091e-01,2.786672e-01,3.011501e-01,1.035552e-01,2.381791e-01,-1.045897e-01,1.021021e-01,1.040625e-01,3.020566e-01,-4.128152e-01,-1.435814e+00,-5.089397e-01,8.717008e-02,5.108224e-01,-1.761395e-01,9.681709e-02,-1.929891e-01,-1.191275e+00,3.746561e-02,-8.359172e-01,1.513601e-02,1.541549e+00,-7.932544e-01,-9.537994e-01,-1.562542e-01,-8.475277e-01,1.453608e-02,1.782328e+00,-9.031031e-01,-1.642549e+00,-1.063248e-01,1.108338e-01,1.340221e+00,-1.644453e-01,1.124727e+00,1.217629e-02,-5.721887e-01,-1.675057e+00,8.386867e-02,
2.262827e-01,8.867088e-01,8.750935e-01,2.121090e-02,1.348170e-01,-1.909348e-01,3.980549e-01,1.602710e-01,7.062614e-01,-6.203313e-01,-1.628434e-01,1.542580e-01,8.290189e-01,3.861890e-01,1.230071e-01,-1.532064e-01,3.617040e-01,-4.260597e-02,-4.202491e-03,-6.741335e-01,2.454614e-01,-4.629120e-01,2.038003e-01,3.344014e-01,-1.993043e-03,5.725234e-01,4.759508e-01,-6.984667e-01,7.138001e-01,-6.506709e-02,-9.395195e-01,-5.954195e-01,-1.070616e+00,3.355203e-02,-1.438069e+00,-6.209204e-01,1.945736e-01,-1.228895e+00,5.676851e-01,-1.764737e+00,-4.665153e-01,-8.985801e-01,-1.794068e-01,-6.011393e-01,3.030961e-01,-4.728162e-01,7.595786e-02,-1.403896e-01,4.461448e-03,-1.395846e-01,
-8.144367e-02,-1.068544e-01,-2.052480e-01,-3.022200e-02,-4.090565e-01,-5.128822e-01,-2.443916e-01,-6.728312e-01,3.574652e-01,7.927977e-01,2.397772e-02,6.259401e-02,2.045244e-01,8.963867e-01,1.740541e-02,-4.710799e-01,4.003315e-01,1.343350e-01,3.435546e-02,-2.042259e-01,-5.084085e-01,-4.119744e-02,-3.303242e-02,-7.053989e-01,1.100213e-02,-5.863982e-01,5.387795e-02,-2.793416e-03,1.057314e+00,-4.530947e-01,7.805178e-01,-5.436835e-01,7.374020e-01,-5.597242e-01,1.207489e-01,-3.112304e-01,1.299178e-01,4.002529e-01,2.985510e-02,7.331787e-01,-1.195990e-01,-1.342872e-01,-4.110478e-01,-4.840680e-01,8.910874e-01,-2.648866e-01,-9.155493e-01,-1.093725e-01,1.551036e-01,9.922470e-01,
-2.464719e-02,-1.184390e-02,1.710540e-02,7.041590e-03,-3.317122e-02,-2.541210e-02,-3.879970e-02,2.690890e-02,-4.623560e-02,-4.306270e-02,-2.589510e-02,-1.993120e-02,3.082876e-02,-5.498133e-02,-3.134428e-02,-4.189480e-02,8.536878e-03,2.939950e-02,-2.455950e-02,-1.820080e-03,-2.290173e-02,3.216850e-02,-3.640440e-02,-4.518930e-02,1.874804e-02,-4.261760e-02,1.644110e-02,-3.440180e-02,-6.336882e-02,-2.666960e-02,1.013260e-02,2.671620e-02,-4.559830e-02,-4.778947e-02,1.113030e-02,3.984130e-02,3.538750e-02,4.661470e-03,4.385830e-02,-3.041360e-02,-1.940899e-02,3.801520e-02,-2.349320e-02,-4.410300e-02,2.762210e-02,-2.797560e-02,2.678820e-02,1.114288e-02,-1.578657e-02,2.010979e-02,
-7.501879e-01,
4.396438e-01,
5.850875e-01,
-1.663717e-02,
-4.802743e-01,
-8.919743e-01,
-1.450920e-02,
2.482029e-01,
-1.763500e-02,
-1.455762e-01,
-1.800090e-02,
-6.812150e-01,
-1.818667e-02,
-2.829010e-02,
-1.060400e-02,
-9.856740e-02,
7.520319e-01,
-3.082493e-01,
-7.638048e-01,
-9.621605e-02,
-1.198716e+00,
-3.902254e-01,
7.604079e-01,
-6.264389e-01,
-2.632950e-02,
-3.185986e-01,
9.595176e-01,
-1.078744e+00,
-4.868585e-01,
-1.181668e-02,
-6.321920e-03,
-4.693271e-02,
-1.839310e-02,
-1.277470e-02,
7.574584e-02,
-5.165800e-01,
-2.736033e-02,
-2.411194e-01,
-3.359919e-02,
1.022089e+00,
1.082094e+00,
-1.648961e-01,
3.223946e-01,
-2.604199e-01,
3.433925e-01,
-8.306088e-02,
-1.275086e+00,
5.568166e-01,
1.002357e+00,
-1.784728e-02,
-4.168601e-01,1.648024e-01,-7.304907e-02,-4.950510e-02,6.201704e-03,-5.864742e-01,-1.769270e-02,-2.421595e-01,-4.327190e-02,1.193459e-01,1.680020e-02,1.789931e-01,4.736430e-02,1.614400e-02,-2.982720e-02,-3.222570e+00,1.435277e-01,-5.970805e-01,-6.304299e-01,1.627776e+00,3.908371e-01,-1.729656e-01,2.638947e-01,-1.943765e+00,-5.527390e-02,8.519264e-01,-2.936436e-03,5.358907e-01,-6.946084e-01,-3.288880e-02,1.477040e-02,-3.188782e-01,-2.777400e-02,-3.777580e-03,4.296327e-02,4.831668e-01,4.188660e-02,-2.764302e-01,1.907615e-01,2.310066e-01,-5.625616e-01,-5.118174e-01,-8.304846e-01,7.044240e-01,-2.583273e-02,-1.116838e-01,1.226448e-01,2.754176e-01,-7.031038e-01,4.632570e-02,
-3.431520e-01,-3.882648e-01,-1.052783e-01,3.204450e-02,5.606539e-01,-1.467381e-02,1.442780e-02,5.103868e-01,-2.199438e-02,-3.073559e-01,1.348220e-02,-4.200568e-01,2.718540e-02,-2.196933e-01,-6.272810e-04,1.057441e-01,5.014529e-02,5.344756e-01,6.111270e-01,5.662419e-01,6.428265e-02,3.838147e-02,1.291170e-01,-6.922858e-01,-4.062500e-02,1.752068e+00,1.466301e+00,8.187839e-01,4.513487e-01,-3.114150e-02,8.641050e-05,-2.229455e-01,4.557660e-02,-3.612250e-02,4.768775e-01,7.647994e-01,4.477240e-02,-1.015804e+00,-4.253742e-02,-2.377556e-01,3.760395e-01,9.239454e-03,9.723119e-01,3.079779e-01,2.814238e-01,1.889467e-01,3.018141e-01,-8.602646e-01,-3.545890e-01,-4.332617e-02,
4.235665e-01,-9.764048e-02,4.414825e-01,1.480150e-02,4.863053e-01,-1.122753e-01,-5.398790e-02,9.414622e-01,1.578470e-02,-3.383792e-01,-1.630320e-02,-1.369531e-01,-1.702140e-03,-1.353784e-01,-4.684980e-03,1.389536e+00,1.003445e-01,-3.707464e-01,-3.506999e-01,-7.465115e-01,-1.163922e-01,5.972487e-01,-1.657518e-01,-1.385903e+00,-2.840390e-02,3.178973e-01,-6.596887e-01,1.954192e+00,-5.649478e-01,-1.590190e-02,4.805380e-03,-1.021882e-01,-2.759870e-02,-2.023040e-02,7.906808e-01,3.675324e-01,-7.933410e-03,4.726914e-01,-7.154160e-02,4.365188e-01,-4.653485e-01,1.032532e-01,-5.756392e-01,3.954858e-01,-2.874506e-01,7.064956e-01,9.615022e-01,-1.702893e-01,-2.472099e-01,1.750520e-02,
6.033355e-01,-2.362043e-02,-1.043845e-01,2.776870e-02,2.417821e+00,2.734801e-01,5.097070e-02,-5.370328e-01,-3.129720e-02,-5.133898e-01,-5.450760e-03,2.512629e-01,-8.881200e-03,-1.044348e-01,5.380400e-02,-4.863527e-01,3.522932e-02,-1.135330e-01,6.720963e-01,-4.744378e-01,1.328300e-01,4.392107e-01,-8.397488e-02,3.722394e-01,-4.993350e-02,9.711738e-01,-4.066100e+00,6.066313e-01,7.143909e-01,-7.148710e-03,5.620200e-04,-1.110893e+00,-3.707740e-02,1.854780e-02,-1.411073e-01,3.404438e-01,1.631100e-02,8.684784e-01,9.421134e-02,1.739335e-01,-9.091117e-01,-9.995640e-01,1.465400e+00,-1.597033e-01,-3.223301e-01,1.082616e+00,-3.694614e-01,1.646708e-01,9.603355e-03,-3.011180e-02,
3.774811e-01,2.096259e-01,3.837373e-01,4.249370e-02,-6.483614e-02,-7.370540e+00,4.308930e-02,-3.571689e-02,-2.280170e-02,-8.484353e-01,4.744750e-02,8.095156e-01,-3.006980e-02,-1.846928e+00,1.993540e-02,3.663858e-01,1.857793e-01,-2.115308e-01,-1.350376e+00,-7.232305e-01,-1.702215e+00,-8.147940e-01,7.463229e-01,-2.628182e-01,-1.959910e-02,-7.270523e-01,-5.286806e+00,-5.550207e-01,1.134688e+00,3.392530e-03,3.529590e-02,-3.901785e-02,-4.468650e-02,3.980950e-02,7.155572e-01,-6.816351e-01,7.402530e-03,9.656510e-01,-2.103569e+00,-1.435263e+00,-2.458224e+00,-1.023596e+00,-9.308016e-01,-4.429800e+00,-5.433049e-01,-1.476786e+00,-1.277330e+00,-8.297616e-02,-1.184402e+00,3.674280e-02,
7.581979e-02,5.929206e-01,3.096980e-01,2.024450e-02,1.361668e+00,-7.132775e-01,1.824070e-02,6.994118e-03,-6.087440e-03,-4.487636e-01,1.141180e-02,3.171194e-02,-3.634660e-02,2.931374e-01,-3.637450e-02,8.756987e-01,1.522292e-01,-6.786878e-02,-2.579961e+00,-2.634881e-01,5.535056e-01,-2.480130e-01,5.453866e-01,1.928201e+00,3.538290e-02,1.242252e-01,1.155020e+00,-2.348525e+00,3.620757e-01,3.258810e-02,-3.768700e-02,-8.201168e-01,-3.012200e-02,1.782460e-02,2.182381e-02,-4.409918e-01,-2.876770e-02,3.590706e-01,-5.628301e-01,-5.008420e-01,-5.851970e-01,4.222642e-01,-3.027763e-01,8.249651e-01,-1.154750e+00,5.524489e-01,1.413729e+00,-5.993465e-01,-1.286904e+00,-4.573310e-03,
-7.406335e-01,-1.424914e-02,1.440974e-01,-1.022030e-02,7.971724e-01,7.661741e-01,1.657150e-02,-8.702554e-01,-3.737260e-02,5.891953e-02,1.732120e-03,6.769671e-01,3.812270e-02,6.611688e-02,1.085310e-02,5.264138e-02,3.585449e-01,1.073388e+00,-7.802346e-01,-1.097104e-01,8.287001e-01,6.462910e-01,-2.189489e-01,1.592560e-02,5.288310e-02,8.056703e-01,-6.778410e-02,-5.607019e-02,3.446717e-01,5.213070e-03,-1.729480e-02,-8.578984e-01,4.349380e-02,-3.992440e-02,-7.107531e-01,3.813176e-01,3.001500e-02,-7.984123e-03,-1.373402e+00,-5.794632e-01,3.025829e-01,-3.767993e-01,-1.057994e+00,3.430081e-01,3.583619e-02,6.579062e-01,-2.579510e-02,-5.968047e-01,3.561514e-01,1.822380e-02,
5.144538e-02,-3.927176e-01,-1.218049e-02,-2.276090e-02,1.000646e+00,7.336702e-01,-1.364400e-03,1.821076e-01,-2.944977e-02,-4.021330e-01,1.702460e-02,3.836496e-01,3.160680e-02,2.002450e-01,-2.429250e-02,8.808339e-01,4.897160e-01,-6.358925e-01,-2.305045e-01,1.706776e-01,8.516373e-02,3.604981e-01,-3.517027e-01,-1.871252e-01,-2.779450e-02,4.753445e-01,-2.588893e-01,-8.554670e-01,2.798107e-01,-1.645690e-03,5.175450e-03,-4.894082e-01,-3.151850e-02,-4.157340e-02,-6.713294e-01,9.058909e-01,-2.257060e-02,8.689889e-01,-9.762867e-02,-5.235167e-01,-6.483115e-02,-4.438753e-01,7.132275e-01,3.201141e-01,3.240898e-01,-2.945500e-01,-2.150576e-01,-6.342331e-01,1.438632e-01,-1.119880e-02,
-4.135604e-03,-3.830408e-01,-7.996202e-01,-3.472290e-02,1.807668e+00,-1.354858e+00,-2.870040e-03,2.387344e-02,-3.080819e-02,-4.230238e-01,-7.748100e-03,1.611969e-01,-5.255640e-04,1.939432e+00,-4.901940e-02,1.721595e+00,-3.598559e-01,-8.795319e-01,-1.061525e-01,9.253830e-01,6.301453e-01,3.622671e-01,2.654986e-01,4.498790e+00,1.723490e-02,1.865753e+00,1.574305e+00,3.033748e+00,-1.709740e-01,-4.241320e-02,4.747960e-02,1.725132e+00,3.174040e-02,3.241110e-02,6.549800e-01,-2.228760e-01,-1.023990e-02,8.022104e-01,1.854105e+00,9.461878e-01,4.702433e-01,-2.207663e-01,1.056092e+00,2.639862e+00,9.595488e-01,9.920336e-01,7.861146e-01,-4.325321e-01,-1.449813e-01,-1.568288e-02,
-5.554825e-02,-1.637795e-01,-7.695348e-02,-2.722141e-02,7.960244e-02,-7.329543e-01,-1.745170e-02,8.514876e-01,1.537443e-02,-8.936930e-02,5.997510e-03,-4.245524e-01,3.594896e-02,-6.995775e-01,3.513270e-03,1.547489e-01,1.788229e-01,-3.494198e-01,1.172019e+00,-2.812084e-01,5.514241e-01,1.355400e-01,2.223900e-01,2.551950e-01,2.859800e-02,7.352823e-01,-1.045458e-01,-5.155528e-02,7.824025e-01,-1.056300e-02,4.436120e-02,-2.181225e-01,-1.677970e-02,-1.056420e-02,3.361797e-01,-3.894567e-02,4.400670e-02,-4.973117e-01,-8.853949e-01,2.691121e-01,-3.941455e-02,2.128775e-03,1.781020e-01,4.284256e-01,9.988351e-01,6.811129e-01,-1.816831e-02,-1.083255e-01,1.071413e-01,-3.979165e-02,
9.532256e-02,-8.345193e-01,2.213791e-01,2.925800e-02,1.238149e+00,3.582013e-01,-2.053380e-03,1.225206e-02,4.508720e-02,-7.010365e-01,-2.456910e-03,8.825337e-01,-6.460550e-03,6.218150e-01,7.572740e-03,-7.882382e-02,-3.556652e-01,3.037199e-01,2.991086e-01,1.366362e+00,1.655580e-01,1.533995e-01,4.688109e-01,-4.219990e+00,5.332790e-03,-8.506870e-02,-3.775716e-01,1.096170e+00,1.547644e+00,7.220780e-03,3.814960e-02,4.837644e-01,2.552300e-02,4.327810e-02,-1.817606e-02,-7.516778e-01,-3.059950e-02,1.039161e+00,-2.157694e+00,-1.093874e-01,1.336551e+00,-2.215970e+00,-1.915529e+00,4.343738e-01,1.725293e+00,1.909404e+00,4.976259e-01,-7.597550e-01,4.835277e-01,-2.907620e-02,
2.473392e-01,2.609993e-01,-2.690758e-01,-2.230990e-02,3.744819e-01,-3.858254e-01,-2.839450e-02,6.495470e-01,4.232680e-02,-8.346546e-01,3.030620e-02,-3.330235e-02,-4.199330e-02,1.142195e+00,-1.517030e-02,4.673397e-01,1.358090e-01,8.945035e-01,-3.541791e-01,-4.770234e-01,1.240865e-01,5.112683e-01,9.066742e-02,-3.197327e+00,1.051570e-02,1.077064e+00,-3.603142e-01,1.526117e+00,3.816819e-01,5.001140e-02,-3.323700e-02,-4.078448e-01,-2.795250e-02,-3.865170e-02,-4.754823e-01,-1.748399e+00,-3.179770e-02,-6.943589e-01,1.017889e+00,-3.702961e-01,-6.337675e-01,6.712824e-01,-1.701305e-02,9.369199e-01,-8.218814e-01,2.958212e-01,2.267090e-01,-2.101575e-01,-4.719053e-01,-2.095560e-02,
-3.480622e-01,3.779771e-01,2.360188e-01,-9.263310e-03,1.935236e-01,-1.339834e+00,-4.305690e-02,-1.289562e-01,3.358770e-02,-2.640688e-01,2.206450e-02,-9.578804e-03,-3.226520e-02,1.328674e+00,2.938300e-02,-4.568537e-01,-3.256888e-01,-1.082141e+00,3.081713e-01,1.243405e+00,3.258261e-02,1.095129e+00,-4.185495e-01,7.868955e-02,-5.381940e-03,-6.350372e-01,3.943756e-01,-7.236199e-01,1.558808e-01,-6.815360e-04,3.672380e-02,4.659539e-01,-3.686540e-02,-1.005990e-02,4.988156e-01,8.431406e-02,1.907290e-02,-2.955278e-01,8.486764e-01,-9.501719e-02,-7.731685e-01,3.222201e-01,-1.960119e-01,-4.077050e-01,-4.257160e-01,-6.921954e-01,-2.202874e-01,2.187741e-01,-1.278236e-01,-3.676880e-02,
-8.411714e-02,-1.650413e-01,-4.465050e-01,-4.851320e-02,2.741914e-01,-5.420933e-01,-9.426300e-03,7.957193e-02,6.945850e-03,5.652646e-01,5.138370e-03,1.440343e-01,-1.736944e-02,1.071432e+00,-1.183820e-02,-1.646519e+00,9.698760e-02,3.147046e-01,2.034066e-02,9.743865e-02,4.677533e-02,7.077237e-01,2.070960e-01,1.785962e+00,2.981420e-02,3.125275e-01,5.115820e-01,-1.272923e+00,4.493620e-01,4.386130e-02,4.794350e-02,1.696994e-01,2.152320e-02,-1.485320e-02,-3.103582e-01,-1.193033e-01,3.096058e-02,9.094574e-01,-1.127824e+00,1.752860e-01,2.221425e-01,7.736918e-01,-9.620826e-01,-1.517926e-01,-4.009058e-01,3.179412e-01,1.307987e-01,4.319267e-02,-5.322083e-01,2.897476e-02,
-4.670080e-02,-2.351080e-02,-6.909350e-03,-4.463990e-02,2.530050e-02,-2.517830e-02,1.631900e-02,-7.737380e-03,-2.977830e-02,-5.374120e-02,-3.097340e-03,3.371470e-02,-2.150810e-04,1.757240e-02,-8.473680e-03,-4.052180e-02,-4.185970e-02,1.782180e-02,-1.548690e-02,-7.452630e-03,3.269400e-02,-3.560340e-02,-1.806730e-02,-2.031470e-02,-3.245950e-02,-2.942020e-02,-2.131170e-02,-2.409510e-02,-6.499150e-03,-1.074300e-02,1.640500e-03,-4.228340e-02,1.688440e-02,-2.455770e-02,3.050490e-02,-2.404180e-02,1.826890e-03,-2.576590e-03,-3.698130e-02,6.242550e-04,-1.370270e-02,-3.727300e-02,-2.872300e-02,8.380340e-03,1.603480e-02,4.470560e-02,-4.479400e-02,1.979730e-02,1.734520e-02,-8.155320e-03,
5.446330e-02,3.053077e-01,-1.906941e-01,-3.390610e-02,-2.993449e-01,2.907821e-01,-3.924960e-02,-5.043776e-01,-3.449590e-02,2.700982e-01,3.500370e-02,6.713188e-02,4.927140e-03,-1.088382e-01,3.550200e-02,-2.156919e-01,9.493761e-04,1.950859e-01,1.478960e-01,5.244151e-01,-4.126571e-02,-3.754463e-01,-2.581511e-02,1.074504e+00,-8.786750e-04,-2.693410e-01,2.181468e-01,1.534947e-01,2.622780e-01,4.170630e-02,-2.434380e-02,-2.330330e-01,-4.252100e-02,-1.922470e-02,-6.740929e-01,-3.493799e-03,7.302080e-03,2.733557e-01,-5.932039e-02,-7.384732e-02,3.436856e-01,-9.716209e-02,-1.791978e-01,-3.155079e-01,8.496504e-02,4.505900e-01,-9.684447e-02,2.943745e-01,1.498394e-01,-3.186410e-02,
-5.824159e-01,2.694921e-01,1.044025e+00,2.065000e-02,-3.778129e-01,4.271748e-01,3.801820e-02,-5.104433e-03,-4.898240e-02,-1.697334e-01,-1.629640e-02,1.541825e-01,-2.114990e-02,3.245744e-01,-4.343620e-02,-1.673774e+00,-5.122359e-01,6.768786e-01,1.538670e-01,-4.780595e-01,5.205525e-01,2.976728e-01,-5.119758e-02,-1.234298e+00,1.321580e-02,3.650163e-01,7.184217e-02,9.215438e-01,1.308031e+00,-5.157690e-03,-1.949510e-02,5.408394e-01,1.429660e-02,4.604580e-02,1.255246e-01,-2.100291e-01,4.152830e-02,-8.300800e-01,-2.140444e+00,-2.444301e-01,-1.012388e+00,2.786431e-02,-6.248741e-02,3.950711e-01,7.462323e-01,-6.453307e-02,-1.095113e-01,-4.325872e-01,-1.798036e-01,1.865980e-02,
1.899258e-01,6.887835e-01,-3.237399e-01,-3.546860e-02,-1.049071e+00,1.280525e-01,4.218620e-02,1.373448e-01,-3.050615e-03,-2.381984e-01,3.173850e-02,-5.222389e-01,-3.296850e-02,-1.996424e-01,-3.094160e-02,5.572745e-01,3.103577e-01,-2.342968e-01,3.217759e-01,-5.951265e-01,6.571174e-01,-1.472460e-01,-1.002639e-02,-6.768931e-01,2.545920e-02,2.573798e-01,-6.223133e-01,1.105905e+00,3.952695e-01,1.860790e-02,2.119580e-02,-7.823502e-01,2.699070e-02,2.935470e-04,3.038047e-02,-3.142950e-01,-2.090010e-02,-5.304798e-01,3.968601e-02,-1.159450e-01,1.429172e-01,1.712177e-01,-1.378242e-01,3.042724e-01,-3.678193e-01,-9.371127e-01,5.564962e-01,1.025822e-01,-1.167157e-02,-5.275560e-02,
-3.444466e-01,-6.440561e-02,2.484539e-02,8.057429e-03,-5.072594e-02,-7.817190e-04,8.779280e-03,-4.110392e-01,-1.720540e-02,3.651576e-01,1.087940e-02,-7.526023e-01,5.119467e-03,-2.131924e-01,-3.240550e-02,-1.163869e+00,7.985628e-01,-3.805278e-01,-3.944687e-01,1.803305e-02,-4.711986e-01,1.075487e-01,2.117635e-01,2.461326e-01,3.529170e-02,-1.169314e-01,-6.560732e-01,5.834086e-01,-8.153295e-01,-4.732180e-03,4.277750e-02,4.661749e-01,3.340850e-02,2.675100e-02,3.827706e-01,-1.300943e+00,2.382337e-02,5.299870e-01,-6.410881e-02,4.432482e-01,2.346078e-02,2.257760e-01,3.384314e-02,-2.580871e-01,-8.100192e-02,5.788123e-01,6.741539e-02,3.113478e-01,5.991726e-03,-3.803634e-02,
-7.465304e-01,2.140569e-01,-5.473713e-02,-2.556470e-02,1.138784e+00,-1.661392e-01,2.736100e-02,-2.003835e-01,2.801570e-02,2.133198e-01,3.592330e-02,7.299289e-01,-5.187370e-02,6.927236e-01,4.610610e-02,3.781942e-01,-8.461437e-02,2.440236e-01,4.232487e-01,1.178178e+00,-1.667330e-01,1.032635e+00,-1.410857e-01,7.960974e-01,-1.265820e-02,1.944079e-01,-8.390090e-01,1.182527e+00,-3.184180e-01,-4.277070e-02,-1.690820e-02,1.292032e-01,-3.726990e-02,4.188190e-02,-3.173025e-01,2.512795e-01,3.942640e-02,8.758975e-01,8.607224e-01,3.408713e-01,-3.431232e-01,6.619439e-01,2.892199e-01,-2.619503e-01,-6.588957e-01,7.369581e-01,8.871137e-02,3.173880e-01,-1.334270e-01,3.842320e-02,
1.915550e-01,-1.401404e-01,-1.012809e-01,-2.962570e-02,8.419136e-01,-8.141900e-01,-1.879120e-02,8.296722e-02,-1.837717e-02,-9.637565e-02,5.311560e-02,6.540307e-01,4.789843e-02,-2.830635e-01,9.672400e-03,8.138533e-01,3.283235e-01,2.331085e-01,1.437315e+00,-8.538182e-01,1.958916e-01,-3.888754e-01,7.958873e-02,2.146646e+00,1.459840e-02,-1.707636e-01,5.340393e-01,1.493786e+00,5.120308e-01,-3.688850e-02,-2.418870e-02,6.983048e-01,-1.826890e-02,4.960450e-02,-3.178219e-01,3.592489e-01,-3.340560e-02,9.453558e-01,-1.189457e-01,8.050982e-01,4.759386e-01,-8.437065e-01,3.985906e-02,1.509823e-01,2.877375e-01,1.354804e+00,4.949099e-01,1.935195e-01,-3.268254e-01,-1.345020e-02,
1.257419e-01,-6.673093e-02,-2.393466e-01,-3.331290e-02,-4.748250e-01,-5.233774e-02,-3.801270e-02,1.368507e-01,8.930592e-03,-6.344343e-01,-2.586070e-02,6.046848e-01,4.414233e-02,-2.790299e+00,-5.105780e-03,6.121417e-01,3.273644e-01,-1.346792e-01,8.458501e-01,3.446734e-01,2.632937e-01,8.880678e-01,-1.877590e-01,-4.315134e+00,3.591470e-02,5.991730e-01,9.473682e-03,9.328476e-01,-3.279834e-01,-4.261340e-02,-1.329990e-02,3.776971e-01,-4.771170e-02,-5.475910e-03,-1.843230e-01,1.332768e-01,7.058200e-03,-3.268201e+00,-4.596110e-01,2.031022e-01,-4.617425e-01,-4.573556e-01,-4.747121e-01,-3.089951e-01,4.744695e-01,-2.665145e+00,-2.052631e-02,5.034380e-02,2.212809e-01,-1.940059e-02,
-1.142120e+00,6.874624e-02,8.035912e-02,1.068752e-02,-5.584717e-01,-1.119204e+00,-4.778340e-02,7.714746e-01,-4.789830e-02,8.638355e-01,7.045580e-03,-5.478160e-01,1.479191e-02,-5.340794e-01,2.743490e-02,-2.346126e+00,-8.571298e-01,1.088130e+00,-7.719894e-02,1.713905e+00,8.001957e-01,5.937281e-02,6.584491e-01,2.002838e-01,-2.636200e-02,-5.151339e-01,2.706573e+00,1.456028e+00,6.733422e-01,-3.575860e-02,3.636640e-02,-2.053131e-01,-2.378920e-02,-3.208170e-02,5.777804e-01,7.933275e-02,-3.950546e-02,-3.283466e-01,-3.702548e-01,1.006998e+00,-9.494145e-01,7.906388e-02,-2.845446e-01,-1.278104e+00,-4.173662e-01,3.446683e-01,-4.342834e-01,-6.980234e-02,2.157588e-01,2.410086e-03,
-4.741636e-03,1.878338e+00,-1.161178e-01,-3.574560e-02,5.324239e-01,2.944506e-01,5.241650e-03,2.217140e-01,-2.731769e-02,-1.387587e-02,2.932310e-02,-1.882804e-01,4.458490e-02,1.424616e+00,1.227150e-02,1.224771e+00,5.208150e-01,3.272962e-01,2.601527e-01,-6.132575e-03,-5.492154e-01,1.253422e-01,4.951656e-01,4.695848e-01,3.426750e-02,1.215840e-01,3.730256e-01,-7.960030e-01,-1.382499e-01,-2.352460e-02,1.865420e-02,-4.307814e-02,-2.848860e-02,-3.172060e-02,4.800003e-01,1.114485e+00,-3.466300e-02,-8.052790e-02,-7.323882e-01,-2.751836e-01,-1.502853e-01,-9.656261e-01,3.994099e-01,-3.435732e-01,4.150832e-01,-2.910834e-02,1.302398e+00,-1.729896e-01,-4.858890e-01,-1.080890e-02,
-2.906346e-01,-4.262278e-01,1.426710e-01,1.489290e-02,-1.725833e-01,-1.283396e+00,3.288790e-02,-1.918380e-01,-8.939130e-03,1.849847e-01,2.594080e-02,1.141455e+00,4.404660e-02,5.339807e-01,-3.638070e-02,-1.033674e+00,3.351918e-01,-2.582197e-03,-1.386361e-01,8.472143e-02,-1.455083e-01,5.476739e-01,4.010313e-04,1.437558e-01,-3.759390e-02,1.714031e+00,5.732765e-01,-5.499722e-01,4.323357e-01,1.807070e-02,-3.253700e-02,-1.298361e+00,1.944190e-02,-3.105500e-02,-5.750695e-01,-6.822138e-01,-7.078160e-04,2.913922e-01,2.700990e-01,-3.725703e-01,-1.629353e-01,-9.558231e-01,7.222425e-01,-4.396869e-02,5.662696e-01,6.078189e-01,-1.100369e-01,2.567104e-01,1.121763e-01,5.445720e-03,
3.894879e-01,3.133306e-01,5.805096e-01,-9.168470e-03,-6.510695e-01,2.111792e-02,-3.821760e-02,7.800762e-02,1.251027e-02,8.622198e-01,1.162210e-02,7.580037e-01,-2.843750e-02,7.297971e-01,4.692430e-02,1.668880e-01,3.779162e-02,4.919794e-01,2.351270e-01,-7.333956e-01,-1.029522e-01,-9.246685e-02,-6.124348e-02,1.773858e+00,8.639850e-05,5.279690e-01,2.469840e-02,-1.118296e+00,3.234363e-01,3.932220e-02,2.560270e-02,7.897048e-01,4.641370e-02,3.364690e-02,1.327704e-01,7.209308e-01,7.106780e-03,-3.067217e-01,-2.184157e-01,-3.311825e-02,2.296876e-01,-6.816485e-01,1.678338e-01,2.454955e-01,8.879069e-01,-1.142269e-01,3.459919e-01,7.688972e-02,-9.810529e-02,4.154960e-03,
1.301344e+00,-1.884033e-01,9.064107e-02,1.752880e-02,-1.212348e-02,-1.983321e+00,2.202950e-02,-5.489787e-01,-1.014220e-02,-5.427433e-01,4.405580e-02,1.645182e-01,2.732940e-02,-1.060824e+00,3.691290e-02,2.207200e-02,-1.056324e+00,-2.350661e+00,-4.334772e-01,-4.659590e-02,1.425948e+00,9.193113e-01,-3.157643e-01,-2.920345e+00,2.663080e-02,3.186419e+00,-2.554192e+00,-2.609829e+00,2.002942e+00,3.586670e-02,-4.757730e-02,-9.454952e-01,3.583170e-03,4.344930e-02,-2.883505e+00,-2.056700e+00,2.054270e-02,6.520528e-01,-2.884944e-01,-9.225597e-01,-1.107733e+00,-5.272587e-02,-2.484365e+00,-1.550604e-01,3.114455e-01,1.069952e+00,1.720459e+00,-3.300031e-01,-2.756707e-01,-1.574830e-02,
-1.656506e-01,-2.646016e-01,1.119507e-01,2.617160e-02,-2.114953e-01,8.561367e-01,3.908590e-02,8.187814e-01,3.289600e-02,-1.048786e+00,1.313020e-02,1.926607e-02,4.163150e-02,-1.373274e-01,4.441990e-02,-2.225982e-03,-8.401512e-02,-7.645925e-01,-8.550768e-01,1.087340e+00,-5.835043e-02,5.575867e-01,-3.227049e-01,-1.579009e+00,4.185260e-03,6.486953e-01,-2.500246e+00,1.242752e-01,4.161503e-02,-1.134590e-02,2.020410e-02,1.859754e-01,-3.252430e-02,1.952200e-02,-2.789629e-02,-3.039474e-01,1.223570e-02,1.340874e-01,6.744527e-01,-5.747240e-01,-1.888382e-01,-3.415653e-01,-1.666024e+00,2.950963e-01,9.463497e-01,-5.237290e-01,7.457548e-01,3.398790e-01,1.083300e-01,1.759640e-02,
-4.865936e-01,1.690883e-01,2.699106e-02,2.519780e-02,2.193239e-01,-8.328597e-04,4.370130e-02,2.747405e-01,-3.260930e-02,-4.149607e-01,-1.778210e-02,-5.638729e-01,3.554739e-02,-4.027191e-01,-3.917850e-02,1.082816e+00,-6.476547e-01,-4.895555e-01,8.988951e-02,7.179315e-02,4.316436e-02,-4.213037e-02,-7.866264e-02,-8.369325e-01,2.712900e-02,1.702515e+00,2.255180e-01,1.042946e+00,1.183547e-01,-9.270920e-03,3.786670e-02,1.715965e+00,-1.667970e-02,-2.689140e-02,2.966756e-01,3.062282e-01,-2.304200e-02,1.073754e+00,9.792123e-01,2.673378e-01,1.086381e+00,-1.274792e-01,-7.977508e-01,5.982452e-01,2.294992e-01,1.595948e-01,2.154389e-01,3.913782e-01,-3.405608e-01,3.293710e-02,
-2.816931e-01,-6.406959e-02,-3.517927e-02,4.467090e-02,-3.309369e-01,1.406196e-02,-6.055880e-03,8.513486e-01,3.615918e-02,8.116668e-02,3.768810e-02,5.837314e-01,-4.603920e-02,7.793511e-01,-1.291260e-02,5.295352e-01,-3.252372e-01,5.202548e-01,-3.139489e-01,1.622242e-01,3.966340e-01,1.201094e+00,9.230910e-02,-4.549916e+00,2.845240e-02,3.674111e-01,-1.432682e+00,1.118742e+00,1.547184e+00,-4.999670e-02,3.605510e-02,-1.430974e+00,1.038050e-02,-1.796990e-02,-1.185653e-01,1.336716e+00,-4.564930e-02,9.943877e-01,-3.515572e-01,-6.861880e-01,6.266931e-01,-8.304965e-01,5.327180e-01,1.820108e-01,-3.110132e-01,-9.144888e-01,4.138919e-01,-7.070665e-01,1.218850e-01,2.812000e-02,
-1.625463e-01,-8.538076e-02,-2.229028e-01,3.576251e-02,-3.842648e-01,6.801493e-01,4.627010e-02,1.565014e-01,-2.089796e-02,5.728151e-02,2.336770e-02,-9.401443e-02,3.269238e-02,1.143297e+00,-3.970000e-02,8.934655e-01,7.354199e-01,-4.158417e-01,-1.385403e-01,-7.768103e-01,-9.447981e-01,-3.175183e-03,1.854399e-01,-1.021897e+00,5.772610e-02,-7.170004e-01,-6.787098e-02,-6.345972e-01,-2.061063e-02,-1.954130e-02,-1.148050e-02,-3.095629e-01,3.741330e-02,3.790930e-02,5.569829e-01,5.208296e-01,-6.080051e-02,3.670581e-01,4.764964e-01,-3.426231e-01,3.383469e-01,-2.051829e-01,9.207503e-01,-2.827791e-01,-1.804445e-01,3.244858e-01,-1.475393e-01,2.786407e-01,5.229046e-01,3.019555e-02,
1.157151e-01,4.567185e-01,-1.356338e-01,9.896810e-03,1.337965e+00,-2.765853e-01,3.463690e-02,1.086201e+00,9.156380e-04,-3.864206e-02,-4.797740e-02,5.516851e-01,-4.628470e-03,-2.479211e-02,-1.726850e-02,2.484928e-01,-1.291570e-01,4.558323e-01,-2.042974e-01,-6.297999e-01,-3.864255e-02,-1.578954e-01,-4.850944e-01,-9.360237e-01,7.438170e-04,-8.462397e-01,3.929034e-01,1.155363e+00,-5.550483e-01,4.810500e-02,3.772990e-02,2.316395e-01,1.097650e-02,4.855810e-02,-5.980313e-02,-8.177065e-01,1.683380e-03,1.110867e+00,1.164082e-01,6.424107e-01,-4.242537e-01,-1.307876e+00,-4.369990e-01,4.547360e-01,-4.243527e-01,-7.059252e-02,-5.443811e-01,-1.256618e-01,-5.050583e-01,-1.616660e-02,
-1.776228e-01,1.220714e-01,2.250128e-02,1.862108e-02,8.678786e-02,-1.000936e-02,2.016420e-02,9.187714e-02,2.531850e-02,4.807509e-02,2.205080e-02,-5.489873e-01,-2.268590e-02,2.236034e-01,3.438370e-02,-3.230405e-01,-2.624134e-01,1.209314e-01,6.815965e-02,2.294374e-01,-1.512931e-01,-7.934041e-02,2.479815e-01,-8.296671e-01,3.011230e-02,-3.147324e-01,4.236237e-02,-4.036016e-01,4.135985e-01,-3.435250e-02,-1.328160e-02,-2.704589e-02,-3.006640e-02,-7.892800e-03,3.655581e-01,2.067703e-02,-2.655230e-02,-5.388990e-02,-3.836696e-01,2.009250e-01,1.202828e-01,2.515149e-01,9.333194e-02,-1.903050e-01,-4.118808e-02,1.028108e-01,2.086375e-01,-9.839420e-01,-2.876937e-01,4.073130e-02,
3.994902e-01,-3.354084e-02,-2.023262e-01,-8.022110e-03,2.405454e-01,1.832753e+00,2.341220e-03,4.239212e-02,-3.856370e-02,3.408834e-02,-1.564510e-03,-4.079069e-01,1.636820e-02,-3.220319e-01,4.358860e-02,7.043633e-01,6.145215e-01,-2.429179e+00,7.961762e-02,-2.443650e+00,-3.654495e-01,6.934407e-01,5.448090e-01,4.719159e+00,-1.424840e-02,8.327683e-01,2.258781e-01,2.681890e+00,1.821707e-01,-2.977440e-02,-3.670680e-02,1.632716e+00,3.655580e-02,-1.441850e-02,2.795047e-01,-1.295950e+00,3.419900e-02,9.024711e-01,6.639786e-01,9.583635e-01,3.705801e-02,-3.348278e-01,-1.869301e+00,2.741776e-01,5.259918e-01,7.031366e-01,2.298846e-01,-3.035851e-01,-1.522482e+00,-1.153090e-02,
-1.217569e+00,-5.445305e-01,-5.053758e-01,3.303737e-02,-7.217780e-01,-3.762270e+00,2.509900e-02,1.036412e+00,1.145776e-02,-1.498294e-01,2.443530e-02,-2.827542e-01,2.013175e-02,-3.327385e+00,-1.082820e-02,2.105122e+00,4.795111e-02,9.803983e-01,-4.403137e-01,8.452650e-01,2.557821e-01,5.294193e-01,-6.654081e-01,8.344830e-01,5.707820e-03,-2.898271e+00,-5.171642e-01,7.303169e-01,-1.408694e+00,-1.369440e-03,-9.929260e-03,1.123450e-01,3.270010e-03,3.339070e-02,-3.371531e-01,6.732944e-01,-4.336522e-02,1.573420e+00,-1.306492e+00,7.831374e-01,-5.209927e-01,-4.327950e-01,-3.956730e-01,-2.858070e-01,9.706231e-01,1.458430e-01,-2.569087e-01,-5.179049e-01,-2.163884e-02,-3.315122e-02,
-6.222647e-01,3.607448e-02,1.118959e-01,-2.092210e-02,-3.526280e-01,-6.739443e-01,1.734580e-02,-3.697295e-02,-2.277790e-02,-3.196736e-01,-2.120800e-02,2.471581e-01,-7.329940e-03,3.754935e-01,2.253120e-02,-2.481322e-01,-2.569851e-02,3.620068e-01,-5.784327e-01,-1.001557e+00,1.960627e-01,4.541798e-02,-1.430071e-01,-6.965363e+00,-2.295420e-02,-1.226854e-01,-4.900516e-01,9.523874e-01,-2.669455e-01,4.398460e-02,-2.280690e-02,-7.516094e-01,-1.492260e-02,-1.601820e-02,-3.230784e-01,4.645973e-01,-4.657810e-02,6.620611e-02,-1.318027e+00,3.258463e-01,-2.210124e-01,-2.863829e-01,1.385160e-01,5.103147e-01,1.233453e+00,-2.629536e-01,6.285564e-01,2.981178e-01,-4.329501e-01,-2.941570e-02,
3.471693e-02,-4.471771e-01,-1.248379e-02,1.579444e-02,-4.043130e-01,3.489884e-01,1.252070e-02,-5.831125e-02,2.761059e-02,3.745114e-01,5.080420e-02,-5.810646e-02,4.477078e-02,4.400176e-01,-1.982800e-02,1.756261e-01,1.155610e-01,-1.797242e-02,-4.231830e-01,-1.428189e-01,-2.581511e-01,2.851349e-01,1.202814e-01,1.082633e-01,-2.743620e-02,-7.464005e-01,1.513587e-01,7.244541e-01,-3.484068e-01,2.932040e-02,4.199720e-02,1.798871e-01,-1.357970e-02,-1.384360e-02,5.199884e-02,4.632259e-01,-4.163356e-03,-4.450814e-01,-9.910410e-02,1.928397e-01,-2.170042e-01,5.207949e-01,1.008318e-01,-5.907088e-02,1.264583e-01,1.442524e-01,7.921711e-01,6.986753e-02,7.090884e-01,5.744839e-03,
4.954109e-02,3.155674e-01,-9.029359e-02,-4.553920e-02,-1.021476e+00,2.312961e-01,-2.728130e-02,4.230222e-01,1.894024e-02,5.227672e-02,5.644400e-02,1.870560e-01,-8.515040e-03,6.480771e-01,-1.973550e-02,5.965312e-01,6.970721e-02,1.629247e-01,-1.005329e-01,-5.505361e-01,-6.444238e-01,-3.565659e-01,-5.001708e-02,-1.739631e+00,7.125070e-03,7.387850e-01,-4.501551e-01,-9.892645e-01,-3.067545e+00,2.580490e-03,9.074350e-03,-1.747734e+00,-1.174070e-02,3.631330e-02,-4.259808e-01,-1.389506e-01,-2.483560e-02,1.352140e+00,-5.405100e-01,8.645405e-01,3.531370e-01,-1.855862e-01,6.690744e-01,1.887925e-01,-1.941378e-01,-1.722127e-01,-3.838177e-01,-1.238475e-01,-3.381469e-01,-3.171600e-02,
3.771957e-02,6.195273e-02,-4.482863e-01,1.673706e-02,-2.072412e-01,-1.106284e-01,-2.716320e-02,-8.498104e-01,-4.641626e-02,4.002909e-02,5.286520e-02,7.966838e-03,2.508010e-02,3.986868e-03,-4.817710e-03,2.048564e+00,4.195023e-01,-1.396908e-01,-6.301945e-01,-1.150816e+00,-6.314443e-01,4.606770e-01,4.487687e-01,1.392506e-01,3.011960e-02,-9.633925e-01,-1.372140e+00,-2.833789e-01,8.410747e-01,-1.526920e-02,2.894190e-02,7.376238e-02,-1.193210e-02,3.769140e-02,3.529195e-01,4.307371e-01,-1.802860e-02,-1.703057e-01,-7.947906e-01,4.678228e-01,6.867933e-02,7.057530e-02,3.244940e-02,7.653821e-01,1.460849e+00,-7.148108e-01,1.990951e+00,6.170551e-02,-3.549513e-01,-4.467160e-02,
-2.547035e-01,-2.964870e-01,2.865458e-01,1.929150e-02,-1.699639e-01,1.948669e-01,2.891760e-02,6.762784e-01,1.992017e-02,-4.555620e-01,1.851080e-02,5.874293e-01,3.168175e-02,-2.114538e-01,-2.640900e-02,2.025142e-01,-2.395501e-01,4.302642e-01,-6.500194e-01,6.885644e-01,1.098198e+00,-2.915601e-01,-4.011077e-03,1.822624e+00,7.395160e-03,1.910402e+00,1.136081e+00,1.247561e-01,9.619118e-03,2.273360e-02,3.450680e-03,-1.561708e-01,-4.542200e-02,6.766330e-03,7.539666e-01,5.344470e-01,-9.458500e-03,4.720618e-01,-4.598480e-01,-5.570698e-01,-5.774465e-01,2.089400e-01,-3.193326e-01,6.347176e-02,-6.979180e-02,2.582135e-01,-8.469530e-02,-6.331490e-01,-3.007666e-01,-2.823024e-03,
6.700572e-02,4.508210e-01,-1.814400e-01,1.170550e-02,1.057921e-01,-2.518784e-01,-4.920170e-02,2.495733e-01,-2.518591e-02,-4.341939e-01,3.465830e-02,1.266046e-01,1.175340e-02,2.624915e-01,2.115040e-02,1.501215e+00,-1.159600e-01,-3.018682e-01,5.950136e-01,-7.122626e-01,-2.187665e-01,1.027172e-01,-2.796652e-01,-6.711608e-01,3.155970e-02,4.616057e-01,-5.444155e-01,-6.036664e-01,-8.915085e-02,3.165850e-02,-2.487150e-02,1.164563e-01,-9.207180e-03,-3.413650e-02,5.368943e-01,2.349869e-01,-4.003930e-02,-7.147697e-01,2.763972e-01,-4.835123e-01,5.597767e-01,-3.572039e-02,5.647464e-01,4.954505e-01,2.944136e-01,-6.860455e-01,-1.224782e-01,-1.309703e-01,-7.055309e-02,1.472090e-02,
-1.225518e+00,3.893655e-03,-2.125954e-01,-4.926494e-03,-6.628922e-01,1.251903e+00,-7.177230e-03,1.698642e-01,-9.696940e-03,8.371748e-01,2.496250e-02,-2.210120e-01,-7.579620e-03,-5.162735e-01,3.056140e-02,-8.448486e-01,5.335549e-01,1.746189e-01,4.212085e-02,-9.903782e-01,-3.067878e-01,-6.202162e-01,-6.139132e-02,1.664155e+00,-1.182620e-02,8.051458e-01,1.880229e+00,-6.625261e-01,-1.107662e+00,1.111720e-02,-3.293170e-03,9.133534e-01,2.022760e-02,2.748430e-02,-5.616254e-01,1.692555e-01,7.858946e-03,4.019450e-01,1.363638e-01,-2.103929e-01,3.058518e-01,-1.886645e-02,7.138842e-01,-3.866982e-02,3.837655e-01,-5.318022e-01,-1.764060e+00,5.180777e-01,2.670050e-01,-4.010003e-02,
2.067440e-01,2.392212e-01,-7.437387e-02,-2.525295e-03,-3.000222e-01,-5.268611e-01,-4.304210e-02,-1.779896e-01,3.127434e-02,-2.126886e-01,-9.227460e-03,-3.093323e-02,-7.848252e-03,3.357067e-01,-1.097310e-02,5.102693e-01,-3.386770e-01,1.100670e-01,-2.732463e-01,-2.835737e-01,3.958679e-01,1.180531e-01,1.792648e-01,2.161585e+00,1.621730e-02,9.195095e-01,9.738389e-01,-1.511339e+00,5.202411e-01,-1.351900e-02,-3.742460e-02,1.366983e-01,-3.641480e-02,1.091850e-02,5.246640e-02,-5.406029e-02,-4.016061e-02,-4.893795e-01,-9.890584e-01,-1.552822e-01,2.509633e-01,1.972152e-01,-5.385167e-01,-3.571374e-01,-5.005401e-01,-6.073202e-01,4.016680e-01,-7.176300e-01,1.319881e-01,-4.530300e-02,
-1.145204e-01,3.880278e-01,-1.334794e-01,-4.478612e-02,-3.352619e+00,-5.132183e-01,-3.809310e-02,-2.600248e-01,-3.760550e-02,3.886165e-01,-2.485410e-02,1.515721e-02,-5.037030e-02,-5.923598e-01,-4.610950e-02,-1.055272e+00,5.124800e-01,-7.426584e-01,-5.374913e-01,4.563687e-01,-6.473500e-01,9.293098e-01,5.641719e-01,5.978121e-01,-6.497040e-03,-3.608243e-01,4.741090e-02,1.247499e+00,-1.388095e+00,2.456980e-02,2.712660e-02,-9.536767e-01,-3.073050e-03,-2.073010e-02,-9.148849e-01,-4.861400e-01,1.221572e-02,9.338440e-01,-1.867938e+00,2.324042e-01,-7.137077e-01,-6.671357e-01,-3.009039e+00,-1.510832e+00,7.894475e-02,-5.247243e-01,-1.083139e+00,1.755590e-01,3.265319e-01,-4.572000e-02,
3.348013e-01,-1.477852e-01,-3.068207e-02,-1.575580e-02,6.513359e-01,-6.772209e-01,-1.844580e-02,4.758011e-01,-2.271190e-02,-1.387144e+00,9.726550e-03,4.662520e-01,3.021930e-02,8.963761e-01,-7.085000e-03,-2.546930e+00,8.551428e-01,-1.024012e+00,-1.586644e+00,-1.153609e+00,-7.501807e-01,-9.063132e-01,-8.626576e-02,-3.455563e+00,-2.734930e-02,3.294257e-01,-3.708158e+00,9.862040e-01,3.533066e-03,1.261720e-02,1.600710e-03,5.329779e-01,-4.225010e-03,-2.280530e-02,1.126199e+00,2.625629e-01,-2.698550e-02,4.408229e-01,-7.790897e-01,-1.421705e+00,-6.517975e-01,-2.489537e-01,-5.250902e-01,6.982254e-01,-1.367591e+00,4.454034e-01,6.905728e-01,-3.554595e-02,-1.563478e+00,-4.202950e-02,
-3.552448e-01,-1.921037e-01,2.604534e-01,2.770482e-02,-3.657904e-01,-7.283475e-01,3.503570e-02,-2.496029e-02,3.834320e-02,-4.803515e-01,2.023310e-02,-3.356621e-01,-4.103870e-02,-1.061068e+00,1.315510e-02,-1.247903e+00,-7.530151e-01,-1.721867e+00,-6.435132e-01,1.518022e+00,2.552097e-02,2.601950e-01,2.945610e-01,-1.212952e+00,-2.307760e-02,3.299357e-01,2.945738e-01,4.700330e-01,-1.212769e-01,-4.322000e-02,4.409420e-02,7.522509e-01,-4.001860e-02,-4.896550e-02,1.766723e-01,-1.407826e+00,3.470934e-02,-1.023254e+00,-8.837268e-01,7.126318e-01,-8.910301e-01,4.018944e-01,-1.174027e+00,-7.855874e-01,3.680461e-01,3.762411e-01,-6.745933e-01,-1.382455e-02,-3.871673e-01,-1.732430e-02,
5.698185e-01,3.127296e-02,1.170031e-01,-5.221390e-02,-1.921824e+00,-1.017303e+00,3.417440e-02,-2.730433e-01,-1.979070e-02,-4.439733e-01,1.734520e-03,-5.350168e-01,3.363150e-02,-3.910199e-01,3.744960e-02,-6.977310e-01,-5.803597e-02,-7.072674e-02,-9.966772e-01,4.567147e-01,9.886517e-02,7.064677e-01,-2.207611e-01,-4.525695e+00,-4.391690e-02,-4.980557e-01,-7.226549e-01,1.059080e+00,2.191841e-01,1.269020e-02,-1.297030e-02,5.791820e-01,4.508130e-02,1.639920e-02,-7.870773e-01,2.785648e-01,-4.527880e-02,1.065371e+00,-3.732302e-01,2.213932e-01,3.026486e-01,3.000801e-02,-2.962578e-01,5.413922e-01,5.186492e-01,-9.712691e-01,1.815898e-01,-1.692587e+00,-1.419096e-01,4.048280e-02,
-1.175649e+00,7.362410e-01,1.089154e+00,-1.538160e-02,3.557425e-01,-7.379759e-01,-1.250390e-02,1.096305e-01,-1.858020e-02,-3.502816e-01,-4.723000e-02,-4.343289e-01,2.348030e-02,1.276993e-01,-3.543520e-02,-7.850407e-01,6.465238e-01,5.651483e-01,-1.364879e+00,5.733819e-01,-9.134820e-01,-3.899224e-02,-6.114902e-02,-2.899914e+00,-3.794540e-02,-2.660094e-01,1.690976e+00,-1.712950e-02,1.780300e+00,4.398850e-02,3.534370e-02,-1.987413e+00,1.199400e-02,3.815170e-02,-1.224146e+00,-2.220818e-01,-4.223250e-02,1.821172e+00,2.328373e+00,-2.949312e-01,-6.555821e-01,1.866946e+00,5.566179e-01,2.634476e-02,-2.403450e+00,-3.029972e-01,-1.380756e+00,-1.748763e+00,-9.371448e-01,-5.808160e-03,
5.098720e-01,2.919371e-01,9.833427e-02,1.386600e-02,1.495707e+00,-6.532003e-01,4.383370e-02,-4.899765e-01,-1.176530e-02,1.477893e-01,2.681220e-02,4.828511e-01,3.591190e-02,7.910470e-01,-2.206490e-02,-5.765921e-01,3.322861e-01,-9.402862e-01,4.181261e-01,-7.524261e-01,-4.710551e-01,4.279079e-01,6.601015e-02,-5.089138e-03,-7.227940e-02,6.443713e-01,-1.574486e-01,1.343703e-02,-2.953492e-01,3.420250e-02,-2.478780e-02,-2.434809e-01,2.609020e-02,-3.433010e-02,-7.021395e-02,-7.368045e-01,-4.461120e-02,5.332487e-01,-8.581902e-02,4.660479e-01,-3.019601e-01,1.004891e+00,5.010019e-01,2.765178e-01,-5.585133e-01,5.716711e-01,5.165421e-02,7.588897e-02,-7.276667e-01,-4.401870e-02,
-2.488412e-01,-2.305416e-01,-5.113991e-01,1.297790e-02,1.002413e+00,1.121021e-01,-1.298740e-02,-1.074786e+00,-2.793280e-02,-1.167206e+00,1.075610e-02,-5.740891e-01,3.813630e-02,-1.596735e+00,3.395690e-02,5.837784e-01,1.017100e+00,-6.852210e-01,-3.022362e+00,1.085888e+00,-1.048268e+00,-4.327922e-01,-3.785096e-02,-9.410030e-03,-4.895380e-02,1.827177e+00,1.394560e-01,-4.797620e-01,9.954130e-01,-3.180340e-02,-2.024600e-02,-2.866994e+00,3.915400e-02,1.453110e-02,-1.297073e+00,6.896605e-01,-1.106540e-02,-1.613177e+00,-1.833182e-01,2.390045e-01,4.145018e-01,-2.761982e+00,4.395840e-01,8.458917e-01,-4.600073e-01,1.128480e+00,-1.666520e+00,2.815363e-01,-1.157828e+00,-3.805210e-02,
-3.210862e-02,
-1.151197e-01,
-3.249599e-01,
-2.090404e+00,
1.547528e+00,
6.420045e-02,
-1.608159e+00,
5.169518e-01,
-3.835030e+00,
-1.561665e+00,
-1.437490e+00,
-5.896543e-01,
-2.252799e-01,
-1.144893e+00,
-8.084100e-03,
1.219141e-02,
-1.167141e+00,
3.153712e-01,
-7.641634e-01,
-2.075392e+00,
-1.554563e+00,
-1.365238e+00,
4.401660e-01,
-1.198787e+00,
5.201551e-02,
-4.682904e-01,
6.972879e-01,
3.628827e-01,
-1.171916e+00,
3.451584e-02,
-5.385078e-02,
-6.669064e-01,
9.941118e-01,
-1.273076e+00,
4.228754e-02,
-1.762245e-01,
1.707353e-01,
5.498463e-02,
6.109117e-01,
-3.620314e-01,
-6.312288e-02,
-3.757483e-01,
1.446400e+00,
-8.889350e-02,
1.491780e+00,
1.279272e+00,
-5.343332e-02,
-3.674510e-01,
-1.662516e+00,
2.961932e-01,
-3.777859e-01,2.691781e-01,4.136053e-01,-3.369517e-01,2.706295e+00,-4.660967e-01,2.624719e-01,-3.817829e-02,-4.168809e-01,1.106709e-01,1.840442e-01,-2.025335e+00,5.367060e-01,-4.548979e-01,-2.054840e-02,1.777121e+00,-1.275117e-01,-2.539023e-01,6.329960e-01,-1.497857e+00,-4.654252e-02,2.668200e-01,-2.962694e-01,-1.562347e-01,-7.468442e-02,4.158900e-01,-5.281488e-01,7.102457e-02,4.181567e-01,1.606090e-01,9.736191e-02,3.356023e-01,-1.546535e-01,-9.498129e-02,-1.629430e-01,3.880473e-01,2.495370e-02,1.263452e-01,-2.909148e-01,-4.545610e-01,8.803194e-02,-1.448750e-01,6.293023e-01,-6.800091e-01,-1.931916e-01,-2.655052e-01,4.230953e-02,7.411785e-02,2.233965e-01,-2.630833e-01,
-6.787113e-01,9.533336e-01,-2.770361e-01,9.709751e-01,4.994280e-02,-4.259408e-01,-5.337437e-01,1.324909e-01,2.363283e-01,-6.842338e-02,-1.865045e+00,2.008058e-01,1.022195e+00,8.338650e-01,-6.748150e-03,1.189118e+00,2.756220e-01,4.974002e-01,2.099377e-01,1.250150e+00,3.904437e-01,-2.298172e-01,1.647945e-01,2.460336e-01,-6.635149e-01,6.607025e-01,4.818221e-01,2.353554e+00,3.191688e-01,5.297657e-01,5.569835e-01,-2.562290e-01,-4.339247e-01,-2.157436e-01,1.491813e+00,3.447680e-01,-1.869828e+00,3.618887e-01,-8.376727e-01,1.088151e+00,-5.953707e-01,-8.919015e-02,-6.034450e-01,1.134934e+00,6.249015e-01,-5.592754e-01,1.179914e+00,1.599060e-01,3.099415e-01,-1.010842e+00,
-1.496686e+00,-9.194342e-01,8.705508e-01,-2.338040e-01,4.197043e-01,-3.010459e-01,2.041862e-01,-1.124631e-01,1.319290e-01,5.728722e-01,-2.652785e-01,-8.818308e-01,6.812673e-01,8.441254e-01,2.863300e-02,6.115744e-01,8.629008e-01,1.168024e-01,-1.520817e-02,3.296596e-01,-6.164724e-02,-3.676729e-01,-3.265890e-01,-8.222626e-02,-2.476435e-01,-6.307349e-01,1.696458e-01,-5.107979e-02,8.684228e-02,7.524755e-02,-5.172168e-01,4.157159e-01,1.348401e+00,-1.088099e-01,3.374191e-01,-4.532187e-01,-1.683212e-01,2.121739e-01,1.246875e-01,-2.523488e-01,3.156844e-01,3.945032e-01,-6.125997e-01,9.935682e-02,2.700965e-01,-4.633779e-01,-4.775541e-01,-2.384207e-01,-2.370896e-02,7.000854e-01,
-1.803764e-01,3.161875e-01,1.941801e-01,-1.164036e+00,-5.015117e-01,-7.878048e-02,-3.606056e-01,9.540183e-02,-8.473896e-01,4.093038e-01,-2.259845e-01,6.475461e-01,4.035311e-01,4.865113e-02,4.169470e-02,-9.978748e-02,4.270492e-02,4.541742e-01,6.698481e-01,-1.126219e+00,-1.144211e-01,-2.461781e-01,-3.270235e-01,1.768757e-01,1.580863e-01,-3.118122e-01,2.712223e-01,4.775472e-01,-2.615457e-01,1.192678e-01,-2.769746e-01,-1.035708e-02,2.983119e-01,-5.430190e-01,-2.084252e-01,-8.897797e-01,6.113386e-01,1.929019e-02,3.290344e-01,-2.166154e-01,3.801476e-01,2.968333e-01,-3.985227e-01,-5.659741e-02,-5.821182e-01,4.899625e-01,1.605989e-01,-3.574664e-01,8.146417e-01,1.546166e-01,
-3.269555e+00,-1.158781e+00,3.558484e-01,1.289837e+00,-3.125050e+00,4.750340e-01,5.164204e-01,-1.439962e+00,-1.335196e+00,6.583130e-02,-7.460241e-01,9.567179e-01,-7.536444e-01,3.365579e-01,2.892050e-02,-4.802248e-01,1.500574e+00,-2.109126e+00,-8.023544e-01,8.553143e-01,-1.209367e+00,-3.872085e+00,7.627020e-01,-2.446976e-01,8.732988e-01,-2.450559e-01,-9.583009e-01,-1.420003e+00,4.951574e-01,4.189955e-02,5.968887e-01,-1.588285e+00,-1.492155e+00,1.265219e+00,4.425416e-01,-6.778994e-01,3.076890e-01,-9.879910e-01,-1.322981e-01,3.721594e-03,9.244895e-01,1.243955e-01,-3.585476e-01,1.627236e-01,1.083523e+00,-5.746286e-01,6.838424e-01,-2.252456e+00,-2.092034e-01,3.232111e-01,
-6.851605e-01,-9.342446e-01,1.298418e-01,-1.326271e+00,-1.139613e+00,-5.963826e-02,-3.273661e-01,-1.478025e+00,-9.896148e-01,-2.927878e-01,-3.276696e+00,-1.520832e-01,-6.326057e-01,-1.726950e-01,1.452800e-02,-1.193075e+00,-3.435356e-01,4.703410e-01,-1.558163e+00,-4.597768e+00,-9.502157e-02,-1.136296e-01,2.348544e-01,-4.133673e-01,3.260838e-01,2.084029e-01,-3.852360e-01,1.227759e-01,-5.627511e-01,-5.483730e-01,4.734482e-01,-3.994943e-01,-1.554347e+00,-6.522882e-02,-8.667838e-01,1.765000e+00,3.488636e-01,2.841909e-01,4.990442e-01,8.842270e-02,-2.052505e-01,3.656501e-01,1.090101e-01,-4.824665e-01,4.264818e-01,6.412435e-01,5.346111e-01,6.363101e-01,1.142035e+00,-7.321373e-01,
-1.529089e-01,-4.940119e-01,4.067097e-01,2.758632e-01,-5.900260e-02,7.244331e-01,-6.528891e-01,-2.020415e-01,-3.536175e-01,-3.610791e-01,-4.237463e-01,1.406275e-01,-2.654725e-01,-9.365723e-01,2.577290e-02,5.617694e-01,9.230013e-01,8.063824e-02,1.043854e+00,-3.716364e-01,3.700052e-02,4.787679e-01,7.889800e-01,1.834671e+00,-9.545158e-01,4.560838e-01,4.005966e-01,-9.523141e-01,-2.156233e-01,2.477728e-01,-2.452078e-01,3.311288e-02,-1.082457e+00,-1.402607e-01,-6.691404e-01,-1.131615e+00,-2.224450e+00,2.837422e-01,9.181945e-02,-1.002910e-01,-2.343741e-01,3.117530e-01,-1.598039e+00,-8.618379e-02,4.110240e-01,-2.359806e-03,5.329704e-01,2.099068e-02,-3.402244e-01,4.982032e-01,
-1.743860e-01,1.201477e+00,-1.200832e+00,2.800048e+00,1.331054e+00,1.085831e+00,-5.451787e-02,-3.608792e-01,8.877343e-01,-1.258308e-01,6.175938e-01,5.044650e-01,5.274012e-01,-1.860627e-01,4.016110e-02,-1.140063e-01,-1.995539e-01,3.702247e-01,-1.026739e-01,1.567131e+00,1.039562e-01,-7.226829e-01,-2.903340e-01,6.851669e-02,9.681649e-02,2.939333e-01,-1.603589e-01,-1.293349e+00,-6.621210e-01,-4.291039e-01,1.838099e-01,1.866519e+00,-1.826482e+00,3.548190e-02,3.840272e-01,1.157720e+00,2.352515e-01,2.240747e-01,-3.645512e-02,-2.265761e-02,3.084212e-01,-4.072278e-01,-6.182194e-01,3.427788e-01,4.546100e-01,2.742533e-01,7.104163e-01,1.506952e-01,-2.130762e-01,1.596005e-01,
3.365250e-02,1.095740e-02,-3.852320e-02,6.196590e-03,-3.616940e-02,8.166950e-03,-9.363280e-03,-1.010260e-02,3.859540e-02,-1.618280e-02,2.780090e-02,-2.519320e-03,-1.905060e-02,-4.862750e-02,-1.916680e-02,-3.434550e-02,2.620800e-02,-5.632730e-02,-1.627260e-02,-2.686350e-02,-2.553180e-02,-1.381810e-02,-2.867860e-02,-1.844240e-02,2.943220e-04,-2.040960e-02,-5.015680e-02,2.832870e-02,-1.676310e-02,-8.745600e-03,2.099110e-02,-3.261960e-02,3.359200e-03,1.533460e-02,-2.634960e-02,-3.463270e-02,-4.408420e-02,-8.958290e-03,-1.467110e-02,-3.675770e-02,3.116370e-02,-3.731200e-02,-1.232150e-02,-2.380620e-02,-1.192950e-02,-4.574470e-02,-1.210430e-02,2.524170e-02,1.016700e-02,-4.964370e-02,
-1.846005e+00,-5.205791e-01,1.105096e+00,-1.416046e-01,-1.046607e+00,-1.793535e-01,-3.243945e+00,-1.134748e-01,-7.890811e-02,-2.011575e-01,-4.201231e-01,1.453267e-01,3.625553e-01,-9.560993e-02,1.059540e-02,-1.955798e+00,8.462988e-02,8.798426e-01,7.539573e-01,-4.486649e+00,-8.490202e-02,-5.471695e-02,-4.605277e-01,-1.931318e-01,1.995748e+00,3.238914e-01,-6.108224e-02,9.724243e-01,-2.881162e+00,-1.071524e+00,-9.051117e-04,-1.008191e+00,-3.248114e-01,-6.386781e-02,7.469289e-01,5.508400e-02,-3.956900e-01,-3.150068e-01,-4.826241e-01,-4.115356e-01,-1.485395e+00,-1.862743e-01,1.946528e-01,2.604957e-01,-5.520974e-02,1.520746e+00,-2.623621e-01,-2.202000e-02,6.510946e-01,-1.771680e+00,
-5.506459e-01,2.600095e-01,-2.201959e-01,1.182281e+00,-1.395329e-01,-2.191102e-01,-1.814230e+00,-3.293462e-01,-3.077427e-03,-3.648034e-01,6.889789e-01,1.540974e-01,5.374388e-01,-5.714635e-01,-5.071220e-02,9.770992e-01,-1.321651e-01,4.166637e-01,-7.494749e-01,4.971451e-02,-1.271309e-01,4.542113e-01,4.873975e-02,2.346505e-01,-3.932804e-01,-1.550332e-01,1.987207e-01,-1.693037e-01,-3.672730e-01,-9.645002e-01,-2.426804e-01,-3.524576e-01,-1.375165e+00,-1.547146e+00,6.173981e-01,2.306891e-02,1.743557e-01,1.515345e-01,1.555420e-01,-3.800871e+00,-9.822975e-01,-6.282505e-01,-2.498366e-01,3.424864e-02,3.903224e-02,8.566098e-01,1.465262e+00,1.893599e-01,-1.488284e-01,6.615067e-01,
-1.662643e+00,1.200002e+00,-4.288438e-01,8.698164e-01,-6.978137e-01,1.635527e-01,8.895073e-01,-8.089222e-01,9.502122e-01,9.678789e-02,-2.657191e-01,5.372509e-01,3.653196e-01,7.272100e-02,2.150070e-02,1.471564e+00,4.978283e-01,-9.082568e-01,9.696201e-01,-3.492230e-01,-1.298733e+00,4.092488e-01,4.698049e-01,3.915217e-01,-4.170568e-01,7.977250e-01,-3.656047e-02,6.165291e-01,-3.013940e-01,5.767365e-01,2.608172e-02,4.677696e-01,-2.488839e+00,2.321980e-01,-1.009828e+00,1.257056e-01,-3.521395e-01,-1.086096e+00,3.768196e-01,-1.962112e-02,8.752407e-01,3.616390e-01,-1.656964e-01,6.591839e-02,8.262049e-01,8.717895e-01,9.645295e-01,-9.628638e-02,-5.811116e-01,1.626009e+00,
8.288407e-01,-1.621351e+00,7.134346e-01,-3.398330e-01,8.545557e-02,3.862110e-01,-1.380128e+00,1.274995e+00,5.620534e-01,6.612196e-01,-4.649410e-01,3.738863e-01,-4.614327e+00,-2.720715e+00,5.114930e-02,-1.487376e+01,-2.392426e-01,-2.019304e-01,1.368341e-01,2.628674e-01,-4.235987e-01,-5.181332e-01,1.184704e-01,-2.038378e-02,1.129262e-01,-1.519164e-01,-4.959928e-01,-1.677850e-01,-1.384435e+00,-4.475986e-01,-3.458140e+00,1.030975e-01,-1.464768e-02,9.198586e-01,-1.849437e+00,1.568983e+00,-1.228340e-01,-1.612526e+00,8.223105e-02,5.499408e-01,-2.625027e+00,-4.875286e+00,5.117356e-01,2.706612e-01,-6.387484e-01,-1.043389e+00,4.648891e-01,-1.496780e-01,-1.066269e+00,6.445610e-02,
-7.611337e-02,-1.797311e-01,-1.716549e-01,-1.509130e-01,-1.046359e+00,2.459582e-01,-1.344866e+00,3.080260e-01,5.685441e-01,-1.506960e-01,1.301536e-02,-1.456377e-01,-1.005606e-01,-4.485907e-01,4.444760e-02,-1.300764e+00,3.773665e-01,5.298882e-01,-6.566823e-01,-4.808460e-01,2.362092e-01,5.318612e-01,5.101451e-01,-2.551563e-02,2.388303e-01,1.093348e-01,4.637704e-03,2.483912e-01,-1.038418e-02,2.942138e-02,9.564898e-03,-8.112375e-02,5.872036e-01,-2.976511e-01,-2.148972e-02,3.358238e-01,-7.760281e-02,5.915122e-01,-4.754945e-02,6.562443e-01,-1.102487e+00,-1.017564e+00,1.744575e-01,-1.529526e-01,3.064024e-01,8.080168e-01,-7.686580e-02,1.097975e-01,2.722001e-01,-4.411696e-01,
-1.029812e+00,2.359975e-01,2.097517e-01,2.633986e+00,4.756547e-01,-4.030108e-01,6.212917e-02,2.269044e-01,-1.734071e-01,1.644157e-01,-2.187516e-01,1.946988e-01,-6.954427e-01,1.475478e-01,2.188740e-02,-1.295053e+00,-1.345931e-01,3.722481e-01,-2.349896e-01,1.137681e+00,6.669599e-02,-4.343719e-01,-2.175665e-01,-1.843421e-01,9.385046e-02,4.344863e-01,4.926864e-02,-6.132544e-01,2.174679e-01,3.751529e-01,7.900901e-01,2.192036e-01,4.911020e-03,-4.690961e-01,1.996290e-01,1.392227e-01,-4.150004e-01,1.917273e-01,-9.882346e-03,-1.227955e-01,-1.109563e+00,-6.344379e-02,-4.949605e-01,-4.203837e-01,-6.934056e-02,-2.699336e-02,4.644302e-01,-2.053989e-01,2.548568e-01,-1.013355e-01,
1.375363e-02,-5.122575e-01,-3.737859e-01,1.492821e+00,5.342039e-02,3.475527e-01,-4.838293e-01,-4.991057e-01,2.055285e-01,1.422580e-01,-1.568599e-01,-1.230082e-01,4.882040e-02,-7.325752e-01,1.911980e-02,7.526354e-01,-3.788192e-01,8.220322e-01,-5.350340e-01,-1.934772e-01,3.294378e-01,3.320346e-01,3.416736e-02,-2.720704e-02,-1.745750e+00,-1.385310e-01,-1.826183e-01,-5.685529e-01,1.016627e-01,-5.720760e-01,2.521297e-01,-4.438215e-01,8.520933e-01,3.121068e-01,-2.382048e-01,5.565379e-01,-9.432245e-01,-4.830112e-01,-3.803448e-01,-4.957168e-01,4.957143e-01,1.793167e-01,1.471938e-01,-3.225795e-01,4.073962e-01,-2.570739e-01,-3.139470e-01,-2.996874e-01,-1.245661e+00,-6.770952e-01,
-3.141510e-01,-4.247946e-01,-3.857581e-01,-1.435809e+00,5.608593e-01,1.020316e+00,-3.753152e-01,-8.298042e-02,4.262167e-01,-1.401589e-02,5.551855e-01,2.594681e-01,-5.055709e-01,8.981823e-01,-3.901650e-02,5.037343e-01,2.203613e-02,1.749684e-01,1.381403e-01,-8.227423e-01,-3.680602e-01,-3.525793e-01,5.873528e-01,3.906286e-01,-1.743382e-02,-1.665359e-01,-3.479993e-01,3.324139e-01,-5.085435e-03,-3.218069e-01,1.769602e-03,-2.041651e+00,5.229529e-01,-4.221643e-01,-3.733010e-01,-1.473343e+00,-3.554611e-01,4.298729e-02,-9.280157e-02,5.489453e-02,-2.949884e-01,8.377665e-01,-2.453883e-02,2.791776e-01,1.597079e-01,-2.110220e-01,2.170721e-01,-4.188029e-01,-6.537193e-02,3.105133e-01,
2.770676e+00,-1.864576e+00,1.036152e+00,7.280127e-01,1.049638e+00,-6.902570e-02,-1.901719e+00,-4.616278e-01,-3.674077e-01,-2.959529e-01,-1.179736e+00,8.207618e-01,-3.957282e-01,1.370911e-02,-4.399560e-02,-3.379697e-01,1.414034e-01,1.959841e-01,-4.963068e-01,1.624264e+00,-1.000304e+00,-1.200217e+00,4.247219e-02,-1.771357e-01,-2.257453e+00,-6.893935e-01,-2.613759e-03,6.778132e-01,4.247891e-01,-3.052241e-01,3.074362e-01,1.121721e+00,-2.221443e+00,-1.080856e-01,-2.224061e-01,1.183408e+00,1.675910e-01,8.848865e-02,-8.934154e-02,-2.753275e-01,3.419863e-01,-3.201097e-01,-1.211031e-01,-2.927659e-01,-8.362585e-01,-1.793228e-01,9.996640e-01,-3.710082e-01,4.000683e-01,-1.370228e+00,
-2.589798e+00,-9.642494e-01,-5.307294e-02,1.194453e+00,-1.302648e+00,2.222010e-01,-1.374209e+00,1.343784e-01,-7.052748e-01,1.355572e-01,-9.308130e-02,6.962596e-02,-3.020024e+00,-1.197194e-01,4.326530e-02,-5.965739e-02,5.499548e-01,4.742308e-01,-4.744450e-01,4.786085e-01,9.470439e-01,-1.393916e+00,-8.326955e-01,6.248676e-01,-3.200577e-01,-8.903052e-02,-1.443013e-01,2.342039e-01,2.052902e-02,8.039198e-01,-5.189720e-01,-2.027023e-01,-8.810199e-01,-7.776536e-01,-5.333296e-01,-4.792177e-01,5.708089e-01,-2.677946e+00,3.181467e-01,-9.524521e-01,4.659202e-01,-7.658970e-02,-5.582057e-01,-2.036224e+00,-2.618711e-01,7.892954e-01,-6.044152e-01,-8.791893e-01,-3.957935e-03,-4.183350e+00,
-1.599025e+00,9.074466e-01,-5.359740e-01,1.734738e+00,-3.540514e-01,1.285443e+00,-1.135525e+00,6.113677e-01,-2.411322e-01,-1.386243e-01,-3.629385e-01,2.087070e-01,-3.940662e+00,1.829402e+00,4.107200e-02,-3.195284e+00,1.042721e+00,1.250688e+00,6.011010e-01,2.294899e+00,1.422814e+00,-1.547800e+00,-7.846375e-01,6.543543e-01,-1.665071e+00,-1.730515e+00,-9.667029e-01,-2.280683e+00,-1.553517e+00,-3.709349e-01,-5.040297e-02,2.014085e+00,-3.706739e+00,-4.623296e-01,1.083665e+00,-4.869803e-01,-9.635708e-02,-2.738711e+00,1.648490e-01,-9.236225e-01,2.211235e-01,-8.995732e-01,-9.178621e-01,2.533103e+00,-1.862128e+00,-6.836584e-01,1.643813e+00,-7.540241e-01,3.926270e-01,-1.161312e+00,
2.573089e-01,2.211010e-01,6.028864e-01,1.903721e-01,3.865539e-01,-1.383569e-01,1.069427e-01,-4.231841e-03,1.876880e-01,-1.114936e-01,-1.279738e-01,-8.219764e-02,-4.097822e-01,7.391813e-01,3.363130e-02,-4.956251e-01,6.137433e-01,5.908253e-02,5.851157e-01,-1.612790e-02,-1.677843e-01,2.968420e-01,5.344760e-01,-4.887248e-01,1.428732e-01,-5.213418e-02,3.600639e-01,-1.466842e-02,-5.542426e-01,9.312915e-02,4.073031e-01,-4.799295e-01,-3.485820e-01,-5.675128e-02,1.515720e-01,-4.073413e-01,9.596315e-01,-2.826857e-02,4.212159e-01,1.578074e-01,7.849801e-02,4.680877e-01,6.809417e-02,4.968115e-01,8.086132e-02,1.898497e-01,1.375169e-01,-2.218454e-01,-3.005676e-01,4.386705e-01,
-5.705249e-01,9.655223e-01,-1.056699e+00,-5.672003e-01,-3.636410e-01,9.399570e-01,1.296344e-01,8.054291e-01,-2.424487e-02,4.113515e-01,5.757104e-01,5.838871e-01,9.347326e-01,-6.939401e-01,1.083920e-02,8.523925e-01,1.336905e+00,2.087834e-01,1.577092e+00,-1.214697e+00,9.368441e-01,6.359630e-01,5.936424e-01,-6.407365e-01,-1.862364e-01,-1.808938e-01,6.628867e-01,-2.890169e-02,-7.896247e-02,6.016838e-01,2.571536e-01,3.588752e-01,-1.538426e-01,-6.152812e-01,1.326882e+00,1.796960e+00,-1.506902e-01,5.164269e-01,-9.224608e-01,-4.426538e-01,8.976982e-02,-4.596733e-01,-7.231631e-01,7.918245e-01,-1.080905e+00,1.972148e-01,1.471049e+00,6.792980e-01,-5.605689e-02,4.609980e-01,
5.381614e-01,-2.284462e+00,8.577305e-01,-2.607382e+00,8.662767e-01,-1.407094e-01,8.207756e-01,9.741247e-02,-6.041288e-02,2.992957e-03,-2.442472e-01,2.055735e+00,2.345979e-01,-5.591682e-01,-1.969110e-02,2.419518e-01,-2.068598e+00,-1.122661e+00,2.970764e-01,-1.865048e-01,-1.277547e+00,4.758297e-01,4.284137e-01,2.629045e-02,1.473233e+00,1.772605e-01,5.906068e-01,-1.441401e+00,1.594139e+00,6.550317e-01,5.081279e-01,-1.065729e+00,1.521610e-01,-7.132755e-01,1.190545e+00,-1.009691e+00,4.007434e-01,-8.202734e-02,-1.151341e-01,6.387728e-01,6.724550e-01,9.979536e-02,-5.202112e-01,-1.526322e-01,2.109738e-01,-5.654888e-01,-7.575469e-01,-8.476547e-01,2.080853e+00,1.894909e-01,
-1.287835e-01,3.843192e-01,1.263387e-02,-6.450775e-01,-5.010219e-01,-1.174720e-02,1.529965e-01,1.535590e-03,3.297804e-01,-2.075892e-01,-7.448595e-03,3.494206e-01,-9.468970e-02,2.619028e-01,2.639000e-02,-1.328785e-01,3.614592e-01,-4.092680e-02,-1.766572e-01,-2.550588e-01,3.152044e-01,-2.929265e-01,2.249883e-01,-1.673250e-01,6.440252e-01,6.458402e-01,-1.087520e-02,-2.975308e-01,-4.031145e-01,2.091848e-01,2.354845e-01,-5.681145e-01,4.220444e-01,2.245509e-01,-1.973105e-01,-2.914457e-01,-3.898212e-01,8.700221e-02,-1.949336e-01,2.444216e-01,-3.672179e-02,-2.200092e-01,6.987784e-03,-6.131337e-01,-1.316852e-01,-2.120162e-01,2.319750e-01,1.443374e-01,-2.838195e-01,-1.409257e-01,
6.360820e-01,-2.600946e-01,5.101625e-01,-1.633129e+00,6.866639e-01,-5.122913e-01,4.121341e-01,5.192063e-01,3.162536e-01,2.195496e-01,-5.522498e-01,-1.067347e+00,-1.871738e-01,5.350698e-01,3.119620e-02,4.702944e-01,-3.047005e-01,3.361356e-01,-6.159900e-01,-1.078837e+00,2.884407e-01,-9.222708e-01,5.017277e-01,7.278020e-03,3.276433e-01,1.944187e-01,-1.034863e+00,-8.694075e-01,-9.652888e-01,-8.169952e-02,7.041550e-01,4.733351e-01,2.102151e-01,5.211385e-01,1.236911e-01,7.527899e-01,-6.625010e-01,5.437492e-01,4.990178e-01,-1.292734e+00,-8.434147e-02,-5.786830e-01,1.556189e-01,2.854245e-01,2.923262e-01,-2.584155e-01,1.173308e+00,2.832668e-01,-2.227145e-01,5.706965e-01,
-5.237885e-01,2.447275e-01,-1.715308e-01,-1.169943e+00,-3.531942e+00,-5.512514e-01,-2.049238e-01,-1.775448e-01,-1.255456e+00,-1.092254e-01,-1.270812e+00,-1.409860e-01,-3.541157e-01,-2.123739e-01,1.630080e-02,4.917987e-01,-1.701692e+00,2.496815e-01,6.960647e-01,2.866504e-01,-1.928752e-01,5.474582e-01,-2.159005e-01,-1.197479e-01,1.134642e-01,4.410824e-01,1.313392e+00,4.530320e-01,-2.114437e-01,7.486539e-02,1.515446e+00,2.270024e-02,-1.801928e+00,1.531797e-01,-6.753950e-01,-6.940230e-01,1.297146e-01,1.468270e-01,-6.261507e-01,-6.351061e-01,1.060507e+00,7.121275e-01,-2.005641e-02,1.215451e+00,-2.239937e-01,-6.170845e-01,2.591297e-01,1.014533e-01,-5.743611e-02,-2.359881e-01,
-2.967460e-01,-1.212380e+00,-5.253214e-02,-1.189474e-01,-1.227199e+00,-2.960010e-01,-2.575563e+00,-1.239117e-02,7.042671e-01,7.182393e-01,2.884046e-01,-1.862922e-01,3.381972e-01,-3.536643e-01,9.012400e-04,-3.563891e+00,1.241050e+00,9.263274e-01,-1.020618e+00,2.216894e-01,-1.031488e+00,-1.474480e+00,8.215770e-01,2.987692e-02,1.417647e+00,-1.579282e+00,-3.260253e-02,4.719860e-01,-9.736423e-01,-4.278484e-01,-1.342596e+00,-1.437184e+00,6.766857e-02,-7.676767e-01,1.446996e+00,6.792044e-01,-1.984063e-01,3.439648e-01,6.001821e-01,4.332350e-01,3.547925e-01,-1.300967e+00,2.252236e-01,6.581107e-01,3.116055e-01,5.573845e-02,-6.934578e-01,7.314816e-02,5.071489e-01,-6.739379e+00,
-3.283484e-01,4.109265e-02,1.440741e-01,2.159767e-01,1.154199e+00,-8.268441e-02,-6.330991e-01,2.470423e-01,-1.562620e-01,-4.143529e-02,-3.788028e-01,-1.459400e-01,-3.330285e-01,1.307231e-01,-4.928850e-03,-3.476155e-01,-6.195737e-02,1.073618e-01,-4.079226e-02,-2.068314e-01,-3.624992e-02,-2.352281e-01,-1.789116e-01,1.102623e-01,-5.739886e-02,3.340545e-01,-1.229579e-01,8.613621e-02,-2.115893e-01,2.925477e-01,9.628424e-02,-4.191709e-01,2.664373e-01,-3.567327e-01,1.881857e-01,-5.273406e-01,3.374514e-01,9.474714e-01,-2.894208e-01,3.383980e-01,-7.477475e-01,-2.561865e-01,2.112585e-01,4.624736e-01,1.527853e-01,-3.870838e-01,-2.203157e-01,4.363636e-03,4.405907e-01,-2.738990e-01,
-2.939923e-01,-2.120105e-01,5.290124e-01,-8.594922e-01,2.782948e-01,1.047340e-02,4.072223e-01,-1.588081e-01,-1.982826e-01,-8.243598e-01,-1.131638e+00,1.758803e-01,-1.838108e-01,-2.030339e-01,-4.141110e-02,2.521656e-02,8.058953e-01,-2.584940e-01,8.615361e-01,-1.857873e-01,3.142914e-01,-3.492950e-01,3.719926e-01,1.274879e+00,2.851303e-01,-2.273905e-02,2.309326e-01,-8.876063e-01,-1.358571e-01,2.564181e-01,-3.960097e-01,1.026125e-01,-2.026970e+00,-8.659616e-02,-2.550003e-01,-1.061337e-01,-1.665030e+00,2.754219e-01,2.923970e-01,-2.900546e-02,-6.529858e-01,2.477398e-01,-1.254584e+00,1.096080e-01,3.393243e-01,3.267326e-01,1.680528e-01,1.519065e-01,2.484081e-01,-3.331990e-01,
-7.923841e-01,-6.966600e-01,3.617256e-01,-1.260957e+00,9.165578e-01,2.503948e-01,-9.491300e-01,-1.094302e-03,-9.222645e-01,-2.596904e-01,2.735123e-02,-3.823930e+00,-3.345467e-01,-1.125425e+00,3.979990e-02,9.546594e-01,-1.034101e-01,-4.349096e-01,-8.843829e-02,1.806248e-01,-1.115489e-02,-4.265951e-02,1.096738e+00,4.452122e-02,-6.333121e-01,-8.706355e-03,7.463768e-01,-3.427172e-02,-3.173914e-01,-1.228569e-01,-3.864642e-01,-2.807894e-01,-2.803195e-01,-2.704935e-01,-3.819617e-01,-9.964821e-01,-5.789467e-03,1.069313e-01,1.276972e-01,-2.229926e-01,6.700105e-02,7.676970e-01,-1.753182e-01,2.661037e-01,6.464571e-01,-5.762569e-01,-3.942802e-01,7.038910e-02,-2.994044e-01,-6.233841e-03,
1.480835e-01,-4.070804e-01,-1.773222e-01,3.525978e-01,-3.520175e-01,-2.542096e-01,1.249255e-01,-2.237366e-01,1.479621e-02,-8.266860e-01,1.432240e-01,2.288269e-01,3.501194e-01,3.621218e-02,2.769440e-02,-9.875719e-02,-3.764299e-01,5.559483e-01,4.230624e-01,6.942831e-01,1.014957e-01,-2.169589e-01,5.937902e-01,-2.224635e-01,7.335551e-03,5.063518e-01,-4.210344e-02,-2.219650e-02,-9.848694e-01,2.273824e-01,-3.360507e-04,1.452493e-01,-1.118589e+00,3.999949e-01,-3.226071e-01,-2.192340e-01,3.898171e-01,1.982486e-01,4.604715e-01,7.914235e-02,-7.142996e-02,-4.283072e-01,-1.769876e-01,1.481684e-01,9.981298e-02,-2.263022e-01,-5.113373e-02,-1.033662e-01,1.603248e-02,-4.322175e-01,
3.072351e-01,1.401701e+00,-9.333936e-01,5.319033e-01,-1.936332e-01,5.278831e-01,-6.149492e-01,-4.899900e-01,2.672614e-01,-3.190151e-02,1.274172e-01,4.284494e-02,8.324890e-01,1.442543e+00,-2.074240e-02,-1.216803e+00,-2.075956e-01,-7.926627e-02,-4.830490e-01,-1.608963e+00,4.390906e-01,2.264770e-02,-3.172560e-02,3.590046e-01,-3.758339e-01,4.468911e-01,1.333779e-01,3.963421e-01,5.972795e-01,1.779969e-01,-1.582218e+00,-9.057618e-01,2.338878e-01,-4.953377e-01,2.094755e+00,4.322602e-01,-9.102530e-01,6.990979e-01,-1.597212e-01,1.205549e-01,-6.110642e-01,-1.066466e+00,6.626929e-02,8.386125e-02,1.900566e-01,5.893267e-01,6.965273e-03,5.952269e-01,-3.453879e-02,-1.667210e+00,
-8.970459e-01,8.120953e-01,2.403347e+00,-2.625502e+00,4.855438e-01,6.739386e-01,1.816863e+00,-9.891182e-01,-1.773644e-01,-3.913901e-01,5.208524e-01,4.068639e-01,3.224280e-01,-6.941240e-01,-3.881990e-02,-2.416043e+00,7.452034e-01,-1.195535e-01,-6.571155e-01,-1.639733e+00,-8.530159e-01,-2.706415e+00,4.540996e-01,3.926350e-01,2.469848e-01,9.950654e-02,-7.651713e-01,-4.297207e-02,-2.281951e+00,9.676271e-02,1.063286e-01,2.537869e-01,-2.948011e+00,-1.419329e-01,1.546986e+00,2.404052e+00,-7.586067e-02,-1.964373e-01,-3.127307e-04,-7.225853e-01,-2.811997e+00,6.113048e-01,-5.961123e-01,-1.837866e+00,-6.165988e-01,8.644921e-01,-2.387697e+00,-1.125018e+00,1.644415e+00,4.514697e-01,
1.016614e+00,4.794144e-01,-1.281545e-01,-1.616721e+00,-1.825850e+00,2.154324e-01,-2.810311e+00,-6.682109e-01,-9.087774e-01,2.081087e-01,-5.886526e-01,-6.452001e-01,1.608274e-01,-4.476660e-01,1.984130e-02,1.073116e-01,2.397228e-01,1.512692e-01,1.853052e-01,-2.541642e-01,-1.496134e-01,3.267930e-01,-1.735923e-01,-1.183415e-01,-1.725538e-01,1.563165e-01,-1.961150e+00,2.435122e+00,-7.313523e-02,1.876256e-02,-2.641248e-01,2.814279e-01,2.931367e-02,-8.379331e-01,5.141199e-03,4.949015e-01,3.825070e-02,-1.933638e-01,-1.238173e+00,9.400980e-01,-1.752585e-02,-4.078235e-02,-2.107567e-01,9.791787e-01,-2.076388e+00,-4.654889e-01,-9.786673e-02,7.604679e-01,1.799810e+00,-6.193440e-01,
-5.487497e-01,5.068008e-01,-5.347291e-01,-1.018914e+00,-1.296224e+00,-3.023344e-01,6.930726e-01,4.889145e-02,2.360658e-01,7.704291e-02,2.588415e-01,-4.137868e-02,-4.837991e-01,-1.490651e-01,-3.482470e-03,4.207645e-03,-1.143860e+00,-1.118201e-01,7.018861e-01,1.404552e-01,1.294273e-01,1.317013e+00,9.514014e-01,3.434928e-02,-1.225596e+00,3.609439e-01,2.897263e-01,-7.948871e-01,-1.018989e+00,1.102830e-01,2.630650e-01,-1.841411e+00,-1.773147e+00,-3.646120e-01,3.678509e-01,4.645124e-01,8.706556e-02,-3.119416e-01,3.535033e-01,-2.146644e+00,9.528050e-01,-6.090277e-01,-1.679947e-01,3.222226e-01,9.283848e-01,5.408901e-01,-7.986908e-01,5.274329e-01,-7.314764e-01,5.925657e-01,
9.301562e-01,-1.275961e+00,-3.413946e-01,-7.333920e-02,1.934802e+00,-1.412206e-02,1.316990e+00,-1.036685e+00,3.843087e-02,4.022566e-01,1.562811e+00,-2.900685e+00,-1.083010e+00,-3.276388e+00,3.055350e-02,-1.667627e+00,-7.976296e-01,-9.672701e-01,-9.879369e-01,-6.560760e-01,-2.785620e-01,-1.444129e+00,7.769116e-01,-1.264545e+00,-9.533737e-01,-1.244638e+00,-3.902607e-01,4.868439e-01,-3.272610e-01,-4.801793e-02,1.457049e-01,-1.561961e+00,6.769053e-01,-7.909660e-01,5.115615e-01,-3.509156e+00,5.909085e-02,-1.781799e+00,3.465465e-01,3.245750e-01,-2.836467e+00,-5.466787e-01,-1.202867e+00,-2.076683e+00,9.440604e-01,-1.578766e-01,1.524295e+00,-3.128595e-01,2.893905e-01,2.047660e-02,
6.515049e-01,9.125214e-01,-1.334630e+00,-3.918610e+00,-2.533390e-01,8.129191e-03,-2.176894e+00,-5.890043e-01,-2.781999e-03,-1.328103e-01,-2.791027e-01,-1.745006e+00,1.225528e+00,5.795204e-01,-3.863530e-02,-3.671625e-01,-1.520213e-01,-7.158812e-01,-8.908116e-01,-2.778565e+00,1.312719e+00,6.954162e-01,-3.253238e-01,4.293685e-01,6.162047e-01,2.144165e-01,-2.322277e+00,1.098171e+00,-4.299925e-01,6.942210e-01,2.432030e-01,6.400484e-01,-7.731368e-01,-1.556289e-01,2.364936e-01,1.461921e-01,1.088237e-01,5.489647e-01,-7.778563e-01,8.508973e-01,4.364934e-01,2.204728e-02,3.790348e-01,5.673875e-01,6.650571e-01,7.722275e-01,8.812833e-01,7.932373e-03,-1.452956e+00,-7.366231e-01,
-2.402560e-02,-4.332550e-02,-1.596090e-02,-3.539170e-02,-2.446600e-02,-8.904600e-03,-2.680456e-02,1.444746e-03,-4.370280e-02,3.134307e-02,3.593870e-02,-3.827070e-02,-4.844280e-02,1.218525e-02,-3.602750e-02,-3.150610e-02,1.246790e-02,1.022781e-02,-3.623358e-02,2.170360e-02,-1.525390e-02,-3.374684e-02,-3.777460e-02,-4.893580e-02,-3.496140e-02,-5.081380e-02,-4.693590e-02,-3.833742e-02,-2.423061e-02,2.235750e-02,-6.929013e-03,4.596240e-02,-4.899331e-03,-2.346152e-02,-3.178410e-02,-4.023730e-02,-5.345086e-02,-2.983810e-02,-1.305499e-02,2.202012e-02,-4.886010e-02,1.951620e-02,-2.503042e-02,-2.938560e-02,2.324350e-02,3.618140e-03,2.199637e-03,-3.410500e-02,-4.928280e-03,2.441080e-02,
