// The contents of this file are licensed under the Creative Commons
// Attribution 4.0 International License: https://creativecommons.org/licenses/by/4.0/
// Neural Network File Format by Kyle Julian, Stanford 2016 (generated on 11/01/2022 22:04:01)
7,5,5,50,
5,50,50,50,50,50,50,5,
0,
0.0,-3.141593,-3.141593,100.0,0.0,
60760.0,3.141593,3.141593,1200.0,1200.0,
19791.091,0.0,0.0,650.0,600.0,7.5188840201005975,
60261.0,6.28318530718,6.28318530718,1100.0,1200.0,373.94992,
2.353084e-02,2.218187e-01,-1.725374e+00,4.747102e-02,-2.210184e-02,
-2.168469e+00,-6.088103e-02,-1.602206e-02,5.470315e-04,7.077808e-03,
-3.450953e-02,-2.239931e-01,6.795734e-01,2.702643e-01,-1.722757e+00,
4.805022e-03,-9.994893e-02,-1.068625e-01,-1.352112e+00,4.481609e-01,
-4.980451e-01,-2.632494e-02,1.913839e-02,-1.056193e+00,-6.025212e-01,
-6.408320e-02,4.052359e-04,-5.033579e-01,4.067074e-01,-1.016467e+00,
-5.277761e-03,2.525967e-03,4.090305e-04,-3.886921e-01,-5.804657e-01,
2.825397e-01,-2.217745e+00,4.204110e-01,-7.618663e-02,-7.797419e-02,
1.815336e-01,1.509187e+00,-4.392445e-01,1.729035e-01,-2.287537e-01,
-1.071427e-01,7.803130e-03,-6.055493e-03,-5.726831e-02,-3.112825e-02,
-8.749345e-03,-3.299831e-02,9.945010e-02,9.570358e-01,-1.253510e+00,
2.970376e-02,1.686769e+00,3.150142e-01,1.439332e-01,-9.508929e-02,
-1.045110e+00,9.601866e-02,-9.697944e-02,-9.529725e-03,5.194321e-02,
1.633771e-02,2.615818e-02,-6.213495e-01,1.247245e-01,-4.357662e-01,
9.017295e-04,1.677877e-03,-5.155665e-02,-6.462230e-01,-4.874330e-01,
-2.141535e+00,-1.952231e-03,8.097599e-02,-4.970811e-03,1.369213e-02,
-1.702971e+00,7.943373e-02,-8.937629e-02,9.161197e-04,-2.684705e-02,
-6.911011e-01,-3.538431e-03,-3.623756e-02,3.354885e-01,-1.647485e-03,
-4.612731e-03,4.496619e-01,-5.656904e-01,-1.180514e-01,-1.654190e+00,
-3.945384e-02,-1.071427e+00,-4.542527e-01,6.711071e-02,-1.260504e-01,
-1.134009e-02,1.004556e+00,-4.300126e-01,2.742277e-01,-7.483464e-01,
1.100581e-03,2.538837e-02,-7.089335e-02,-1.398194e+00,8.616083e-01,
-1.059715e+00,2.284282e-02,-1.362948e-03,-5.248623e-03,-1.307441e-01,
-2.739697e-01,-3.199365e-01,-3.246900e-02,6.124202e-02,2.300598e-01,
-1.046006e-02,1.185088e+00,7.925757e-01,3.829977e-01,-3.221654e-01,
8.860873e-03,2.013269e-02,-6.935629e-03,7.126148e-01,-8.106759e-01,
7.652776e-02,6.989121e-02,-3.501814e-02,-5.715006e-01,-1.775864e+00,
1.233413e-02,-6.439086e-03,1.703533e+00,3.912650e-02,-2.528382e-02,
-1.635455e+00,-3.188314e-02,7.273159e-02,6.801780e-03,-7.212131e-02,
-1.764678e+00,6.652471e-03,-2.335226e-03,-3.415397e-01,-2.327511e-01,
-3.242399e-01,5.291011e-01,-6.097157e-02,8.401452e-02,-1.169833e-02,
9.877123e-04,-8.958085e-01,8.527009e-01,2.993798e-01,-9.774988e-01,
-8.221954e-01,-1.928541e-01,1.742610e-01,6.635476e-02,1.122402e-01,
-7.938055e-02,2.647089e-01,-4.027444e-01,-7.102107e-01,-1.210950e+00,
2.524582e-03,2.590181e-01,-2.848969e-01,-1.703476e+00,-5.770400e-01,
1.209179e-01,1.234568e+00,-1.084745e+00,-4.191348e-02,6.463546e-02,
-5.311071e-02,1.856473e-01,1.003179e+00,1.163321e-01,-4.438394e-02,
-1.878771e+00,9.655653e-03,-6.413130e-03,-1.179082e-02,-2.010096e-01,
-3.452766e-01,1.348775e+00,-1.564735e+00,6.405716e-02,-2.178141e-01,
-5.775426e-02,5.068114e-01,-1.532671e+00,4.687476e-01,-1.398596e+00,
-2.084432e+00,7.388125e-02,-1.191391e-01,-1.322674e-02,5.855861e-03,
9.706402e-03,7.135049e-01,-8.625869e-01,3.478565e-02,-2.847229e-01,
-1.915584e-01,1.272301e+00,-4.106517e-01,-2.892910e-01,6.158432e-02,
2.584449e-02,-2.697879e-01,-6.020535e-01,-3.708690e-01,3.463323e-01,
-7.444695e-02,5.005398e-02,-1.116427e+00,2.042851e-01,6.604468e-03,
-4.134296e-01,-1.104428e+00,1.167570e+00,-5.354774e-02,-4.131217e-01,
-9.434016e-03,1.290147e-02,-2.552752e-02,-5.698413e-01,-7.274931e-01,
5.401998e-02,1.219959e+00,-1.268527e+00,7.373591e-02,5.780154e-02,
-2.171199e-02,3.073426e-01,-6.198457e-01,-2.840719e-01,1.382538e-01,
-6.395023e-03,-7.346259e-02,1.118643e-01,-1.630603e+00,-5.868147e-01,
1.576890e-01,
-5.992828e-01,
-8.255934e-01,
-3.182957e-02,
-8.303345e-01,
-4.626688e-02,
3.862841e-01,
-1.330461e-02,
-1.556206e-01,
-8.586688e-02,
1.780767e-02,
2.852729e-01,
-1.357416e-01,
1.572971e-01,
9.235196e-02,
-5.163606e-01,
-3.284526e-01,
-7.696407e-02,
-4.820040e-01,
-2.033776e-01,
-1.284791e-01,
-1.676140e-01,
-6.607027e-02,
2.003167e-01,
-2.643804e-01,
1.992823e-01,
-9.395227e-01,
3.349895e-03,
-3.047791e-01,
-7.278690e-01,
4.998556e-02,
-1.035912e-01,
-1.165342e-01,
-7.062772e-01,
-7.780434e-01,
6.306680e-01,
8.745384e-02,
-4.922123e-01,
-7.138991e-02,
-6.490276e-01,
-5.146982e-01,
1.509165e-01,
-3.713449e-01,
7.982703e-02,
-4.830483e-02,
5.169994e-02,
4.599063e-01,
-4.745540e-01,
1.572224e-01,
-6.374948e-01,
1.132526e-01,-2.273334e-01,8.449522e-01,-1.690735e+00,-2.813630e-03,1.162303e+00,-1.692300e+00,1.320089e-01,2.999216e-01,2.171300e-03,8.822238e-01,-7.452266e-02,-2.887121e-01,-1.460293e+00,-4.443255e+00,-1.527984e-01,1.545137e-01,5.309195e-02,1.839724e-02,-4.355139e-01,4.842545e-01,1.232711e+00,2.299893e-01,-5.524178e-01,2.721219e-01,1.857739e-01,-1.179165e-02,-6.704187e-01,2.174123e-02,-4.045181e-02,-2.593262e-01,-6.887486e-01,-2.105474e-01,-2.258769e-02,-4.348887e-02,-4.629273e-01,-9.366778e-02,-5.791566e-01,-2.181334e-01,1.123287e+00,5.133536e-01,-6.047161e-02,-3.817664e-01,6.298754e-01,2.471959e-01,3.896943e-01,-1.861261e-01,-2.183559e-01,-1.759364e+00,-3.132178e-02,
-2.078715e+00,3.194055e-01,-1.283967e+00,5.253289e-01,1.365570e+00,6.946170e-01,-5.047134e-02,1.224286e+00,4.257087e-01,-2.661932e-02,-3.879299e-01,-6.041454e-01,-1.963839e-01,5.138236e-01,-1.285110e-01,-1.654860e-01,-1.285615e-01,2.298124e-01,1.904750e+00,-3.085942e-01,8.292016e-01,-1.077308e-01,2.190318e-01,-3.919675e-03,-7.074915e-01,2.512310e-01,-1.337764e+00,6.453400e-01,1.053333e-01,4.127787e-01,-5.903723e-01,3.969162e-01,-6.297369e-03,4.237591e-01,7.510938e-01,-1.464330e+00,1.194235e-01,2.999201e-01,-1.969473e+00,-2.340067e-01,-4.280155e-01,2.580966e+00,1.234510e+00,-3.596791e-01,-2.407058e+00,5.656924e-01,-8.030539e-01,-4.635845e-02,-1.416240e+00,-9.155340e-01,
-3.255851e+00,-7.946923e-01,-2.517917e+00,6.261719e-01,-1.520229e+00,-1.076731e+00,1.152227e-01,-1.085033e-01,1.504545e-01,1.406810e-01,-1.142105e+00,3.860525e-01,6.935625e-01,-9.271616e-01,6.744190e-02,-4.363914e-01,6.052477e-01,-6.684824e-01,-2.778435e-01,4.674985e-01,6.950418e-04,-8.308536e-01,-6.470161e-02,6.420172e-01,2.857847e-01,-5.620514e-01,-2.563309e+00,-8.976645e-01,-4.126376e-01,-2.124591e-01,-4.229355e-01,6.238056e-01,2.284025e-01,3.756267e-01,-2.872526e-01,-3.525999e-01,7.782165e-03,-4.981687e-02,1.651027e-01,1.356930e+00,1.038377e+00,2.221514e-02,-6.786258e-02,6.280109e-01,-2.137487e+00,-1.031720e-01,-2.336802e-01,-1.371682e-01,6.509796e-01,7.624559e-01,
-2.346536e-02,-7.606231e-02,-9.569122e-01,1.079574e-01,-2.648408e+00,-1.197972e+00,1.316853e+00,-4.269885e-01,8.987632e-01,7.303580e-02,-1.182213e-03,-6.406229e-01,1.240686e-02,-1.173469e+00,4.387934e-01,1.092933e+00,1.700643e-02,2.111078e-01,-1.262965e+00,-1.182800e-01,-6.617358e-02,-5.704840e-01,-4.029277e-01,6.506564e-01,-7.546759e-02,7.758613e-01,-3.461232e+00,-2.063481e-01,2.391773e-01,2.539063e-01,-5.325574e-02,5.463166e-01,5.490889e-02,1.353356e-01,1.090197e+00,8.155105e-02,8.190283e-01,-5.499829e-01,8.231410e-01,1.572097e+00,-1.790325e-02,-1.401068e+00,1.109425e+00,1.745252e-01,1.243385e+00,1.272970e-01,-1.067142e+00,-1.345149e+00,5.698158e-01,1.414499e-02,
-2.168273e+00,2.415785e-02,1.411699e+00,-9.471231e-02,1.979140e-02,-9.071838e-01,8.332803e-01,-1.356685e+00,-6.535144e-01,1.881540e-01,6.228637e-01,4.001777e-01,-1.143753e-01,-3.857515e-01,2.723741e-01,2.478505e-01,-3.966437e-01,-3.097035e-01,-2.915765e-01,8.560706e-01,3.139213e-01,-7.014155e-02,3.540510e-01,3.044549e-01,1.678169e-01,9.085496e-03,1.049792e+00,-1.929149e-01,3.579029e-01,1.706288e-01,9.496878e-01,-8.208554e-01,-1.191854e-01,7.137656e-01,-2.601666e-01,1.053113e+00,6.857163e-01,-1.615617e-01,-1.488597e+00,2.792402e+00,-4.240551e-01,-1.750742e+00,-4.598600e-01,4.875948e-01,2.780464e-01,-1.129189e+00,1.309274e-01,-7.545038e-01,1.460447e-02,7.176507e-01,
3.302481e-01,5.353888e-01,1.771239e-01,6.745759e-01,9.493365e-01,-2.086368e-01,1.657837e-01,-5.677267e-01,-1.619788e-03,1.379940e-01,2.815959e-01,6.036912e-03,-3.408826e-02,3.121179e-01,-1.157648e-01,4.263211e-01,-2.502704e-01,-1.518683e-01,2.022741e-01,1.451789e-01,-1.062661e-03,-5.802824e-01,3.505625e-01,3.022103e-01,3.168224e-01,3.215734e-02,1.409720e+00,-5.465540e-01,3.556806e-01,-4.553702e-01,6.013690e-01,-7.902386e-01,3.643460e-01,8.974286e-02,-6.042783e-01,-1.242128e+00,-1.687542e-01,-7.782082e-02,-2.854655e-01,5.715075e-03,-9.839775e-01,-2.767445e-02,3.226814e-01,-1.482304e-01,-3.120622e-01,1.645683e-01,2.204490e-01,1.710682e-01,-5.241175e-01,-4.780250e-01,
2.156155e-01,4.273217e-01,-2.380041e-01,-5.072214e-01,1.010877e+00,-2.310733e-01,1.313836e-01,-2.806101e+00,3.744045e-01,-5.218639e-03,3.054598e-01,5.764322e-01,2.053635e-02,1.668817e-01,1.758668e-01,-6.370426e-01,6.669791e-01,-1.344644e+00,1.920610e-01,-1.786401e-02,2.519653e-01,-6.105129e-01,-1.420442e+00,-8.448523e-01,2.014564e-01,7.165458e-01,-2.588833e-02,5.221519e-01,9.063037e-02,5.021439e-01,-6.045492e-02,-3.934291e-01,2.812147e-01,-2.277701e-01,1.986963e-01,-4.822419e-01,-1.954363e-01,-8.453910e-01,-3.041126e-02,-1.900134e-01,2.595101e-01,9.253121e-03,1.406820e-01,-1.355325e+00,2.783182e-01,-5.299608e-01,-9.784959e-02,3.324801e-01,1.950408e-01,-1.024735e-01,
1.127932e-01,-3.567446e-01,-3.692210e-01,5.048879e-01,1.253666e+00,-8.464158e-02,-1.488298e+00,-3.831682e-01,7.049999e-02,1.152820e-01,-2.126239e-01,1.159183e+00,2.718619e-01,1.420751e-02,4.640054e-01,3.565497e-01,-2.276537e-01,2.208874e-01,9.649844e-01,-2.576009e-01,2.042840e-01,-1.380097e+00,4.229452e-02,9.610479e-01,-3.922796e-01,7.663540e-01,-2.609134e-01,6.147751e-01,1.662687e-01,3.158448e-01,-2.515456e-01,7.952865e-02,-8.273701e-02,-1.456018e+00,8.491610e-02,5.353321e-01,-5.967160e-01,1.257595e-01,2.713133e-01,-1.800543e-01,-8.541038e-02,-8.494307e-02,-1.456080e+00,-2.397212e-03,-9.254261e-01,-3.949381e-01,8.703850e-01,-1.189001e-01,-1.316072e+00,-5.393646e-01,
4.658917e-01,-3.298935e-01,-1.280764e+00,-1.220292e-01,1.411863e-01,-3.514895e-01,3.877023e-01,-4.193696e-02,-9.277158e-02,9.203430e-02,-4.254127e-01,3.162110e-01,4.948011e-01,-8.093462e-02,-3.198243e-02,-5.228208e-01,2.558046e-01,4.089234e-01,3.454975e-01,-5.873173e-01,-6.122660e-01,-5.214117e-01,-6.855958e-02,7.415969e-01,-9.133515e-02,-1.638833e-01,-2.513118e+00,1.298239e+00,-7.186917e-01,1.182186e+00,2.461133e-01,1.263120e-01,3.930676e-01,-1.936318e-01,6.324852e-01,-2.293614e-01,-8.809085e-01,-2.084596e-02,1.946154e-01,9.291136e-02,9.353304e-01,-2.791980e-02,1.431906e+00,2.370081e-01,5.298505e-01,1.201691e-01,-3.439829e-01,-8.307897e-01,-1.564920e-01,-2.545130e-01,
3.556631e-01,-7.008522e-01,2.295990e+00,-2.863132e-01,-5.987688e-01,-7.146119e-01,-1.072560e+00,1.708112e-01,-3.377329e-01,2.299640e-02,-7.721539e-01,-4.462640e-02,2.023110e-01,1.816936e-01,-1.944187e-01,2.051889e-03,1.316794e-01,-3.180043e-01,7.750348e-01,-9.004537e-01,1.578025e-01,-4.805557e-01,3.178380e-01,-8.317672e-01,-9.598014e-01,9.057754e-01,1.098210e+00,-9.075463e-01,5.809660e-02,8.773864e-01,-5.195403e-01,1.220978e+00,-2.573166e-01,-4.200267e-01,2.074859e+00,3.831093e-01,-1.067801e+00,1.926818e-01,6.994966e-01,3.344298e-01,-8.127771e-02,3.895549e-01,1.236847e-01,1.899532e-01,4.519143e-01,6.415833e-01,2.494365e-02,2.092043e+00,3.927411e-01,-2.519658e+00,
8.458700e-01,-1.907282e+00,1.036777e+00,1.009874e+00,1.253774e-01,-5.655421e-01,-2.020746e-03,2.416050e-02,-3.085695e-01,1.667190e-01,6.257548e-01,-6.089308e-01,4.741728e-01,1.241201e+00,-5.205641e-01,7.699733e-01,3.085077e-01,-7.397099e-02,1.033111e-01,5.674791e-01,-7.377344e-02,-1.363123e+00,-1.642397e-01,1.606243e-01,-2.154935e-01,8.717724e-01,3.942022e-01,1.280558e-01,2.186916e-01,2.973341e-01,3.056198e-01,-3.347078e-01,1.741962e-01,5.141726e-01,-8.083913e-02,1.138304e-01,3.000627e-01,-2.290514e-01,-9.176733e-01,-2.381154e-01,5.803731e-02,-4.382454e-01,5.381424e-01,-3.696155e-01,9.120969e-01,-1.700190e-01,-7.323217e-01,-6.191814e-01,9.168421e-02,3.178244e-01,
7.249170e-03,2.666430e-02,-2.161918e-02,-3.840324e-02,4.627490e-02,3.007490e-02,-7.011663e-03,2.559830e-02,-5.206598e-02,-4.534585e-02,-1.975056e-02,-5.944861e-02,6.272160e-03,-4.269597e-03,4.306410e-03,3.292560e-03,-6.836903e-02,3.197330e-02,-1.955259e-02,2.604190e-02,-8.144693e-03,4.555690e-02,-1.615565e-02,-3.654553e-02,-4.881458e-02,-5.397004e-02,-1.723478e-02,1.222360e-02,-4.204017e-02,-3.513886e-02,1.517990e-02,-5.951906e-02,1.776640e-02,-5.209204e-04,3.415750e-02,-2.767950e-02,-4.661255e-02,-6.307741e-02,-2.434209e-02,-1.430886e-02,-1.163086e-02,7.910460e-03,-2.082495e-02,-2.162186e-02,-3.275472e-02,-4.716494e-02,-4.085917e-03,3.595240e-02,2.269710e-02,-2.098306e-02,
-6.276408e-01,-1.392066e+00,1.575125e+00,-4.929127e-01,5.289148e-01,-4.967947e-01,7.473010e-01,-4.801149e-01,-2.831820e-01,1.103320e-01,4.880943e-01,8.241029e-02,1.693331e-01,6.024470e-01,-1.620787e+00,6.239301e-01,1.928332e-01,-1.845688e-01,4.347888e-01,5.735349e-02,-6.465464e-02,3.450785e-02,-4.911277e-01,9.181913e-02,-1.088319e-01,2.906063e-01,-6.986943e-01,-6.851025e-01,-9.410790e-02,1.045548e+00,-3.189807e-01,-1.086032e+00,2.697716e-01,1.257804e+00,-1.387770e-02,1.185221e-01,5.617671e-01,1.643283e-01,-1.957237e-01,9.043863e-01,1.576622e-01,-3.125813e-01,7.351174e-02,-1.334200e-01,-1.708791e+00,-7.930320e-02,4.182789e-01,-7.892148e-01,-5.001021e-01,7.048185e-01,
1.805961e-01,7.412659e-02,7.528332e-01,-2.172311e-01,1.590591e+00,1.401346e-01,-1.687459e+00,-1.311056e-01,5.941297e-01,5.651910e-02,3.570917e-01,6.249473e-01,-1.678292e-01,6.647002e-01,1.348319e-01,-3.708577e-01,-7.424137e-02,-1.098773e-01,-1.009578e+00,6.218408e-01,-3.030950e-01,-1.635032e+00,5.692950e-01,-2.312000e-01,-2.003113e+00,1.189980e-01,-8.711008e-01,5.401711e-01,3.547269e-01,3.085276e-01,-4.165021e-01,2.433911e-01,-9.060158e-02,4.396360e-01,-5.016605e-01,1.252223e-01,-2.445251e-01,2.136871e-01,8.729463e-01,-7.050041e-01,-3.223869e-01,7.686003e-01,-8.833826e-01,7.781292e-01,-7.301350e-01,1.738650e-01,6.785228e-01,-1.963942e+00,3.131605e-01,6.780356e-01,
5.611470e-01,8.556108e-02,1.712554e+00,3.095367e-01,9.804663e-01,-1.244755e-01,6.800127e-01,-8.283672e-01,-1.181060e-01,-5.004255e-02,-3.236579e-01,-3.239031e-01,-7.937778e-01,1.386421e-01,-2.244597e-02,1.064206e-02,1.263367e-01,2.909535e-01,-3.208914e-01,3.547038e-01,-4.355664e-01,-3.293930e-01,6.597154e-01,4.909122e-01,-3.614929e-02,1.473808e-01,-1.776873e+00,-1.023388e+00,8.085532e-02,6.448851e-01,-6.464702e-01,-3.781923e-01,-3.561256e-01,5.686926e-01,-7.785749e-01,-1.496827e-01,-1.222919e+00,-1.978156e-01,-6.090071e-01,4.088841e-01,-3.018930e-02,-1.337022e+00,9.860923e-01,2.332258e-05,9.524469e-02,-7.351398e-01,-4.060394e-01,-1.684483e+00,-4.973550e-01,3.992258e-01,
2.087060e-02,-5.173824e-02,-4.018009e-02,2.835060e-02,2.629780e-02,-2.431109e-02,-5.082401e-03,-5.134869e-02,-4.951292e-03,9.359010e-03,-1.234857e-02,6.742700e-03,1.353910e-02,-1.356870e-02,2.363240e-02,-5.268059e-02,-3.963048e-02,3.234090e-02,2.057580e-02,-1.871201e-03,8.677450e-03,-4.058705e-02,-3.653976e-02,-1.275397e-02,1.095640e-02,6.780330e-03,-1.217408e-02,-4.133153e-02,-1.916984e-03,-2.767208e-02,-2.582993e-02,-5.541204e-02,3.122830e-02,-2.490581e-02,5.287990e-03,-1.864135e-02,-2.513622e-02,3.264620e-02,3.134630e-02,3.533210e-02,2.864610e-02,-5.667853e-02,3.002530e-02,3.833420e-02,-1.588353e-02,-3.919387e-02,-2.993345e-02,2.044820e-02,-5.651826e-02,1.854150e-02,
-2.371008e-01,4.363650e+00,-1.728803e-01,-3.632006e-02,4.298497e-01,9.428825e-02,6.112514e-02,-2.166275e-01,6.031489e-02,7.187990e-02,3.792831e-02,-1.842608e-01,1.948137e-01,-2.720415e-01,-7.227953e-02,2.865528e+00,1.052913e+00,1.461941e-01,2.078931e-01,-1.617368e-01,-7.859343e-02,9.028935e-03,2.021849e-01,-7.581604e-02,-7.447054e-02,-9.200269e-02,-1.692846e-01,1.409050e-01,5.901579e-01,-2.200440e+00,3.144260e-01,7.273359e-02,-2.414856e-01,-1.800677e-01,8.913645e-02,-2.454387e-01,-1.659999e-01,9.842754e-01,1.605120e-01,-1.201289e-01,2.580968e+00,3.294537e-01,-4.813231e-03,8.302840e-02,1.219510e-01,1.476262e-01,-2.417925e-01,-8.541986e-02,8.552735e-02,2.168667e-01,
2.576751e-03,3.487390e-01,2.966010e-01,-2.810067e-02,2.067192e-01,6.669006e-01,1.832792e-01,3.035454e-01,-6.497291e-01,1.885190e-02,-3.816655e+00,8.428366e-01,1.477185e-01,4.690208e-02,-6.102235e-01,2.523025e-01,-2.939363e-01,-3.333008e-01,-1.437973e-01,4.213399e-02,2.624842e-01,3.887333e-01,1.892508e-01,3.981764e-01,5.035021e-02,-1.824037e+00,-8.696671e-01,-2.036815e+00,-5.579324e-02,7.572754e-01,-4.686232e-01,6.332219e-02,-5.511551e-02,8.784767e-01,-3.627155e-01,2.029759e-01,6.513194e-01,-2.216107e-01,-3.611221e-01,-6.892461e-01,3.152677e-02,8.988058e-02,2.545624e-01,-1.837077e-01,-4.014229e-01,-1.095745e-01,4.860570e-01,-1.099865e+00,-4.115704e-02,6.003293e-01,
3.479958e-01,2.191254e-01,2.145789e+00,2.546335e-01,-3.125226e-01,7.466851e-01,2.335937e-01,-1.063403e+00,-7.385079e-01,4.146880e-02,6.250596e-01,-9.577135e-01,1.416623e-01,5.630907e-01,7.438619e-02,-1.817826e-01,-1.151787e-01,3.332945e-01,-3.172637e-01,6.835275e-01,-1.578218e+00,-1.239265e-01,-1.180637e-01,-3.601508e-01,1.799719e-01,2.032993e-01,-4.053997e-01,-1.939078e-01,-4.127818e-01,4.236155e-01,-1.538562e-01,1.673616e-02,2.284961e-02,5.248369e-01,-7.263364e-01,2.552196e-02,-2.002176e+00,1.841200e-01,-1.128592e+00,-1.600898e-01,2.854481e-02,-6.227956e-01,6.907448e-01,6.774946e-01,2.905949e-01,-7.599402e-01,4.101583e-01,-1.718143e+00,-3.376958e-01,1.231629e-01,
7.572344e-02,1.848396e-01,4.158128e-01,2.583526e+00,-4.558430e-01,5.944306e-01,1.062286e+00,6.478707e-02,-4.213318e-01,1.276470e-01,-6.369365e-01,5.670795e-02,-4.921381e-02,-1.938501e-01,-5.548682e-02,-3.210860e-02,6.401028e-02,-1.025660e-01,-4.883528e-01,-3.744153e-01,8.065104e-01,-5.927547e+00,-8.574204e-04,8.284053e-01,-3.153088e-03,-5.020003e-02,-2.988967e+00,1.193527e-01,1.200177e-01,1.789524e-01,-5.085985e-02,9.770034e-02,-1.018764e-01,2.239072e-02,-2.300546e-01,7.651302e-02,1.022370e-01,-1.414221e-02,-7.030625e-01,1.142941e+00,-2.119235e-01,5.261843e-01,6.359291e-01,-2.092620e-01,-1.112029e+00,-3.892906e-01,-1.312498e+00,1.501725e-01,-6.881553e-01,9.379997e-01,
-1.116159e+00,-3.273041e-01,1.023748e-01,1.532272e+00,-4.170439e-01,6.794453e-01,1.351317e-01,-3.035245e-01,-3.294290e-02,2.225220e-01,8.821015e-01,-6.807043e-01,-1.771981e-02,-2.535407e-01,-4.745055e-01,1.568617e-01,-5.091074e-02,-6.581978e-02,1.573718e+00,1.006173e+00,4.075145e-01,-1.224155e+00,2.361182e-01,-9.652851e-01,-2.574835e-01,5.307510e-02,2.184518e+00,-7.145830e-02,-1.443195e-01,2.704578e-01,8.194065e-02,2.394406e-01,-1.169359e-01,-1.620015e-01,2.603451e-01,7.331386e-02,9.572960e-01,1.566086e-01,-5.134735e-03,1.213519e+00,-2.457446e-02,-1.091594e+00,8.220566e-01,4.448226e-02,2.544456e-01,-3.251916e-02,4.140028e-01,1.444437e-01,-1.127562e+00,5.758855e-01,
1.534210e-01,8.858030e-01,7.811837e-01,-2.756012e+00,-1.498918e+00,-4.539334e-01,-4.488987e-02,-8.150823e-02,-6.371487e-01,1.557520e-01,2.766566e-01,-7.080982e-01,-4.140456e-01,5.663297e-01,5.518262e-01,8.750920e-03,1.630294e-01,2.477088e-01,-8.421723e-01,7.873636e-01,-9.989300e-01,1.040472e+00,2.984713e-01,2.228051e-01,7.749292e-02,4.549756e-01,1.625021e-01,-5.614334e-01,3.690222e-01,-6.356975e-01,3.410190e-01,4.530501e-01,-6.980814e-01,5.616336e-01,7.358104e-02,3.289066e-01,5.517089e-01,-4.303206e-01,-2.323114e-01,4.497919e-01,-3.938009e-01,1.478008e-01,3.352041e-01,-5.685291e-01,-8.267511e-01,-4.476719e-01,2.665327e-01,1.589791e-01,3.551442e-01,1.083344e+00,
-3.315889e-01,-2.195558e-01,-4.037507e+00,4.155566e-01,-1.799431e-01,-1.278014e-01,-5.675526e-01,-1.794662e-01,-8.272259e-01,2.129750e-01,-7.771947e-01,1.154021e-01,9.367343e-01,6.872147e-01,1.947025e-01,2.746926e-01,2.144209e-01,-2.099912e-01,-9.774216e-02,9.229078e-01,8.779957e-02,-1.402191e+00,-7.190883e-01,7.138056e-02,5.362154e-01,2.531610e-01,-1.365255e+00,-3.423339e+00,-5.431530e-01,-1.168370e-01,-1.838828e-01,5.312668e-01,2.440068e-01,1.036376e+00,1.690426e-01,5.738078e-01,-5.789599e-02,2.184165e-01,-9.996685e-02,2.311433e-01,5.802613e-01,-3.882760e-01,2.380371e-01,6.738112e-01,-2.383090e+00,-1.529519e-01,-3.472356e-01,3.861412e-01,1.357955e-01,6.741401e-02,
4.226945e-01,-4.275272e-01,1.247490e-02,-5.018922e+00,-2.399035e-02,1.364534e+00,6.360322e-01,5.003716e-01,1.425087e+00,-5.110273e-02,-6.087887e-01,-1.683010e-03,2.638561e-01,-3.267057e-01,1.682720e+00,-5.350016e-02,-8.755927e-02,1.204945e-01,-5.022960e-01,-6.472046e-01,1.061312e+00,9.484507e-02,-3.395642e-01,1.545803e+00,-2.989163e-01,-5.843190e-01,-3.953274e-01,1.058724e+00,-1.172820e-01,2.950440e-03,-2.298342e-01,-1.309789e+00,3.281752e-01,-2.910718e-01,4.495800e-02,-3.509663e-02,-2.936520e-01,1.501874e-01,-3.569135e-01,-1.253778e+00,1.037601e-01,5.968304e-01,-4.698963e-02,1.528221e+00,5.150196e-02,-6.295381e-01,-1.851312e+00,-1.428940e+00,-6.978899e-03,-3.736593e-02,
-8.203548e-01,1.760298e+00,2.898880e-01,6.399459e-01,-1.041701e+00,-2.280863e-01,9.272968e-01,-1.484302e+00,-7.907742e-01,-2.478015e-03,-7.410654e+00,-4.418576e-01,-2.813033e-01,-5.630258e-01,-9.819680e-01,-6.146196e-01,2.438871e-01,-8.423999e-01,9.574172e-02,-2.638088e-01,-6.821597e-01,-5.196958e-01,4.135295e-01,-6.632046e-02,9.666148e-01,-4.033356e+00,-2.132883e+00,-2.013176e+00,5.271310e-03,6.367914e-01,-1.545154e-01,-7.950559e-01,-3.461552e-01,1.694503e-01,-1.113986e+00,2.913279e-01,1.159936e+00,-7.227263e-01,-9.222682e-01,6.806407e-01,1.796712e-01,-1.264459e+00,1.179792e-01,3.145060e-01,-1.328731e+00,-9.564199e-01,4.512149e-01,-3.356008e+00,5.484740e-01,2.518355e+00,
-1.432452e+00,3.540304e-02,-3.345893e+00,2.413846e-01,7.465398e-01,3.620768e-02,6.386082e-01,3.551742e-01,1.348752e-02,1.366920e-01,-4.885352e-01,2.920505e-02,1.670681e-02,-2.805226e-01,-4.055944e-01,8.677224e-02,2.384120e-01,1.853954e-01,-5.979273e-01,-4.222299e-01,-1.890009e-01,-8.163275e-01,5.779278e-01,5.512179e-01,-1.704815e-01,-1.407392e-02,-5.409838e+00,-2.884278e+00,-1.103614e-01,-1.328937e-01,2.919680e-01,6.340056e-02,2.006388e-01,1.041093e+00,-3.256036e-01,1.984242e-01,7.279899e-01,1.255632e-01,-3.434576e-02,-3.157475e-01,1.316525e-01,4.160456e-01,5.465703e-01,-9.576620e-01,-6.046677e-01,-2.786778e-01,-9.142795e-01,-8.337520e-01,-9.164064e-02,2.295139e-01,
2.332991e-01,-2.036794e-01,-3.092173e-01,5.673411e-01,-4.105611e-02,-1.280712e+00,1.396536e+00,8.474220e-02,9.689478e-02,3.043580e-02,-5.366980e+00,-1.335920e-01,-5.543944e-02,1.053752e-01,-2.236624e+00,1.646424e-01,8.890748e-02,-2.245348e-01,1.611780e-02,-2.368361e-01,-1.417465e-01,-3.696721e-01,1.225219e-01,1.142466e-01,1.327179e-01,9.577867e-01,2.271690e-02,3.476446e-02,-2.860423e-01,-4.972819e-03,2.534253e-01,-9.491491e-02,2.032926e-02,-1.606213e-02,-1.519415e-02,-2.527033e-01,1.511319e-01,3.690016e-01,6.881162e-02,3.821455e-01,-9.775246e-02,1.494932e-01,-1.908198e-01,2.396789e-02,-1.381580e-01,-1.215307e-01,-4.182490e-01,-3.358912e-01,2.426731e-01,-2.044467e-02,
-1.697656e-01,-5.034197e-01,-7.250674e-01,-8.466786e-01,1.643691e+00,-6.090699e-01,8.516884e-01,-1.250059e-01,-9.992906e-02,2.346440e-01,-5.494401e-01,-3.127739e-02,-5.473059e-01,2.422096e-03,6.348276e-01,2.466422e-01,2.493733e-01,-3.146568e-01,-7.853327e-01,3.348746e-03,-1.147677e-01,-7.508576e-01,6.480698e-01,-1.080120e-01,4.398745e-02,-4.079737e-01,2.139029e+00,2.737764e-02,-4.440917e-02,-8.053621e-01,-3.718176e-01,-1.564838e-01,-2.630610e-01,4.834706e-01,1.548323e+00,-3.866517e-01,-5.870681e-02,1.710659e-01,1.509310e-01,1.926450e-01,1.032503e-01,4.363296e-01,-1.597829e-01,-2.120780e-02,1.444173e-01,-6.566013e-02,1.594522e+00,1.568865e-01,-8.126947e-02,2.125201e-01,
-4.426651e-01,-3.441755e-01,8.753406e-01,1.752219e-01,-3.531705e-01,-1.115696e+00,1.364140e+00,-5.213386e-02,3.860174e-01,2.585140e-01,7.485355e-01,-1.484570e-01,-6.207583e-02,6.058504e-01,-6.263388e-01,-1.309903e-01,4.249852e-01,7.169167e-01,6.660796e-01,4.236927e-01,-3.757739e-01,4.096574e-01,1.816703e-01,4.314478e-01,9.119038e-02,-6.261205e-01,-2.140536e+00,-6.880513e-01,-3.242872e-01,-2.252239e+00,8.394225e-01,-1.554579e+00,-3.423267e-01,1.179359e+00,-1.387997e+00,-3.211653e-01,-7.399510e-01,-9.023902e-01,3.157884e-01,-5.096254e-01,5.923085e-01,2.662834e-01,-2.737153e-01,-5.189182e-01,3.141258e-03,-4.184086e-01,3.006622e-01,-5.478621e-01,-7.592635e-01,2.661464e+00,
4.357822e-01,-1.657610e-01,-4.288889e-02,-4.669206e-01,9.654797e-01,3.687203e-01,4.629984e-01,-1.212722e+00,-6.905542e-01,9.541270e-02,-5.389877e-01,-8.366999e-01,2.634616e-01,5.196824e-02,-6.223723e-01,-6.718875e-02,-1.383826e-01,2.254454e-01,2.796112e-01,-5.812805e-01,1.875767e-01,9.754439e-02,2.232401e-01,7.343395e-02,-2.180953e-01,9.952588e-02,-4.463999e-01,8.932827e-01,4.554959e-01,7.382041e-01,4.469779e-01,3.283955e-01,-3.942438e-02,5.665196e-01,-5.745978e-01,-2.052224e-01,-8.524290e-01,3.799217e-01,7.383931e-04,-3.702891e-01,-4.781528e-01,4.095010e-01,-9.645672e-01,-3.085561e-01,3.623881e-02,-1.208138e-01,3.502496e-02,-4.138045e-02,-3.967168e-01,-2.700835e-01,
3.833640e-02,-1.253098e-02,1.701600e-02,-9.784001e-03,1.381070e-02,3.632300e-02,-4.363760e-02,-4.490470e-02,1.881440e-02,3.672120e-02,-3.729207e-02,-1.404457e-02,-2.128927e-02,-4.521257e-03,-3.263771e-03,-5.321587e-02,-3.608852e-02,-3.501773e-02,2.464100e-02,-9.199279e-03,-2.921513e-02,-4.026764e-02,-4.908547e-02,-2.634070e-02,-1.313415e-02,-8.900271e-03,-4.981729e-03,-4.902944e-02,-2.635028e-02,7.962410e-03,-3.007744e-02,2.172900e-02,-4.119598e-02,-4.606448e-02,9.676020e-03,-1.832566e-02,-1.426447e-02,-1.257805e-02,-4.913810e-02,7.501920e-04,4.081910e-02,-1.195294e-02,-1.619603e-02,1.275380e-02,1.069370e-02,-1.816292e-02,-3.849955e-02,4.567360e-02,-3.955725e-02,2.940610e-02,
-1.073260e+00,-3.199334e-01,3.662303e-02,4.454276e-01,8.304121e-04,2.497808e-01,2.457058e-01,4.705839e-01,3.967863e-01,1.573390e-01,1.609453e-01,-4.326711e-01,2.275177e-01,1.108545e+00,-9.625432e-01,8.288712e-01,-3.683342e-01,-3.751013e-01,-1.045017e-01,-5.339458e-01,1.408304e+00,-2.663786e-02,1.553281e-01,3.844324e-01,-9.373165e-01,5.089008e-01,3.438595e+00,-2.239467e-01,4.476555e-01,8.996925e-01,-5.113044e-01,-5.129318e-01,4.439434e-02,-6.267035e-01,7.666523e-01,-1.520815e+00,1.007394e+00,-5.355207e-02,-6.208685e-01,1.532726e+00,-1.732213e-01,7.144884e-01,-6.660289e-01,-6.161284e-01,2.421750e-03,1.486632e-01,-5.171692e-03,1.270758e+00,-1.093953e+00,-4.266023e-01,
2.032550e-01,4.372404e-01,-4.788408e-02,-1.987024e-01,3.517504e+00,-5.096244e-01,-5.781287e-03,2.574845e-01,5.612804e-01,1.505670e-01,1.770852e-01,-5.624912e-02,3.860481e-01,6.337790e-01,6.502184e-01,1.374768e+00,7.016648e-02,1.585120e+00,-2.428441e-01,3.117377e-01,-3.467505e-01,1.117048e+00,4.004990e-02,1.570843e-01,3.578030e-02,-1.989847e-01,-7.860373e-01,3.501599e-01,4.956803e-01,2.998980e+00,5.525742e-01,-4.405475e-01,9.666842e-01,9.904802e-01,-9.113697e-01,5.887805e-02,1.265500e-01,-6.920972e-01,-4.267362e-01,-2.164473e-01,8.879763e-01,2.126276e-01,-8.318620e-01,-5.589521e-01,-3.674680e-02,-3.876446e-01,5.870066e-01,4.697892e-01,-4.756076e-01,-6.927770e-01,
2.760894e-01,6.505614e-02,-9.506375e-01,-2.620804e-01,-1.551448e+00,-4.947821e-01,-3.292982e-04,6.078895e-01,7.099512e-01,7.310320e-02,-7.241827e-01,-4.325104e-01,3.506128e-01,3.379337e-01,-1.351308e+00,4.559659e-01,-6.462663e-03,-1.599178e+00,1.071468e+00,-3.133445e-01,5.147548e-01,-7.004731e-01,-1.006297e-01,-7.671182e-01,-4.779684e-02,6.114317e-01,-1.227523e+00,4.300075e-01,-4.817289e-03,-1.632859e+00,-5.664907e-01,5.325131e-01,4.103590e-01,-2.217466e+00,8.503883e-01,6.338517e-02,-7.285591e-02,5.652475e-01,-1.297306e-01,-4.317111e-01,-9.273852e-02,4.751596e-01,9.585589e-01,2.421353e-01,2.946047e-01,-1.445914e-01,2.133387e-01,-2.071093e+00,-3.830601e-02,-6.949729e-01,
2.976246e-01,2.895916e-01,-1.026463e+00,3.241468e-02,-1.671216e+00,4.870551e-01,1.151365e+00,4.105906e-01,1.976271e+00,5.303870e-02,-7.573981e-01,-5.750469e-01,-4.355654e-01,7.143801e-01,-4.723683e-01,3.639605e-01,3.775667e-01,1.028617e-01,-6.867957e-01,3.334800e-01,3.183545e+00,-5.272570e+00,-4.241581e-02,1.422505e-01,-1.093252e+00,2.651797e-01,9.381937e-01,-2.926528e-01,-2.502395e-01,-8.894266e-01,-1.499948e-01,1.331038e-01,1.306415e-01,-6.619264e-01,1.033137e+00,-5.133118e-01,-5.771872e-01,-7.782629e-01,1.594739e-01,-1.260607e+00,5.199656e-03,-6.797042e-01,7.377549e-02,8.197538e-02,4.692422e-01,9.673277e-02,-4.609662e-01,-2.993963e+00,3.281127e-01,-2.979017e-01,
-3.920623e-01,-8.385127e-01,-2.083999e-01,-2.499449e-01,-9.896003e-02,-5.318251e-01,-3.265605e-01,7.408977e-01,2.469125e-01,-1.789089e-01,-6.456205e-01,-1.333819e-01,-2.113890e-02,6.628699e-01,-2.360358e-01,6.287034e-01,-2.008428e-01,-4.234464e-01,-1.122865e-01,-3.491751e-03,3.600058e-01,-4.441030e-01,2.257418e-01,8.609274e-01,1.159742e-01,3.545573e-01,-4.711920e-02,7.164711e-01,-1.250595e-01,6.528779e-01,6.068954e-01,-3.480967e-01,1.151506e-02,-7.527271e-01,1.325903e+00,4.290058e-01,-4.773123e-01,1.905842e-01,-4.405845e-01,-2.007995e-01,1.105712e-01,-1.910877e-01,-7.236245e-01,2.415465e-02,-1.971811e-01,-7.599134e-02,2.366160e-01,2.551951e+00,1.698833e-01,-4.573014e-01,
2.140131e-01,7.615752e-02,-3.694363e-01,2.011806e-02,-1.606306e+00,4.371974e-01,1.674919e-01,8.814924e-01,1.768485e-01,1.450070e-01,2.009811e-01,3.420288e-01,5.369658e-02,-3.952161e-01,-8.353897e-01,5.164736e-01,-4.485084e-01,2.620116e-01,5.118865e-02,4.399794e-01,9.538243e-01,4.482096e-01,-3.498673e-01,-2.378198e-01,6.546869e-01,1.126354e-01,2.154962e+00,-4.887896e-01,1.128459e-01,2.355936e-01,1.031411e-01,3.840948e-01,-1.094705e-01,1.715503e+00,-5.490611e-01,7.368527e-02,-1.583646e-03,1.879133e-01,2.376568e-01,4.944206e-01,-2.235965e-01,1.127994e+00,-1.104716e+00,-9.851270e-01,-8.106728e-01,6.270983e-01,6.454341e-02,-2.630435e+00,-1.231046e+00,-1.667426e-01,
2.296020e-02,-4.426806e-02,6.033860e-03,-4.636009e-02,9.570750e-03,1.386280e-02,3.785180e-02,4.536840e-03,2.833550e-02,2.242080e-02,-1.964313e-02,-5.427307e-02,2.091190e-02,-5.336523e-02,-4.679815e-02,2.498220e-03,-2.382153e-02,-3.864786e-02,3.175190e-03,-2.960755e-02,-1.101430e-02,2.560610e-02,3.159060e-02,3.371140e-03,-8.741991e-03,3.505930e-02,-1.211682e-02,-1.697481e-02,-2.445344e-02,-4.456295e-02,3.059570e-02,-1.900834e-03,1.849500e-02,-2.930103e-02,-3.170824e-02,-1.840332e-03,-2.968573e-02,-5.396396e-02,-4.224452e-02,-9.389542e-03,-4.603162e-02,8.229160e-03,-2.140391e-02,-5.917072e-04,-5.311370e-03,6.644990e-03,3.936410e-03,-3.443269e-02,7.935140e-03,-2.005873e-03,
-1.795939e-01,5.625049e-01,1.745476e+00,-3.736953e-01,2.912009e+00,-8.484759e-01,-2.028997e-01,1.207340e+00,6.001613e-01,2.475230e-01,1.471199e-02,5.811755e-01,1.178579e-01,-1.196139e+00,2.069272e-01,-1.264747e+00,4.511855e-01,-1.412635e+00,5.499463e-01,7.381865e-01,1.404182e+00,6.728207e-01,1.444873e-02,-4.155504e-01,4.979602e-01,-2.753221e-01,3.673041e-01,-5.071946e-01,-1.486218e-01,1.119710e+00,8.725693e-01,7.494550e-01,9.513677e-01,-8.812288e-01,2.516623e+00,1.275744e-01,-3.287451e-01,4.965183e-01,-5.218453e-01,1.193973e+00,2.190638e-02,-2.417204e-01,1.503102e-01,-3.453023e-01,1.490056e+00,7.548104e-02,-8.341784e-02,-3.325746e-01,4.639142e-01,-9.208221e-01,
2.197543e-01,-3.284402e-01,2.846738e+00,5.350695e-01,-9.099215e-01,-1.643499e-01,-3.065095e-01,-4.914068e-01,1.559072e-01,-3.771139e-02,-2.180839e-01,1.555413e-01,-3.002254e-01,5.499125e-01,-4.125325e-01,4.375481e-02,2.456097e-01,8.623273e-02,-1.219798e+00,-2.393782e-02,-6.190619e-01,-4.906673e-01,3.977252e-01,6.419598e-02,-6.488361e-01,1.690497e-01,-1.452382e+00,-1.248133e+00,-1.267147e-01,1.115099e+00,5.258387e-01,1.948730e-01,1.533186e-01,4.678868e-01,3.873541e-01,4.899806e-01,-6.869513e-01,-1.045038e-01,2.984307e-01,2.002924e-01,1.651141e-01,-5.700154e-01,-3.460439e-01,-1.951335e-01,-7.487585e-02,-8.592919e-01,4.609379e-01,-1.839765e+00,3.635693e-01,-3.745492e-01,
-6.535979e-02,4.682359e-01,-1.483942e-01,1.009326e+00,3.364258e+00,-7.468674e-01,1.255168e+00,2.045106e-01,-1.169822e-01,1.759010e-01,-2.638468e-01,1.268569e-01,3.774064e-01,4.022970e-01,-3.076445e-01,1.657991e+00,4.577546e-01,-7.112510e-01,-1.508044e-01,1.364091e+00,5.284209e-01,-8.619462e-01,-2.826495e-02,-5.561505e-01,-2.235100e-02,-3.047234e-01,-4.254982e-02,3.007497e-01,1.982276e-01,6.821742e+00,-2.042057e-01,-3.237269e-01,-3.778112e-02,-1.920651e-01,-1.277694e-01,-1.971523e-01,-1.947853e-01,1.528180e+00,-3.490711e-01,-2.380897e-03,1.225927e+00,6.180195e-01,-4.440289e-01,-1.238297e-01,7.406474e-02,1.254468e-01,-8.832641e-01,4.383419e-01,5.105058e-02,2.853759e-01,
7.633861e-01,-4.579864e-03,4.381587e-01,-1.174550e-01,-1.935813e+00,8.387445e-01,8.186131e-01,3.249840e-01,8.709252e-01,1.959560e-03,-6.770282e-01,9.521278e-02,2.562823e-01,6.879891e-01,-1.187106e-01,-6.996048e-01,-1.953622e-02,1.858093e-02,-1.169565e+00,8.339837e-01,-4.385204e-01,-2.031119e-01,-1.981020e-01,2.663349e-01,1.826090e-02,-1.390953e+00,-2.731158e+00,-1.175148e-01,4.348426e-01,3.506505e+00,2.702814e-01,6.780960e-01,3.339585e-01,6.810215e-01,1.247072e+00,-6.657363e-01,-1.232004e+00,5.833517e-02,-1.132846e-01,-5.304995e-01,-1.419855e-01,5.782277e-01,-1.616152e+00,4.134800e-01,-2.172095e-01,-5.916350e-01,-6.541148e-01,1.630347e-01,-1.052042e+00,-1.060426e+00,
-2.725102e-02,2.817268e-01,-2.172064e+00,-1.515604e-01,6.216661e-01,-3.140964e-01,-4.296707e-01,1.051247e+00,7.451627e-01,-1.126305e-01,-5.724193e-01,1.186756e-02,-7.118092e-02,8.794273e-02,1.995513e-01,6.580140e-02,-2.233885e-01,-3.604928e-01,7.719829e-01,-7.423652e-01,1.817445e-01,-1.101842e-01,-1.269300e-01,-1.739402e-01,2.816916e-01,3.830910e-01,1.428975e+00,5.157374e-01,-1.467935e-01,-2.707911e-01,1.125006e-01,8.814307e-01,-3.461902e-01,-1.545000e+00,2.383179e+00,6.131517e-01,1.321129e-01,4.662101e-01,-1.355521e-02,-4.501337e-01,-2.498893e-01,-8.728210e-02,3.700172e-01,-5.713204e-02,3.314910e-01,-8.573246e-02,8.625673e-01,3.280123e+00,-2.853749e-01,-9.385349e-01,
-4.553373e-01,5.344546e-01,1.362705e+00,8.107367e-01,1.952506e+00,1.551020e-01,4.524556e-01,-2.135375e-01,3.236589e-01,2.484960e-01,-4.231085e-01,-2.386768e-01,3.200529e-01,6.270390e-01,5.112434e-01,1.090811e-01,2.746217e-01,-9.294884e-01,1.604429e-02,2.979947e-01,-8.059318e-02,-1.716588e+00,2.398386e-01,-9.545535e-01,1.621918e-02,-3.661856e-02,-1.504912e+00,-1.307853e-02,1.253881e-01,2.798387e-01,-4.814261e-02,1.664491e-01,-4.862177e-01,-4.003682e-03,2.250838e-01,-3.993124e-01,-1.048931e-01,-4.899123e-01,-1.308718e-01,4.449225e-01,3.899745e-01,6.287521e-01,2.644195e-01,-1.136049e-01,1.527837e-01,4.955662e-02,4.267670e-01,-6.825243e-01,-1.328195e-01,1.551829e-01,
4.561561e-01,-2.189234e-01,-1.261029e+00,2.129494e+00,1.179533e+00,1.421836e+00,1.246780e+00,-1.130023e+00,-1.048869e+00,1.744550e-02,-9.240305e-01,1.235945e+00,2.235637e-01,-9.302630e-01,-1.500010e+00,3.753240e-01,2.478289e-01,-2.729994e-01,-2.413372e+00,-1.313806e+00,-1.971585e-01,-4.915201e+00,1.779441e-01,-6.602342e-01,-4.562333e-02,-7.881261e-01,2.164305e+00,-6.584677e-01,1.691734e-01,1.223643e+00,1.252377e-01,2.614674e+00,-6.327413e-01,-2.927239e-01,7.947876e-01,-2.408078e-01,7.819403e-01,9.299981e-02,-6.250040e-01,-3.402543e-01,-8.240741e-01,3.560162e-01,-8.592898e-02,6.267825e-01,9.006140e-01,-7.740089e-01,-7.218559e-01,2.744239e-01,-3.196780e-01,-7.700908e-01,
-2.618960e-01,-4.886639e-01,-7.154823e-01,-2.578605e-01,1.458676e+00,1.614527e-01,-8.652371e-01,-5.812702e-01,-7.140083e-01,1.269580e-01,1.015100e-01,-5.078270e-01,4.800501e-03,6.885873e-02,3.519520e-01,-4.792343e-01,2.399132e-01,8.497856e-01,-3.028705e-02,4.397987e-01,6.452295e-01,8.386197e-01,1.112212e-02,-1.147997e-01,3.582404e-01,-6.497260e-01,-1.378006e+00,-1.151787e-01,9.757130e-02,4.185724e-01,1.065661e+00,8.096707e-02,-2.753334e-01,-1.138613e+00,1.855401e+00,-1.898311e-01,3.284672e-01,-1.788142e-01,1.071544e+00,-5.952720e-01,-2.555677e-01,-7.684521e-02,5.450780e-02,1.804247e-01,3.109520e-01,4.803530e-01,5.205270e-01,-6.677016e-01,2.516493e-01,1.128684e-03,
-4.075442e-01,9.837231e-01,-5.359389e-01,-5.255440e-01,-1.912329e+00,-1.377563e-01,5.765777e-01,-2.312515e-01,-3.586347e-01,4.700780e-02,1.679788e-01,-1.416085e-01,7.470405e-01,-4.502532e-01,-1.012547e-01,1.865608e+00,1.889947e+00,-4.250264e-01,5.149177e-01,-1.942879e-01,2.083463e-01,4.897536e-01,1.384887e+00,9.262120e-01,1.953260e-01,-1.524493e-01,-1.397988e-01,-8.752239e-02,1.328504e+00,6.400018e-01,6.698277e-01,3.003722e-01,5.878354e-01,-1.197972e+00,1.298088e+00,3.525029e-02,4.155092e-02,1.221230e+00,8.444393e-01,-1.438004e-01,1.659155e+00,-1.598735e-02,9.010018e-01,3.160606e-01,4.100123e-01,3.473053e-01,-1.619953e-01,-8.402400e-01,6.722032e-02,-3.282765e-01,
9.633462e-02,8.075684e-01,-1.053268e+00,-9.941014e-02,5.213675e-01,7.450278e-02,2.178681e-01,3.319400e-01,5.533307e-02,2.381100e-01,-6.275553e-01,1.420522e-01,-3.552099e-01,-7.350183e-01,1.114782e-01,-2.108472e-01,2.347144e-01,-1.156958e+00,1.514033e+00,-1.032894e-01,-5.154387e-01,6.884924e-03,3.158475e-01,1.196094e-01,2.583126e-01,-2.885174e+00,2.477898e-01,-1.114213e-01,9.024556e-02,-3.342556e-01,3.754371e-01,3.464296e-01,-2.616684e-01,2.482426e+00,-2.253702e+00,-2.468179e-01,2.602352e-01,-4.217974e-01,-3.508324e-01,4.058343e-01,-1.840270e-01,8.993740e-02,-8.660466e-01,-1.621024e-01,3.842332e-01,8.486210e-02,1.145707e-01,-3.564356e-01,-4.876700e-01,1.678712e+00,
-2.214953e-01,-7.853369e-01,-6.667942e-01,2.768197e-01,2.009180e+00,3.299426e-01,-4.302763e-01,-7.082548e-01,2.899825e-01,1.889640e-01,-2.514508e-01,-3.097107e-01,2.805452e-01,5.334089e-02,3.252982e-01,-6.721770e-01,3.516966e-01,3.079926e-01,-6.479915e-01,-6.369262e-01,5.013523e-01,-5.401784e-01,-1.162798e-02,1.392189e+00,1.179093e-01,-5.857301e-01,-4.957864e-01,-5.301266e-01,4.876041e-01,1.881563e+00,7.453481e-02,8.485618e-01,-9.878606e-02,9.882273e-01,-8.494276e-01,-3.375413e-01,-4.328503e-01,7.443624e-01,1.771259e-01,6.567181e-01,1.260102e+00,-1.928098e-01,-4.590267e-01,5.909795e-01,3.502699e-01,5.988719e-01,1.837141e-01,-3.990168e-01,7.921874e-02,4.538592e-01,
-7.320075e-02,5.042709e+00,-2.715028e-03,-1.497579e-01,5.239784e-01,5.927330e-02,-3.615835e-01,-5.628136e-02,-1.633322e-02,4.801920e-02,-6.995028e-02,4.991290e-02,2.933764e-01,2.005461e-01,2.456869e-01,2.945019e+00,9.003385e-01,2.184733e-01,-6.025943e-03,3.261383e-03,-9.126006e-04,1.453515e-01,-1.067976e-01,1.001567e-01,1.927972e-02,-1.170399e-01,-2.026257e-01,2.329746e-02,6.605978e-01,5.967019e-01,1.194169e-01,8.909512e-02,2.898379e-01,2.058634e-01,-4.758847e-02,-2.701834e-02,8.881631e-02,6.601050e-01,-5.538866e-02,-1.886929e-02,2.446111e+00,1.422265e-01,7.699291e-02,-2.291606e-02,-7.368197e-02,7.366174e-02,1.648649e-01,1.019904e-01,-2.734300e-02,1.750302e-01,
5.692470e-01,
-6.699017e-01,
7.843173e-01,
-3.730402e-01,
6.310048e-01,
7.302645e-01,
-1.259494e-01,
-4.253333e-03,
-1.456966e-01,
-6.761826e-01,
2.550342e-01,
-2.283562e-02,
7.620218e-01,
-2.330715e-01,
9.208598e-01,
-6.096786e-03,
-6.190495e-01,
-2.337564e-01,
1.070623e+00,
-5.839327e-02,
-9.420545e-01,
1.584321e-01,
3.114734e-01,
-7.295716e-01,
1.240436e+00,
1.021284e+00,
-2.321939e-01,
-2.428050e-01,
1.412407e-01,
7.670276e-01,
-6.724973e-03,
5.884214e-01,
-6.954128e-01,
7.104291e-01,
-4.076307e-02,
2.602442e-02,
-4.418010e-01,
-2.510089e-02,
-1.327783e+00,
-2.489077e-01,
-3.876323e-01,
-1.284894e-01,
-2.962105e-01,
-4.263881e-01,
9.165162e-02,
1.664181e-01,
-3.502113e-01,
-4.120309e-01,
4.185366e-01,
-1.559513e+00,
-3.973431e-01,-1.256095e-01,1.103470e+00,-1.828167e-01,3.411385e-01,8.451695e-01,2.764248e-01,-7.974291e-01,2.384491e-01,1.516085e-02,-3.353525e-02,3.069420e-02,-9.349125e-02,-4.444089e-01,2.999113e-01,-1.591618e-02,1.579886e-01,5.975329e-01,5.668141e-01,3.150482e-01,-1.445214e+00,4.945998e-01,1.505850e+00,-3.149596e-01,-2.235399e-02,1.436572e-01,-4.509299e-01,-4.969018e-01,4.731006e-01,-1.074187e+00,-2.835508e-02,1.065530e+00,4.973068e-01,-1.503934e-01,-4.838116e-01,-1.065885e+00,-2.254042e+00,4.712850e-02,6.632386e-01,9.217706e-01,3.933117e-02,-1.180699e-01,-2.016740e-03,6.418136e-02,6.283456e-01,1.758004e+00,-2.064985e-01,1.234308e+00,-1.722222e-01,-2.653290e-01,
-4.886135e-01,-9.405867e-01,6.154147e-01,1.128707e+00,-5.137125e-01,1.284523e+00,-4.068304e-01,-9.213751e-04,2.490767e-01,2.517703e-01,1.982321e-01,2.047330e-03,-1.796722e-01,-4.166865e-01,-3.461367e-02,-8.644903e-03,5.133396e-01,2.002385e+00,-3.373847e-01,8.829125e-01,9.703201e-01,9.743553e-01,1.198137e+00,2.836290e-01,3.052137e-01,-3.702922e-02,-1.151252e+00,1.452104e-01,2.396130e-02,1.160033e+00,1.532040e-02,4.869672e-01,4.998075e-01,4.876549e-01,3.239199e-02,-3.062128e-01,-7.091179e-02,-2.367764e-02,2.779254e-01,4.077306e-01,-2.828184e-01,3.833838e-01,-2.998052e-01,-7.783401e-02,-3.743834e-02,-6.709873e-02,4.602101e-02,1.506694e+00,-8.097169e-01,-5.781019e-01,
-5.589594e-01,3.525247e-01,-1.028368e-01,1.860056e-02,-1.223774e-01,4.757103e-01,4.157996e-01,4.253766e-02,1.056883e+00,-2.817184e-01,1.318791e-01,-9.364018e-03,-4.921309e-01,5.458938e-01,2.308739e-01,4.618150e-02,-5.043353e-01,-1.184634e+00,-1.943353e-01,1.340705e-02,3.601772e-01,-5.705077e-01,-9.400882e-01,-9.234475e-02,7.756621e-02,-9.111133e-01,-1.038858e-02,-5.458300e-01,-3.796745e-01,1.546576e-02,-4.532958e-02,-3.223560e-01,-2.217940e-01,-3.822320e-01,-2.378970e-02,3.328599e-01,-3.777082e-02,-3.546516e-02,-1.638246e-01,-1.265345e-01,-1.090760e+00,3.914659e-01,-7.697087e-02,1.193655e+00,-2.866336e-01,2.992624e-01,-7.487420e-02,-9.984707e-01,1.800203e-01,2.268708e+00,
3.354745e-01,2.873353e-02,2.257685e-01,-8.118161e-02,-2.546562e-01,1.341947e+00,-1.473003e-01,1.993060e-01,5.265383e-01,3.705569e-01,-2.890293e-01,3.999740e-02,7.344528e-01,5.714668e-01,6.673101e-02,-4.276333e-02,6.648933e-01,-1.120115e-01,-5.776549e-01,5.990614e-01,-4.631951e-01,-1.373958e-01,-1.178753e+00,-7.535119e-01,-3.867485e-01,-3.497530e-01,-8.926927e-01,-6.168340e-01,-4.715546e-01,2.010393e-01,1.163860e-04,-3.237177e-01,2.742957e-01,-7.184260e-01,4.140140e-01,3.636312e-01,1.457408e-01,2.098970e-02,-2.107844e-02,3.479216e-01,-9.513563e-03,1.007690e+00,5.583557e-01,4.615813e-01,-2.691925e-01,3.212650e-01,3.695496e-01,4.467202e-01,-1.709604e-01,-2.467375e+00,
1.467659e-01,-8.053003e-01,-5.306323e-01,2.870007e-01,-3.525247e-01,9.515854e-01,9.106477e-01,2.281915e-02,4.772724e-01,-1.737610e-01,-4.218849e-01,3.964700e-02,-3.971680e-01,-9.021924e-02,-1.757242e+00,-3.564026e-02,-1.737940e-01,-4.651439e-02,-7.072309e-01,8.523759e-01,-1.164508e+00,1.113417e+00,4.830683e-01,7.607380e-01,-7.061659e-01,2.637997e-01,-7.783267e-01,-3.678634e-02,-4.323600e-01,-5.055590e-01,9.680770e-03,4.400958e-01,4.685676e-01,3.865382e-01,-3.132601e-02,-4.354366e-01,-6.943261e-01,-2.327481e-02,2.201628e-01,6.035820e-01,-1.088133e-01,-4.053112e-01,2.931408e-01,7.365826e-01,-3.352300e-01,3.761230e-01,-9.648329e-02,1.830624e+00,-3.684300e-01,5.005336e-02,
-1.929046e-03,-9.278806e-01,5.937219e-01,3.422150e-01,-1.532218e-01,1.074178e+00,8.323260e-01,4.542556e-01,-2.916146e-01,-3.017447e-02,3.897479e-01,-4.423963e-02,-2.254804e-01,1.620433e-01,6.780533e-01,-1.735241e-02,-5.521078e-01,-4.051082e-01,8.760232e-02,2.634180e-01,-2.311042e-02,1.343820e-01,-2.323072e+00,8.767296e-02,1.673655e+00,2.562145e-01,-4.102737e-01,2.593550e-02,8.031794e-02,-1.278271e+00,-2.790970e-03,-5.254936e-01,4.895013e-01,7.910914e-01,1.145192e-01,5.550263e-01,3.422402e-01,1.799680e-02,-1.081974e+00,-3.306145e-01,-6.191443e-02,3.074939e-01,2.024099e-01,7.323549e-01,-7.786974e-02,-2.093588e-01,-1.070469e-03,-1.400038e+00,6.293719e-02,1.575347e-01,
2.383399e-01,1.049374e+00,-7.506207e-01,-5.018592e-01,-1.861086e-02,-7.889532e-01,-9.525862e-02,-3.329228e-01,5.591614e-02,-6.586551e-01,2.764983e-01,-2.621989e-03,-3.114081e-01,4.087884e-01,2.220883e+00,2.538540e-02,-5.818511e-01,-6.400595e-01,6.096889e-01,-2.262034e-01,2.966184e-01,1.646960e-01,-1.063032e-01,4.432231e-01,5.541281e-01,1.527498e-01,1.300537e+00,3.715081e-01,-5.167994e-01,-1.336188e+00,-3.634499e-02,-5.633121e-01,-1.456173e-01,4.805527e-01,4.245732e-01,7.335877e-01,5.481979e-01,-2.132656e-02,-5.046228e-01,-1.596387e+00,-2.287558e-01,-5.016944e-01,7.111058e-01,6.952747e-01,-3.511218e-01,-5.169271e-02,-4.812624e-01,-3.230595e-02,9.130911e-02,-2.131894e+00,
-3.457339e-01,-5.315294e-01,-2.480054e-01,1.551335e-01,-2.867819e-01,7.460057e-01,3.997622e-01,-2.604087e-01,3.759896e-01,1.061569e+00,3.893405e-01,-1.690560e-02,2.877641e-01,5.218814e-02,1.333953e-02,-3.073736e-02,1.812201e-01,4.909162e-02,-6.333923e-01,1.377284e-02,-9.729308e-01,-6.977611e-01,4.448416e-03,-4.060363e-03,-3.314983e-02,-1.444008e-01,1.574427e+00,7.723116e-01,-7.233608e-02,-1.058675e+00,4.922180e-02,1.206816e-01,-4.793043e-01,3.264904e-01,6.807354e-02,-1.989888e-01,2.618612e-01,-3.572575e-02,4.441650e-01,-2.047558e-01,2.677390e-01,-9.448983e-01,-1.108939e+00,-5.428018e-01,2.009064e-01,3.984531e-01,6.985481e-02,7.289700e-01,1.710867e-02,1.615725e+00,
-1.733923e-01,1.861265e-02,-4.360464e-02,-4.202977e-01,-6.259845e-01,-3.924794e-01,-3.768234e-01,-3.905235e-01,5.291195e-01,-1.028628e-01,-2.622225e-01,3.183540e-02,-5.270922e-01,2.468029e-01,-1.071334e+00,-1.408391e-02,5.905661e-01,-2.519164e-01,3.488605e-01,7.928208e-01,8.655437e-01,7.644512e-01,-1.928541e+00,-5.318199e-01,-3.464704e-01,2.905945e-01,1.290992e+00,6.684988e-02,4.002521e-02,-4.992132e-01,-1.847346e-02,3.714091e-02,-6.249957e-01,-2.583981e-01,1.801853e-01,3.746509e-01,5.400097e-01,2.451900e-02,-3.017426e-01,-7.198927e-01,4.287255e-01,-6.040342e-01,3.153014e-01,2.323014e-01,-3.188808e-01,1.893343e-01,-7.005926e-01,7.495472e-02,-9.124503e-02,-2.368609e-01,
8.067199e-01,-2.062307e+00,-1.210899e+00,-2.341818e-01,-2.619815e+00,9.628162e-01,-4.312589e-01,4.852057e-01,5.647767e-01,-5.081350e-01,4.800724e-02,4.121020e-02,-1.466308e-01,7.709793e-01,-3.090649e+00,-9.956165e-03,1.864580e-01,-8.105997e-01,-4.990031e-01,-4.247864e+00,-1.016044e+00,3.656784e-01,6.353374e-01,-2.447228e-01,-3.793912e+00,3.948240e-01,-2.008418e+00,-2.879262e-01,5.238543e-01,-1.343738e+00,-2.630960e-02,3.117735e-01,4.919901e-01,1.084906e+00,-4.933999e-01,-3.780368e-01,3.716905e-01,1.302540e-02,6.217216e-01,6.427259e-01,-3.961277e-01,8.670403e-01,7.369440e-01,5.976839e-01,-1.231561e+00,-4.744015e-01,-4.157832e-01,4.030469e+00,1.188716e+00,-6.225835e-02,
9.658705e-02,-1.439363e-01,-6.946073e-01,1.043607e+00,1.073537e-01,-9.425076e-01,-1.208849e+00,-1.010056e+00,-1.204245e+00,-5.824351e-01,-1.227678e-01,-5.484255e-03,-3.274195e-01,-1.969123e-01,1.727619e-01,-2.197845e-02,-2.631001e-01,-1.226534e+00,-8.914104e-02,7.720323e-01,9.278548e-01,-3.632676e-01,1.039467e+00,4.407627e-02,-4.164692e-01,2.020928e+00,6.315784e-01,9.579193e-01,8.019742e-01,-7.200812e-01,8.582180e-03,1.913546e-01,1.862368e-01,-1.898887e-01,1.752092e-01,3.439500e-01,-1.166362e-01,-2.245266e-02,3.526576e-01,-1.178268e+00,8.978459e-02,-1.022754e+00,-9.182450e-01,-5.355320e-01,1.088322e+00,1.160017e-01,1.697863e-01,-6.780202e-01,3.525432e-01,1.557154e-01,
1.656886e-01,-9.177341e-01,-4.544463e-01,8.759367e-01,-1.567454e-01,-1.223702e-01,2.199941e-02,-1.746437e-02,-2.572528e-01,-1.716124e-01,-7.974795e-01,2.388480e-03,1.198251e+00,1.573127e-01,-1.608376e-01,6.740640e-03,-1.479749e-02,8.408209e-01,2.028765e-01,1.184816e+00,3.536475e-01,-2.576174e-01,4.065565e-01,-1.028981e+00,-4.240355e-01,-3.032062e-01,-7.677991e-02,4.756993e-01,-3.815913e-02,-2.664394e-01,4.147500e-03,-5.225313e-01,3.246313e-01,7.143798e-02,8.783865e-02,3.647830e-01,-4.945772e-01,1.782030e-02,1.137141e+00,7.660171e-01,-2.912088e-01,-1.693876e-01,-4.636514e-01,2.813388e-01,6.802542e-01,1.178886e-01,-2.510841e-01,1.191473e+00,5.390433e-01,2.288176e-01,
-3.009814e-01,3.745791e-01,-6.296277e-01,-1.567979e-01,-2.500552e-01,7.551402e-02,-3.055227e-01,2.084142e-01,2.222123e-01,9.796903e-02,4.627113e-01,-2.949868e-02,-4.716586e-01,5.978808e-01,4.988807e-01,2.325580e-02,-3.078031e-02,1.141992e+00,1.252881e-01,-1.539613e-01,1.929922e-01,-3.693302e-02,7.820497e-01,2.920351e-01,4.130630e-01,2.022345e-01,4.040626e-01,7.159835e-01,-7.485535e-01,7.088363e-01,-7.006709e-03,-1.495869e-01,7.945041e-01,-1.299942e-01,-2.956069e-01,5.095052e-01,3.860416e-01,4.744960e-02,-6.072756e-01,-4.908568e-01,-1.177084e-01,-5.315881e-01,-4.536748e-01,3.620079e-01,-6.006198e-01,2.905527e-01,1.585053e-01,1.072639e+00,-9.241983e-01,-1.930786e-01,
1.037211e+00,-6.490256e-01,2.358768e-02,-1.872849e-01,-2.135128e-01,-2.274487e-02,8.296537e-02,-6.452280e-01,-2.090838e-01,2.142022e-02,-1.072251e+00,-2.340242e-03,7.921137e-01,2.561043e-01,-6.422884e-01,4.426700e-02,1.396689e-01,-4.439671e-01,-9.195974e-01,3.300910e-01,-1.639729e+00,7.191309e-01,7.751552e-01,1.391193e+00,-1.644354e+00,-3.593546e-01,2.050638e-01,-5.550773e+00,-2.093660e-02,2.806695e-01,1.046690e-02,4.546856e-01,-1.122329e-01,-3.153077e-01,2.005805e-01,3.382342e-01,4.684043e-01,-3.269848e-03,9.188189e-02,-2.664074e+00,-1.886404e+00,2.156553e-01,1.177890e-01,-2.564329e+00,1.001279e+00,-5.652846e-01,-1.190010e-01,2.150523e+00,3.281850e-01,1.374173e-01,
-9.519991e-01,1.040800e+00,2.064123e-01,-2.505743e-01,-1.539829e-01,-8.536433e-03,4.333427e-01,9.313843e-02,7.323170e-04,9.155539e-02,1.040422e-04,-4.400026e-02,2.152100e-02,-8.422423e-01,-9.028846e-02,7.226890e-03,3.188825e-01,2.825329e-01,-8.758924e-01,-9.731574e-01,2.042665e-01,-9.109094e-01,9.687165e-01,7.485335e-01,3.775997e-01,-1.943002e-01,-5.770523e-01,1.561729e-01,-2.305501e-01,-2.390331e-01,4.200630e-02,1.850100e-01,6.156392e-01,-4.608292e-01,-1.491224e-01,-2.192849e-02,7.528791e-01,2.108810e-02,6.925704e-02,9.632426e-01,-9.138046e-01,1.036047e-01,2.102592e-01,-1.423285e-01,-1.889988e-01,1.117887e-01,-5.037699e-01,5.800125e-01,-2.495226e-01,-2.989307e-01,
-1.325610e+00,-2.131224e+00,-1.415519e+00,1.488317e+00,-2.228858e-01,-1.301724e-02,-7.277104e-01,5.322328e-01,-1.157040e+00,-8.016819e-01,-2.808944e-01,-2.202614e-02,7.170010e-02,-2.620763e-01,7.154004e-01,-1.104345e-02,-6.199199e-01,1.021208e+00,-5.363271e-02,-1.078595e+00,7.841608e-01,-2.019974e-01,6.364233e-01,1.211660e+00,-6.929912e-01,4.875026e-01,6.302760e-01,1.171295e-01,3.596404e-01,-5.058814e-01,-3.327971e-02,-1.918220e-01,-6.435574e-01,1.616993e-01,7.822458e-02,2.035351e-01,1.059477e-01,-1.818650e-02,-1.440218e-01,7.780344e-01,2.821604e-01,-2.273550e+00,-3.642286e-01,5.423248e-01,2.738595e-01,3.282170e-01,-7.659811e-01,-2.896102e-01,6.732664e-02,-8.080483e-02,
1.919698e-01,-6.608943e-01,-4.340193e-01,-3.155487e-02,-1.785711e-02,3.414206e-01,1.156599e-01,-1.935597e-02,-2.069414e-01,-5.141811e-01,2.005785e-01,4.080340e-02,-1.143145e-01,1.413950e-01,4.982017e-01,-4.764512e-02,5.300701e-01,4.771954e-01,-1.775751e-01,-1.547822e+00,5.926293e-01,-5.729417e-01,-7.641786e-01,2.433119e-01,3.737527e-01,2.085752e-01,-4.985632e-01,-8.575687e-02,-1.673915e-01,7.196780e-01,-2.998237e-02,-1.086681e-01,-1.038899e-01,3.290938e-01,3.113079e-03,-3.903051e-01,1.858801e-01,4.118030e-02,4.066075e-01,3.330039e-01,-1.073208e+00,7.505375e-01,3.136611e-01,9.271173e-01,1.872488e-02,-1.655818e-01,-5.664001e-01,-2.803279e-01,3.637781e-01,-3.475364e+00,
-4.212154e-01,1.090716e+00,1.439858e-01,5.968617e-01,-1.064041e-01,4.761769e-01,1.017268e+00,-3.096087e-01,-4.825777e-01,-1.693536e-02,-8.578046e-03,3.180900e-02,1.961738e-01,-5.964741e-01,1.885121e-01,2.774040e-02,2.980101e-02,8.679397e-01,3.606819e-01,5.872681e-01,1.197446e+00,2.876099e-01,3.800262e-01,1.578516e+00,-9.120846e-02,2.015600e+00,1.290639e+00,3.283193e-01,2.933380e-01,8.378841e-01,-4.121092e-02,-4.613947e-01,-3.779708e-01,-4.589690e-01,2.608650e-01,-4.919280e-01,-2.119112e-01,-1.208726e-02,3.129773e-01,-1.358014e+00,5.489821e-01,1.888653e-01,3.786579e-01,-2.352067e-01,9.931733e-02,-8.219235e-01,4.902090e-02,-6.192174e-02,-9.452721e-01,9.750427e-01,
-3.232449e-02,-1.436366e-01,-7.703802e-01,-1.102234e+00,-4.531845e-01,7.897760e-01,1.707096e-02,5.607892e-01,8.119164e-01,5.652805e-01,-1.439044e-01,-7.608311e-03,-5.264289e-01,1.456945e-01,8.813154e-01,1.121600e-02,4.469410e-01,8.046585e-02,3.487189e-01,-7.910091e-01,-5.367165e-01,-7.692844e-02,1.219566e+00,-1.548234e-01,1.271761e-01,-1.858243e-01,1.292775e+00,3.940032e-01,-4.592214e-01,-3.835998e-01,4.395670e-02,-2.140752e-02,2.502373e-01,3.247116e-01,2.624510e-03,3.839032e-01,6.859753e-02,-4.349577e-02,3.026934e-02,6.859233e-02,1.647094e-01,3.049641e-01,-9.400006e-01,3.973207e-01,-5.157766e-01,1.753390e-01,3.270969e-01,1.186106e-01,-4.972335e-01,-2.911140e-01,
5.805848e-02,5.761156e-01,-4.572088e-01,3.360061e-01,1.747135e-01,2.913282e-02,9.652470e-02,-4.164032e-01,-7.753551e-01,7.438852e-01,3.589592e-01,-1.811523e-02,8.932901e-01,-3.697071e-01,1.131960e+00,4.008230e-03,2.078874e-01,-5.402885e-01,-3.322821e-01,3.758716e-01,-6.766039e-01,-9.792014e-01,2.307281e-02,-8.125917e-02,2.180852e-01,2.363747e-01,1.357695e+00,1.167780e+00,-3.232057e-01,-1.185211e-01,-3.673639e-02,4.926484e-02,-2.673200e-01,-3.513629e-01,3.102799e-01,2.638426e-01,-9.768684e-02,6.685040e-03,-1.360970e-01,-1.979742e+00,-2.866263e-02,-5.933644e-02,-8.156209e-01,1.448454e-01,1.206903e-01,-2.244071e-02,-1.260421e-01,2.355897e-02,9.357304e-01,-3.531077e-02,
7.434354e-01,8.771099e-01,7.795730e-02,-7.994489e-01,-2.163979e-01,1.040413e+00,2.557109e-01,5.672684e-01,-2.880034e-01,3.670322e-01,4.495050e-02,1.746890e-02,-3.514659e-01,-1.109310e+00,1.591235e-01,-2.045034e-02,-8.614683e-02,-1.329359e-01,-3.685350e-01,-2.349039e+00,-4.078398e-01,-4.438692e-02,5.113672e-01,-1.096940e+00,-5.329055e-02,1.171543e+00,4.792899e-01,4.932443e-01,9.823017e-02,-2.049700e-02,-3.199087e-02,-1.111473e+00,6.737014e-02,3.130355e-01,2.147674e-01,-1.983780e-01,-3.451314e-01,3.657080e-02,1.105205e-01,7.828968e-04,7.678217e-02,1.220474e-01,-7.440298e-01,8.321998e-01,-9.337331e-02,1.244394e-01,-2.942628e-01,-2.052502e-01,2.456457e-01,3.047028e-01,
-5.445033e-02,5.170857e-01,-5.635017e-01,7.327076e-02,2.492260e-02,5.645109e-01,-6.474735e-01,-2.411992e-01,2.101155e-01,2.854647e-01,2.620174e-01,3.763180e-02,2.758719e-01,5.550407e-01,-2.645297e+00,-1.910001e-02,-9.606902e-02,5.059941e-01,7.497373e-01,3.288653e+00,-2.652858e+00,-1.000246e+00,5.034264e-01,-5.101806e-02,-5.763839e-01,-1.134277e+00,-2.702442e-01,5.928136e-02,1.082869e+00,-6.392035e-01,3.475460e-02,7.063214e-02,1.545802e-01,-4.798677e-01,-9.646392e-01,-7.619198e-01,3.742523e-01,-3.499991e-02,1.563873e-01,1.890206e-01,9.075415e-01,-1.276520e+00,5.529386e-01,-8.089980e-01,-1.656734e+00,2.139907e-01,-1.835892e-01,-1.188393e+00,9.754320e-02,-4.156091e-01,
-1.534010e+00,9.080109e-01,-1.317710e+00,1.356458e-01,-1.788585e+00,-2.780619e-01,-3.140480e-01,-1.058572e+00,4.775879e-01,-7.828566e-01,7.358083e-01,5.223350e-02,-5.893505e-01,-1.017171e+00,1.258982e-01,-2.223399e-02,5.345308e-02,6.888273e-01,9.030309e-01,1.500648e+00,1.138438e+00,1.236927e+00,1.342664e+00,1.914026e+00,-1.410688e-01,3.428203e-01,1.041004e+00,9.337056e-01,4.851232e-02,4.088606e-01,1.328050e-02,1.521979e+00,2.999310e-01,9.713126e-01,-6.561058e-01,-8.461398e-01,-7.305903e-01,3.835110e-02,-1.297934e+00,4.156165e-01,-9.781137e-03,-1.069119e+00,-7.421305e-01,-1.084806e-02,3.028837e-02,-3.206823e-01,-3.492884e-01,8.326969e-01,-4.873764e-02,-1.560378e-01,
6.659157e-01,-1.078245e+00,-3.079998e-01,-3.199540e-01,-3.489218e-01,2.750959e-01,2.928498e-03,-2.811261e-03,-5.764920e-02,-8.174574e-01,-1.717700e-01,-3.167600e-02,-3.062149e-01,-4.678095e-01,-3.467031e-01,5.676340e-02,2.510234e-01,-5.553214e-02,-2.991655e-03,1.477135e-01,3.396513e-01,4.305859e-01,4.561901e-01,-4.628202e-01,-7.570530e-02,8.088487e-02,-1.438982e-01,-1.661256e-01,1.190820e-01,-3.868011e-01,2.633420e-03,2.218312e-01,1.513451e-01,1.843757e-01,-4.406258e-01,6.474372e-02,-4.827023e-01,-1.903522e-02,-2.932719e-01,6.102091e-01,-1.316021e-01,5.069996e-01,3.735819e-01,5.202963e-01,3.916268e-03,-3.773477e-02,-3.984627e-02,5.126640e-01,4.927417e-01,-4.977217e-01,
3.302211e-02,6.366573e-02,1.910150e-01,1.005171e-01,-1.719286e-01,2.838676e-01,-4.576527e-02,5.234741e-02,4.140744e-01,2.194611e-02,2.226170e-01,2.640090e-02,9.561655e-02,1.494983e-01,-6.812183e-03,1.611690e-02,1.589382e+00,4.670947e-01,-1.413953e-01,1.483644e-01,-3.991548e-01,-2.911810e-01,-6.786031e-01,-1.066050e-01,-1.534092e-01,-3.693055e-01,-1.601207e-01,-3.349560e-01,-2.837372e-01,2.954689e-01,4.740710e-02,-1.043421e-01,1.945392e-02,-4.308222e-01,-8.978881e-02,9.571715e-02,-4.296820e-02,-4.501749e-02,-4.625411e-02,1.229882e-01,1.512473e-01,3.580980e-01,-2.374438e-01,-5.148795e-01,-8.707578e-02,-8.787929e-02,4.927388e-01,1.361293e-02,-1.159399e-01,1.744841e+00,
-7.646359e-01,-5.250641e-01,-1.147533e+00,-1.245146e-01,-8.501857e-01,-4.488822e-01,-4.585941e-01,-7.683810e-02,3.524444e-01,-2.339872e-01,3.754967e-02,-3.697030e-02,2.984176e-01,-4.502573e-01,-7.373214e-01,-2.201573e-02,8.022618e-02,-6.717773e-01,4.956283e-01,7.381778e-01,7.500884e-01,5.686596e-01,-5.774942e-02,5.006696e-01,-1.119064e-02,-1.995244e-02,2.521646e-01,3.559011e-01,-2.707241e-01,9.453591e-01,1.785120e-02,3.537086e-01,2.330076e-01,1.846967e-01,-6.428158e-01,-3.244377e-02,1.621394e-01,-3.293569e-02,-6.285678e-01,9.358250e-02,1.759920e-01,-6.460871e-01,-4.241653e-01,3.851482e-01,-2.198422e-01,9.193162e-02,-2.245122e-01,7.704173e-01,-2.878304e-02,-7.955699e-01,
-2.046085e+00,-1.228563e+00,8.824594e-02,-5.041232e-01,-1.470387e+00,2.329358e-01,1.723798e-01,1.057594e+00,-1.845214e+00,-3.820116e-01,1.173654e+00,-3.333059e-02,-2.662457e-01,-7.678258e-01,1.366837e-01,-4.129960e-02,3.616005e-01,-1.932743e+00,-1.171048e-01,-7.595652e-01,1.826077e+00,-1.186158e+00,2.354868e-01,6.966580e-01,-1.438622e+00,-9.157153e-02,1.282110e+00,6.501998e-01,6.521931e-02,-8.818798e-01,-2.434961e-02,1.131352e+00,-2.180819e+00,1.997160e-01,-1.190515e+00,-1.317154e+00,1.690508e+00,2.477000e-02,-6.993864e-02,-1.817754e-01,-5.546179e-01,-1.152807e+00,7.322857e-03,1.382861e+00,4.411667e-01,-7.421232e-01,3.031114e-01,-2.199503e-01,-7.244298e-01,1.269672e+00,
-5.683231e-01,-3.899456e-01,7.730569e-01,5.885679e-02,-9.155649e-02,-8.867702e-01,1.039413e+00,-4.644074e-02,6.284174e-01,-4.683966e-01,7.005641e-01,5.484070e-02,-1.687274e-01,-3.769017e-01,5.140963e-01,3.018810e-02,-2.060814e-01,6.351876e-01,-1.237916e-01,-5.849627e-02,-1.250513e+00,1.860554e-01,-2.023631e+00,2.697053e-01,-1.667199e-01,-4.917137e-01,4.108261e-02,-5.877417e-01,-7.597908e-01,-2.421571e-01,-1.785783e-02,6.705727e-01,7.495468e-01,-1.107816e+00,-1.908384e-01,-7.562899e-02,-4.607035e-01,-7.499883e-03,-4.103293e-02,-2.381061e-01,-2.190913e-01,6.122680e-01,3.739330e-01,8.515977e-01,-4.640696e-02,3.190538e-01,5.136344e-02,2.553383e-01,-9.054802e-02,2.364036e-01,
1.640988e-01,-2.006162e-01,-2.220577e-01,-4.898463e-01,-6.679055e-01,9.960834e-01,4.990825e-01,6.651048e-01,6.374454e-01,-1.603216e-01,-3.951853e-01,3.853420e-02,5.207494e-02,-4.438558e-01,-7.367734e-01,-4.048652e-02,1.558596e-02,1.898925e+00,-2.165266e-01,-3.011514e-01,3.525262e-02,8.728875e-01,4.155635e-01,1.366861e-01,-1.732450e-01,-8.063293e-02,-1.688747e+00,-2.999844e-02,1.639397e-01,-4.934885e-01,-3.452086e-02,5.784469e-01,5.941874e-01,8.030961e-01,-6.543435e-01,-1.040125e+00,7.407842e-02,4.641550e-02,4.473349e-01,1.181419e+00,2.382307e-01,-4.521587e-01,-9.693474e-01,6.399508e-01,4.902671e-01,4.593314e-01,-3.190342e-01,1.007588e+00,-9.481346e-02,-2.040069e-01,
-3.556302e-01,6.783637e-01,-2.540165e-01,1.226256e-01,-6.282536e-01,-4.968462e-01,5.520011e-01,-2.188977e-01,3.763146e-01,-4.247092e-01,2.414701e-01,-3.188983e-02,-1.810688e-02,3.331524e-01,-9.793857e-02,1.492420e-02,5.395974e-02,9.299118e-02,-1.966733e-02,5.176584e-01,1.108283e-01,-6.396794e-01,-5.004945e-02,-4.521957e-02,2.886132e-02,-2.291585e-01,3.303004e-01,-9.023583e-03,-4.529034e-02,5.030726e-01,2.111830e-02,4.567341e-02,-1.937306e-01,-5.111107e-01,-5.221637e-01,3.962760e-01,-2.753756e-01,6.260360e-03,4.379298e-01,-9.775019e-02,5.427005e-01,-1.415704e-01,-2.287218e-01,-7.975681e-01,2.494423e-02,-1.916851e-01,5.583177e-01,4.491436e-01,-2.426783e-01,-9.618202e-01,
4.758680e-02,-3.674278e-03,-5.100869e-03,-1.557164e-02,-2.001527e-02,-4.183108e-02,1.375230e-02,-3.220728e-02,1.130770e-02,7.973930e-03,-4.101038e-02,2.299950e-02,-3.098518e-02,-1.335889e-02,-4.678651e-02,-4.649914e-02,9.564810e-03,-2.333609e-02,-4.096073e-02,1.490130e-03,3.941660e-02,-1.580288e-02,-2.763593e-02,3.338180e-02,2.098720e-02,8.596290e-03,3.870480e-02,-2.223832e-02,1.449580e-02,4.672080e-04,-4.533875e-02,-4.897393e-02,1.267420e-02,-1.908487e-02,7.681000e-03,-7.336020e-04,-2.667741e-02,-1.298789e-02,-5.137805e-02,2.156550e-02,1.298640e-02,-4.305493e-02,-9.161231e-03,9.933740e-03,3.729240e-02,-5.518080e-04,-3.154457e-02,4.334420e-03,-1.603040e-02,6.977920e-06,
-3.970433e-01,9.796814e-03,-3.193226e-01,-1.429547e-01,-8.973380e-02,6.834921e-01,1.647176e-01,-1.281268e-01,2.850360e-01,-2.304738e-01,-1.763638e-01,-1.700108e-02,-3.655130e-01,-1.244168e-01,-4.408884e-01,4.378060e-02,-5.035660e-01,-1.558390e-03,-2.009087e-01,3.795697e-01,5.799552e-01,1.609628e-01,-2.600894e-01,2.091644e-01,1.843159e-01,-1.404024e-01,5.360830e-01,-3.899961e-01,1.598744e-01,4.573754e-01,-1.191360e-02,2.657150e-01,-4.259616e-01,-3.676966e-02,1.245693e-02,-1.367768e-01,3.114854e-01,1.579160e-02,1.867105e-01,6.001091e-01,2.212037e-01,-4.271564e-01,-9.282812e-02,-3.179105e-01,-4.252231e-02,2.418388e-01,3.095813e-01,3.088897e-01,7.838327e-02,9.276984e-01,
6.706910e-01,4.700756e-01,2.024485e-01,-3.229338e-01,4.043959e-02,-4.160098e-01,4.079044e-01,-4.963580e-02,-1.658825e+00,-4.880954e-01,-1.776235e-01,2.063680e-03,3.342698e-01,-6.911599e-02,2.618603e-01,-4.253653e-02,-4.804723e-01,-7.443501e-02,-5.384932e-02,-8.257695e-01,6.830052e-01,-3.100012e-01,1.162273e+00,-1.056512e-01,-1.757891e-01,9.566939e-01,2.540897e-01,4.819123e-01,1.694483e-01,1.644703e-01,3.652010e-02,-5.416790e-01,1.934608e-02,-1.425242e-01,1.418499e-01,1.894982e-01,-3.533518e-01,1.695200e-03,3.875131e-01,1.040557e-01,8.715499e-01,3.839222e-01,5.263841e-01,5.016956e-01,4.463368e-02,-4.649533e-01,2.795708e-01,5.061357e-02,2.096266e-01,-1.296801e+00,
3.253368e-01,3.693624e-02,-3.833691e-01,2.090496e-01,-4.175538e-01,6.606635e-01,2.779949e-01,-1.332820e-01,9.799134e-02,6.158926e-01,-9.531383e-01,-3.000349e-02,2.629405e-01,6.504079e-02,-1.580051e-01,-2.967935e-02,-1.243972e-01,3.178496e-01,1.207201e-01,2.280616e+00,4.956679e-02,8.572546e-01,6.207505e-01,-3.301222e-01,5.847839e-01,1.197989e-01,-8.674248e-01,-6.400523e-01,-2.123994e-01,-6.192761e-03,4.672530e-03,-3.393654e-01,5.567936e-01,-5.389928e-01,9.916139e-01,1.022708e+00,1.205584e+00,-1.611404e-02,9.542455e-01,7.480679e-02,-2.430223e-04,-9.807341e-01,6.032144e-01,1.382066e+00,-4.850167e-02,4.866044e-01,-1.715290e-01,5.790124e-01,-7.359967e-01,3.076811e-01,
-1.251924e-01,8.247726e-01,1.088648e-01,2.933889e-01,-2.824343e-01,5.582497e-01,-7.284675e-01,1.130579e-01,2.804958e-01,-3.958146e-01,1.499649e-01,2.686780e-02,-1.309892e-01,-1.129714e-01,-4.973314e-01,-9.648587e-03,-7.159942e-02,2.782895e-03,-2.298260e-01,4.249121e-01,4.243886e-02,6.535404e-02,-5.632215e-01,1.523566e-01,1.642067e-01,-8.345544e-02,-5.917020e-01,2.106628e-01,-1.717721e-01,7.469889e-01,-1.056152e-02,2.049765e-01,4.197806e-01,-1.392457e-01,-1.997067e-01,1.129827e-01,7.485189e-02,3.557730e-02,3.674370e-01,5.053118e-01,4.215604e-01,-7.146562e-02,-1.327598e-01,2.002730e-01,-5.648849e-02,-4.010377e-02,1.118868e+00,1.341184e+00,1.549130e-01,2.596373e+00,
5.712447e-01,-2.989657e+00,-2.487409e-01,6.277794e-01,-1.959266e-01,-4.232610e-01,4.309757e-01,-1.825726e-01,-9.803807e-01,-3.946383e-01,2.251050e-01,-1.481459e-02,-1.028524e+00,-1.422842e+00,1.492704e-01,-4.393825e-02,-1.808824e-01,1.443428e+00,5.727530e-01,-3.660465e+00,1.543253e+00,-7.486060e-01,1.485545e+00,-9.664088e-02,1.681796e+00,-2.014886e-02,-7.283047e-01,3.234979e-01,1.477436e+00,6.588289e-01,5.061440e-02,-7.124664e-01,8.847011e-01,6.267743e-01,-2.938682e-01,5.763255e-01,-2.129092e+00,-4.772556e-02,-4.616563e-01,-1.132856e+00,3.435711e-01,1.632394e+00,-1.544876e+00,-9.809802e-01,1.686112e+00,1.406878e-01,-5.351911e-01,-2.785872e+00,4.973016e-01,1.132524e-01,
-6.430825e-01,-7.082785e-01,-1.237164e-01,9.468133e-02,-4.767932e-01,-6.107210e-01,-2.094587e-01,-1.269310e-01,2.906989e-01,-1.320542e-01,5.829233e-02,9.352660e-03,-4.664963e-01,-5.043426e-01,4.727557e-01,2.896220e-03,-1.003152e-02,2.297137e+00,1.000601e+00,9.571766e-03,1.465958e+00,6.833174e-01,9.148666e-01,2.294783e-01,-2.752829e-01,8.716160e-02,-2.062595e-01,-9.852826e-02,6.348190e-01,3.703355e-01,5.341940e-02,7.242846e-01,-8.858793e-01,1.675079e-01,-3.139749e-01,4.317713e-01,-1.021940e-02,-3.746151e-02,8.903242e-01,-2.231145e-01,4.270242e-01,-8.900951e-01,-5.134138e-01,-5.490343e-01,1.456814e-01,-3.994083e-01,8.050202e-02,4.404780e-01,2.305226e-01,-2.080806e-01,
-1.083251e-02,-7.526178e-01,-3.485335e-01,-1.137862e-01,-3.987820e-01,9.179847e-01,1.358048e-01,9.687972e-03,2.244133e-01,-3.692571e-01,2.302266e-02,4.359960e-03,-9.835687e-02,-5.227518e-02,-4.941044e-01,1.686840e-02,-8.133714e-02,6.174871e-01,-8.729610e-02,-1.904532e-01,2.140383e-01,3.630594e-01,3.012193e-01,6.422513e-01,3.666800e-01,3.208543e-01,3.166673e-01,7.205272e-02,3.774837e-01,7.669402e-01,-1.246640e-02,2.421896e-01,-1.807176e-01,2.264678e-01,-1.609931e-01,-2.858147e-01,-4.468068e-01,-2.183270e-02,-1.821009e-01,4.859231e-01,5.466663e-02,-2.183734e-01,-5.044600e-01,5.029973e-01,-1.168772e-01,2.055746e-02,1.023864e+00,-3.686730e-02,6.549307e-01,-6.763422e-01,
-4.351369e-01,3.025362e+00,3.013034e-02,-5.274393e-02,-2.856396e-01,8.371605e-02,9.756455e-02,-2.305645e-02,-2.081208e-01,6.868318e-01,-7.075029e-02,-2.194405e-02,4.266351e-01,-1.478925e+00,-7.167553e-01,3.414610e-02,-1.190031e-01,8.243390e-01,-3.905430e-01,-1.222713e+00,4.452562e-01,1.332993e-02,-5.859444e-02,1.399118e+00,-2.452554e-01,7.280645e-01,6.599279e-01,1.085420e+00,5.112512e-03,-6.405611e-01,-8.528358e-03,1.990838e-02,1.976909e-01,2.294118e-01,-8.658005e-01,-5.128185e-01,-3.790637e-01,-2.413691e-03,-4.831617e-01,1.058681e+00,3.386115e-01,-3.299018e-01,-7.669483e-01,-1.611569e-01,8.114594e-01,-6.890834e-01,-1.933639e-01,2.506565e-01,-5.269315e-02,-7.664055e-02,
7.584497e-01,1.050081e+00,-2.844159e-02,1.346050e-01,2.802774e-01,-2.098821e-01,1.700623e-01,-2.887141e-01,2.606245e-02,2.016477e-01,-3.083696e-01,-1.610817e-02,4.439702e-01,5.330476e-02,-3.267685e-01,-1.082118e-03,-9.636205e-02,-8.370233e-01,1.500339e-01,3.645735e-01,-8.842056e-01,4.679527e-01,2.686483e-01,1.416297e-01,-4.913038e-01,-1.835594e-02,2.584070e-01,7.688841e-02,-1.303218e-01,1.707338e-01,-4.784247e-02,-1.600414e-01,-3.705785e-01,-1.750094e-01,5.481856e-02,-1.238441e-01,-3.993269e-01,-2.283314e-02,-6.062704e-01,-5.018036e-01,2.269237e-01,-6.068749e-01,2.951722e-01,-4.212236e-01,-8.642987e-02,-3.866651e-01,1.424629e-01,8.795265e-01,-3.550091e-01,-6.638041e-02,
-1.993915e-01,7.201873e-01,-6.700026e-01,-2.505619e-01,-5.273424e-01,7.287251e-01,7.434080e-03,-4.109195e-01,5.167481e-01,-6.221468e-01,9.196581e-03,1.669680e-02,-9.078358e-02,2.175618e-01,3.139192e+00,1.979650e-02,-3.668304e-01,-5.665855e-01,-8.216021e-02,8.891864e-01,1.196776e-01,-9.563498e-02,-6.528964e-01,1.727657e-01,2.041447e-01,-2.107308e-01,1.068862e+00,-3.480133e-01,-6.369756e-01,2.001197e-01,7.594830e-03,2.093454e-01,-3.913032e-01,-6.698564e-01,-8.453447e-02,-1.450518e-01,2.472220e-01,-9.124327e-03,2.313547e-01,-4.575445e-01,3.251988e-01,9.711737e-01,1.040616e+00,-7.697035e-02,-1.927861e-01,-4.317832e-01,5.778018e-01,1.299429e+00,-5.350345e-01,1.546764e-01,
-2.391753e-02,-1.194429e-03,-3.184307e-02,-3.404469e-02,-4.266651e-02,-3.792223e-02,-3.638279e-02,1.210420e-02,-5.464624e-02,-3.657983e-02,-4.195458e-02,8.576460e-03,1.212840e-03,-4.498247e-02,2.183200e-02,4.410030e-02,-1.683216e-02,8.568860e-03,-4.017958e-02,-8.280015e-03,2.015000e-03,-2.367198e-03,-2.972106e-02,-3.957868e-02,3.777970e-02,3.956570e-02,3.346850e-02,2.816920e-02,-2.742128e-02,2.897440e-02,-6.503513e-03,-4.004486e-02,-1.120990e-02,-6.466535e-02,-2.404885e-04,-4.079985e-02,-2.747875e-02,-3.039437e-02,-3.720957e-02,-4.894282e-02,-3.337571e-02,4.048800e-02,-4.751081e-02,-2.517794e-02,2.608300e-02,-8.186306e-03,3.406710e-02,-6.575602e-03,-1.011549e-02,-2.394698e-02,
-5.687660e-01,-3.358912e-01,1.815962e-01,3.969502e-01,-4.864700e-01,1.325951e+00,-2.724597e-01,2.799549e-01,6.466358e-01,5.658301e-02,6.560992e-02,2.963500e-02,2.208855e-03,1.717278e-01,-5.194238e-01,2.359460e-02,-1.417527e+00,7.916461e-01,-5.336420e-01,1.179462e-01,7.435584e-01,7.639778e-02,-4.662367e-01,1.334393e-01,2.679948e-01,-5.908616e-02,-7.859147e-01,3.328254e-01,1.762345e-01,7.467507e-01,4.761400e-02,2.820149e-01,-1.138510e-01,-1.848448e-02,-1.925523e-01,-4.865071e-01,4.667486e-02,-3.439716e-03,3.561494e-01,4.750809e-01,-2.313998e-01,4.348888e-01,-4.589000e-02,3.341029e-01,-1.300138e-01,5.021709e-01,-1.981916e-01,1.112637e+00,-1.212176e-01,-1.871469e+00,
-4.874073e-01,4.417506e-02,-1.327938e-01,-8.306383e-01,2.924754e-01,-2.128742e-01,-7.846138e-02,-3.981166e-02,-1.086320e-01,3.845817e-01,-1.863249e-01,5.730150e-03,2.572993e-01,3.618682e-01,6.212416e-01,4.888480e-02,-1.250018e+00,-7.815486e-01,-1.649483e-01,-1.475825e-01,-1.107157e+00,1.462421e-01,-6.680971e-01,-6.333274e-01,-3.012843e-01,-1.148862e-01,2.346867e-01,-1.943322e-01,-3.537092e-01,-5.770009e-01,4.868020e-02,-1.005726e-01,-3.205782e-03,-3.717641e-01,5.130854e-01,5.241395e-01,3.132838e-01,5.079270e-03,2.336536e-01,-5.787992e-01,1.056374e-01,-5.139803e-01,3.780866e-02,1.367816e-02,-2.948241e-02,-1.519858e-01,8.301978e-01,4.209813e-01,-1.538779e-01,1.403956e-01,
-2.298754e+00,-1.630964e-01,1.097630e+00,-1.352730e-01,-3.819610e-01,-5.707436e-01,1.460519e-01,9.797195e-01,-1.605595e+00,-6.417055e-02,4.450603e-01,3.085860e-02,-8.128780e-01,-7.336257e-01,1.461160e-01,-3.459791e-02,1.898064e-02,2.207346e-01,3.862026e-01,5.182409e-01,7.757120e-01,-1.091450e-01,1.176158e-01,8.772220e-02,-1.868101e-01,-4.652438e-01,-7.410665e-01,-1.423748e+01,-1.083354e-01,-5.424979e-01,2.102470e-02,1.166503e+00,1.700890e-01,-9.352482e-01,-4.994738e-01,-2.591109e+00,1.097361e+00,1.277290e-02,3.998185e-01,-1.841290e-01,-1.989126e-01,-1.077833e+00,2.467826e-01,6.025863e-01,3.972819e-01,2.340911e-01,1.929010e-02,-7.970860e+00,-1.986355e-01,-3.570454e-01,
-9.252664e-01,5.713096e-01,1.715338e-01,1.129518e+00,8.383448e-02,3.662381e-01,1.340133e+00,-3.065187e-01,1.150863e-01,4.749722e-01,-8.306229e-01,1.563750e-02,-8.457226e-02,-9.849190e-01,-7.817339e-02,-1.727526e-05,-2.222019e-01,7.124180e-03,8.857875e-01,-7.095701e-01,-1.213721e-01,-1.783733e+00,4.920676e-01,-1.972244e+00,-3.559906e-01,3.123807e-01,3.777188e-01,-9.585355e-02,9.226761e-01,-7.503715e-01,3.266700e-02,4.080092e-01,6.408096e-01,-1.488484e-01,-7.379898e-02,-8.911251e-01,-7.041914e-01,3.850700e-02,1.228621e-01,7.982463e-02,3.368231e-01,6.685154e-01,-1.451981e-01,3.060447e-01,1.117599e+00,1.255389e-01,1.258651e-01,6.586183e-01,-9.610776e-01,3.497014e-01,
-2.028997e-01,-8.433516e-01,-2.084328e-02,-2.409304e-01,-5.049452e-01,2.715690e-01,3.443840e-01,-4.614966e-01,-2.118483e-01,-2.762954e-01,-2.591480e-01,-3.189549e-03,2.734168e-01,3.785639e-04,-8.380162e-01,4.601750e-02,1.477594e+00,1.114643e-01,-4.264715e-01,-1.398174e-01,1.204148e+00,4.141415e-01,1.071473e+00,-2.465913e-02,-2.610452e-01,6.018723e-01,1.974386e-01,4.983552e-01,5.126043e-02,7.113350e-01,-4.349443e-02,2.470241e-01,9.959389e-02,1.464089e-01,-3.842085e-01,-7.632763e-01,-1.227564e-01,-2.631176e-02,3.288863e-01,4.062011e-01,1.073507e+00,3.557029e-01,3.997273e-02,3.250140e-01,-1.847861e-01,-1.931961e-01,5.710253e-01,7.230334e-01,-2.900501e-01,-1.219149e+00,
3.285649e-01,5.840874e-01,8.466898e-01,-6.384609e-02,1.371898e+00,-6.911485e-01,-1.903409e-03,1.269084e+00,-1.489730e-01,7.754292e-01,-4.689075e-01,-6.394065e-03,6.677644e-01,-7.981387e-01,-5.873802e-01,9.264160e-03,2.792586e-03,-4.667754e-01,-1.737631e-01,-2.162124e+00,2.998845e-01,-8.976316e-01,1.236061e-01,-7.546058e-01,9.566180e-01,-1.326815e-01,-2.065026e+00,4.399095e-01,3.761282e-01,3.937175e-02,-2.340366e-02,-1.041587e+00,3.860307e-01,7.119462e-01,-4.272831e-01,-7.736608e-01,8.071111e-03,-3.220418e-02,5.243091e-01,-2.923871e-01,-1.236556e-01,-1.650194e-01,-9.927016e-01,-2.251003e-02,3.057916e-01,7.639332e-02,-1.298552e-01,1.303503e+00,-1.254179e-01,-2.487718e-02,
-3.064425e-01,-1.780849e+00,2.080219e-01,-2.275023e-01,5.104276e-01,-1.253448e+00,-5.774808e-04,-3.771118e-01,-1.393775e-01,1.050112e-01,-6.612167e-01,2.693570e-02,3.823798e-01,-3.816057e-01,-2.045230e-01,1.314680e-02,7.990007e-02,3.057926e-01,9.505263e-02,-5.690039e-01,2.496654e-01,-1.670155e-01,1.461168e-01,1.115284e+00,-6.879699e-01,1.318503e-01,1.457924e-01,9.846501e-02,1.180092e-01,1.460102e-01,-3.766483e-02,-3.666635e-01,-5.797169e-01,2.159618e-01,1.859519e-01,-4.156225e-01,8.101072e-02,-1.672154e-02,-2.744837e-01,-1.291414e+00,6.076853e-01,-6.494181e-01,-5.664732e-01,-6.888053e-01,9.473020e-02,-3.248558e-02,-3.539811e-01,-1.188908e+00,4.425330e-01,-2.795214e-01,
-2.501674e-01,-9.988538e-01,-1.590979e-01,4.733107e-01,-3.404551e-01,7.965068e-02,1.395898e-01,1.413203e-01,4.026836e-01,5.931647e-02,-3.840860e-01,3.681730e-02,1.406209e-01,-1.256837e-01,8.892126e-02,-1.059551e-02,1.488443e-02,5.090209e-01,3.328264e-01,-2.174402e-01,5.648708e-01,-3.541119e-01,-4.386656e-01,1.031349e+00,-4.838167e-01,-2.623657e-01,2.309075e-01,2.851709e-01,3.346241e-01,-1.402664e-01,-1.935071e-02,-1.325909e-01,4.788613e-01,-2.939960e-03,-6.047254e-01,3.079158e-01,-9.069057e-02,1.114690e-02,5.393016e-01,3.181567e-01,-1.554847e-01,1.793410e-01,-5.729458e-01,9.801559e-02,4.274858e-02,-2.905959e-01,-1.484786e-03,1.572565e+00,-5.808716e-02,-6.712469e-01,
1.169441e-01,
-4.866657e-01,
-1.507971e-01,
-4.113727e-02,
-3.384137e-01,
-2.927281e-01,
1.040928e+00,
5.931433e-01,
1.715411e-01,
-8.310720e-01,
-6.372085e-01,
-3.835627e-01,
-8.086550e-01,
-4.138025e-01,
-4.954784e-01,
-4.110070e-01,
-8.824546e-02,
-1.641521e+00,
-9.009173e-01,
-3.167652e-01,
1.600517e-01,
-2.206229e-01,
3.298122e-01,
1.674395e-01,
-1.364194e+00,
4.425159e-01,
-3.170999e-01,
-2.892157e-01,
-1.448746e-01,
3.530943e-01,
-6.740907e-03,
9.859469e-02,
2.773385e-01,
-6.152231e-02,
-6.308997e-01,
6.126549e-01,
7.592913e-02,
-2.309064e-01,
3.467275e-01,
8.592991e-01,
-1.215750e-01,
-2.376076e-02,
1.605398e+00,
4.062816e-01,
-6.116850e-01,
-8.197852e-01,
1.133561e-01,
8.057804e-01,
8.367162e-01,
5.998558e-01,
-2.769104e+00,-3.210077e-01,-4.246710e-01,-4.190030e-01,-2.740336e+00,-5.754589e-02,1.523695e-01,-7.719026e-03,-1.126212e-02,1.776332e-01,-1.169483e+00,1.457279e-01,3.388123e-01,-3.051468e-01,-4.153011e-01,2.096025e+00,-1.190062e+00,1.212927e-01,-2.884381e-01,3.420870e-01,-1.952375e-01,-5.049441e-02,2.565553e-01,2.147221e-01,1.401922e+00,4.806709e-01,1.108147e-01,-4.092777e-01,-4.691454e-01,1.034243e-02,-2.885483e-02,7.058341e-01,5.145229e-01,2.085432e-01,-3.008547e-01,-2.863297e+00,-4.135666e-01,-3.481832e-01,-3.172142e-01,-1.931662e-01,1.440828e-01,4.379920e-02,-8.491114e-01,2.452684e-01,-8.835907e-02,1.023160e+00,4.148564e-01,1.408702e-01,-5.042427e+00,4.648492e-02,
1.529622e-01,4.685501e-02,1.292089e-02,-3.149204e-02,2.707149e-02,-5.928804e-02,-5.752509e-02,4.229118e-02,-1.410719e-01,-2.566678e-02,-1.134009e-01,1.051589e-01,9.700210e-02,-9.052948e-02,-3.840880e-01,2.524118e-01,-2.688496e-01,-3.948835e-02,1.503130e-01,-9.966918e-03,-4.999527e-02,-2.052254e-02,-1.856204e-01,-1.724498e-01,5.878581e-01,1.514523e-01,-9.705772e-02,4.440381e-02,1.862223e-01,1.281794e-01,-4.587466e-02,2.107195e-01,-2.200482e-01,-1.151962e-01,2.101983e-01,-9.562983e-02,-1.940880e-01,1.721305e-01,-1.167361e-01,6.466484e-03,-2.281182e-01,-2.758062e-02,-1.686985e-01,-1.044183e-01,1.682490e-01,2.216797e-01,1.002410e-01,-1.541622e-01,-5.065684e-01,1.125790e-01,
1.221982e-01,6.388867e-01,1.147926e+00,-5.402855e-01,2.930247e-01,3.599615e-01,-1.355088e+00,-2.355507e-01,6.031841e-01,1.707391e-01,6.665428e-03,1.011232e+00,2.641897e-01,3.902456e-01,2.482150e-01,-7.948571e-01,-1.945866e+00,-1.615091e-01,-9.008236e-02,6.263347e-01,7.977978e-01,7.670606e-02,-8.099384e-01,7.548084e-01,7.835992e-02,6.627809e-01,-1.229614e-01,6.955909e-01,2.484192e-01,6.832426e-01,1.757520e-03,3.091121e-01,2.351114e-01,-5.821550e-01,-4.431657e-01,-7.869364e-01,7.578934e-02,1.964416e-01,-3.666264e-01,8.135578e-01,2.931030e-01,-8.095883e-03,-8.751900e-01,1.818825e-01,5.742536e-01,-4.332932e-01,-2.551846e-01,-7.667897e-01,-2.928609e+00,6.181722e-01,
-5.473235e-02,-2.622308e-01,3.846184e-01,-4.739771e-01,-1.253788e+00,3.405699e-01,7.308786e-02,-7.517228e-01,-1.869079e-01,3.386823e-01,2.628045e-01,-8.983361e-01,2.225694e-02,-1.143362e+00,1.028219e+00,-9.059808e-01,-4.690960e-01,1.938206e-01,-7.760607e-01,4.290757e-01,8.701214e-01,8.844662e-03,1.986473e-01,2.635927e-01,4.943444e-01,-7.744868e-01,-1.737126e-01,-1.483190e-01,4.636319e-01,5.514731e-02,4.325720e-02,-6.995338e-01,-4.438486e-01,1.548052e-01,-3.728898e-01,1.744717e-01,-2.398345e-01,4.051457e-01,-4.057623e-01,1.627689e-01,-3.630719e-01,-2.390599e-02,1.725223e-01,1.812600e-01,5.447646e-01,-2.479766e+00,6.181529e-01,-9.494591e-01,1.050326e+00,-3.798722e-01,
1.166595e-01,-1.559719e-01,4.247122e-02,-4.641849e-01,4.399212e-01,4.240984e-01,-3.787825e-01,-2.822210e-01,-4.087421e-01,2.561877e-01,8.436091e-01,-2.034209e-01,-3.856402e-01,2.404553e-01,-6.715764e-01,1.635609e-01,2.571034e-01,5.448519e-02,-4.061619e-01,-2.948684e-02,1.609591e-01,2.805411e-01,-1.890565e-01,-4.431307e-01,1.586375e-01,-3.225538e-01,8.024112e-02,-1.064175e+00,-2.129360e-01,-4.648060e-01,-3.592969e-03,-8.519861e-01,-2.981005e-01,1.517355e-01,-2.867015e-01,-7.395287e-01,-3.201034e-02,3.677483e-01,1.422030e-01,2.708591e-01,1.850663e-01,-8.939874e-03,2.821953e-01,6.137016e-01,7.804630e-01,-4.067305e-01,6.715232e-01,1.714940e-01,7.029610e-01,-8.088034e-04,
-4.287849e-01,1.972437e-01,2.337161e-01,3.955544e-01,-2.819738e-01,3.778529e-01,-1.829805e-01,1.352054e-02,2.549277e-02,2.302314e-01,9.022115e-01,8.809307e-02,2.224608e-01,-3.768935e-01,-1.686893e-01,-1.003656e+00,-5.565625e-01,-8.843703e-01,-3.170762e-01,-6.302590e-01,-3.114534e-01,1.808353e-01,9.768192e-01,4.154985e-02,1.457021e-01,-6.083056e-01,-2.086636e-01,9.018973e-02,7.580163e-02,-2.321661e-01,2.333890e-02,-1.178907e+00,7.537735e-01,5.278245e-01,9.543888e-01,5.731866e-01,-1.621024e-01,1.888706e-01,5.394664e-01,-5.510747e-01,5.241774e-01,-2.181128e-03,-2.749884e+00,9.641878e-01,1.353509e+00,-1.426529e+00,-2.128989e-01,6.865563e-01,-6.702910e-01,4.816594e-01,
-4.544391e-02,-2.219259e-02,-4.425560e-02,-2.360647e-02,3.437550e-02,-1.364606e-02,-4.204038e-02,-4.649544e-02,-1.014993e-02,-3.698277e-02,-4.739792e-03,-1.382198e-02,-1.076741e-02,-4.937676e-02,-5.926187e-03,-2.670368e-02,-3.069009e-02,-2.903457e-02,-3.394252e-02,-5.094946e-02,2.806380e-02,-3.977438e-02,-3.671342e-02,-2.396522e-02,-5.478415e-02,-1.821504e-02,-2.042675e-02,2.176850e-02,-1.273554e-02,-3.091473e-02,-4.224782e-02,3.483430e-02,-3.911085e-02,-2.011765e-02,2.016420e-02,-1.303300e-02,-9.456090e-03,1.606450e-02,6.412220e-03,-3.390482e-02,1.325620e-02,4.378190e-02,-2.714307e-02,3.044150e-02,-2.469157e-02,3.624650e-02,1.583060e-02,-1.428816e-02,7.443990e-03,2.062640e-02,
-1.949955e-01,-7.246061e-02,-1.369539e-01,-2.544553e-01,2.824223e-01,3.337499e-01,2.062860e-01,-2.747092e-01,-5.838493e-01,5.774080e-02,1.885745e-01,-3.780625e-01,1.049783e-01,1.117110e-01,-3.730856e-01,1.623238e-01,-2.216797e-01,-5.329251e-01,2.360389e-02,3.266357e-01,-7.834190e-02,-8.005469e-02,-6.360692e-01,8.656319e-01,1.039049e+00,-3.035389e-01,5.670378e-02,5.630453e-01,-7.160127e-01,8.556616e-01,1.792390e-02,-9.616254e-02,2.408704e-01,-2.164040e-01,-7.538714e-01,6.955024e-02,5.890412e-01,3.179332e-01,-4.562148e-02,5.463622e-01,2.389595e-01,1.852650e-02,2.302091e-01,1.868802e-01,-2.269111e+00,7.190802e-01,-1.441938e-01,-2.324051e-02,-6.871604e-01,4.578633e-03,
-1.069562e-01,8.890797e-02,-2.528032e-01,-3.244541e-02,-3.021443e-01,4.657271e-01,-6.043937e-01,8.462639e-02,1.726905e-01,-4.870128e-02,6.961544e-01,-5.036988e-01,5.876697e-02,-7.733971e-01,-5.396479e-01,2.647922e-01,-1.079430e-01,-2.183796e-01,-9.328967e-01,6.045977e-02,-8.805233e-01,7.047943e-02,-2.835374e-01,-5.776137e-02,-6.728485e-01,-4.637173e-01,-4.641438e-01,-3.155230e-01,-3.412483e-02,5.782529e-01,2.035630e-02,-1.776204e-01,-7.821130e-01,3.518888e-01,2.241903e-01,7.480291e-02,-3.728827e-01,6.691564e-01,6.812223e-01,8.326180e-02,-1.088329e-01,-4.282266e-02,-1.598096e-01,3.237327e-01,9.287779e-01,-2.178635e-01,1.191577e-01,1.209939e-01,1.785605e+00,-6.504192e-02,
2.011336e-01,-4.422789e-01,-2.515929e-01,1.482820e-01,6.148995e-01,-8.228309e-02,4.033192e-01,-2.611184e-01,1.376585e-01,2.255580e-01,1.740855e-01,2.270169e-01,-4.782485e-01,2.977376e-02,3.652768e-01,-3.244500e-01,2.687919e-01,5.693125e-01,7.635750e-01,-3.507356e-01,6.825851e-01,-1.479440e-01,3.778303e-02,-1.481222e-01,3.634762e-01,-9.408524e-01,-7.265475e-01,-5.270366e-01,5.660591e-01,1.292546e+00,2.046520e-02,2.607399e-01,1.196427e-01,-1.327557e-01,-4.285418e-01,-3.173275e-01,5.530939e-02,-1.612094e-01,-1.783836e-01,-1.014210e-01,-3.517604e-01,-2.540310e-02,5.565559e-02,2.049358e-01,-1.004990e+00,-3.113185e-01,-8.770017e-02,-2.633071e-01,1.328173e-01,6.204312e-01,
9.474805e-03,1.549556e-01,6.041054e-01,-5.600100e-01,-7.284727e-01,-4.708841e-03,-3.234437e-01,-1.650451e-01,-2.356146e-01,-3.995823e-01,8.642923e-01,-6.486445e-01,-9.696553e-01,-4.611773e-01,2.867340e-01,8.695066e-01,4.393934e-01,6.740860e-01,-1.558967e+00,1.579073e-01,2.888882e-02,9.447781e-02,-5.708178e-01,-5.426534e-01,2.415393e-01,-1.815993e-01,-2.825650e-01,-1.272627e+00,5.757746e-01,-4.045510e-01,-2.244545e-02,-1.202937e+00,1.762855e-02,3.218483e-01,-5.713781e-01,-2.181344e-01,-8.568889e-01,8.733162e-02,5.473574e-01,2.129848e-01,-3.720257e-01,-3.115286e-02,3.436524e-01,3.984944e-01,9.027839e-01,1.307997e-02,3.740398e-01,1.304588e-01,3.928451e-01,-1.064330e-01,
6.397711e-02,4.708303e-02,-2.413187e-01,1.433765e-01,2.733059e-01,2.810913e-01,-4.556586e-01,-3.807343e-01,8.104602e-01,-2.343095e-01,-1.726218e-01,4.283261e-01,2.053356e-01,6.427071e-01,2.032978e-01,5.241258e-01,5.900127e-01,-4.692628e-02,-3.638506e-02,1.359726e-01,-6.465495e-01,2.174701e-01,-3.294743e-01,2.903565e-01,-3.818406e-01,4.061201e-01,-4.538406e-01,-3.540574e-02,-1.529787e-01,3.626022e-01,-1.599229e-02,-5.245821e-02,1.591595e-01,-4.018462e-01,8.998904e-02,-8.800134e-03,-1.406516e-01,5.529225e-01,-2.148075e-01,5.019682e-01,2.329582e-01,4.112020e-02,-3.775444e-02,4.709004e-01,5.688348e-01,1.590812e-01,-9.461208e-02,-1.800955e-01,-1.624742e-01,3.248922e-01,
-2.111963e-01,-5.087623e-01,9.829739e-01,-5.139051e-01,8.954322e-01,1.376682e-01,2.974078e-01,-4.171170e-01,-8.969559e-03,6.631279e-02,9.585222e-01,-2.193292e-01,1.654645e-01,-1.026041e+00,-3.208285e-01,-1.726661e-01,-2.903910e-01,-6.003458e-02,5.455337e-01,1.799185e-01,6.435674e-01,4.193483e-01,-6.336148e-02,4.612340e-01,-9.390458e-01,3.155245e-01,1.707229e-01,-3.228700e-01,1.595922e-01,-4.859736e-01,-3.946136e-02,1.024252e+00,-1.339381e-01,8.278543e-02,1.603571e-01,1.596768e-01,-1.829537e-01,-6.421793e-01,-2.085080e-02,7.839996e-02,3.943002e-01,-3.054166e-02,-1.736549e-01,7.979036e-01,2.632861e-01,-1.193729e-01,3.087956e-01,2.491959e-01,1.162370e+00,2.513241e-02,
1.189530e-01,-3.828015e-02,-2.537796e-01,4.490172e-01,-9.549326e-01,-5.061770e-01,3.948062e-01,1.793245e-01,-1.940015e-01,1.568093e-01,-7.046374e-01,-8.864674e-01,-4.151878e-01,-6.056225e-01,1.975560e-01,1.077447e+00,-3.327229e-01,8.148175e-01,1.637881e-01,2.827812e-01,-7.788417e-01,3.195597e-01,-1.573037e+00,-8.712574e-01,1.513095e-01,-2.596568e-01,4.211402e-02,-4.651181e-01,3.020696e-01,-1.128118e-01,2.002260e-02,-1.844297e-01,-9.331522e-02,2.074647e-01,-8.212375e-03,-9.588321e-01,-9.320377e-01,2.938547e-01,8.261344e-01,-1.166691e-01,-7.810850e-01,-1.707462e-02,2.438062e-01,-5.123518e-02,1.103870e+00,7.465702e-02,8.745996e-02,4.404527e-01,-1.577002e-01,-1.286161e-01,
-3.018260e-01,-1.107590e-01,9.714177e-02,5.920574e-01,9.323194e-02,1.549450e-01,-1.739485e-01,1.051403e-01,1.568484e-03,-7.814847e-03,2.572178e-02,1.263318e-01,1.822785e-01,5.999237e-01,-2.035229e-02,6.568395e-01,-4.899350e-01,-3.818344e-01,3.130819e-03,-1.582204e-01,-7.995756e-01,2.060522e-01,1.159080e+00,7.067003e-01,2.109347e-01,-4.872054e-01,7.477151e-02,1.077583e-01,-2.556388e-01,7.254650e-02,3.954430e-02,2.515472e-02,1.103995e-02,2.696097e-01,-3.944024e-02,5.667493e-01,-3.834473e-02,-1.766069e-01,3.013635e-01,-3.101886e-01,2.761883e-01,3.033200e-02,-3.058853e-01,5.167623e-01,1.154630e-01,-5.519543e-01,-3.175294e-01,6.185128e-01,-6.864177e-01,3.359488e-02,
-1.671814e-02,1.849770e-02,5.236900e-02,-2.184548e-02,-1.836892e-03,1.999790e-02,-1.751433e-02,1.345520e-02,3.792020e-02,2.287890e-02,-3.182865e-02,1.425930e-03,1.115270e-02,3.018050e-03,-2.765787e-02,4.777710e-02,-2.791681e-02,-2.181179e-02,7.448840e-03,-7.341685e-02,1.352390e-02,-4.820286e-02,-1.987488e-02,-3.131128e-02,-1.195634e-02,-7.288022e-02,1.357590e-03,1.981280e-02,-4.140373e-03,-2.671583e-02,3.455490e-02,8.950450e-03,1.005870e-02,-7.655115e-02,2.139270e-02,-5.489776e-03,-2.820840e-02,1.741500e-02,-8.955118e-03,2.106770e-02,-5.070597e-02,1.566580e-03,-4.840804e-02,-5.650199e-02,-1.939150e-02,4.510150e-02,-4.948377e-02,-4.358198e-03,1.007950e-02,-3.874211e-03,
-1.423635e-01,-2.460783e-01,-3.301685e-01,-1.444595e-01,1.163086e-01,2.920441e-01,-6.801914e-01,-3.474252e-01,7.932236e-01,-2.929649e-01,-5.297465e-01,6.404631e-01,5.948095e-01,1.118687e-01,-3.267026e-01,1.188083e+00,-1.286563e+00,6.708441e-01,-6.022204e-01,6.007126e-01,6.824265e-01,2.880827e-01,-1.092871e-01,4.268546e-01,4.269680e-02,5.509985e-02,-1.059880e-01,-6.360445e-02,-5.220884e-02,-7.697118e-01,-4.250965e-02,-3.318763e-01,-1.859263e-01,-1.526141e-01,2.385647e-01,-4.579328e-02,-9.999126e-02,3.972267e-01,4.589941e-01,-4.700281e-01,2.558551e-01,-1.558277e-02,-2.037680e-01,1.902936e-01,-6.029878e-01,3.482242e-01,1.088978e+00,-2.320199e-01,-1.590052e+00,4.420235e-01,
-1.638792e-01,-2.183435e-02,3.426212e-01,1.338776e-02,7.017114e-01,3.619051e-01,-1.795063e+00,-3.868432e-02,2.513910e+00,5.351975e-01,-3.163593e-01,3.535016e-01,1.614846e-01,-8.213220e-01,1.098609e+00,5.627730e-01,-3.704766e+00,7.623152e-02,-2.308693e-01,5.231211e-01,-2.129525e-01,4.043203e-01,4.323804e-01,4.520666e-02,5.269245e-01,-4.741430e-01,4.014529e-01,-1.889360e+00,-1.498310e+00,4.807585e-01,-1.946607e-02,-5.153626e-01,4.134829e-01,-2.645143e-01,2.401953e-01,-4.083363e-01,-1.631808e-02,9.753060e-02,5.408856e-02,-2.149002e+00,3.537862e-01,4.733120e-02,-6.276871e-01,-8.873017e-01,4.750905e-01,-7.238789e-01,-2.682501e-01,3.911254e-01,-9.602895e-02,2.284662e-01,
5.998349e-02,4.230791e-02,-9.575137e+00,-3.595009e-02,-4.566886e-01,-9.348270e-02,4.970251e-02,-2.558026e-01,5.457744e-01,1.795431e-01,2.891881e-01,3.609477e-01,3.708203e-01,3.061330e-02,7.000781e-01,2.591493e-01,-6.551768e-01,-8.504205e-02,6.245520e-01,1.284314e-01,6.716436e-01,4.325235e-01,4.593775e-02,7.188738e-01,-5.215281e-01,3.868341e-02,-1.559142e+00,-1.957144e+00,4.172659e-03,-6.051064e-01,2.384230e-02,5.097447e-02,-2.712721e-01,-5.477457e-01,-2.987051e-01,-9.868811e-02,-3.884841e-01,-8.682653e-02,-4.048559e-02,-1.402798e+00,5.306104e-01,2.332470e-02,-7.649943e-02,3.962761e-01,1.833698e+00,3.685214e-01,2.126347e-01,1.049889e-01,1.355333e+00,9.567440e-02,
-2.028286e-01,-1.266972e-01,5.847315e-02,-1.696379e-01,1.059541e-03,5.368766e-01,-7.869035e-01,-3.925072e-01,5.636816e-01,1.786827e-02,6.450164e-01,-6.813841e-02,-7.773575e-02,5.146675e-01,1.570576e-01,4.682898e-01,4.787028e-01,2.249449e-01,-8.191724e-01,-5.936086e-01,1.719774e-01,1.772465e-01,-7.600679e-02,6.979994e-01,-1.686532e+00,7.571171e-03,1.995329e-02,1.227535e+00,-2.180201e-03,-1.193873e+00,3.907450e-02,7.990656e-01,1.965647e-01,-1.161057e-01,-6.631624e-02,2.161752e-01,5.992001e-01,5.916670e-02,-2.538558e-02,2.796568e-01,1.011972e-01,-2.051101e-02,2.156262e-01,8.353097e-02,-8.947404e-01,-8.574904e-01,-2.977524e-01,1.474041e-01,3.027545e-02,-3.016211e-01,
-1.412975e-01,1.552880e-01,2.930350e+00,-6.402202e-02,3.093835e-01,3.197800e-01,2.211369e-01,1.035960e+00,9.247156e-01,2.254319e-01,-6.780716e-01,2.202598e-01,-3.274895e-01,-1.162994e+00,9.200334e-01,7.066871e-01,1.578300e-01,2.188174e-02,2.400301e+00,2.759563e-02,-4.364285e-01,4.389668e-01,1.874098e-01,3.807638e-01,-9.185159e+00,-3.201497e-01,1.565641e-02,4.967002e-01,-3.175191e-01,-2.445076e+00,-4.826704e-02,-9.244023e-01,-2.748771e-01,3.420094e-01,-1.095755e+00,-5.682201e-02,2.344908e-01,-1.271782e+00,1.789825e-01,1.180102e-01,-1.450776e-01,2.572170e-02,-5.177367e-01,-2.877954e-01,-8.098591e-02,3.103835e-01,2.275746e-01,6.023141e-01,2.227972e-01,2.075490e-01,
-5.359811e-01,-1.165702e-01,2.249510e+00,-5.404152e-01,1.499242e+00,4.107611e-02,1.502161e-01,2.392786e-01,5.200519e-01,-3.014624e-01,9.804343e-02,-3.809754e-01,-1.087608e+00,9.653527e-01,8.755791e-01,-1.999096e+00,-3.516801e-01,6.905624e-01,-3.923538e-01,-2.785872e-01,-5.980056e-01,7.599530e-01,1.523113e-01,6.988210e-01,-4.696779e-01,-6.509600e-01,-3.094769e-01,1.251830e-01,4.999836e-01,-4.075236e-01,-2.527630e-02,5.090269e-02,2.913579e-01,-6.480224e-01,1.472012e-01,6.099289e-01,-3.639433e-01,-2.996589e-02,8.772690e-02,-1.874538e-01,-6.571183e-01,1.089510e-02,-9.872209e-02,6.158203e-01,5.733215e-01,-1.755480e-02,6.277472e-01,-2.115383e-01,-7.972488e-01,1.310752e-01,
6.910736e-02,5.832057e-02,2.157494e-01,-1.653675e-01,-5.062162e-01,-1.318946e-01,-1.932084e-02,5.121678e-02,5.379543e-02,1.387925e-01,-5.168849e-01,-5.377774e-01,1.049957e-02,-2.767538e-01,-5.556479e-01,1.070904e-01,2.321365e-01,3.524631e-01,1.756092e-01,3.076958e-01,1.581359e-01,9.260096e-02,-7.694646e-01,-5.395933e-01,-2.744981e-01,2.029230e-01,8.599157e-02,3.059176e-01,-6.668065e-02,-4.445665e-01,-1.913359e-03,1.545074e-01,-1.427436e-01,6.790184e-02,1.480385e-01,-2.797439e-01,-2.036372e-01,-6.594729e-02,3.760302e-01,1.591130e-01,-3.141840e-01,-3.876972e-03,7.404214e-02,9.839195e-02,4.498656e-02,3.521547e-01,1.456028e-01,-1.451610e-01,-3.144487e-01,2.357556e-01,
-1.348116e-01,-3.256252e-01,-2.544903e-01,7.914056e-04,4.020902e-01,-2.811107e-01,-2.308611e-01,2.176661e-02,5.441040e-01,-3.899415e-01,8.919120e-01,8.136933e-01,3.885209e-03,9.075058e-01,1.169965e-01,4.349113e-01,8.584665e-01,6.138626e-01,6.965988e-01,-1.504799e-01,-3.447534e-01,6.946217e-02,1.725397e-01,1.099010e+00,5.583020e-01,3.777568e-01,8.453046e-02,4.124033e-01,1.635110e-01,3.265769e-01,3.927610e-02,-1.302589e-01,5.297325e-01,-1.648175e-02,1.304165e-01,-9.098896e-01,-1.122844e-01,-2.810015e-01,-3.449820e-01,1.378739e-01,-1.913246e-01,2.302710e-02,2.120701e-01,3.579698e-01,3.517608e-01,-6.289324e-01,-1.962603e+00,1.020731e-01,3.792584e-01,3.012248e-02,
-3.289665e-01,-2.477294e-02,4.477232e-01,2.248528e-01,-5.195031e-01,1.821476e-01,-8.812185e-02,-5.793050e-02,2.438978e-01,1.823425e-01,6.211029e-01,1.140914e-01,1.411796e-01,-1.167474e-02,-2.187710e-01,-1.105890e+00,-2.230712e-01,-3.147680e-01,-3.031568e-01,-2.585207e-01,-1.476989e-01,2.917320e-01,6.110409e-01,4.626328e-01,-7.765993e-01,-2.097224e-01,1.015716e-01,3.796774e-01,-3.912877e-02,-2.865141e-01,4.072570e-02,-6.890092e-01,2.705020e-01,3.390218e-01,3.810238e-01,5.544273e-01,4.161514e-02,1.555085e-02,4.649181e-01,-1.555032e-01,3.433257e-01,1.992640e-02,-8.089136e-01,8.808172e-01,4.591030e-01,-6.253315e-01,-3.931304e-01,5.307763e-01,-6.918747e-01,1.135123e-01,
-2.710702e-01,-2.135725e-01,-1.144505e+00,2.242145e-01,1.645809e-01,8.914174e-01,2.998542e-01,-1.241583e+00,-1.277993e+00,1.415890e+00,-4.484393e-01,7.839502e-01,-1.199775e+00,-3.669622e+00,-1.896714e+00,-1.685822e+00,-8.013657e-01,-2.584888e-01,2.353589e+00,4.476424e-01,1.027996e+00,1.405297e-01,-2.256740e+00,-1.125934e+00,-1.492491e+00,3.398861e-02,1.491249e+00,-2.544079e-01,5.365400e-01,-1.218150e+00,-3.581825e-02,2.090796e+00,7.926782e-01,5.728064e-01,-5.274207e-01,-1.442093e+00,-1.536708e+00,-1.362494e+00,-1.048077e+00,-4.791282e-01,1.185127e+00,5.129830e-02,3.990735e-01,-1.039579e+00,-1.185262e+00,1.434698e+00,3.886160e-01,1.895351e-01,3.546805e+00,-3.494985e-01,
-7.836878e-01,-4.625833e-01,-3.705466e-02,-2.738172e-01,-3.581269e+00,4.108668e-02,-3.009454e-01,2.630165e-01,7.149230e-01,3.348130e-01,-5.608123e-01,3.555574e-01,6.560867e-01,3.912240e-01,-2.037443e+00,1.465880e+00,1.119560e+00,8.478587e-01,-1.141364e+00,-9.484271e-02,7.733344e-01,-2.481414e-02,1.764828e-01,4.536438e-01,-1.140457e+00,-1.277324e+00,-2.067869e-01,-2.165132e+00,-4.515417e-01,3.058556e-01,4.201330e-02,-4.918281e-01,-2.056498e-01,-2.726564e-01,4.184182e-01,1.071821e-01,-1.745088e-01,1.729141e-01,2.994148e-01,-2.124241e+00,1.814055e-01,-4.830401e-02,-3.409362e-01,8.805321e-02,-4.955206e-02,-1.537017e-01,2.324615e-01,-1.616709e-02,-5.855148e+00,1.058125e+00,
3.035412e-01,1.540416e-01,-9.215482e-02,3.668175e-01,-2.639746e-01,-1.864691e-01,5.066868e-02,1.256092e-01,-1.643911e-01,3.597923e-02,-1.056018e-01,-1.414973e-02,-1.387224e-01,-1.658825e-01,-5.676144e-01,4.418927e-01,-1.254653e-01,4.094288e-01,4.581267e-02,-5.741106e-02,-2.239900e-01,-4.654488e-02,-8.862861e-02,5.408798e-02,-7.445571e-01,5.955503e-02,-6.823781e-02,-1.465350e-01,-9.302146e-02,1.424132e-01,2.644680e-02,-1.869223e-02,-1.554795e-01,-1.606192e-01,1.797577e-01,-1.554229e-01,-1.322396e-01,3.420776e-01,3.542110e-02,-1.205862e-01,-2.585866e-01,-4.402168e-02,-8.172771e-04,-3.070028e-02,3.067098e-01,3.978659e-01,4.789883e-02,-5.388321e-02,1.633714e-01,4.468747e-02,
-8.178508e-02,1.320733e-01,3.620331e-01,8.309243e-02,7.032956e-01,4.472874e-01,-6.854485e-01,1.611209e-01,2.592354e-01,2.125464e-01,7.938592e-01,-6.402285e-01,4.375717e-01,-1.669887e-01,-9.288725e-02,1.441656e-01,-6.713818e-01,3.845092e-01,-1.956166e+00,9.139282e-01,5.805724e-03,1.231919e-01,-3.097962e-01,3.566680e-01,-1.844833e-01,-7.323939e-02,4.486755e-02,-4.642292e-03,2.178698e-01,-6.707668e-01,-2.024207e-02,-8.830179e-02,-2.211997e-01,-8.038686e-01,-1.874847e-01,-1.380437e-01,3.061155e-02,-3.581228e-01,2.394067e-01,4.705616e-01,-2.959282e-01,1.492570e-02,-1.956372e-01,2.443682e-01,3.716361e-01,-7.278721e-02,2.049377e-01,-2.832109e-01,-1.041587e+00,-1.409297e-01,
-3.935558e-01,-5.633883e-01,-7.250581e-01,-1.171594e-01,8.960062e-01,2.709642e-01,-2.266659e-01,7.368939e-02,3.066402e-01,1.020661e-01,6.776869e-01,1.116664e-01,-3.018755e-01,-1.324652e-01,-7.180336e-01,7.622377e-01,1.037694e-02,5.001912e-01,3.044888e-01,2.226489e-01,-3.800762e-01,1.236750e-01,4.240160e-01,2.718345e-01,9.125485e-01,9.239255e-02,1.127757e-01,9.598121e-02,8.709607e-02,-5.524631e-02,1.804150e-02,5.085553e-01,-1.730802e-01,2.137981e-01,-1.170533e-01,7.617168e-01,2.685560e-01,-3.159257e-01,2.926508e-01,8.656234e-02,4.143319e-02,-3.536319e-03,4.284790e-01,4.629613e-01,-6.822699e-01,4.021116e-01,4.849518e-01,2.169963e-01,3.297329e-01,-5.385242e-01,
-4.318017e-01,-4.907919e-01,8.420095e-01,2.398499e-01,2.766601e-01,1.749713e-02,7.073668e-02,-1.206707e-01,3.407971e-01,2.448979e-01,1.029965e-01,-6.291003e-02,4.970426e-01,4.801953e-02,7.498173e-01,-1.123895e-01,-2.096452e-01,-5.622286e-01,-2.297703e-01,-1.469264e-01,-5.125043e-02,3.937399e-01,8.977511e-01,4.174909e-01,-6.189497e-01,-2.270068e-01,5.739160e-01,8.153646e-01,-6.130168e-01,-8.230895e-01,-2.934769e-02,6.851566e-01,8.732700e-01,5.284590e-01,-9.287633e-01,5.766165e-01,4.032759e-01,-7.885412e-01,4.268824e-01,3.438902e-01,4.627192e-01,1.723130e-02,7.543750e-01,-1.137233e-01,-6.433370e-01,-5.107718e-01,-8.945879e-01,7.408450e-01,-9.795331e-01,-1.072848e-01,
1.732711e-01,7.474781e-02,-2.129793e-01,-2.341489e-01,2.816579e-02,-1.842938e-02,-2.590749e-01,5.577539e-02,2.324935e-01,-1.378253e-01,-2.071824e-01,-7.695913e-02,-1.597695e-01,1.311576e-01,-4.125407e-01,1.123205e-01,1.660119e-01,5.955219e-01,1.563974e-02,4.837293e-01,5.056698e-01,-2.453645e-01,-8.797837e-01,-3.609151e-01,8.932418e-02,3.837504e-01,-6.461107e-01,-4.248719e-01,1.991079e-01,-1.633838e-01,2.187710e-02,-4.184601e-02,-6.555960e-01,-4.851537e-01,5.133192e-01,-3.649146e-01,-9.177897e-02,1.318540e-01,-2.770134e-01,-2.058033e-01,-3.161307e-01,1.813920e-02,-1.624475e-01,-3.963409e-01,2.568571e-01,3.897777e-01,9.985238e-01,-6.994946e-01,9.155093e-02,-2.093980e-02,
-1.051743e-01,-2.947664e-01,-4.369291e-01,3.654504e-01,-1.363493e-01,1.909018e-01,1.769509e-01,-6.816066e-01,-3.759675e-01,3.314591e-01,-6.061055e-01,-3.351424e-01,-2.988566e-01,8.157439e-01,-1.502760e-02,3.729394e-01,2.603907e-02,-2.047537e-01,-3.265821e-01,1.382269e-01,-1.124987e-02,2.153080e-02,4.440423e-01,1.686265e-01,-1.068872e+00,-3.491391e-01,-1.618099e-01,-4.219735e-01,-3.886633e-01,-5.366598e-01,1.375820e-02,9.294589e-02,-6.816591e-01,6.747059e-02,1.287058e-01,3.117599e-01,3.592815e-01,1.957819e-01,-2.422302e-02,2.658081e-01,2.556934e-01,3.429860e-02,-3.770078e-01,1.628708e-01,-1.989641e-02,1.179830e+00,9.242148e-01,1.120835e-01,-9.546616e-01,2.102097e-01,
5.928113e-02,2.407045e-01,7.076820e-01,-4.544381e-01,-3.602095e-01,1.762509e-01,-3.034586e-01,6.775178e-02,3.009949e-01,-1.312457e-02,6.393715e-01,2.582150e-01,2.502775e-01,4.038635e-02,-1.182615e+00,8.193165e-01,3.818754e-01,6.487055e-01,-6.057162e-01,3.040149e-01,6.360487e-01,-5.787096e-02,-5.112807e-01,5.161890e-01,-2.615973e+00,2.423089e-01,-4.690053e-02,1.817095e-01,1.749075e-01,1.275246e-01,3.253220e-02,8.511741e-02,-1.470026e-01,-1.906633e-01,2.301494e-01,-2.634132e-01,-9.478842e-02,1.968899e-01,7.312942e-02,-1.014574e-01,-3.097725e-02,3.125650e-02,2.249857e-01,2.373306e-01,-1.684616e-01,-3.520314e-01,-1.325548e-01,-3.056391e-01,4.312568e-01,1.949285e-02,
-4.378890e-01,-6.523793e-01,-4.718389e-01,-8.082327e-03,4.870370e-01,3.293806e-01,5.461194e-01,-8.448008e-01,7.483320e-01,3.808123e-01,7.135728e-01,7.086500e-02,-3.238618e-01,7.466129e-01,3.799315e-01,-5.363581e-01,5.373325e-01,-9.303938e-01,-3.473500e-01,-3.205772e-01,2.458737e-01,2.878097e-01,1.286274e+00,-1.768314e-01,-3.489310e-01,-4.364305e-01,2.042511e-01,-4.688384e-03,-3.977551e-01,-4.923595e-02,-4.766644e-02,-7.396708e-01,2.992033e-01,6.923639e-01,-9.106157e-01,8.453793e-01,3.576696e-01,-7.150322e-01,7.037942e-01,3.650093e-01,6.451848e-01,-7.144378e-04,4.409945e-01,1.045476e+00,3.080710e-03,-9.964261e-01,-1.025838e-01,9.524574e-01,-9.525007e-02,-4.381527e-02,
-2.401775e-01,4.216600e-02,5.926241e-01,3.901437e-01,1.170868e-01,-5.788651e-02,-1.961068e-02,5.116498e-01,-3.104276e-01,1.492985e-01,2.228343e-01,-4.036374e-01,5.456337e-02,5.841650e-02,2.234832e-01,4.392620e-01,3.823313e-01,5.619928e-01,2.278764e-01,1.817198e-02,2.259501e-01,2.805066e-01,-1.403787e-01,1.764100e-01,-1.241263e+00,5.368038e-01,2.156882e-01,1.180558e+00,-2.725102e-01,-1.411615e-01,3.772430e-02,-3.342885e-01,4.944080e-01,1.367361e-01,5.180230e-01,5.091692e-01,3.022743e-03,4.080140e-01,4.384332e-02,1.777418e-01,-1.204606e-01,4.265680e-02,-2.800735e-01,-3.373528e-01,-6.370097e-01,1.551525e-01,-4.487329e-01,2.217847e-01,-2.301350e-01,-3.420403e-01,
-3.589230e-01,-2.023064e-01,-7.462164e-01,8.796231e-02,1.390097e-01,-1.486362e-01,9.464058e-02,5.563164e-02,5.689399e-01,1.727017e-01,7.375991e-01,4.261899e-01,3.891436e-01,2.943300e-01,7.464266e-01,1.069745e+00,-7.381340e-01,3.701210e-01,-5.530565e-01,5.736614e-02,4.117367e-01,-3.033690e-01,-7.985075e-01,2.148560e-01,-1.035366e+00,-4.729626e-01,-3.547567e-01,4.507561e-01,4.779850e-01,5.815822e-01,-3.234148e-02,5.440721e-01,-1.561882e-01,-7.489727e-02,2.114889e-02,1.099000e-01,6.846881e-02,3.594323e-01,-1.600301e-01,-9.842422e-01,2.642183e-02,-1.511031e-02,1.314835e-01,-1.221281e-01,-2.484926e-01,-2.209958e-01,5.823453e-01,2.764422e-02,4.859972e-01,-3.409506e-01,
9.521206e-02,-2.631217e-01,-3.146609e-01,-3.224044e-01,7.137483e-02,-2.035496e-01,-1.059963e-01,-6.008958e-02,-1.412377e-01,-1.319070e-01,-3.657561e-01,3.071280e-01,-1.801233e-01,4.730719e-02,-2.931761e-01,-6.738064e-01,4.409446e-02,8.696357e-01,-2.575948e-01,1.879307e-01,4.593439e-02,-2.608485e-01,-5.169910e-01,-2.714349e-01,-7.380835e-01,3.130946e-01,-6.395486e-02,4.786550e-02,3.604918e-01,-1.474115e-01,-2.636584e-02,-6.133042e-01,1.431701e-01,-2.470867e-02,1.738135e-01,-2.600400e-01,-2.290864e-02,2.461947e-01,9.069596e-03,-3.960288e-02,-7.913098e-02,1.321080e-02,3.083844e-01,-3.769130e-01,-5.342332e-01,2.463430e-02,5.160429e-01,-2.893527e-01,-7.901583e-01,-6.238113e-02,
