// The contents of this file are licensed under the Creative Commons
// Attribution 4.0 International License: https://creativecommons.org/licenses/by/4.0/
// Neural Network File Format by Kyle Julian, Stanford 2016 (generated on 11/08/2022 20:59:12)
7,5,5,50,
5,50,50,50,50,50,50,5,
0,
0.0,-3.141593,-3.141593,100.0,0.0,
60760.0,3.141593,3.141593,1200.0,1200.0,
19791.091,0.0,0.0,650.0,600.0,7.5188840201005975,
60261.0,6.28318530718,6.28318530718,1100.0,1200.0,373.94992,
-9.047418e-01,-1.038603e-01,1.253299e-01,-2.431131e-01,-8.503867e-02,
1.089931e-02,9.050897e-01,-9.983062e-01,9.835591e-03,1.011081e-01,
2.118353e-03,1.479256e-01,1.505849e-02,6.480283e-02,-1.266782e-03,
-9.697040e-02,-5.398591e-02,-2.992842e-02,1.994235e-02,6.216826e-02,
6.067463e-02,-1.782882e+00,1.825312e+00,3.209818e-01,-1.417353e-01,
-5.795602e-03,-1.368449e-02,-1.970005e-02,1.586840e-03,-2.893125e-04,
1.119838e-01,1.661632e+00,-1.225423e-02,2.897438e-01,-2.600215e-01,
1.048766e-01,-7.944428e-01,7.307130e-01,-1.173751e-01,2.051229e-01,
1.744728e-01,4.531193e-01,-7.502441e-01,-1.421797e-01,1.290530e-01,
-2.389155e-02,1.719081e-01,-1.234725e-01,4.849406e-01,-7.978758e-01,
8.358758e-01,5.387520e-01,2.441013e-02,-8.588959e-01,-7.020409e-02,
-1.132331e-01,6.030526e-02,-3.464936e-02,-8.763911e-01,8.154002e-01,
1.883386e+00,2.330747e-03,-3.125708e-03,-7.374879e-03,7.490231e-03,
3.095275e-01,-1.006390e+00,2.777504e-03,2.398127e-01,-7.667688e-01,
1.800018e-01,-5.082886e-01,2.516471e-01,-6.288028e-02,4.229991e-02,
-3.700186e-02,-6.330519e-01,6.284044e-01,-2.700528e-02,2.291781e-02,
-3.352664e-02,1.502900e-01,-3.679753e-01,-1.357127e-01,8.270729e-02,
1.735698e-02,1.820576e-02,3.391651e-01,9.751371e-02,2.267288e-01,
-8.397968e-03,1.016919e-03,2.551290e-02,9.902716e-02,-2.078711e+00,
-2.710537e-02,-4.059008e-01,3.968158e-01,4.188165e-01,-5.421740e-01,
6.251424e-02,1.657319e+00,4.111549e-01,6.202717e-01,-4.623780e-01,
-3.633586e-02,1.053401e-01,7.646154e-01,-4.923699e-01,1.181357e-01,
-1.917061e-02,1.483370e-02,3.855690e-03,2.459530e-03,-2.268258e-03,
-1.836180e-01,-2.265036e+00,-3.990207e-01,7.835444e-01,-1.365884e+00,
-1.029543e-02,5.497570e-03,3.423510e-04,-4.153049e-04,8.475220e-04,
5.854999e-03,2.220996e+00,1.771041e-01,-5.458464e-01,2.284155e-01,
6.825943e-02,-2.702033e-01,2.494195e-01,8.122723e-01,-7.040932e-01,
2.880752e-02,-9.940117e-01,-2.673783e+00,3.462238e-01,-2.247725e-01,
1.140718e-03,8.217723e-02,-1.425878e-01,-1.447774e+00,-5.159979e-01,
2.271703e-01,-9.265780e-01,6.821714e-02,7.164046e-02,-5.052959e-02,
-7.039852e-02,1.461318e+00,4.263475e-01,1.933609e-01,-8.138458e-02,
-8.775203e-01,-3.594166e-02,-1.891891e-02,4.574938e-02,2.614203e-02,
1.094722e-02,-4.083996e-01,-5.040334e-01,-3.464179e-01,6.093148e-02,
-1.108253e+00,-2.525848e-01,-6.009782e-02,4.187248e-01,-8.768103e-01,
-1.672651e-01,-6.770282e-01,1.094841e+00,-1.389417e-01,1.585427e-01,
8.945502e-02,1.236074e+00,-1.794265e+00,4.980947e-02,1.947492e-01,
-4.173552e-02,1.296264e-01,-1.483377e-01,-1.493608e-01,3.602830e-01,
2.767248e-02,6.531159e-01,-6.911470e-01,-3.326515e-02,5.176108e-02,
-2.592831e-02,-1.543603e+00,-1.277882e+00,9.262262e-01,-3.894156e-01,
-3.318527e-02,-8.285192e-04,-6.318348e-03,-8.065203e-03,4.845590e-04,
6.994231e-02,5.740317e-01,-2.191569e-01,-2.253886e-01,-6.406218e-02,
6.406646e-02,-6.043679e-01,-1.580842e+00,4.715905e-01,-3.165219e-01,
9.434542e-02,6.789271e-01,-7.860971e-01,1.677387e-01,-3.522749e-01,
-1.760854e+00,9.100840e-03,-1.128786e-02,9.037248e-04,4.373350e-02,
2.175086e-02,2.101164e-01,-5.448889e-01,4.866180e-01,-6.486260e-01,
5.611479e-02,5.012852e-01,-1.470913e-01,2.275079e-01,-6.828731e-01,
1.115413e-01,9.291576e-01,-1.888831e+00,-3.368784e-02,3.124799e-01,
-1.663682e-01,1.311542e+00,-1.424645e+00,3.993224e-02,-2.656159e-01,
9.295051e-02,-1.066924e+00,-2.532272e-03,-3.937657e-01,-1.062591e-01,
1.473466e-02,1.069309e+00,-1.215626e+00,6.660483e-02,1.328574e-01,
-6.756112e-02,
-4.134192e-01,
3.162456e-02,
1.267570e-02,
-4.638587e-01,
-2.417778e-02,
-2.234433e-02,
-3.812861e-01,
1.974469e-01,
6.511844e-02,
-2.553149e-01,
-6.789654e-02,
5.179037e-01,
-2.762461e-01,
-1.134654e-01,
-2.988408e-01,
8.333117e-02,
1.038352e-02,
-7.347093e-01,
3.740042e-02,
8.794932e-02,
-1.735493e-01,
-1.867510e-02,
-2.062511e-01,
-8.949650e-03,
-4.027617e-01,
2.547412e-01,
1.510077e-01,
-4.210468e-01,
1.877099e-02,
3.374098e-01,
-9.867316e-02,
3.114263e-02,
-3.800883e-01,
-1.463995e-01,
-3.937384e-01,
1.653219e-02,
-3.439858e-01,
-1.807930e-01,
-2.154562e-02,
1.929480e-01,
-7.474091e-02,
-1.622060e-01,
-3.657200e-01,
1.860834e-01,
-2.071439e-01,
-3.287166e-02,
-1.310031e-01,
4.054347e-02,
-4.132516e-01,
2.643990e-03,-1.707526e-02,1.889880e-02,-5.497753e-02,3.857150e-02,1.158190e-02,-2.892791e-02,-4.192086e-02,-1.004624e-02,1.155870e-02,-2.220384e-02,2.014160e-02,-9.178577e-03,1.383850e-02,-2.907972e-03,-3.392196e-02,-3.966199e-03,-5.033729e-02,-5.727680e-02,-6.101056e-03,-2.769016e-02,-3.650221e-02,-3.515194e-02,-3.626567e-02,-8.688626e-03,-3.485530e-02,3.734630e-02,-5.115064e-03,-3.049453e-02,-4.576734e-02,-1.596254e-02,1.486210e-02,-2.009839e-02,8.226590e-03,2.833270e-02,1.217710e-03,1.170900e-02,2.849530e-02,-6.032528e-02,-4.078380e-02,2.089380e-03,9.897060e-03,-5.857212e-02,-5.935790e-02,-3.160946e-02,1.399910e-02,1.950780e-02,1.188390e-02,2.149800e-02,6.648020e-03,
-1.646815e+00,-5.878523e+00,4.451278e-01,-6.659991e-01,-2.664340e+00,-3.225788e-03,-1.544906e+00,-3.858048e+00,-4.131536e-01,-1.063187e+00,-5.909177e-02,1.711651e+00,4.536616e-01,-3.651201e-01,-1.273600e+00,-1.346956e+01,5.909033e-01,-1.706688e+00,1.856102e+00,-9.292091e-01,-4.901651e-01,-3.819123e-01,1.451310e-02,3.768118e-01,-2.997236e-02,3.449348e-01,-2.550785e-01,7.847364e-02,9.289200e-01,-2.208365e+00,-4.142424e-02,-1.039856e+00,8.778845e-01,-1.780771e+00,-9.822745e-01,-1.985266e+00,-1.926292e-01,-1.140967e+00,5.499905e-01,1.516860e-03,2.213581e-01,1.362270e-01,-6.610501e-01,-1.331291e+00,-9.514987e-01,-5.451677e-01,-2.455805e-01,-8.783000e-01,-4.099267e-01,-4.969140e+00,
-1.123423e+00,1.358500e-02,-1.936948e+00,4.787551e-01,2.667218e+00,1.707860e-02,-6.048446e+00,1.881010e+00,-2.494104e+00,8.494328e-01,-9.891535e-02,-1.810566e+00,-3.490570e-01,1.238916e+00,1.411720e+00,-1.343047e+00,-3.698105e+00,8.469846e-01,3.875414e-01,5.524597e-01,-1.254258e+00,1.836262e-01,3.651340e-02,-8.441115e-02,-2.117647e-03,1.118880e-02,-3.636454e-01,-7.798361e-01,-8.823259e-01,1.278565e+00,-2.598225e+00,-6.363727e-01,9.349501e-02,1.337589e+00,4.341368e-01,4.000620e-02,-8.391231e-01,3.281370e-03,-1.221989e-01,3.984140e-03,-1.650128e+00,-4.291884e+00,2.216848e+00,-3.175703e-01,2.161467e+00,-1.363641e+00,-1.020928e-02,2.027280e+00,-8.557316e-02,3.651940e-02,
1.384525e-01,3.740418e-01,1.495276e-01,3.718506e-01,-1.725696e-02,1.137040e-02,-2.538039e-01,6.087159e-01,-4.263654e-01,-1.144815e+00,5.033295e-01,3.195791e-02,-2.584741e-01,1.223750e-01,-7.568941e-02,6.906925e-01,-2.465188e-01,-6.343648e-01,-1.236533e-01,-1.100476e+00,-5.321821e-01,1.512990e-01,-9.443732e-03,-1.121787e+00,1.824780e-02,3.909946e-01,-4.378108e+00,4.265009e-01,-1.759935e-02,2.255310e-01,5.127111e-01,1.209315e-01,-5.139304e-01,4.986000e-01,-2.422950e-01,3.248210e-02,3.825667e-01,1.354221e-01,-1.584559e-01,4.868790e-03,2.003394e-02,8.901421e-02,-6.109974e-01,-9.266447e-01,8.763282e-01,2.413072e-01,-2.157138e-01,-1.686549e-01,-8.723461e-03,2.477396e-01,
5.708558e-01,-2.263410e+00,-4.180895e-01,-1.330463e+00,-6.248658e-01,6.354270e-02,-8.425238e-01,-1.316495e+00,-3.964805e-01,-2.526616e+00,-4.599873e-03,-3.405205e+00,1.818599e-01,1.427370e+00,-1.154319e+00,-4.062372e-01,-2.940514e-01,-1.931877e+00,-1.894467e+00,-7.645205e-01,-2.434433e-01,2.171402e-01,4.122620e-02,2.122102e-01,9.582450e-04,3.903045e-01,-1.339755e+00,-2.616526e-01,7.609653e-01,-1.684357e-01,6.296129e-01,-2.243968e-01,6.680641e-01,1.481407e+00,-2.195407e-02,-6.976090e-01,-8.301806e-01,-8.371810e+00,6.090848e-01,4.162680e-02,-2.707436e-02,-5.294784e-01,5.807086e-01,-7.133620e-01,-1.831049e-01,1.007292e+00,-9.515008e-01,7.342166e-01,1.236100e-01,2.662902e-01,
-1.689861e-01,-8.153386e-02,5.401806e-01,7.552689e-01,-6.652537e-01,3.701580e-02,5.253435e-01,6.349401e-01,2.477861e-01,-5.419892e-01,-3.479410e-01,-6.886816e-02,1.336450e-01,-8.973042e-02,6.894832e-01,-1.498850e-01,1.033368e+00,8.320998e-01,1.521273e+00,-4.923993e-02,-9.103473e-01,3.758104e-01,1.128020e-03,7.243094e-03,-1.917010e-02,-5.144293e-01,-5.006509e-01,-5.929235e-02,5.074522e-01,9.302520e-01,1.784519e-02,8.108611e-01,2.733571e-01,6.296808e-01,7.237478e-01,-1.021474e-01,1.408889e-02,-4.120052e-01,-4.923437e-02,-4.809590e-02,6.397768e-01,-6.767061e-02,-2.654260e-01,8.015250e-01,-1.205788e+00,-1.948239e+00,-2.582267e-01,7.858521e-01,4.622471e-01,2.366783e-01,
-1.858723e-01,-1.490366e-02,-3.796227e+00,-1.410253e+00,3.398848e+00,3.031790e-02,-2.962118e+00,2.641360e+00,-2.324636e+00,2.018135e+00,2.610705e-01,3.174309e-02,-3.075844e-01,2.681999e-01,1.515730e+00,3.178177e+00,-3.301811e+00,-1.019181e+00,-4.541000e+00,1.068903e+00,-1.786710e+00,1.439624e-01,1.141900e-02,-1.176256e-01,-1.583084e-02,-1.106405e-01,9.148749e-01,-6.333054e-01,-4.098489e-01,6.755938e-01,-1.376943e+00,-1.475236e+00,-1.297355e+00,-4.599722e+00,9.147758e-01,-8.428652e-03,-1.405718e+00,3.848750e-03,-8.460376e-01,-4.330102e-02,-2.050401e+00,-3.142211e+00,3.296570e-02,-2.318404e+00,-1.619959e+00,3.556298e+00,3.113650e-02,-4.932769e-02,7.649493e-01,5.677380e-04,
-2.696973e-02,-1.563581e-02,2.575020e-02,1.953660e-02,-4.277885e-02,-2.337372e-02,-5.630851e-02,1.380010e-02,3.554650e-02,-1.671641e-02,-1.039866e-02,1.566530e-02,-4.783269e-02,-3.883793e-03,5.816490e-03,-3.418163e-02,-9.296918e-03,-3.976632e-03,-4.664220e-02,1.149870e-02,1.270120e-02,2.557850e-02,2.192000e-02,-9.280769e-03,-1.442381e-02,2.243820e-03,1.717880e-02,-1.279498e-02,3.705170e-03,2.023410e-02,2.780450e-02,-4.086157e-02,6.022070e-03,-1.262359e-02,1.350250e-02,5.364590e-03,-2.832525e-02,-1.044895e-02,-3.436384e-02,2.489630e-02,-3.990480e-02,-3.740535e-02,-4.049898e-02,7.881540e-03,-9.108958e-03,2.885160e-02,3.811210e-03,-1.377721e-02,1.066550e-02,-3.256109e-02,
-3.316790e-01,2.154259e+00,2.598609e-01,-1.134018e+00,-8.698161e-01,-3.455705e-02,1.638735e+00,3.611708e-01,-5.067796e-01,9.329026e-01,5.286125e-01,-4.446394e-01,-1.750764e-02,-1.243845e+00,-5.279744e-01,-2.194538e+00,-1.758036e-01,1.500956e+00,7.840883e-01,2.377146e-01,6.440376e-01,3.927577e-01,1.356000e-02,-1.233735e+00,-2.181873e-03,-8.312057e-01,1.188588e-01,-4.989228e-01,1.528758e-01,-1.758794e+00,7.551416e-01,-1.452279e-01,1.862616e-01,-3.804074e-01,2.547735e-01,7.819471e-01,-1.636937e-01,2.264450e+00,-8.417855e-01,-4.011407e-02,-1.754309e-01,-4.912519e-02,2.132797e+00,-2.838868e-01,1.069550e-01,2.537120e+00,2.015839e-01,7.096563e-01,-3.129091e-01,1.363349e+00,
4.734477e-01,-2.435575e+00,4.882650e-01,-7.455860e-01,-3.200417e-02,2.414130e-02,-2.473904e-01,-5.796258e-01,1.084565e-01,6.802914e-01,-3.967431e-03,1.453791e+00,3.746527e-01,-3.540080e-01,-1.434139e+00,4.376583e-01,4.289700e-01,1.204810e+00,-4.334132e+00,-7.718087e-01,1.248024e+00,-9.869740e-01,-2.873470e-02,2.140113e-01,2.250740e-02,1.137451e-01,-2.740898e-01,9.185517e-02,1.821848e+00,-1.591316e+00,6.875827e-01,6.964185e-01,2.580247e+00,-7.015026e-01,-2.492428e+00,-2.253381e+00,8.614635e-01,-7.927803e+00,-9.501464e-01,1.523770e-02,2.019491e-01,-1.036624e+00,-2.066823e+00,1.978943e+00,-1.980580e+00,-2.601255e+00,-2.245169e+00,-2.393145e+00,-3.618951e-01,-2.721243e+00,
-3.019940e-02,6.262200e-03,9.101140e-04,-1.788609e-02,-2.322657e-02,-4.434082e-02,-3.387631e-02,4.157540e-02,3.975110e-03,-3.229212e-02,-4.862665e-02,1.290370e-02,-1.522383e-02,7.455620e-03,-3.440040e-02,-3.611437e-02,-5.107984e-02,2.346260e-02,-4.761908e-02,-9.340369e-04,-5.107216e-02,-1.922232e-02,3.066210e-02,-2.044341e-02,-1.048925e-02,-2.609507e-02,2.741390e-02,4.183920e-03,1.383700e-02,-2.384620e-02,2.410800e-02,-3.058624e-02,-1.663379e-02,1.575190e-02,-8.287121e-03,1.363000e-02,-2.676217e-02,-1.049259e-02,-3.294550e-02,-1.326029e-02,1.969950e-02,-4.337142e-02,1.555570e-02,-1.744644e-02,1.870950e-02,-2.780267e-02,-2.929737e-02,3.434590e-02,2.529880e-02,3.632020e-02,
1.170459e-01,1.213550e-02,3.957782e-02,9.306726e-01,4.112272e-01,-1.163611e-02,-4.097237e-01,4.243595e-02,3.696858e-01,-1.621797e-02,-2.537948e-01,6.082223e-01,1.454904e-01,1.398147e-01,-1.319969e+00,-6.182119e-01,8.575460e-02,3.893828e-01,-8.847570e-01,4.985462e-01,-3.175248e-01,2.325969e-01,4.165790e-02,-4.018295e-02,-4.137455e-02,-6.189502e-01,2.512868e-01,-3.966826e-01,2.589428e-01,-3.097317e-01,4.079018e-01,-6.660920e-01,-8.779112e-02,1.105455e+00,7.319219e-02,-9.246065e-03,5.311948e-02,-4.476057e-02,3.385236e-01,2.264260e-02,-1.751936e-01,3.313194e-01,-1.440290e+00,-3.310255e-01,-1.395729e-01,-2.866824e+00,-2.812456e+00,-9.748672e-01,4.713479e-01,6.227960e-03,
-7.457588e-04,4.476700e-03,2.800650e-02,-5.171826e-02,-3.722608e-02,1.518230e-02,-5.478341e-02,-4.867543e-02,1.792890e-02,-4.476976e-02,2.582300e-02,2.931960e-02,-3.634707e-02,2.690380e-02,3.283020e-02,4.421870e-02,-1.181619e-02,2.503880e-02,-2.672359e-02,-6.308228e-03,-4.053504e-02,-1.778852e-02,-3.956645e-02,-4.924932e-02,1.994270e-02,-1.036169e-02,-3.487035e-03,-5.013791e-02,-2.695357e-02,3.526400e-02,2.511920e-02,-3.938768e-02,-3.830789e-03,-5.426498e-02,-4.824204e-02,-4.116760e-02,-1.599476e-03,1.285220e-02,-5.492057e-02,-8.230398e-03,-4.402075e-02,2.495310e-02,3.593410e-02,-3.405074e-02,4.763790e-02,-1.999345e-02,1.796540e-02,-2.728767e-03,3.199250e-03,-5.326518e-02,
-1.806910e-01,2.402096e-01,-9.749368e-01,-2.167056e+00,3.955594e-01,-4.448959e-02,9.295526e-01,-2.294952e+00,-6.453627e-01,1.375448e+00,4.234260e-01,-1.865056e+00,4.229728e-03,-2.428030e-01,1.225403e-01,2.001941e+00,-3.075824e-01,8.120996e-01,-8.280616e-01,3.094610e-02,1.576209e-01,3.443336e-01,2.100500e-02,-1.004696e-01,3.401210e-02,-1.292749e-01,1.867561e+00,9.277779e-03,-2.030645e-01,-8.875729e-01,-5.243486e-01,-1.277741e+00,9.631653e-01,-6.468484e-01,-6.342477e-01,-1.065803e-02,-3.086974e+00,6.755295e-01,-2.002688e-01,1.706890e-02,-5.449283e-03,-2.269914e-01,2.878524e-01,-2.475873e+00,1.607334e+00,-6.534003e-01,-8.276718e-01,5.369265e-01,3.155583e-01,4.719102e-01,
1.964883e-01,-2.939070e+00,5.013954e-01,1.088400e+00,-7.911835e-01,9.212140e-04,-1.994225e+00,-5.000772e-01,1.561309e-01,-5.997289e-01,7.015328e-02,9.421048e-01,3.560446e-01,-1.755269e+00,-1.378347e+00,2.706301e+00,4.783235e-01,2.336677e+00,-6.474363e+00,-3.705781e-02,3.067970e-01,-7.551134e-01,-4.992541e-03,-2.139059e-01,2.683670e-02,5.540347e-01,-2.449866e+00,7.069600e-01,1.183733e+00,-7.295917e-01,5.390718e-01,6.956819e-01,-6.571131e-01,-1.252582e+00,-1.511546e+00,-2.978945e+00,2.423362e-01,-3.916841e+00,9.168245e-01,4.544000e-02,1.845033e-01,2.363882e+00,-1.286588e+00,-9.271780e-02,-2.141038e+00,-2.179539e+00,-8.759578e-01,-1.449946e+00,-1.396133e-01,-2.669288e+00,
-2.034827e-01,-1.268853e+00,-1.725363e-02,-9.618372e-01,1.294435e+00,-4.139858e-03,-2.400952e-01,1.345875e+00,6.376110e-01,5.800163e-02,2.202740e-01,1.797954e-01,-2.275560e-02,2.772317e-01,1.293871e+00,-2.066813e+00,8.262588e-01,-8.504725e-01,-2.309284e+00,-1.756360e-01,-1.915455e-01,-4.652050e-01,2.633000e-02,-5.294238e-01,2.564620e-03,1.993669e-01,6.315715e-01,1.945320e-01,8.188777e-02,-8.702675e-01,3.859555e-01,2.700629e-01,-7.742256e-02,-4.527850e-01,6.246058e-01,-5.006711e-01,-5.142273e-02,-9.108149e-01,1.451944e-01,4.000850e-02,4.589967e-01,2.161922e-01,-5.637123e-01,1.980539e-01,-1.050137e-01,-7.350730e-01,-1.150562e-02,7.710936e-01,-1.008461e+00,-1.021807e+00,
-5.469796e-02,-3.702418e-02,-1.163985e-01,-7.092028e-01,-5.015761e-01,1.074840e-02,1.731391e-01,4.688007e-01,5.310211e-02,-9.356943e-02,2.590622e-01,8.549769e-01,-1.639301e-01,-8.689020e-02,-1.782913e+00,3.777078e-01,-5.744920e-01,1.429625e-01,6.334901e-01,8.965371e-01,-1.477539e-01,-1.487589e-01,-1.206506e-02,2.862694e-01,-4.814771e-02,-1.066560e-01,2.606244e-01,8.269569e-02,9.759915e-02,1.537143e-01,-3.168542e-01,-8.349579e-01,-3.804650e-01,-2.206456e-01,-5.800147e-01,-1.125362e-01,-8.423834e-02,-1.415646e+00,-9.221977e-02,3.638520e-02,-3.153968e-01,-1.601123e-01,-9.667053e-03,-1.154965e-02,1.283614e-01,7.234237e-01,-2.665228e-02,1.513552e-01,9.352639e-02,8.814029e-02,
1.435493e+00,2.055062e+00,3.251457e-01,9.232642e-01,3.232172e-01,4.039380e-02,-1.094305e+00,7.049810e-03,5.479046e-01,8.910089e-01,-1.164661e-01,-1.577277e+00,-1.867864e-02,4.680493e-01,2.149340e+00,6.420754e-01,9.196308e-01,7.915446e-01,-1.429625e+00,1.071527e-01,-6.802148e-01,1.254854e+00,2.685400e-02,-1.612031e-01,4.978110e-02,1.018571e+00,8.313367e-02,-8.924067e-02,1.750542e-01,-1.216262e+00,3.729003e-01,3.954281e-01,1.254597e+00,1.055580e+00,5.247515e-01,-3.071077e-01,3.782026e-01,5.499915e-01,-8.427349e-03,-5.269917e-02,1.296524e-02,4.723805e-01,-3.291863e-01,8.467365e-01,8.442750e-01,8.761787e-01,-5.846466e-01,-2.350118e-01,1.611522e-01,1.122977e+00,
-3.090166e-01,1.760672e+00,5.338830e-01,1.262300e-01,-1.157551e+00,9.154550e-03,1.004040e+00,1.078387e+00,-4.999651e-01,-7.134933e-01,3.387335e-01,-1.038815e+00,8.104300e-01,2.016556e+00,1.263389e+00,-1.451703e+00,-7.993059e-01,-3.381884e+00,-9.659317e-01,-8.136156e-01,5.021084e-01,-1.321131e+00,-2.790862e-02,6.259687e-02,2.788900e-02,2.222788e-01,-3.885854e-01,5.181492e-01,-5.031850e-01,1.217515e+00,-1.261813e-01,9.735413e-01,7.517582e-01,-9.518220e-01,-6.643144e-01,-5.761979e-01,-3.340191e+00,-4.957565e-01,5.305964e-01,-1.546340e-02,-3.657877e-01,-1.164833e+00,2.593892e-01,-1.643664e-01,-8.374748e-01,1.033796e+00,-9.121239e-01,-1.687387e-01,3.563664e-01,3.801448e-02,
-1.635846e-01,-3.348897e+00,-6.675050e-01,-1.504971e+00,3.280553e-01,2.061660e-02,-8.927693e-01,-2.872157e+00,9.032998e-01,-1.327736e+00,1.400286e-01,1.315571e+00,8.607318e-02,1.175189e+00,-2.361107e+00,-1.764349e+00,7.484213e-01,-1.507819e+00,-2.346917e+00,-7.853730e-01,-1.936039e-01,-9.912473e-01,-2.777157e-02,7.852274e-01,2.516800e-02,8.357748e-01,-9.457488e-01,4.192264e-01,3.271188e-02,-2.382418e-01,-7.279393e-01,-2.642039e-01,-4.121628e-01,7.227446e-01,-1.522373e+00,-2.288670e+00,4.560138e-01,-4.414467e+00,1.443964e+00,-3.749686e-03,-2.275591e-02,9.308802e-01,-2.183650e+00,1.150602e+00,4.361950e-01,-4.437930e+00,-2.370228e-01,-8.010259e-01,-1.026291e-02,-3.265805e+00,
9.917465e-02,-1.854370e+00,-1.833069e+00,-2.424990e+00,-1.224716e-02,-1.585478e-02,-8.502867e-01,8.434904e-01,-7.175192e-01,1.709592e+00,-7.606290e-02,-3.082268e-01,-2.234494e-01,-1.323868e+00,1.162187e+00,-2.671238e+00,5.692530e-01,-2.018717e-01,3.578375e-01,1.801503e+00,-2.169864e-01,1.011454e-01,3.435330e-02,-1.791225e-01,-3.003609e-02,1.365972e+00,-1.493255e-02,1.246242e-01,1.017282e+00,3.717816e-01,-7.435004e-01,1.148491e+00,-7.648185e-01,-8.110532e-01,1.379751e+00,2.318808e-01,-8.892747e-01,-2.383014e+00,-4.258463e-01,-4.588167e-02,3.592066e-02,-6.012368e-03,3.269772e-01,-3.936909e-01,-3.415810e-01,2.363813e-01,1.162488e-01,7.517308e-01,2.135180e-01,4.180275e-01,
-3.682167e-01,1.089457e+00,1.420977e-01,5.034259e-01,-3.743908e-01,9.269940e-03,-1.501769e-01,-2.429747e+00,2.539380e-01,1.185297e-01,-6.584755e-02,-6.526408e-01,-3.239848e-02,-8.413573e-01,1.247529e-01,-6.913773e-01,4.477117e-01,-1.166742e+00,-1.115505e+00,4.221291e-01,2.751576e-01,5.299977e-01,7.481520e-03,4.338487e-01,1.287310e-02,-1.471610e-01,4.493769e-01,-2.568440e-01,1.042712e-02,1.258052e-02,-2.390024e-01,-2.611840e-01,-9.757903e-01,7.578835e-01,1.015661e+00,2.070703e-01,1.495108e-01,3.431162e+00,-3.562795e-01,4.569380e-03,1.012503e-01,-1.752481e-02,6.090470e-02,2.231149e+00,7.602497e-01,-1.409788e+00,2.305057e-01,3.960099e-01,-1.122383e+00,1.040401e+00,
4.539828e-01,1.885623e+00,-3.880329e-01,6.866840e-01,1.259339e+00,3.384780e-02,-1.645209e+00,7.565788e-01,-3.681258e-01,7.222377e-01,1.771962e-02,-9.078163e-01,3.087107e-03,6.535782e-02,1.184891e+00,-1.557632e+00,1.175635e-01,2.409304e+00,1.901592e+00,-7.327025e-01,3.569653e-01,1.619589e+00,3.841630e-02,-2.928334e-01,-3.113507e-02,-8.730238e-01,2.281000e-01,-1.225342e-01,-1.022261e-01,1.956389e+00,-1.312596e+00,-9.013422e-01,2.503769e-02,-5.981412e-02,2.077901e-01,1.997899e-01,1.433796e-01,1.497048e+00,-1.575479e-01,-3.178541e-03,1.288624e-03,4.796639e-01,5.435159e-01,-9.455630e-01,4.128152e-01,1.542539e+00,7.084193e-01,2.405621e-01,7.485776e-01,1.137639e+00,
1.120837e-01,-3.081692e-01,2.406012e-01,-2.132999e-01,-3.029222e-01,2.473420e-02,-4.902308e-01,3.386409e-01,1.402799e-01,5.796986e-02,5.505106e-02,1.262197e-02,-1.287225e+00,-5.478401e-01,9.888910e-01,-5.097975e-01,-3.590085e-01,4.922467e-01,4.056098e-01,3.478218e-01,-1.153228e-01,-8.736409e-02,4.790810e-02,-2.111173e-01,-1.104213e-02,-1.347754e-01,2.624596e-01,1.069449e-01,9.672444e-02,-6.782100e-01,-5.888068e-02,8.891979e-02,-1.704708e-01,5.715834e-02,3.483096e-01,6.154473e-02,2.903760e-01,-9.889041e-01,-1.219615e-01,8.233770e-03,-4.082622e-02,-1.915243e-01,-1.067883e-01,-4.396570e-01,1.581054e-01,-3.307326e-02,2.079933e-01,1.616737e-01,-6.741527e-02,4.832840e-01,
1.597690e-02,4.122560e-02,-1.633352e-02,4.080850e-02,-4.331647e-02,-1.033169e-02,1.381170e-02,-3.772714e-02,-5.044990e-02,1.483240e-02,5.947520e-03,-5.490178e-03,-5.235386e-02,-3.669916e-02,1.116370e-02,1.879830e-02,2.179090e-02,-1.329948e-02,1.269040e-03,2.299680e-03,2.725590e-02,-3.252129e-02,-1.251087e-02,1.070790e-03,-1.443997e-02,-3.994600e-02,-5.346051e-02,-3.900782e-02,-3.450473e-03,-1.656703e-03,-6.522257e-04,-4.796066e-02,-1.835887e-02,4.349270e-02,-4.236324e-02,2.676090e-02,1.422700e-02,-1.986619e-02,2.317440e-02,1.108800e-02,-1.368459e-02,1.618140e-02,3.279600e-02,-1.070873e-02,-1.751694e-02,2.674030e-02,-2.775379e-02,-1.306980e-02,-2.623344e-02,-2.820273e-02,
-6.148123e-01,2.901861e-01,-2.336857e-02,-3.657311e-02,2.562533e-02,-3.242514e-02,2.092504e-02,-1.429160e-01,7.283420e-02,1.789455e-01,3.225470e-01,2.155735e-01,1.458933e+00,-2.679449e-01,1.941907e-01,-3.436525e-01,1.202028e-01,-3.677511e-02,3.046408e-01,2.162021e-01,-1.408334e-01,1.368120e-01,-2.858876e-02,9.050651e-02,-4.417043e-02,-6.322186e-03,1.575902e-01,3.437681e-02,1.897513e-01,-4.794793e-01,-8.358759e-02,-9.575971e-01,1.072913e-01,-7.158395e-01,2.390862e-01,-1.239411e-01,2.514848e-01,2.375611e-01,1.068055e-01,4.838310e-02,-1.069055e-01,-2.370521e-01,-1.327180e-01,-2.997145e+00,2.170219e-01,4.200540e-01,-1.029342e-01,1.128699e-01,5.372049e-03,1.797113e-01,
2.466763e-01,4.612125e-01,5.670888e-01,-5.432416e-01,-1.545472e+00,-9.644369e-03,-2.151704e-01,-1.170024e+00,4.505104e-01,-1.055177e+00,2.596124e-01,-2.460522e-01,1.378397e-01,-6.579019e-01,1.738965e-01,-7.924753e+00,6.817912e-01,-2.934434e-01,-3.592741e+00,-7.844912e-01,5.843713e-02,-1.240553e+00,4.670980e-02,3.933527e-01,-3.586176e-02,-5.585431e-01,-6.642265e-01,4.406332e-01,-3.131343e-02,-6.672202e-01,5.461365e-01,-1.681650e-01,-8.356346e-01,-1.751289e-01,-7.195795e-01,-1.184629e+00,5.412620e-01,2.033419e+00,-1.415788e-01,1.709970e-02,-3.416396e-01,7.080411e-01,-4.367906e-01,-4.982855e-01,9.893496e-02,9.290180e-01,-6.448648e-01,-1.394224e+00,-2.320041e-01,-6.935287e-01,
1.587680e-02,-3.438252e-02,1.712040e-02,1.281080e-03,1.530350e-02,-4.441424e-02,-3.884076e-02,5.056350e-03,-3.774511e-02,2.006210e-02,3.444020e-02,-3.682056e-02,-3.559967e-02,4.059600e-02,-4.260968e-02,3.352870e-02,3.813350e-02,-3.763028e-02,9.073640e-03,-2.994205e-02,-2.267500e-02,-4.537586e-02,2.441900e-02,1.483000e-02,-3.763007e-02,3.094730e-02,-1.756077e-02,-2.842090e-02,1.307240e-02,4.004820e-03,-1.042360e-02,-1.830110e-02,-3.799751e-02,-3.453210e-02,-3.556160e-02,7.373550e-04,-5.298410e-02,-1.835806e-02,-2.869632e-02,-1.376024e-02,-4.038869e-02,4.262540e-03,2.808100e-02,3.137260e-02,5.830840e-03,2.330590e-02,9.272230e-03,-3.131505e-03,-1.380397e-02,-3.403730e-02,
-4.084511e-01,1.610260e+00,4.974394e-01,1.977499e+00,1.361478e-01,-4.692622e-03,9.954054e-01,1.020878e+00,-7.180090e-01,-1.725211e-02,4.151991e-01,-6.840306e-01,5.515102e-02,4.028172e-01,-3.815366e-01,-6.101127e-01,2.695720e-01,-1.830322e-01,-1.992528e-01,5.383867e-01,4.900837e-01,-6.133649e-01,4.239030e-02,-4.592035e-01,-4.516356e-02,-1.516687e+00,-8.247528e-01,4.853465e-01,2.939251e-01,3.924350e-02,-9.727522e-01,2.038913e+00,-3.483995e-01,-4.448373e-01,-6.425105e-01,2.682580e-01,1.227180e+00,1.217930e+00,3.087503e-01,1.935930e-02,-9.208382e-01,-6.158111e-01,-2.658118e+00,3.623604e-01,7.784321e-01,-6.737811e-01,-1.427170e+00,-2.679772e-01,-1.694952e-01,1.199466e+00,
7.144275e-01,2.760643e-01,5.272796e-01,5.460555e-01,-2.751280e-01,1.212180e-02,1.087184e-02,-1.003028e+00,-6.363465e-01,-1.647462e-01,3.730485e-01,-8.599160e-02,-8.705533e+00,4.061442e-01,1.678559e+00,-2.541473e-01,-2.859371e-01,6.191290e-01,8.910038e-01,-2.190781e-01,-3.862644e-01,-3.895711e-01,6.907430e-03,-3.777430e-01,-7.859436e-03,4.264745e-01,4.582461e-01,2.905134e-01,3.084843e-02,2.792913e-01,2.131544e-01,-2.117940e-01,-5.155202e-01,7.785090e-03,5.680725e-01,-3.396893e-01,2.633484e-01,-5.500127e-02,-1.425888e-01,-4.545000e-02,7.344609e-02,-1.320615e-01,-4.702641e-01,-6.538922e-01,3.681743e-01,3.299367e-01,8.181778e-01,6.018873e-02,5.264140e-01,4.426527e-03,
1.196914e+00,-2.101527e-01,-4.022800e-01,-1.090699e+00,-2.595761e-01,2.915910e-02,2.735800e-01,1.250117e+00,1.344621e-01,-5.587259e-01,4.257723e-03,-5.353424e-01,-2.335332e-02,-6.473373e-01,5.069614e-01,1.110349e+00,1.022635e-01,1.372994e+00,1.318535e+00,-1.124776e-01,2.634585e-02,5.403459e-01,-2.815587e-02,-4.010033e-01,3.146980e-02,-1.814919e-01,-1.134190e+00,-1.552744e-01,3.376896e-01,-7.840862e-01,-7.558870e-03,-4.023951e-01,7.373899e-01,-9.347429e-01,-6.894058e-01,1.412635e-01,-5.507550e-01,3.644866e-01,-4.206913e-02,-8.575456e-03,4.589935e-01,2.219829e-01,1.110020e+00,4.081612e-01,8.071829e-01,-1.549906e+00,-6.859768e-01,-2.897973e-01,-5.267089e-01,-7.797513e-02,
-2.425505e-01,2.424193e+00,-5.589280e-01,-8.309553e-01,-2.746331e+00,-5.865595e-03,-5.169110e-01,-1.525555e+00,-1.400325e-01,-2.452018e+00,-1.205142e-01,6.313666e-02,6.271957e-02,-3.128384e-01,2.457961e-01,-5.007590e+00,-1.393840e-01,3.625875e-01,-2.931626e+00,-3.345564e+00,-1.875833e-01,1.067420e+00,2.078110e-02,-8.677051e-01,1.146310e-02,-2.602113e-01,-1.382044e+00,3.217569e-01,1.554595e+00,-2.720102e-01,2.812768e-01,-1.192133e+00,4.755931e-02,2.293959e+00,-2.466975e+00,-4.069351e-01,6.402340e-01,4.741487e+00,4.801134e-02,4.449650e-02,2.589187e-01,-2.917082e-01,2.548161e-01,-2.748725e-01,-2.333878e+00,-6.477008e-01,-1.692114e+00,1.743172e-01,8.947490e-01,2.356121e-01,
-4.333142e-02,2.853240e-02,1.002680e-02,4.443460e-04,1.868550e-02,-1.197900e-02,-5.194531e-02,-2.040049e-02,3.618040e-02,1.410500e-02,-2.017374e-02,-2.823980e-02,5.377490e-03,-4.542990e-02,-7.769485e-03,1.412980e-02,3.652480e-02,-4.910105e-02,3.702240e-03,-2.104688e-02,1.583600e-02,5.029100e-03,-3.954938e-03,-3.662866e-02,-3.097226e-02,2.012220e-02,-2.515364e-03,5.262880e-03,3.053040e-02,2.206120e-03,8.133940e-03,-2.546341e-02,2.226730e-02,-2.480984e-03,2.838220e-02,-3.150705e-02,-3.694226e-02,-5.432699e-02,-4.998490e-02,-3.941222e-05,-3.920658e-02,2.748300e-02,-8.011148e-03,-3.955281e-02,-2.570602e-02,-1.296103e-02,-4.038313e-02,-3.020839e-02,-4.903954e-02,-2.482115e-02,
8.901159e-01,-8.199755e-02,8.567415e-01,1.038708e+00,1.302526e+00,-3.190590e-02,2.633242e-01,-9.906706e-01,-4.259039e-02,-7.520682e-01,-2.613648e-01,2.310478e-01,1.371338e-01,1.272711e+00,7.340286e-01,1.062055e+00,-7.832752e-01,1.107273e+00,-1.100435e+00,-5.389209e-01,-1.660198e-01,-1.312182e+00,-1.399799e-02,-5.222003e-01,-4.077107e-02,5.028883e-01,7.448588e-01,5.818357e-01,-1.430635e-01,1.091962e+00,8.277193e-02,5.815399e-01,-7.851154e-01,1.108493e+00,-8.942752e-01,3.210481e-01,7.603804e-01,-5.098005e-01,1.290538e-01,3.325600e-02,-1.174984e+00,4.519528e-01,-1.043027e+00,1.082011e+00,1.156854e-01,2.065218e-01,-4.420224e-01,-4.770493e-02,-5.368231e-01,1.159904e+00,
4.117598e-02,9.392734e-01,5.049049e-01,3.515589e-01,-2.109163e-01,3.804300e-02,1.739658e+00,-6.890493e-01,-2.434544e-01,4.531319e-02,-3.696499e-01,-3.058462e-01,4.333091e-01,-8.580879e-01,-7.092190e-01,-4.131435e+00,-5.509984e-01,4.323865e-01,-7.597271e-01,-9.263588e-01,5.320409e-01,-2.417768e-01,2.250900e-02,-4.729658e-04,1.926770e-02,5.961899e-01,-2.037089e-01,4.088294e-02,-5.282139e-01,-3.874774e-01,1.349370e+00,-7.114369e-01,5.489629e-01,-3.093842e-01,-1.016363e+00,-2.031575e+00,2.324748e-01,6.823090e-01,8.732166e-01,-5.166473e-02,-1.704193e-01,-6.659576e-01,6.139653e-01,-1.220262e+00,-1.215999e+00,-2.485711e+00,-1.905325e+00,-1.419858e+00,1.138827e-01,-2.963441e-01,
2.723980e-01,4.311321e-01,-5.591016e-01,1.283165e+00,-1.598456e-01,1.369610e-02,-2.380812e+00,7.099666e-01,-1.430978e+00,6.595707e-01,5.463384e-01,-3.620870e+00,-1.448633e-02,6.668699e-01,-3.098519e-01,-7.593039e-01,-2.353260e-01,1.313661e+00,1.793801e+00,1.444806e+00,-3.789065e-01,-1.414212e-01,3.795860e-02,-1.188962e-02,4.137850e-02,1.550037e+00,-1.905577e-01,-3.269259e-01,-2.565188e-01,1.327986e-01,-1.630433e-02,3.287984e-01,-5.192875e-02,8.740367e-02,-2.115809e-02,6.566116e-01,7.616961e-01,-3.890611e-01,-8.555306e-01,2.637240e-03,-7.652881e-01,9.325889e-01,4.135666e-01,-5.478896e-01,1.765487e-01,1.129283e+00,1.175962e-01,5.165811e-01,5.165859e-02,2.070516e-01,
-9.494161e-01,-7.630055e-02,5.662484e-01,-5.322983e-01,-2.282610e-01,-1.029463e-02,5.207024e-01,1.961150e+00,2.041149e-01,-1.754986e+00,3.587186e-01,-8.950822e-01,-1.879792e-01,1.469095e+00,7.168707e-01,-4.487986e+00,7.699987e-01,-3.341847e-01,1.689316e-01,4.015440e-02,4.421825e-01,-1.085346e-01,-8.060809e-03,-3.118112e-01,3.467060e-02,-4.708297e-01,3.025212e-01,-1.314697e-01,9.305735e-01,-5.694309e-02,-3.798670e-01,6.434488e-01,2.655805e-01,1.133661e-01,-1.620666e-01,4.407771e-02,-5.109650e-01,-8.776960e-01,1.096597e-01,4.807790e-02,-1.771378e-01,-9.933824e-03,1.273357e-01,-6.855466e-01,1.465477e+00,-2.018222e+00,8.504593e-02,-2.291730e-01,5.264474e-01,-5.417488e-01,
1.974782e-01,1.622768e-02,-4.915276e-02,-7.335105e-02,2.013061e-02,-5.559990e-03,7.045662e-02,-5.328043e-01,-6.560960e-01,3.723400e-01,1.048123e-01,9.670409e-02,4.564187e-02,-1.738988e-01,-4.528699e-01,-1.421656e+00,-6.986180e-01,1.715710e-01,-4.377774e-01,-3.346453e-01,7.087439e-02,-1.578953e-01,-2.325444e-03,-3.829274e-03,-7.401169e-03,-9.212916e-02,-2.731687e-01,5.662354e-02,-7.059173e-02,5.850283e-02,-1.611233e-01,1.022888e-02,4.102115e-02,-2.015728e-01,3.695724e-01,-9.949701e-01,-1.636048e-01,-2.897034e-01,9.879406e-02,-1.715414e-02,-5.347233e-01,-3.456129e-01,3.354724e-01,1.282437e-01,-1.622141e-01,4.771236e-01,-8.280717e-01,8.738522e-01,1.027301e-01,1.932728e+00,
6.889103e-02,-3.018385e+00,2.848784e-01,-5.950375e-01,-3.833920e+00,-2.786297e-02,-6.459556e-01,-1.999244e+00,-2.012011e+00,-3.386055e-02,3.284028e-01,2.905231e-01,3.837616e-01,-6.938367e-01,-2.022707e+00,-1.041623e+01,-2.192023e+00,1.502464e+00,-5.464736e+00,5.840188e-01,5.918012e-01,-6.010621e-01,-3.801256e-02,-2.254189e+00,2.249360e-02,3.318668e-01,-5.655575e-01,-1.673449e+00,-7.884039e-01,-7.311046e-01,2.106393e+00,-8.164113e-01,1.293524e+00,-2.678348e+00,-1.233210e+00,-1.546067e-01,-3.245756e-01,-4.158857e+00,-6.214328e-01,-4.472441e-02,3.720331e-01,-1.075347e+00,-1.351461e+00,5.179789e-02,-1.938725e+00,4.783551e-01,-3.703104e+00,-5.540193e-01,-1.976843e-01,6.209317e-01,
4.987422e-01,2.225481e+00,9.408267e-02,-2.944675e+00,2.195681e-01,-2.509375e-02,-2.120879e-01,-1.661399e+00,5.838842e-01,6.852295e-01,-2.697356e-01,-7.361243e-01,-1.842503e-02,-2.589095e+00,1.627778e-01,1.924030e+00,6.725318e-02,-1.618788e+00,1.505839e+00,-6.907138e-01,1.771348e-01,1.557844e-01,-1.006451e-02,-2.659360e-01,3.147860e-02,-7.893948e-01,2.464001e-01,-3.272976e-01,-7.588039e-01,-2.189296e+00,3.377534e-01,-1.144350e+00,-3.226253e-01,-1.056005e+00,6.636317e-01,8.836038e-01,-1.418797e+00,3.914856e+00,-8.159841e-01,3.354570e-02,7.254383e-01,-3.968967e-01,8.402229e-01,-3.298438e-01,2.839221e-01,5.832021e-01,-3.502306e-01,6.790272e-01,-8.617380e-01,2.106898e+00,
-3.883763e-01,-1.648249e+00,-9.166740e-01,-1.176741e+00,6.661304e-01,-1.009128e-02,1.354528e+00,-6.309187e-01,-1.034220e-01,3.941052e-01,2.011116e-01,-9.727492e-01,-5.037536e-02,-4.280481e-01,-6.496572e-01,4.059891e-01,2.627222e-02,-2.128403e+00,2.764555e-01,5.248732e-01,7.764867e-02,7.821167e-01,3.606250e-02,1.955369e-01,-3.790702e-02,-9.258882e-02,-1.692881e-01,-3.722911e-02,-5.130528e-01,-1.443785e-01,-5.248656e-02,-5.347394e-01,-1.605536e+00,-5.824377e-01,1.783287e-01,-9.491939e-01,-2.634565e-01,-3.857887e-01,-3.124011e+00,5.585850e-03,7.720505e-01,8.106397e-01,-5.648091e-01,-3.332374e-01,-3.634717e-01,-1.889639e+00,-6.792755e-01,-2.676965e-01,8.929127e-01,-8.062325e-01,
-5.205176e-02,-2.014778e+00,4.798956e-01,1.319767e+00,-2.416981e-01,-2.378298e-02,-3.958867e-01,5.353148e-01,-3.659987e-01,2.318342e-01,1.333431e-02,-1.106202e+00,-1.712314e-01,7.924158e-01,8.021623e-01,1.764764e-01,-1.418434e+00,8.464826e-01,4.002422e-01,-4.363887e-01,9.207792e-01,-1.293820e+00,-1.490528e-02,3.540854e-01,4.427180e-02,-2.908204e+00,-9.567821e-01,-2.573015e-01,-6.964636e-01,1.163498e+00,1.156181e-01,-3.216688e-01,7.334464e-01,2.749628e-01,3.892462e-01,1.970001e-01,-4.960605e-01,-2.528303e-02,2.524847e-01,2.936370e-02,-1.144694e+00,2.095573e-01,-9.543894e-02,-1.423999e+00,1.003068e-01,4.182701e-01,1.644053e-02,2.655537e-01,-4.577057e-01,5.484669e-01,
3.619658e-01,-1.371661e-01,-2.053936e+00,-1.762490e+00,1.000700e+00,-3.011729e-02,-1.526574e+00,-6.321964e-01,-8.502604e-01,1.267126e+00,-9.643661e-02,-3.697762e+00,7.735600e-02,1.246643e+00,-1.979065e+00,8.044809e-01,-2.166531e+00,-2.999983e-01,7.252618e-01,1.389477e+00,-1.594245e+00,4.014470e-01,-4.810115e-02,-7.827621e-02,-1.943816e-02,1.994600e-01,6.428266e-01,1.277327e-01,6.418184e-01,-2.393882e-01,-2.526586e+00,-1.389487e+00,-8.249326e-02,3.444536e-01,-2.887600e-01,3.613309e-01,-2.499114e+00,3.269830e+00,1.673338e-01,-6.224418e-02,4.422162e-02,2.259198e-01,-9.727027e-01,-2.195477e-02,9.711756e-01,-2.696225e+00,1.424474e-01,-5.000197e-01,-3.429616e-01,-5.874786e-01,
5.325503e-01,4.171138e-01,2.934777e-02,-1.172337e-01,1.134563e-01,-2.981338e-02,2.724849e-02,8.615981e-01,-4.441020e-01,3.424867e-01,-1.135169e+00,1.738874e-01,-9.187738e-01,-2.509325e-01,-5.149263e-01,4.211755e-01,-6.756395e-01,2.570834e-01,2.754739e-01,2.250411e-01,2.364041e-01,-3.229021e-01,4.156200e-02,-1.273903e-01,6.731590e-03,8.941646e-01,7.931072e-02,8.647554e-02,-2.915002e-01,-2.361764e-01,-1.015202e-01,-2.738342e-02,5.453864e-01,-3.322234e-01,-2.421505e-01,2.195739e-01,-1.579670e+00,8.148922e-02,-8.881163e-02,1.818710e-02,-3.377925e-01,9.129963e-02,8.538412e-01,8.668675e-01,4.232111e-01,2.354507e-01,-5.048454e-01,-1.389639e-01,-1.717141e-02,-5.645223e-01,
6.779658e-01,-2.965400e-01,3.611203e-01,-8.823986e-01,-1.145209e+00,3.233420e-02,5.433566e-02,-7.403876e-02,-3.795206e-02,-1.317424e+00,-5.417286e-02,9.482749e-01,5.233536e-02,-4.383905e-01,-1.287568e+00,-5.415711e-01,-2.375924e-01,-4.227133e-02,-2.965198e+00,-4.194813e+00,2.416135e-01,-7.250861e-01,3.617290e-02,-1.308041e-01,3.185520e-02,6.700726e-01,1.403018e-01,1.307127e+00,-7.294200e-01,-1.072933e+00,7.763104e-01,9.196516e-01,7.182609e-01,-1.133594e+00,4.133475e-01,-1.283942e+00,2.489276e-01,-1.177771e+00,-1.284336e-01,-4.260978e-02,5.019785e-01,1.008602e+00,-2.225676e-01,1.652627e-02,1.392673e+00,5.333496e-01,-8.180667e-01,-1.725908e+00,4.477750e-01,-1.490487e+00,
-2.014465e-01,-5.152505e-01,1.957497e-01,2.578227e-01,-1.420313e-01,2.256790e-02,-1.826332e-01,9.014940e-02,1.763942e-02,3.447576e-01,-2.091710e-01,6.604148e-02,1.308414e-01,-3.665229e-01,-2.632515e-02,-6.350486e-01,-7.445366e-01,3.090879e-01,-7.246709e-01,3.963851e-01,-6.373878e-01,8.956271e-02,2.899480e-02,-3.848363e-02,4.921340e-02,3.474880e-01,2.315333e-01,-1.728999e-01,1.903357e-01,2.031797e-01,-1.164005e-01,1.108626e-01,1.908393e-01,1.905697e-01,-3.964462e-01,7.348127e-01,1.123797e-01,-2.020252e+00,1.823273e-01,2.423160e-03,3.438052e-02,-3.626961e-01,1.063468e+00,4.711097e-02,-5.099975e-01,1.905295e+00,-1.079054e-01,-3.574814e-01,1.301147e-01,-9.225845e-02,
3.812285e-01,-5.133941e-01,6.399756e-01,-4.965847e-01,-4.554504e-01,-2.298154e-02,3.206063e-01,-6.813965e-01,2.096632e-01,-6.403642e-01,-3.060845e-02,5.284300e-01,4.754030e-02,1.389188e+00,4.014609e-01,-8.443913e-01,2.673227e-01,6.365209e-01,-2.452462e+00,1.624699e+00,2.449512e-01,-2.241665e-02,3.062030e-02,7.432168e-01,-1.826221e-02,2.192609e-01,-2.253330e+00,8.103913e-02,7.490696e-01,8.559768e-01,7.616965e-01,-3.534020e-02,8.042206e-01,-1.574560e+00,5.809119e-01,-6.253233e-01,1.174590e-02,-3.371804e+00,3.778573e-01,1.514740e-02,3.484632e-02,2.444765e-02,-1.603809e-01,5.507338e-01,-8.375728e-01,1.234916e+00,3.064694e-01,5.422586e-01,2.569832e-01,-4.399560e-01,
-6.874828e-02,-1.302951e-01,-9.058134e-02,-1.596729e-01,4.816875e-02,-1.075589e-02,-1.751966e-01,2.753804e-01,-2.846453e-02,2.212313e-01,-2.592528e-01,5.816874e-02,-5.224811e-03,-1.582044e-02,8.271153e-02,2.197741e-01,5.196787e-02,-1.138745e-01,1.661725e-01,-1.389891e-01,-9.382708e-02,9.926433e-02,-1.448522e-02,-1.468308e-03,2.082190e-02,-6.034679e-02,1.154399e-02,-6.881241e-02,1.964576e-01,-5.544940e-02,-6.572575e-02,-1.993397e-01,1.030243e-01,-1.302951e-01,3.878969e-02,1.290237e-02,1.296722e-02,-3.771653e-01,7.041097e-02,2.414690e-02,-1.270822e-01,3.202175e-02,8.302219e-02,-1.915404e-01,1.435381e-01,-1.195971e-02,9.151095e-02,-1.906456e-02,9.925938e-02,1.689306e-02,
1.084444e+00,-4.777229e-01,-1.992397e-01,5.260878e-01,4.348555e-02,2.531670e-02,3.130489e-01,-1.145199e+00,-3.748969e-01,-1.214414e+00,-4.056665e-01,4.560004e-01,2.837726e-01,-5.730084e-01,-3.481975e-01,-1.146178e+00,8.203902e-02,-9.508332e-01,-1.133200e+00,2.327629e+00,1.353607e-01,-6.163878e-01,-2.539120e-02,-3.667471e-01,3.712080e-02,5.426052e-01,-4.315972e-01,-2.683631e-01,2.086468e-01,-1.444482e+00,-1.265883e-01,-1.117848e-02,-8.254801e-02,8.002897e-01,8.972133e-01,2.764070e-01,1.365492e-01,-1.020039e+00,5.858088e-01,-3.287580e-02,-3.507376e-02,4.214568e-01,9.727730e-01,5.665062e-01,-4.311690e-01,6.002836e-01,1.049281e-01,4.357030e-01,3.737420e-01,5.391362e-02,
-6.233680e-02,-3.479753e-02,-5.459737e-02,-2.821304e-02,-1.010939e-02,3.876960e-02,-3.206053e-02,-6.038689e-02,9.439550e-03,4.062840e-02,1.553180e-02,7.615220e-03,2.052480e-02,2.262370e-02,-2.754401e-02,-7.063586e-02,-2.006819e-03,5.252620e-04,-2.792872e-02,-3.030192e-02,1.735210e-02,6.031050e-03,1.544900e-03,2.717570e-02,2.692200e-02,3.071640e-02,4.339050e-03,-3.272147e-02,-1.315485e-02,-1.865450e-02,-4.413205e-02,-2.383903e-02,2.620390e-02,-1.621989e-02,1.431540e-02,-3.715790e-02,-7.116631e-02,2.148910e-02,-2.944130e-02,-2.497972e-02,-5.387077e-02,-4.715286e-02,-1.570005e-02,5.348570e-02,-2.192700e-02,-2.072591e-02,2.003460e-02,1.061980e-02,-2.790691e-02,-2.909164e-02,
-2.700689e-02,
1.190396e+00,
6.935049e-02,
-3.095064e-03,
1.181276e+00,
-1.020191e+00,
-8.377233e-01,
-3.258098e-02,
-3.240948e-01,
8.794813e-01,
-1.293598e-02,
-5.805561e-01,
-1.581317e-02,
3.860977e-01,
1.252944e+00,
-3.453746e-01,
-6.319469e-02,
-1.106102e+00,
1.049097e+00,
6.644434e-01,
3.265010e-02,
-2.685953e-01,
-1.660662e+00,
4.098226e-01,
-1.612051e-02,
4.544615e-01,
1.253815e+00,
-6.068474e-03,
2.738528e-01,
1.277478e-01,
2.924899e-01,
9.151669e-01,
-2.106870e-02,
4.574148e-01,
3.680345e-01,
-3.376824e-02,
1.314750e-01,
2.235034e-01,
8.753797e-01,
-2.773096e-01,
-3.175157e-01,
-3.472935e-01,
1.108899e-02,
-1.507587e-01,
2.361576e-01,
-1.169843e-01,
-9.985021e-01,
-1.238169e-01,
-6.210732e-01,
-3.170127e-02,
-2.200366e-02,6.784638e-01,-1.085992e+00,-9.185910e-01,8.875597e-02,-4.463362e-01,7.569193e-01,3.319170e-02,-2.462774e-01,-9.810938e-02,3.095210e-02,5.477715e-01,-1.585074e-02,4.447532e-01,4.878052e-01,8.185053e-01,-2.086953e-02,8.512832e-02,-3.151200e-01,-6.017186e-01,-4.087925e-01,8.243532e-01,-8.349711e-01,3.584472e-01,-3.244665e-02,-5.017306e-01,-2.055734e-01,4.517060e-02,-1.367217e+00,3.848011e-01,-7.508764e-01,4.868226e-01,8.775040e-03,1.289713e+00,2.049369e-02,-5.727973e-02,2.007163e-01,3.473729e-01,-1.723797e-01,-3.363825e-01,-6.739740e-01,-1.192275e+00,-2.315294e-01,-1.497971e-01,1.808849e-01,1.304860e+00,-9.115139e-02,1.409433e-01,2.693531e-01,-1.645341e-02,
3.936530e-02,4.401678e-01,-1.381983e-01,-1.016403e+00,1.352168e-01,1.190713e+00,1.257409e+00,-2.109597e-02,-6.398087e-01,-1.828080e-01,-3.597610e-02,8.287488e-01,-2.339241e-02,5.894262e-01,4.954272e-01,-5.811782e-01,-1.563500e+00,6.271225e-01,3.470118e-01,1.542064e+00,-9.985738e-01,4.261392e-01,-5.040880e-01,2.196518e+00,2.586940e-02,-2.160845e+00,-6.565374e-01,-2.151562e-02,1.755983e+00,2.714112e+00,-5.273836e-02,1.047097e+00,4.286320e-02,-2.309213e-01,-1.392568e-02,-4.059513e-01,-3.249069e-01,1.337331e+00,8.443529e-01,5.718287e-01,6.020879e-01,-7.244447e-01,1.176318e+00,5.721963e-01,-4.362857e-01,2.948260e+00,1.705127e+00,-1.510192e-01,1.135693e+00,2.806820e-02,
4.134240e-02,1.384821e+00,4.233141e-01,1.016737e+00,3.151578e-01,-6.329479e-01,6.400934e-01,3.102690e-02,8.389369e-02,2.489054e-02,9.795610e-03,1.749073e+00,-4.262816e-02,-1.501325e+00,-1.456511e+00,-1.741927e+00,9.065489e-01,-1.193729e+00,-3.897105e-01,5.254544e-02,-6.110106e-03,1.356924e+00,-5.370594e-01,9.214079e-01,2.154660e-03,1.321739e-01,1.665571e+00,-4.942657e-02,1.403464e+00,-9.108927e-01,-3.758139e-01,5.984836e-01,1.998850e-02,1.504780e-01,1.387912e-02,1.681881e+00,-7.102380e-01,1.067211e+00,-1.083629e+00,6.788084e-01,-1.092163e+00,6.442960e+00,-1.068651e+00,-1.243310e+00,-1.911001e-01,3.230311e+00,6.669759e-03,3.865277e-01,4.291106e-01,-3.722193e-02,
6.123350e-03,3.567950e-01,-1.566742e-01,2.617516e-01,2.424151e-01,-6.566797e-02,1.007097e-01,-2.448987e-03,2.625034e-01,1.187673e-01,-1.406900e-02,-1.405748e-02,-2.830353e-02,3.659337e-01,-5.194319e-02,1.948845e-01,-8.978183e-01,8.095636e-02,-4.558645e-01,2.000681e-01,4.788046e-01,-7.505997e-01,2.429915e-02,3.676895e-01,2.872970e-02,-9.836511e-02,1.872357e-01,8.944080e-03,1.288475e+00,1.107829e-01,2.484842e-01,7.945760e-02,1.733500e-02,7.584281e-03,5.177017e-02,-2.180317e-01,4.305352e-01,1.033331e+00,1.449390e-02,-4.359897e-01,-2.665713e-01,5.128487e-01,7.252859e-01,-1.833019e-01,-3.130838e-01,9.622008e-01,3.756991e-01,3.085632e-01,3.997509e-01,1.727530e-02,
-4.348414e-02,-1.337250e-01,-2.394690e-01,1.948745e-01,-7.759871e-02,-9.366053e-02,-3.248099e-01,5.937440e-03,-4.122002e-01,-9.116229e-02,4.833680e-02,-2.945938e-01,3.068710e-02,4.981264e-03,-4.157716e-02,2.364833e-01,3.753773e-02,5.537021e-01,6.067443e-02,-3.927436e-01,-8.809493e-02,-1.443866e-01,2.280277e-01,4.720336e-01,4.029100e-02,-1.303284e-01,-1.548269e-01,-1.738089e-02,-2.234433e-02,-3.416002e-01,2.615516e-01,4.724511e-02,-1.095658e-02,1.326244e-01,6.907517e-02,2.588236e-02,1.259092e-01,2.729596e-01,-3.089075e-01,1.527441e-01,-5.633527e-02,-1.288639e+00,-1.399709e-01,3.708063e-01,-5.429558e-02,1.000959e+00,4.181440e-01,-3.735222e-02,-5.037466e-01,-1.345734e-02,
-3.791510e-02,6.342286e-01,9.217290e-01,8.983132e-01,-6.309268e-01,9.676033e-03,1.393265e-01,-1.394618e-02,1.540280e+00,-3.187469e-01,-1.907557e-02,2.343604e-01,-6.929135e-02,-2.360845e-01,1.651961e-01,-1.707455e+00,5.818681e-01,-2.983570e-01,8.076131e-01,1.207879e+00,3.821133e-01,9.061397e-01,1.146330e+00,-1.342068e+00,-2.108425e-02,1.646684e+00,-6.810773e-02,2.410970e-02,4.824719e-01,-2.371551e-01,4.519132e-01,9.733036e-01,-2.675126e-02,1.039512e+00,2.894842e-01,-5.427578e-01,9.208149e-01,-1.524686e+00,-4.584794e-01,1.015121e+00,-2.145078e-01,1.408253e+00,8.061123e-01,-5.313186e-02,1.739450e-01,9.517856e-01,-1.215767e-01,5.450788e-03,6.999746e-04,1.028120e-02,
-4.407206e-02,1.927451e+00,1.450310e+00,-7.187160e-01,1.167180e+00,-8.635995e-01,1.226332e+00,1.277000e-02,-1.121645e-01,7.932910e-02,-3.959301e-02,-1.860077e+00,-2.314183e-02,3.971522e-01,-7.401654e-02,-1.279640e+00,4.023739e-01,-2.972450e+00,5.946324e-02,-7.965083e-01,-2.051946e-02,-3.616275e+00,4.685562e-01,-9.911413e-01,1.376480e-03,-3.412123e-01,3.160733e-01,-2.212334e-02,2.327030e+00,-1.758814e-01,9.423265e-01,-7.565486e-01,4.696590e-02,-1.219848e-02,1.520272e+00,4.077226e-01,-1.021706e+00,-2.215233e+00,6.620560e-01,-1.730029e+00,1.670439e+00,-4.071805e+00,-1.389356e+00,-1.395648e+00,9.486418e-01,-1.135998e+00,-5.512307e-02,2.408775e-01,-1.211647e+00,3.378810e-02,
-5.550354e-02,5.550901e-01,5.604340e-01,-1.924060e+00,3.739444e-01,-5.793148e-03,-3.488591e-01,4.027620e-02,-5.055868e-01,1.254874e-01,4.524430e-03,-2.471500e+00,-1.904355e-02,-7.926278e-01,9.094939e-03,-1.478882e+00,-3.152988e-01,1.603285e-01,2.389325e-01,3.785592e-01,-5.149940e-01,2.356240e+00,1.864338e+00,-5.471988e-01,3.273480e-02,1.103464e-01,-4.748778e-01,-4.295247e-02,1.116265e+00,3.943696e-01,4.978361e-01,4.267340e-01,2.117310e-02,-5.649173e-01,7.798331e-03,5.759741e-02,-5.154343e-01,1.380253e+00,4.565251e-01,-3.610790e+00,-4.227153e-01,1.490108e+00,6.507458e-02,-5.498117e-01,-2.587559e-03,1.579981e+00,3.110402e-02,2.003810e-02,-1.862531e+00,-3.835758e-02,
-3.183813e-02,4.333223e-01,-1.303708e-01,-3.485823e-01,5.058681e-01,2.675611e-01,-1.547290e+00,-3.752473e-03,3.235419e-01,-1.230453e-01,4.015870e-03,2.441423e+00,1.096670e-02,-5.461656e-01,-1.078690e+00,5.001712e-01,3.545229e-01,1.213087e+00,1.996434e-01,-3.305053e+00,-7.473081e-03,-7.205310e-01,3.452853e-01,-8.174162e-02,-2.434494e-02,-1.677075e-01,1.214636e+00,-4.080188e-02,3.126011e+00,4.761985e-01,-3.958493e-02,1.299345e+00,-3.271915e-02,5.442941e-01,1.427649e-01,7.991546e-01,4.881683e-01,-1.714233e+00,-9.130531e-01,4.529270e-01,6.470442e-02,1.444502e-01,-4.304014e-01,4.623343e-01,-6.843033e-02,2.068001e+00,1.123958e+00,1.347770e-01,-4.401206e-02,1.397590e-02,
1.255960e-02,2.129945e-02,-7.192735e+00,1.016829e+00,4.995629e-01,-4.904853e-01,1.330105e-01,-6.271191e-03,1.217769e+00,5.314944e-01,-2.380307e-02,-1.295648e+00,-6.405552e-02,5.130438e-01,1.943746e-01,-3.477258e-01,-2.220354e-01,-6.901966e-01,9.317266e-02,3.420064e-01,-1.230503e+00,-8.233338e-01,2.242419e-01,-5.436658e-01,1.389720e-02,3.747447e-01,-5.749001e-02,-8.293231e-03,-6.772677e-01,-1.841432e+00,-4.685400e-01,-2.391114e+00,3.094250e-02,-4.816236e-01,8.338572e-01,-9.099746e-01,-3.945969e-01,-9.939602e-01,4.987679e-01,-6.801067e-01,1.817125e+00,6.583005e-01,1.455151e-01,-3.999802e-01,5.800578e-02,-2.936888e+00,3.101274e-01,4.058574e-02,6.648434e-01,2.811750e-02,
-2.020576e-02,-1.267459e+00,2.165480e+00,1.769675e-01,-2.069450e+00,-3.855655e-01,-2.662815e+00,-5.487037e-02,1.901264e+00,5.672898e-01,1.631200e-02,-3.710619e+00,-2.745442e-02,1.800375e+00,-1.227796e+00,-9.974446e-01,-3.339585e-01,8.602774e-01,8.179202e-04,6.338164e-01,3.435151e-01,1.627322e+00,-8.890272e-01,4.589551e-01,2.105520e-02,-8.855054e-02,-2.199214e+00,4.124950e-02,-3.014103e-01,7.251730e-01,-1.388285e+00,-3.397751e-01,2.573440e-03,8.634803e-01,-6.965031e-01,-1.633746e+00,1.232513e+00,-3.208437e+00,1.497751e-01,2.469591e+00,3.560876e-01,-2.084175e+00,1.038290e+00,1.801404e+00,-1.182356e+00,-4.883845e-01,-2.643887e+00,-3.713497e-02,-1.662167e+00,-1.344906e-02,
1.465490e-02,1.736463e-01,-8.942883e-01,4.022437e-01,-1.386952e+00,1.050673e+00,-5.224326e-01,2.073230e-02,8.092473e-02,-1.040037e-01,-4.014659e-02,-7.205461e-01,-1.892043e-02,-4.560301e-01,1.526204e-01,2.612102e-01,-1.840695e+00,3.113840e-02,-7.686555e-02,-2.780005e-01,-1.665773e+00,-5.827225e-01,-2.256683e-01,1.001167e-01,5.610020e-05,3.377550e-02,3.198650e-01,2.886560e-02,-1.018110e-01,-3.652372e-01,-1.409051e+00,-6.856698e-01,3.212410e-02,2.021468e-01,-1.708132e-01,3.711962e-01,-1.396436e+00,1.686059e+00,-1.749886e-01,-3.724608e-01,1.594044e+00,1.396648e-01,-7.721581e-01,1.084832e+00,3.186615e-01,7.961743e-01,-4.569543e-01,2.516869e-01,6.903185e-01,-2.232453e-02,
1.890740e-03,-2.187660e-01,1.090247e+00,8.799231e-01,-8.486717e-01,1.272711e+00,-7.563476e-01,4.295990e-02,2.857886e-01,2.202315e-02,-4.004670e-02,2.432333e+00,2.419690e-02,-4.860342e-01,-4.675815e-01,8.557276e-01,-2.213253e+00,4.115639e-01,-4.328931e-01,6.009773e-01,6.539316e-01,-5.083148e-01,-1.637826e-02,6.367050e-01,4.779340e-02,5.994825e-01,-8.624986e-02,4.958860e-02,-5.906975e-01,5.591118e-01,2.102982e-01,1.158147e+00,-4.557079e-02,1.412525e-02,2.731616e-01,1.500865e-01,2.629394e-01,2.806982e+00,-3.037817e-01,7.553779e-02,4.053089e-01,-4.301721e-01,-3.954059e+00,2.681994e-01,1.764692e-01,5.240900e-01,1.316121e+00,2.784610e-01,-2.673813e-01,-2.591842e-02,
1.226170e-02,6.859354e-01,-2.832313e-01,5.017893e-01,-1.063166e+00,1.403875e+00,3.400865e-01,-2.223939e-02,9.303703e-01,-1.896921e-01,-2.585438e-02,-1.581034e-01,5.778850e-02,1.160597e-02,-6.277726e-01,-2.780722e-01,-1.850138e-01,-4.663008e-01,-1.279357e-01,3.082672e-01,-9.955025e-02,-2.434686e+00,-5.141243e-01,1.273883e-01,3.497030e-02,-2.099487e-01,3.558030e-01,-3.740403e-02,1.092584e-01,-1.470610e+00,-1.462541e+00,8.580093e-01,-4.112033e-02,4.803282e-01,-2.838999e-01,-1.551522e+00,-4.729789e-01,1.248133e+00,3.736636e-01,8.221743e-01,-6.770373e-01,2.002661e+00,4.475849e-02,-1.905012e+00,4.594243e-01,7.879074e-01,8.509763e-02,1.605869e-01,-8.475688e-01,-2.923839e-02,
-2.849382e-02,2.799851e-01,6.900966e-02,6.393198e-01,1.791528e-01,-3.283752e-01,1.189800e-01,3.421920e-02,-1.332342e-01,1.357490e-02,5.073350e-02,3.415264e-01,-1.650239e-02,1.544987e-01,-3.140484e-01,5.956142e-03,-5.798905e-02,2.777821e-01,-2.432939e-01,7.126035e-02,-3.317173e-01,1.223433e-01,1.954875e-01,2.094073e+00,1.214420e-02,-8.875648e-01,1.675519e-01,-3.306942e-02,1.583710e-01,8.784848e-02,-1.267914e-02,1.949328e-01,-1.955390e-02,-1.396103e-01,-3.634919e-01,1.366028e-02,2.616466e-01,1.428140e+00,3.257664e-01,3.074642e-02,4.675088e-01,-2.145786e+00,-7.910603e-02,1.118201e-01,-2.979712e-02,1.442250e+00,-2.497144e-01,-6.158698e-01,3.749332e-01,2.184080e-02,
1.181710e-02,4.233153e-01,-2.818243e-01,-1.015414e+00,1.696901e-01,2.094170e+00,-3.865088e-01,-1.992992e-02,-1.740866e-01,2.070924e-01,7.722280e-03,1.167269e+00,2.811820e-02,-7.985039e-01,-4.388612e-01,-1.076862e-01,6.608359e-01,7.146988e-01,-8.970658e-03,-2.986772e-01,8.288261e-01,-4.761887e-01,-3.062380e-02,-6.783453e-01,3.476620e-03,-1.434038e-01,6.423042e-01,-2.639272e-02,1.125808e+00,9.749894e-01,5.607975e-01,4.612064e-02,-2.601891e-02,6.128348e-01,6.524945e-01,-5.425144e-01,4.201125e-01,-6.706400e-01,2.570177e-01,5.222863e-01,-2.410476e-01,7.652234e-01,4.120053e-01,4.036397e-01,-3.005760e-02,-7.004997e-01,-1.220585e+00,1.475565e-01,-1.168570e+00,-2.608093e-02,
4.006740e-02,2.397483e-01,-7.743751e-01,-4.844364e-01,4.991484e-02,-3.647342e-01,-1.216697e+00,1.396150e-02,-2.725818e-01,-1.190467e-01,7.920350e-03,1.087634e+00,-3.649837e-02,-5.346425e-02,6.078640e-02,6.545013e-01,2.365714e-01,4.184334e-01,-3.678319e-01,3.375920e-01,2.552359e-01,-4.442940e-03,-1.553299e-01,4.919706e-02,-1.537068e-02,-4.282218e-02,-1.548077e-01,-1.877307e-02,-3.159482e-01,-1.275590e-01,-4.694531e-01,4.854138e-01,-5.746961e-02,-2.367329e-01,-1.099183e-01,3.783928e-01,1.552142e-02,5.467040e-01,-3.165017e-01,-2.574540e-01,-6.034033e-01,-1.225372e+00,2.668298e-01,-3.047059e-01,4.446021e-01,1.514007e+00,-3.123738e-01,-1.866571e-02,-4.226618e-01,-2.816122e-02,
-3.434929e-03,1.009790e-01,4.521265e-01,1.499517e+00,-9.314462e-01,2.447562e+00,-2.433302e-01,-3.363199e-02,4.804853e-01,-1.594245e-01,3.208920e-02,1.830982e-01,1.255310e-02,-3.605276e-01,9.982658e-02,6.716429e-01,-5.080673e-03,5.559812e-01,-3.791813e-01,1.924858e-01,6.579726e-01,6.516328e-01,-7.637802e-02,8.727764e-01,7.790610e-03,-9.847581e-01,1.966925e-01,-1.954542e-02,-3.886086e-02,-6.245385e-01,-4.039232e-01,5.246458e-01,1.592610e-02,-5.202116e-01,1.064358e-01,-6.709561e-01,1.276903e+00,2.550061e+00,7.983646e-01,-5.078997e-01,1.443169e-01,5.359376e-01,6.408379e-01,3.237979e-01,-5.682472e-02,-2.212072e+00,4.627608e-01,8.321465e-02,1.135765e+00,1.397070e-02,
-2.729121e-02,-5.296814e-02,7.260011e-01,2.320867e+00,8.739859e-01,1.890049e+00,3.137888e+00,-3.980238e-03,4.220192e-02,2.699235e-01,1.845070e-03,1.306768e+00,-2.785145e-04,-1.077114e-01,4.549624e-01,6.021002e-01,-3.054048e-01,-4.205115e-02,-3.894216e-01,1.283367e+00,1.038310e+00,6.763809e-01,-2.579096e-01,1.607859e+00,-3.586510e-03,1.250501e-01,1.918125e-01,-1.859440e-03,-1.143371e+00,1.707453e+00,1.667012e-01,2.352171e+00,-4.676664e-02,1.179821e-01,-7.508280e-01,-1.233462e-01,-1.036977e+00,-1.988478e+00,3.312114e+00,-1.527888e-01,-1.353137e+00,-1.075852e+00,1.662026e+00,1.730629e+00,3.384988e-01,-1.936857e+00,1.156973e+00,-2.425828e-02,1.302226e+00,-1.027756e-02,
2.230640e-02,-2.213960e+00,1.122690e+00,6.186162e-01,1.146489e-01,1.079149e+00,5.053861e-02,1.973010e-02,6.905785e-01,-5.178654e-01,-5.209610e-02,1.265270e+00,2.825200e-03,-6.480907e-01,-1.183336e+00,3.222123e-02,4.856198e-01,-1.298668e+00,-5.356141e-01,-5.201530e-01,1.305335e-01,2.952972e-01,-5.874362e-01,8.088088e-01,-4.185137e-02,3.688156e-01,-5.190330e-01,4.486890e-02,-1.516666e+00,1.081660e+00,-2.585247e-01,-2.537059e+00,-2.935242e-03,1.340698e+00,4.174830e-01,-1.606173e+00,-1.943816e+00,1.469358e+00,1.011335e-01,3.850645e-01,-5.514650e+00,9.239977e-01,-4.354352e-01,-1.133634e-01,-1.680367e+00,4.574988e-01,-4.635213e-01,-1.588033e-01,2.231302e-01,-2.949927e-02,
7.805630e-03,2.832959e-02,-1.993912e-01,-3.371360e-01,-7.847033e-02,-9.666083e-01,5.932144e-02,3.877850e-02,-5.014024e-01,-3.212820e-01,3.760540e-02,2.532859e+00,2.071220e-02,4.758766e-02,-4.674129e-01,4.827295e-01,4.781623e-01,-5.010095e-02,-4.766291e-01,1.651390e-01,2.067046e-01,5.462292e-01,-1.986529e-03,3.057775e-01,4.744050e-02,-3.421092e-01,1.046845e+00,4.259310e-02,2.000184e-01,8.276364e-01,2.574298e-01,-5.528528e-02,4.191470e-02,-4.078289e-01,-1.263813e-01,1.059490e+00,2.067369e-01,2.813308e+00,8.023044e-02,-2.046108e-01,3.952416e-01,1.566348e+00,-1.037189e+00,-9.745369e-02,-2.679783e-01,1.309162e+00,9.757600e-01,1.651481e-01,9.472547e-02,1.118650e-02,
2.889210e-02,-8.140742e-01,-1.067600e+00,1.314223e+00,7.352126e-01,9.069416e-02,-7.868829e-01,-3.035585e-02,1.025571e+00,3.482286e-02,-3.234303e-02,-2.166430e+00,1.168090e-02,-3.561159e-01,1.285505e-01,-5.988653e-01,-7.218025e-01,-1.764046e+00,6.117666e-01,4.485284e-01,-3.629394e-01,2.633618e-01,-4.609721e-01,-9.869710e-01,3.610890e-02,-3.271410e-01,7.465639e-01,7.203570e-03,4.718766e-01,-1.184548e-01,-5.798996e-01,1.283505e+00,-3.398428e-02,3.986562e-01,-3.588944e-01,-9.951509e-01,1.401088e+00,-6.342093e-01,-2.200507e-01,-4.399429e-01,1.854201e+00,-7.229590e-01,5.852870e-01,1.221739e+00,-8.684636e-01,4.133002e-02,-1.105172e+00,1.155766e-01,8.064808e-02,-2.506961e-02,
6.453070e-03,1.266814e+00,2.937478e-01,-2.423475e-01,-1.079579e-01,1.954048e+00,1.818165e-01,3.734030e-02,2.487108e-02,1.035926e-01,-1.784205e-02,9.270271e-01,-4.607014e-03,1.008879e+00,-3.968906e-02,-2.805548e+00,8.300962e-03,1.737747e-01,-5.040860e-01,5.210617e-01,4.109936e-01,2.487563e-01,-8.131116e-01,4.303693e-01,-3.451089e-02,-2.102416e+00,3.115996e-01,-3.034797e-02,1.949181e+00,3.781735e-01,-1.738897e+00,9.201654e-01,-3.474541e-02,-6.178180e-02,3.192790e-01,-1.748795e-01,1.258201e+00,1.118926e+00,1.304662e+00,1.187990e+00,7.030980e-01,1.333669e+00,8.567618e-01,5.625538e-01,-6.745194e-01,9.784457e-01,1.355350e+00,-1.703284e-01,2.300166e-01,-4.141161e-04,
-4.617993e-02,-3.697135e-01,1.745370e-01,3.387479e-01,7.399583e-01,9.858015e-01,5.071126e-01,-3.355493e-02,-3.472390e-01,-5.546819e-01,7.817280e-03,1.444252e+00,-3.549857e-02,-8.066093e-01,-3.870108e-01,5.039654e-01,6.890717e-01,-7.351962e-01,-3.333374e-01,5.669314e-01,-1.784448e+00,1.881495e-01,6.860522e-01,2.712476e-01,2.508420e-02,2.191583e-01,4.929180e-01,2.123960e-02,-2.966582e+00,-3.592479e-02,2.053643e+00,-9.105049e-01,-7.134377e-03,2.519115e-01,-4.957939e-02,-5.478240e-01,-2.063178e-02,1.840166e+00,3.952636e-01,1.924707e-01,4.320330e-01,-5.370494e-01,5.829813e-01,9.974215e-01,-3.709467e-01,7.112131e-01,1.892870e-02,-4.389450e-02,9.902891e-01,1.895830e-02,
-3.717517e-02,7.070709e-01,-4.807327e-01,-4.941698e-01,-1.651724e-01,-1.260369e+00,7.602952e-02,-2.898942e-02,-4.004509e-01,-1.567439e-02,4.237550e-02,2.344855e-02,4.307840e-02,5.737347e-01,-2.290680e-01,2.856328e-02,-3.313224e-02,6.866571e-01,1.544638e-01,-4.352898e-01,4.741278e-01,7.602379e-02,1.168804e-02,-5.705813e-01,-2.244685e-03,2.937587e-01,5.474948e-01,-3.154058e-02,1.024967e+00,1.246976e-01,-1.816455e-01,-3.119486e-01,-2.439291e-02,1.557696e-01,4.252961e-02,2.353190e-01,3.800877e-01,-1.403839e+00,2.824797e-02,-2.165349e-01,2.967575e-01,-1.650835e+00,1.220512e-01,-6.418601e-01,1.444608e-01,1.767685e+00,2.839528e-01,1.360121e-01,5.866176e-02,-3.930657e-02,
4.969060e-03,8.815395e-01,1.287538e-02,-1.621262e+00,-1.408930e+00,-1.183972e+00,8.552276e-01,1.954790e-02,-5.359737e-01,2.310486e-01,-2.355360e-02,9.166480e-01,-3.495772e-02,3.753912e-01,-3.948565e-01,-4.098368e-01,8.727186e-01,1.379961e+00,-2.996963e-01,7.879010e-01,6.925327e-01,1.002721e-02,-1.052955e-01,7.035478e-01,2.397050e-02,1.733896e-01,-1.761723e-01,-3.556260e-02,2.785246e+00,1.906708e+00,1.124096e+00,-7.694917e+00,-3.826466e-03,-1.201264e+00,9.643661e-02,-2.526262e-01,-2.229777e-01,3.296599e-01,-6.960465e-01,9.658777e-01,6.251513e-01,-1.500708e+00,9.430037e-01,-9.329461e-01,9.287874e-01,-2.116859e+00,-2.091306e+00,-2.788923e-01,-2.991186e-01,3.796270e-02,
4.553040e-03,-4.735557e-01,-7.915259e-01,-2.752917e-02,1.097411e-01,6.308549e-01,-4.642627e-01,1.164640e-02,-1.973227e-01,2.458972e-02,2.768170e-02,1.516087e+00,-2.497740e-02,2.086475e-01,-3.490368e-01,6.497152e-01,-2.798882e-02,-1.489114e-01,2.523500e-02,-4.163291e-01,4.136448e-01,-3.419901e-01,2.624173e-01,6.957988e-01,-1.024130e-02,1.496583e-01,3.723944e-01,2.043740e-02,9.293962e-01,-5.096945e-02,2.813945e-01,-1.269146e-01,4.001850e-02,-4.045767e-01,-1.988054e-01,-1.245239e-01,-3.219799e-02,1.520105e+00,-1.068893e-01,2.431697e-02,-1.670075e-01,-7.670718e+00,-4.548898e-02,-3.854231e-01,2.970079e-01,1.976971e+00,-2.117162e-01,1.632124e-01,3.106412e-01,-3.177036e-04,
-5.324730e-02,3.636736e-01,-1.726252e-01,-1.273559e+00,1.692951e-01,2.373035e-01,1.477931e-01,-4.615346e-02,-2.441655e-01,1.640252e-01,-1.341381e-02,-8.742812e-02,2.575420e-02,2.649735e-01,9.740167e-02,3.680533e-02,-7.901583e-01,1.114219e-01,1.542034e-01,2.380398e-01,3.313431e-01,1.835876e-01,-1.015575e-01,5.604854e-01,2.045090e-02,-1.920414e-01,2.903053e-01,1.592320e-02,-4.097671e-01,5.719236e-01,-1.717646e-01,-3.375309e-01,1.575660e-02,-1.289831e-01,3.678028e-01,3.002739e-01,2.923035e-02,8.075964e-01,4.149011e-01,1.997929e-01,-6.363444e-01,-2.340322e+00,-7.031640e-01,-4.331486e-01,-7.780798e-01,6.714190e-01,3.192711e-01,-2.537968e-02,-9.505706e-01,6.601510e-02,
-2.088104e-02,2.075377e-01,-1.349400e+00,-1.303880e+00,3.872016e-02,1.323066e+00,3.005234e-01,1.761810e-02,4.814933e-01,-2.389054e-02,8.054930e-03,-1.365237e+00,-5.480149e-02,1.270469e-01,1.730509e-01,1.309562e-01,1.026130e+00,1.419709e+00,8.997383e-02,-2.767238e-02,1.649734e+00,-1.129847e+00,3.644019e-01,-7.003905e-01,-3.471734e-02,1.554976e-01,3.016174e-01,-2.618758e-02,1.046658e+00,1.662558e+00,2.591539e+00,-7.884949e-01,2.951700e-02,-4.096540e-01,4.086389e-01,3.478420e-01,2.432100e+00,-3.717537e+00,-1.931352e+00,-6.273757e-01,3.050487e-01,-1.079478e+00,8.480616e-01,3.313708e-01,1.027996e+00,-5.122306e-01,7.660234e-01,-7.859577e-02,-2.020667e+00,-1.518757e-02,
1.320450e-04,-1.350107e-01,6.905755e-01,-1.470590e+00,3.960181e-01,1.489457e+00,3.528726e-01,-2.866360e-02,-7.294179e-01,-1.818333e-01,4.760280e-02,8.465391e-01,4.069920e-02,4.015400e-01,2.713372e-01,-9.546590e-01,-2.652179e-01,-1.325504e+00,-2.980389e-01,5.656375e-01,2.704492e-01,-5.688683e-01,-1.374125e-02,7.771647e-01,-2.776924e-02,3.479127e-01,-1.518646e+00,-1.458107e-02,-6.692886e-02,1.202890e+00,-9.168305e-01,1.310372e+00,1.357800e-02,-4.845879e-01,5.918863e-01,-1.861127e-01,-3.864371e-02,1.481179e-01,4.837793e-01,1.239876e+00,-3.046362e-01,9.797664e-02,-2.788519e-01,5.736750e-01,1.022898e-01,-2.475661e-01,-1.361056e-02,1.973654e-01,-9.582163e-02,4.776190e-02,
3.856280e-02,-8.582142e-02,-1.392669e-02,1.669190e-03,-6.011429e-02,-7.713238e-03,-1.086063e-01,-3.356220e-02,-4.997480e-02,-1.737927e-01,2.993430e-02,6.539166e-02,-2.844534e-02,-2.411587e-03,-3.136484e-02,-1.028614e-01,-4.292379e-02,3.701036e-02,-3.270602e-02,-6.038487e-02,6.643761e-02,-1.866329e-02,-8.936793e-02,-4.087429e-03,4.456750e-02,2.965822e-02,4.221330e-04,-4.363745e-02,-3.768633e-02,1.988068e-02,-6.445325e-02,-2.597286e-02,-1.038704e-02,-9.167901e-02,4.569305e-04,8.048967e-02,-4.073754e-02,-1.479670e-01,-5.596531e-02,2.558269e-02,7.741672e-02,-5.590643e-03,5.260672e-02,-6.694684e-02,-5.382149e-02,-2.373429e-02,-4.643404e-02,-9.033561e-02,1.534183e-01,-1.678418e-02,
2.535690e-02,-1.145128e-01,-1.081276e-01,-8.359012e-01,-1.232675e-01,4.795115e-01,1.136827e+00,-4.270118e-02,-1.712829e-02,1.039765e-01,2.456430e-02,1.097752e+00,-3.837000e-02,-4.809974e-01,6.357365e-01,-6.359980e-01,-1.940957e-02,-2.362259e-02,9.001229e-03,-1.630504e-01,-1.223928e+00,1.144555e-01,-2.444392e+00,6.713086e-01,-8.016148e-03,-2.222879e-01,-4.760484e-01,-1.439997e-02,-3.301569e-01,1.133502e+00,-2.458572e-01,4.262501e-01,1.460790e-02,8.451372e-02,4.386158e-01,1.088772e+00,-7.847952e-01,2.646389e+00,9.786839e-01,-2.187680e+00,-6.281816e-01,-1.915394e+00,2.148547e-01,2.444465e-01,-5.214095e-01,-4.018295e-01,1.679050e-01,3.418351e-01,2.360175e-01,-2.060339e-02,
-1.801275e-02,-8.963315e-02,-2.763037e-01,7.021884e-02,-2.387327e-01,-1.067419e-01,-3.194994e-01,2.018320e-02,-2.555330e-01,2.354428e-02,2.777490e-02,-7.696341e-01,-3.612123e-02,4.610806e-03,-2.422111e-01,-6.029407e-02,1.393831e-01,1.428689e-01,1.203533e-01,-3.737666e-01,4.140012e-01,1.514660e-01,5.022053e-01,7.710531e-01,5.688120e-03,-9.354156e-03,-2.958886e-02,7.838070e-03,-4.364260e-01,-9.248207e-01,1.711192e-01,-5.272947e-02,3.712190e-03,1.041926e-01,-1.913455e-01,6.652859e-01,4.252426e-01,1.726143e+00,-7.142559e-02,-2.557785e-01,-3.439929e-01,-3.861695e-01,-5.744759e-01,3.697681e-01,2.369793e-01,-8.127379e-01,3.108214e-01,-1.434917e-01,6.794886e-01,4.698520e-02,
3.263780e-02,-6.908774e-01,-2.354158e-02,2.727678e-02,5.168958e-01,2.247419e+00,8.123732e-01,-1.377519e-03,6.421120e-01,-4.990561e-01,4.095830e-02,2.949626e+00,6.286750e-03,4.712796e-02,-1.857026e-01,-6.120721e-01,-2.949301e+00,-8.720551e-02,6.818031e-01,-2.126181e-01,3.877147e-02,-3.746514e-01,-1.021160e-01,-1.364803e+00,5.424340e-02,-5.851031e+00,-9.900444e-01,4.050570e-02,1.618284e+00,6.476857e-01,-1.578781e-01,2.567971e+00,4.287410e-02,-7.835630e-01,1.701760e-01,-2.038362e+00,-1.306314e-01,1.302434e+00,8.516059e-01,5.256645e-01,-1.485498e+00,-4.887774e+00,-1.701264e-01,1.402434e+00,-5.897188e-01,-3.358452e-01,-1.524898e+00,2.685385e-01,9.411455e-01,6.565960e-02,
-2.058107e-02,4.499696e-02,-1.526383e-01,4.090288e-01,-5.659494e-01,-4.975482e-01,4.174682e-01,-5.570917e-03,-1.312273e+00,4.431515e-01,-4.052322e-02,-9.809141e-01,-4.265573e-02,6.207864e-01,2.037273e-01,-6.034195e-01,2.959476e-01,-2.161531e-01,-5.360636e-01,6.467125e-01,-8.523451e-02,-1.582791e-01,1.318373e+00,-1.588175e-02,-2.230403e-02,1.774120e-01,-8.497534e-01,-2.687812e-02,-1.170641e-01,-2.096659e+00,7.058992e-01,1.029551e+00,4.985480e-02,9.729136e-01,-7.912017e-01,-3.285944e+00,-2.410112e+00,-4.540808e-01,-5.388663e-01,1.160488e+00,2.562100e+00,-2.037008e+00,-7.462708e-01,1.473135e+00,-1.839190e-01,1.080932e+00,-1.914061e-01,1.072111e-01,-2.767107e+00,-2.283762e-03,
-1.120545e-02,1.380030e+00,1.874865e-01,5.055822e-01,3.566505e-01,-1.252632e+00,1.617782e+00,-4.008902e-02,1.108303e-01,3.272000e-01,-2.784701e-02,-8.009754e-01,-4.393308e-02,-1.450481e-01,7.746354e-01,-9.468325e-01,-8.138752e-02,-7.455577e-01,-6.158425e-01,-1.801224e-01,-1.695952e+00,2.381712e-01,-1.014171e+00,3.908985e-01,2.898880e-02,5.218729e-01,1.374754e-01,-4.011841e-03,4.862771e-01,-4.167745e+00,-4.759130e-01,1.116017e+00,4.061420e-03,3.050615e-01,7.630094e-01,-3.183833e-01,8.213832e-01,-2.760724e+00,-5.025811e-02,1.221568e+00,5.874205e-01,5.737446e-01,-3.459290e+00,-3.430778e-01,-2.712123e-01,-6.550466e-01,-5.564504e-02,2.447092e-02,-4.390086e-01,3.450610e-02,
-2.982681e-02,3.039478e-01,6.109369e-01,1.005226e+00,-3.028839e-01,8.181343e-01,7.953927e-01,1.531450e-02,3.172831e-01,-4.419114e-01,7.703140e-05,-4.187379e-01,-3.179339e-03,-3.456190e-01,1.304652e-01,2.587989e-01,2.252062e-01,-3.204457e-01,-1.550239e-01,5.558443e-01,-5.300410e-01,5.465820e-01,-7.249861e-01,-1.555178e+00,1.871960e-02,3.541260e-02,-9.830098e-01,3.698390e-02,2.039499e+00,1.375771e+00,5.262120e-01,1.029887e+00,-2.706972e-02,-3.673067e-01,4.320726e-01,3.739557e-01,6.368195e-01,5.273126e-01,5.395747e-01,1.980089e-01,-1.468045e-01,-1.245785e+00,7.272986e-01,1.593509e-01,6.336752e-01,-9.857499e-01,3.960356e-01,-3.960291e-01,-1.291739e-01,1.783730e-02,
3.481200e-02,1.134270e-02,2.208410e-02,8.598780e-03,-4.186288e-02,-1.195618e-02,8.781620e-03,1.373370e-03,-9.321492e-03,-9.290152e-03,-1.007567e-02,-2.855613e-02,-9.377648e-03,-4.013306e-02,2.783070e-02,2.786180e-03,3.926950e-02,-5.038102e-02,-2.158421e-02,-4.314993e-03,-4.964069e-02,-3.785793e-02,-2.250846e-02,-3.075268e-02,1.382730e-02,-5.170594e-02,6.125860e-03,5.454070e-03,-2.266046e-02,-5.877725e-03,-4.394793e-02,-4.490803e-02,-4.895177e-03,-4.280057e-02,2.218090e-02,4.410150e-02,-2.802023e-02,-3.178672e-02,5.287940e-06,-7.564142e-03,-4.967614e-02,-3.947736e-02,-6.870555e-03,4.510840e-02,-2.880853e-02,3.886460e-02,4.273990e-03,2.864460e-02,-2.946109e-02,-4.356130e-02,
1.342840e-02,-8.843145e-01,-2.232201e-01,-4.814872e-01,-1.993992e-01,6.277948e-01,-2.622930e+00,4.153540e-02,2.120342e-01,-2.258431e-01,-2.627373e-02,-3.375814e+00,-9.875597e-03,3.093978e-02,-9.952247e-02,4.980789e-02,8.307605e-01,-2.808719e-01,3.309382e-01,6.660388e-01,3.749675e-01,-3.286530e-01,1.084189e-02,-4.578572e-01,-4.216033e-02,-1.175610e-01,-5.541446e-01,3.857880e-02,-6.769192e-01,5.522406e-01,1.757060e-01,5.071204e-01,4.830380e-02,-3.132747e-02,3.749556e-01,-3.164209e-01,-7.084302e-01,-2.818698e+00,-2.393690e-01,2.638608e-01,-4.636183e-01,2.192979e+00,-1.409293e+00,-2.876874e-01,3.454635e-01,-4.861241e+00,-6.587967e-01,1.931540e-02,-8.881708e-01,2.103630e-02,
2.989800e-02,-2.049421e+00,2.665612e-01,-3.280874e-01,3.102892e-01,1.417091e+00,-2.972895e-01,8.506800e-03,1.419423e+00,-4.037808e-01,-3.114497e-03,-2.678207e-01,-4.655009e-02,-6.454486e-01,-8.733571e-01,-1.425453e-01,-1.428443e+00,-2.329454e-01,3.431340e-01,8.082994e-01,2.249505e+00,-1.649431e+00,4.114699e-01,-2.549412e+00,4.163540e-02,5.677531e-01,-2.817334e+00,7.211960e-03,-2.364218e+00,-2.184246e+00,3.852168e-01,-1.347108e+00,-4.571028e-02,-2.434565e-01,-5.265019e-01,-1.969550e+00,1.770724e-01,-1.297729e+00,-4.939273e+00,-4.453272e-01,-2.046129e+00,1.521076e+00,1.405304e+00,-2.600295e+00,-8.286424e-01,1.567477e+00,-1.066913e+00,1.641179e-01,1.511770e+00,-1.707900e-02,
1.281220e-02,-3.623446e-01,-1.003645e+00,1.525787e+00,3.383949e-01,-6.778646e-01,2.605591e+00,2.474050e-02,-6.358395e-01,2.716900e-02,-2.225313e-02,-2.704982e+00,-4.942283e-02,-8.838096e-01,-6.563788e-01,-5.925953e-01,5.502420e-01,-1.049996e+00,-6.132387e-01,1.040411e-01,2.206066e-02,1.762636e+00,5.504598e-01,-4.434334e-02,4.776680e-03,5.832882e-01,1.468071e+00,4.278730e-02,-2.346563e+00,-1.529524e+00,-5.340304e-01,-5.844052e-01,-2.122626e-02,2.109779e-01,-5.424730e-01,8.197715e-01,9.852510e-01,-5.736194e+00,-4.587026e+00,8.502229e-01,-5.148253e-01,1.124066e+00,-3.937980e-01,1.821301e+00,1.260300e+00,-3.357392e+00,-9.120724e-01,1.149143e-01,-5.411863e-01,-1.504011e-02,
5.712290e-02,-1.004639e-01,1.728559e-01,7.166337e-01,5.732962e-01,1.052208e+00,1.880714e-01,2.669380e-02,-4.165331e-01,-5.401288e-01,-2.337160e-03,2.452118e-01,-6.228993e-03,-2.087882e+00,5.913727e-01,3.085247e-03,-1.266510e+00,-6.229943e-02,-4.004519e-02,-8.216249e-01,1.523393e+00,4.695300e-01,-3.060876e+00,2.961593e-01,-2.747705e-02,6.874441e-01,-1.527261e-01,1.416760e-03,-1.247390e+00,3.217673e-01,-7.181948e-01,1.171731e+00,-1.666904e-02,-3.780561e-01,-5.965878e-01,-3.033252e+00,5.700265e-01,4.245369e-01,2.062662e+00,1.373257e+00,-1.128493e+00,5.956446e-01,1.599790e+00,9.916983e-01,-9.041389e-01,-1.858955e+00,-6.692876e-01,-2.303972e-01,-9.458771e-01,-4.966887e-02,
4.495570e-02,1.327877e-01,3.980582e-01,1.186330e-01,2.348704e-01,1.152925e+00,6.992261e-01,1.238300e-02,6.363997e-01,2.551301e-01,-4.114700e-03,4.242685e-01,4.387360e-02,-1.911273e-01,3.202023e-01,6.465393e-01,-2.187569e-01,-9.432794e-01,-6.331821e-01,7.216803e-01,-1.894336e-01,1.963249e-01,9.355104e-02,9.107887e-01,-2.726182e-02,-2.243836e+00,-2.406103e-02,4.600850e-03,-1.337230e+00,1.228009e+00,5.272433e-01,-1.676741e-01,1.245660e-02,2.892037e-01,-1.784983e-01,-7.120662e-01,2.956893e-01,9.569285e-01,2.486236e-01,2.654140e-01,2.664400e-01,-1.164914e+00,1.092960e+00,-2.643150e-01,-5.201146e-02,2.248458e+00,7.663648e-01,-1.164894e-01,7.950215e-01,-5.622276e-03,
1.719010e-02,1.120252e+00,-1.421060e-01,1.114953e+00,1.563561e+00,-6.155859e-01,9.598326e-01,-1.844937e-02,-4.159887e-01,-2.998841e-01,3.273610e-02,1.358076e+00,2.149100e-02,4.329052e-01,8.172890e-01,-1.775883e-01,1.180892e+00,-8.227561e-01,8.567787e-02,8.962326e-01,6.242960e-01,3.741903e-02,6.009911e-01,3.099377e-01,-5.199217e-02,-1.117898e-01,-6.159243e-02,4.677100e-02,1.077219e+00,1.367156e+00,3.925849e-01,-8.403251e-01,5.205550e-02,-9.248307e-01,6.029555e-01,4.241427e-01,-4.806489e-01,1.479182e+00,-6.075635e-01,-5.216953e-02,2.650051e-01,-8.468436e-02,-1.718404e+00,3.010557e-01,-6.242658e-01,1.909997e+00,6.764814e-01,-4.768351e-02,-7.714047e-01,-2.468814e-02,
2.162240e-02,-3.509679e-01,1.143084e+00,4.292571e-01,8.682212e-02,-5.514923e-01,4.479928e-01,3.428340e-02,1.019522e-01,3.168792e-01,-3.124344e-02,-6.325912e-01,-2.175025e-02,-4.443202e-01,8.295605e-01,-3.817133e-01,1.454904e+00,-1.842907e-01,6.917259e-01,9.524305e-01,6.181055e-01,-5.935093e-02,-1.564288e-02,-4.565917e-01,5.266230e-03,1.140500e-01,-2.365268e+00,1.810470e-02,6.595380e-01,2.500659e-01,9.778254e-01,6.999673e-01,3.927200e-02,-7.726540e-01,1.443994e-01,-4.176744e-02,-2.369531e-01,1.537242e+00,4.525587e-01,9.530552e-01,5.834813e-02,5.443237e-01,5.064424e-01,-7.764456e-01,3.916648e-01,-2.969511e-01,2.010086e-01,3.949635e-02,-1.083861e-01,-1.783246e-02,
2.080350e-03,1.065220e+00,-1.094436e+00,3.247675e-01,-6.250294e-01,-2.744988e+00,8.154750e-01,-3.248604e-02,-3.164279e+00,2.100522e-01,-7.225570e-03,2.041281e-01,9.451560e-03,6.968606e-01,-3.111749e-01,2.536964e-01,1.713185e-01,-4.404519e-01,4.716380e-01,1.208701e+00,1.254132e+00,-1.664935e+00,1.751201e+00,-1.043522e+00,-3.758594e-02,-1.201971e-01,1.808789e+00,-4.269744e-02,3.196126e-01,-3.897176e-02,8.206789e-01,-1.553925e+00,-4.265371e-03,-6.266131e-01,-1.130140e-01,1.881505e+00,4.140180e-01,-2.806931e+00,-1.758319e+00,-1.062762e+00,-1.807839e-01,1.967090e-01,2.204632e+00,-3.582217e+00,1.634104e+00,1.081506e+00,-6.836659e-01,3.071188e-01,1.689500e+00,4.492890e-02,
-2.824212e-02,5.005321e-01,-2.672319e-01,1.077104e+00,-1.701365e-01,3.476783e-01,-4.256584e-01,2.561860e-02,-1.223150e-01,-1.604718e-01,1.411370e-02,3.913437e-01,-3.557341e-02,-1.583054e-01,-6.824994e-02,7.275876e-01,1.261220e+00,-9.652064e-01,3.207382e-01,-2.797276e-01,1.669229e-01,5.336486e-01,1.116542e-01,-2.760077e-01,5.418460e-02,-1.922283e-01,4.155406e-01,3.824280e-02,-1.534847e-01,-2.548866e-01,-9.541157e-03,-8.375092e-01,-3.718598e-02,1.098306e-01,-1.230776e-01,1.256171e+00,-1.332049e-01,2.112304e+00,-8.632015e-02,1.449103e-01,3.920707e-02,1.286683e+00,-9.915089e-01,-1.030160e+00,4.271197e-02,7.648255e-01,2.188560e-01,3.272009e-01,9.964647e-01,1.861060e-04,
-2.080348e-02,1.618541e+00,6.950406e-01,6.187631e-01,-1.947280e-01,8.803426e-02,-1.304708e+00,3.390940e-02,3.307699e-01,-8.788283e-01,-2.593428e-02,7.015032e-01,-3.167269e-02,1.204909e+00,2.291018e-01,-1.491376e+00,7.033712e-01,-1.296588e+00,-5.633911e-03,2.424151e-01,4.434627e-01,-3.377430e+00,1.349057e+00,-1.621565e+00,3.639560e-02,-3.863190e-01,1.966912e-01,9.414390e-03,-1.382993e-01,8.622162e-01,-1.086346e-02,-7.714825e-01,3.074630e-02,-1.184851e+00,-8.566345e-01,-2.533080e-02,1.281569e+00,-1.177327e-01,-2.536433e+00,-2.638898e+00,1.910997e+00,2.343063e+00,2.926515e-01,-1.321959e+00,-4.217952e-02,-9.622533e-01,8.856876e-01,3.344171e-01,-5.858990e-02,-3.933980e-03,
-2.210829e-02,2.425381e-01,-9.360882e+00,-2.481954e+00,7.618585e-01,-3.799711e+00,-1.007389e+01,-1.978176e-02,2.638517e-01,4.165396e-01,-3.324637e-03,-4.538829e+00,-5.394622e-02,-1.759238e+00,4.675285e-01,-4.876633e-01,2.157556e-01,-6.529145e-01,6.335644e-01,1.001547e+00,-6.954002e-01,-4.429082e+00,-9.096120e-01,-1.881418e+00,2.535600e-02,-1.751168e-01,-1.221373e+00,2.994710e-02,-4.249636e-01,-3.420607e-01,-8.219916e-01,-1.081821e+00,-5.123376e-02,-6.206167e-01,7.325563e-01,-2.880763e+00,-3.925678e-01,-3.335495e+00,-8.073617e-01,-1.759400e+00,1.193514e+00,2.389995e+00,-2.820152e+00,3.583763e-01,6.300896e-01,-8.776345e-01,7.273117e-01,-2.436746e-01,-3.332495e-01,-3.536131e-02,
-4.087359e-02,-1.776600e-01,-3.627869e-01,-1.630635e-01,-4.304176e-01,2.555080e-01,1.770651e+00,-1.407182e-02,-4.659615e-01,-1.111000e+00,3.257620e-02,2.785444e+00,5.130140e-02,5.570245e-01,1.812960e-01,-4.517518e-01,3.980740e-01,-6.529045e-01,-3.733374e-02,1.407929e+00,-2.355532e-01,-1.915980e+00,1.993790e-01,-2.412728e-01,-2.945029e-02,5.263790e-01,-5.277260e-01,-2.413254e-02,5.387461e-01,-5.104783e+00,-4.507569e-01,-3.980036e+00,3.106430e-02,-5.351202e-01,6.606508e-03,3.535330e-01,1.569477e+00,3.065790e+00,-6.112247e-01,-1.758774e+00,5.182660e-01,-4.398035e-01,-1.202284e-01,-5.321872e-01,-6.360374e-01,-1.473257e-01,-1.148117e+00,2.922832e-02,3.670762e-01,3.013040e-02,
3.409548e-01,
1.740727e-01,
-9.088535e-01,
-1.368813e+00,
6.307003e-01,
-1.438068e+00,
1.077973e+00,
-7.155587e-01,
-1.431645e+00,
-1.189729e-01,
1.274963e+00,
5.165823e-01,
-2.169480e+00,
3.095908e-01,
-4.854798e-02,
-8.844923e-01,
-2.208698e-01,
3.071198e-01,
-1.381326e-02,
5.442911e-01,
3.335505e-01,
6.677015e-02,
-2.217485e+00,
-5.246587e-01,
-2.433999e-01,
-1.526363e+00,
-3.138575e-01,
-1.722202e-01,
1.574065e-01,
-9.316189e-01,
-4.378976e-03,
2.287722e-02,
8.957867e-02,
-1.105970e+00,
5.065177e-02,
-7.070293e-02,
-1.304395e+00,
-6.096673e-03,
6.609794e-02,
5.241001e-01,
2.911917e-01,
1.623870e+00,
-9.204483e-02,
-1.551724e+00,
-2.344988e+00,
-2.788014e-01,
-8.600897e-02,
-9.068719e-02,
5.994797e-01,
1.860883e-01,
-5.005469e-01,-5.387613e-01,3.337914e+00,1.700731e-01,-2.470814e-01,-4.493914e-01,-8.001978e-01,-3.408901e-01,2.339172e-01,5.423408e-01,-1.775671e-01,2.396316e+00,-1.796224e+00,1.180149e+00,-1.345583e-01,4.000115e+00,-3.306195e+00,-1.186841e-01,-3.853857e-01,1.549637e+00,1.328867e-01,3.690512e-01,-1.818768e+00,3.514292e+00,1.175932e+00,-3.323011e-01,2.276109e+00,1.616531e+00,1.396573e-01,2.778742e+00,5.275116e-02,2.293286e-01,-9.121148e-01,-5.949607e-01,5.818527e-01,4.829992e-02,5.749246e-01,-3.976885e-02,5.470404e-04,-6.636407e-01,-1.454006e+00,-3.200862e-01,-8.188403e-01,1.772704e+00,2.519392e+00,1.011374e+00,5.450722e-01,-8.234792e-01,-1.951168e+00,8.581231e-01,
4.134636e-01,1.871833e-01,8.495250e-01,4.341724e-01,-4.043202e-01,-3.544837e-01,1.574565e-01,3.823083e-01,-4.679683e+00,-2.544220e-01,-7.309845e-02,7.337788e-02,1.020555e+00,1.041985e+00,-8.500221e-01,-9.662892e-02,1.743291e+00,-4.792935e-01,-1.283993e-02,-2.384701e-01,-1.533887e+00,5.640792e-01,-1.254056e+00,1.547132e+00,7.661164e-01,2.521669e-01,-1.245825e+00,8.545185e-01,1.869308e-02,6.900944e-01,1.182624e-01,9.662222e-02,1.172863e+00,7.244982e-01,-5.779513e-01,7.453294e-03,-6.458172e-01,1.023000e-02,-4.890198e-01,5.196827e-01,8.258164e-02,1.510980e-01,-4.597328e-01,2.280853e-01,2.371109e-01,-5.473180e-02,-3.766078e-01,5.082036e-02,1.195541e+00,-3.792580e-01,
4.548444e-01,-1.127705e-01,-4.404176e-01,1.804998e-01,1.934705e+00,-8.170203e-02,-7.877434e-01,7.195458e-01,1.052733e+00,-7.120005e-01,-2.240594e-01,2.560107e-01,2.917107e+00,2.575318e-01,1.513960e-01,-7.816360e-02,-1.453673e+00,1.052965e+00,-5.175169e-01,-1.057510e-01,1.805345e+00,-1.060803e-01,7.433732e-01,-1.494578e+00,1.021838e+00,8.677102e-01,1.118383e+00,9.261609e-01,-4.094257e-01,-7.396614e-02,-3.758574e-02,4.679042e-01,1.899780e+00,-5.916408e-01,1.338955e-02,-6.857981e-01,-2.729788e-01,8.832950e-03,-6.235114e-01,1.004335e-01,8.388923e-01,7.244669e-02,1.212735e+00,1.126755e+00,1.281149e+00,3.118104e-01,5.425329e-01,-4.314457e-01,5.240062e-01,-2.804467e-01,
8.016139e-02,5.521022e-01,-3.487671e+00,1.605443e+00,-4.298136e-01,-7.769354e-02,1.351459e-02,8.330514e-01,6.122170e-01,3.718549e-01,1.018809e-01,6.513586e-01,2.002133e-01,-7.282241e-02,7.083349e-01,-2.478075e-01,1.492475e+00,-9.214583e-02,-3.804862e-01,-3.082581e-01,2.287702e-01,7.876559e-01,-7.274222e-01,2.394058e-01,1.080298e+00,4.022746e-01,1.683772e-01,-1.288033e-02,-1.012626e+00,-8.250923e-01,1.125086e-01,-2.658664e-02,7.974331e-01,1.437124e+00,4.929547e-02,1.575922e-01,-1.898790e+00,3.629270e-02,6.918486e-01,4.373672e-01,3.577850e-01,4.958151e-01,-1.388134e-02,7.420822e-01,9.037532e-02,2.370139e-01,-2.017990e-01,-2.496781e-01,-4.751404e-01,-5.596137e-01,
4.442889e-01,9.781250e-02,1.143836e+00,4.889885e-01,2.323707e+00,-5.623509e-01,5.911558e-01,7.773014e-01,1.300668e+00,-1.307627e+00,4.206589e-01,3.411315e-01,2.743800e+00,6.470324e-01,1.561298e+00,-3.171572e-01,-1.604759e+00,2.333242e-02,-1.986317e-01,-1.019019e+00,3.354068e-01,-1.216171e+00,-2.055986e-01,-2.075530e+00,1.713000e+00,-1.495386e+00,-3.582712e-01,-7.790706e-01,-2.946433e-01,4.579330e-01,-7.218025e-02,9.449729e-01,2.205022e+00,-2.025787e-01,9.920196e-02,-2.820607e-01,-2.310001e-02,-2.247078e-02,-1.244603e+00,-5.690876e-01,1.682327e-01,-1.407172e+00,4.953485e-01,1.821887e+00,4.907095e-01,1.640836e+00,7.835355e-01,6.448256e-01,3.993540e-01,7.554709e-01,
-3.028909e-01,1.208443e-01,-5.638001e-02,9.688932e-01,-1.359308e-01,1.774110e-02,3.750140e-01,8.263659e-01,-1.153834e-01,4.328478e-02,2.098939e-01,1.049586e+00,-5.171685e-01,4.852535e-01,-1.050935e+00,-5.138587e-01,2.679276e-01,1.936113e-01,-3.595095e-01,-2.697912e-01,-8.894141e-02,4.569583e-01,-9.656761e-01,4.714529e-01,-8.413038e-01,1.077130e-01,7.942414e-01,1.754696e+00,2.589394e-01,1.020957e+00,1.350360e-02,5.877274e-01,-1.662824e+00,-3.711407e-01,-5.996915e-01,2.520243e-01,2.971574e-01,-2.072247e-02,6.235901e-01,7.126268e-02,1.351479e-01,-2.496437e-01,3.618420e-02,3.722400e-01,-2.870026e-01,-7.747094e-02,1.982822e-01,5.507132e-02,-2.069904e-01,-6.052899e-02,
9.732898e-01,-2.515849e-01,-2.934969e-01,8.036702e-01,1.093930e+00,-2.837171e-01,2.431925e-02,-6.587179e-01,1.729451e+00,-2.932979e-01,-1.210515e-01,8.548036e-01,-4.200903e-01,7.238227e-01,2.578025e-01,2.489098e-01,-1.254157e+00,1.862804e-01,-4.676058e-01,6.024764e-01,4.857898e-01,3.084998e-01,2.622639e-01,-8.545903e-01,4.951316e-01,-1.247936e+00,-4.601550e-02,6.409894e-01,-1.602991e-01,-8.815522e-02,2.142330e-02,3.419402e-01,5.864612e-02,-1.055743e+00,-7.578100e-02,3.581484e-01,1.287832e+00,3.947360e-02,7.923841e-01,4.803233e-01,-4.493894e-01,5.647875e-02,6.460988e-01,-9.033188e-01,4.275820e-01,3.932834e-01,1.061389e+00,-9.237995e-01,-7.905037e-01,6.085748e-01,
-2.502881e-01,3.338383e-01,8.868992e-01,4.052822e-01,2.329926e+00,-3.375865e-01,9.642728e-02,1.141492e-01,3.658715e-01,3.306046e-02,1.281100e-02,8.043700e-01,2.069601e+00,-1.913657e-01,1.381377e+00,-1.055076e+00,9.500808e-01,1.183407e+00,-5.820417e-01,-4.358150e-02,8.284273e-01,5.091867e-01,-1.072034e-01,5.995178e-02,8.875954e-01,7.721753e-01,1.294029e+00,1.628451e+00,-6.424458e-01,1.349924e+00,-1.286669e-02,-3.268986e-01,1.631520e+00,-3.042201e+00,-6.994846e-01,-7.323651e-01,-2.690822e-01,-8.124207e-03,9.219662e-01,-5.398774e-01,4.793372e-01,-5.365019e-01,1.026847e+00,9.181063e-01,-3.528586e-01,-5.744890e-01,-1.844573e-01,3.125044e-01,2.871177e-01,-1.238280e-01,
4.372745e+00,-8.278222e-01,1.536728e+00,8.156063e-01,-9.699575e-02,2.787378e+00,1.183568e+00,-2.882600e-01,3.598304e+00,5.483694e-01,-4.935850e-02,4.012034e+00,-1.148612e+00,3.011073e+00,-3.848130e+00,-3.190701e+00,1.762854e+00,-6.345487e-02,5.235769e-01,3.438666e+00,2.034460e+00,1.597749e+00,2.323619e+00,3.533112e-01,1.864783e+00,-1.610485e+00,-3.784086e+00,-6.104359e-02,-9.986920e-01,2.322586e+00,-4.972169e-03,2.678306e+00,-2.026595e-01,2.360318e+00,4.774473e+00,1.501133e+00,4.851161e-01,-1.948310e-02,8.212350e-01,3.049846e+00,2.956957e+00,2.121847e+00,-2.732707e+00,3.258011e+00,-8.512452e-01,6.723338e+00,3.091650e+00,7.386645e-01,2.794196e-02,5.286390e+00,
9.707851e-01,1.070618e+00,-7.752123e-01,1.483634e+00,2.790820e+00,-1.220100e+00,-2.724909e-01,1.147089e+00,6.638911e-01,-1.867268e-01,1.747764e-02,1.280288e+00,3.035900e+00,-7.187139e-01,2.006631e+00,7.708513e-01,1.847152e+00,6.895497e-01,-1.095577e+00,3.507996e-01,9.313267e-01,-1.002389e+00,5.052515e-01,1.839638e-02,-4.538213e-01,5.374730e-02,1.775288e+00,9.646356e-01,-1.097840e+00,9.872683e-02,-2.662441e-01,6.823527e-01,3.582107e+00,-1.161298e-01,4.096313e-03,-1.760319e+00,2.642968e-01,4.884280e-02,7.385663e-01,3.884810e-01,5.898796e-01,5.296273e-01,1.161149e+00,-2.227474e-01,1.781453e-01,-8.321794e-01,2.432727e-01,1.015592e+00,1.448776e+00,-3.158532e-01,
-7.186503e-01,-2.923970e+00,3.618024e-01,-9.391778e-01,-1.503940e-01,6.786351e-02,-1.516101e+00,7.273840e-02,1.048410e+00,2.408472e-01,4.864058e-01,-6.333175e-01,5.877230e-01,-1.425726e+00,-2.489377e+00,-1.066792e+00,3.004363e+00,-4.470533e-01,-1.128534e+00,1.465972e-01,-1.184700e+00,-8.720925e-01,1.239500e+00,-1.276165e+00,-9.959640e-01,-9.452590e-01,2.950705e-01,-1.575469e+00,4.849931e-01,-1.375165e+00,-7.278444e-04,-2.748866e+00,-1.498305e-01,2.684831e+00,-2.933222e+00,2.891256e-01,-3.257119e+00,3.242130e-02,6.161492e-01,1.250231e-01,-1.615040e-02,3.065758e-01,-1.433513e-01,-3.809316e+00,-3.361068e+00,-8.780283e-01,4.148417e-01,-1.184104e+00,-3.518103e+00,9.938907e-02,
6.000381e-01,-3.920416e-01,-5.836073e-01,1.868981e+00,4.272870e-01,1.317561e-01,-6.977383e-01,-1.594699e-01,4.251288e-01,4.150506e-01,-5.821064e-01,8.077974e-01,-1.499345e+00,2.491177e-01,2.121919e+00,2.187613e+00,1.006899e-01,1.312510e+00,-6.472130e-01,2.573911e-01,6.301292e-01,1.488079e-01,3.361882e-01,-9.574153e-01,-2.657603e-02,2.588880e-02,8.286489e-01,9.567103e-01,-6.968080e-01,1.962635e+00,2.216404e-02,-1.617535e-01,1.119096e+00,-2.157572e+00,-1.062065e+00,1.344915e-01,6.436267e-01,-3.462734e-02,6.491103e-01,2.472782e-01,6.811566e-01,-1.625110e-01,-1.328443e-02,1.340500e+00,1.655191e+00,-4.021406e-01,-1.763066e-01,8.218743e-01,1.757993e-01,4.639041e-01,
-3.322920e-01,2.419827e-01,3.395739e-01,-1.203839e+00,2.215689e-01,5.288540e-03,1.209364e-01,1.979489e-01,1.655211e+00,2.298414e-01,-3.372430e-01,-3.660907e-01,1.095648e-02,1.669388e-01,4.688588e-01,9.397131e-01,-1.031351e+00,-1.460814e+00,-3.942969e-01,3.580998e-01,-2.566400e-01,3.169861e-01,1.135292e+00,2.875990e-01,1.117542e+00,3.573950e-01,1.689435e+00,-7.055385e-02,3.718460e-02,-1.008065e-01,-2.115516e-02,-2.623909e-01,1.484495e+00,-5.012559e+00,4.060990e-01,7.804556e-01,4.138952e-01,1.835310e-02,1.577426e-01,3.227053e-01,2.435430e-02,-3.481692e-01,-2.534807e-02,-3.213598e-01,-2.309123e-02,-4.116649e-01,8.505288e-01,1.991415e-01,-4.047494e-01,2.337261e-01,
-5.865858e-01,-1.911789e-01,1.150182e+00,-1.162813e+00,-9.817857e-02,-2.394377e-01,4.484171e-01,-9.850368e-01,4.646842e-01,-7.148639e-04,-6.841871e-01,6.998946e-01,-4.267603e-01,-7.292695e-01,1.114597e+00,-1.383730e+00,1.146073e+00,2.441409e-01,1.478476e-01,6.421942e-01,9.051157e-01,-1.959723e-01,7.979479e-01,-9.137076e-01,-2.079651e-01,1.272526e-01,1.421098e+00,-5.967090e-01,-3.199761e-01,-1.270550e+00,2.625360e-02,-5.396834e-01,-1.704062e+00,1.083991e+00,-8.561518e-01,9.730102e-01,8.534662e-01,1.843460e-03,1.068062e+00,-3.160270e+00,-5.477361e-01,2.466733e-03,9.408029e-02,5.447930e-03,-1.606950e+00,-7.746822e-02,-2.117768e+00,6.382588e-01,-2.763673e-03,2.445170e-01,
-1.903022e-02,2.135321e-01,3.356763e-01,7.748423e-01,3.753387e-02,1.829302e-02,1.314314e-01,-1.630988e-01,6.014775e-01,3.546804e-01,3.451081e-02,-4.837254e+00,-9.363084e-02,6.615021e-01,-3.628031e-01,7.431445e-01,2.507779e+00,-2.483358e-01,-4.043474e-01,3.909371e-03,2.022525e-01,-4.084703e-02,-5.098794e-01,2.653438e-01,-1.079932e-01,-3.598630e-01,-5.232033e-01,5.077393e-01,-5.127204e-01,9.938214e-01,-2.287690e-01,7.942958e-01,-5.972665e-01,1.534926e+00,-3.040403e-01,2.100374e-01,-3.801852e-01,-3.896287e-02,-4.544141e-01,8.875954e-02,6.138723e-01,3.811417e-01,1.817165e-01,-1.211384e+00,5.963354e-01,5.146832e-01,1.067279e+00,-4.428224e-01,3.877565e-01,1.101791e-01,
-3.339716e-01,1.096712e+00,2.518877e+00,-2.011637e+00,1.207028e+00,-1.190336e+00,1.609997e-01,3.772147e-01,3.084909e-01,2.852457e-01,2.020511e-01,1.704235e+00,1.877179e+00,-1.967733e-02,7.040207e-01,1.328689e+00,8.567757e-01,5.510924e-01,-5.309933e-01,3.811243e-01,-1.396729e-01,-6.630761e-01,-1.304425e-01,-4.475169e-02,6.886044e-01,2.528500e-01,-6.645133e-01,-1.218009e+00,-5.884755e-01,1.084416e+00,-4.640263e-02,4.253832e-01,3.576048e+00,-8.346267e-01,-2.771470e-01,-9.267578e-01,1.591356e+00,3.745740e-02,4.343684e-01,-1.693114e-02,4.695926e-01,5.426714e-01,1.109770e+00,-4.732153e-01,6.405736e-01,-8.505301e-02,-1.737038e-01,-1.580993e+00,4.126191e-01,4.990402e-01,
-4.516265e-01,-3.619092e-01,-3.900166e-01,1.891949e+00,5.150594e-02,-6.999603e-01,-1.615889e-01,1.466606e+00,-7.242478e-01,-7.302602e-02,2.168120e-01,3.650877e-01,1.514636e+00,8.872271e-01,1.728271e+00,-3.850958e-01,1.390425e+00,5.133517e-01,-2.748887e-01,-3.971986e-02,4.737132e-01,-2.443937e-01,1.953567e+00,3.217916e+00,2.170842e+00,-6.972495e-01,6.487470e-01,-1.517121e+00,1.067923e-01,1.438975e+00,-6.669272e-03,-8.174880e-01,1.820075e+00,6.845552e-01,1.333490e+00,-1.060561e+00,1.059468e+00,-4.443415e-03,1.021512e-01,-5.970989e-01,5.976482e-01,6.731438e-01,1.385673e+00,-6.232003e-01,9.465400e-01,4.488997e-01,-2.375368e-01,3.691225e-01,1.866776e+00,-1.108930e+00,
-2.219162e+00,4.406698e-01,1.199791e+00,7.311834e-01,1.037737e+00,-6.467454e-01,-9.191041e-02,-8.795211e-01,1.970177e+00,-4.769614e-02,-6.991028e-01,1.795558e+00,1.833837e+00,-8.305017e-01,-1.037593e-01,1.636310e+00,-2.869925e-01,-3.676289e-01,-2.590993e-01,-6.009611e-03,-9.437914e-02,-7.659194e-01,-8.905493e-02,-4.470765e-01,-2.728687e+00,7.650750e-01,8.049387e-01,1.641559e+00,1.237540e-02,8.573281e-01,-5.600844e-02,-2.459390e+00,2.154645e+00,1.886518e+00,1.004528e+00,-2.059703e-02,8.039681e-01,-1.849340e-02,-8.046518e-02,7.684083e-01,1.266844e-01,1.169071e+00,5.245030e-01,8.100624e-01,8.974380e-01,-1.958804e-01,1.219581e-01,-1.424383e+00,-8.043903e-01,-3.862179e-02,
-4.826022e-02,8.904079e-01,1.144037e+00,2.108147e-01,3.165030e+00,-5.969453e-01,-1.080700e+00,-7.394957e-01,1.470045e+00,-3.861876e-01,-2.397871e-01,1.083619e+00,7.110643e-01,-1.866632e-01,3.314325e+00,-6.680716e-01,1.394972e+00,1.444088e-01,-9.705737e-01,-1.333553e-01,2.135069e+00,1.174731e+00,5.668708e-02,1.266146e-01,1.059587e+00,1.407342e+00,1.504354e+00,8.628563e-01,-2.064389e-01,1.659317e+00,-3.178894e-02,1.229625e+00,1.878080e+00,-9.095989e-01,-4.532587e-02,-1.366671e+00,5.631436e-01,-2.981954e-02,5.231130e-01,1.055696e+00,-4.531920e-01,3.130637e-01,1.233894e+00,1.994235e-01,6.150324e-01,-3.907145e-01,4.092967e-01,-2.586933e-01,2.517152e-01,-4.845414e-01,
1.313512e-01,-2.789489e-02,-5.162848e-01,7.181371e-01,1.142975e-01,-3.196640e-01,-8.648964e-03,1.064418e+00,7.397220e-01,3.206006e-02,8.392449e-03,1.894750e+00,3.463250e-01,1.189752e+00,2.251401e-01,1.038431e+00,-2.003113e-02,-1.455875e+00,-2.733030e-01,-2.705871e-01,1.570752e-01,5.336595e-01,6.793063e-01,9.400842e-01,6.201281e-01,-4.422446e-01,-4.924124e-01,8.852659e-01,-5.519600e-01,-1.006289e+00,-2.541786e-02,3.926314e-01,-2.962037e-01,-1.639179e+00,-2.599639e-02,-7.042862e-01,-8.565214e-01,4.656960e-02,-2.397579e-01,-2.607668e-01,-1.122898e-02,4.316178e-01,1.248617e+00,3.324169e-01,6.053583e-01,3.369426e-01,2.301750e-01,-1.217888e-01,-2.790095e-01,3.940824e-01,
-2.577813e-01,3.105528e-01,-5.363958e-01,6.740375e-01,5.395157e-01,-1.455188e-01,-2.257714e-02,1.140331e-01,1.433728e-01,3.069495e-01,-9.444661e-02,-1.689488e-01,5.636578e-01,7.426901e-02,2.348018e-01,3.255169e-01,3.809205e-01,8.498038e-02,-3.468603e-01,6.829208e-02,1.531271e+00,9.342016e-02,2.356566e-01,8.735399e-01,4.990937e-01,-5.756505e-02,-2.175883e-01,-1.227413e+00,1.690257e-01,8.101537e-01,5.402692e-02,1.287162e-01,-2.191447e-01,-1.664116e+00,7.382271e-02,-1.033482e-01,-1.716243e-02,-4.879189e-02,-9.228249e-02,1.138371e-01,3.078440e-01,6.875898e-02,1.982155e-01,1.377458e-01,5.089858e-01,-3.483904e-01,-2.863865e-01,-3.893641e-02,4.227507e-01,-3.105205e-01,
-3.001134e-02,-4.300802e-02,-1.947189e-02,2.442640e-03,-4.316195e-02,-1.533321e-02,3.484560e-03,2.221050e-02,-2.037705e-02,1.222950e-02,-1.667177e-02,1.265710e-02,1.756370e-02,-5.170332e-02,-1.124888e-02,1.027800e-02,-3.325808e-02,2.404170e-02,-6.169484e-02,9.155270e-03,2.732310e-02,-2.507870e-02,-3.665159e-02,-1.555390e-02,1.348300e-02,1.014680e-02,1.215800e-02,-4.058594e-02,1.669000e-02,-3.031111e-02,8.346290e-04,-6.097764e-03,-1.981044e-02,4.706280e-03,-5.149041e-02,-6.379321e-02,-1.365762e-03,4.380570e-02,-3.780147e-02,-2.668420e-02,1.602810e-02,3.553920e-03,4.388100e-03,4.847050e-03,-5.330376e-02,9.462740e-04,-3.816528e-02,-2.787913e-02,1.671430e-02,3.066150e-03,
2.905264e-01,-1.157935e-01,1.085446e-02,-6.967596e-01,-9.655055e-01,-1.415707e-01,3.964712e-02,-3.793671e-01,2.505571e-01,4.227439e-01,9.382062e-02,2.497258e-01,6.559849e-01,6.275016e-02,-2.934878e-01,-3.473451e-01,-1.232503e+00,-1.877843e-01,-6.737699e-02,2.058042e-01,-3.250685e-01,-3.343959e-01,-2.171742e-01,1.336253e+00,2.336549e-01,3.362188e-01,1.993395e-02,8.309011e-01,3.554456e-02,-6.826075e-02,3.840487e-02,6.205429e-01,3.817886e-01,3.826489e-01,-4.684622e-01,-2.717405e-01,-8.803372e-01,-1.751663e-02,4.605658e-01,-2.919981e-01,-7.387070e-02,-4.133718e-02,1.985138e-01,5.490431e-01,7.018338e-01,-6.124983e-02,-7.155971e-01,-5.369483e-02,-7.006279e-01,5.031962e-01,
-3.744242e-01,1.000939e-01,3.325351e-01,-1.541270e-01,-3.574026e+00,6.423605e-01,-4.204044e-01,1.789742e-01,-1.600547e+00,3.407065e-01,-4.396096e-01,2.755497e+00,-1.793871e+00,-1.238886e-03,6.662707e-01,4.732506e-02,-2.785691e+00,-3.659685e-01,8.337651e-01,-2.613385e-01,-1.095345e+00,1.172408e+00,-6.664819e-01,8.121257e-02,-5.858717e-01,-2.035655e+00,-2.361996e+00,-1.255147e+00,-7.137579e-01,2.934766e-01,-1.141805e-02,-1.363641e+00,-2.434807e-01,9.210079e-01,-9.513291e-01,5.726823e-01,1.000454e+00,4.311430e-02,-1.888922e-01,-1.861137e+00,-4.493207e-01,-1.809587e-01,-4.324052e-01,4.861959e-01,-1.549956e-01,3.649962e-01,-3.011315e+00,-2.654098e-01,-3.854261e-02,-9.508988e-01,
5.463137e-01,-6.905471e-02,1.441563e+00,9.186685e-01,2.006087e-01,-2.524808e-01,-1.564924e-01,-4.115801e-01,-2.687226e-03,3.093344e-01,-5.314569e-01,4.162117e-01,1.397890e-01,9.444125e-01,-1.472701e-01,3.276044e-01,9.688388e-01,2.472682e-01,-4.821124e-01,1.844123e-01,9.767761e-03,6.017566e-01,8.774251e-01,-2.108658e-01,5.371057e-01,4.763018e-01,1.170348e+00,3.235330e-01,5.340060e-02,3.420579e-01,2.301136e-02,-1.606718e+00,9.706514e-01,8.356194e-01,3.838111e-01,-5.601905e-02,-6.841104e-02,-1.178710e-02,3.152675e-01,9.328137e-02,-5.602571e-01,6.136931e-01,-2.931535e-01,-1.773045e-01,6.664700e-01,-4.163200e-02,-8.340317e-02,5.152920e-02,-2.032403e-01,5.277086e-01,
1.308334e-01,-2.211314e-01,-2.352441e-01,-1.011778e+00,8.543948e-01,-2.600750e-03,-9.334905e-02,2.732252e-01,-3.005558e-01,-5.747698e-03,8.613109e-03,-5.305419e-02,-2.298477e-01,1.711799e-01,1.710571e-01,9.055680e-02,1.370170e-01,5.328279e-01,7.769907e-02,-8.022460e-02,2.364496e-01,3.631647e-01,1.750389e-01,-2.377530e-01,-7.037488e-01,-1.927696e-01,2.997948e-02,-2.242079e-02,-1.954976e-01,-5.915005e-01,-2.317384e-01,-1.666470e-01,-5.195238e-01,3.029939e-02,-4.622376e-02,-9.022037e-02,-3.722274e-01,2.136050e-02,5.304014e-01,-9.896959e-02,-2.347099e-03,-2.348078e-02,2.931588e-01,1.252216e-01,2.504155e-02,3.936081e-02,1.491910e-01,2.981563e-01,-2.944766e-01,7.079589e-02,
-1.682003e+00,2.804264e-01,-1.520757e+00,-2.589680e+00,-1.159591e+00,4.943456e-01,-1.070873e-01,-1.518626e+00,-2.688085e+00,-1.558430e-02,-5.577502e-01,-5.743072e-01,-2.236342e+00,-3.807387e-01,-6.704714e-01,-9.628744e-01,-5.250112e+00,-8.494009e-01,-5.791683e-02,1.844113e+00,7.196696e-01,-1.086305e+00,1.095841e+00,-2.426293e+00,1.262072e+00,-2.355391e+00,-1.893427e+00,-9.485759e-01,1.029956e-02,-1.016020e+00,-2.084842e-02,3.130444e-01,1.240529e-02,-2.518193e+00,1.329788e+00,2.022481e-01,-1.316555e+00,-1.889013e-02,9.601486e-01,3.147943e-01,-1.733170e-01,-1.686619e-01,-2.150815e+00,-2.022919e+00,-5.934548e-01,4.932319e-01,-1.304304e+00,-5.363797e-01,9.378254e-01,2.889879e-01,
6.949840e-01,2.770485e-01,6.335670e-01,6.478471e-01,7.358809e-01,-7.479302e-01,-4.678017e-02,1.547819e+00,9.844352e-01,4.664474e-01,-2.377358e-01,7.710338e-01,2.316164e-01,-5.807338e-01,-3.168623e-01,-9.865932e-01,1.767745e+00,4.123172e-01,-2.721031e-01,3.042409e-01,3.503976e-02,6.385292e-01,-2.800124e-01,5.946643e-01,8.875261e-01,1.123700e+00,1.201058e+00,6.996686e-01,-2.310011e-01,2.059822e-02,1.575469e-02,-5.937538e-01,3.779998e-01,-7.802634e-01,4.843456e-01,3.072317e-01,-2.318273e-01,-4.048504e-02,-1.934908e-01,-4.382824e-01,1.143936e-01,-3.993954e-01,-4.563453e-02,1.568803e-01,3.978483e-01,-6.289906e-01,8.240601e-01,3.388067e-01,-3.083116e-01,-2.854199e-01,
-1.234523e+00,6.000766e-01,-1.052460e+00,3.064070e-01,-1.844735e-01,-7.164708e-01,-1.310940e+00,1.169734e+00,8.843700e-01,1.179961e+00,2.195355e-01,-2.008031e+00,8.804579e-01,9.006248e-01,-1.858754e-01,-1.445744e-01,5.187560e-01,1.089574e+00,-7.756608e-01,8.801219e-01,-2.030918e+00,1.303563e-01,6.873709e-01,1.064597e+00,5.751475e-02,-5.504520e-01,4.831200e-01,-9.625583e-01,-5.138567e-02,9.358599e-01,-9.293040e-02,2.085386e+00,9.787814e-03,-1.896022e+00,1.894593e+00,-1.675327e+00,2.667931e-01,7.056850e-03,6.295816e-01,8.628008e-01,5.015469e-01,4.557219e-01,-1.126564e+00,-2.542635e-01,2.426520e+00,9.142541e-01,3.016669e-01,9.247699e-02,-1.663096e+00,1.350261e-01,
1.544618e+00,6.397290e-01,1.543875e+00,2.071884e+00,-2.615122e+00,2.633706e-01,-7.816723e-01,-2.446200e-01,1.011404e+00,6.311005e-01,2.406254e-01,4.931355e-01,-6.120560e-01,3.267471e-01,-1.817646e+00,1.572595e+00,-8.330914e-01,-3.596721e-01,-1.963379e-01,2.392141e-01,-7.228267e-01,-1.067701e-01,-5.990461e-01,-2.300689e-01,-2.334110e-01,-6.916732e-01,-2.147341e+00,-6.658223e-01,1.189841e-01,-1.102082e+00,-5.173331e-02,7.762660e-01,1.220967e+00,1.909324e+00,-7.725793e-01,-5.000035e-01,2.736038e-01,-1.717808e-02,-1.337442e-01,-2.983883e-01,3.236538e-01,-5.122538e-01,-4.422103e-01,1.009166e+00,-1.409748e+00,5.899945e-01,-3.912063e-01,1.622605e-01,5.999624e-01,4.591632e-01,
7.704219e-02,-6.585987e-01,-1.783509e-01,6.585480e-01,1.012867e+00,-2.161258e-01,4.595877e-03,1.471626e+00,4.558920e-01,1.085109e+00,1.478605e-01,9.096486e-01,1.100910e+00,6.105775e-01,-2.000850e-01,2.287137e+00,1.750399e+00,-2.579419e-02,-2.127898e-01,-3.732111e-01,1.499800e+00,-3.286641e-01,9.432037e-01,-1.484569e+00,-1.728766e+00,-1.974025e+00,-8.327278e-01,2.025906e-01,-1.039169e-01,-8.179586e-02,3.582226e-02,6.903511e-01,8.603348e-01,6.746426e-01,1.404107e+00,-7.685655e-01,1.339985e-02,-1.747906e-05,6.680807e-01,-1.315818e-02,1.997672e-01,4.602091e-01,2.443884e-01,1.656995e-01,1.066507e+00,7.154166e-02,-2.788963e-01,-4.127729e+00,-2.258188e-01,1.883277e-01,
3.729677e-01,-9.673851e-02,-1.254157e+00,-1.648158e+00,-9.254307e-01,6.381816e-01,-7.538862e-02,-1.067055e+00,2.374317e-01,1.585912e-01,9.829266e-02,-5.343758e-01,1.547441e-02,1.222927e+00,-1.175953e+00,2.316051e+00,2.903639e+00,7.725449e-01,-4.379340e-01,-1.342027e-01,-1.519000e+00,-3.899044e-01,1.866804e+00,4.072981e-01,-1.439159e+00,-1.375266e+00,7.952403e-01,-2.311991e+00,-1.021766e+00,-6.463767e-01,-3.455887e-02,8.017485e-01,-4.666584e-01,-5.737568e-01,-4.410024e-01,9.356529e-02,-1.442947e+00,-1.004280e-02,-1.192659e+00,3.174039e-01,1.956468e-01,8.537929e-01,-1.346916e+00,1.904870e+00,-5.958343e-02,2.424841e-02,-6.476120e-02,2.033074e-01,2.188464e-01,-1.125342e+00,
-8.947711e-02,5.530406e-01,-1.397992e+00,-9.284253e-02,1.363646e-01,-8.682162e-01,2.922114e-01,-1.779751e+00,9.037747e-01,-5.110822e-01,4.636645e-01,7.096371e-01,2.402611e+00,-1.287982e+00,2.186610e+00,1.356388e+00,1.743281e+00,-6.492785e-01,-4.906509e-01,6.183560e-01,-2.209930e-02,-3.722961e-01,-9.216402e-02,-1.521474e+00,5.896846e-01,-5.687138e-01,1.630233e+00,3.026984e-01,-5.038486e-01,4.997985e-01,1.846736e-02,5.696511e-01,2.041370e+00,-1.390841e+00,8.154046e-01,-7.666617e-01,-1.321252e-02,-6.639578e-03,-3.642211e-01,-7.668061e-01,8.634285e-01,5.049667e-01,-1.316424e-01,1.006642e+00,3.015509e-01,-5.539719e-01,-3.239161e-02,1.055568e+00,-3.279682e-01,-7.565213e-01,
3.409715e-01,4.671845e-01,-5.569635e-01,3.849366e-01,1.049294e+00,-1.489457e+00,4.098630e-01,1.367136e+00,1.685973e-01,-1.863985e-01,5.130271e-01,7.065307e-01,1.981590e+00,-4.073108e-01,1.353228e+00,-1.413020e+00,2.005034e+00,-1.128635e-01,-3.892176e-01,5.394934e-01,-1.864834e+00,4.568755e-01,1.654809e-01,8.286136e-01,-1.386730e+00,1.013164e+00,-5.993612e-01,7.065818e-01,-4.566069e-01,2.281575e-01,-2.802538e-02,2.668734e-01,2.483486e+00,-4.801570e-02,-2.119526e-01,-1.052178e+00,5.012845e-01,-1.842260e-02,6.950719e-01,4.655666e-02,2.747677e-01,5.308706e-01,1.413465e+00,4.377259e-01,-2.913941e-01,2.240971e-01,-4.032092e-01,-1.105819e+00,1.037957e+00,-9.489435e-02,
-5.289037e-01,3.781541e-01,7.366385e-01,-4.485864e-01,2.340921e+00,-4.570896e-01,-3.198801e-01,1.291204e+00,8.668553e-01,2.412345e-01,-5.584694e-01,6.489694e-01,9.086904e-01,8.015683e-01,7.812360e-01,1.891144e-01,1.122554e+00,7.610330e-02,-9.575588e-01,5.957525e-01,3.761472e-02,-2.729272e-01,3.896651e-02,1.409364e+00,-6.822196e-01,2.894953e-01,9.140688e-01,1.866308e+00,1.350693e-01,-3.487944e-01,4.133203e-02,8.697140e-01,1.366351e+00,1.219646e-01,-4.070340e-01,-3.295670e-01,3.517994e-01,-1.724534e-02,-5.281805e-01,-3.791277e-02,2.302416e-01,5.696632e-01,7.359668e-01,5.083190e-01,1.189366e+00,-3.497074e-01,1.001626e+00,2.194078e-01,-1.237058e-02,2.657921e-01,
-6.348214e-01,-5.694128e-01,-9.746965e-01,-9.249933e-01,1.527263e+00,4.310034e-01,-2.489610e-01,-1.190941e-01,2.271509e-01,-2.328363e+00,-3.520668e-01,-8.770537e-02,-9.527845e-01,-5.126144e-01,-4.160321e-01,3.075623e+00,-4.656969e-01,-9.500353e-01,1.006897e+00,2.113482e+00,-6.766394e-01,7.777846e-01,7.066452e-02,2.810046e-01,-1.573267e+00,-1.140502e+00,-2.654088e+00,-2.793509e+00,9.420338e-01,-2.116193e+00,6.823991e-02,-4.916306e-01,-3.013820e-01,3.846019e+00,1.786524e+00,-2.805729e-01,9.593699e-01,-3.023960e-02,-1.749774e+00,3.290671e-01,5.083076e-01,1.641323e-01,-3.567997e-01,-2.083913e-01,-5.042556e-01,2.455340e+00,8.867549e-01,-9.108281e-01,9.977716e-01,8.379627e-01,
-6.159667e-01,1.313968e-01,4.203510e-01,3.666237e-01,4.215915e-01,-6.186028e-01,-1.515212e+00,3.129687e+00,1.246123e+00,5.007539e-01,7.188598e-02,1.676812e+00,2.111018e+00,1.113611e-01,1.271994e+00,-5.379088e+00,2.435459e+00,-1.464985e-01,-1.006130e+00,1.158330e+00,1.047905e-01,4.876691e-01,2.654972e-01,-3.378359e-02,1.068517e+00,-9.938380e-01,1.136500e+00,-1.922111e+00,-4.387400e-01,2.601403e+00,4.892719e-03,-3.446988e-01,2.674841e+00,-2.964825e+00,1.526966e+00,-6.583332e-02,8.945056e-01,-2.000436e-02,8.419504e-01,1.288742e+00,8.249413e-01,-8.170991e-01,1.926293e+00,-2.269874e+00,2.041855e+00,-4.392096e-01,8.667727e-01,-6.134801e-01,1.994451e+00,1.101207e+00,
-3.955271e-01,-4.915175e-01,-1.224847e+00,1.253587e+00,-4.231708e-01,-4.949838e-02,2.721510e-01,-8.747256e-01,7.497161e-01,-2.073641e-01,2.521134e-01,1.327424e-01,1.144805e+00,2.652259e-01,6.924149e-01,-4.484592e-01,-8.627682e-01,-2.949190e-02,4.293947e-01,1.837311e-01,-1.185366e+00,1.270833e-02,7.782648e-01,-7.190281e-01,4.501342e-01,-1.013838e-01,-3.893035e-01,-2.928333e+00,3.120361e-02,3.085008e-01,8.159135e-02,1.550607e+00,-1.295466e+00,-2.987146e+00,3.950268e-01,4.263148e-01,-7.299633e-02,-4.659160e-02,-1.239916e-01,5.803945e-02,2.412937e-01,-1.513384e-01,-1.040058e+00,-2.007526e-01,8.721316e-02,7.315962e-01,1.131045e+00,9.824493e-02,6.594320e-01,-1.364399e+00,
-3.004952e-01,3.609104e-02,1.964962e-01,-1.951976e-02,-6.272736e-01,1.444202e-01,-3.661139e-01,5.834318e-02,-6.936528e-01,2.308175e-01,-1.558097e-01,9.992950e-01,-1.798244e-01,-8.065366e-01,1.031440e-01,9.918513e-01,1.315680e+00,-6.799088e-01,2.794879e-02,-1.425282e-01,-3.665765e-01,2.204106e-01,6.730990e-01,-4.115528e-01,-3.978451e-01,-6.038527e-03,-5.451950e-01,-9.398323e-02,2.942320e-01,6.501567e-01,-3.559755e-02,-1.307405e-01,4.785214e-01,-7.229388e-01,3.350071e-01,2.728272e-01,2.285801e-01,1.094150e-02,1.097811e-01,1.795563e-01,-1.962238e-01,3.187540e-01,-3.742110e-01,-5.669069e-01,2.110423e-01,-5.360928e-03,3.058793e-01,-1.532604e-01,-1.774065e-01,-1.448734e-01,
