// The contents of this file are licensed under the Creative Commons
// Attribution 4.0 International License: https://creativecommons.org/licenses/by/4.0/
// Neural Network File Format by Kyle Julian, Stanford 2016 (generated on 11/02/2022 12:33:23)
7,5,5,50,
5,50,50,50,50,50,50,5,
0,
0.0,-3.141593,-3.141593,100.0,0.0,
60760.0,3.141593,3.141593,1200.0,1200.0,
19791.091,0.0,0.0,650.0,600.0,7.5188840201005975,
60261.0,6.28318530718,6.28318530718,1100.0,1200.0,373.94992,
7.378560e-02,-1.375164e-02,1.514121e-02,2.670328e-01,9.251860e-02,
1.653980e-02,5.369520e-03,2.377930e-03,5.815800e-04,7.453960e-03,
-9.210841e-02,5.917727e-03,2.402628e-02,-6.927438e-01,6.337713e-01,
5.454520e-02,5.581033e-01,-4.052359e-01,3.225615e-01,-5.473440e-01,
2.126495e+00,-6.063928e-03,-3.139059e-03,-8.816745e-03,9.826040e-04,
-4.982323e-02,1.196874e+00,-1.176189e+00,1.701003e-01,-2.903208e-01,
1.760578e-01,1.403644e-01,-1.058316e-01,1.010116e-01,3.579293e-01,
3.624117e-02,7.954568e-02,-2.654610e-02,-1.668954e+00,-1.999473e-01,
-6.170167e-02,-7.817618e-01,-4.064203e-01,2.468980e-01,-1.743115e-01,
-4.039066e-02,6.306174e-02,2.755672e-02,-1.183056e-02,-1.071231e+00,
-7.020751e-01,8.103054e-01,-5.413285e-01,1.766202e-01,-1.900521e-01,
-1.500534e-02,-9.645835e-02,7.445502e-01,8.008928e-01,-8.372133e-01,
1.503584e-02,-2.068490e-03,2.577882e-02,-1.534680e-01,-9.672704e-01,
-2.194227e-02,-3.124590e+00,-1.819335e-01,1.098190e-01,-9.254710e-02,
-2.557674e-02,-5.644075e-01,-7.939197e-01,2.263432e-01,-1.443802e-01,
6.051129e-02,8.609283e-01,-1.396049e+00,4.677961e-02,-1.732930e-01,
2.578652e-02,-3.085372e-01,1.020416e+00,1.189808e-01,-1.084429e-01,
-3.694414e-02,6.934876e-01,1.853488e+00,-2.286070e-01,2.397434e-01,
2.877816e-03,1.652962e+00,-1.391145e+00,2.005203e-02,-2.746002e-01,
-1.474672e-01,-1.616139e+00,1.599244e+00,8.309707e-02,-3.779905e-01,
-1.176105e-01,-1.270762e+00,1.532872e+00,-1.366617e-01,4.083628e-01,
1.510310e-01,-1.111939e+00,1.153965e+00,1.307342e-01,-1.713149e-01,
5.506599e-02,3.175452e+00,1.722252e-01,2.170911e-01,-6.961122e-01,
1.304580e-02,-5.203369e-03,4.200450e-04,7.706510e-04,-2.280831e-03,
-3.477044e-02,-1.072932e+00,1.341743e+00,1.405971e-01,-3.275727e-01,
7.638104e-03,4.115970e-01,5.123132e-01,-4.672846e-01,3.918684e-01,
-2.144719e+00,-4.664257e-03,5.522671e-02,2.455883e-02,-1.469842e-01,
7.038455e-02,-1.908942e+00,1.993540e-01,1.969863e-01,-3.987385e-01,
1.673672e-02,6.369684e-01,1.812400e+00,1.362443e-01,-1.726924e-01,
-2.741266e-02,-7.262766e-01,9.470590e-01,1.610121e-01,-2.733202e-01,
-2.063680e-02,-1.138305e+00,1.349095e+00,-1.328481e-01,4.166400e-01,
-4.586389e-01,4.446988e-01,-1.065088e+00,-7.793551e-02,2.046954e-01,
2.925478e-01,3.022414e-01,3.276241e-02,-8.326784e-03,-2.623425e-01,
1.604809e-02,2.658757e+00,1.395051e-02,1.905214e-02,-2.688294e-02,
6.358360e-02,7.674807e-01,1.331988e-01,2.083530e-01,-4.077202e-01,
-2.263957e-03,5.752497e-02,6.371792e-03,2.623406e-02,-1.768116e+00,
1.461822e-02,7.105762e-01,1.041703e+00,3.440416e-01,-2.437659e-01,
5.845559e-03,-4.017447e-01,-5.204797e-01,-4.252027e-01,-4.877050e-02,
-9.989226e-04,9.165980e-01,-1.227387e+00,-1.813444e-01,2.532904e-01,
2.734851e-02,1.156134e+00,5.109615e-01,7.292010e-01,-1.007783e+00,
5.983103e-02,-6.834145e-01,-1.140247e-01,4.092475e-01,-5.778539e-01,
-3.854970e-02,1.255681e+00,-1.677910e+00,-5.403153e-02,2.388918e-01,
-5.847954e-02,-1.157835e+00,1.712998e+00,-4.962058e-01,6.246572e-01,
1.524912e-01,1.653246e+00,-5.560936e-01,-4.191746e-03,-4.102612e-01,
-1.841206e-01,9.626825e-01,-1.193797e+00,-8.747602e-02,3.647710e-01,
1.017858e-01,1.269667e+00,-9.669418e-01,2.123107e-01,-1.130881e-01,
-6.032355e-03,-1.696548e-03,-2.298229e-03,-1.084356e-02,-5.500120e-03,
-5.144685e-02,1.656686e-01,3.170929e-01,4.973052e-01,-5.409737e-01,
-3.871980e-04,-1.344042e-02,-1.146663e-02,1.402550e-02,7.403980e-04,
3.192019e-02,-6.459358e-01,-1.926949e-01,-3.096901e-01,4.806900e-01,
3.071565e-02,
-2.026290e-02,
4.589277e-02,
-1.134640e-01,
7.268898e-01,
-5.870014e-03,
-1.443466e-02,
-5.730385e-01,
1.336377e-01,
-4.247596e-01,
-2.636560e-01,
2.666167e-01,
-4.523274e-01,
2.417351e-02,
-9.795029e-02,
-3.352241e-01,
-1.819849e-02,
3.389192e-02,
-2.096304e-01,
-1.637475e-01,
-3.345142e-01,
-4.060403e-01,
-3.619927e-01,
-1.471722e-02,
-2.862888e-01,
3.673944e-02,
-2.429448e-01,
-1.609934e-01,
-3.537702e-02,
2.063275e-01,
-4.567668e-01,
-2.713252e-01,
-2.099223e-01,
-2.660857e-02,
-1.745667e-01,
-3.601500e-01,
-1.449178e-01,
1.712137e-01,
-5.738733e-01,
-1.860390e-01,
-1.200465e-01,
-5.765728e-01,
-7.591479e-01,
-2.845930e-01,
-1.896289e-01,
-4.133041e-01,
-1.941450e-02,
-4.657894e-02,
-2.479344e-02,
1.203536e-01,
-1.115877e+00,5.517100e-02,-9.737069e-01,3.334671e-01,-1.907692e-02,2.254863e-01,9.113131e-01,-1.141224e-01,4.329425e-01,1.179653e+00,-1.930813e-01,4.636304e-01,1.633754e+00,-1.538365e+00,1.797039e-01,3.609164e-01,-1.122020e+00,-7.746322e-02,-8.984902e-02,2.352190e-01,3.442962e-01,5.557823e-01,-8.780834e-01,-1.537882e-04,2.344837e-01,4.619460e-01,1.217170e+00,-5.930148e-01,-2.772189e-01,-3.739638e-02,5.134779e-01,2.988352e-01,2.021800e-01,-1.688872e+00,1.517378e-01,3.563839e-01,3.247927e-01,3.470721e-01,6.081790e-01,1.530298e-01,2.050489e-01,1.242049e+00,8.708311e-01,-5.271546e-01,-2.374900e-01,3.503686e-01,-4.238640e-02,3.294657e-01,1.876010e-03,-5.044714e-01,
1.071828e+00,-1.884834e-02,7.679185e-02,9.276237e-02,4.404276e-02,-1.019917e+00,-7.765757e-02,4.252122e-02,9.803430e-01,-6.701478e-01,1.259857e+00,-7.585640e-02,-1.277661e+00,6.412215e-01,1.598090e+00,-1.281819e-01,-2.598214e+00,9.857960e-01,-9.065185e-01,-1.763233e+00,-6.237588e-01,-1.158276e+00,1.578529e-01,-8.854324e-04,-1.489047e+00,4.340807e-01,2.178467e-02,2.194395e-02,1.612796e+00,-5.831594e-01,-2.852293e+00,1.876441e-01,-5.023021e-01,4.545864e-01,5.477386e-01,-6.899990e-01,1.954131e+00,4.078502e-01,5.794417e-01,2.435154e-01,-7.448983e-01,-7.284637e-02,-8.363302e-02,-1.543237e-01,-4.203255e-01,1.815060e-01,-3.270078e-02,-1.213569e+00,-3.928134e-02,3.809111e-01,
5.226178e-01,-1.720141e-02,-1.476069e-01,-2.285146e-01,2.100174e+00,1.804753e-01,-4.928164e-02,1.832699e-01,-1.322055e-01,-1.832544e-01,1.596998e-01,-3.442992e-02,-8.689663e-01,5.368114e-02,2.736437e-01,-2.115529e-01,-1.629589e-01,-1.780117e-01,5.158956e-01,3.531606e-01,1.063952e-01,-1.152679e+00,-2.237697e-01,2.151120e-02,2.299228e-01,3.356968e-01,-2.834013e+00,-4.709628e-01,-4.101331e-01,4.152516e-01,3.150599e-01,-1.837447e-01,2.005117e+00,-4.668037e-02,-2.099538e-01,2.580760e-01,3.755958e-01,-6.400296e-02,-4.212590e-01,-2.518971e-02,-5.996350e-01,-7.858253e-02,-3.904246e-01,-1.878975e-01,-7.807685e-02,-8.681379e-01,-3.940377e-02,5.111969e-01,-3.701292e-02,-4.803057e-01,
-5.583228e-03,1.593680e-04,-2.942824e-02,2.196090e-02,-7.455178e-02,6.956990e-03,5.999680e-02,-5.968368e-02,4.206280e-03,-5.450707e-02,-3.586296e-02,-1.823661e-02,-2.642252e-03,-2.339967e-03,3.194070e-02,4.093430e-02,-8.214518e-02,-3.115665e-02,-3.118983e-02,-2.164197e-02,-1.981612e-02,-3.441018e-02,-2.458460e-02,2.291130e-03,-7.209373e-02,-2.449146e-02,1.192950e-02,-1.520148e-02,-4.620987e-02,-3.322662e-02,3.580220e-03,-4.863400e-02,1.068970e-02,-5.228601e-02,-5.077810e-02,-5.581022e-02,1.267420e-02,-1.008298e-01,-6.357970e-03,-4.890175e-03,-1.893339e-02,1.482850e-02,-2.124717e-02,-5.140243e-02,-3.518277e-02,-3.379351e-03,-2.730504e-02,-4.177257e-02,-3.349878e-03,1.611490e-02,
-5.761507e-01,-3.501330e-02,-9.094123e-01,-1.760482e-01,-4.940449e+00,-3.529984e-01,-5.175271e-01,-9.922478e-02,-2.022174e+00,-2.126670e+00,4.356317e-01,-5.485651e-01,2.176118e+00,-2.037588e-02,-1.341973e+00,-4.965975e-01,-7.397334e-01,-3.284347e-01,5.952653e-02,-6.944479e-01,-3.600576e+00,-3.530446e+00,7.861142e-01,2.209180e-02,-2.539299e-01,-3.033712e-01,4.068587e-01,-4.619674e-02,3.354431e-01,-3.357742e+00,-9.190755e-02,5.453551e-01,8.416620e+00,4.543071e-01,9.909808e-01,2.154904e-02,1.196589e+00,-2.378061e-02,1.573918e-02,1.397707e+00,-5.966268e-01,9.894769e-01,3.027380e-02,-2.302492e-01,5.315803e-01,5.768815e-01,3.442280e-02,2.235407e-01,1.616920e-02,-9.694902e-01,
1.917233e-01,3.501720e-02,-7.150521e-01,-5.394322e-01,7.044648e-02,1.637145e-01,-3.372484e-01,-4.500678e-01,-3.601164e-01,1.058338e+00,-1.671484e+00,-6.783944e-01,-9.708898e-01,4.115866e-01,5.486991e-01,3.408723e-01,-4.246210e-01,2.574491e-01,-1.916008e-01,7.631996e-02,-8.026809e-02,7.689537e-01,2.115080e-01,5.890640e-02,7.208790e-01,-3.203739e-01,-9.371974e-01,-5.503018e-01,6.157957e-01,-5.773340e-01,4.304402e-01,4.258175e-01,1.350739e+00,2.743571e-01,-3.200169e-01,-1.277997e-02,6.713194e-01,2.506765e-01,1.559900e+00,1.512181e-01,1.322058e-01,-6.993052e-01,8.589894e-02,2.972445e-02,3.656122e-01,9.555669e-01,1.370140e-03,-8.908452e-01,-1.640604e-03,7.818491e-01,
-3.911974e-03,2.001790e-02,2.889550e-02,-5.130720e-02,-4.046763e-02,1.819650e-02,2.217570e-02,3.178010e-02,-2.073372e-02,-2.715090e-02,-3.947464e-02,-2.296696e-02,-2.543950e-02,1.870700e-02,-2.970219e-02,-4.179546e-02,-5.052925e-02,-3.319312e-02,3.195760e-02,-5.888358e-02,-8.284562e-03,4.568160e-02,1.843210e-02,-3.595725e-02,2.227040e-02,-2.565024e-02,2.827270e-02,1.338310e-02,-6.176467e-02,1.561540e-02,2.145680e-02,-3.710500e-02,3.598200e-02,-3.214323e-02,3.711530e-02,-1.126083e-02,2.116400e-02,-2.768325e-02,6.114130e-03,-1.141969e-02,9.633890e-03,-4.224286e-02,-7.915782e-03,-1.590435e-02,-3.848103e-02,2.560960e-02,-1.338078e-02,-2.138829e-02,3.225810e-02,-3.389851e-02,
-4.930968e-01,4.332460e-02,-1.765837e+00,6.896536e-02,4.226008e-01,-1.592745e-01,1.452825e-01,-1.285641e-01,-3.980371e-01,2.149720e-01,-4.828708e-02,2.212266e-01,1.635238e+00,7.157123e-01,7.605056e-01,1.197378e+00,-4.216548e-01,-2.241970e-01,5.489956e-02,-2.042901e-01,3.736055e-01,4.822019e-01,9.099755e-01,2.073820e-02,1.646340e-01,1.510082e+00,-1.282081e+00,1.584880e+00,-7.172875e-01,3.506213e-01,1.861572e-01,-9.477090e-01,1.578265e+00,1.251302e+00,1.459027e+00,4.506327e-01,4.807076e-01,3.108189e-01,-2.417173e+00,2.501405e-01,4.010139e-01,9.377707e-01,-5.698035e-01,4.366225e-01,-5.929906e-01,3.686001e-01,-1.328176e-02,-2.875551e-01,1.828140e-02,-3.543225e-01,
-4.295172e-01,1.339800e-02,-1.732090e-01,4.392562e-02,-2.793934e-01,5.509050e-01,5.511919e-02,5.606401e-02,-2.974209e-01,8.884466e-01,-5.333948e-01,-1.013730e-01,-4.297860e-01,8.039289e-02,-2.774194e-01,-1.315303e-01,-2.721778e-01,1.367040e-01,-2.545882e-02,1.112536e-01,-2.050387e-02,6.317814e-02,-1.169605e-02,-7.747582e-03,-2.824301e-01,-2.511705e-01,-2.060583e+00,2.170731e-01,4.442599e-01,-1.699309e-02,-1.148227e-01,-2.446941e-01,-1.305024e+00,-3.689395e-01,2.715746e-01,-2.345112e-01,-2.869587e-01,-8.047766e-02,-2.102425e-01,2.888997e-01,4.212737e-01,-7.312641e-02,-8.333650e-02,5.899718e-02,2.874520e-01,-8.232672e-02,3.704240e-02,-4.552999e-01,1.474230e-02,-2.011401e-01,
-6.735340e-01,5.119330e-02,1.120202e-01,9.579420e-01,4.546690e-03,1.816476e-01,-8.073607e-01,-1.048906e+00,-1.215805e-01,1.515849e+00,-5.253129e-01,-8.099490e-01,2.639714e+00,3.695386e-01,5.111399e-01,5.120738e-01,-1.978231e-01,-9.972301e-01,3.031516e-01,-4.195821e-01,-8.178239e-01,-1.651702e+00,1.496867e-01,7.908320e-04,-6.696333e-01,-2.024746e+00,-9.651001e-01,3.021399e-01,1.950806e-01,4.588633e-01,-1.009749e+00,-5.911174e-02,-1.635690e+00,4.969507e-01,-1.524810e-01,3.758409e-01,-2.088303e+00,-1.610585e-01,-6.202297e-01,8.334796e-01,-9.225930e-01,-8.119839e-01,-2.786238e+00,3.070447e-01,1.592580e-01,8.881112e-01,1.715240e-02,-3.672480e-01,-5.266506e-02,4.678997e-01,
-6.187996e-02,-1.071241e-02,-7.090303e-03,-3.882312e-02,3.243220e-03,-1.610301e-02,-2.137212e-02,-3.421908e-03,-2.134955e-02,1.219020e-02,6.912520e-03,-4.555152e-04,-4.996204e-02,-1.294639e-02,3.106240e-02,-2.481381e-02,-4.726827e-03,4.787630e-02,1.666020e-02,-3.518371e-02,1.068880e-02,-4.908844e-02,-6.268647e-03,-2.383447e-02,2.678980e-02,-2.214870e-02,2.564360e-02,-3.500679e-02,-6.033814e-02,-1.552855e-02,1.733130e-02,4.886510e-02,1.856360e-02,-1.443813e-05,3.202490e-02,2.639150e-02,3.768480e-03,-1.265029e-03,-6.483214e-03,-6.707211e-02,1.297260e-06,1.577540e-02,4.230400e-02,-2.154285e-02,-2.838664e-02,-2.986578e-02,-4.600732e-02,3.618120e-02,-1.986432e-02,-3.873954e-02,
-9.818192e-01,6.319320e-03,1.334440e+00,-4.930054e+00,8.498605e-02,-2.895994e+00,-5.795160e-01,8.653218e-01,3.472233e-01,5.309860e-01,-2.616054e+00,-1.197126e+00,8.967882e-01,-6.706854e-01,-2.362406e+00,-1.039678e+00,-4.426579e+00,5.923532e-01,4.797434e-02,-8.728586e-02,-2.904562e+00,-3.535959e+00,6.381292e-01,-9.619564e-03,-7.657765e-01,9.975095e-01,-2.141076e+00,1.542778e-01,6.467286e-02,-1.090152e+00,-2.571408e+00,-9.840915e-01,-1.344178e+00,-1.276002e+00,-2.897643e+00,-1.465170e+00,2.163294e-01,1.343284e+00,-3.515568e+00,-2.084544e+00,-3.330548e+00,-3.182613e+00,6.829909e-02,6.228228e-01,-1.791205e+00,-6.824149e+00,-3.580290e-02,-9.819999e-01,5.006100e-03,-1.100337e-01,
8.087179e-01,1.869800e-02,1.480348e+00,-1.040326e+00,3.540412e-02,3.843842e-02,5.634331e-02,1.168296e+00,4.157086e-01,-2.556435e+00,6.850012e-01,-7.052808e-01,-1.308457e+00,5.459318e-01,4.450930e-01,5.936094e-01,-1.827955e+00,8.413368e-02,2.631890e-01,9.437081e-01,9.152795e-02,-1.147576e-01,6.335479e-01,1.849180e-03,6.673855e-01,3.180672e-01,-6.137912e-01,4.053147e-01,2.540222e-01,2.433349e-01,-3.012261e-01,-8.784142e-01,-6.653923e-01,6.368992e-01,9.288940e-01,-4.929424e-02,1.126525e+00,4.831681e-01,-2.311785e+00,1.251435e-02,-6.923658e-02,-8.263216e-02,-9.867963e-01,4.183733e-01,3.100863e-01,-7.268089e-01,-4.291329e-02,-2.421153e+00,-3.096891e-02,-8.930134e-02,
-1.400059e+00,3.807550e-02,7.753242e-01,-1.227177e+00,-8.170743e+00,-2.530710e+00,-7.104782e-01,-1.217863e-01,-3.411660e-01,-2.886775e+00,-1.590078e+00,-1.961547e-01,-4.126458e-01,7.550361e-01,9.033066e-01,-2.668029e+00,-5.499291e-01,1.273041e-01,-1.384992e+00,-9.526996e-01,-4.683945e-01,1.476236e+00,-6.888105e-01,2.994530e-02,7.383221e-01,-1.232689e+00,2.889810e+00,4.016662e-01,3.684124e-01,-1.693639e+00,1.248428e-01,2.588649e-01,2.790440e-01,1.502308e+00,-7.566247e-01,-2.504869e-01,-6.449394e-01,-3.210910e-01,-2.309905e+00,-7.122118e-02,2.012854e-01,-9.789916e-01,4.246135e-02,-3.714438e+00,-1.907787e+00,-3.011274e+00,3.999230e-03,-2.051931e-01,5.203390e-02,1.112653e-01,
-8.223054e-03,3.421890e-02,-2.134765e-03,-6.839721e-03,-5.027295e-02,-5.528029e-02,-5.004961e-02,-2.867770e-02,-3.449470e-02,-1.039538e-02,-1.910527e-02,4.245280e-04,-3.517731e-02,4.841070e-03,-4.233789e-02,2.945960e-02,2.211690e-02,-9.857862e-03,-5.315111e-03,7.459280e-03,-1.010891e-02,-4.991469e-03,2.417760e-02,-1.641045e-02,2.668430e-02,2.768430e-02,-3.719089e-02,3.294590e-02,-2.414590e-02,-3.386050e-02,-2.442195e-02,-1.792182e-02,-2.843368e-02,2.887870e-02,2.443940e-02,-3.575176e-02,-4.283863e-02,1.164720e-02,-1.358406e-02,-5.939829e-02,1.632490e-02,-3.594496e-02,-2.496637e-02,1.199580e-02,-4.120620e-02,-3.737002e-02,1.023710e-02,5.370060e-03,-4.804285e-02,-4.468454e-03,
-4.459213e-02,1.253520e-02,6.864780e-03,-7.276909e-03,2.723220e-03,3.594360e-03,-2.683737e-02,1.311540e-02,-3.200620e-02,-1.825540e-02,-1.810882e-02,-5.196943e-02,2.448560e-02,-1.281683e-03,-3.603726e-02,-4.147500e-02,-3.931305e-03,3.551360e-02,1.001600e-02,-1.523130e-02,2.555180e-02,5.993280e-03,-4.522822e-02,-3.360787e-02,3.308200e-02,-4.990156e-02,1.944130e-02,1.044320e-02,-5.723802e-02,-3.060823e-02,3.202370e-02,-1.994359e-02,-3.369009e-02,3.888220e-02,-4.954572e-02,-1.093764e-02,1.603940e-02,-3.731490e-02,-4.885912e-02,3.659150e-02,-4.335786e-02,-5.155090e-03,7.113190e-03,-3.340596e-02,-3.342633e-02,2.604820e-03,-3.980172e-02,-4.688796e-02,-5.541259e-02,-3.705870e-02,
-8.053668e-01,-1.925038e-02,3.911450e-01,5.703411e-01,2.492781e-01,-2.983102e+00,-6.527178e-01,-2.167620e-01,-2.284936e+00,-1.450900e-01,2.730101e+00,1.163180e-01,-1.183927e+00,-1.534428e+00,1.231713e+00,1.948611e-02,-1.001391e+00,5.777311e-01,-9.978055e-01,-7.147087e-01,-1.411672e-01,-1.415851e+00,-2.524788e-01,9.919770e-05,-1.564521e+00,7.916511e-01,-1.770090e+00,1.972295e+00,-5.058553e-01,-7.951818e-01,-2.329918e+00,-2.562504e+00,-1.771623e+00,7.257572e-01,1.125636e+00,-8.590942e-01,7.452208e-01,1.189362e+00,-2.979018e+00,5.713604e-01,1.301339e-01,-2.901517e+00,-1.233151e+00,-1.024594e+00,-1.423999e+00,-1.401540e-01,3.984700e-02,-4.399195e-01,-1.184505e-02,-4.369816e-01,
5.087348e-01,-7.160538e-03,-4.764217e-01,-4.290867e-01,-1.420314e+00,1.364982e+00,3.134183e-01,1.339153e-01,4.952052e-01,5.049071e-02,2.733216e-01,3.545720e-01,1.677664e+00,1.310268e-02,-7.858168e-01,-4.196262e-01,1.238876e+00,-2.253972e-02,-1.578664e-01,-7.924612e-02,1.182132e+00,-1.994107e+00,-4.822303e-01,-7.679101e-03,-2.822589e-01,2.694046e-01,5.073341e-01,-9.509031e-01,-4.479720e-01,5.499166e-01,4.545265e-01,1.051909e+00,-6.817902e+00,-4.346139e-01,6.956134e-01,5.819913e-01,4.181419e-01,-5.826911e-01,3.241353e-01,5.751893e-02,1.484939e-01,-8.759803e-02,-2.514267e-01,-2.425573e-01,1.597674e+00,-9.798736e-01,4.158090e-02,3.038839e-01,3.702250e-03,-4.185562e-01,
1.406627e+00,-3.923293e-02,-1.390063e+00,-1.538386e-01,2.679323e-01,-9.998530e-01,-3.574725e-01,9.240591e-02,-1.449672e-01,-1.628980e+00,5.338363e-01,1.675676e-01,-3.137526e+00,1.048714e+00,-2.026752e-01,3.058326e-01,-3.682791e+00,3.215531e-01,-2.637369e-01,-1.191960e+00,-9.815316e-01,1.336223e+00,1.882530e-01,1.071240e-02,8.078220e-01,-4.623738e-01,-9.160588e-01,1.590575e-01,-1.309140e+00,-4.190792e-01,-5.178222e-01,-1.476205e+00,-1.614396e+00,1.512115e+00,1.075979e+00,-3.365954e-01,6.171504e-01,-4.888369e-01,1.698723e-01,4.268236e-01,-8.981153e-01,5.291177e-01,-3.694078e-01,-1.555533e-02,-4.882458e-01,1.411367e-01,-1.925490e-02,-3.403543e-01,-1.615824e-02,1.295306e+00,
8.490542e-01,-2.790910e-02,9.226087e-01,-1.579315e+00,-6.979276e-03,-7.847059e-01,-4.174832e-01,2.002322e-01,-7.615188e-02,-1.887606e-01,1.165298e+00,-1.073289e+00,-1.531981e+00,-7.229943e-01,-1.533819e+00,-5.237410e-01,8.195019e-01,-1.143187e-01,3.008981e-01,4.707570e-01,-4.551193e-01,7.202958e-01,-7.990384e-01,2.343960e-02,8.594921e-02,-2.239912e-01,7.838534e-01,-3.731080e-01,-3.615192e-01,-5.900905e-01,7.380733e-01,-3.579387e-01,-3.465514e+00,-5.668792e-01,-3.893190e+00,5.380725e-01,4.362742e-02,9.720764e-02,-4.412026e-01,8.394725e-01,-3.194898e+00,-9.058445e+00,2.103591e-01,-8.300617e-01,-1.119846e+00,-8.747434e-02,5.387640e-02,-4.884988e+00,5.069790e-02,-7.434147e-01,
1.101651e-01,8.136100e-03,-2.574159e-01,-1.020269e+00,8.519594e-02,2.624831e-01,-1.269314e-02,2.534931e-01,3.269742e-01,1.408023e+00,-4.058575e-01,1.190645e-01,1.869163e+00,7.401754e-01,2.881778e-01,-1.283929e-01,-3.734619e-01,-2.735943e-01,7.748903e-03,3.605630e-01,6.191473e-02,1.300274e+00,-4.171093e-01,-5.777447e-03,9.090484e-01,5.301265e-01,-6.583048e-01,8.324147e-01,-8.670007e-01,2.646263e-01,1.226707e+00,3.212529e-02,-3.182938e-01,3.220395e-01,-1.404585e+00,2.076947e-01,-1.090971e+00,-6.244770e-02,2.916880e-01,-5.462887e-01,2.006950e+00,1.471560e+00,6.964890e-01,-7.080434e-02,3.464422e-01,3.332942e-01,3.185350e-02,8.508267e-02,-1.748512e-04,-9.771657e-01,
1.619820e-02,-5.083428e-02,3.727860e-02,-5.288671e-02,3.483970e-05,-3.764176e-02,-4.913779e-02,-3.045850e-02,-5.831101e-02,-8.700090e-04,-4.663218e-02,-1.202061e-03,9.926580e-03,1.524410e-02,3.552820e-02,-4.211109e-02,-1.449850e-02,-5.646176e-02,2.053430e-02,-4.485684e-02,3.146850e-02,3.578900e-02,-4.150188e-02,1.730650e-02,-3.356881e-02,2.812630e-02,1.797630e-02,-1.675370e-02,1.088200e-02,2.376970e-02,-1.467018e-02,-1.761826e-02,-2.762025e-02,-3.237339e-02,2.450120e-02,3.057370e-02,-4.923135e-02,-4.043655e-02,-7.768571e-03,2.125490e-02,-9.770039e-04,2.397290e-02,-2.403345e-02,-2.381998e-02,4.226940e-03,-5.635234e-02,-3.788915e-02,3.462420e-02,6.333390e-03,-2.481738e-02,
-4.392087e-01,-4.758789e-02,1.290553e+00,-1.018566e+00,6.167950e-02,1.334598e-01,2.085829e-01,2.520778e-01,-5.761276e-01,-9.971293e-01,-8.360488e-01,-3.156961e-01,1.264946e+00,5.996780e-02,-4.300968e-01,2.375694e+00,-1.606888e+00,-6.935974e-02,-1.528989e-01,2.856802e-01,1.234126e-01,1.529899e+00,9.129614e-01,-1.441198e-02,6.717146e-01,-1.676272e-01,1.526665e-02,1.522593e+00,-3.140697e-01,-7.352614e-02,2.631966e-01,-5.351619e-01,-3.688020e-01,2.445899e-01,1.209958e-01,9.042166e-01,3.136377e-01,2.588370e-01,7.038645e-02,9.875345e-01,-7.805962e-02,3.696421e-01,-1.098258e-01,-3.800265e-02,-1.156627e-01,-3.025270e-01,1.008360e-02,-1.360947e+00,-4.667512e-02,6.812954e-02,
-2.220907e-01,-5.444859e-02,-2.086297e-02,-9.492787e-03,-6.553648e-02,3.119550e-01,-4.167187e-02,-1.657089e-02,-1.762278e-01,4.448041e-01,3.156908e-01,-3.168848e-01,6.830754e-01,-2.629903e-01,5.657925e-01,-6.591899e-01,8.987927e-01,-2.684944e-01,-1.922770e-02,-3.414589e-01,2.976739e-01,-2.486578e-01,1.742227e-01,-3.984172e-02,1.378341e-01,-3.552108e-02,6.003331e-03,1.768802e-01,-2.160438e-01,5.023409e-01,4.039156e-02,-4.246693e-01,5.294142e-01,2.166256e-01,-6.867272e-01,-2.015422e-01,1.219137e-01,-6.738375e-02,-5.961795e-02,1.949503e-01,3.031749e-02,-4.138365e-01,-4.776397e-01,-1.509144e-01,2.980940e-01,1.179097e-01,2.314750e-02,-9.088254e-01,3.417090e-02,3.804075e-01,
-8.455282e-01,-3.101091e-02,-7.683133e-01,7.226887e-01,3.146283e-02,3.548633e-01,8.389659e-02,-1.080933e-01,-1.960486e-01,2.163019e+00,2.915578e-02,3.719520e-01,2.461645e+00,1.558741e-01,-1.575882e+00,4.883676e-01,6.959400e-01,-5.803371e-01,5.916655e-01,2.530938e-01,6.158536e-01,8.334534e-01,9.557226e-02,-2.748196e-02,3.456190e-01,-6.088299e-01,-4.566891e-01,1.880040e-01,-5.003754e-02,6.277278e-01,7.300978e-01,4.301761e-01,-3.970134e-01,6.594241e-01,4.720243e-01,2.732888e-01,-2.765794e-01,-3.727951e-01,1.668941e+00,-1.067934e-01,-5.957416e-01,1.037048e+00,1.039885e+00,1.548057e-01,2.067618e-01,9.544352e-01,-3.328374e-02,6.282633e-01,-1.556488e-02,-2.106174e-01,
-6.643087e-01,-2.737413e-02,3.419091e-01,3.687694e-01,2.707582e-01,3.151806e-02,-6.825840e-01,1.394359e+00,1.425385e+00,6.881841e-01,-1.679895e+00,-4.821159e-01,1.719705e+00,1.344556e-01,1.478410e+00,-2.059722e+00,-3.556696e-01,5.250783e-01,-1.141791e+00,-4.925298e-01,-3.466102e-01,1.068114e+00,5.683385e-01,-7.773569e-03,1.432011e+00,-6.011145e-01,-1.189272e+00,-9.486382e-01,3.671646e-01,-2.014288e+00,1.549716e-01,-1.523812e+00,-7.846093e-01,-1.270227e+00,-1.278448e+00,5.867074e-01,-8.885929e-02,-1.147870e-02,-3.536925e+00,-2.025765e-01,1.267675e+00,-3.605017e+00,5.462753e-01,8.913743e-01,1.510832e-01,-2.357250e+00,5.685180e-02,-1.713085e+00,-3.044916e-03,-4.233117e-01,
2.108179e-01,-3.447076e-02,5.381849e-01,6.175081e-01,-1.675705e-02,-5.785164e-01,-3.711351e-02,3.730740e-01,-1.889853e-01,-5.111368e-01,2.054188e-01,2.607984e-01,3.318339e-01,1.999924e-01,-1.960938e+00,8.850974e-01,6.558464e-01,-8.669104e-01,2.273061e-01,1.636982e-01,-6.574259e-01,1.143795e+00,-3.054628e-01,1.128660e-03,6.930114e-01,-3.463740e-01,4.485348e-01,-2.468350e+00,-4.537838e-01,7.807447e-01,4.126979e-01,1.792098e-01,8.109486e-01,8.806875e-01,8.710075e-01,2.629675e-02,6.907921e-01,2.110710e-01,6.602560e-01,-1.527246e+00,-1.760976e+00,-1.090362e+00,-5.906228e-01,-6.198485e-01,3.038427e-03,-1.137854e+00,-1.685754e-02,-9.165943e-01,3.471480e-02,-3.960243e-01,
4.162093e-02,2.056730e-02,-2.232006e+00,-1.055743e+00,-1.280790e-01,-1.241383e-01,1.630057e-01,-1.531950e-01,-1.714094e-01,4.428777e-01,1.650821e-01,9.793834e-02,5.418132e-01,4.852870e-01,-9.768664e-01,-1.065477e+00,-6.480201e-01,4.251687e-01,-1.678005e-01,-2.129568e-01,-1.451205e+00,-1.083306e+00,-6.217228e-01,4.550110e-02,-7.840518e-01,1.122795e-01,-6.437046e-01,3.783736e-01,7.865943e-01,-2.906442e-01,-2.047174e+00,-3.056854e-01,-1.369515e+00,6.404302e-01,1.278215e+00,-1.912102e-02,9.302818e-01,9.834114e-01,-2.764702e+00,1.239104e-01,1.512894e+00,-4.925886e-01,1.512798e+00,3.986466e-01,1.872203e-01,4.958743e-01,-2.621020e-02,-1.292644e+00,-2.232279e-02,-1.738128e-01,
-3.905549e-02,-1.757826e-03,1.269534e-01,2.038719e-01,4.395194e-02,-9.952068e-01,1.459000e-01,4.355977e-01,5.355188e-01,-6.368765e-01,-7.449582e-01,-9.738309e-02,-5.868418e-01,1.411358e+00,-1.526186e+00,5.255552e-01,1.802540e-01,5.348947e-02,1.568602e-01,-4.863201e-01,-9.007981e-01,-8.345662e-01,-5.601099e-01,-1.537095e-02,-7.170334e-01,7.337363e-01,4.189446e-01,3.999804e-01,6.962151e-01,-5.073578e-01,-2.212759e-01,-7.431427e-01,1.335909e+00,-2.699970e+00,4.372118e+00,-3.739533e-01,1.007722e+00,6.180633e-02,2.822586e+00,-3.689721e-02,-1.864643e+00,9.279394e-01,7.371336e-01,1.314363e+00,4.451070e-01,-2.096566e+00,-3.526750e-02,-2.049400e-01,-3.975604e-02,-9.904366e-01,
-9.528959e-01,1.672530e-02,1.034161e-02,3.321203e-01,2.151844e-02,3.856895e-01,8.541564e-01,-7.737271e-01,5.295685e-02,-1.376256e+00,-3.783496e-01,4.935121e-01,-1.539730e+00,3.674548e-01,6.962193e-01,-6.503584e-01,-1.195530e+00,-5.599324e-01,-1.123888e-01,3.750831e-01,5.521295e-01,1.297368e+00,1.244642e+00,-3.138250e-02,6.212212e-01,-3.379162e-01,2.849527e-01,-1.080565e-01,-4.721073e-01,5.803334e-01,8.585188e-01,9.299904e-01,-4.046280e-01,-5.265183e-01,-1.160523e+00,3.203208e-01,-3.471867e-01,-3.285523e-01,-1.325572e+00,-5.787284e-01,3.180817e-01,2.136749e-01,-2.101669e-01,-6.546854e-04,-4.538551e-02,-6.469984e-01,-1.089564e-02,-3.038374e-01,2.772590e-02,-1.091464e+00,
8.974802e-01,-3.245749e-02,1.064763e+00,-1.030638e+00,8.388282e-02,-8.804764e-01,1.370916e+00,1.571440e+00,-6.327321e-01,-3.631645e+00,-4.411691e-01,-2.758581e-03,-4.573863e+00,5.002042e-01,7.077923e-01,-2.537020e+00,-6.678430e-01,-1.715626e-01,-1.128319e+00,-4.684428e-01,-9.636070e-01,4.251392e-01,2.389041e-01,4.002330e-02,-1.830087e-01,-3.447811e-01,3.172438e-01,-1.164576e-01,7.410703e-01,-6.784974e-01,3.224418e-01,-1.425259e+00,8.222535e-01,1.074574e+00,-1.460099e+00,-1.305633e+00,6.723036e-01,-2.325361e-01,-5.747133e+00,-2.705493e-01,-1.196559e+00,-3.994651e+00,-3.627918e-01,-1.098909e+00,-7.260686e-02,-1.959930e+00,-4.893703e-02,-4.961071e-01,-5.927575e-02,5.137607e-01,
1.394372e-01,4.146390e-02,-9.395578e-02,5.988325e-01,-3.079881e-02,1.034930e+00,1.834441e-02,-4.607368e-01,-8.853085e-01,-1.222284e+00,-3.121482e-01,-4.080720e-01,1.404701e+00,2.486872e-01,2.148862e-01,-6.416351e-03,1.912255e-01,-8.156872e-02,1.833604e-01,2.208721e-01,-1.604421e-01,-3.028126e-01,-6.915930e-01,-1.698595e-02,-9.036489e-01,-1.527561e-01,2.770394e-01,-1.693345e-01,2.880675e-01,5.865452e-01,-3.572824e-01,-6.092309e-01,7.675136e-01,-2.560477e-01,-8.738782e-01,-8.400073e-02,4.054933e-02,6.721440e-02,3.645768e-01,6.795179e-01,-2.580091e-01,-2.880675e-01,1.126144e-01,2.185532e-02,3.709788e-01,4.387527e-01,-2.188977e-02,-2.281692e-02,-4.306039e-02,2.530154e-01,
-2.286501e-01,5.713610e-02,-7.404662e-01,-7.871986e-02,-1.180620e-01,-2.230137e-01,-2.083231e-01,6.628291e-01,-1.108832e+00,-2.066337e+00,1.959400e-01,-1.413573e-01,-2.616348e-01,2.742374e-01,4.698538e-01,-2.621241e-01,-6.207400e-01,1.378355e-01,-2.168439e-01,4.848183e-01,-1.007439e+00,1.048164e+00,5.980924e-01,1.470690e-02,-1.965211e-01,-3.605731e-01,2.491391e-01,1.168899e+00,1.083124e-01,-1.127353e-01,-1.915221e+00,-6.342840e-01,-5.067751e-01,7.566379e-01,8.982060e-01,3.847443e-01,-6.143938e-01,1.781307e-02,-2.504638e+00,-2.157445e-01,-3.349783e-01,-2.250549e+00,-6.483088e+00,7.823202e-01,-1.254792e+00,-9.668095e-01,1.543710e-02,-7.083856e-01,3.968640e-02,1.353427e-01,
-1.420093e-01,3.420140e-02,-4.638921e-01,1.241179e+00,1.406390e-01,1.599278e-01,-8.107868e-01,-6.196585e-01,-3.673110e-01,1.256143e+00,2.363324e-01,-2.989402e-01,-2.843253e+00,-8.966947e-01,4.753391e-01,-6.209342e-01,1.579000e+00,7.086954e-01,-5.762672e-01,-7.132787e-01,-1.125369e+00,-1.608180e+00,8.236924e-01,3.033600e-02,-7.879934e-01,-1.132036e-01,-6.264552e-01,-2.485003e+00,1.265491e+00,-5.079165e-01,-2.846371e+00,7.405107e-02,-7.568588e-01,4.856722e-01,1.276243e+00,-5.357057e-01,-6.408685e-01,-5.327017e-02,3.087219e-01,5.871716e-01,-1.359897e+00,-3.279423e-01,-5.605099e-01,1.601976e-02,-8.954042e-01,8.355668e-01,2.853370e-02,-5.626677e-01,-1.530238e-02,2.164258e+00,
-2.801410e-02,-6.966981e-03,-4.923366e-02,9.806090e-03,-2.966502e-02,4.413620e-03,-7.595742e-03,-5.341412e-03,-5.050951e-02,7.976750e-03,-2.714943e-02,5.278980e-03,-5.406271e-02,-2.978997e-02,2.503980e-02,-2.732467e-02,-3.731353e-02,-1.686804e-02,-5.194917e-02,3.616750e-02,3.031920e-02,-2.696841e-02,3.271610e-02,3.280590e-02,3.762790e-02,8.272580e-03,-1.429081e-02,2.331610e-02,-3.649369e-02,-3.438897e-02,-2.151744e-02,-4.282278e-02,-2.382387e-02,-1.379007e-02,-5.191273e-02,-2.421877e-02,3.023050e-02,1.233060e-03,-1.082991e-02,-1.475638e-02,-7.499404e-03,5.362480e-03,-5.404507e-02,-1.585657e-04,2.624950e-02,-3.968097e-02,-3.289944e-02,-1.815639e-03,9.114450e-03,-5.451222e-02,
-5.159354e-01,1.294550e-02,-2.457294e-01,9.442250e-02,-6.556630e-02,3.325712e-01,4.115267e-01,4.055148e-01,-2.439612e+00,1.326314e+00,-7.625666e-01,6.831915e-01,1.303876e-01,-5.605855e+00,-2.846938e-01,1.798027e+00,-1.610773e-01,-1.014862e+00,7.451153e-01,-1.334203e+00,3.215275e-01,2.044381e+00,-1.753993e-01,-4.526466e-02,-8.853148e-01,-1.158276e+00,-4.072624e-01,-2.572752e+00,-8.074416e-01,9.808086e-01,-1.356747e-01,-7.452878e-01,-5.839900e-03,2.998751e-01,2.877512e-01,5.188283e-01,1.241631e-01,-5.607713e-01,1.124686e+00,9.604784e-01,-1.329846e+00,2.519058e-01,-5.600752e-02,1.156188e-01,5.627249e-01,4.158615e-01,1.403890e-02,1.467949e-01,-4.958373e-02,-1.412302e+00,
1.009840e+00,5.715730e-02,4.156938e-01,-1.410097e+00,1.209445e-03,1.884363e-01,-7.702044e-02,9.135792e-01,4.235167e-01,-1.797820e+00,1.261058e-01,-7.514828e-04,-3.229621e+00,-3.222912e-01,-5.315530e-01,1.250865e+00,1.118074e+00,-8.451954e-01,6.121315e-01,8.427231e-01,6.443726e-01,8.932289e-01,3.338005e-02,1.649130e-02,-5.636337e-03,-1.524768e-01,-6.378109e-01,-3.892108e-01,-1.226820e+00,1.031425e+00,5.927249e-01,-3.704473e-01,-2.666496e-01,4.673781e-01,2.624688e-01,-7.661240e-01,-5.495417e-01,-8.066540e-01,5.695316e-01,-2.905098e-01,4.064870e-01,2.007568e-01,3.616820e-01,2.061890e-02,3.617837e-01,-3.707256e-01,9.147260e-03,-1.459689e+00,-1.227082e-02,-4.301934e-01,
-3.891877e-05,2.161740e-02,-4.238556e-02,4.139740e-02,-6.192690e-02,-5.513077e-02,-7.732641e-03,-4.808664e-02,3.236810e-02,3.110620e-03,4.608110e-02,2.361250e-02,-2.435328e-02,-5.244309e-03,-1.319776e-02,4.047520e-02,-5.842956e-02,-3.114447e-03,-1.381968e-02,2.839960e-02,-1.829194e-02,-2.841688e-02,-3.314892e-03,6.056090e-03,-2.967899e-03,1.868900e-02,-4.527957e-02,9.116880e-03,-7.827760e-03,-5.281710e-02,1.728410e-02,1.017180e-02,-5.185603e-02,-2.706921e-04,-6.756550e-03,4.104310e-03,-4.697815e-02,3.352680e-04,3.027210e-02,-6.012551e-02,-4.091062e-03,-1.065981e-02,3.083010e-02,-2.937753e-02,3.573060e-02,-2.019097e-02,1.381650e-02,1.166220e-03,-3.939516e-02,-1.624969e-03,
1.557349e+00,1.109370e-02,-1.770069e-02,1.363383e-01,2.462271e-01,-2.077761e+00,-3.155848e-01,2.558292e-01,-1.010194e-01,-1.274101e+00,-7.013496e-01,-1.051544e-01,-2.829844e+00,2.564184e-01,6.833777e-01,1.791142e+00,-2.346393e+00,6.819765e-01,7.074207e-02,-3.418086e-01,-1.319304e+00,-8.156852e-01,2.400184e-01,-2.802922e-03,-2.048098e-01,1.594309e-01,6.525187e-01,2.791446e-01,-3.979951e-01,-5.738418e-01,-1.442941e+00,-1.480227e-01,4.056476e+00,-4.416772e-01,-1.109545e+00,-6.908454e-01,1.301481e+00,-1.691970e-01,2.859471e-01,-4.030173e-01,6.662953e-01,-5.090242e-02,1.165753e-01,4.291497e-01,-2.880748e-01,8.540357e-01,8.744870e-03,2.220130e-01,4.193070e-02,3.806469e-01,
-1.564626e+00,-2.260083e-02,-2.964895e-01,-7.658185e-01,4.751140e-03,-1.588303e+00,3.590192e-01,4.642451e-01,9.007957e-01,2.639043e+00,-8.272204e-01,2.927625e-02,-4.977462e-01,3.841240e-01,1.455742e+00,-5.931849e-01,-2.529345e+00,1.260450e+00,-4.292253e-01,-1.368633e+00,-1.289746e+00,-2.317339e+00,-1.792371e-01,1.781090e-02,-2.086528e+00,1.100100e+00,9.088572e-01,1.000426e-01,1.795595e+00,-1.292844e+00,-2.720623e-01,2.507164e-01,-2.316772e+00,-9.247097e-01,-6.053502e-01,1.134271e-01,1.391541e+00,6.730950e-01,1.476459e+00,4.410299e-01,-3.704841e-01,3.630815e-01,-2.398095e+00,5.282865e-01,-6.080266e-01,-2.936125e-01,3.942450e-02,1.051213e+00,4.411140e-02,7.861013e-03,
4.742818e-02,-3.706301e-02,1.658298e+00,-3.276357e-01,-4.023831e-03,-6.803170e-01,-6.621499e-02,6.822958e-01,3.611558e-02,-5.660833e+00,-4.947149e-01,-1.165899e+00,-9.110598e+00,3.939450e-01,1.672940e+00,-1.044259e+00,-1.853407e+00,1.172480e+00,-1.292004e+00,-8.519889e-01,-1.238212e+00,-1.495021e+00,3.485379e-01,4.325960e-02,-1.803438e+00,4.445420e-01,-7.010776e-01,-6.551443e-01,2.032031e+00,-1.817550e+00,-2.093805e+00,-1.177554e+00,6.999153e-01,-9.039114e-01,9.301241e-01,-4.148760e-01,1.487253e+00,7.221994e-01,-5.240802e+00,5.552389e-01,4.366770e-01,-1.993404e+00,-3.009048e+00,-9.741406e-01,-8.053584e-01,-8.507698e-02,-3.433783e-02,2.260886e-01,-3.375445e-02,1.036488e+00,
-8.218822e-01,-2.637043e-02,1.120145e-01,-5.157232e-01,-1.770132e-01,-2.229549e-01,-4.090548e-01,3.625106e-01,-1.968057e-01,-4.707937e-01,-2.656930e-01,1.645248e-01,-2.110584e-01,-8.311936e-02,-5.119411e-01,8.717760e-01,-5.952061e-01,6.795930e-01,3.778720e-01,2.166997e-03,4.309627e-01,-1.001354e+00,1.607533e-01,-2.503210e-02,-1.406990e-01,3.018606e-01,2.033750e-01,2.185979e-01,-4.441290e-01,9.619985e-01,-7.398352e-01,1.015731e+00,4.476210e-01,-2.756985e-01,8.072454e-01,-4.202026e-01,4.614995e-01,8.787759e-02,-1.176199e+00,-1.321488e-01,-4.102759e-01,-1.304436e+00,-2.769868e-01,1.668523e-01,4.936689e-01,1.140551e-01,3.750670e-02,1.323169e-01,2.098470e-02,5.751243e-01,
1.041466e+00,-4.695369e-02,1.076371e+00,9.662545e-02,1.824256e-01,1.110085e-01,-2.146273e-01,2.412081e-01,-1.508913e-01,1.434319e+00,1.085862e+00,4.804919e-01,8.782610e-01,2.883440e-01,-1.328365e-01,-3.143290e-01,-9.783669e+00,2.548020e-01,1.407254e-01,-6.159195e-02,-2.726314e+00,-6.724463e-01,4.024670e-01,-5.800588e-02,-1.584639e+00,4.778798e-01,1.082016e-01,8.209415e-01,5.953364e-01,-3.620957e-01,-2.576878e-01,1.664260e-01,9.299141e-01,-2.382807e-01,1.117618e+00,-6.330093e-01,-8.249766e-01,9.456480e-02,-1.772515e+00,-2.956789e-01,1.471740e+00,7.714146e-01,-6.456345e-02,1.629516e-01,4.284344e-01,-7.704721e-01,9.051790e-03,-1.465222e+00,-7.235665e-03,-4.134522e-01,
-1.119510e+00,-2.084502e-02,-6.741735e-01,1.582054e-02,1.083446e-02,-9.051976e-01,8.835750e-01,-8.251393e-01,-7.262461e-01,2.619967e-01,-2.602876e-01,-3.710448e-01,1.669568e-02,-1.399744e-01,9.871925e-01,2.476498e-01,1.171378e+00,-1.065739e-01,2.936507e-01,1.127489e-01,5.237284e-01,-9.429829e-01,-2.306262e-01,4.921480e-02,-2.285839e-01,-1.930530e-01,-8.043871e-01,1.223514e+00,-1.108212e-02,6.034020e-01,2.042272e-01,2.942017e-01,-6.295012e-01,9.384005e-01,-7.354620e-01,1.573504e-01,1.027558e-02,7.699503e-02,-1.686772e+00,6.289770e-02,6.715512e-01,1.555596e+00,-2.289409e-01,-1.072858e-01,-5.184921e-02,2.182501e-01,-1.331683e-03,-5.850464e-01,-3.624778e-02,-6.959336e-01,
3.383120e-02,4.240410e-03,-2.185218e-02,-1.732983e-02,-3.138303e-02,7.668520e-04,-5.668036e-03,3.659610e-02,-1.786533e-02,-1.397088e-02,2.142700e-02,-3.964695e-02,-5.622256e-02,-1.260682e-03,-4.872966e-02,-3.573496e-02,2.871810e-02,8.708260e-04,2.703280e-02,-3.462165e-02,1.778550e-02,-3.379572e-02,-3.732550e-02,2.433850e-02,-3.555153e-02,-1.783950e-02,-4.727215e-02,-5.768490e-02,-1.969338e-02,1.619030e-02,2.298590e-02,2.867860e-02,-3.139017e-02,2.111530e-02,2.523510e-02,1.688540e-02,2.772970e-02,-1.764367e-02,3.184890e-02,-4.493863e-03,1.145390e-02,2.181400e-02,-1.498423e-02,-4.752205e-02,-4.917696e-02,-3.112263e-02,3.291220e-02,2.166520e-02,2.712490e-02,-2.965567e-02,
-2.264419e-01,1.559820e-02,1.327038e+00,-1.706029e-01,1.372123e-01,3.816122e-01,2.651051e-01,4.793864e-01,8.682506e-02,-7.089894e-01,-5.797144e-01,-1.443309e-01,5.580509e-01,-3.857658e-01,-8.359732e-01,2.393268e-01,-3.901086e-01,-9.526408e-02,4.460791e-01,2.190120e-01,-6.264656e-01,-1.615288e-01,-2.721400e-01,-1.439130e-02,-3.463373e-01,9.487377e-01,-1.603570e-01,2.022740e-02,-7.543641e-01,3.515199e-01,-4.367412e-01,-3.558019e-01,6.035113e-02,-8.197454e-01,1.789581e+00,6.553224e-01,4.568559e-02,-2.799079e+00,1.653409e+00,4.272283e-01,2.650681e-01,-1.885674e-01,-3.337960e-01,-9.216805e-01,-4.846138e-01,9.824710e-01,2.284750e-02,-1.073509e+00,-9.864456e-03,6.518184e-02,
5.516508e-01,-1.467112e-02,6.605431e-01,-7.438189e-01,1.765689e-01,4.786898e-01,-3.078883e-01,8.755524e-02,-1.217380e-01,-1.240239e+00,2.030768e-01,-5.228348e-02,-1.498171e-01,1.586529e-01,5.458121e-01,-5.211087e-01,3.723497e-02,1.906565e-01,3.223816e-01,5.923031e-01,-1.440127e-01,-9.337534e-01,8.563062e-02,-5.085947e-03,2.881948e-01,4.866299e-01,-6.453856e-01,-1.812195e-01,-5.807718e-01,1.306896e-01,-1.509323e+00,-3.344575e-01,-6.586965e-01,9.773980e-02,-3.605091e-01,1.024737e-01,7.959718e-01,3.709484e-01,-8.923025e-01,-2.591505e-01,-3.330967e-01,-5.883549e-01,3.142960e-01,4.736367e-01,2.568002e-01,-3.136539e-01,4.523610e-02,8.486720e-01,-5.921947e-03,-2.721883e-03,
3.888540e-02,1.022490e-02,1.936140e-02,1.537570e-03,-5.220610e-02,2.850260e-02,-4.597372e-02,2.138860e-02,-2.617997e-02,-2.194248e-02,-3.408636e-02,-3.293220e-02,-2.795184e-03,-1.716403e-02,-3.402472e-02,7.892760e-03,3.013450e-03,-2.240626e-02,2.401860e-02,-4.741159e-02,-6.890614e-03,4.734760e-02,-3.611443e-02,4.507860e-02,3.551840e-02,-5.402806e-02,-4.007062e-02,-4.622898e-02,1.603450e-02,-5.249034e-02,-1.419211e-02,1.066290e-03,-3.319103e-02,-2.023203e-02,-4.568969e-02,-2.513479e-02,4.717400e-02,-2.727112e-03,4.017890e-02,3.336540e-02,-3.663387e-02,-7.702243e-03,4.040690e-02,4.299020e-03,-1.807890e-02,-2.431159e-02,-4.631014e-02,2.378370e-02,-5.104879e-02,-2.372055e-02,
-3.553725e+00,1.852460e-02,4.560997e-01,-1.240795e+00,1.694249e-01,2.237656e-01,-1.672986e-02,8.849441e-01,-1.610406e-02,1.429155e+00,6.907792e-01,5.557756e-02,-2.970460e-01,-1.487062e-02,-3.410347e-01,1.009423e-01,-4.485883e-01,1.967925e-01,6.442931e-01,5.638412e-01,3.869264e-01,2.995597e-01,-2.123593e-01,-8.212385e-03,-1.621704e-01,1.849308e-01,5.776478e-01,1.693698e-01,-4.445983e-02,1.863634e-02,-5.633240e-01,5.771020e-01,-1.558861e+00,-1.810494e-01,1.169805e-01,5.715486e-02,-9.447952e-01,3.867480e-01,-3.072583e-01,-3.179106e-01,-1.338078e+00,-8.966170e-01,-3.089520e-01,1.836514e-01,-4.441521e-01,5.607547e-01,2.223850e-02,4.331315e-01,-3.134334e-02,-8.178040e-01,
-1.561455e-02,5.167920e-03,-3.152058e-02,2.391410e-02,-5.153410e-02,1.878310e-02,-3.935232e-02,3.542440e-02,-4.911249e-02,-5.088195e-02,-4.671177e-02,-5.270863e-02,-3.021627e-02,1.976880e-02,-9.594774e-03,-5.526906e-02,1.948040e-02,-2.484468e-02,-1.714881e-02,-5.221366e-02,8.114860e-03,-4.940638e-02,-8.934239e-03,-4.738198e-02,1.018970e-02,2.218670e-03,-3.632821e-02,-3.787444e-02,2.080410e-02,-2.511988e-02,-3.719331e-03,4.044540e-03,3.869630e-03,-1.940316e-02,4.066080e-02,-2.839200e-02,-2.666149e-02,-5.444617e-02,1.000670e-02,8.219790e-03,3.653080e-03,1.463960e-02,2.067580e-02,-3.099558e-02,-5.775063e-02,-4.532293e-02,1.600930e-02,2.787700e-02,-2.624170e-02,4.581640e-02,
-3.844585e-01,
3.957025e-01,
7.358681e-01,
-1.284171e-02,
-4.241674e-01,
-2.260450e-01,
-1.200223e-02,
-4.708420e-01,
7.036774e-01,
-3.549357e-01,
-1.884372e-02,
1.725897e+00,
-1.275676e+00,
9.566770e-01,
-1.067871e-02,
-1.261113e-02,
1.322238e+00,
1.671851e-02,
5.009407e-01,
4.686024e-01,
-4.108167e-01,
-1.682247e-02,
-1.124665e+00,
-1.062096e-01,
-5.972431e-01,
1.056510e+00,
-1.340577e-01,
5.867561e-01,
-1.574989e-01,
-2.150704e-01,
6.796965e-01,
-1.163410e-01,
2.024298e-01,
3.674688e-01,
-5.052579e-03,
-1.666381e-01,
-4.909264e-01,
-2.318536e-02,
7.389438e-01,
4.603206e-01,
8.548965e-01,
-5.300831e-01,
-1.283898e+00,
-1.783120e-01,
-1.228847e-02,
1.695636e-01,
-5.086336e-01,
-6.896211e-03,
-3.539518e-01,
-8.161334e-03,
-3.373408e+00,8.268230e-01,2.377061e-01,-9.670825e-02,-2.669499e-02,-6.708440e-01,1.866920e-02,-2.095621e-01,1.647785e-01,-1.021746e+00,5.227850e-02,-1.083883e+00,-6.741766e-01,-2.414307e-02,-1.732605e-02,3.841880e-02,-5.280523e-01,-7.953130e-01,-2.903649e-01,-1.886745e+00,9.374106e-02,-1.780947e-03,-1.745520e+00,-2.860063e+00,-7.995582e-01,-3.751377e-01,-2.398788e+00,5.500462e-01,7.497219e-01,1.066779e+00,9.331508e-02,-3.658977e+00,-4.618047e-01,1.189903e+00,-3.433720e-02,2.373547e+00,1.563652e+00,-2.059732e-02,-4.263063e-01,-4.203076e-01,5.131112e-01,-1.796319e+00,-9.374148e-01,3.912195e-01,4.559870e-02,6.360782e-01,-1.443918e+00,-1.470073e-02,-1.102122e+00,-1.654590e-02,
-6.966624e-01,4.099573e-01,-8.997869e-02,-4.016365e-03,4.669611e-01,6.306614e-01,-4.674085e-02,2.595039e-01,-3.313453e-02,-2.355622e+00,3.225010e-03,1.075416e-01,1.307019e+00,3.611862e-01,1.463810e-02,-3.042270e-02,-3.555247e-01,-7.771596e-01,8.353815e-03,-1.475922e+00,1.857981e-01,1.944450e-02,-1.060132e-01,-3.620788e+00,-5.560821e+00,2.672920e-01,-4.587429e+00,2.091928e-01,-1.304803e+00,-6.038991e-01,-8.617392e-01,-8.979452e-01,-6.261255e-01,2.024982e-01,1.864180e-03,-6.102988e+00,-7.689128e+00,-1.655913e-02,6.473841e-01,9.170179e-02,2.819448e-01,-2.880633e+00,-3.488614e+00,-9.340789e-01,-5.681308e-02,-2.921793e-01,4.374475e-01,-1.598236e-02,-8.081671e-01,1.523540e-02,
-4.148119e-01,-3.270288e-01,8.773306e-04,-4.755954e-02,-5.754850e-01,-1.759401e+00,-5.504278e-02,-7.662438e-01,-8.549961e-02,1.275792e+00,1.976540e-02,2.375855e-01,6.314250e-01,4.077474e-02,4.151470e-02,8.794000e-03,4.168667e-01,-2.776147e+00,-1.068637e+00,4.571609e-01,-2.287341e+00,4.291300e-02,-1.240186e+00,-1.874229e+00,-1.499515e+00,-9.468228e-01,2.935388e+00,-2.032779e+00,-7.903213e-01,-5.376976e+00,-6.772384e-01,2.178606e-01,-2.429353e+00,1.507736e-01,-2.345973e-03,-3.307878e+00,-1.598257e+00,-2.337646e-02,-1.652700e+00,9.211172e-01,3.144231e-01,1.211005e-01,-4.322010e+00,-6.262599e+00,-5.530812e-02,-2.060951e+00,1.418799e+00,-4.962363e-02,5.681498e-01,2.216690e-02,
1.478827e+00,2.235644e-01,6.591831e-01,5.124330e-02,7.007300e-01,-6.125542e-01,-2.300770e-02,-3.985380e-01,7.105838e-01,1.622885e+00,-3.677583e-02,9.674259e-02,1.236112e+00,8.556204e-01,1.033840e-02,-4.731237e-02,-1.260357e+00,1.137915e+00,-3.087882e-01,2.937590e+00,-5.083722e-01,-4.692271e-02,-1.805748e-01,5.143075e+00,-1.171012e+00,2.861381e-01,-2.675683e+00,5.773349e-01,9.360682e-01,7.915201e-01,-1.188579e-01,1.155304e+00,1.366014e-02,3.951886e-01,2.092900e-02,-5.018475e-01,-2.160984e+00,-5.447662e-02,-4.739983e-01,-3.621733e-01,3.953197e-01,9.501435e-01,1.306725e+00,1.688986e+00,1.623130e-02,1.192868e+00,1.223248e+00,3.453170e-02,-1.725990e-02,-3.124579e-03,
1.725836e+00,-4.626625e-01,3.604898e-01,3.414810e-03,1.054367e+00,-7.124197e-02,1.370770e-02,-1.307250e+00,3.573197e-01,2.143523e+00,2.971960e-02,1.205797e+00,-2.355790e+00,5.931964e-01,3.541880e-02,-1.463563e-02,5.178250e-01,-3.167566e-01,1.039366e+00,5.497960e-01,-1.311891e+00,4.068980e-02,8.266824e-01,-3.197449e+00,1.246352e+00,-1.413772e-01,7.756443e-01,8.231161e-02,-7.526767e-01,8.030654e-01,6.027733e-01,7.514576e-01,-3.173551e-01,-2.490232e+00,-2.993298e-02,-3.282373e-01,-9.845608e-01,-2.270174e-03,9.011187e-01,-1.419390e+00,-5.446990e-01,1.138525e+00,3.426135e+00,3.008257e+00,1.772920e-02,1.662471e+00,7.980059e-01,-5.117490e-02,2.748114e+00,-2.588197e-02,
-2.777880e-01,3.352495e-01,1.914790e-01,3.567480e-02,-1.120507e+00,-1.952475e+00,3.109210e-02,2.192305e-01,-2.025334e-01,2.952650e-01,8.647030e-03,-4.620745e-02,-8.969016e-01,-1.027745e-01,-4.792263e-02,-1.030346e-03,4.592595e-01,2.855637e-01,2.064993e-01,-1.239945e+00,3.569947e-02,2.009190e-02,-2.125819e+00,-1.681239e+00,-1.540717e-01,-2.971615e-01,-1.198648e+00,-4.949816e-02,4.753923e-01,8.743654e-01,1.972903e-02,-1.623804e+00,2.063200e-01,2.858310e-01,-1.921552e-02,1.098704e+00,-1.375258e+00,7.381260e-03,3.810051e-01,-8.980355e-01,1.775930e+00,-2.093742e+00,-1.316511e+00,4.218060e-01,-3.993276e-02,-1.634871e+00,8.987608e-02,-2.167819e-02,-2.005332e-01,3.559150e-02,
3.637290e-02,2.065820e-02,-3.115581e-02,3.522750e-02,2.684120e-02,-5.139235e-02,1.539510e-02,-3.916720e-02,-2.608042e-02,-1.957977e-02,-3.895962e-03,3.668290e-02,-5.192229e-02,-1.221906e-02,-2.001615e-02,-7.229953e-03,-1.156071e-02,-1.278858e-02,2.960040e-03,3.120340e-03,2.253930e-02,2.114350e-02,1.875650e-02,1.085010e-02,-5.862475e-02,2.139170e-02,-1.867246e-02,2.725830e-03,2.837400e-02,-5.492624e-02,-2.167389e-02,-8.293184e-03,2.124700e-02,-1.937071e-02,-3.613880e-02,-4.380757e-02,2.501580e-02,-1.250140e-02,-4.202446e-02,-3.903207e-02,-2.475070e-02,-2.250643e-02,-2.873902e-02,-5.776627e-02,1.319240e-02,3.051340e-02,1.222640e-02,-2.889915e-02,-5.539978e-02,3.525410e-02,
1.201120e-02,-2.943843e-02,-2.005615e-02,9.452140e-03,2.895440e-02,-6.518946e-02,3.343150e-02,-6.084340e-02,-4.791832e-02,-3.346675e-02,2.842290e-02,-1.261722e-02,-3.058366e-02,-6.734490e-02,-4.272313e-02,-9.711062e-03,-3.835324e-02,-1.981266e-02,-2.725863e-02,-4.374552e-02,2.646070e-02,-5.633858e-03,-3.938707e-02,1.455870e-02,-5.091019e-02,1.148770e-02,1.842500e-02,-6.033289e-02,-1.923978e-02,-5.235856e-03,3.033570e-02,1.581690e-02,-3.590958e-02,3.287090e-02,1.619210e-02,2.644020e-02,4.405960e-02,-1.215417e-02,-3.505372e-02,5.824070e-03,2.534420e-02,2.095800e-03,2.561950e-02,-6.597497e-02,-7.851354e-03,3.474440e-02,-1.851822e-02,2.943110e-02,-9.315779e-03,-3.760144e-03,
7.801164e-01,-8.614588e-02,-1.327263e+01,-1.874764e-02,5.831711e-01,1.923696e+00,2.322950e-02,-2.788474e-01,-6.692668e+00,1.947183e+00,3.738360e-02,1.900327e+00,-2.113650e-01,1.322926e+00,-3.340144e-03,-1.694238e-02,7.227626e-01,5.334064e-01,-7.266577e-01,1.438166e+00,1.512966e+00,3.169570e-02,5.196135e-01,1.206818e+00,2.372334e+00,1.433519e+00,1.012465e+00,6.788626e-02,-2.712276e+00,2.538764e+00,-1.374786e+00,1.999913e+00,-7.348540e-02,1.217683e+00,2.358330e-03,2.375174e+00,-5.546615e-01,3.092620e-02,-3.950226e-01,1.762794e+00,1.441860e+00,1.421245e+00,5.409809e-01,1.430250e+00,4.533930e-02,3.715515e+00,4.122340e-01,2.636610e-02,2.513815e-01,-3.415870e-02,
8.252054e-01,2.515369e+00,1.030277e+00,4.421810e-02,1.278690e+00,2.025275e+00,5.536850e-03,1.158444e+00,-8.048733e-01,2.748234e+00,-6.996108e-03,1.362292e+00,-1.468540e+00,1.440343e+00,-1.374030e-02,2.718100e-02,1.483072e+00,1.839489e+00,-2.699676e-01,2.261073e+00,2.950573e+00,-5.208619e-02,-9.774607e-02,2.491127e+00,3.601248e+00,6.646237e-01,1.861861e+00,1.795636e+00,1.163617e+00,3.337194e+00,1.102019e+00,2.467048e+00,2.278563e+00,1.301317e+00,1.383160e-02,3.901663e+00,3.065830e+00,2.055120e-02,1.382199e+00,1.138777e+00,3.810972e+00,1.063838e+00,1.791657e+00,3.271170e+00,3.873110e-02,3.060561e+00,4.564665e-01,-1.926246e-02,1.570713e+00,1.791920e-03,
-1.340661e+00,6.554630e-01,-2.230641e-01,4.065630e-02,7.681947e-01,1.269228e+00,2.822680e-02,8.272970e-02,-6.659173e-01,1.296968e+00,-2.629767e-02,-8.025612e-02,3.829241e-01,-4.610466e-01,-1.785682e-02,5.521220e-03,-4.291161e-01,-5.982742e-01,-1.003003e-01,2.182322e-01,5.474660e-01,-2.104284e-02,-1.000824e+00,-1.101523e+00,7.608066e-01,1.863662e-01,-6.463537e-02,5.163097e-01,-2.825193e+00,-4.024702e-01,-1.535205e-02,-2.119110e+00,4.526598e-02,-4.758453e-01,-1.158003e-02,-5.167270e-01,-1.143817e+00,2.649200e-02,-6.230238e-02,1.168063e-01,1.363259e-01,3.797919e-01,6.002110e-01,1.299676e-01,-1.654474e-02,1.295857e+00,-8.754438e-01,2.872500e-03,-1.625788e-01,-3.830893e-02,
1.315627e+00,4.756164e-02,3.577624e-01,-3.073560e-03,1.640670e-01,-5.585160e-02,2.943880e-02,6.420898e-02,4.899368e-01,9.346756e-01,-2.761290e-02,8.704500e-01,3.532689e-01,-7.442200e-02,4.218430e-02,-2.708779e-02,-5.140789e-02,5.396127e-01,-5.522664e-01,2.344887e+00,-2.305684e-01,-2.919798e-02,-2.461798e-01,2.132744e+00,-7.726246e-02,-5.575699e-01,1.516681e+00,-1.899849e-01,1.650957e+00,8.771578e-01,-4.382070e-01,2.411613e-01,-2.237497e-02,4.045177e-01,-2.109964e-02,2.792160e-01,1.243835e-01,-1.212445e-02,-1.531866e-02,8.989812e-02,-8.513232e-02,1.687247e-01,9.735156e-01,5.283995e-01,-3.224487e-02,1.677643e+00,6.189440e-01,-3.808843e-02,-5.932678e-01,2.656200e-02,
1.644858e+00,1.743373e-01,2.894184e-01,1.049560e-02,8.808320e-01,8.050670e-01,-2.688136e-02,-1.246476e+00,1.486095e-01,1.216161e+00,1.326560e-03,1.703704e-01,-3.089677e-02,-1.586403e-01,-1.123468e-03,-5.220411e-03,-7.983444e-01,-1.033770e+00,-1.583893e-01,1.112621e+00,-6.371883e-01,2.333830e-02,-1.053455e+00,3.364501e+00,8.233298e-02,-2.127993e-01,7.664651e-01,8.356257e-01,-2.119593e+00,1.718759e+00,5.195550e-01,-1.696821e+00,-2.350708e+00,6.740506e-01,3.426500e-02,2.461118e-01,1.201151e+00,5.137810e-03,9.906600e-01,1.383381e-01,4.746057e-02,-9.685231e-01,-1.681228e+00,7.874642e-01,-2.169394e-02,5.699344e-01,1.050890e-01,3.854050e-02,-1.867876e+00,-4.203475e-02,
-5.433908e-01,3.540336e-01,2.049710e-01,-2.652720e-02,-3.214480e-01,2.946311e-01,-4.642386e-02,-1.962303e-01,-3.403554e-01,-6.389964e-02,3.174180e-02,6.597584e-01,-1.681869e-01,-3.474964e-01,1.959640e-02,1.140310e-02,-7.836359e-02,-1.000789e+00,1.531276e-01,-3.316698e-01,3.856582e-01,-2.626554e-03,2.502281e-01,3.965539e-01,1.151115e+00,5.031808e-01,-2.074223e+00,-7.463516e-02,1.276277e-01,-3.625692e-01,-4.236624e-01,1.261543e+00,-1.259066e+00,2.141120e-01,2.922130e-02,9.754505e-02,9.402882e-01,-1.436358e-03,-9.405123e-01,2.120666e-01,7.443449e-01,-2.256324e-01,5.995601e-01,-1.112339e+00,3.334020e-04,-3.456663e-01,-7.751551e-01,-1.058431e-02,-7.049375e-01,-6.063246e-03,
-1.440600e-02,-2.398210e-02,-1.111477e-02,-4.491469e-02,3.943430e-02,2.917320e-02,3.882730e-02,-5.124567e-02,9.397890e-03,-5.910187e-02,-3.636391e-02,-3.316772e-02,2.745810e-02,9.529990e-03,1.642380e-02,4.079930e-03,5.278240e-02,-3.544915e-02,-6.537374e-03,-5.431230e-02,-1.121746e-02,3.554700e-02,-2.316090e-02,3.883290e-03,-4.134175e-02,1.088180e-02,4.096690e-02,2.471990e-02,-1.526290e-02,-3.264681e-02,-3.716422e-02,3.106820e-02,-1.628707e-03,3.560720e-02,1.361920e-02,5.655120e-03,7.167770e-03,-4.263735e-02,-5.914198e-02,-7.580055e-02,3.381550e-02,1.862760e-02,1.750650e-02,-5.172310e-02,-3.496237e-02,9.566970e-03,1.275430e-02,-5.274412e-03,-5.406775e-02,-2.883268e-02,
2.249201e-01,7.837414e-01,-7.491162e-01,3.558170e-02,4.297327e-01,1.071410e+00,4.421690e-02,1.106142e+00,-8.210463e-03,1.132675e-01,4.353180e-02,1.050399e+00,-1.194595e+00,3.498516e-01,4.014100e-02,1.880860e-02,6.462090e-01,4.841581e-03,8.002468e-01,7.568431e-01,8.146487e-01,1.248840e-02,-6.510304e-03,-1.833898e+00,8.093677e-01,-7.426849e-02,1.431276e+00,-3.344628e-02,3.433347e-01,-8.670900e-01,6.696569e-01,-1.226232e+00,3.194413e-01,-3.761131e-01,1.798560e-02,-3.566367e-01,2.259841e-01,-1.296225e-02,9.839910e-01,-4.800201e-01,-3.629556e-01,-7.148925e-01,-1.301559e+00,4.338412e-01,-1.597858e-02,-3.549976e-01,-1.967406e+00,1.018410e-02,-5.593339e-01,-4.413318e-02,
1.609765e+00,-3.409382e-01,1.649171e-01,-3.389410e-03,4.250810e-01,1.801675e-01,-3.793114e-02,9.772840e-02,1.555330e-01,-4.997359e-01,-4.505350e-02,3.536385e-01,6.362016e-02,3.374952e-02,-2.798712e-02,4.092540e-02,6.367527e-01,-1.365063e-01,9.643070e-03,4.949061e-01,-6.004477e-01,-2.231324e-02,3.269539e-01,6.541079e-01,-7.143969e-02,9.222742e-02,1.091731e+00,2.846304e-01,4.901098e-01,-5.173560e-01,-5.677959e-03,4.754313e-01,1.643386e-01,8.664694e-02,1.339860e-02,-1.202334e+00,-8.675709e-01,1.881220e-02,3.632458e-01,-1.436830e-01,-2.393769e+00,-1.295406e-01,1.228397e+00,8.005365e-01,-4.997359e-02,1.103767e-01,-4.791570e-01,2.464810e-02,-5.144685e-01,2.350620e-02,
-9.782555e-01,-9.160147e-01,-5.948691e-01,-2.402610e-02,-8.268676e-01,1.015702e-01,-2.574684e-03,6.593428e-01,-1.671862e+00,-4.524922e-01,4.387820e-02,8.559744e-01,1.114836e+00,-2.771811e-01,5.125120e-03,-4.995805e-02,7.220051e-01,5.783641e-01,-7.108552e-01,-7.315665e-01,-1.378975e-01,-3.837561e-03,1.049721e+00,2.424209e+00,5.009226e-01,-1.631144e-01,-1.095654e+00,-7.919856e-01,-1.753552e+00,-1.213191e-01,-3.303646e-01,7.552851e-01,-5.645104e-01,-1.167390e-01,-4.599839e-02,-4.603788e-01,5.275112e-01,-2.849626e-02,-1.796088e-01,1.670245e+00,-8.894329e-01,1.560289e+00,-3.871056e-01,-1.331851e+00,4.588560e-02,-1.051659e+00,-2.677468e-02,1.193040e-02,3.497494e-01,-3.947380e-02,
1.679467e+00,-5.527031e-01,3.237125e-01,-4.000384e-02,-3.802638e+00,-1.474767e-01,2.505880e-02,1.191461e-01,4.234406e-01,-1.061193e+00,1.518730e-02,-1.410696e-01,-8.223516e-02,-5.508552e+00,1.293910e-02,-7.144609e-03,-1.162413e-01,3.014473e-01,-5.639004e-02,-8.657345e-01,-4.975635e-01,4.058920e-02,2.223732e-01,-5.756373e-01,-5.634153e-01,-5.305587e-02,-1.029763e+00,-1.870995e-02,3.224471e-01,-6.623893e-01,-2.230021e-01,-1.871184e-01,-2.062798e-01,-3.843977e-01,3.868760e-02,5.396418e-01,-4.969608e-03,-3.915691e-02,-3.259326e-01,3.112656e-01,1.991210e-01,-2.649097e-01,9.623595e-01,-6.735981e-01,9.892240e-03,1.937107e-01,1.962605e-01,1.714270e-02,5.871139e-01,1.415550e-02,
5.476617e-01,7.617822e-02,6.561219e-02,-4.719445e-02,5.072383e-01,-1.055953e-01,2.658830e-02,1.678582e-01,1.442214e-01,4.547279e-01,1.823370e-02,1.056803e-01,-6.276836e-02,2.597588e-02,-7.930209e-03,8.333280e-03,2.784274e-01,1.527970e-01,-1.468320e-01,4.307197e-02,-3.302334e-02,-7.009453e-03,9.536765e-02,2.858531e-01,-3.265374e-02,-3.331975e-01,6.511371e-01,-4.971792e-01,-1.055869e-01,1.473792e-02,-3.012177e-01,8.056133e-02,1.569647e-01,-7.387799e-02,4.395540e-02,1.017074e-01,5.238841e-02,-3.171472e-02,2.294782e-01,-2.144289e-01,3.101645e-01,-4.390207e-01,4.563715e-02,7.659109e-02,-4.082379e-02,3.784756e-02,-3.234535e-01,1.332510e-02,-2.162800e-01,-2.208612e-02,
2.644050e-01,3.807030e-01,1.328309e-01,6.456140e-03,1.403580e+00,5.802277e-01,1.824930e-02,-1.832985e-01,3.280416e-01,-1.740700e-01,1.349160e-02,-7.977249e-01,3.667978e-02,2.998044e-01,-1.793547e-02,4.593380e-02,-8.909565e-01,-6.129354e-01,-5.006179e-01,5.624839e-01,8.592085e-01,-4.046553e-02,2.765868e-01,3.519815e-01,-1.419558e+00,-2.168134e-02,1.002833e+00,-1.060941e+00,4.423418e-01,4.096010e-01,-1.829268e-01,1.359231e-01,5.014433e-01,6.008778e-01,-3.325833e-02,1.742860e+00,1.997204e-01,-1.362333e-02,-6.527031e-01,3.565473e-02,-1.761889e-01,3.302998e-02,-4.722826e-01,-6.878046e-01,-1.878975e-02,4.603472e-01,9.050080e-02,1.436670e-02,1.650978e+00,-1.570947e-02,
-2.856756e+00,-1.611078e-01,-8.686240e-02,-4.583145e-02,1.682321e+00,-2.610342e+00,-3.636328e-02,-3.032211e-02,-7.912002e-01,-4.354728e+00,2.894810e-02,1.809469e-01,-9.752672e-01,4.309909e-02,1.096260e-03,3.445730e-02,-8.240788e-02,-6.282832e-01,-5.807917e-01,-2.872496e-01,-2.143701e+00,7.823830e-03,-2.538291e+00,-3.116736e-01,-7.753053e+00,-1.303249e+00,1.318937e+00,-1.548288e+00,3.865164e-01,-6.452197e+00,3.894485e-01,1.239619e+00,-1.817434e+00,2.255366e-01,-2.017879e-02,-3.864231e-01,-6.751405e-01,4.039430e-02,-3.901674e-01,-1.885359e+00,9.229509e-01,-1.182352e+00,-6.548346e+00,-5.396370e+00,-1.245825e-02,2.223932e+00,-5.905169e-02,-4.446897e-02,-3.451465e-01,-2.998485e-02,
-5.948575e-01,1.207820e+00,-1.094803e-01,4.293320e-02,1.152580e+00,7.787815e-01,-1.706103e-02,-5.103598e-01,7.507594e-02,-5.461974e-01,1.466020e-02,-2.314851e-04,-5.140265e-01,4.060851e-01,-4.266801e-02,-8.092969e-03,-9.214684e-01,5.133144e-01,-4.426821e-01,4.294190e-01,1.225177e+00,-1.128151e-02,-3.754548e-01,1.640366e+00,3.282668e-01,-3.082233e-01,-1.727491e+00,3.439808e-01,-1.414140e+00,7.677872e-01,9.589585e-02,2.299000e-01,-1.271445e+00,5.094489e-01,-1.167684e-02,2.114396e+00,1.037295e+00,-2.745635e-02,-7.066594e-01,4.965574e-01,1.168528e+00,1.458084e+00,1.704015e+00,7.446128e-01,2.662690e-02,-3.427473e-01,-1.273471e+00,-1.091223e-02,-9.143347e-01,-1.799049e-02,
1.472091e-01,2.093211e-01,1.499575e-01,3.751390e-02,-4.840206e+00,-2.118658e-02,1.275140e-02,-4.856544e-01,6.517693e-01,5.537769e-01,-4.942245e-03,-6.945320e-01,-2.585394e-01,-4.586936e-03,2.564250e-02,4.561840e-02,-6.116669e-01,1.519892e+00,-1.029267e+00,4.799875e-02,-4.021500e-01,-4.221797e-03,-7.634550e-01,2.219881e+00,-2.324920e-02,-4.842295e-01,1.034968e+00,9.211679e-02,9.786209e-01,-4.422484e-03,-1.057014e-01,1.380094e-01,-4.050764e-01,2.880296e-01,3.511530e-02,-4.886794e-01,6.030377e-02,-1.038993e-02,1.194967e+00,-7.098262e-01,5.368105e-01,4.210999e-01,-4.107820e-01,5.338743e-01,-5.254683e-02,5.152591e-01,5.097282e-01,-2.743650e-02,3.791339e-01,1.359320e-03,
5.820906e-01,-1.088230e+00,-2.990600e-01,-2.865660e-02,6.367679e-01,1.325773e+00,-5.463234e-02,-8.651516e-01,1.066432e-01,1.437758e+00,-3.919219e-02,2.330170e-01,-8.435994e-01,-9.761251e-01,3.229960e-03,-5.259891e-03,1.933753e-01,-3.576751e-01,2.299855e-01,2.992094e-01,-2.607307e+00,1.612270e-03,-8.069606e-01,-2.057391e+00,8.442754e-02,4.363478e-01,2.162234e+00,1.016614e+00,-8.148367e-01,-1.908312e+00,-6.743152e-01,-6.351135e-01,1.285113e-01,9.245438e-02,4.515110e-02,6.072295e-01,1.120126e+00,3.478980e-02,1.214404e+00,5.181761e-01,-3.369492e-01,6.523671e-01,1.175076e+00,2.070734e+00,-4.664184e-02,9.936050e-01,1.239817e+00,7.827500e-03,-7.869319e-01,-7.718004e-03,
-4.469157e-01,-3.365932e-01,-4.030246e-01,-2.430424e-02,4.435021e-01,-4.930201e-01,1.882380e-02,-4.061820e-01,3.927471e-01,5.396722e-01,-2.316982e-03,4.737833e-01,-3.888517e-01,2.581802e-01,3.444290e-03,4.087480e-03,9.872095e-01,-1.410013e+00,3.025351e-01,-1.271361e+00,7.773972e-01,3.253510e-02,4.960330e-01,2.675092e+00,-1.011618e+00,-5.523189e-01,2.423760e+00,-3.278971e-01,1.773554e+00,4.845574e-01,1.158537e-01,1.771997e+00,8.293025e-01,6.549519e-01,3.199740e-02,1.569115e+00,3.098834e-01,-3.063438e-02,2.588151e-01,-3.151921e-01,5.003109e-01,-5.019619e-01,2.290890e+00,3.031450e-01,1.805350e-03,-1.962471e-01,9.050223e-01,1.386870e-02,1.512378e+00,2.490100e-03,
1.179539e-01,-2.929678e-01,-3.633073e+00,-1.338120e-02,1.582742e-01,-2.413509e-01,3.773700e-02,-3.813138e-01,-5.587323e+00,1.419881e+00,5.041850e-03,9.075125e-02,3.648295e-01,4.902290e-01,-3.809641e-02,4.080610e-02,1.186081e+00,1.044943e+00,-1.671925e-01,-1.907020e-01,2.078374e-01,-3.039907e-02,-1.163904e-01,4.851146e+00,5.456866e-01,6.471704e-01,-1.213044e+00,-4.294416e-01,3.242530e-01,8.951250e-01,1.156339e-01,1.110263e+00,-4.182916e-01,-3.984582e-02,-2.785177e-02,8.385783e-01,8.401543e-01,1.401190e-02,1.311704e-01,1.161071e+00,7.119290e-01,8.966442e-01,1.156983e+00,1.399371e+00,-4.083188e-02,4.793565e-01,1.325863e+00,-4.397641e-02,1.124144e+00,-1.796088e-02,
2.833441e-01,1.574596e-02,-7.660055e-01,3.371560e-02,-3.626101e-01,2.948392e-02,-5.113353e-02,-9.228029e-02,-7.346408e-01,-5.032198e-01,4.187850e-02,-2.128056e-01,3.755815e-01,-2.057464e-01,5.340660e-02,6.598910e-03,-3.112200e-01,1.925593e-01,-2.259831e-02,-5.923207e-03,-2.003641e-01,-8.289129e-03,-1.918077e-01,7.366433e-01,-3.168585e-01,-1.215648e-01,6.341211e-01,-4.619087e-02,7.134745e-02,1.104175e-01,6.538277e-02,3.496181e-01,-1.970629e-01,9.067711e-02,-3.813852e-02,-9.150928e-02,-2.107602e-02,6.719600e-03,-3.323061e-01,-4.864020e-02,-1.478221e-01,2.914415e-01,-1.403892e-02,-1.302420e-01,1.723750e-02,-1.470158e-01,-7.919803e-02,-3.394398e-03,-4.068362e-02,-5.587428e-03,
-4.423356e+00,2.887836e-01,-4.201365e+00,-8.497073e-02,-1.223974e-01,-3.883477e+00,-5.180248e-02,-2.089993e-01,-2.143974e+00,-1.958229e+00,-1.426541e-02,-9.158708e-01,-5.869552e-01,5.698537e-02,-5.215801e-03,4.589730e-03,1.032285e-01,-8.479012e-01,1.541400e+00,1.247337e+00,-2.159020e+00,-4.160740e-02,-2.910862e+00,-4.504700e+00,-3.454048e-01,-9.345934e-01,7.082565e-01,2.378953e-01,-9.284793e-01,3.304200e-01,3.537376e-01,2.744362e-01,8.177247e-01,-3.166128e-01,3.731660e-02,-5.344563e-01,-5.155447e+00,6.330870e-03,-1.471690e-01,6.433644e-01,7.565071e-01,-3.787518e+00,-2.670748e+00,-5.706686e+00,-3.556949e-02,-1.402170e+00,-1.847328e+00,1.043200e-02,-1.087600e+00,-2.961735e-02,
-3.807919e-02,3.188870e-03,-8.261914e-03,1.196760e-02,-4.235028e-02,8.236440e-03,-2.427747e-02,-5.591113e-02,-1.456266e-04,-9.417260e-03,-2.970219e-03,-5.504005e-02,-1.527918e-03,1.307350e-02,4.183560e-02,8.539640e-04,1.207230e-02,-3.287602e-02,-3.737307e-02,-1.149844e-02,8.077840e-03,-2.084638e-02,-3.835240e-02,2.616720e-02,-4.283643e-03,-5.273005e-02,5.715240e-03,6.118430e-03,-5.196334e-02,-6.076245e-03,1.314920e-02,2.384230e-02,-6.046372e-02,-2.682067e-02,-3.651606e-02,2.913040e-02,2.920600e-03,2.023200e-02,4.143760e-03,-2.372811e-02,1.553480e-02,-1.722231e-02,2.223740e-02,-5.409862e-02,1.010400e-02,9.627510e-03,3.729520e-03,1.493650e-02,-6.655477e-03,-2.240742e-02,
-3.116641e-01,-3.352524e-01,-2.480678e-02,-3.338506e-02,5.342952e-04,2.642349e-01,3.487340e-02,1.757880e-01,2.177742e-01,1.516513e-01,-2.003494e-02,-2.574390e-02,-2.865534e-01,2.422918e-02,-4.482261e-02,-2.601039e-02,3.325494e-01,4.976804e-02,2.529147e-01,-6.929538e-02,-3.698037e-01,4.395640e-02,3.591787e-01,1.964350e-02,-6.274821e-02,-1.154317e-02,2.981685e-01,4.056899e-02,9.889784e-02,-2.731207e-02,1.481980e-01,8.361605e-01,-2.202711e-01,-4.776282e-01,4.095100e-02,-1.320154e+00,4.771116e-01,-1.372392e-02,-2.470576e-01,2.418576e-02,-5.957353e-01,-2.264377e-01,9.975759e-01,-2.739576e-02,-2.733402e-03,-6.625993e-02,-2.775171e-01,2.304180e-02,-3.861196e-01,-2.352798e-02,
-8.588800e-01,-4.114467e-01,-9.955753e-01,3.650780e-02,-3.994389e+00,-3.614719e+00,-4.784860e-02,6.427785e-01,2.488755e-01,2.224271e+00,-1.309087e-02,2.681868e-01,-1.788727e+00,-4.342820e-03,-2.790648e-02,-4.444325e-02,-4.529437e-01,-1.696821e+00,-1.243914e+00,2.242938e-01,5.146495e-01,-2.244963e-02,1.035824e+00,-1.849764e+00,-3.135709e-01,-1.987786e-01,1.110143e+00,2.623400e-01,3.129974e-02,-1.652847e+00,-3.261226e-01,-3.717892e-01,4.139606e-01,-1.226725e-01,-1.225213e-03,-1.314789e+00,-2.225674e+00,-3.928995e-02,-6.986490e-01,4.681119e-01,-1.596567e-01,1.853467e-01,-4.895593e-01,-1.434111e-01,2.438430e-02,-2.025229e+00,-1.267423e+00,-3.610393e-02,2.777201e+00,3.124340e-02,
2.260255e+00,-2.435118e-01,7.628158e-02,-1.956392e-02,-6.680236e-01,-3.019831e+00,2.724950e-02,-1.080817e+00,1.048821e+00,1.813435e+00,-2.537787e-03,-3.400162e-01,-6.599407e-01,3.255308e-01,3.104430e-02,-2.219679e-02,8.816487e-01,3.021046e-01,2.471434e-02,4.549142e-02,2.907418e-02,-2.059627e-02,-2.318988e+00,-2.512639e-01,1.154916e-01,-1.342698e-01,1.026000e+00,1.156938e+00,1.625064e+00,9.567830e-01,-3.989024e-01,-6.559172e-01,1.815982e+00,1.485885e-01,3.279350e-02,9.549847e-01,1.478341e+00,3.840220e-02,-8.510796e-01,5.658731e-01,4.953547e-01,4.933801e-01,2.014741e+00,7.871994e-01,1.118210e-02,2.565938e+00,5.115180e-01,-9.187531e-03,-2.962806e-01,-5.078199e-02,
1.101576e+00,3.829294e-02,-6.174777e-01,-6.260530e-02,4.143111e-01,7.332651e-02,3.553730e-02,-1.430131e-01,1.233027e+00,1.194464e+00,3.074810e-02,3.409680e-01,-7.653292e-01,1.092171e+00,1.152700e-02,3.851300e-02,4.409609e-01,1.048156e+00,-5.614004e-01,4.361649e-01,-4.468065e-01,-2.936220e-02,-3.208779e-01,1.241656e+00,5.598312e-01,6.376314e-01,1.203962e+00,1.903242e-01,3.161687e-01,-1.799679e-01,-7.642624e-01,1.115887e+00,1.144699e+00,-6.579100e-01,-4.273237e-02,-8.273548e-01,-3.016093e-01,1.449740e-02,-1.037989e+00,6.139151e-01,-6.824381e-01,2.542911e-01,2.499456e+00,-6.886499e-02,-1.877200e-02,5.001312e-01,6.304555e-01,3.947280e-03,2.225543e+00,4.558250e-02,
1.307685e+00,-5.432059e-01,1.959299e-01,1.571840e-02,7.424160e-01,-3.155218e-01,-6.064128e-03,2.701772e-01,4.830997e-01,1.131574e+00,-2.128896e-02,1.356006e-01,-5.507313e-02,-1.724635e-01,-3.928103e-02,3.033280e-02,3.225288e-01,-1.524222e-01,-5.895214e-03,-1.058011e-01,1.277417e-01,2.977540e-02,-3.009741e-01,1.670543e+00,-4.408089e-01,-4.653316e-01,1.396937e+00,5.145200e-02,-2.287120e-01,8.868041e-01,2.480941e-01,2.981091e-01,2.781895e-02,-4.259335e-02,-3.859338e-02,-3.077886e-01,1.047451e+00,-4.203822e-02,-5.098306e-01,5.742304e-01,-5.227498e-01,5.144268e-01,1.251901e+00,-1.250571e-01,-4.091104e-02,5.946155e-01,2.740968e-01,4.439210e-02,4.388393e-01,3.285810e-02,
-1.362259e+00,8.019425e-03,4.244929e-01,-8.446851e-02,-1.811271e-01,8.563737e-02,-4.281595e-03,6.245316e-01,-2.442079e-01,-3.688629e-01,1.620490e-02,-1.407903e-01,-5.392464e-01,-5.201952e-01,4.515230e-02,2.839520e-02,2.309051e-01,2.362166e-02,1.945718e-01,-3.859359e-01,6.057067e-01,5.060160e-03,-6.546949e-01,-4.024713e-01,-1.408596e-01,3.332400e-01,-9.022114e-01,-1.480437e-01,5.742247e-01,-5.437572e-02,2.228615e-01,-2.104336e-02,-7.127358e-01,-1.802829e-01,-1.518867e-02,5.597928e-01,3.556800e-01,-9.174868e-03,-3.567522e-01,-2.507159e-02,9.437889e-01,-2.536653e-01,-8.975872e-01,8.326532e-01,-3.378522e-02,-1.506844e+00,1.256289e+00,-1.881715e-02,1.781987e-01,3.888220e-02,
2.490384e-01,-3.510412e-01,-8.953854e-02,5.223680e-02,6.583164e-01,-4.553188e-02,1.521490e-02,-5.466037e-01,-2.473411e-01,-6.769770e-01,2.123790e-02,7.263113e-01,-3.708631e-01,2.189659e-01,-2.122249e-02,-1.268893e-03,-6.639065e-01,1.825393e-01,3.497330e-01,1.908056e+00,5.112482e-01,-2.200033e-02,-2.323682e+00,2.417542e+00,3.383682e-03,-6.528270e-01,1.484811e+00,1.982821e-01,-8.628249e-03,8.134612e-01,1.619091e-01,9.783529e-01,4.673088e-01,7.778899e-02,-4.885555e-02,9.801722e-01,7.647272e-01,-4.798311e-02,-8.808313e-02,5.946772e-01,4.658810e-02,-2.987218e-01,1.479416e+00,-1.708486e-02,-2.551395e-02,-1.484920e-02,1.056248e+00,1.017170e-02,4.860662e-01,1.477040e-02,
6.755329e-01,7.161471e-02,2.909983e-01,-3.890565e-02,-1.132183e+00,-8.134297e-01,-2.593406e-03,-5.780429e-01,1.751515e-03,1.522028e+00,2.840410e-02,7.752917e-01,8.390874e-02,-3.597835e-01,-1.128057e-02,2.468090e-02,-9.272980e-02,6.267970e-01,-1.992175e+00,4.101986e-02,2.502214e-01,-3.449145e-02,1.011873e+00,1.307009e+00,-7.235214e-01,-2.092282e-01,2.423109e-01,-3.612851e-01,-3.282846e-02,2.530363e-01,-9.381592e-01,-2.426267e-01,9.108077e-01,-3.720570e-01,2.946920e-02,7.577840e-01,1.090971e+00,-5.911426e-02,-1.210240e-01,-6.620985e-03,8.003634e-01,2.009870e+00,-3.206773e+00,-5.151184e-02,4.764360e-02,8.531229e-01,5.021320e-01,-4.909831e-03,1.293623e+00,-2.866962e-02,
-4.028819e+00,-7.822058e-01,-7.198128e-01,3.484960e-03,-3.986818e-01,-1.050409e-01,-1.021962e-02,3.323385e+00,-1.529157e+00,9.321248e-01,6.135610e-02,-1.441513e+00,-3.067438e+00,5.868808e-01,-8.803682e-03,-3.116883e-02,-8.738961e-01,-1.740354e+00,6.063309e-01,-5.012910e-01,5.529552e-01,-3.152782e-02,2.144815e-01,-8.428748e+00,-6.833379e-01,4.286689e-01,-8.278273e-01,1.584391e+00,-1.416198e+00,-2.823198e-01,-1.113903e+00,-2.166706e+00,-1.630639e-02,-2.264157e+00,-2.986431e-02,-5.284745e-01,-1.893045e+00,-2.680776e-02,6.751745e-01,5.362455e-01,-2.827146e+00,-6.688710e+00,-2.769942e+00,9.478654e-01,-4.865249e-02,1.791567e-01,-1.927884e+00,-4.237380e-02,1.745998e+00,-3.229317e-02,
2.336582e+00,5.858234e-01,1.014163e-01,1.463970e-02,7.735560e-02,1.262940e+00,4.028570e-02,-1.085731e+00,2.312718e-01,1.069709e+00,2.225800e-02,7.047062e-01,-3.927777e+00,-9.594889e-01,-2.268052e-02,-3.766298e-02,1.497396e+00,5.956723e-01,-1.029112e+00,8.308963e-01,1.657189e-01,5.487410e-03,6.640984e-01,2.066330e+00,5.179666e-01,6.577315e-01,4.351228e-01,3.291978e-01,1.098565e+00,1.644745e+00,-6.189728e-01,4.855231e-01,7.382326e-01,-8.931226e-01,-1.396290e-02,1.091948e-02,-1.781976e+00,1.799780e-02,4.745231e-01,-4.725934e-01,3.240475e-01,-1.493803e+00,-1.737781e+00,-4.041051e-03,1.598910e-02,8.808143e-01,2.047867e-01,3.033040e-02,4.045324e-01,2.170510e-02,
5.612220e-01,5.037014e-01,-5.676300e-02,4.915830e-02,-7.490353e-01,6.619600e-01,1.066720e-02,8.098246e-02,4.906056e-01,-6.659846e-01,-1.283803e-02,-7.260876e-01,1.147239e-01,-1.417458e-01,2.603820e-02,2.136830e-02,-8.186220e-01,4.013446e-01,1.585350e-01,8.147275e-01,2.831864e-01,-3.725809e-02,-2.362447e-01,4.053483e-01,-1.532044e+00,-5.029920e-01,1.059649e+00,4.595245e-01,2.426186e-01,-3.252648e-01,-7.145355e-02,2.331214e-01,5.494705e-01,5.999126e-01,-2.236447e-02,1.070042e-01,3.624145e-02,3.381970e-02,1.610279e-02,-8.953434e-01,-1.445976e-01,8.519971e-01,5.971529e-01,4.025767e-01,-6.769318e-03,3.707327e-01,3.640495e-01,4.211140e-02,-4.959927e-01,-2.580511e-02,
1.208308e+00,1.012078e-01,8.893806e-03,-7.844256e-02,8.946523e-01,6.093466e-01,-5.094579e-02,-8.126317e-01,4.318538e-01,9.704946e-01,3.700600e-02,2.648215e-01,-9.808028e-01,-3.245980e-01,-3.506275e-02,2.418070e-02,-2.561034e-01,7.101721e-01,6.554775e-01,3.282446e+00,-1.323976e-01,3.331910e-02,-5.871117e-01,1.131928e-01,-4.313442e-01,-1.181292e+00,-2.166108e+00,1.074199e+00,8.205305e-01,-9.073985e-01,-3.895794e-02,-1.139670e+00,7.298244e-01,-7.831477e-02,-3.384034e-02,3.822059e-01,6.476678e-01,-5.133219e-02,8.312427e-01,5.195624e-01,-6.364763e-01,-1.162707e+00,-1.240250e+00,-1.282669e-01,2.888220e-02,1.566378e+00,5.923963e-01,-4.257718e-02,7.104257e-01,-3.857322e-02,
-6.940364e-01,-3.568089e-01,-4.325811e-02,7.118320e-02,8.732507e-01,-3.103842e-02,3.973520e-03,9.113862e-02,4.150810e-01,-1.564048e+00,4.942770e-02,1.496818e-01,1.379328e+00,8.140697e-01,-4.113952e-02,-3.439926e-02,-6.289920e-02,1.148752e+00,-1.164933e-01,-1.686856e+00,4.879989e-01,5.533980e-02,1.153034e-01,-3.637357e-01,-1.497499e-01,-2.409120e-01,-1.486023e+00,-4.471204e-01,1.451564e-01,-9.385834e-02,1.995498e-01,-5.793102e-02,-5.029248e-01,4.443235e-01,1.676760e-03,4.325939e-01,-1.198533e-01,3.638690e-02,2.703320e-01,-1.198606e-01,4.565398e-01,-5.635749e-01,-1.640352e+00,-6.852636e-01,5.031890e-02,-1.406779e+00,-1.671852e+00,-3.501855e-02,-6.087008e-01,-2.164543e-02,
-4.863432e-01,4.384735e-01,2.738765e-01,6.954600e-02,-7.336665e-01,1.409638e-02,-4.503649e-03,-6.107482e-01,1.627150e-01,1.788641e+00,-3.460401e-02,-1.492291e-01,-1.001842e+00,-2.916826e-01,2.535560e-02,-1.516410e-02,2.161278e-02,5.057325e-01,1.951879e-01,7.774097e-01,-1.074234e+00,1.875260e-02,-2.084775e-01,3.122130e+00,-5.564916e-01,-9.893089e-01,-1.593900e+00,-1.903492e-01,-8.870568e-01,1.029629e+00,-2.240532e-01,-3.365092e-01,1.512970e-01,-1.212319e+00,-3.361417e-02,2.797095e-01,1.549522e+00,4.530660e-02,3.538474e-01,2.210394e-01,2.223235e-01,5.804073e-01,-8.171057e-01,-7.172582e-01,-2.288958e-02,8.214479e-01,-2.748218e+00,6.073450e-03,1.662566e+00,2.794740e-02,
3.269700e-01,-6.467181e-02,-1.981644e-01,5.342850e-02,3.584826e-01,-9.630243e-01,3.473330e-02,-1.453882e-01,6.497293e-01,-2.293546e-01,-2.953062e-02,-9.287953e-02,3.698121e-01,2.831221e-01,3.360770e-02,1.497070e-02,-4.401295e-01,5.521104e-01,-2.385127e-01,-1.612065e-01,-2.990977e-01,-1.220278e-02,1.969650e-01,1.874746e+00,-6.178547e-01,-6.890047e-02,-1.239567e-01,-3.860115e-01,-6.556903e-02,1.091888e-01,-3.101952e-01,-1.583736e-01,-3.248605e-01,6.367622e-02,-4.211571e-02,1.676522e-01,4.093120e-01,-4.178160e-03,-1.827073e-01,1.214632e-01,-1.329279e-01,5.558437e-01,4.939326e-01,-5.209134e-01,8.688350e-03,-7.698851e-01,6.734607e-01,-2.657266e-02,-2.786784e-01,1.685680e-02,
-8.964563e-02,3.967250e-01,-3.087976e+00,-2.684188e-02,7.836720e-01,-5.118876e+00,-1.799973e-02,-3.540264e+00,-8.883714e+00,9.451976e-01,-1.500933e-02,-1.783488e-01,-1.528107e+00,5.096111e-02,4.337650e-02,4.648500e-02,2.363961e-01,-3.511683e+00,-6.729786e-01,9.908114e-01,-1.411662e-01,4.557390e-02,-3.704064e+00,-4.114520e+00,-2.245992e-01,-9.266082e-01,-9.440623e-01,-1.245815e+00,-1.188589e+00,-3.195381e+00,1.106802e-01,-4.110456e+00,1.891837e+00,-2.936493e+00,1.443760e-02,4.487370e-01,-5.983183e-01,-3.153895e-03,1.096559e+00,1.848021e+00,1.164531e+00,-2.532925e+00,-1.517901e+00,-4.867558e+00,3.588120e-02,-1.616884e+00,3.485412e-01,3.190670e-02,-1.790670e+00,5.650320e-03,
6.939400e-01,-7.301689e-01,1.121693e-01,7.078830e-03,1.239290e+00,1.873053e-01,7.849670e-03,-1.022457e+00,5.234299e-01,4.884205e-01,4.110300e-02,2.519332e-01,-2.473180e-01,2.593851e-01,3.489540e-03,1.201660e-02,9.587470e-01,-1.378618e+00,-5.287180e-01,1.251258e+00,3.157890e-01,-1.254624e-03,4.692962e-01,-1.181806e+00,-3.306513e-01,5.545199e-02,7.597482e-01,-2.759809e-01,1.548751e+00,1.322826e+00,8.157036e-01,-3.367392e-01,1.028550e+00,8.554635e-01,1.939960e-02,1.280380e+00,-4.046532e-01,-1.911168e-03,-6.676739e-01,-6.050950e-01,-1.001842e-01,1.316021e+00,-2.575283e+00,-2.586087e-01,-2.841457e-02,-2.085930e-01,6.377603e-01,4.984390e-02,1.086391e+00,4.133260e-02,
-2.496690e+00,9.640785e-02,-2.748092e-01,-2.259547e-02,1.051589e+00,-7.744862e-01,9.084870e-03,-4.417665e-01,-1.659640e+00,-6.279031e-02,-4.446876e-02,2.817795e-01,-1.949377e+00,2.794937e-01,3.761100e-02,4.036550e-02,-6.512173e-01,-2.942352e+00,-1.702963e-01,-5.326461e-01,2.229748e+00,1.353830e-04,3.618341e+00,-1.800897e+00,1.628860e+00,7.515858e-01,1.919137e+00,8.600065e-01,-5.880766e-02,1.241971e+00,-6.892893e-01,-3.292275e-01,5.629558e-01,1.533430e+00,4.435580e-02,3.392550e+00,2.992661e+00,5.851920e-03,1.460150e+00,5.105528e-01,2.673918e+00,3.164288e-01,-2.188882e+00,6.480736e-01,-3.644067e-02,4.954810e-01,-1.765827e+00,2.981770e-02,-1.736931e+00,1.258260e-02,
-1.573666e-01,3.304371e-01,-1.699897e+00,-5.033448e-02,9.624288e-01,3.603590e-01,-3.286857e-02,-7.748191e-01,-2.420806e+00,-2.305768e-01,-4.712369e-02,5.352870e-02,4.135758e-01,4.758043e-03,-2.581089e-02,2.830850e-04,7.265129e-01,1.507685e-01,-3.722355e-02,8.943910e-01,3.748521e-01,-1.988112e-02,8.562476e-01,-5.017393e-01,-3.911093e-01,2.452130e-01,-9.543072e-01,2.991857e-01,-5.442339e-01,7.557677e-02,4.177634e-01,-8.175699e-01,-1.232511e+00,-4.277857e-01,-4.264039e-02,2.314735e-01,7.592770e-01,3.202730e-02,-4.787758e-02,1.264548e-01,-3.808801e-01,-1.263622e+00,-1.419831e+00,5.347866e-01,-2.202910e-02,2.715528e-01,-7.439218e-01,3.288940e-02,-4.644811e-01,-1.646064e-02,
1.345836e+00,-7.767627e-02,-9.027606e-02,1.155970e-02,-1.489782e+00,6.680409e-01,4.640960e-03,4.608355e-01,5.698584e-02,5.295784e-01,2.668500e-02,-7.090387e-01,-1.530627e+00,-1.515045e-01,2.635120e-02,1.759640e-02,-2.215657e-01,2.713399e-01,4.463445e-01,6.529008e-02,7.476871e-01,3.213970e-02,5.325083e-01,-1.574632e+00,7.148284e-01,-1.822810e-01,-1.371394e+00,7.136430e-01,-1.359445e+00,3.871696e-02,-6.422608e-01,-1.682604e+00,-8.362494e-01,-6.163469e-03,-3.982219e-02,1.115532e+00,-1.080219e-01,2.935800e-02,-1.642378e-01,8.077356e-01,-1.262383e+00,3.012706e-01,4.071614e-01,1.068228e-01,-4.001329e-02,-5.887244e-01,-7.659949e-01,4.428020e-02,-1.757637e+00,3.760800e-02,
2.957796e-01,
-5.018412e-02,
1.542459e+00,
-3.782572e+00,
-3.013321e+00,
9.663066e-01,
-9.838961e-03,
-3.936145e-02,
-2.094792e+00,
1.211322e+00,
-2.836176e-01,
-2.486988e+00,
-1.234453e+00,
-8.864309e-01,
-4.885524e-02,
-1.852200e+00,
2.501844e-01,
-6.721355e-01,
-3.819826e-01,
-3.333088e-01,
-7.645522e-01,
2.117515e+00,
5.674312e-01,
-1.170277e+00,
-2.079094e-01,
-3.451644e+00,
1.134989e+00,
1.366588e+00,
2.445040e-01,
-2.673772e-02,
4.840525e-01,
1.593980e+00,
-2.760103e+00,
6.506537e-01,
-1.611403e+00,
-4.370415e-01,
-1.497867e+00,
-2.074306e+00,
7.514852e-01,
-2.469547e+00,
4.569804e-01,
-1.710240e+00,
-1.313707e+00,
-3.289681e-01,
7.293501e-01,
-8.628165e-01,
-2.160186e+00,
1.337305e-01,
-9.012759e-01,
1.049172e+00,
5.919526e-01,1.352305e+00,2.089624e+00,2.418777e+00,-9.799293e-02,-5.472211e-01,-6.326197e-04,4.191120e-02,-3.691674e-01,-8.554822e-01,1.022099e+00,-1.779089e-01,2.892828e+00,-6.245998e-02,2.433640e-02,-1.179706e+00,5.177548e-01,1.505233e+00,7.322876e-01,-4.082295e-01,5.511334e-01,1.694036e+00,7.019241e-01,6.323523e-01,1.417931e+00,-1.297023e+00,-2.341458e-02,1.116275e+00,-2.290806e+00,-4.383446e-02,1.263433e+00,1.107351e+00,2.277658e-01,1.112841e+00,-4.501360e-01,-2.730283e-01,1.625505e-01,2.786672e+00,3.874353e-01,1.972095e+00,-3.661938e-03,1.577856e+00,6.420901e-01,1.205462e+00,1.162629e+00,1.345740e+00,3.114042e+00,2.443331e-01,-7.007406e+00,1.116155e-01,
2.543634e-01,3.241495e+00,8.337659e-02,2.162760e+00,2.084975e+00,4.266821e-01,1.661750e-02,-1.448916e-02,1.721561e+00,-1.042607e+00,2.183328e+00,1.852088e-01,-8.927603e-02,4.044749e-01,3.198330e-02,-1.174751e+00,5.371957e+00,-3.055899e-01,3.405328e-02,5.360575e-01,-2.762057e+00,3.128776e+00,-7.447629e-01,-1.394295e+00,1.389944e+00,2.720891e+00,5.738904e-01,-1.442542e+00,4.214587e+00,4.170420e-03,1.065193e+00,2.843829e+00,2.372938e+00,6.900834e-02,-1.064647e+00,5.279017e-01,1.772157e+00,2.804739e+00,1.079342e+00,2.413229e+00,-5.811372e-01,1.317909e+00,6.896837e-01,1.929887e+00,2.641362e-01,1.342526e+00,2.111596e+00,-6.721889e-01,1.339044e+00,1.729618e+00,
5.690984e-01,1.710627e+00,2.147239e-02,-1.433922e-01,2.671372e-01,-7.542338e-01,-2.003232e-02,-2.637191e-02,1.637258e-02,6.306755e-03,2.006704e-01,-1.691235e-01,-5.997989e-01,4.336104e-01,2.758950e-02,-4.239522e-02,-9.706315e-01,-8.733406e-01,1.811631e-01,-1.807270e-01,-1.366218e-01,3.820719e-01,-3.426486e-01,8.007388e-01,-8.301751e-01,6.024454e-01,1.422613e-01,-2.266897e-01,-1.328533e-01,-4.736035e-02,-9.720731e-01,-3.523349e-01,-3.993895e-01,6.703661e-01,3.347154e-01,2.073527e-01,-1.229077e-02,-2.417635e-01,3.450789e-01,-7.297741e-01,5.203388e-02,-8.077146e-03,1.663507e-01,-5.822628e-01,-1.188033e+00,1.497398e+00,2.568922e-02,-2.466838e-01,7.774100e-02,4.716541e-01,
7.409280e-04,-4.331145e-03,-4.238482e-02,-1.296729e-02,-1.567534e-02,1.364450e-02,1.410270e-02,2.001110e-02,-3.946110e-02,-9.399735e-03,2.126590e-02,1.301010e-02,-3.342444e-03,1.435340e-02,-2.590402e-02,-3.032642e-04,-1.884319e-04,3.074770e-03,2.543790e-02,-4.884810e-02,1.768900e-02,1.894350e-02,-5.908822e-02,2.193290e-02,2.824090e-02,-4.715728e-02,-2.611938e-02,2.446490e-02,-6.116964e-02,-3.351411e-02,-2.584050e-02,-2.167819e-02,-6.674692e-03,1.114410e-02,-9.957979e-04,-1.162759e-02,-7.494932e-02,7.175850e-03,7.787690e-03,3.304260e-02,-9.903305e-03,1.214060e-02,-3.052654e-02,1.831440e-02,-7.914721e-02,4.199660e-02,-8.967819e-03,-3.948609e-02,3.881610e-03,-4.635718e-02,
3.780932e-01,5.964364e-01,8.879099e-01,4.966282e-01,-4.048600e-01,-1.967458e+00,1.167290e-02,-5.308358e-03,-1.889423e-01,-4.627633e-01,-1.871698e+00,1.087402e+00,-7.718938e-03,-3.950740e-01,8.639580e-03,-7.447839e-03,-4.112262e-01,6.076108e-01,-1.713684e+00,4.460456e-01,6.275180e-01,7.990412e-02,3.720236e-01,1.426215e+00,-2.465095e-01,1.231196e+00,-2.243871e-01,1.205622e-01,1.684298e+00,3.176230e-02,1.507248e+00,8.548271e-01,-8.447817e-02,-6.131926e-02,-1.035636e+00,8.314933e-01,9.131989e-01,1.756763e+00,1.368278e-01,1.303935e+00,-5.824087e-01,-1.999063e+00,4.672783e-01,-4.365364e-02,1.320508e+00,8.841497e-02,6.818900e-01,2.157346e-01,1.233529e+00,1.301281e-01,
-4.181362e-01,-1.791562e-01,2.575643e-01,1.015200e+00,8.864451e-01,-8.219138e-03,-1.524883e-02,1.389710e-02,4.653601e-01,-3.595316e-01,6.536722e-01,-7.125353e-01,-6.934494e-01,-2.311879e-01,6.236350e-02,-9.911926e-01,7.812059e-03,4.853100e-01,7.133768e-01,9.522230e-02,1.616016e+00,-2.023035e-01,-5.944669e-02,-1.559229e-01,-9.168305e-01,1.226402e+00,4.452295e-01,1.812731e+00,1.479026e-01,2.381630e-03,1.324661e+00,1.617000e+00,5.054694e-01,-3.742725e-01,-1.397172e+00,4.174756e-01,-1.055387e+00,-1.055523e+00,3.235159e-01,7.024984e-01,9.825090e-01,6.268989e-01,-2.267023e+00,3.121044e-01,-4.573432e-01,1.681740e+00,1.658774e-02,2.761773e-01,9.166679e-01,4.468230e-01,
1.768054e+00,3.305983e+00,2.576733e+00,2.215117e+00,4.350500e-01,-9.159349e-02,-1.433092e-02,-3.403763e-02,1.381385e+00,-1.696968e+00,-3.437647e+00,3.065566e+00,1.878580e+00,2.496439e+00,4.550150e-02,1.929940e+00,1.062014e+00,-8.822814e-01,1.943674e+00,1.419595e-01,2.343447e+00,2.482084e-02,5.188463e-01,-1.645959e+00,-1.610448e+00,2.195395e+00,1.123164e+00,-3.614184e-01,4.061395e+00,-1.083296e-02,4.822672e+00,4.018507e+00,-2.472015e+00,-7.738605e-01,-1.332849e+00,2.652594e+00,2.570714e-01,4.076249e+00,7.840626e-01,-1.159116e+00,-1.444989e+00,3.182907e+00,2.596126e+00,9.604802e-01,2.642272e+00,1.415504e+00,-3.000228e-01,-6.656800e-01,7.421097e-01,1.017859e+00,
-7.740022e-01,1.842667e-01,-5.456471e-01,7.807822e-01,-5.045418e-01,-2.409393e-01,-2.098834e-02,-2.461032e-02,-5.046405e-02,-1.679328e-01,-1.599643e+00,-2.073771e-01,-3.951118e-01,-7.592130e-01,1.481760e-02,2.268976e-01,9.399243e-01,-1.030057e-01,-9.511393e-02,1.027558e+00,9.682832e-02,-3.950100e-01,3.051952e-01,2.502500e-01,5.865433e-02,9.598450e-01,-1.081909e+00,1.909837e+00,4.859536e-01,-2.943108e-02,5.755908e-01,4.290653e-01,1.200225e+00,-3.220130e-01,9.385325e-01,-3.302229e-01,5.688393e-01,8.876728e-01,-5.398942e-01,3.408685e-01,1.727233e-01,-1.563670e-01,9.031463e-01,3.939099e-01,1.123130e+00,2.273985e-01,-1.066968e-01,-2.132760e-01,-2.850025e-01,-2.412700e-01,
-6.857581e-01,1.670062e-01,3.856348e-01,-6.336980e-01,-5.007786e-02,5.773122e-01,1.774490e-02,1.890950e-02,1.343790e-04,1.216864e-01,1.156264e-01,-1.114680e-01,-1.596441e+00,-1.368811e+00,4.031240e-03,2.139675e-01,-1.995914e-01,1.294698e+00,-2.729748e-01,-1.395639e+00,7.167265e-01,-5.501096e-01,5.016294e-01,-3.143910e-01,-2.468340e-02,-8.278000e-01,-9.580325e-01,-2.141611e+00,-5.603220e-01,1.496750e-02,-1.610028e+00,2.115550e-01,-3.865155e-01,8.837494e-02,-9.935583e-01,-2.699476e-01,-1.741246e-01,-1.595139e+00,4.632894e-01,-2.422665e-01,7.294784e-01,-6.522053e-01,-5.833789e-01,-1.686258e-01,4.468998e-01,1.132438e+00,1.663707e+00,2.049273e-01,-1.999967e-01,-1.364611e-01,
3.224975e-01,3.646461e-01,2.663316e-01,-5.536860e-01,9.997705e-01,-1.129821e-01,8.894390e-03,2.087550e-02,-4.345897e-01,2.328991e-01,2.039052e-01,-2.237665e-01,7.471930e-01,-5.214185e-01,-3.770046e-02,2.267840e-02,-2.877829e-01,-6.407583e-01,-2.345112e-01,-8.099679e-02,-2.731522e-01,-2.273250e-01,1.658871e-01,-3.341635e-01,-2.454249e-02,-5.058154e-01,-2.959645e-01,-1.429837e+00,-1.016273e-01,3.124560e-02,-1.023225e+00,-3.655554e-01,-8.142455e-01,-1.104411e-01,1.320937e+00,-4.034688e-01,-1.175044e+00,-1.264609e+00,-4.054921e-01,-9.937861e-01,-4.979604e-01,1.848595e-01,-1.844587e-01,-3.848355e-01,9.343634e-01,5.398012e-01,5.372332e-01,2.485675e-01,6.518786e-01,-4.552569e-01,
4.600812e-01,-1.287752e+00,-6.296031e+00,-1.093060e+00,-7.824579e-01,-1.337017e+00,-2.632822e-02,-3.177142e-02,2.311375e-01,8.266187e-01,-9.836000e-01,-5.506945e-01,-7.417305e-01,1.025734e+00,-4.586578e-02,2.414168e+00,-1.317886e-01,-5.771756e-01,-8.801730e-01,-8.243067e-01,-1.156092e+00,-3.156793e+00,-8.602157e-01,-2.597742e+00,-1.952002e+00,-2.285010e+00,-2.063848e-01,-6.767649e+00,2.156131e-01,-5.427607e-02,-3.506958e+00,-2.894545e+00,-9.058613e-01,-1.953357e+00,9.069441e-01,-2.711005e-01,-1.190017e+00,1.548225e-01,5.521514e-01,-1.416965e+00,-7.341831e-01,3.965309e-01,6.229644e-02,-1.842193e+00,-2.485644e+00,1.030556e+00,-1.765722e+00,-2.881231e-01,1.702512e+00,-9.106460e-01,
-3.354645e-01,-5.474070e-01,1.369258e-01,9.109260e-01,7.282035e-01,2.093437e-01,-3.631971e-02,5.526870e-03,2.074565e-01,-3.486767e-01,-1.972813e-01,3.961470e-02,-7.582764e-03,-1.437093e-01,-2.409802e-02,1.695693e-01,6.526223e-01,-2.668963e-01,1.386842e-01,-6.796356e-02,2.579399e-01,-6.225240e-01,3.183764e-01,-3.855610e-01,-4.236067e-01,1.128606e+00,4.336338e-01,6.715544e-01,-7.165032e-01,-2.988237e-02,3.924869e-02,-2.305432e-01,2.361130e-01,4.146286e-01,-1.305255e-01,-1.231618e-01,-3.146388e-01,-4.490031e-01,-6.687355e-02,-1.022883e-01,-3.192105e-01,7.579897e-01,-9.198073e-01,-2.761132e-01,2.092062e-01,-6.629185e-01,-2.469537e-01,2.541134e-01,-1.243651e+00,-3.497466e-01,
1.049579e+00,2.664580e+00,2.810729e+00,3.062602e+00,2.277768e+00,7.945097e-01,-3.921004e-02,3.108980e-02,-1.708381e-01,-1.317004e+00,-5.841853e-02,1.023084e+00,-9.156430e-02,2.659810e-01,-3.472056e-04,-6.580276e-01,1.425342e+00,1.645252e-01,3.628561e+00,4.147358e-01,2.066108e+00,6.937381e-02,1.047187e+00,1.295657e+00,1.523023e+00,2.234910e+00,5.361804e-01,3.066198e+00,2.836696e+00,4.437080e-02,4.703897e+00,6.517370e-01,-1.203520e-01,1.089049e+00,-4.456861e-02,1.074934e-01,1.565657e+00,-2.181070e-01,4.108313e-01,1.318019e+00,-3.449460e-01,1.915643e+00,6.572674e-02,3.841534e-01,2.008298e+00,3.307500e-01,-2.350519e-01,-4.380012e-01,7.872290e-01,1.882700e+00,
6.902025e-01,9.291314e-01,-1.410255e-01,-1.781178e+00,5.972859e-01,-7.102755e-02,4.112200e-02,-3.240300e-02,-3.270802e-01,1.722255e-01,-2.172051e+00,3.970610e-01,-1.833772e+00,1.898052e-01,-4.472895e-02,6.930459e-01,1.507935e-01,-2.871225e-01,3.888283e-01,4.161104e-01,8.863091e-01,1.701826e+00,-4.744635e-01,-1.810315e+00,6.673180e-01,-2.113818e+00,2.724740e-01,-9.530272e-01,5.205994e-01,5.044970e-03,-4.961302e+00,3.166316e-01,-6.445267e-01,1.660493e-02,-3.004554e+00,-1.861576e+00,-5.349645e-01,-2.080040e+00,-3.043929e-02,-1.898053e+00,3.679844e-01,1.141371e+00,-1.066285e+00,2.557713e-01,1.345316e-01,6.154144e-01,-2.109166e+00,-8.294338e-02,1.614061e+00,4.738742e-01,
-2.185911e+00,1.020376e+00,-3.558807e-01,4.205146e-02,6.116508e-01,6.657042e-01,2.919160e-02,-7.327099e-02,2.446720e-01,4.417056e-01,2.214336e+00,-3.063564e-01,6.764770e-01,4.975159e-01,1.959770e-02,-1.092493e-01,-5.457816e-01,2.571045e-01,-7.420266e-01,-1.575578e-01,-1.218157e-01,-8.105464e-01,-6.378918e-03,2.843416e+00,3.341843e-01,-2.448957e+00,-7.681442e-01,-4.754841e+00,-2.226483e+00,2.627260e-02,4.973168e-02,-4.079985e-01,1.261119e+00,-2.099863e-01,-5.271924e-01,-1.985287e-01,2.519229e+00,-3.332815e-03,1.325215e-01,4.133887e-01,-9.256789e-01,-1.004799e+00,-7.186546e-01,-1.604641e+00,-1.962408e-01,1.836805e+00,6.358427e-01,-2.093070e-01,2.010372e+00,-3.434350e-01,
3.122574e-01,4.571001e-01,3.935385e-01,-1.173144e+00,8.192847e-01,8.236682e-01,2.337240e-02,-2.505111e-02,-3.444325e-01,5.232160e-01,-8.996295e-01,1.112858e+00,6.506968e-01,8.695521e-01,4.913860e-02,-2.785471e+00,-2.158915e+00,1.472793e+00,1.499452e-01,1.113241e+00,-8.214989e-01,-1.779141e-01,-2.298943e-03,-1.203499e+00,-5.978563e-01,-6.178557e-01,-8.508644e-01,-3.098634e+00,5.893641e-01,-7.683280e-03,-1.903566e+00,1.407415e+00,2.104174e-01,-1.294555e+00,-8.852917e-01,-2.895186e-01,1.845679e+00,1.201393e+00,3.697438e-01,-1.798020e+00,-1.652301e+00,-2.122480e+00,1.087104e-01,1.384787e-01,-2.533272e+00,1.271199e+00,-7.230331e-01,-1.440264e-01,2.467726e-01,3.258286e-01,
-2.702500e-01,-1.472394e+00,-9.103646e-01,9.175138e-01,4.229542e-01,1.968580e-01,-2.217705e-03,9.501530e-03,5.059236e-01,-2.577918e-01,-9.210096e-01,8.259823e-03,-1.721254e-01,-6.157032e-01,1.756890e-02,6.942875e-01,5.995431e-01,-1.172661e+00,1.094362e+00,4.890077e-01,1.713738e-01,9.696261e-01,-1.228983e-02,-4.662168e-01,9.485217e-01,6.361124e-01,-9.304124e-01,8.133927e-02,9.070001e-01,2.348610e-02,4.416369e-01,9.416389e-01,-1.515969e+00,-5.335323e-01,-4.062555e-01,2.919540e-01,1.178998e+00,1.137197e+00,-4.624032e-02,2.712761e-01,7.138680e-01,-7.324516e-01,3.402244e-01,2.989317e-01,-1.697839e-01,-2.531981e+00,2.845089e-01,1.027986e-01,-3.137558e-01,-1.130755e+00,
-2.307900e-02,3.179726e+00,3.466186e-01,-3.316446e-01,-4.939305e-02,8.319492e-01,-2.776231e-02,2.612890e-02,2.503079e-01,-7.681485e-01,-2.450889e+00,1.483377e+00,3.521850e-01,-1.152018e+00,3.557620e-03,-2.760796e-02,1.422388e-01,-2.305684e-01,1.524617e+00,1.303742e-01,4.686426e-01,1.240176e-01,1.432705e+00,4.232345e-01,-3.584112e-01,5.202786e+00,-6.349570e-01,4.812299e+00,1.330221e+00,6.595600e-03,2.940763e+00,9.941180e-01,1.263308e+00,-4.024440e-01,2.271697e+00,3.363599e-01,7.762213e-01,-1.522300e+00,8.063743e-01,1.716308e-01,6.096093e-01,1.994832e+00,4.052255e-01,-9.165608e-01,8.532601e-01,7.254913e-01,1.570464e+00,-8.248128e-01,6.352365e-01,6.404644e-01,
4.664367e-01,7.892323e-01,1.730944e+00,1.071438e+00,5.856389e-01,7.641572e-02,-8.015731e-03,-1.795573e-02,-3.313642e-01,-5.140537e-01,-4.116032e+00,1.699719e+00,-6.451357e-02,-9.713612e-01,1.977540e-03,-7.375998e-01,-6.050761e-01,6.538498e-03,2.098541e+00,7.517626e-01,1.285555e+00,9.955447e-01,8.527821e-01,7.813995e-01,1.525772e+00,9.861370e-01,-9.877171e-02,2.628278e-01,1.726357e+00,-3.891552e-02,2.877986e+00,5.593371e-01,-6.961101e-01,8.129194e-01,-1.553391e+00,2.136588e-01,2.642409e-01,3.220700e-01,3.343373e-02,9.688251e-01,-1.062652e+00,1.321908e+00,2.328223e+00,-7.972629e-01,1.051836e+00,1.567986e-01,-8.170942e-01,-2.681343e-01,-8.919708e-01,-4.780387e-01,
7.816648e-02,6.853940e-01,-1.848588e-01,-2.747409e-01,5.426979e-02,1.065786e+00,-3.806313e-02,-4.343766e-02,-6.657714e-01,-3.492993e-01,-1.874691e+00,1.128999e+00,6.986110e-01,2.526962e+00,1.554950e-02,-5.414882e-01,3.270992e-01,-1.421669e-01,-7.054299e-01,2.549430e-01,5.674939e-01,-1.440264e-01,4.318377e-01,-7.591374e-01,5.647284e-01,5.853178e-01,-2.022951e-01,6.738454e-02,4.715952e-01,-7.375199e-02,2.070687e+00,1.060235e+00,-4.502967e-01,7.588797e-01,4.077685e-01,-1.526122e-01,2.406602e+00,-9.198556e-02,-3.126984e-01,-9.970568e-03,1.528436e+00,5.449751e-01,-3.761572e-01,7.236952e-01,4.613293e-01,-1.330182e+00,-1.185229e-01,2.313307e-01,-4.807141e-01,-4.432617e-01,
-4.434402e-01,3.189682e+00,9.467565e-01,8.651397e-01,-2.392740e+00,-2.941911e-01,7.784740e-03,6.981620e-03,1.906640e-01,-4.406220e-01,1.665055e+00,-2.741476e-01,-2.506759e-02,9.594240e-01,9.210620e-03,-1.546587e+00,-1.200202e+00,1.975700e+00,-8.109339e-01,-9.705034e-02,1.472766e+00,2.424128e+00,5.503806e-01,6.572359e-01,3.072177e+00,2.254587e-02,-3.418390e-01,-9.906309e-01,2.272409e+00,2.877230e-02,-2.920816e+00,1.843283e+00,1.411479e+00,1.396096e-01,3.701200e+00,5.366151e-01,1.268231e+00,2.190285e+00,3.487982e-01,9.062421e-01,-2.144079e+00,-7.094052e-01,2.914908e-01,1.649723e+00,4.775984e-01,-1.259391e+00,5.415124e-01,4.687737e-02,6.582178e-01,-1.319388e-01,
1.889873e-01,3.953937e+00,2.278277e+00,2.170480e+00,-5.774075e-01,1.752065e+00,3.165080e-04,-2.096650e-02,2.595932e-01,-1.161048e+00,1.494359e+00,1.011046e+00,-4.185426e-01,1.653124e+00,4.023140e-02,1.736276e+00,2.771805e+00,1.268193e+00,2.036849e+00,8.906697e-02,1.856891e+00,1.538146e+00,-1.200538e-01,2.184106e+00,4.851509e+00,1.205544e+00,5.561585e-01,-2.034826e+00,1.000416e+00,2.878810e-02,4.562827e+00,2.249756e+00,-4.650712e-01,3.121501e-01,1.063242e+00,-2.885494e+00,6.497667e-01,1.630273e+00,8.812257e-01,2.645366e+00,9.674039e-02,3.080387e+00,3.319604e+00,2.803129e+00,-2.565475e+00,-1.248376e+00,-2.618668e+00,-4.508826e-02,-1.275015e+00,5.612819e-02,
1.724240e-02,1.831250e-02,-4.905274e-02,8.036940e-04,-2.553117e-02,-4.973608e-02,1.747220e-02,-5.405662e-02,4.216210e-02,-2.105817e-02,-2.437932e-02,-4.095892e-02,2.547430e-02,-3.871339e-02,2.842960e-02,1.118860e-02,3.431220e-02,-1.759727e-02,-9.356161e-03,-1.556425e-02,-4.282677e-02,2.439840e-02,-3.687747e-02,3.086170e-02,-3.640329e-02,1.027110e-02,4.327920e-02,-1.145865e-02,3.420580e-02,-3.434298e-02,-9.589891e-03,-6.020826e-02,2.778500e-02,-5.327941e-02,-1.412827e-02,2.289260e-02,-4.323028e-02,-3.985296e-02,2.363730e-03,4.600570e-05,-1.513848e-02,5.232500e-03,3.912090e-02,-3.253099e-02,-3.778194e-02,3.731030e-02,2.230870e-02,-3.487323e-02,6.421090e-03,-3.944787e-03,
8.368815e-01,3.797874e+00,2.983052e+00,-2.663209e-01,1.504848e+00,-8.222759e-01,-1.273870e-02,-4.397348e-02,-8.968207e-01,1.372896e+00,-8.771563e-01,9.910257e-01,-1.607193e-01,1.998507e+00,-3.288453e-02,8.443627e-01,-1.480290e+00,1.035049e-01,-2.280652e+00,8.210947e-01,-5.203275e-01,1.432078e+00,1.316206e+00,-1.721653e-01,4.331591e-01,7.496502e-01,-2.227333e+00,-6.694401e+00,-2.447214e-01,1.616130e-02,-4.288074e+00,1.031868e+00,5.905913e-01,6.155909e-01,2.610286e+00,-1.216813e+00,-1.100568e+00,2.310737e+00,2.311218e+00,-1.006178e+00,-3.617764e+00,-4.639761e-01,1.049507e-01,-6.006619e-01,4.616209e-02,2.868829e+00,2.923868e+00,2.522268e-01,8.600382e-01,1.874071e+00,
-3.205975e+00,1.744019e+00,9.949540e-01,-2.112012e-01,5.235302e-01,4.272340e-01,-4.768900e-02,1.586470e-02,-5.405222e-01,4.269053e-01,2.769421e+00,-4.308255e+00,-2.183233e+00,-5.762221e-01,-6.219045e-02,1.809608e+00,-3.187873e+00,1.343859e+00,-9.786797e-01,6.925034e-01,-1.408974e+00,-2.382135e+00,7.274292e-02,-1.390882e+00,-8.523091e-01,7.001076e-01,-1.219144e+00,-1.000502e+00,-1.516714e+00,-3.227710e-03,-4.359316e+00,-2.027403e+00,1.082848e-01,-3.197397e-01,-2.610982e+00,2.199288e-01,1.094809e-01,2.737181e+00,-3.087630e-01,1.136671e+00,-1.278291e+00,-3.878469e+00,1.651928e-01,1.510099e-01,-1.850677e+00,-2.890293e-01,-1.752135e+00,-5.224149e-01,3.831700e+00,-2.209462e+00,
-1.393129e-01,-1.174047e+00,-4.729609e-01,-6.615787e-01,-1.470787e-01,-3.477862e-01,3.557500e-03,-5.242209e-02,8.574767e-01,-1.485088e-01,1.058462e-01,-4.767525e-01,6.689073e-01,4.300603e-01,-1.159819e-03,-4.212621e-01,4.746390e-01,3.506275e-01,5.675053e-01,4.998919e-01,-1.112191e+00,2.338150e-01,-5.989745e-01,1.130481e-01,1.715747e-01,2.991463e+00,-6.810184e-01,-2.115057e+00,-1.417017e+00,3.968880e-02,-1.221591e+00,2.309547e-01,-8.521631e-01,-3.107832e-01,7.692350e-01,-2.682351e-01,3.625419e-01,2.595731e-01,3.522087e-01,5.624826e-01,3.896758e-01,-2.926224e-01,1.502902e+00,8.972237e-01,-7.899223e-01,-9.661312e-01,-1.929753e+00,-1.535457e-01,-3.377052e-01,6.020596e-01,
1.077955e+00,-3.598129e+00,-1.235535e+00,1.508942e+00,2.558350e-01,5.394737e-01,9.585490e-03,-4.958667e-02,-3.023548e+00,-3.095326e-01,3.103042e-01,2.153137e-01,2.970758e-01,9.557760e-01,3.101490e-03,3.839976e-02,6.456428e-01,1.978928e+00,2.128427e+00,-1.952380e+00,-2.666926e+00,1.721552e-01,-7.148378e-01,2.668537e-01,2.624342e-01,8.973080e-03,-9.813667e-01,-9.518512e-01,5.463468e-01,2.222360e-02,1.527068e+00,6.293617e-01,2.138103e+00,1.050406e+00,-2.174182e+00,-8.028194e-02,1.102779e+00,9.089987e-01,2.318475e-01,-3.856555e-02,8.070551e-01,8.131996e-01,-2.940882e-01,6.722115e-01,-5.419722e-01,5.264230e-01,1.193419e+00,-6.459988e-02,2.670220e+00,-1.274406e+00,
1.910792e+00,-1.542345e+00,3.967488e-01,5.349954e-01,-6.760813e-01,-5.541606e-01,3.577110e-02,-5.197867e-02,-6.949215e-01,6.094136e-01,-5.782507e-02,-1.987776e+00,-7.915351e-01,1.569448e+00,-1.174246e-02,2.341265e+00,-5.848983e-01,-2.341626e+00,-1.287415e-01,3.307444e-01,-2.159514e-01,-1.037442e+00,3.778093e-01,-3.577182e-01,3.714918e-01,5.735549e-01,-1.469716e+00,-1.873798e+00,-2.550744e+00,1.047710e-02,-1.524327e+00,-1.653246e+00,-7.661567e-01,-2.087820e+00,5.958808e-01,-3.164626e-02,5.144630e-01,-1.599843e+00,2.351573e+00,-2.588271e-01,-9.693915e-01,-1.091821e-01,4.308231e-01,-1.216152e+00,-3.561463e+00,-1.248492e+00,-3.018708e+00,-4.862161e-02,1.046145e-01,9.434536e-01,
2.322947e+00,6.635842e+00,3.662890e+00,4.724740e-01,-3.812392e+00,7.189245e-01,-4.583113e-03,-4.876053e-02,-8.801855e-01,1.067902e-01,3.235837e+00,1.458397e+00,6.227943e-01,2.945208e+00,-2.716738e-02,-8.457896e-01,-1.265460e+00,-2.872264e+00,-5.048704e+00,4.437814e-02,-2.492983e+00,4.006788e+00,1.992469e+00,7.846116e-01,-4.407060e+00,-1.310085e+00,1.487196e+00,2.955650e+00,-1.632120e+00,1.611680e-02,2.376276e+00,3.654061e-01,-1.208571e+00,-2.664501e+00,-3.187747e-01,1.975438e-01,1.605425e+00,1.355083e+00,6.024375e-01,-3.126606e-01,-1.467249e+00,-1.630524e+00,-1.244901e+00,-2.860116e-01,1.982593e+00,-9.317353e-01,1.528698e+00,8.068914e-01,-1.237477e+00,4.695505e+00,
-7.171689e-01,3.841440e-02,1.303320e-01,1.282750e+00,9.818535e-01,4.678284e-02,2.312830e-02,4.181900e-02,1.087201e-01,-4.901347e-01,-9.513409e-01,1.799642e+00,4.930496e-01,9.184514e-01,-4.791559e-02,-4.975004e-01,2.901072e-01,1.451334e-01,-1.880424e+00,6.712501e-02,2.319748e-01,4.145468e-01,2.279534e-01,-1.466314e-01,6.529863e-01,2.097590e+00,-4.773625e-02,1.733450e+00,4.539774e-01,4.237780e-02,-1.836943e+00,-5.387875e-01,-9.733846e-01,4.114742e-01,-5.141556e-01,5.825324e-01,1.717542e-01,-7.127463e-01,3.242654e-01,5.232850e-01,1.825033e+00,-1.487609e-01,8.756296e-01,8.865199e-01,1.893788e+00,4.847948e-01,9.564481e-02,3.067189e-01,-4.558092e+00,1.589036e-01,
3.096876e-01,8.257865e-01,6.650552e-01,6.450918e-01,1.232986e-01,-4.986796e-01,3.035870e-02,-1.450648e-02,-1.017764e+00,2.890413e-01,4.239033e-01,2.612823e+00,7.857383e-02,-1.547091e+00,2.603570e-02,-7.417966e-01,-1.368885e+00,5.764847e-01,1.707596e+00,2.345597e-01,2.210479e+00,4.922254e-01,-8.462559e-02,1.380075e+00,4.833030e-01,-9.653479e-01,-3.899227e-01,2.788812e-01,1.237897e+00,2.647590e-02,-1.354594e+00,7.301036e-01,7.011019e-02,5.087979e-01,1.829149e+00,7.031539e-01,2.824901e-01,5.848238e-01,-1.463679e+00,-1.740406e+00,-1.723858e+00,-2.027875e+00,-1.685124e+00,5.064136e-01,-5.900790e-01,-8.364174e-01,1.287675e+00,9.666914e-02,1.225532e+00,3.999509e-01,
-1.359351e-01,2.433341e-01,-5.406681e-01,6.818622e-01,4.063169e-02,-5.507292e-02,-3.670338e-02,-3.098109e-03,4.502202e-01,-2.822862e-01,-1.909183e-01,-5.000121e-01,3.542511e-02,-5.624776e-01,6.252890e-02,-8.244852e-01,6.553592e-01,-4.542951e-01,5.242332e-01,7.230925e-02,1.211430e-01,-2.306871e-01,-7.794685e-02,2.892075e-01,1.464162e-01,1.045208e+00,2.729654e-01,1.565609e+00,-3.090381e-02,-3.426517e-02,1.160819e+00,-3.191065e-01,3.850397e-01,6.772759e-02,8.674707e-02,-3.766801e-01,3.853608e-03,-6.725901e-02,-2.910274e-01,2.339688e-01,2.590237e-02,4.057859e-02,5.925283e-01,2.892626e-01,1.096537e+00,-3.690235e-01,-3.226545e-01,-2.060142e-01,8.807925e-01,-3.736824e-01,
2.272929e-01,1.150704e+00,4.974007e-01,2.449675e+00,-8.958957e-01,1.751956e-01,1.567050e-02,-2.434383e-02,6.833504e-01,-7.356489e-01,-2.248260e+00,-3.855968e-01,-2.704548e-01,-2.638818e+00,3.250060e-02,-1.654170e+00,7.891296e-01,-2.327871e+00,2.738085e-01,-2.142525e-01,-1.011469e+00,4.981454e-01,1.416375e+00,9.934046e-01,-7.539514e-01,1.435670e+00,5.662912e-01,3.813180e+00,-1.347612e+00,-3.739879e-02,5.058280e+00,-8.340244e-01,-8.031187e-01,2.268315e+00,-4.249780e+00,-1.157068e+00,-1.008072e+00,6.755605e-01,-1.155798e+00,1.092745e+00,6.314685e-01,-1.753836e+00,1.793106e+00,4.794751e-01,3.272913e+00,-2.066830e+00,6.959917e-01,6.756183e-03,-2.812950e-01,-4.697878e-01,
9.475163e-02,1.988252e-02,1.303050e+00,-5.330461e-01,1.265530e+00,1.201619e+00,3.061290e-03,3.586420e-02,-7.878307e-01,-1.110459e+00,2.669531e+00,-8.674344e-01,-1.133664e+00,-5.401031e-01,2.033540e-02,-7.551946e-01,1.837573e+00,-9.343970e-01,3.019677e+00,2.987065e-01,1.337408e+00,1.584630e+00,9.112669e-01,3.777166e+00,1.021607e+00,4.222089e+00,8.276542e-01,3.603768e+00,9.377643e-02,8.145130e-03,7.298109e-02,1.160792e+00,4.632943e-01,9.726955e-01,1.291153e+00,-8.058676e-01,6.293177e-01,5.221997e+00,-3.969556e-01,-1.194543e+00,5.258301e-01,9.960320e-01,4.096898e+00,2.771157e+00,6.271815e-01,4.075608e+00,2.924898e+00,-2.405665e-01,1.377959e+00,1.144771e+00,
-8.864362e-01,1.422492e+00,6.692579e-01,1.194957e+00,7.163143e-01,-3.260533e-01,3.140470e-02,-3.542868e-03,-3.872862e-01,-4.098853e-01,4.922482e-01,1.370688e+00,2.740703e-01,-2.089846e-01,1.091290e-02,-9.521599e-01,1.163931e+00,-1.865965e+00,3.841505e-01,9.840004e-01,3.795126e-01,4.624263e-01,-8.681694e-02,1.607837e+00,-7.272657e-01,3.246915e+00,2.157225e-01,2.625169e+00,-6.104469e-01,6.095280e-02,2.370782e+00,7.198535e-01,6.143362e-01,-2.108589e-01,-8.380722e-01,5.671092e-01,2.169259e+00,-1.845554e-01,-2.167809e-01,5.153902e-01,4.267238e-01,1.709495e+00,1.005134e+00,-8.963713e-01,1.556257e+00,1.034282e+00,-1.042732e+00,2.374392e-01,4.811650e+00,1.019996e-01,
9.371123e-02,9.815704e-02,7.779204e-02,4.066734e-01,9.068415e-01,-8.852192e-01,-5.915112e-02,-1.861398e-03,6.750523e-01,-3.097237e-01,3.414841e-01,-5.220778e-01,3.487241e-01,-2.252040e+00,4.646080e-02,7.250859e-02,3.791526e-01,8.884648e-01,-2.198395e+00,2.109177e-01,1.322895e+00,6.714877e-01,-1.580670e-01,1.405582e-01,-1.591737e-02,2.088493e+00,1.965358e-02,-3.187285e-03,-1.804215e-01,-1.795857e-03,2.315896e+00,4.990335e-01,2.359728e-01,6.789027e-03,1.331274e+00,2.305253e-01,9.942074e-01,1.305100e+00,-2.111508e-01,1.609009e+00,1.735194e+00,6.353886e-01,-5.512101e-01,-1.255391e+00,1.199787e+00,7.627643e-01,2.578381e-01,-6.439366e-02,-3.533113e+00,-3.211246e-01,
-4.694644e-02,3.795180e-02,1.388570e-02,-4.832447e-02,-3.605668e-02,-1.241131e-02,2.040650e-02,4.243580e-02,4.592510e-02,1.037230e-03,4.415110e-02,-3.393831e-02,-7.389175e-03,-2.385778e-02,1.257570e-02,-1.109052e-02,-4.227793e-02,-2.812320e-02,1.969410e-02,1.275030e-02,-1.923421e-02,1.835470e-02,-6.008005e-02,-3.634743e-02,-3.479353e-02,4.980770e-04,-3.123592e-02,-3.160269e-02,1.679690e-02,3.363770e-02,-2.968203e-02,2.049100e-02,2.510490e-02,-5.095261e-02,9.038790e-03,-4.804012e-02,-3.316393e-02,-5.788849e-02,-3.340417e-02,1.615370e-02,-5.500530e-03,-8.760895e-03,-3.500637e-02,2.206390e-02,8.664650e-03,-1.752681e-02,-4.728706e-02,1.393220e-03,-5.161380e-02,-1.811082e-02,
5.699002e-01,-1.171474e+00,-4.209891e+00,-1.184284e+00,-1.041564e-01,-5.611022e-01,2.555660e-02,-2.158579e-02,-9.811893e-01,1.408632e-02,7.587098e-01,-2.249457e-01,4.219463e-01,1.056998e+00,-3.259053e-02,1.588571e+00,-3.125640e-01,-1.783698e+00,1.856842e+00,-1.124886e-01,-1.369735e-01,1.097560e+00,-1.888131e-01,-1.554346e+00,-1.006657e-01,-2.719773e+00,7.234961e-01,-7.325881e-01,7.708241e-01,-4.426285e-02,-1.083201e+00,4.779757e-01,9.175725e-01,-4.049199e-01,1.225281e+00,6.875672e-01,2.743049e+00,7.565695e-01,5.453105e-01,-1.958282e+00,8.316300e-01,2.640422e-01,5.445772e-02,2.362469e-01,-4.686454e-01,5.789547e-01,-6.641124e-01,-2.632717e-01,1.143726e+00,-6.850189e-01,
