// The contents of this file are licensed under the Creative Commons
// Attribution 4.0 International License: https://creativecommons.org/licenses/by/4.0/
// Neural Network File Format by Kyle Julian, Stanford 2016 (generated on 11/02/2022 12:25:56)
7,5,5,50,
5,50,50,50,50,50,50,5,
0,
0.0,-3.141593,-3.141593,100.0,0.0,
60760.0,3.141593,3.141593,1200.0,1200.0,
19791.091,0.0,0.0,650.0,600.0,7.5188840201005975,
60261.0,6.28318530718,6.28318530718,1100.0,1200.0,373.94992,
1.387420e-02,-7.163981e-03,-1.873431e-03,6.069390e-03,-8.096245e-04,
-1.345407e-02,-4.802773e-01,4.913874e-01,-1.057602e+00,2.467482e-01,
-1.969075e-01,4.318926e-01,3.224901e-01,8.297908e-02,-1.623982e-01,
6.001206e-02,-1.363477e+00,1.349176e+00,-6.067173e-02,-4.017541e-01,
-1.102888e-02,-1.704307e-01,1.743021e-01,-5.557303e-01,-8.740178e-01,
9.182671e-01,-2.123320e-03,1.167820e-02,1.542819e-03,-6.048062e-02,
8.503834e-02,-5.968714e-01,7.022172e-01,1.476237e-01,-3.437311e-01,
-1.476793e+00,-1.376833e-01,-1.639669e-02,7.302886e-02,4.595995e-02,
1.820602e-02,-2.127300e-01,4.154020e-01,-1.321729e+00,6.720461e-01,
1.765281e-02,4.076215e-01,-3.010938e-01,-1.848861e+00,6.654746e-01,
-4.759681e-02,-1.670413e-01,1.816899e-01,-1.121935e+00,-9.653574e-01,
2.116947e-02,-1.803364e-01,-4.367454e-01,-1.010881e+00,1.232532e-01,
-8.240599e-03,-3.261216e-02,1.860921e-01,-2.141748e-01,1.357042e-01,
1.000020e-02,5.255100e-04,-4.448850e-04,3.876530e-03,1.286400e-02,
4.002673e-02,-3.737758e-02,2.556739e+00,6.074879e-02,-3.308875e-02,
-3.566083e-02,-7.373405e-01,7.889752e-01,-1.562043e-01,3.125356e-01,
-7.741902e-01,-3.461829e-02,8.470560e-03,-1.994212e-01,-4.004658e-02,
-9.498110e-02,6.320947e-01,-6.798508e-01,1.612283e-01,-8.072494e-01,
1.748722e-03,-2.588512e-01,2.821108e-01,1.324319e+00,2.637505e-01,
1.316444e-02,-4.868734e-01,-4.480780e-01,-8.003194e-01,4.216925e-01,
4.575469e-01,-7.573839e-01,-1.683045e-01,-2.823975e-01,5.395658e-02,
8.912988e-04,-9.010028e-02,2.484469e-01,-6.237882e-01,-1.296729e+00,
-8.598272e-02,-9.162962e-02,1.912345e-01,-1.029690e+00,1.715039e+00,
-7.632324e-03,5.362970e-01,-5.824350e-01,-9.441736e-01,1.514219e+00,
-9.107248e-02,4.974071e-01,-4.089393e-01,-4.128107e-01,2.728593e-01,
1.627590e-02,3.572380e-03,4.519680e-04,-8.866914e-04,2.132000e-03,
-5.000299e-02,-1.858941e-01,5.175061e-01,-7.538779e-01,5.166380e-01,
-4.726754e-03,-5.920236e-02,1.147125e+00,2.234771e-02,-1.707310e-02,
8.646592e-02,3.009678e+00,-1.928692e-01,5.814049e-02,-6.256540e-02,
1.586244e-02,8.587136e-01,-9.998509e-01,-1.119636e+00,5.637082e-01,
5.437799e-02,3.213578e-01,-3.048129e-01,-8.162405e-01,-6.318017e-01,
5.559400e-02,-1.397445e+00,7.799376e-01,5.589458e-02,-4.457481e-02,
-1.702050e+00,-1.396836e-01,4.358951e-03,-2.725307e-02,7.133056e-03,
-1.375941e-02,-2.114616e+00,-5.660508e-02,1.102437e-01,-2.493813e-01,
4.019203e-02,4.340850e-01,4.661849e-01,-2.145643e-01,9.473215e-02,
-6.867577e-03,-5.883433e-02,6.936467e-02,7.675794e-01,-4.152718e-01,
1.682479e-02,3.691958e-01,-2.941974e-01,8.926380e-01,-1.208655e+00,
-9.429356e-01,-1.763905e-01,5.228230e-02,-7.577136e-02,-3.600565e-02,
5.002966e-01,-4.640496e-02,-8.234499e-01,1.076588e-01,-6.484485e-02,
1.221301e-02,-8.728503e-01,-1.981875e-01,-1.188568e-01,3.359874e-01,
-1.832985e-02,-2.381106e-01,1.720364e-01,-2.021155e-01,-1.325919e+00,
-2.002371e-02,-1.155588e-01,-8.071581e-01,-4.506947e-01,2.510109e-01,
-2.651628e-01,4.056024e-02,-4.306208e-02,7.897165e-02,3.053683e-01,
-9.991695e-02,-2.601165e+00,1.765432e+00,-6.549175e-02,-1.467427e-01,
1.021900e-02,-4.348155e-05,1.343190e-02,-9.912042e-04,-4.468684e-03,
-3.873723e-01,-2.173731e-01,3.910286e-01,-6.802624e-02,-8.426113e-01,
2.709486e-02,8.654897e-01,8.234961e-01,7.350739e-02,-2.131689e-02,
-1.569907e+00,9.594616e-02,5.219822e-02,1.430698e-02,-7.279523e-02,
-4.696377e-01,-1.863099e-01,-1.889265e-02,-2.436462e-01,-1.049315e+00,
-5.340247e-02,1.308121e-01,4.157013e-02,4.724302e-01,-2.115561e+00,
-2.028684e-02,
-1.135060e-01,
1.582776e-02,
1.534677e-01,
-1.122765e-01,
2.752407e-01,
6.899781e-01,
-1.567283e-01,
-1.499914e-01,
-6.363431e-01,
-5.340478e-01,
-3.311563e-01,
5.657122e-02,
-2.183937e-02,
4.710831e-02,
3.412666e-01,
-1.416964e-01,
-5.043150e-02,
1.080482e-01,
5.799475e-02,
1.969348e-01,
-5.952376e-01,
5.317311e-02,
-4.822062e-01,
1.380739e-01,
-2.027949e-02,
6.580954e-02,
9.054042e-02,
1.067545e-01,
1.100850e-01,
-4.801009e-01,
-4.345288e-01,
-3.493623e-01,
-5.562028e-02,
5.783096e-02,
3.996688e-01,
2.277036e-01,
3.290731e-02,
2.322094e-01,
1.602916e-01,
-1.337647e-01,
4.484864e-02,
9.797192e-02,
-2.159146e-01,
-2.147366e-02,
-3.449743e-01,
6.376714e-02,
-2.879814e-01,
-5.663217e-01,
-6.345056e-01,
3.803920e-02,6.403033e-01,2.100270e-01,1.534375e-01,5.623894e-01,-1.037045e+00,-7.762545e-01,4.536708e-01,6.048620e-01,-4.377513e-01,-4.208526e-02,1.721877e+00,2.982290e-01,-8.569376e-03,-6.955137e-01,-5.735887e-01,2.704474e-01,-8.376427e-01,1.469748e-01,-1.017602e-01,1.189481e+00,3.592953e-01,6.660277e-01,-1.069173e+00,-1.590592e-01,3.150390e-02,7.006407e-01,2.893238e-01,4.415400e-01,9.330515e-03,-4.408141e-01,-5.046993e-01,1.097195e+00,2.401209e-01,7.443401e-01,2.415336e-01,-2.042943e-01,-4.217839e-01,-1.770909e-01,-4.225662e-01,2.469379e-01,6.819620e-01,-2.007631e+00,9.444982e-02,-1.570747e-02,-7.695219e-01,1.463861e+00,2.527650e-01,2.019486e-01,1.066664e+00,
-1.835515e-02,-6.040954e-01,-2.236006e-01,5.920267e-02,-1.122166e-01,-2.910715e-01,-2.663167e-01,-3.752532e-01,8.130378e-03,-1.157887e+00,6.436248e-01,-7.268519e-01,-3.990945e-01,4.283280e-02,-6.776825e-02,-3.587367e-03,9.394445e-01,6.413710e-01,-5.707736e+00,8.957560e-01,1.378750e-01,6.880839e-01,-3.132192e+00,-4.038006e-02,1.167139e-01,1.676100e-02,2.866763e-01,1.220646e-01,-7.566972e-01,4.478913e-02,3.808298e-01,1.319172e+00,1.336550e+00,-2.905707e-01,3.317289e-01,6.301934e-02,2.369153e-02,5.322305e-01,3.014972e-01,-7.139097e-01,-1.711489e-02,-1.140373e-01,-1.661499e+00,-1.968057e-01,1.091230e-03,5.864602e-01,4.266647e-01,-4.737925e-02,1.289042e+00,1.230566e+00,
-3.460800e-02,-1.109713e+00,2.706445e-01,1.191442e+00,-9.392481e-02,-1.117221e-01,3.647373e-02,1.573404e-02,-8.138182e-01,4.069527e-01,2.453608e-02,5.541312e-01,-9.617443e-02,3.744490e-02,-3.704232e-01,-1.550251e+00,5.536954e-01,-9.837575e-02,5.079754e-02,1.884844e-01,-4.551099e-01,1.365252e+00,-1.755915e-02,7.512330e-02,8.087109e-01,-4.359148e-02,-8.192341e-01,-9.048826e-01,2.637485e-01,8.630323e-01,-5.301313e-01,-2.163346e+00,2.697408e-01,-1.222000e+00,-2.503715e-01,-3.123099e-01,4.604460e-01,1.822191e-01,4.795353e-01,-6.217060e-01,-2.716581e-01,4.197138e-01,2.895154e-01,4.352045e-01,1.029190e-04,1.320585e+00,-4.583050e-01,-3.804003e-02,-5.706687e-02,9.382314e-01,
-1.178646e-02,6.098011e-01,-1.737466e-01,-2.024484e-01,5.805943e-01,-1.015982e-01,-1.939392e-01,-5.073337e-02,5.996298e-01,-6.296787e-01,8.188592e-01,7.557763e-01,3.652139e-01,2.344070e-02,-7.087426e-01,-4.269405e-02,-2.721726e-01,-1.701367e-01,-1.050220e-01,-5.739909e-01,3.876652e-01,1.419749e+00,-3.438981e+00,3.095987e+00,3.484457e-01,1.190930e-02,4.406629e-01,-5.032881e-01,2.115602e-01,-7.329063e-03,1.166646e+00,6.066406e-01,-2.881840e-01,-5.309892e-01,-4.519473e-01,-1.081584e+00,-1.345218e+00,3.148322e-01,1.478127e-02,-3.231637e-02,3.899826e-01,-1.018944e-01,-2.385831e+00,-1.904878e-02,1.816720e-02,6.800283e-01,2.540847e-01,3.373367e-01,1.364170e+00,-2.866857e+00,
-2.830401e-02,-1.447593e+00,-3.944209e-01,1.926765e+00,-5.616943e-01,1.573637e-01,-1.715416e+00,-9.516212e-02,-1.394064e+00,7.516803e-01,-4.496698e-01,1.519108e-01,-4.756878e-01,-3.028085e-02,-5.367841e+00,-1.431475e+00,-1.950616e-01,2.420163e-01,5.226311e-01,-1.579231e-01,-6.789226e-01,1.840972e+00,-7.943691e-02,5.055309e-01,5.022127e-01,5.808700e-03,-1.284895e+00,-1.521135e+00,6.516325e-01,7.977387e-01,4.606982e-01,-4.535548e-03,1.350558e-01,-1.152217e-01,-8.528383e-01,-6.419595e-01,7.985909e-01,9.358934e-03,4.666182e-01,-2.932576e-01,-4.105006e-01,3.128416e-01,1.008855e-01,3.750720e-02,-4.216548e-02,2.503556e+00,-5.069631e-01,-1.196569e-01,-6.563067e-01,-7.052493e-01,
1.701770e-02,5.782370e-03,-1.008804e-02,-5.282802e-03,-1.912974e-02,2.997210e-02,-2.588029e-02,-4.237264e-02,-5.529468e-02,-4.152603e-03,1.704370e-02,-2.851495e-02,-4.268659e-02,3.544200e-03,-2.054252e-02,-3.175662e-02,2.103420e-02,-4.817641e-02,-1.781377e-02,-4.455265e-03,-4.744456e-02,-1.540864e-02,4.106940e-03,-5.314669e-02,-1.837206e-02,7.895220e-03,3.994220e-02,8.983740e-03,3.195910e-02,9.163140e-03,1.730400e-02,1.520410e-02,1.090920e-02,1.814940e-02,-5.366119e-02,-4.384107e-02,-1.296099e-02,-5.646301e-02,-5.814060e-02,-2.730504e-02,4.081830e-02,1.661380e-03,4.314010e-02,2.302340e-02,3.402410e-02,2.810290e-02,-4.885041e-02,3.649550e-02,3.527740e-02,-1.949472e-02,
2.870050e-02,-4.913989e-02,-2.732772e-02,2.421430e-02,-3.909181e-03,-4.206941e-02,-2.922045e-02,-9.037791e-04,3.008360e-02,-3.582106e-02,-4.425760e-02,-1.680525e-02,-5.273467e-02,1.381080e-02,-6.551033e-03,-2.992080e-02,-4.062261e-02,-3.692892e-02,8.218810e-03,-3.464065e-02,3.369830e-03,2.256710e-02,1.877280e-03,-3.080563e-02,-1.914139e-02,2.274350e-02,-9.813246e-03,1.088270e-02,-4.496615e-02,4.064890e-02,-5.426746e-03,2.517840e-03,-2.192778e-02,-4.261015e-02,2.879930e-02,-8.506029e-03,2.997160e-02,-6.158103e-03,-2.637789e-02,-4.635225e-02,-1.138956e-02,-3.609763e-02,2.063510e-02,5.500940e-03,-3.479143e-02,-2.431349e-02,3.990250e-03,2.090880e-02,3.945860e-03,-5.306374e-02,
-1.251632e-02,-7.735811e-01,-7.800943e-01,-8.424265e-02,-4.039098e-01,7.054377e-02,-5.179303e-01,-2.331441e-01,5.710108e-01,-2.891238e+00,4.574846e-01,-1.024469e+00,-2.731743e+00,2.331700e-02,-6.668676e-01,-6.659499e-01,6.017908e-01,-1.608106e-01,-2.934025e-01,8.548016e-01,-5.125607e-01,1.909021e+00,-2.701954e-01,-8.169661e-01,4.194079e-01,-3.315931e-02,-7.256655e-01,-9.430364e-01,1.985918e-01,-2.304802e-01,4.393482e-01,1.531650e-01,1.376920e-01,-1.567230e+00,1.370470e-01,4.356861e-01,2.930399e-01,-3.475605e-01,3.485996e-01,-1.455951e+00,6.289152e-01,5.919260e-01,-5.929245e-01,1.070157e+00,2.479010e-02,6.631941e-01,5.425792e-01,-6.963337e-01,-7.503541e-01,2.904463e-01,
-1.574013e-02,-3.341992e-01,-1.216656e+00,-1.723302e-01,5.265146e-01,-2.995303e-01,1.423855e-01,1.104588e+00,-1.406475e-01,4.326567e-01,3.469998e-01,-7.986352e-01,6.359786e-01,1.114880e-03,-3.807457e+00,-1.145739e+00,1.205511e-01,-5.807424e-01,-1.182604e-01,9.331179e-01,-1.349187e-01,-1.744785e-01,-5.073746e-01,1.773177e-01,-2.179474e-01,-2.715069e-02,1.016230e-01,-4.537774e-01,1.058085e-01,-1.964634e-01,1.408655e-01,1.190019e-01,-5.942118e-02,-1.161300e-01,-4.353825e-01,2.828619e-01,-1.954281e-01,4.383310e-01,1.630908e-01,4.831277e-01,-3.116683e-01,-1.076901e-01,1.537118e+00,-7.977617e-02,4.345330e-04,-9.585922e-01,-6.433612e-02,6.089571e-01,-4.386658e-01,1.471429e-01,
2.542320e-03,1.466188e-01,6.273925e-01,-1.693608e-01,1.130293e+00,6.047873e-01,-5.981933e-01,-1.339327e-02,4.108767e-01,-9.860519e-02,1.814452e+00,-1.624749e-01,-1.102311e-01,-2.209368e-02,2.421414e-01,-5.196744e-01,4.277737e-01,8.148477e-01,-1.710702e+00,5.184543e-01,-1.507422e-01,-4.503733e-01,7.258383e-01,-8.640093e-01,-5.593150e-02,-4.988204e-02,3.115302e-02,1.186440e-02,-5.233452e-01,-1.467637e+00,-4.087923e+00,-1.883206e-01,-2.164124e-01,3.483480e-01,7.152461e-01,2.436462e-01,-4.995133e-01,5.606444e-02,-3.584437e-01,4.109679e-01,3.244972e-01,3.017385e-01,5.709424e-01,1.143681e-01,3.504560e-02,4.128988e-01,1.038383e-01,1.677509e-01,1.581814e-01,-1.856253e+00,
-2.365965e-02,3.662347e-01,6.677244e-03,2.961854e-01,3.679458e-02,5.014057e-02,-1.022592e+00,-9.836767e-01,2.518131e-01,6.255512e-01,8.335860e-03,2.570607e-01,8.432602e-02,2.932630e-02,6.049984e-01,3.642817e-01,8.434468e-01,3.647316e-01,-1.175454e-01,9.528237e-02,-3.823774e-01,1.403470e+00,-8.047693e+00,-2.693848e-01,2.560310e-01,-3.518403e-02,4.094569e-01,1.994023e-01,-6.220368e-01,5.089169e-01,3.962117e-01,-9.695668e-01,-8.811883e-01,4.016581e-01,-8.296690e-02,-7.826994e-01,3.690127e-01,2.036767e-01,2.491839e-01,5.221573e-02,9.521874e-02,3.904351e-01,-2.047269e+00,-1.152774e-01,-1.153341e-02,5.614496e-01,-5.644180e-01,-1.323693e-02,1.212974e+00,2.106796e+00,
2.357090e-02,9.274935e-03,6.350683e-01,2.180744e-01,-4.885828e-01,1.748807e-01,-7.892094e-01,3.310650e-01,-9.191227e-01,-9.619921e-01,1.429698e-01,-1.643943e-01,9.905711e-03,-6.058647e-04,-1.107981e+00,3.760263e-01,7.153828e-02,-1.348336e-01,-1.156354e-01,1.459332e-01,6.354852e-01,2.805790e-01,2.748774e-01,-3.877125e+00,1.146232e+00,-4.264837e-02,-9.087697e-01,-6.863104e-01,8.662552e-02,1.351749e+00,-1.276999e-01,1.782192e+00,1.385076e+00,1.276141e-01,1.138126e-01,2.179957e-01,-1.109178e+00,6.758514e-02,-1.134493e+00,-9.684276e-02,1.816244e+00,7.936373e-02,-1.348147e+00,8.792503e-01,4.060430e-02,-1.950291e+00,-5.939314e-01,-1.040289e-01,7.929810e-01,-3.851662e+00,
-5.057272e-02,7.548326e-01,1.361132e-01,-1.882891e-03,6.209751e-01,2.892598e-02,-1.028488e-01,-8.686670e-02,1.767214e-01,4.226385e-01,2.158765e-01,-1.550745e+00,-5.116534e-01,2.147520e-02,4.758322e-01,-6.999972e-01,3.407840e-01,9.058554e-01,8.795471e-03,-1.938741e+00,-1.624319e-01,7.342186e-02,5.966291e-01,-1.205631e-02,-4.903920e-01,-1.225612e-02,-4.930075e-01,3.702416e-01,5.185784e-01,-2.170150e-01,3.527113e-01,-9.977582e-01,2.597700e-01,-6.098494e-01,-7.849201e-02,2.660418e-01,-8.158825e-01,-1.980772e-01,2.588408e-01,1.165574e+00,-4.970721e-01,4.787762e-01,1.552123e-01,-2.030836e-02,-4.636180e-02,-2.747745e-01,-4.354297e-01,-3.236037e-02,-2.697985e+00,1.166780e+00,
-2.322401e-02,-9.240041e-01,-4.979383e-02,6.262120e-01,1.309964e-01,-2.163724e-01,-8.890181e-01,1.488039e-01,-3.840994e+00,4.975009e-01,-1.398422e-01,2.023608e-01,1.455940e+00,-8.491329e-03,1.072389e-01,-8.958957e-01,1.087219e+00,-7.057827e-01,1.328785e+00,3.177460e-01,2.424555e-01,1.117137e+00,-2.794858e+00,-1.527729e+00,3.553181e-01,1.064930e-02,6.957793e-01,-3.337950e+00,-1.015709e-01,4.712142e-02,-7.036396e-01,-2.167536e+00,2.911328e-01,-4.812801e-01,3.064035e-01,-5.370572e-01,3.580195e-01,-1.075022e+00,4.872294e-01,-7.841189e-02,1.703394e+00,-9.761776e-01,8.511940e-01,-4.910283e-01,-3.108682e-02,-7.556009e-01,2.468206e-01,-5.226007e-01,-1.080523e-02,-4.974889e-02,
-5.693866e-02,-5.535327e-01,-5.071122e-01,-5.208682e-02,-2.286406e-01,-2.319849e-01,2.023243e-01,-9.773158e-02,5.373409e-01,-5.147426e-01,-4.549345e-01,-3.032148e-01,-4.228035e-01,-3.558061e-02,-9.474202e-02,-1.123836e-01,2.451447e-01,1.826223e-01,-1.599118e-01,-8.017527e-01,7.359850e-01,4.174240e-01,-6.386635e-02,1.508938e-01,5.523936e-01,-4.142491e-02,-1.223911e-01,-1.218304e+00,-8.145196e-01,2.596435e-01,1.079530e-01,8.793979e-03,-2.250885e-01,1.633894e+00,6.070375e-01,7.925166e-01,-1.030909e-01,-2.301201e-01,-4.379749e-02,2.546219e-01,3.190727e-01,-2.270709e-01,3.555770e-01,7.352227e-01,-1.599906e-02,2.339413e-01,-3.143511e-02,1.916633e-02,2.582472e-01,2.990657e-01,
-2.702217e-02,2.945394e-01,2.453734e-01,-1.434426e+00,6.681589e-01,1.560793e-01,5.821737e-01,-1.611991e-01,7.049032e-01,-6.381553e-01,9.159459e-01,5.173187e-01,3.825482e-01,-1.442364e-02,-5.403541e-01,2.103014e-01,-9.317784e-02,3.922556e-01,-2.862636e-01,5.548143e-01,1.873847e-01,4.662020e-01,5.510750e-02,-9.129298e-01,-1.050346e+00,3.874800e-02,7.000028e-01,-2.690688e-01,-7.469910e-01,3.369593e-01,-9.250112e-01,1.105325e-01,6.504878e-02,-1.090750e-01,8.404312e-01,1.495175e+00,-1.354479e+00,1.678042e-01,-4.903857e-01,-1.467070e-01,-8.297225e-01,6.963462e-01,-4.273804e-01,-1.712319e+00,3.820220e-02,-6.937014e-01,5.278434e-01,2.151199e-01,-1.103728e+00,-4.798805e-01,
-1.658170e-02,-1.420870e-02,1.858630e-02,-1.475008e-02,-1.378114e-02,-3.987049e-02,-3.330002e-02,-4.544568e-02,-3.486451e-03,-2.994106e-02,1.602990e-02,9.556290e-03,7.139870e-03,-4.482345e-02,-4.899909e-02,3.553880e-02,1.687370e-03,3.500430e-02,-3.227080e-02,4.745940e-02,-2.106594e-02,-2.284369e-02,-5.032241e-02,-1.707342e-03,-5.190412e-02,-4.407154e-02,1.843540e-02,1.516850e-02,3.303700e-02,-2.599433e-02,1.610110e-02,2.335350e-02,1.028160e-02,1.204090e-02,-2.150757e-02,2.144210e-02,-4.618246e-02,-6.928971e-03,-5.892264e-02,5.105790e-03,-5.165538e-02,3.663470e-02,2.805600e-02,-8.651464e-03,-4.166820e-02,-2.871834e-03,2.217790e-03,-4.803110e-02,-1.259286e-02,-3.541681e-02,
-2.624128e-02,1.930404e-01,-5.758284e-01,3.928925e-01,7.837367e-02,2.033807e-01,1.947870e-01,-3.520230e-01,7.267606e-01,2.314779e-01,-3.094182e-01,-1.387365e+00,9.533276e-02,-1.378377e-02,-1.121841e-01,-9.938197e-01,-3.154158e-01,7.415994e-02,-4.030246e-01,2.030704e-01,-2.998191e-01,-2.124759e-01,-4.437268e+00,-1.069509e+00,-1.924093e-01,-1.048123e-02,2.903649e-01,-7.034086e-02,-4.480980e-02,-8.588023e-05,3.186642e-01,1.350804e-01,-1.529850e+00,-5.236822e-01,3.320311e-01,-7.420350e-01,2.038586e-02,-1.549401e-01,-2.169426e-01,3.354560e-01,6.443954e-01,8.495603e-02,-2.239808e+00,1.567335e-01,-1.212613e-02,-3.935925e-01,-5.225367e-01,8.549702e-01,-1.170918e-01,6.501990e-01,
8.733510e-03,3.348082e-01,-1.267444e-01,-7.214393e-02,-5.610003e-02,-9.355552e-01,-1.140867e-01,3.780063e-01,-3.086307e-01,-7.214896e-01,1.791184e-02,-8.267111e-01,-6.524479e-02,4.705080e-03,1.807733e-01,4.046847e-02,9.838426e-02,6.188595e-01,-4.195957e-01,7.773265e-02,1.250382e-01,1.337627e-01,-7.277256e-01,-1.098058e+00,5.767787e-01,4.713280e-03,-3.147396e-02,1.033192e-01,1.640436e-02,3.295540e-02,8.627930e-02,-2.122585e-01,5.714782e-01,-4.243648e-02,3.865556e-02,1.974367e-01,-5.241085e-01,-3.184051e-03,-7.454087e-01,-1.021136e-02,-7.508298e-02,-2.582307e-01,2.840523e-01,9.655967e-02,-2.858509e-02,2.916889e-03,-7.067487e-01,5.396275e-01,1.457221e-01,-9.748840e-01,
1.498860e-02,5.893881e-01,1.972076e-01,9.974947e-01,-1.983513e-01,4.110288e-02,2.310661e-01,-3.184135e-01,-5.234869e-01,-1.511191e+00,-1.719448e-01,-1.397004e+00,1.516912e-01,-5.269834e-02,4.792431e-01,-8.951113e-01,-2.295090e-01,1.059250e+00,2.085772e-01,-2.129641e-02,-4.406041e-01,4.322872e-01,-4.601425e-02,-1.323252e+00,-1.184169e-02,3.882670e-02,-1.625368e+00,-1.909950e-01,1.076827e+00,-9.432454e-02,8.092556e-01,-1.985256e+00,1.414731e-01,6.723444e-01,-1.033756e+00,3.015516e-01,-9.203649e-01,-5.278466e-02,1.202880e-01,-5.240718e-01,-7.416475e-02,1.039661e-01,-6.781361e-02,4.953083e-01,-4.824057e-02,2.237905e-01,-1.443267e+00,-4.250106e-02,2.493142e-01,1.143051e+00,
-3.686938e-02,1.217128e-01,3.866358e-01,-1.047513e+00,1.205854e+00,2.768005e-01,1.157338e-01,4.714253e-02,-3.704841e-01,-1.008715e+00,4.187770e-01,8.641922e-01,3.680975e-01,3.600290e-02,1.222812e-01,1.571851e-01,1.224065e-01,-1.444516e+00,-4.755597e-01,5.098927e-01,-4.237999e-02,-1.871247e-01,-1.096158e-01,-6.997567e-01,1.194089e+00,4.100570e-02,1.068994e-01,1.308540e-01,7.067077e-01,9.741395e-01,-1.211185e+00,8.757727e-02,-3.831124e-01,-7.380345e-02,1.564773e-01,5.889428e-01,-2.520388e-01,-1.046268e-01,-1.116454e-01,-2.698636e-01,-1.061277e+00,6.612465e-01,4.527676e-01,-1.348032e+00,-2.971542e-02,2.821766e-01,8.242430e-01,-2.192232e-01,3.225287e-02,7.753482e-01,
2.175550e-03,-1.067902e-01,2.171116e-01,3.236516e-01,5.681120e-01,-2.777754e-01,4.415968e-01,-3.597048e-02,-3.659502e-01,1.798261e-01,1.678173e-01,6.935153e-02,4.146593e-01,-3.195832e-02,-2.161015e-01,2.293790e-01,-4.154692e-02,3.049139e-01,-1.226211e-01,-8.337209e-02,-8.084978e-02,1.227279e+00,-7.756979e-01,-8.164454e-01,2.232099e-01,-5.753097e-03,1.257957e-01,3.221799e-01,-4.371538e-02,4.705592e-01,-4.900728e-02,-7.355386e-01,2.469074e-01,7.176509e-02,-6.185350e-01,-1.098720e+00,-1.734957e-01,4.440545e-02,-1.806410e-01,-3.798207e-01,-2.334738e-01,-1.408407e-03,-1.526448e+00,1.016615e-01,3.617400e-03,-1.002906e+00,-8.328872e-02,-2.680125e-01,4.146059e-01,-3.052665e-01,
1.487480e-02,9.190990e-03,1.542610e-02,-5.539033e-02,-7.458486e-03,-1.346751e-02,-3.579891e-02,-8.091825e-03,2.567840e-02,9.946850e-03,-3.341677e-02,1.347410e-02,-2.494989e-02,-8.013054e-03,1.456230e-02,2.101920e-02,2.154110e-02,-2.939895e-02,2.265200e-03,3.544830e-02,-3.132465e-02,-2.875803e-02,3.145920e-02,-4.995721e-03,-2.467342e-02,4.204970e-02,2.288730e-03,-2.259589e-02,9.490650e-03,-4.385335e-02,2.428100e-02,-2.670465e-02,8.865120e-03,-3.642859e-02,-6.325494e-02,-5.849823e-02,1.285610e-02,2.478290e-02,-5.429602e-02,-6.670901e-02,4.200400e-02,-1.952947e-02,2.804430e-02,7.574010e-04,-4.748971e-02,-1.405257e-02,-2.361271e-02,-1.239966e-02,8.483340e-04,-5.625165e-03,
2.605020e-02,-2.994705e+00,-1.612180e-02,4.876740e-02,1.071866e-01,3.842104e-01,7.128563e-02,-5.620377e-02,1.682737e+00,-1.302913e+00,9.120710e-01,-7.228515e-03,-1.247988e+00,-1.055544e-02,-1.267885e-01,1.000264e+00,6.367228e-01,9.305544e-01,-5.179461e-01,-6.427386e-01,-4.014717e-01,-2.185375e+00,8.053215e-01,6.698344e-01,-1.700454e-01,-5.680584e-02,-1.738454e+00,-2.568048e-01,1.615078e-01,-1.042606e+00,2.073114e+00,1.639776e+00,-6.966676e-01,-1.881946e-01,-5.720558e-01,-1.038145e+00,3.828861e-02,1.371933e-02,5.543563e-01,6.851714e-01,-1.461789e-01,-2.607864e-02,1.385604e+00,-2.381305e-01,3.541550e-02,-1.162591e-01,8.780764e-01,-1.098972e-01,1.796950e+00,7.230165e-01,
-4.476118e-02,-3.590674e-02,6.001990e-02,7.788610e-02,4.844440e-02,-1.943235e-01,-1.245982e-01,4.449750e-02,8.455710e-02,-3.469715e-02,2.139080e-02,1.752530e-02,5.135100e-02,-1.082686e-02,4.510160e-02,-1.846162e-01,7.186620e-02,7.446000e-02,-1.217002e-01,3.799240e-02,-1.410517e-01,1.119680e-02,-5.127633e-01,1.369880e-01,8.184560e-02,-2.935191e-02,-2.052319e-02,-1.005669e-01,-1.637706e-01,-1.308867e-01,5.667630e-02,-1.993719e-03,5.852880e-02,-1.641255e-01,-2.549295e-03,-8.989428e-02,-1.671316e-01,4.123630e-02,-1.949062e-01,-2.730430e-01,8.601870e-02,7.514570e-02,-2.463457e-02,2.668570e-02,2.315760e-02,4.626020e-02,5.340120e-02,1.007400e-01,6.828010e-02,-3.212338e-01,
1.445880e-02,-1.666518e+00,6.592075e-01,6.357099e-01,4.556506e-01,1.975456e-01,-2.195434e-01,-1.277346e-01,1.057872e+00,7.408790e-01,-1.034776e+00,-1.513879e+00,2.718416e-01,-3.642565e-02,5.525940e-03,1.144699e-01,-1.351980e-01,6.897570e-01,3.715478e-01,-1.735188e-01,1.409120e-01,8.187014e-01,-4.816518e+00,1.315160e-02,-6.792061e-01,1.439900e-02,2.817282e-01,4.686916e-01,-6.002504e-01,-5.619830e-01,-1.966136e-01,1.668544e+00,-3.078379e-01,1.007342e+00,-6.744748e-01,-2.955540e-01,1.977135e-01,2.407994e-01,-4.236907e-01,-3.195570e-01,8.585156e-01,8.186255e-01,9.913155e-02,-7.232420e-01,-2.798932e-02,5.051026e-02,-4.084899e-02,5.646505e-01,2.871394e-01,-1.268263e+00,
4.092840e-02,-1.753038e-02,4.099100e-02,4.351710e-03,-3.499388e-02,2.272090e-02,-1.177312e-02,3.311300e-03,-4.383613e-02,3.028770e-02,-9.114146e-03,1.066700e-02,-5.577936e-02,4.189500e-02,-7.229102e-03,2.655960e-02,8.081020e-03,-5.824728e-02,1.581400e-02,-5.280786e-02,-1.112097e-02,-1.024651e-02,-3.227878e-02,8.111080e-03,-5.745842e-02,-1.613220e-02,8.863580e-03,-5.513287e-02,3.229430e-03,-3.879403e-02,-6.622612e-03,-1.589196e-02,1.463090e-02,-4.337644e-03,3.932760e-02,-5.932720e-02,1.153640e-02,-2.209221e-02,-3.586506e-02,-1.649728e-02,2.337270e-02,1.721980e-02,-2.939160e-02,1.304800e-02,1.567870e-04,1.956570e-02,1.880110e-02,2.756160e-02,4.687800e-02,2.146050e-02,
1.952630e-02,5.185090e-02,1.032161e-01,-4.229578e-01,-1.388614e-02,4.792869e-02,3.332043e-01,4.215046e-01,-2.209704e-01,-1.753405e-01,9.853206e-02,-1.060836e+00,6.696804e-01,-1.251789e-03,-1.060206e+00,7.017441e-01,3.396938e-01,-7.749430e-01,2.077340e-01,1.013859e-01,2.249657e-01,2.481948e-01,-6.367840e-01,1.044627e-01,-1.364191e-01,4.713950e-02,-2.718313e-01,-3.188304e-01,2.358486e-01,-2.531959e-01,-3.944188e-01,-1.487167e-01,9.687646e-02,-6.144463e-01,8.076988e-01,-3.826536e-01,-1.195541e-01,2.188245e-01,-2.778961e-01,8.231959e-01,-7.769800e-02,1.088234e-01,5.963341e-02,8.723290e-03,-2.690908e-02,-1.260105e-01,2.405487e-02,-6.560914e-02,-2.518100e-01,-7.744222e-01,
-1.670581e-02,3.144550e-02,2.012370e-02,-2.616369e-02,-4.485243e-02,2.927220e-02,-2.041693e-03,-1.442343e-02,-2.533072e-02,-4.655500e-02,-8.395632e-03,-1.684441e-02,-4.315867e-02,1.282120e-02,1.247240e-02,-1.157121e-02,-4.928521e-04,-2.572027e-02,-4.167628e-02,-1.297180e-02,-1.863519e-02,3.404670e-03,-3.796674e-02,-1.979659e-02,1.050770e-02,-3.402871e-02,7.795050e-03,-3.329686e-02,-5.375118e-03,2.707760e-02,2.742710e-02,-4.349058e-02,3.523020e-02,-3.049053e-02,-2.298376e-02,-3.841509e-02,-3.065233e-02,-1.945345e-02,-9.367932e-03,1.326770e-02,-2.582223e-02,-3.075628e-02,-6.607776e-03,-6.363168e-03,3.718370e-02,1.293680e-02,-4.066860e-03,-3.092071e-02,-9.689525e-03,-2.911209e-02,
1.111320e-02,-7.686577e-01,-2.311449e-01,8.666176e-01,5.012856e-01,-1.835452e-01,3.493701e-01,3.241163e-02,-1.396626e+00,-1.068774e+00,-3.959371e-01,8.179333e-01,-4.792525e-01,-1.346593e-02,3.891076e-01,-2.549683e-01,-1.271907e-01,4.296062e-01,6.763297e-02,-6.592088e-01,2.265579e-02,8.332678e-01,-8.564682e-02,1.260023e+00,-8.498710e-01,-5.091397e-02,2.912139e-01,-2.739051e-01,9.085258e-02,-2.199750e-01,6.688666e-01,-8.165419e-02,-3.600943e-02,3.174720e-01,-2.158023e-01,-3.389285e-01,1.216988e+00,3.463871e-02,3.015347e-01,4.223424e-01,-2.077467e-01,-4.125649e-01,2.922247e-01,1.328641e-01,-3.779527e-02,-1.189146e+00,-2.173279e-03,5.995459e-02,3.121082e-02,5.629472e-01,
-3.748489e-02,-5.972084e-01,6.951435e-01,5.750912e-02,-3.240720e-02,4.680931e-01,6.121280e-01,2.480695e-02,-7.175385e-01,1.832959e-01,6.115649e-02,5.742788e-01,6.298575e-01,9.549320e-03,4.395520e-02,8.645104e-01,-2.049169e-01,8.646204e-01,1.390179e-01,3.847495e-01,7.359954e-01,-5.808653e-01,-5.170178e-01,6.447241e-01,-8.008161e-01,3.990070e-03,8.245706e-02,8.438836e-01,7.516961e-01,-2.532663e-01,-7.089778e-01,1.113904e+00,-5.437246e-01,-5.170767e-02,1.268288e-01,-2.151786e-01,-7.042423e-02,-6.757716e-02,-9.962168e-01,-1.752460e-01,-4.191442e-01,-1.699740e-01,9.603264e-02,-8.228377e-01,4.665920e-02,-7.177747e-01,1.208175e+00,1.520203e-01,-2.624528e-01,-6.862831e-02,
3.995400e-02,-4.027149e-02,1.379808e-01,1.853827e-02,-2.862321e-02,1.879594e+00,7.317628e-01,-1.548078e+00,-1.054977e-01,-3.710112e-02,1.530155e-02,4.530825e-02,2.772052e-01,-2.598004e-02,-1.508955e-01,1.700349e-01,-5.832183e-01,5.063044e-03,-2.964034e-02,6.218548e-02,4.047788e-01,1.480157e-01,-3.530058e-02,1.376901e-01,7.465045e-02,-3.137085e-02,-4.343377e-02,-6.570711e-02,7.161755e-02,5.697406e-02,1.380274e-01,-2.809149e-02,-1.259811e+00,1.254771e-02,1.298797e-01,-1.173207e-02,4.986902e-02,-1.259706e+00,3.231672e-01,-2.090739e-02,1.810368e-02,-3.172502e-02,1.941942e-01,-2.136991e-02,3.815540e-03,-3.025281e-01,6.821031e-02,-1.525944e+00,2.127990e-02,-1.119982e-01,
-4.184145e-02,-5.963076e-01,4.088126e-01,1.850478e-02,1.929010e-01,-1.467438e+00,5.116501e-01,-4.402702e-01,-1.272589e+00,-4.138680e-01,7.592888e-01,-2.074191e-01,-1.857817e-01,-1.583977e-02,-8.339478e-01,-8.179405e-01,8.506659e-02,-1.333311e+00,1.446011e-01,-6.542707e-02,-4.542216e-01,3.386727e-01,-2.620873e-01,-8.168548e-01,-3.297294e-01,-3.669025e-02,8.390014e-01,1.253373e-01,3.463704e-01,-1.337553e-01,-1.698553e+00,-1.336576e+00,1.573458e-01,1.786290e-01,6.331890e-01,-6.684856e-02,-8.809059e-01,-3.843441e-01,-1.923799e+00,7.388788e-01,1.969282e-01,-6.818815e-01,-8.104697e-01,-1.394116e-01,1.979090e-02,-2.330737e-01,2.288487e-02,4.474431e-01,-3.914190e-01,-1.544497e+00,
-2.983879e-02,9.873837e-01,-3.180513e-01,-2.562315e-01,9.237579e-02,4.137405e-01,-3.877933e-01,1.800642e-01,-4.026487e-01,-2.685910e+00,-2.509993e-01,3.440535e-01,3.935567e-01,-2.721894e-02,2.851818e-01,-1.401445e-01,5.372105e-01,-3.506601e-01,-1.393140e+00,5.303135e-01,-9.213056e-02,2.123467e-01,-3.511441e+00,1.843720e-01,6.476347e-01,1.700670e-02,6.725075e-01,3.418484e-01,-3.932869e-01,-5.185004e-01,6.742546e-01,-1.261375e+00,3.096427e-01,3.319397e-01,-1.368066e-01,5.474399e-01,9.842010e-01,3.005411e-01,-4.315143e-01,-8.860718e-01,-4.512123e-01,-3.822609e-03,-3.666390e-01,1.641383e-01,2.463810e-02,5.897254e-01,-5.726269e-01,-2.327440e-01,3.915840e-01,4.766672e-02,
2.817220e-02,7.217931e-01,3.386509e-01,6.363503e-01,4.823868e-01,-3.556108e-01,-6.590387e-01,-1.686646e-01,1.074906e-01,2.561002e-01,-1.244397e+00,3.957796e-01,1.143019e-01,-3.866436e-02,2.556268e-01,-4.976779e-01,3.070276e-01,6.481031e-01,1.311978e+00,9.680117e-01,1.718514e-01,-1.551459e-01,-8.266009e-01,4.013654e-01,-1.829457e-01,2.312110e-02,-5.454645e-02,8.391043e-01,3.487129e-01,1.979155e-01,1.740369e+00,-2.356651e-01,-5.774170e-01,6.650437e-02,1.513814e-01,-1.475145e+00,-4.195117e-01,1.286490e-01,4.401810e-02,1.038710e-01,-8.984104e-01,4.333381e-01,-7.143475e-01,1.135302e+00,-1.569634e-02,-4.134532e-01,4.600095e-01,5.827652e-01,-9.763824e-01,-3.520597e+00,
6.092980e-02,7.811430e-01,-4.377156e-01,-3.847578e-01,7.196317e-01,6.551399e-01,-8.115166e-01,-3.495135e-01,1.256721e+00,4.727807e-01,8.194317e-01,-9.625697e-01,2.637249e-01,2.184890e-02,-1.416733e-01,-7.451366e-01,-6.844530e-01,-1.503589e-01,1.743811e+00,-2.415525e-01,-1.106143e+00,-4.498053e-03,-5.457417e-01,-1.775140e-01,7.012709e-01,1.695150e-02,8.404251e-01,-3.712012e-01,-8.090890e-01,-3.636024e-02,7.066574e-01,3.810393e-01,7.189642e-01,-2.400289e-01,9.465475e-01,-3.095883e-02,-2.796990e-02,3.561873e-01,-2.119194e-01,-7.687134e-01,6.245775e-01,4.663028e-01,-2.777145e+00,4.074284e-02,2.651120e-02,1.303363e+00,1.172015e-01,2.423396e-01,5.779744e-01,1.620196e+00,
-4.649788e-02,-1.396258e-01,-1.807449e-01,-1.667988e-01,-1.096452e+00,1.862626e-02,4.401705e-01,2.092814e-01,-6.779808e-01,-1.105681e+00,-8.167330e-01,-6.335447e-01,2.481507e-01,4.122970e-02,4.488267e-01,1.811533e-02,-6.056137e-01,-7.230373e-01,4.160278e-01,-1.487566e-01,6.406354e-01,4.977916e-01,-4.397043e-01,-4.262790e-02,3.599390e-02,-1.651639e-02,6.774400e-01,-1.439015e-01,4.513278e-01,-1.702228e-02,-1.290345e+00,-6.868123e-03,6.314452e-01,-3.705838e-01,-6.786454e-01,-7.180120e-01,5.499900e-01,-1.723890e-02,5.130489e-02,1.497982e-01,5.294666e-01,2.821119e-01,1.440064e+00,8.699121e-02,-4.773142e-02,2.317829e-03,-1.180315e-01,-5.765602e-01,1.473244e+00,-1.386136e+00,
-3.347610e-02,4.717529e-01,-4.749076e-03,-3.802218e-01,-5.476359e-02,9.715935e-01,-6.725743e-01,-5.850831e-01,1.898442e-01,-9.125298e-01,2.447580e-01,1.909339e-01,-3.208264e-01,8.484350e-03,2.380016e-01,2.566292e-01,8.485968e-01,3.064646e-01,-6.166849e-02,8.288684e-01,-1.264378e+00,6.150824e-01,-4.853436e+00,9.135300e-02,2.716368e-01,2.526040e-02,-2.045012e-01,8.398732e-02,2.400826e-01,1.096049e-02,6.509198e-01,7.930960e-01,-9.469183e-01,-1.616223e+00,-2.154484e-01,-7.711220e-01,-3.690109e-01,6.689413e-01,-1.261207e+00,-3.299688e-01,8.423639e-03,7.822711e-02,-1.709085e+00,3.963020e-02,1.551270e-02,2.370041e-01,-9.239895e-02,-1.821351e-01,8.462493e-01,1.216039e+00,
3.407670e-02,-1.148794e+00,-4.632652e-01,2.623805e-01,9.263374e-01,-2.648677e-03,2.513538e-01,-1.580261e-02,3.663653e-01,4.743821e-01,5.979289e-01,2.394408e-02,-1.609146e-01,-2.747461e-02,-5.076844e-02,-7.246301e-01,-2.440767e-01,-1.858909e-01,-1.504734e+00,7.315027e-03,2.000329e-01,-2.117524e-01,-5.629270e-01,6.083052e-01,6.021544e-01,-9.715230e-03,-1.616402e-01,-2.775202e-01,-3.846538e-01,3.072007e-01,-1.670770e-01,-3.167808e-01,1.312342e-01,-3.890544e-01,-2.224624e-02,3.400477e-01,1.511915e-01,1.600126e-01,-2.394231e-01,-2.514277e-01,8.571860e-01,-5.593749e-01,-4.615873e-01,7.801172e-01,6.653220e-04,-3.557767e-01,2.080386e-01,-3.756437e-02,-5.457228e-01,-7.125783e-01,
9.681910e-03,1.648219e-01,-6.665862e-01,4.429083e-01,5.571557e-01,5.890673e-01,-1.234359e+00,-5.191777e-01,-1.954459e-01,9.352570e-01,1.097731e+00,1.725630e-01,-3.020514e-01,9.523440e-03,1.227888e-01,-1.058169e+00,-1.156900e-01,4.898922e-01,-4.213240e+00,7.651371e-01,-2.352126e-01,1.053383e+00,5.077700e-01,3.416950e-02,-3.195559e-01,1.749290e-02,-3.206175e-01,1.398336e-01,-5.413653e-01,-5.158986e-01,3.037550e-01,1.754838e-01,-4.529731e-01,2.165053e-02,-6.350358e-01,6.374057e-02,4.316539e-01,-4.798636e-01,-6.316978e-01,-5.566564e-01,4.837197e-01,-9.362420e-02,-4.093561e+00,1.270714e-01,-5.972410e-03,1.127856e-01,4.230722e-01,-2.728498e-01,1.111221e+00,1.459148e-01,
-4.766044e-02,1.773261e+00,-3.337750e-01,-1.375279e+00,-4.163218e-01,1.183137e-01,9.036240e-02,3.103338e-01,-1.773565e+00,4.663407e-01,-4.904119e-01,5.377669e-01,1.609577e+00,-4.941972e-02,2.044742e-02,2.625528e-01,6.561891e-01,6.854779e-01,-4.409548e+00,-1.072197e+00,-1.263056e-01,2.890461e-01,-1.164922e+01,-4.784115e-01,9.016514e-02,-2.250874e-02,1.555519e-01,8.398751e-03,-3.515925e-01,1.141104e-01,-8.534043e-01,2.763300e-02,-9.455186e-01,6.341587e-01,3.476316e-01,-2.168029e-01,1.521633e-01,3.280578e-02,-1.446490e-01,-1.737036e+00,2.464679e-01,1.670050e-01,-1.828617e-01,-1.893549e-01,-2.487093e-02,1.303438e+00,-5.855808e-01,2.855549e-01,2.297557e-01,-4.202677e-01,
-3.623403e-02,2.967330e-03,1.814510e-02,-3.462711e-02,-4.598937e-02,1.726040e-02,-2.966050e-02,-4.436334e-02,3.035530e-02,-2.144856e-02,3.843450e-02,-2.465358e-02,-2.564804e-02,8.437650e-03,2.039590e-02,9.159730e-04,-3.921025e-02,-1.347360e-02,-2.187580e-02,-1.586130e-02,-3.711487e-02,-9.063043e-05,2.484440e-02,2.807670e-02,1.118030e-02,2.355230e-02,-3.307385e-02,9.132900e-03,-1.297317e-03,-5.676394e-02,4.222120e-02,-9.775448e-03,-1.348042e-02,-1.605765e-02,-1.919211e-02,9.031220e-03,-3.440703e-02,-4.424122e-02,-3.813474e-02,1.636110e-04,4.466300e-02,1.894480e-02,3.314540e-02,2.831550e-02,-3.051268e-02,2.740150e-02,-1.920293e-02,2.454560e-02,2.475130e-02,-2.362626e-02,
-1.296214e-02,-4.622047e-02,-1.461757e-03,-1.734873e-01,2.050122e-01,-1.576732e+00,-3.216433e-01,7.863480e-01,2.425479e-01,3.806023e-01,6.464673e-01,9.815780e-02,-2.798691e-03,1.316050e-02,5.119432e-02,-4.711822e-01,4.447458e-01,-3.140644e-03,-6.671259e-02,-1.520557e-01,1.517231e-01,3.378487e-01,-1.925112e+00,1.888350e+00,-4.994661e-02,-2.887531e-02,-1.788255e-03,-1.076649e-01,-3.252910e-01,-2.005048e-02,6.416025e-01,7.476020e-01,1.322276e+00,-1.144143e-02,2.845038e-01,-5.214982e-01,-8.154237e-01,9.022193e-02,-4.264554e-01,-3.840060e-01,2.619372e-01,9.708169e-02,-4.836216e-01,-4.740267e-01,-1.150191e-02,1.356264e-01,2.009164e-01,9.617546e-01,7.652628e-01,1.788302e-01,
2.093240e-02,-3.226377e-02,1.915627e-01,1.061388e-01,6.273457e-01,-8.394256e-02,3.243861e-01,-3.890586e-01,2.951955e-01,-4.145253e-01,-5.239017e-01,3.877064e-01,-1.240911e-01,-2.483103e-02,3.899303e-01,-1.876927e-01,4.217906e-01,1.250542e-01,-3.772366e-01,-5.707936e-01,-3.928501e-01,1.498370e-01,2.573991e-01,1.481819e-01,-2.015905e-01,-4.203097e-03,-6.962256e-01,2.796306e-01,-1.018048e+00,4.808121e-02,-2.691937e-01,-1.625757e-01,-2.359350e-01,-5.926809e-01,-5.754504e-01,2.697278e-01,2.408677e-01,-2.257447e-01,2.608519e-01,-4.922946e-01,-3.051783e-01,5.683365e-01,6.421884e-01,-4.661181e-01,-4.092039e-02,4.625683e-01,-2.470492e-01,4.219950e-02,1.372675e-01,5.448734e-01,
-4.493590e-02,3.202136e-01,-1.090792e+00,4.113006e-01,-1.503138e+00,-2.228299e-01,1.722882e-01,-2.709913e-02,2.528159e-01,1.321916e+00,-6.579825e-01,-7.350955e-01,-2.002686e-01,3.846830e-02,1.140437e-01,7.228645e-02,-2.691864e-01,1.541185e+00,5.441828e-01,-5.406429e-01,-8.668915e-02,-2.557285e-01,-2.157204e-01,1.047489e+00,-1.790071e+00,4.116840e-02,2.398541e-01,-1.493436e-01,3.271486e-01,-2.279161e+00,2.027736e+00,8.026141e-01,9.470916e-02,-3.865596e-02,-5.353708e-01,-1.339432e+00,2.357159e-01,7.615785e-02,3.406443e-01,-1.155777e-01,8.279440e-01,-6.899697e-01,-4.470553e-01,1.267908e+00,1.806750e-02,1.746185e-01,-6.783052e-01,-2.653843e-02,9.029013e-01,-6.523996e-01,
2.725340e-03,-5.745621e-02,-1.491913e-02,2.487340e-02,2.654990e-02,3.775500e-02,-1.462524e-02,3.911400e-02,-5.345886e-02,-2.813223e-02,-3.667965e-02,-1.157940e-02,-5.087281e-02,-5.273215e-02,-3.321580e-02,8.753910e-03,-2.080270e-02,-2.353271e-02,8.103180e-03,-2.451193e-02,-3.721263e-02,-5.199421e-03,-7.820505e-03,5.934150e-03,-5.302122e-02,4.172750e-02,3.658680e-02,-2.458071e-02,-4.585812e-03,5.474970e-04,7.956060e-03,-7.719295e-03,-5.098369e-02,-2.929899e-02,-4.013804e-02,-5.541448e-03,-3.789534e-02,1.695910e-02,-2.512009e-02,-5.357520e-02,-5.279075e-02,-5.600595e-02,9.754700e-03,3.872040e-02,-3.257132e-02,-4.024314e-02,-2.862048e-02,-8.311296e-03,3.655390e-02,-3.128496e-02,
1.567850e-02,1.039660e+00,-4.024303e-02,-4.278834e-01,3.254862e-01,-6.158229e-01,-3.242358e-01,-9.339823e-02,4.643273e-01,-7.559192e-01,1.577774e-01,3.483647e-01,-5.114833e-01,-3.809137e-02,1.924634e-01,-6.289584e-02,4.542906e-01,3.867089e-01,-6.524395e-01,-1.040508e+00,-1.173700e-01,3.910373e-01,-1.805181e+00,2.849560e+00,5.855829e-01,2.949200e-02,-1.009937e+00,3.743247e-01,-7.342052e-02,3.103082e-01,-2.456758e-01,4.515890e-01,1.547000e+00,-3.050145e+00,-3.251146e-01,8.409609e-01,1.125617e-01,-4.164027e-01,-3.436650e-01,-6.148306e-01,-2.634051e-01,-2.047836e-01,-2.469159e-01,-4.216485e-01,5.271670e-02,4.854933e-01,5.736945e-01,2.310575e-01,1.035135e-01,2.763825e-01,
1.401720e-03,-9.380605e-01,8.380827e-01,7.183955e-01,1.289537e-01,5.410597e-01,-7.416675e-01,1.673889e-01,-1.058400e+00,5.247186e-01,5.258767e-01,2.847610e-01,2.081383e-01,4.423480e-02,-1.246738e+00,-5.729524e-01,-2.263075e-01,3.589215e-01,2.528232e-01,-3.636927e-01,3.653443e-01,4.170148e-01,4.379424e-02,8.067056e-03,6.297532e-02,5.211520e-02,7.548334e-01,5.732380e-02,7.948930e-01,3.944965e-01,4.599777e-01,1.184011e-01,3.875466e-01,-3.137253e-02,-3.163115e-02,-1.365809e-01,-6.613351e-01,4.954981e-01,-8.309091e-01,1.172854e+00,1.403230e-01,5.796630e-01,6.703640e-01,2.947384e-01,-6.842031e-03,6.104727e-01,4.291066e-01,4.711696e-01,-4.982764e-01,-8.525391e-01,
3.930880e-03,2.574138e-01,2.802827e-01,8.746982e-02,3.016286e-01,2.233413e-01,-5.557744e-01,1.219926e-01,-2.925678e-01,-4.326451e-01,7.985258e-01,2.269042e-01,-1.093575e-01,3.038330e-03,-2.336397e-01,3.737895e-02,8.628560e-01,6.937661e-01,-3.306723e-02,3.093972e-01,-2.067723e-01,5.206439e-01,5.116710e-01,1.179730e+00,-2.207656e-01,-2.709934e-02,-4.202100e-02,-5.376325e-03,-1.338235e-01,-2.272567e-01,1.146102e+00,9.852060e-01,7.726522e-01,-7.136020e-01,-1.479712e-01,-8.708972e-01,-5.064801e-01,7.613752e-01,2.051702e-01,-1.371394e+00,1.942527e-01,-2.014057e-01,-1.714849e+00,1.487944e-02,4.005940e-03,7.126665e-01,-3.973074e-01,2.354131e-01,9.815062e-01,4.685573e-02,
4.288150e-02,-3.817044e-01,3.051913e-01,2.331595e-01,-3.310041e-01,7.392244e-02,3.716571e-01,7.766241e-02,-7.715284e-02,2.462155e-02,-2.054608e-01,6.774653e-01,6.474332e-01,-1.868034e-02,4.266649e-02,5.976127e-01,3.619002e-01,-9.309184e-02,2.425435e-01,3.670590e-01,-1.943949e-02,-4.429236e-01,-3.418601e-01,1.672135e-01,1.224363e-01,1.392360e-02,5.099567e-01,8.941533e-01,-2.013259e-02,1.312090e-01,5.760465e-01,-4.114824e-01,2.337354e-01,-6.330082e-01,2.508760e-01,-7.019113e-03,-8.863994e-01,7.414575e-02,-1.565487e-01,6.014792e-02,-5.704534e-02,-3.467961e-01,-4.351662e-01,7.441901e-04,-2.221884e-02,-8.007898e-01,-2.333089e-01,-1.874260e-01,1.427457e-01,-8.060850e-01,
-8.408000e-01,
-9.004621e-01,
6.262162e-01,
8.492116e-02,
-1.866973e-01,
-6.709804e-03,
-6.096993e-03,
9.916385e-02,
-5.784974e-03,
-8.730645e-01,
-9.087361e-01,
-2.848177e-01,
-2.952548e-01,
2.767695e-01,
-3.336144e-02,
5.511113e-01,
-2.370060e-02,
1.217358e-01,
-1.696107e-01,
-1.242612e-01,
7.910173e-01,
7.506582e-01,
-2.046061e-02,
-1.418203e-01,
-4.571920e-02,
-2.191276e-01,
-1.246728e-02,
6.020469e-02,
-9.479221e-03,
-1.264084e-01,
3.739606e-03,
8.051836e-01,
7.268737e-01,
-4.734607e-01,
-7.637185e-01,
-9.303871e-01,
2.068920e-01,
-4.292547e-01,
-5.136809e-02,
-6.379338e-02,
2.250232e-01,
-1.842729e-02,
-3.450468e-01,
5.818436e-01,
-6.117226e-01,
-1.522720e-02,
-4.247113e-01,
-1.128393e+00,
-6.563130e-01,
-1.953451e-01,
2.255998e-01,9.281832e-01,-2.833163e-01,-5.885691e-02,6.009064e-01,-4.411869e-02,2.089810e-02,1.141634e-01,-4.889188e-01,1.267294e-01,-8.778987e-01,-9.677524e-01,-5.912844e-01,-9.474948e-02,-5.221387e-01,-1.011832e-01,-3.472518e-02,-1.233141e-02,1.138027e+00,1.749112e+00,-2.573077e+00,2.288873e-02,-1.140048e-03,3.900805e-01,-5.139571e-02,1.010398e+00,-2.071566e-03,-6.102904e-02,1.393290e-03,3.922936e-01,9.359679e-01,1.338193e-01,9.619054e-01,-2.234599e-01,6.434169e-01,-1.986180e-01,2.510455e-02,-1.081983e+00,5.535678e-01,1.095619e+00,9.978840e-01,-3.219604e-02,-1.623478e-01,3.835041e-01,1.132238e-01,-2.818494e-03,1.133330e+00,-5.104302e-01,7.652740e-01,4.722564e-01,
1.491709e-01,-1.838203e-01,-3.021995e-01,-4.033564e-01,-1.710723e+00,-2.470450e-02,-3.383919e-02,-6.378424e-01,5.830976e-01,-4.226859e-01,7.560752e-01,-1.616664e-01,-9.987043e-01,1.980949e-01,3.649307e-01,5.611764e-01,1.023840e-02,-6.551443e-02,-1.930635e+00,-3.905506e-01,-2.295258e-01,6.018763e-01,-1.923222e-02,-2.263695e-01,-5.904465e-02,5.081727e-01,-1.209474e-02,7.927414e-01,9.476840e-03,2.734891e-01,-1.112066e+00,4.988080e-01,-1.040117e-01,7.532750e-02,-9.401836e-01,1.542258e-01,-8.776939e-02,-1.061938e+00,-4.526707e-01,1.121116e+00,-4.297125e-01,-3.136035e-02,-5.291149e-01,4.659693e-01,-1.326370e+00,-2.816604e-02,-2.109114e+00,2.054398e-02,-2.155272e-01,-1.247589e+00,
-7.165032e-01,-2.531035e-02,-5.262925e+00,1.430767e-01,-3.619822e-02,3.081580e-02,4.772960e-02,1.946930e-02,7.152148e-01,6.054587e-01,3.339450e+00,8.389032e-02,-1.554346e+00,1.820647e+00,7.678128e-01,-1.947550e-01,6.389750e-03,-6.098630e+00,4.364756e-01,-2.480341e+00,6.266817e-02,-3.646597e-01,-5.075962e-02,7.750100e-01,1.277480e-03,-4.329402e-01,2.558010e-02,1.560308e+00,-1.048513e-02,-7.745388e-01,-7.549762e-01,3.064911e-01,1.110892e+00,-1.086046e+00,3.360737e-01,2.202190e-02,-7.467831e-01,4.090230e-02,-8.550675e-01,-1.370260e+00,3.807010e-02,2.002920e-02,4.187390e+00,-1.962282e+00,-9.401405e-01,2.594420e-02,-4.160751e-02,-2.708916e+00,-1.650369e-01,-1.591380e+00,
-3.017322e-01,8.999949e-01,-1.040916e-01,1.271046e-02,1.788833e-01,-4.764028e-02,3.929970e-02,5.661653e-01,8.110221e-02,8.431298e-01,-7.764782e-01,3.554240e-01,9.063306e-03,-2.416869e-01,-2.418255e-01,3.968318e-03,-9.469970e-04,-3.354487e-01,1.399899e+00,-4.440051e-02,1.740837e-01,1.286239e-01,4.136200e-02,1.219312e-01,-2.408899e-02,-3.185605e-01,4.114180e-02,-5.651593e-01,-5.354979e-02,4.286719e-01,3.138397e-01,-1.404396e+00,2.694011e-01,2.421502e-01,6.477219e-02,-3.741664e-03,2.643921e-01,-1.714513e+00,-4.896580e-01,-9.580745e-01,7.078029e-01,4.435030e-02,-1.568983e-01,3.164553e-01,-7.919089e-01,3.279040e-02,7.883200e-01,-7.677852e-02,-2.233696e-01,-4.290793e-01,
4.817461e-01,2.925360e-01,-4.846495e-01,4.535430e-02,-1.525167e-01,-2.080827e-02,-3.383163e-02,-1.683853e-01,-8.587645e-01,-7.002261e-02,-3.732214e-01,-2.225464e-01,-1.686478e-01,3.468690e-02,2.527511e-01,3.046155e-01,4.447850e-02,-5.960335e-01,-5.393272e-01,-1.751347e+00,-7.590534e-01,-2.950174e-01,-5.059162e-02,6.803890e-02,7.024550e-03,4.171400e-02,9.045900e-03,1.084625e+00,4.605850e-02,-1.863781e+00,1.329877e-01,-1.694185e-01,1.642538e+00,9.954510e-01,-3.113344e-01,1.246470e+00,-7.258314e-01,-2.077425e+00,-5.109248e-01,-6.807255e-01,7.179530e-01,-3.088491e-03,7.254330e-01,-2.320920e-01,3.785445e-01,8.781710e-03,1.190830e+00,2.342090e+00,2.416150e-01,8.209629e-01,
-1.172545e-01,-1.069740e-01,-5.105404e-01,-2.397507e-01,3.701732e-01,5.751480e-03,-5.161999e-02,8.929487e-01,-1.023670e-01,-6.308725e-01,1.009995e+00,6.537727e-01,2.684444e-01,-9.326467e-02,2.649218e-01,2.758060e-01,-6.729953e-03,-2.657508e-01,4.482680e-01,-2.610584e-01,4.170329e-01,-1.086582e+00,2.742080e-02,-2.184241e-01,2.100500e-02,-1.678603e-01,-9.534314e-03,-4.232235e+00,-6.993535e-03,1.470163e-01,6.446738e-02,-3.256722e-02,-8.679583e+00,-1.239031e+00,-4.213860e-01,4.487714e-02,-8.377047e+00,1.827212e+00,2.864873e-01,-1.109115e+00,9.408236e-01,-3.769594e-02,-4.827889e-01,-1.913142e-01,4.982436e-01,-4.376788e-02,-1.054190e+00,-3.680344e-01,7.880124e-01,-9.565353e-02,
-2.830065e-01,-1.796014e+00,-1.625064e+00,-6.300766e-01,-1.773922e+00,-6.857928e-03,-4.900108e-02,2.742010e+00,9.868551e-01,-3.008491e-01,7.682983e-01,-5.544567e-02,-1.441975e-01,2.137052e+00,4.278498e-01,-8.005945e-02,-2.356105e-02,1.440115e+00,3.548687e-01,8.044584e-01,-8.480493e-02,8.417912e-01,8.575120e-03,3.875497e-01,3.525470e-02,3.769768e-01,-3.533008e-02,1.238023e-01,3.416650e-02,-2.222230e+00,4.467191e-02,-1.204801e-01,1.994051e+00,-6.500812e-01,-1.700097e-01,3.721511e-01,1.000322e+00,-2.578296e+00,-7.960869e-02,1.474835e+00,2.099022e+00,-5.523714e-02,1.719786e+00,4.479221e-01,2.252456e-01,-1.444800e-02,2.739217e+00,2.017064e+00,-6.454770e-01,4.978360e-01,
3.485727e-01,6.819944e-02,1.247368e-01,-1.421637e-01,-2.563249e-01,2.840390e-02,-2.220267e-02,-3.916027e-01,-2.327314e-01,8.165577e-02,1.973785e-01,1.198628e-01,2.784064e-01,2.132716e-01,-5.019388e-01,8.347132e-01,-3.522246e-02,1.060187e+00,2.817570e-01,5.843984e-01,3.906375e-01,1.668964e-01,3.937910e-02,1.764472e-01,1.489530e-01,4.642909e-01,3.403450e-02,-1.287615e-01,-9.114934e-03,2.615658e-01,-5.448785e-01,-7.391055e-02,4.255282e-01,4.077694e-01,3.813967e-01,3.025816e-01,8.415404e-02,-4.805031e-01,-5.368493e-03,1.024460e+00,-3.258139e-01,4.613440e-02,-2.087904e-01,3.008849e-01,-2.400216e-01,3.351310e-02,2.143584e-01,4.169791e-01,-8.910215e-01,-1.627678e+00,
2.223826e-01,5.990480e-01,3.063000e-03,4.731342e-01,1.954653e-01,4.169330e-02,-4.222554e-02,5.216564e-01,-5.187273e-01,-6.288838e+00,3.076186e-01,1.864837e-01,4.981581e-01,-9.071401e-01,1.671848e-01,9.944721e-02,3.290150e-03,-2.709567e-02,1.939355e+00,3.127277e-01,4.058789e-01,-5.182999e-01,-6.333338e-04,2.379351e-03,-1.477350e-02,-4.792504e+00,4.013610e-03,6.208398e-01,4.193090e-02,2.001118e-01,2.601888e-01,1.534554e-01,-7.270987e-02,-2.449713e+00,1.105629e+00,-2.753593e-01,-5.537815e-01,5.927905e-01,-4.587376e-01,9.928545e-01,-1.332030e-01,3.469670e-02,9.355830e-01,-5.698844e-01,-7.900956e-01,4.167130e-03,-4.447621e-01,1.415400e-02,-1.597344e-02,-2.730840e-01,
1.919746e-02,-4.662493e-01,7.320278e-01,4.080132e-01,6.416138e-02,6.314640e-03,-3.127855e-02,6.622134e-01,-2.286018e-01,1.638976e+00,4.303629e-01,-2.077068e-01,-4.379644e-02,1.614843e-01,8.572137e-02,3.348950e-01,3.149810e-02,2.357523e+00,7.088109e-01,6.369005e-01,-1.024211e+00,2.339452e-01,-3.927777e-02,1.171835e+00,8.155940e-02,5.142469e-01,-4.657317e-02,1.324092e+00,4.715250e-02,-1.043392e+00,3.778958e-01,-2.900425e-01,-4.889640e-01,1.048194e+00,-9.671161e-01,-2.740489e-01,1.332250e+00,7.118199e-01,1.043580e-01,5.331343e-01,6.913043e-01,1.369050e-02,4.317940e-01,9.273250e-01,7.663631e-01,1.129440e-02,-9.654330e-02,1.306966e+00,9.222215e-02,5.739951e-02,
-2.440483e-01,-2.445628e-02,-1.026448e+00,1.935591e-01,1.130823e+00,1.582960e-02,4.822000e-02,4.745174e-01,-4.231174e-01,-8.200793e-01,-4.163061e-01,-4.216768e-01,4.934024e-01,-4.791223e-01,5.163497e-01,4.114656e-01,-2.861229e-02,-2.053590e-01,-2.064730e+00,7.268269e-01,4.480466e-01,3.508711e-01,1.404130e-02,2.206765e-01,-3.383541e-02,2.224292e-01,-3.127624e-02,4.487228e-01,-2.761542e-02,5.544181e-01,-3.839104e-02,3.991985e-01,9.214911e-01,-5.420635e-01,1.836208e-01,3.079406e-01,-3.335031e-01,5.006585e-02,3.613923e-01,-2.193964e-01,-1.645119e-01,2.854230e-02,-3.521196e-01,-6.087878e-01,-1.056311e+00,2.821230e-02,8.675361e-02,-3.588501e-01,-4.367023e-01,9.108619e-02,
-1.140772e-01,-1.979691e-02,1.127755e-01,8.031595e-02,9.462840e-02,-1.455121e-02,-6.829609e-03,-2.037315e-01,3.788361e-02,1.168052e-01,-6.816663e-03,-9.571044e-02,-2.056446e-01,2.304928e-01,1.817321e-01,1.115222e-01,-4.298500e-02,9.592530e-02,1.183329e-01,-1.518804e-01,1.177620e-02,-1.104327e-01,-4.106382e-02,1.649038e-02,-3.308256e-02,-2.065045e-01,-4.308801e-02,6.782135e-02,-3.948294e-02,-1.423432e-02,1.459019e-03,1.374859e+00,1.605301e-01,1.107990e-02,4.633072e-02,1.775521e-01,-1.010197e-01,6.824695e-01,2.013164e-01,2.413086e-01,1.084955e-01,-5.244939e-03,-5.130762e-01,-6.440343e-02,4.577299e-01,-5.164582e-03,3.802774e-01,-8.985301e-02,-3.641683e-01,2.443742e-01,
1.470252e-02,-1.052215e+00,4.513839e-01,1.256169e-01,-1.084755e+00,-3.345048e-02,-3.069874e-02,-5.765140e-01,6.199200e-01,3.491124e-01,1.977418e-01,-2.682908e-01,-1.188148e-01,1.907856e-01,3.202602e-01,3.478262e-01,4.785230e-02,5.370815e-01,1.767643e-01,1.840986e-01,3.006018e-01,1.359214e-01,3.880500e-02,-4.165077e-01,8.050180e-02,2.116619e-01,-5.461659e-02,-1.203079e-01,-8.109014e-03,2.950576e-01,3.210326e-01,-1.278123e-02,-6.678703e-01,1.281031e-01,-1.747252e-01,-7.408264e-01,2.433539e-01,-6.512079e-01,1.378279e-01,-3.161917e-01,-1.477812e-01,-1.136499e-02,-6.797028e-02,-1.359362e+00,-5.969932e-01,5.097240e-02,-7.458465e-01,-1.024720e-01,9.468815e-01,6.154803e-02,
-8.552312e-02,2.147764e-01,-5.975382e-01,1.280496e-01,6.321243e-01,3.484550e-02,1.551390e-04,-2.674991e-01,5.579883e-01,7.258713e-01,-8.837450e-02,-2.217694e-01,3.660270e-01,3.836679e-01,7.337249e-03,1.888725e-02,-7.968334e-04,-6.846619e-01,-2.888035e-02,-2.433627e-01,2.609997e-01,-1.468425e-01,2.133580e-02,-6.020490e-01,6.339300e-02,-1.174803e-01,-6.585558e-03,-8.664222e-01,4.872890e-04,3.052663e-02,1.110578e-01,-1.100484e+00,2.462197e-02,1.898295e-01,3.169274e-01,-3.115602e-01,-1.182752e-01,1.359170e+00,2.017827e-01,-4.263126e-01,-5.017057e-02,4.255190e-02,-1.660165e-01,-5.838630e-01,4.080800e-01,-3.690687e-02,4.860257e-01,-1.472971e-01,8.104859e-02,-2.997341e-01,
8.427593e-05,1.235161e+00,-4.326378e-01,2.678705e-02,8.036895e-01,-2.381494e-02,-1.374166e-02,-5.757948e-02,7.176984e-01,7.440171e-02,3.225459e-01,1.730077e-01,-5.492319e-01,-3.217525e-01,9.088774e-02,5.042254e-01,-3.822472e-03,8.323730e-02,-8.731821e-01,3.684048e-01,5.612963e-03,1.685970e-01,-7.994490e-03,-3.353815e-01,7.862110e-02,4.541618e-02,-1.128299e-02,5.713376e-01,-1.531698e-02,3.477000e-01,2.244805e-01,-8.568871e-01,-3.755241e-01,2.021163e-02,2.100094e-01,7.412236e-01,-8.792689e-01,-1.391775e+00,3.618673e-01,-1.126114e-01,-7.886266e-03,3.325150e-02,7.191814e-01,-1.622512e-01,-1.274112e-01,1.629910e-02,3.450312e-01,6.522979e-01,-3.585256e-01,-3.579702e-01,
5.317786e-01,-7.801647e-01,4.121365e-02,4.252181e-02,1.245489e+00,3.615920e-02,-2.871509e-02,7.902961e-01,4.208319e-01,1.892797e-01,3.162045e-01,-1.220761e-01,-4.900833e-01,-8.894308e-01,-4.145956e-01,3.128350e-02,-7.596561e-03,-3.366562e-01,3.646135e-01,6.644080e-01,-2.676114e-01,-6.418639e-01,-1.906758e-02,-9.105253e-01,-5.230039e-02,1.568241e-01,-4.874698e-02,1.943453e-01,-2.753331e-02,5.543668e-01,1.908949e-01,-7.534674e-02,-9.269190e-01,-4.962699e-01,6.147507e-01,-2.848209e-02,-8.534242e-02,-2.926339e+00,1.585379e-01,-9.990760e-02,1.312858e-01,2.637730e-02,8.359981e-01,-1.804194e-01,1.068199e+00,-4.933530e-02,3.474929e-01,-5.409327e-01,5.361990e-02,3.341112e-02,
7.234896e-02,-5.870171e-01,-9.726454e-01,3.626109e-01,2.602860e+00,3.458350e-02,-3.864147e-02,4.768533e-01,1.368000e-01,2.179099e-01,4.430357e-01,-4.299393e-01,9.493133e-01,-2.176870e-01,-1.043179e-01,7.711957e-01,-5.195694e-02,1.894015e+00,5.970398e-01,2.904751e+00,9.426469e-01,-4.707370e-01,1.347040e-02,3.559248e-01,-4.945563e-02,2.718377e-01,1.335430e-02,1.591487e-01,-4.689363e-02,7.254629e-01,1.241698e+00,1.142694e+00,9.588107e-01,-3.351799e-01,5.788378e-01,2.296558e-01,1.760787e-01,7.835426e-01,9.939755e-01,1.500107e+00,5.804015e-01,1.026340e-03,6.264802e-01,-8.319129e-01,2.144359e+00,-3.450898e-02,1.035738e+00,-5.063331e-01,8.026797e-01,4.724787e-01,
3.330855e-01,-3.284106e-01,3.666838e-01,2.519716e-01,-7.960837e-02,-8.161219e-03,-4.948954e-02,1.804525e-01,1.935579e-01,1.153414e+00,1.286922e+00,-2.470408e-01,9.862331e-01,8.970613e-01,5.460619e-01,2.562048e-01,-3.193533e-02,-2.389569e-01,-5.375800e-01,3.418813e-02,9.322759e-02,2.716610e-01,2.238740e-02,2.954101e-01,2.699990e-02,-6.872565e+00,3.086830e-02,5.307729e-01,4.277270e-02,-4.242483e-01,-1.666486e-01,-2.991618e-01,8.101276e-01,-1.729035e+00,-2.208822e-01,-2.761227e+00,-1.222735e+00,6.779451e-02,-6.417862e-01,-5.808002e-01,9.482641e-01,-3.211457e-02,-1.044895e+00,-6.065524e-01,-1.376382e-01,1.806670e-02,-2.482557e+00,-4.958740e-01,-1.984363e+00,1.080775e+00,
-1.093932e-01,3.084868e-01,4.860295e-01,-4.836531e-01,1.177876e+00,4.436410e-02,5.882730e-03,-8.956268e-02,6.697719e-01,6.890553e-01,-1.053591e+00,3.666926e-01,3.408011e-01,-1.222326e+00,8.070810e-01,-5.313472e-02,-1.127899e-02,1.671667e+00,-8.178796e-01,2.646386e-01,3.203998e-01,-5.242461e-01,2.471540e-03,6.778934e-01,-2.576994e-02,3.426517e-01,1.786670e-04,2.048991e-01,-3.331576e-02,5.458738e-01,8.886527e-01,7.631635e-02,3.420133e-01,9.762858e-01,5.197646e-01,6.788862e-01,-2.456685e-01,1.801812e+00,6.981426e-01,2.697215e+00,2.484295e-01,-3.070987e-02,1.235294e+00,1.723423e-01,8.330996e-01,-5.324875e-03,-1.260682e-01,1.484353e+00,-6.163804e-01,1.612568e+00,
6.639949e-01,1.087776e-01,3.037776e-01,-9.462117e-02,2.415315e-01,-3.025596e-02,-3.496584e-02,-7.168864e-01,9.021798e-01,2.753142e-01,-1.019156e+00,8.622745e-02,-6.226479e-02,5.386773e-01,1.089228e-01,-9.865264e-02,2.705100e-02,-9.690806e-01,7.194516e-04,9.172159e-02,-4.880830e-02,-4.956462e-01,-8.373182e-03,9.927529e-01,4.027300e-02,1.700206e-01,3.322670e-02,-1.836492e-01,-3.279717e-02,-5.335333e-01,1.146894e-01,1.889423e-01,8.850110e-02,5.839826e-01,-6.382362e-01,-3.945417e-01,5.020848e-01,-2.171137e+00,5.865518e-02,7.982594e-01,1.592781e-01,3.914330e-02,-4.429288e-01,3.674685e-01,1.075305e-01,2.518520e-02,7.629782e-01,6.680977e-01,-7.235172e-01,5.736831e-01,
-2.135049e+00,1.318686e+00,-6.919867e-01,-1.350741e+00,-1.209463e-02,-2.297074e-02,-2.791162e-02,1.768900e-01,7.672859e-01,-5.077201e+00,-8.250795e-01,-1.688232e+00,2.086742e+00,4.249097e-01,-9.432129e-01,3.407878e-01,-4.790593e-02,1.178069e+00,9.888126e-01,1.224879e+00,9.497338e-02,9.073184e-01,-2.667577e-02,-4.607400e-01,3.207930e-02,-3.501456e-01,-5.134248e-02,5.519888e-01,-5.945341e-03,-4.095672e+00,6.375642e-01,3.513955e-01,-9.245008e-01,-5.121354e-01,-1.186542e+00,-9.969707e-01,2.105846e-01,-2.123730e+00,1.608027e+00,1.851517e+00,-2.988142e-01,3.360750e-02,2.683845e-01,6.401299e-01,-4.845183e-02,3.262800e-02,-8.656546e-01,1.379409e-01,1.100893e+00,-2.868337e+00,
-7.852750e-02,-3.746977e-01,-4.869333e-02,-4.968505e-02,2.903376e-01,-2.698752e-02,4.201720e-02,-1.303575e-01,1.486818e-01,1.378851e-01,1.313983e-01,-1.806042e-01,-1.550755e-01,4.058410e-01,2.814665e-01,1.421249e-01,3.907710e-02,9.405080e-01,2.184051e-01,1.115037e-01,1.865409e-01,6.017782e-02,-4.807173e-02,1.369059e-01,6.573390e-02,1.461433e-02,2.650530e-02,3.221661e-01,3.114750e-02,8.067987e-02,1.349781e-01,-1.358794e+00,4.653382e-01,8.250033e-03,3.009486e-02,-1.913919e-01,-1.789021e-01,-1.492795e-01,4.484573e-01,-1.175317e+00,-1.765229e-01,3.972190e-02,1.737065e-01,-7.077262e-02,3.984870e-01,-5.450004e-03,1.536297e-01,1.363883e-01,3.598108e-01,2.819239e-01,
2.150800e-01,-1.740574e+00,6.805591e-02,2.385994e-01,4.490621e-01,-5.342326e-02,1.806560e-02,5.862526e-02,-3.094854e-01,-1.535394e+00,-5.426074e-01,-2.134419e-01,-3.196536e-01,-2.129064e-01,9.565455e-03,-3.894072e-02,-1.761028e-02,-1.115887e+00,1.074455e+00,5.146235e-01,1.908940e-02,3.272864e-01,-1.650127e-03,1.125835e-01,9.545110e-03,-7.907151e-01,3.779940e-02,1.308045e+00,4.401600e-02,-3.533387e-01,-9.241102e-02,2.190187e-02,4.971789e-01,-1.150936e+00,4.006863e-01,-1.332114e+00,2.156985e-01,-3.504344e+00,-2.430844e-02,-2.943832e-02,-3.063574e-01,-5.192061e-02,7.209170e-01,8.545763e-01,-5.159122e+00,2.356360e-02,-9.222128e-02,-1.382986e+00,3.274550e-01,-1.279645e-01,
9.029369e-01,-3.798574e-01,-4.030593e-01,3.738767e-02,4.825779e-01,-3.051835e-02,-6.383884e-03,1.432231e+00,-5.811414e-01,-7.996789e-01,3.658389e-01,6.535472e-01,1.832281e-02,-5.961343e-01,-3.870583e-01,-1.049874e-01,-2.601648e-02,1.116410e+00,-3.732970e-01,-2.702437e-01,-9.507277e-02,3.519747e-01,3.434040e-02,4.173403e-01,1.380090e-01,-5.138018e-01,-3.449869e-02,1.408384e+00,-3.406851e-02,3.680922e-01,7.258083e-01,-2.664375e+00,5.881911e-02,-4.188681e-01,8.436110e-03,-1.574968e-01,-1.117536e+00,1.841660e-01,2.738925e-01,9.094270e-01,4.636222e-01,1.756540e-02,-2.326149e-02,9.908776e-01,3.694215e-01,2.367050e-02,-8.474255e-01,3.390943e-01,7.640524e-01,-3.667734e-01,
-1.694899e-01,-1.472478e-01,-7.080717e-01,-2.728456e-02,8.331414e-01,1.217570e-02,2.050180e-02,8.930607e-01,-1.302514e-01,-2.441376e-01,5.404939e-01,-9.014302e-02,5.324424e-01,1.906327e-01,-5.521814e-01,1.586161e-01,2.167260e-02,4.103743e-01,-4.535916e-01,7.287199e-01,1.718188e-01,3.012818e-01,2.963950e-02,-1.454849e-02,-4.625218e-02,1.790294e-01,-3.018015e-02,1.005811e+00,2.323050e-02,-2.093689e-01,5.374929e-01,-4.829066e-02,6.755317e-01,-6.965479e-01,-1.442385e-01,1.130120e-01,9.303647e-02,-1.049836e+00,-1.012562e-01,9.914571e-01,3.345762e-01,2.460930e-02,4.855605e-03,1.121967e+00,6.444876e-02,3.736390e-02,-1.666948e+00,-1.634440e-01,4.125955e-01,6.698212e-03,
9.534163e-01,1.937510e-01,1.488783e-01,-8.408504e-01,1.171671e+00,2.703980e-02,-3.317969e-02,-5.180679e+00,-1.322685e-01,4.787966e-01,7.936823e-01,-5.371715e-01,1.149614e+00,-1.772106e+00,3.372129e-01,6.379767e-01,-3.539802e-02,-6.848152e-01,-9.042579e-02,9.131143e-01,-2.558073e-01,-7.978656e-01,2.765150e-02,3.234075e-02,2.519950e-02,-2.029692e+00,-2.908269e-02,1.458181e+00,3.495190e-02,5.185366e-02,-3.322641e-01,9.129272e-02,-3.855726e-01,6.518082e-01,1.433973e-01,-1.981413e+00,-1.202334e+00,2.085810e-01,-1.198617e-01,8.178490e-01,-1.733791e+00,1.192100e-02,-4.893945e-01,2.929904e-01,-3.537650e-01,4.405800e-02,-1.745845e+00,-2.594130e-01,-3.169614e+00,1.047490e+00,
-2.458050e-02,-4.903637e-02,1.694710e-02,1.497390e-02,-5.459370e-02,3.881010e-02,-3.131226e-04,6.840070e-03,2.139670e-02,1.252000e-02,4.158650e-02,-2.033378e-03,-2.604976e-02,-1.291510e-02,-3.927420e-02,-3.996268e-02,-1.197073e-02,3.154930e-02,2.674680e-02,1.213470e-03,7.667260e-03,-3.493392e-02,-3.574116e-02,-4.557284e-02,-4.045492e-02,-2.060058e-02,4.666780e-02,2.032560e-03,-3.135762e-02,-5.127108e-02,-1.084692e-02,-4.911259e-02,-1.851318e-02,7.019450e-04,-3.480204e-02,-3.549756e-02,-1.751316e-02,-3.755535e-03,3.831580e-03,4.118730e-02,-4.101699e-02,2.509800e-02,-4.245013e-02,-5.032293e-02,-3.243009e-02,2.687130e-02,-5.051350e-02,-5.461963e-02,-8.619985e-04,-2.273922e-03,
-1.056940e-01,5.649383e-01,-1.045262e+00,2.196514e-01,-8.708605e-03,7.754230e-03,1.880020e-02,7.196770e-01,-1.035045e+00,-7.778893e-01,2.142022e-01,-2.165541e-01,6.746139e-02,-2.393475e+00,9.567449e-02,1.976807e-01,3.641270e-02,-3.753204e-01,4.659679e-01,4.257036e-01,5.603851e-02,-2.127394e-01,-3.332469e-02,-2.291058e-01,-1.971396e-02,1.013118e-01,-3.870226e-02,4.044820e-01,-3.160237e-02,2.801987e-01,-5.490712e-02,-1.360947e-01,4.949735e-01,-6.800241e-01,3.572226e-01,-3.853342e-01,4.362125e-01,1.683989e+00,4.037937e-01,1.803694e+00,2.529213e-01,3.659780e-02,3.746410e-01,8.321534e-01,-1.842445e-01,3.443300e-02,4.284955e-01,-1.383123e+00,-1.335831e-01,1.738243e-01,
1.282476e+00,1.576757e+00,5.549368e-02,-3.236205e-01,2.780904e-01,4.481500e-02,-3.708789e-02,4.385855e-01,4.028942e-01,-4.110309e-01,3.564511e-01,-1.193220e+00,-1.639207e-01,-8.488367e-02,-1.125547e+00,4.801094e-01,4.884190e-02,1.550219e+00,-1.124319e+00,-3.066325e-01,-8.438272e-01,4.152456e-01,-6.674167e-03,-5.957458e-01,1.621750e-01,-5.966603e-01,-3.049599e-02,1.302665e+00,-4.068729e-02,4.107952e-01,8.008139e-01,1.060751e-01,1.379618e+00,-1.013855e+00,9.419707e-01,-3.766014e-01,1.464283e-01,-5.094516e-01,2.105000e-01,-5.689299e-01,4.877890e-01,-4.682265e-02,-1.341333e-01,1.960914e+00,2.750317e-01,2.488330e-02,5.671709e-01,1.763760e-01,1.402440e+00,-9.527710e-01,
6.638093e-01,8.519192e-01,-1.457694e+00,6.481755e-01,-4.531191e+00,-1.805590e-02,9.235660e-03,-1.124235e+00,3.184144e-01,-1.295290e+00,-2.545179e+00,4.008344e-01,7.886615e-01,1.413419e+00,3.262956e-01,1.537917e+00,8.129120e-03,-1.960266e+00,3.687321e-01,-5.922850e+00,5.041717e-01,2.431515e-01,2.054680e-02,1.039490e-01,2.200870e-02,-1.476636e+00,-3.015075e-02,1.858209e-02,-3.585781e-02,-2.134513e+00,-1.419904e+00,4.528527e-01,7.903919e-02,-3.069790e+00,-2.160480e+00,-1.149960e-01,-5.951526e-01,-3.034216e+00,-1.204371e+00,-4.903553e+00,-1.945713e+00,1.165270e-02,-1.088451e+00,1.419120e+00,-7.678828e+00,-3.605280e-02,-9.637656e-01,1.415462e-01,-2.406936e-01,2.143504e-01,
-2.160900e+00,3.864537e+00,-8.897595e-01,-6.128808e-01,-1.184998e+00,-1.286617e-02,2.749870e-02,-1.447173e+00,4.196359e-01,-2.250538e+00,-4.109091e+00,-6.111640e-01,9.353756e-01,7.561952e-01,-7.034233e-01,-3.593352e-01,-8.148314e-03,-2.430992e-01,8.123346e-01,-1.986096e+00,4.014652e-01,2.709754e-02,2.698370e-02,-4.145368e-01,1.280590e-02,-4.345320e+00,4.368650e-02,-1.700118e+00,-3.080269e-02,1.878179e-01,7.807717e-01,1.634019e-02,-1.186846e-01,-3.566934e+00,-9.823453e-01,-6.293552e+00,-7.687700e-01,-6.719632e+00,6.801803e-02,-4.197217e+00,6.473243e-01,-8.867921e-04,-4.053714e+00,5.069712e-01,-1.140993e+00,-1.522090e-02,-1.537421e+00,-2.413551e-01,-2.102373e-01,-9.576640e-01,
2.224320e-01,-5.088100e-01,-5.753012e-01,-3.397537e-02,-9.875817e-03,1.866490e-02,-3.762213e-02,9.169260e-03,-2.828385e-01,2.869371e-01,1.867520e-01,1.966510e-02,-1.382241e-01,1.270890e-03,-1.328376e-01,4.230500e-01,-5.085475e-02,2.581005e-01,1.183800e-01,-1.628424e+00,-6.088908e-01,-1.157667e-01,3.697470e-02,-6.803958e-01,-2.796003e-02,-6.661630e-01,4.005520e-02,-3.969997e-01,-4.226219e-02,-8.831266e-01,2.207511e-01,-5.071185e-03,5.610632e-01,9.610675e-02,3.031308e-01,3.925918e-01,1.953484e-01,-1.493016e+00,-7.717657e-03,-1.252744e+00,1.556140e+00,3.584950e-02,-5.752005e-01,1.580976e-01,-5.460199e-01,4.365670e-02,1.648840e+00,-4.807708e-02,-8.073198e-01,1.342813e-01,
-3.252700e-01,-3.251220e-01,-4.665118e-01,-2.946741e+00,-1.965705e+00,3.060780e-02,3.451650e-02,-1.174341e+00,-2.620485e-01,1.741735e+00,2.139667e+00,-1.098835e+00,5.414572e-01,-9.359290e-02,-4.102150e-01,-2.080113e-01,-1.891943e-02,2.027404e+00,-7.934629e-03,2.067989e-01,1.629317e-01,-2.038753e+00,2.188920e-02,1.395132e+00,-1.141266e-02,-1.347076e+00,-5.255187e-02,-1.462482e+00,-1.234065e-02,9.563745e-02,-2.755452e-01,6.951321e-02,-7.011186e-01,-1.800488e+00,2.562396e-01,-6.785520e+00,-5.558962e+00,1.419710e+00,-2.214114e+00,1.569290e-02,-1.616611e+00,2.974510e-02,-4.777920e-02,-1.151209e-01,-1.252923e+00,-4.000720e-02,-3.163020e+00,-5.209375e-01,9.423150e-01,-1.308730e-01,
-6.428792e-01,-4.384768e-01,-2.271549e-01,2.937362e-01,-3.124548e-01,-2.038817e-02,-4.305924e-02,5.085969e-01,-7.216870e-01,-2.340355e-01,4.595911e-01,-5.423743e-02,-8.170953e-02,2.375503e-02,-3.215709e-02,-3.309516e-02,2.909350e-02,2.522506e-01,-1.829877e+00,-5.443683e-01,-7.737208e-02,2.365386e-01,3.493010e-02,3.563028e-01,8.218210e-03,-4.022424e-01,-7.158249e-02,1.279441e+00,-2.671116e-02,-4.272922e-01,6.212209e-01,6.683722e-01,-8.350251e-02,-1.616958e-01,-2.805432e-01,3.237733e-01,-2.371362e-01,2.240565e-01,2.281729e-01,-3.262822e-01,1.236125e-02,1.514250e-02,-6.463915e-01,2.698695e-01,6.029925e-03,-4.869679e-02,-3.640560e-01,-2.330223e-01,1.562399e-01,-1.181471e+00,
4.057764e-01,2.991565e-01,3.801283e-01,-3.463750e-01,6.931540e-02,3.191390e-02,-3.976854e-02,-6.480904e-01,-6.456565e+00,6.579975e-01,-1.293747e-01,-4.152151e-01,-1.680462e+00,-6.051139e-01,-1.077835e-01,-2.648919e+00,-2.098141e-02,-9.757965e-01,-5.806090e-01,-1.945209e-01,-3.135426e+00,-4.145410e-01,1.874150e-02,7.685500e-02,-4.712463e-02,9.241217e-01,3.026600e-02,-6.760488e-01,5.354580e-03,-3.380664e-01,1.059670e+00,4.569159e-02,-7.653733e-01,8.582230e-01,-5.208399e-02,-7.701561e-01,-2.288212e-01,4.632690e+00,2.261218e-01,7.564603e-01,5.760942e+00,-5.188543e-03,-4.548432e-01,3.774057e-01,8.948771e-01,5.081730e-02,-6.483466e+00,2.261340e+00,1.625940e+00,9.338338e-01,
-5.050332e-01,3.325949e-01,-2.337310e-01,-2.632056e-01,3.882090e-01,1.314650e-02,4.739890e-02,-1.170897e-01,1.288630e+00,-4.001340e-01,-5.811141e-02,-6.657168e-01,-3.523096e-01,-2.818084e-01,-3.314829e-01,5.748219e-01,1.425930e-02,6.418922e-02,2.017306e-01,-5.438150e-01,-5.368713e-01,3.202696e-01,-5.265928e-02,5.649716e-01,3.968530e-02,-4.931524e-01,2.612730e-02,-3.259704e-01,2.231870e-02,8.240414e-01,-6.274874e-01,1.499252e-01,7.785260e-01,-9.452719e-02,9.675430e-01,3.994493e-01,-5.842556e-01,1.471216e+00,2.136882e-01,1.138124e+00,-7.730320e-02,-1.439235e-02,4.457172e-02,1.014096e+00,-7.376061e-02,4.609880e-02,1.303181e+00,-3.361428e-01,1.058177e+00,1.971658e-01,
8.665830e-01,4.061946e-01,-7.428414e-01,2.611686e-01,6.757607e-01,3.189040e-02,2.172560e-02,1.457413e+00,1.309637e+00,-8.963240e-01,6.685465e-01,1.489488e-01,-2.447644e-01,7.344075e-01,9.620173e-02,1.114533e-01,-7.796638e-03,-2.395806e-01,-8.397101e-01,-1.172346e+00,-1.333101e-01,-5.305167e-02,2.899880e-02,6.538482e-02,8.062270e-02,-1.207857e+00,1.802840e-02,-6.502860e-01,-1.780590e-02,-1.791037e+00,8.583949e-01,1.301381e-02,-1.590068e+00,4.376694e-02,-2.580175e-01,8.005021e-01,-2.229591e-01,-1.973454e-01,-2.787046e-01,7.576085e-01,1.189227e+00,1.956740e-02,-5.230753e-01,6.609970e-01,-3.590601e+00,-4.226134e-02,2.552865e-01,8.861387e-01,7.104563e-01,-7.421252e-01,
2.681921e-01,3.027480e-01,1.416877e-02,1.870375e-01,-6.010777e-02,1.475010e-02,-5.047885e-03,2.271896e-01,3.141086e-01,2.462239e-01,1.916344e-01,3.786646e-02,2.304937e-01,5.766082e-01,-6.075741e-02,2.001636e-02,5.865130e-02,-1.429984e-01,-1.578223e-01,1.727936e-01,-3.532326e-01,6.126834e-01,2.652160e-02,-7.866431e-02,1.619550e-01,-1.457274e-01,2.836770e-02,2.480352e-01,4.148160e-02,-7.980472e-01,3.012146e-01,8.502509e-02,3.305673e-01,3.228162e-01,-1.978578e-01,5.912524e-01,-7.281309e-01,-5.089518e-02,2.968906e-01,-9.726339e-02,1.773800e-01,-2.662936e-02,5.662513e-01,1.626134e-01,1.966671e-01,1.558720e-02,4.475194e-01,-6.100321e-02,5.757253e-01,1.117924e-01,
1.991780e-01,-2.276935e-01,9.223132e-02,-4.510590e-01,3.555037e-01,1.279610e-02,1.544380e-03,-8.824410e-02,6.506559e-01,-1.644730e-01,-6.840634e-01,3.392012e-02,5.348780e-02,-2.533230e-01,8.395986e-03,-5.676594e-02,-1.263192e-02,-4.280944e-01,1.860823e-01,3.490344e-01,1.518062e-01,-4.099042e-01,-1.744134e-02,-2.335043e-01,-3.116788e-02,2.227750e-01,-1.451593e-02,-1.346425e+00,4.591670e-02,2.098926e-01,-3.251168e-01,-1.313938e+00,-7.872806e-01,2.676502e-01,8.600251e-02,2.055401e-01,2.011131e-01,-7.643706e-01,-1.336503e-01,-4.101174e-01,-2.983029e-01,-7.412107e-03,5.085454e-01,8.974418e-02,3.290135e-01,3.267110e-02,-7.922123e-03,-3.575859e-01,3.662089e-01,7.768074e-01,
9.482887e-02,1.489162e+00,3.480031e-01,5.824749e-01,3.682912e-01,-3.972748e-02,1.033670e-02,-1.158497e-01,-3.080385e-02,-2.396373e-01,7.514724e-01,-4.542237e-02,1.199689e-01,6.754053e-02,3.010693e-01,1.480485e-01,-4.156803e-02,9.922300e-02,5.834036e-02,3.935556e-01,-3.000889e-01,-2.034774e-01,-2.620695e-02,-7.631168e-01,1.368460e-01,1.065150e-01,-3.794133e-02,2.203042e+00,-3.950404e-03,-2.435002e-01,6.447659e-01,-1.193692e-01,4.654006e-01,-3.421572e-01,-2.001814e-03,4.368406e-01,-9.075528e-01,-6.538571e-01,-1.501983e-01,1.364071e+00,-4.735321e-01,-2.638125e-02,2.186740e-01,-6.301102e-01,5.070179e-02,-2.179747e-02,9.746810e-01,-4.565316e-01,2.580774e-01,-2.720014e-01,
3.196779e-01,3.221370e-01,7.667941e-01,2.423678e-01,2.068247e+00,-9.798485e-03,2.794300e-02,7.341315e-01,-5.083879e-01,-7.824841e-01,-1.560237e+00,1.185563e+00,-1.047676e+00,-3.422359e-01,-1.577793e+00,-9.905112e-01,-2.747419e-02,8.284987e-01,3.020525e+00,-2.005573e+00,-3.773311e-01,-9.306349e-01,4.105700e-02,-1.285735e+00,-1.959667e-02,5.548320e-01,-4.165003e-02,6.641469e-01,-1.271655e-02,-7.306687e-01,-8.914615e-01,1.602932e-01,-3.082611e+00,3.911870e-02,1.453580e+00,4.058260e-02,2.519086e-01,-3.127761e+00,-2.802439e-01,-1.668030e+00,-4.157212e+00,-4.050007e-02,-3.392518e+00,-5.472568e-01,-2.381242e-01,-3.285902e-02,-2.216560e+00,1.142308e+00,-2.765427e+00,-1.595328e+00,
1.506456e-01,2.794228e-01,3.012134e-01,5.882903e-01,-3.830011e-01,-2.787036e-02,-2.158002e-02,2.440018e-01,-2.135595e-01,1.741559e-01,1.108264e+00,3.159168e-02,6.120147e-01,-5.249674e-01,1.314960e-01,-1.423159e-01,-1.718608e-02,-7.497032e-01,9.966355e-01,-2.062652e-01,-9.608917e-02,-1.072512e-01,-4.698130e-02,-4.092721e-01,6.939150e-02,6.582958e-01,4.368520e-02,4.232545e-01,2.469600e-02,-7.724797e-02,-5.457648e-02,-1.273272e+00,6.287556e-01,3.246592e-01,3.836280e-01,5.965767e-01,-9.867112e-02,3.962210e-01,-1.315650e-01,6.131160e-01,1.544985e-01,2.053210e-03,9.361743e-01,-6.806929e-01,-4.406052e-01,1.751180e-02,7.890329e-01,2.354873e-01,6.683212e-02,-1.776107e-01,
-2.542354e-01,4.040320e-01,-5.129922e-01,2.683436e-01,7.472501e-01,1.135100e-02,-3.387520e-02,8.630892e-01,-5.747626e-01,2.248982e-01,5.758033e-02,2.095296e-02,-1.235125e-02,-3.134271e-01,3.190632e-01,-5.799843e-02,8.368060e-03,1.405041e+00,4.351712e-01,1.635377e-01,3.321076e-01,-1.247767e-01,3.481050e-02,-1.258866e-01,-1.335883e-02,-4.416195e-01,1.573320e-02,1.134075e-01,1.350790e-02,3.448300e-01,4.797851e-01,-7.069849e-02,6.055538e-02,-1.929049e-01,1.926645e-02,-1.517974e+00,2.190235e-01,6.919867e-01,-1.950501e-01,1.138053e+00,2.926843e-01,-6.233671e-03,7.064883e-01,-2.290837e-01,2.951185e-01,-1.659945e-02,-4.136653e-01,-7.359271e-01,-1.684231e+00,4.912051e-03,
-1.984762e-01,1.881290e-01,-1.352620e-01,-1.528180e-01,-1.626681e+00,-2.139144e-02,1.579270e-02,-2.009899e-01,-1.172178e-01,1.378783e+00,4.913660e-01,-1.814536e-02,-6.264562e-03,-1.324543e+00,-3.362362e-01,-3.703570e-01,8.289880e-03,-7.912359e-01,7.665890e-01,-2.196295e-01,-3.912342e-01,-5.568958e+00,1.346240e-02,7.283223e-01,-2.265406e-02,-4.840405e-02,-1.965264e-02,2.762476e-01,3.868700e-02,-1.930330e-01,1.600835e-01,-1.072354e-02,-2.347296e-01,-3.240426e+00,-8.720828e-02,8.282889e-01,6.523517e-01,-1.531099e-01,1.998036e+00,-1.505773e-02,7.312582e-01,1.498280e-03,4.418450e-02,-6.545983e-01,-2.631510e-01,-3.914505e-03,-7.953592e-01,6.422535e-01,2.132600e-01,-4.265698e-01,
3.548600e-01,7.261712e-01,-1.809097e+00,-3.182655e-01,4.370255e-01,2.554840e-02,-5.732285e-03,-2.313832e-01,1.976712e-01,-6.920739e-01,-8.005987e-02,-2.812404e-01,-2.278531e-01,7.210024e-02,-3.732981e-01,1.299762e+00,1.326950e-02,8.657492e-01,-3.547887e-01,3.859936e-01,5.537143e-01,5.789433e-01,-2.229801e-02,1.177659e+00,2.679280e-02,1.145071e+00,5.146890e-02,1.636555e-03,1.465250e-02,1.602079e+00,-3.811090e-01,-2.357607e-02,-2.506791e-01,-9.587508e-02,-6.647896e-01,6.515613e-01,5.417433e-02,1.462113e+00,-1.889527e-01,2.744936e+00,-1.850982e-01,2.038080e-02,-1.612086e-01,-1.351634e-01,-1.852819e-01,-8.610703e-03,-5.348217e-01,2.296026e-01,-4.226911e-01,-4.902786e-01,
4.600166e-02,-5.821630e-02,1.308216e-01,-7.569575e-02,-1.104978e-01,-2.502423e-03,-3.012943e-02,-3.183988e+00,-7.732683e-01,-1.204192e-01,-1.197777e+00,-1.187970e-01,9.778445e-02,-1.067493e+00,1.403307e-01,-1.084566e-03,-2.472561e-02,-6.424361e-01,7.199331e-01,1.110868e-02,5.382776e-02,-5.842525e-02,4.925020e-03,4.595093e-02,-4.806427e-02,7.707372e-02,3.503710e-02,-4.027117e-01,3.864910e-02,8.531518e-02,2.637769e-02,-4.106004e-01,2.529736e-01,-3.139899e-01,-3.815343e-01,2.032695e-01,5.100004e-02,-2.299489e-01,2.377504e-01,1.761700e+00,-5.992811e-01,-4.689111e-02,-4.908645e-01,-1.436379e-01,-4.060675e-01,1.069100e-02,-1.667788e-01,3.868276e-01,3.444850e-02,9.241422e-01,
-2.620485e-02,-3.261205e-02,2.574780e-03,9.457990e-03,-3.828730e-02,-1.613041e-02,-1.404543e-02,1.365290e-02,-5.160519e-02,1.972640e-02,-1.745446e-02,-3.782362e-02,3.947040e-02,-1.805989e-02,6.873930e-03,-1.372581e-02,-4.233432e-02,-3.809861e-02,-1.974367e-02,-1.375867e-02,-6.328528e-02,-6.315928e-02,8.118760e-04,-4.041135e-02,2.132250e-03,-7.490626e-03,2.748470e-02,-2.402264e-02,3.500500e-02,-3.271338e-02,-2.732866e-02,6.223470e-03,-1.750245e-02,3.583560e-02,1.985790e-02,-5.063352e-02,-4.312129e-03,-5.076876e-03,3.175150e-02,3.680930e-02,4.068370e-02,-5.562690e-04,-3.079135e-02,-5.914629e-02,-2.395333e-02,2.712440e-02,-4.414473e-02,2.848790e-02,-5.334871e-02,-1.310221e-02,
8.967560e-01,6.604455e-01,-1.691203e-01,4.633748e-01,-2.472277e-02,3.163130e-02,-4.921906e-02,-3.170811e-01,-1.344861e-01,3.412922e-01,6.552141e-01,1.227675e-01,-1.477791e-01,8.598231e-01,-3.219751e-01,-4.908550e-01,4.337460e-02,1.676320e-02,-4.878289e-01,9.195002e-01,-5.429917e-02,9.404306e-02,-2.838328e-02,3.536195e-01,7.086790e-02,-8.215672e-02,-1.563702e-02,6.966293e-02,-1.445976e-02,4.260342e-01,1.857849e-01,-2.229045e+00,-6.220494e-01,-2.083882e-01,-1.262468e+00,-7.827026e-02,-1.093942e+00,1.754990e+00,1.004112e-01,3.166770e-01,1.585255e-01,3.104350e-02,1.272408e+00,-7.831687e-01,1.953257e-01,2.201410e-02,6.299571e-01,5.462386e-02,1.382529e+00,-2.743104e-01,
2.912092e-01,2.523305e-01,1.701472e-01,5.636262e-01,-5.050700e+00,-2.756785e-02,-1.420125e-02,2.212497e+00,-2.112967e+00,-3.205629e-01,-5.846410e-01,-2.233854e+00,1.135974e+00,-5.748498e-02,-3.451528e+00,3.581072e-01,-3.697155e-02,-7.830406e-01,-2.262046e+00,-2.425930e-01,3.010917e-01,4.235793e-01,2.695210e-02,4.299414e-01,-2.826033e-02,-2.645853e-01,2.274350e-03,-5.027474e-01,-1.476804e-02,1.486432e+00,1.100169e+00,-7.172540e-02,9.516720e-01,-1.177186e+00,-1.071105e+00,9.491403e-01,-4.947149e-01,-1.494286e+00,-9.209823e-03,-1.231093e-01,3.875962e-01,-2.822988e-02,-1.706229e+00,-7.644871e-01,-3.484110e+00,3.882950e-02,-1.418602e-01,-7.821019e-02,-1.926540e+00,-1.180189e+00,
-1.432672e+00,-6.358317e-01,1.119660e-01,-8.684613e-02,2.474161e-01,2.998940e-02,-1.687035e-02,7.727424e-01,1.044601e+00,5.009786e-01,2.664104e-01,-6.112018e-01,-1.826317e-01,-3.764334e-01,-6.467296e-01,-4.115926e-01,-1.893003e-02,-1.712854e+00,2.230875e-01,7.226232e-01,-2.496049e-01,3.302181e-01,-3.747691e-02,7.075638e-01,9.450010e-02,-3.372159e-02,-1.696401e-02,-9.710368e-02,-1.234915e-02,5.071737e-01,-1.087390e+00,-7.078469e-01,6.933040e-01,-2.663724e-02,1.053236e+00,-1.420524e+00,-3.403375e-01,-3.567669e-02,4.057820e-01,6.124790e-02,4.128681e-01,8.513740e-03,3.189788e-01,2.400108e-01,6.618811e-01,-1.155567e-02,4.199618e-01,1.549127e-01,6.013749e-01,1.562075e-01,
-5.940878e-01,
6.520790e-01,
3.056482e-01,
8.255373e-02,
-2.060530e-01,
1.161442e-01,
-1.248482e+00,
-9.030094e-01,
-1.478704e+00,
-2.199267e+00,
-1.058473e+00,
-3.597510e-01,
-2.945471e-01,
1.642161e-01,
-1.095139e+00,
5.972973e-01,
5.266054e-01,
-6.376744e-01,
-4.081161e+00,
-3.832678e-01,
-2.644162e-01,
2.192107e-01,
-1.041734e+00,
-3.121135e-01,
3.997192e-01,
-8.613727e-01,
-3.579030e-02,
-9.775878e-01,
-1.414297e+00,
1.114901e+00,
5.319563e-01,
-1.163589e-01,
1.430272e+00,
-2.584071e-01,
-7.658501e-01,
-1.367289e+00,
-2.554975e-01,
7.509854e-01,
1.139316e+00,
-6.692879e-01,
-1.737740e-02,
-6.343039e-01,
-4.836814e-01,
1.113039e+00,
7.364448e-01,
-1.963720e-01,
-2.200149e-02,
-9.294148e-01,
5.263240e-01,
-1.336167e+00,
9.996190e-03,-2.742652e-03,-5.424058e-02,2.867410e-02,-4.547392e-02,-2.107780e-02,-2.453619e-02,2.321750e-02,3.371460e-02,-1.154433e-02,-2.205955e-02,-1.359603e-02,2.924760e-02,-3.423945e-02,-4.758663e-02,2.870710e-02,-4.278214e-02,-3.911176e-03,-4.484760e-02,-4.448608e-02,1.340990e-02,-9.855699e-03,4.209450e-02,8.762710e-03,-3.794259e-02,1.400210e-02,-4.926852e-03,-3.807006e-02,1.068650e-03,3.016720e-02,-7.046854e-04,4.071010e-02,2.740430e-03,2.924050e-02,1.746620e-02,1.294920e-02,-8.585945e-03,-4.985379e-02,-3.557799e-02,1.008800e-02,-1.412323e-03,-1.168965e-02,-4.145809e-02,-4.150849e-04,-3.812886e-02,1.046680e-03,1.259570e-02,3.145890e-02,-4.047571e-02,-4.999974e-02,
2.928660e-04,-1.581268e-02,-1.084849e-02,-4.469829e-02,3.817990e-02,7.578520e-03,3.672300e-02,1.691210e-02,4.439140e-03,2.015700e-02,-5.548000e-02,5.517900e-03,-3.878101e-02,-4.817463e-02,2.345730e-02,-1.190185e-01,-1.529650e-01,1.869620e-02,-4.412772e-02,3.504540e-02,-3.579849e-02,-8.965046e-03,2.298050e-02,1.444510e-02,-5.094190e-02,-5.345098e-02,-2.283645e-02,2.314470e-02,-4.491658e-02,1.798380e-02,-3.818251e-02,2.382900e-03,-9.073018e-03,-2.882092e-02,2.561840e-02,1.682150e-01,9.614470e-03,1.183150e-02,-3.778383e-02,4.612490e-02,-2.517060e-02,5.060080e-02,-8.427289e-02,-2.578275e-02,-2.222230e-02,1.558840e-02,4.868260e-02,-1.544151e-03,-9.713298e-03,2.752380e-02,
7.506387e-02,-4.955853e-02,5.963632e-02,-9.485952e-02,1.529624e-01,5.697663e-02,-4.456578e-02,9.426252e-02,3.350159e-01,5.475011e-02,6.728622e-03,-5.856574e-01,-1.966776e-01,2.816951e-01,1.880974e-01,2.599874e-01,-3.058398e-01,1.757006e-01,-1.136089e-01,4.882002e-01,-4.436260e-02,-7.070249e-02,-4.790845e-01,1.755875e-01,2.326578e-02,1.296807e-02,2.555370e-02,2.694410e-01,1.187445e-02,-1.974273e-02,9.502056e-02,-1.835463e-01,1.325136e-02,-1.963153e-01,-1.330486e-01,6.239835e-03,-1.656333e-01,-4.097530e-01,6.042789e-01,-4.413906e-01,-1.319220e-01,-3.638743e-01,1.929592e-01,-1.722662e-01,-1.130293e-01,5.556383e-01,-4.481715e-02,3.443313e-01,8.919718e-04,-2.078181e-01,
8.279924e-02,-2.796717e-01,-9.722348e-01,5.880313e-02,-1.496460e+00,1.316626e+00,8.387383e-01,1.221958e-01,-2.047752e+00,-3.535917e-01,8.333315e-01,3.232403e-01,1.439497e-01,-8.682334e-01,-1.596126e-01,-9.488503e-01,-1.555396e-01,1.505406e+00,2.820227e-02,2.622722e-01,-9.614892e-02,5.987977e-01,9.647296e-01,1.103571e+00,-1.176735e+00,1.156577e+00,-2.572185e-02,2.790312e-01,-4.350990e-01,2.043898e-01,-7.567087e-01,-2.226661e+00,4.155044e-01,-1.705799e-01,-8.074121e+00,-3.230787e-01,-1.554829e+00,-2.770089e-01,-2.348398e-02,1.673826e+00,-3.248647e-01,-3.497056e-01,-3.901359e-01,1.983198e+00,2.686448e-01,-4.137126e-01,3.186060e-02,-1.220509e+00,1.139283e-01,-1.166350e-01,
-9.003519e-01,-1.030098e+00,8.946043e-01,-1.427968e+00,-6.348184e-01,-1.196433e+00,7.415377e-01,2.445334e-01,-4.928332e-01,-9.901437e-01,-1.531215e+00,-4.068939e-01,-5.640337e-01,-1.160450e+00,1.930752e-01,6.863703e-01,6.601529e-01,-5.999479e-01,-8.146257e-01,2.764871e-01,-1.271287e+00,-1.105976e-01,5.483342e-01,-8.665251e-01,7.539650e-01,3.128321e-01,4.778740e-02,2.058987e+00,-1.632561e-01,-8.045089e-01,1.087807e+00,-1.866112e+00,6.829854e-01,1.685019e-01,-6.696175e-01,-5.522674e-01,3.815805e-01,6.255902e-01,-2.739324e+00,5.244681e-01,5.285552e-01,-3.855926e-01,-7.578112e-01,-9.766953e-02,-3.514434e-01,-1.130650e+00,1.922210e-02,5.260188e-01,9.820996e-01,1.436156e+00,
-1.226085e+00,-1.361556e+00,-1.086109e+00,4.677163e-01,-7.097317e-01,-2.845195e-01,1.788348e-01,8.176630e-01,-6.416917e-02,5.515060e-01,5.251272e-01,1.603989e-03,-1.050084e-03,2.858521e-01,8.312972e-01,5.147461e-01,-8.005945e-01,5.616707e-01,3.336814e-01,6.555551e-01,2.544950e-01,3.672358e-01,4.846740e-01,-5.201511e-01,4.652212e-01,-1.675758e+00,4.405750e-02,1.374479e+00,1.130966e-01,-1.019813e-01,2.646791e-01,-8.168706e-01,4.644556e-01,1.041810e+00,1.557437e-01,-5.782423e-01,-1.767706e-01,3.638078e-01,1.556509e-01,-1.846183e-02,-1.346121e+00,1.370451e-01,4.161761e-01,2.024203e-01,2.456303e-01,1.050954e+00,2.549900e-02,6.599056e-01,2.045047e-01,2.381498e-02,
1.039672e-01,7.655655e-01,1.018100e+00,3.714871e-01,8.753490e-01,-6.994113e-01,-4.133251e-01,-4.572057e-01,-5.983331e-01,-8.990562e-01,6.511917e-01,-3.180061e+00,-5.273541e-01,-2.219437e-01,7.574838e-01,2.112601e-01,5.293599e-01,-6.996213e-01,-3.593016e-01,-1.320858e-01,-1.207636e-02,8.921222e-01,-1.633023e+00,-6.373016e-01,-1.325110e+00,-1.764137e-01,-2.570326e-02,-7.319046e-01,-2.209672e-01,6.910731e-01,1.117513e+00,1.109534e+00,9.184080e-01,-8.268120e-02,9.099712e-01,-1.006774e-01,5.115970e-01,6.237738e-03,1.983657e-01,-1.017748e+00,4.647863e-01,-1.002318e+00,7.588391e-01,-3.631897e-01,6.705774e-02,2.067428e-01,1.046620e-02,8.921232e-01,5.389265e-01,4.068403e-02,
2.010224e-01,-9.765083e-02,4.840132e-01,-6.224347e-01,-3.733453e-02,-3.103296e-01,-9.667906e-01,-2.980372e-01,1.473213e-01,-1.262089e-01,-1.037609e-02,-8.123240e-01,-5.460955e-03,2.202660e-01,6.359606e-01,-3.157046e-01,1.364385e-01,-2.767558e-01,-1.237341e-01,-2.042197e-01,1.988752e-01,1.568203e-01,-1.394599e-01,4.959789e-03,-7.875472e-01,-2.102604e-01,-3.974376e-02,-6.710455e-01,2.031372e-01,3.873901e-02,1.372959e+00,7.695210e-01,7.762255e-01,-8.733123e-01,-2.435002e-01,-6.718215e-01,5.156655e-01,7.665902e-02,-9.838573e-02,-7.240421e-02,5.049530e-03,7.144170e-01,5.708958e-01,-8.909197e+00,3.468950e-01,-6.850526e-02,-6.903140e-03,1.202452e+00,-1.941082e-01,2.901718e-01,
-9.095709e-01,8.957182e-03,-3.242389e-01,-1.187046e+00,-8.080464e-01,1.328817e-02,1.561371e+00,4.183368e-01,-1.997310e-01,9.598610e-01,5.378537e-01,-3.027139e-01,-5.069053e-01,1.284438e+00,1.939093e-01,3.309990e-01,-4.447999e-01,-1.217643e+00,-5.291128e-01,4.957811e-01,2.815386e-01,1.235556e+00,1.341289e+00,3.447702e-02,3.286629e-01,-2.307091e+00,-5.260427e-03,6.473091e-01,3.775651e-01,1.470231e-01,1.322934e+00,1.228447e+00,-2.134828e+00,8.149416e-01,3.236971e-01,7.465085e-01,1.051312e+00,3.959833e-01,-1.372801e-01,2.612750e-01,-7.658878e-02,2.947365e-01,6.736222e-01,9.519663e-01,-3.596849e-01,-8.727211e-01,-1.651093e-02,8.126550e-01,8.680311e-02,-2.846487e-01,
-9.005398e-01,9.576475e-02,1.520228e+00,7.130111e-01,-1.452475e+00,9.313477e-01,-1.803774e+00,-2.943360e+00,-3.270298e+00,-1.245205e+00,-2.128256e-01,-5.045093e+00,2.156111e-01,-7.659550e-01,-1.066790e+00,-2.038134e+00,1.477715e+00,-3.024588e+00,1.568061e-01,-2.162191e+00,1.012568e+00,2.325933e+00,-2.015380e-01,-4.301167e-01,-1.019022e+00,1.577502e+00,-9.406593e-03,-3.425310e+00,-1.695813e+00,5.826939e-01,-2.593237e-01,3.866193e+00,9.716220e-01,-2.154852e+00,5.723035e-01,-1.338004e+00,8.190900e-02,-1.054284e+00,-1.030945e+00,2.957201e-01,5.213961e-01,6.380435e-01,4.580425e-01,-4.297639e-01,7.300930e-01,-2.429647e+00,2.157190e-02,-9.886484e-01,8.396571e-02,5.590711e-01,
1.875856e-01,-4.345257e-01,-1.625326e-01,-6.916497e-01,5.784507e-01,-1.413615e-01,7.070574e-01,5.092070e-01,6.025288e-01,7.671049e-01,4.419901e-03,3.505194e-01,6.135591e-01,-6.044545e-01,5.667000e-01,-2.806314e-01,2.342193e-02,3.988509e-01,-6.222982e-01,-2.866153e-03,-1.775592e-01,1.098135e-01,-1.148689e-01,-5.868471e-02,-4.958404e-01,1.145951e-01,-2.311270e-02,-1.494727e-01,-5.202393e-02,1.424524e-01,3.610201e-01,2.259033e-01,-3.812487e-01,-5.848174e-01,-1.017528e-01,-5.950822e+00,-2.104557e-02,2.914999e-01,-2.123551e-01,3.180145e-02,-4.006852e-02,2.453241e-01,6.465144e-01,1.804141e-01,-9.667486e-01,8.935450e-01,5.405080e-02,-3.854088e-01,-8.390203e-02,-4.822419e-01,
8.681556e-02,2.719641e-01,-2.954899e+00,-4.165045e-01,2.017500e+00,-1.181198e+00,-2.460801e+00,2.851653e-01,-1.582990e+00,-7.558855e-01,5.706185e-01,2.632944e-01,-3.133788e-01,1.884496e+00,1.825309e-01,-2.813664e-01,4.080468e-01,-1.487136e+00,5.189441e-01,-1.620738e+00,-4.064707e-01,-1.296571e-01,-2.187496e+00,1.711185e-01,-3.866520e-01,-1.075147e+00,3.788410e-02,-8.571853e-01,-1.041322e-01,2.031746e-02,-9.839655e-01,1.707490e+00,-6.052399e-01,-5.371295e-01,-9.755434e-01,9.761630e-01,1.020623e+00,-9.149311e-01,4.102432e-01,1.331283e-01,-9.605798e-03,6.803926e-01,6.736307e-01,1.478105e-01,-6.591385e-01,-2.886439e+00,3.599540e-02,1.610763e-01,1.077015e-01,-4.931997e-01,
-5.635098e-01,9.354089e-01,8.544708e-01,-9.143232e-01,3.273176e-01,3.838731e-01,-8.476514e-02,-4.418096e-02,-8.540269e-01,5.718614e-01,5.199360e-01,5.475591e-02,-3.516670e-01,1.140029e+00,9.325076e-03,1.457006e+00,-6.139591e-01,3.615832e-02,2.066687e-01,-1.690447e-01,-3.171924e-01,9.772745e-01,1.120392e+00,-2.268136e-01,-1.898778e-01,-1.540959e+00,-1.176252e-02,-1.622617e-01,-3.246264e-01,-1.954869e-01,1.173085e-01,5.080307e-01,7.026247e-01,3.309401e-01,-3.586779e-01,-3.177919e-01,2.645551e-01,-5.162125e-01,-3.909318e-01,5.652481e-01,3.969119e-01,-4.223625e-01,3.371160e-01,1.240267e-01,4.165113e-01,1.698562e+00,-5.567782e-02,3.359780e-01,-1.268011e-01,-7.430545e-01,
-5.792325e-03,-1.777135e-02,-3.125640e-02,-4.154629e-02,1.314000e-02,3.320130e-03,3.120360e-02,5.203090e-02,-3.652225e-02,1.226350e-02,-6.083458e-02,-7.476577e-02,5.807260e-02,3.278000e-02,6.134570e-02,-2.149486e-01,-1.262740e-01,5.165370e-02,-3.019968e-02,1.678140e-03,-4.066996e-02,5.218900e-02,-4.740361e-02,5.945250e-02,-6.592456e-02,8.339380e-03,-3.988225e-02,-2.494023e-02,6.010850e-03,2.669990e-02,-4.568350e-02,1.804930e-02,-3.776892e-02,-4.349068e-02,3.718550e-02,1.042040e-01,6.093860e-02,-2.331924e-02,-6.246471e-02,-1.103886e-02,-1.985424e-02,2.524000e-02,-5.047444e-02,4.915150e-02,-1.240459e-02,-3.565737e-02,-4.765047e-03,2.092040e-04,1.778160e-02,4.070520e-02,
-1.080303e-01,-7.120280e-01,9.601120e-01,4.921696e-01,-1.751221e+00,1.381411e-01,-2.056551e+00,-6.245410e-01,-1.090341e+00,2.571909e-01,3.794471e-01,-1.038847e-01,5.766015e-01,-6.790654e-01,-4.449448e-01,2.743999e-01,-6.124618e-02,9.673838e-02,4.586895e-01,-1.856683e-01,-4.690287e-02,-1.685838e-01,-1.276222e-01,-4.971655e-01,-4.880410e-01,-1.504965e-01,-2.185890e-02,-1.300939e+00,3.621660e-02,1.909603e-01,-7.014073e-01,1.664268e-01,6.442673e-01,-1.519518e+00,-6.288397e-01,-1.713820e+00,3.938238e-01,-3.072153e-01,4.426149e-01,7.205659e-01,-1.104148e-01,-1.389895e+00,-1.502539e+00,-1.526364e-02,2.492781e-01,2.798470e-01,-1.796602e-02,-1.098037e+00,-1.579683e-01,-1.156218e-02,
-6.683880e-01,5.638050e-01,1.104180e-01,-4.607872e-01,2.533935e+00,8.801809e-01,3.772629e-01,-5.553418e-01,3.403145e+00,6.842094e-01,4.632779e-01,-5.644715e-01,1.757082e-01,1.570149e-01,-4.282131e+00,6.524011e-01,-1.265659e+00,3.890044e-01,6.120764e-01,1.223505e+00,1.668229e-01,4.495669e-01,7.061467e-01,-1.285872e+00,6.140971e-01,1.342455e-01,-4.186213e-03,1.946391e+00,1.926239e+00,8.241219e-01,3.012868e-01,1.765440e+00,1.445263e-01,-7.924759e-01,1.095238e+00,1.537311e+00,-1.863844e+00,1.645302e+00,-9.515068e-01,1.078654e+00,2.513225e-01,-2.706144e-01,9.921895e-01,-4.900255e-01,5.074349e-02,2.546218e+00,3.648190e-02,-1.001711e+00,1.106133e+00,2.738721e+00,
-3.236730e-01,1.377177e-01,-1.469191e-01,-2.946447e-01,-1.419232e-01,-4.378899e-02,4.579323e-01,-2.281576e-01,2.223207e-01,3.091949e-01,-5.175870e-02,-1.986211e+00,1.652098e-02,-2.689806e-01,1.580251e-01,3.501813e-01,1.669002e-02,1.486304e-01,1.415220e-01,1.994116e-02,2.536870e-04,1.327774e+00,-9.528425e-02,-1.014487e-01,-3.417970e-01,-2.479018e-01,3.801200e-02,5.786906e-01,4.294500e-02,2.005146e-01,-2.210544e-01,4.060664e-01,-1.905823e-01,-5.706035e-01,-1.698280e-01,2.628643e-02,6.647860e-02,3.312005e-01,4.031143e-01,-2.788296e-01,-1.591685e-01,-2.203078e-01,3.225671e-01,1.704452e-01,-1.383322e-01,3.747093e-01,-2.968465e-02,-5.525531e-01,1.708392e-01,4.063423e-02,
1.662937e+00,-6.463737e-01,-2.169205e-01,1.892352e-01,1.204783e+00,-3.045241e-01,3.370922e-01,1.066790e+00,1.276123e+00,1.000468e+00,4.989694e-01,4.210229e-01,4.883285e-01,-1.122061e+00,-4.220527e-01,-4.775967e-01,-3.906042e-01,1.436020e-01,1.344374e-01,3.858786e-01,-4.950298e-01,-8.392954e-01,1.941787e+00,-1.040833e+00,-1.958019e+00,-6.245305e-01,-7.490857e-03,1.620092e+00,-2.381200e-01,3.653387e-01,7.316813e-01,1.730967e+00,7.924481e-02,6.831545e-01,-1.002820e+00,2.229441e+00,3.662614e-01,7.349105e-01,2.079872e-01,8.980169e-02,-5.385072e-01,7.248990e-01,1.396025e+00,-8.066667e-02,-8.982109e-01,-3.098088e-01,5.456990e-04,-2.794501e+00,-1.203667e-01,-1.605744e+00,
-5.351745e-01,7.741398e-01,3.107792e-01,5.973998e-02,-1.243672e+00,3.074656e-01,-8.865160e-01,-8.884228e-01,4.615516e-02,-5.466709e-01,1.168576e+00,3.845037e-01,-6.535704e-02,-3.156310e-01,-9.022639e-01,9.297655e-01,7.152201e-01,-2.191843e-01,2.362972e-01,-2.196253e-01,3.836309e-04,-7.850010e-01,8.632584e-01,-7.629257e-01,-4.153474e-01,-1.758435e-01,-3.551656e-02,-9.807913e-01,-4.402513e-01,1.040402e+00,1.224797e+00,4.488322e-02,9.273824e-01,-1.139239e+00,3.903037e-02,-2.009847e+00,-1.333038e+00,4.742124e-01,2.536044e-01,5.570838e-02,5.421154e-01,-8.095384e-02,8.158543e-02,-1.102080e-01,6.477554e-01,-5.977146e-01,3.908420e-02,-3.790101e-01,2.233297e-01,2.485295e-01,
-3.923808e-01,7.629355e-02,-1.306273e-02,-1.870764e-02,-2.934162e-01,-1.452843e+00,-6.315183e-02,-6.668035e-01,4.856277e-01,-2.873346e-01,8.017059e-01,-1.326024e+00,-4.663627e-01,-1.623216e-01,1.164213e-01,-9.298275e-02,1.057749e+00,1.235598e-01,-7.888156e-01,-1.220215e-01,-5.254431e-01,-1.523266e-01,-1.094824e+00,7.534663e-02,-5.994387e-01,1.467645e-01,-4.357048e-02,-1.664785e-01,2.616424e-02,5.148265e-01,-9.970064e-02,-1.228720e+00,1.046083e-01,-4.193133e-01,5.591966e-01,-7.032931e-01,-9.387514e-01,8.626579e-02,2.048174e-01,-1.140646e+00,6.420205e-01,-6.667994e-01,2.682923e-01,-1.130503e-01,-4.430023e-01,1.093818e-01,-3.129021e-02,-2.027802e-02,2.342776e-01,9.735600e-03,
1.061844e+00,3.942927e-01,-1.710082e+00,3.193912e-01,-8.626611e-01,-4.847892e-01,-3.810114e-01,-2.685249e-01,-4.800905e-02,-1.215637e-01,-7.025655e-01,2.307968e-01,1.364723e-01,2.865601e-01,6.758499e-01,-7.876532e-01,-2.578086e-01,4.387191e-01,-5.046363e-01,-5.395730e-01,3.707435e-02,-1.447351e-01,2.395490e+00,-1.661215e-01,-5.511943e-01,3.411526e-01,7.487140e-03,-7.825052e-01,4.097948e-01,-1.256608e+00,-1.662076e-01,1.970891e+00,-2.970114e-01,-9.308103e-01,5.818902e-01,-1.233004e+00,-1.772305e-01,6.446311e-03,7.291030e-01,-4.085550e-01,-1.327851e+00,9.219099e-01,8.754364e-01,3.057366e-01,7.712385e-02,-1.391806e+00,8.439390e-03,-3.740793e-01,1.898926e-01,1.171825e+00,
-9.856097e-02,4.721994e-01,5.722929e-01,-4.035202e-01,1.004401e-01,-9.631271e-01,-8.341241e-01,-3.350875e-01,5.022423e-01,5.163316e-01,3.360416e-01,-5.544661e-01,7.300484e-01,-5.153747e-01,3.428737e-01,-2.389369e-01,-3.249677e-02,-1.901708e-01,9.367256e-02,5.269603e-01,1.028843e-01,-2.468434e-01,-3.631341e-01,3.263959e-01,1.965090e-01,-7.972639e-01,3.901380e-02,-4.315332e-01,-8.241649e-02,1.087317e-01,3.083738e-01,1.493641e+00,4.273612e-01,-1.208361e+00,6.626934e-01,1.492023e-01,-1.730400e-01,1.074836e-01,-2.282122e-01,-2.149549e-01,2.710596e-02,-3.922002e-01,1.400272e-01,-2.010036e-01,-1.667032e-01,-1.511433e+00,-1.887679e-02,-2.037451e-02,-6.143959e-01,-2.236899e-01,
-1.758288e+00,-2.016210e+00,4.508721e-02,-9.532698e-01,3.784473e-01,-7.037058e-01,3.178938e-01,1.080124e-01,1.689775e-02,8.416289e-01,2.313633e-01,1.829845e-02,-2.478483e-01,1.194584e-01,2.109588e-02,1.012450e+00,5.152224e-01,7.309728e-01,-9.499266e-01,-1.008409e-01,-5.381942e-01,-4.135761e-01,-4.596931e-02,-2.515065e-01,2.633190e-01,-3.261206e-01,-2.838181e-02,9.186460e-01,7.718465e-01,8.897699e-02,2.114532e-01,-2.424733e+00,8.316528e-01,-8.525821e-02,-9.711975e-01,-1.175160e+00,7.770002e-01,6.983260e-01,9.985830e-01,-1.410727e+00,3.876143e-01,3.703527e-01,1.522521e-01,-4.202562e-01,2.059218e-01,1.312197e+00,-1.492123e-02,-5.447893e-01,4.206646e-01,4.667578e-01,
4.123352e-01,-2.137065e-01,-1.051008e+00,2.532043e-01,-1.467133e+00,2.562556e+00,-5.939335e+00,-2.392015e-01,-5.736538e-01,7.041751e-01,-7.871304e-02,1.056362e+00,-6.868186e-02,1.642515e+00,-1.605345e+00,1.085745e+00,-9.248222e-01,-6.736631e-01,-1.423233e-01,7.444561e-01,1.346504e+00,3.806796e-02,2.301898e+00,-6.854945e-01,4.898105e-01,9.390371e-02,-5.587659e-03,3.176278e-01,-4.228444e-01,-4.464652e-01,4.789672e-01,1.387491e+00,3.184001e-01,-8.116804e-01,-3.263001e-01,-1.515013e+00,1.661098e-01,-4.016785e-01,3.893022e-01,1.057988e+00,-1.061644e-01,7.233230e-01,3.372224e-01,9.816650e-01,5.308619e-01,5.172447e-01,-1.023251e-02,-7.882759e-01,1.490978e-01,6.839447e-01,
4.233571e-01,-5.578986e-01,-2.867445e-01,1.620601e-01,-1.971690e+00,-2.382838e-01,4.578259e-01,9.905952e-01,-1.124445e+00,9.705105e-02,7.597448e-02,4.499323e-01,-4.003345e-01,3.436734e-01,-4.126878e-01,1.281037e+00,-9.105169e-01,2.600653e-01,2.260480e-01,5.714583e-01,-8.262943e-01,-7.365341e-01,2.376666e+00,-3.836217e-01,-1.152364e-01,1.505564e+00,-1.653634e-02,7.020516e-02,-3.509835e-01,2.845962e-02,1.047541e+00,1.599534e+00,4.259333e-01,3.112257e-01,3.434345e-01,-2.326401e+00,-6.423795e-01,6.546668e-01,-5.697772e-01,3.118720e+00,2.098278e-01,-6.252981e-01,7.371677e-01,1.228958e+00,-5.101919e-01,2.048950e+00,1.918410e-02,6.552740e-01,2.625515e-01,1.572389e+00,
-2.356032e-01,3.076195e-01,2.393639e-02,-4.426747e-01,-4.269741e-01,5.056100e-01,2.550389e-01,-2.891889e-01,-2.574054e-01,1.714289e-01,2.589195e-01,5.084793e-01,-4.014150e-02,-8.914174e-02,1.085071e-01,-1.217244e-01,2.673195e-01,-2.583819e-01,9.288478e-02,-2.192452e-01,7.096792e-02,-3.549787e-01,-1.721401e-01,-5.252278e-01,3.346245e-02,-2.545294e-01,1.346370e-02,-2.052225e-01,-1.385496e-01,1.830591e-02,-4.457544e-01,-3.904267e-02,1.603343e-01,-2.973327e-01,1.315446e-01,-2.785713e-01,2.906904e-01,4.926719e-02,-3.950688e-01,4.786584e-01,1.675716e-01,-7.028301e-01,-2.095411e-01,1.452132e-01,1.587999e-01,-4.749591e-01,-1.666717e-03,1.163902e-01,1.166235e-01,-4.294132e-02,
-2.904405e-01,7.910751e-01,-8.850408e-01,-4.075270e-01,-4.524240e-02,-7.148788e-01,2.775220e+00,3.962154e-01,1.461748e+00,-2.237529e-01,-5.378856e-02,7.445635e-01,6.738188e-01,1.440811e+00,-1.112307e+01,-6.880576e-01,-1.146673e+00,-3.744762e-02,1.996168e-01,2.142878e-01,-1.938237e-01,-1.234390e+00,-3.002874e+00,-1.922833e+00,7.547176e-01,1.357109e+00,2.713340e-02,5.218051e-02,-6.106327e-01,5.022244e-01,8.660932e-01,-1.967731e-01,9.532094e-02,9.548872e-01,3.756448e-01,2.357082e+00,-2.499084e+00,6.942575e-01,1.023114e+00,5.117584e-01,5.515345e-01,-2.810587e+00,-1.402978e+00,1.878786e+00,-1.745478e+00,2.852104e-01,-2.012052e-02,-8.382863e-01,2.841961e-01,-1.720635e+00,
-5.454624e-01,-1.284664e-01,-3.269364e-01,-8.728366e-01,-1.442017e+00,2.215495e-01,-4.571511e-01,-3.117828e-01,-8.254879e-01,-1.006837e+00,-9.606702e-01,2.331689e-01,1.034312e+00,-1.928325e-01,-7.219264e-01,1.370109e-01,2.853505e-01,-1.505112e+00,-6.883327e-03,-8.187847e-01,4.648066e-01,-1.865283e-01,-2.372422e+00,-8.677661e-01,3.610788e-01,-9.773085e-01,-4.189531e-02,1.598375e+00,-7.612122e-01,-6.677874e-01,-1.565550e-01,-1.023825e+00,-7.548922e-01,-7.344718e-01,-6.579846e-01,-7.866107e-01,-1.548015e-01,8.083664e-01,-1.083768e+00,-3.203014e-01,-7.541793e-01,-8.008570e-01,3.019879e-02,3.954746e-01,2.041236e-01,-1.995724e+00,-2.850193e-02,1.260940e-01,-7.345747e-02,4.055265e-01,
1.191671e-01,-1.364034e-01,-4.549818e-01,4.770854e-01,4.409517e-01,-4.919691e-01,-3.015810e-01,3.667282e-01,3.160384e-01,9.173716e-02,5.078225e-01,8.033513e-02,8.116468e-01,1.074678e-01,3.171997e-01,1.680446e-01,-2.181742e-01,1.937617e-01,-1.918612e-01,2.190367e-01,-1.123815e-01,-1.825666e-01,1.598137e-01,2.604966e-01,8.099729e-02,1.175141e-01,1.002910e-02,7.785706e-01,-1.623846e-01,-3.016828e-01,3.252385e-01,6.107031e-01,-5.149252e-02,-2.884539e-01,-2.862342e-01,1.996273e-01,-7.510734e-02,4.268796e-01,-1.647030e-01,3.251987e-01,-6.342515e-02,6.166198e-03,-6.065818e-01,-1.411956e-01,-1.897581e-01,5.116114e-01,4.403220e-02,-1.899377e-01,-2.679705e-01,-1.631563e-01,
-5.215707e-01,3.952504e-01,-5.192040e-01,1.897959e+00,-9.615364e-02,1.007105e+00,6.107154e-01,2.119592e-01,2.026284e+00,9.266050e-01,3.487554e-01,-1.020272e+00,4.249853e-01,4.614886e-01,9.455711e-01,-5.426715e-01,1.788746e-01,9.922971e-01,-1.045197e+00,-5.557240e-01,2.688724e-01,1.451562e+00,1.287722e+00,3.475374e-01,1.821834e-01,6.493638e-01,3.744900e-02,4.595445e-01,1.019369e+00,-1.321530e-01,-2.318095e-02,-2.383605e-01,-4.116420e-01,7.107957e-01,8.621174e-01,-1.167589e+00,-7.756633e-01,6.461771e-01,1.233204e+00,2.469496e-01,5.598526e-01,5.626162e-01,8.539417e-01,1.101392e+00,-8.463515e-02,8.685137e-02,2.650350e-02,-6.023934e-01,-5.333086e-01,-1.823010e-01,
-1.673416e-03,-7.478761e-01,-8.624584e-01,-1.670004e-02,-4.061305e-01,-4.026403e-02,-1.101481e-01,1.327359e-01,-3.181332e-01,7.851020e-02,1.040107e+00,-3.629535e-01,5.899832e-01,9.834710e-01,1.409610e+00,6.134350e-02,-5.793679e-01,-3.664174e-01,-1.466976e-01,5.286693e-01,-1.399093e-01,-1.697409e-01,7.246647e-01,2.740484e-01,1.995332e-01,7.436020e-01,-4.054249e-02,4.458150e-01,-2.800602e-02,-3.336637e-02,1.030700e-01,5.447110e-01,1.879746e-01,3.979999e-01,-5.755102e-02,6.554126e-01,6.182837e-02,-7.169442e-01,4.665013e-01,-4.725903e-01,-2.613629e-01,1.748521e+00,1.556243e-01,4.728983e-01,-8.586206e-02,6.558221e-01,-2.190048e-02,1.783800e+00,-5.847765e-02,-2.227197e-02,
3.118907e-01,-5.722604e-01,1.083817e+00,5.947741e-01,-1.822044e+00,-1.196759e+00,-3.617628e-01,-4.370236e-01,-1.340220e+00,6.712807e-03,3.656645e-01,-5.377186e-01,-3.726156e-01,-3.381294e+00,-4.080268e-01,-1.239913e+00,7.497190e-03,-1.855486e+00,9.040010e-01,-1.913898e+00,3.237233e-01,7.980675e-02,-4.535958e-02,-6.539274e-01,7.058177e-01,1.921058e+00,-9.781978e-03,-1.103151e+00,-1.832302e-01,-3.647280e-01,-1.031789e+00,2.068655e+00,1.449068e+00,-1.634188e+00,-1.672545e-01,5.188196e-01,-9.093808e-01,-1.086487e-01,-4.189783e-01,1.054633e+00,-5.150292e-01,1.624434e-01,1.579688e+00,7.860671e-01,1.521340e-01,1.228569e+00,-4.232171e-03,3.748137e-01,1.507374e-01,2.563870e-01,
6.574162e-01,-2.464035e-01,-4.798920e-01,-1.416314e+00,2.235284e-01,-4.769383e-01,4.912859e-01,1.055393e-02,1.825112e+00,-1.646253e-01,4.391337e-01,6.771353e-01,-7.020090e-02,-1.698112e-01,9.111015e-01,5.177528e-01,-6.439671e-01,-5.410681e-01,-7.810981e-01,-1.281735e+00,3.175166e-01,-5.682779e-03,-7.930251e-01,-9.532120e-02,-1.738380e-01,-9.337565e-01,1.558490e-02,4.613512e-01,-5.265918e-01,5.362881e-01,-7.006639e-01,-9.714746e-02,-8.419036e-01,-1.120413e+00,3.500235e-01,1.189626e+00,1.239704e+00,3.617961e-01,4.141582e-01,-6.213963e-02,6.890350e-01,4.855430e-01,1.466135e+00,-1.615015e+00,-2.381295e-01,6.160275e-01,-5.251470e-02,9.238030e-01,3.512226e-01,3.103061e-01,
-5.385786e-01,2.995464e-01,-4.140717e-01,-1.170151e+00,-1.204854e+00,-8.238804e-01,7.993912e-01,-4.790709e-01,1.032793e-01,1.873200e-01,-1.290922e-01,-8.506123e-01,3.444491e-01,3.088690e-01,-3.198079e-01,4.680640e-01,3.913582e-01,-5.349508e-02,-8.092160e-01,8.224777e-01,-5.724400e-01,3.870528e-01,3.437755e-01,1.086733e-01,-2.242653e-01,1.453424e-01,1.265290e-02,7.513417e-01,2.271098e-01,1.840986e-01,-3.311721e-01,-7.907067e-01,5.175923e-01,-1.055974e+00,-7.131358e-02,1.281236e-01,1.126009e+00,6.878665e-01,-2.177595e+00,-2.694899e-01,5.811464e-01,5.855262e-01,8.768728e-01,1.141558e+00,-5.778717e-02,-1.780233e-01,-5.699526e-02,1.100874e+00,-1.358437e-01,4.447710e-01,
-8.776173e-02,5.248593e-01,-4.862298e-01,2.671562e-01,6.172853e-01,-2.851884e-01,1.205141e-01,-1.873526e-01,1.419082e-01,1.487139e-01,2.109351e-01,1.752198e-01,4.149077e-03,5.624865e-01,1.415471e-01,1.300112e-02,1.743556e-01,5.692885e-02,-3.195045e-01,1.953779e-01,-1.251348e-01,5.493736e-01,5.637680e-01,-2.788779e-02,2.228253e-01,-2.431758e-02,-4.226764e-02,-2.297641e-01,2.523988e-01,1.858875e-01,2.169553e-01,-2.882197e-01,-2.161330e-01,1.594200e+00,2.303855e-01,3.500560e-01,5.815472e-02,-1.828701e-01,4.083195e-01,2.433501e-01,2.858465e-01,1.368722e-01,4.303015e-01,1.555359e-01,-1.073635e-03,1.678241e-01,4.146950e-02,3.342290e-02,4.204161e-02,5.138094e-02,
1.143156e-01,-2.294859e-01,1.251696e-01,2.882322e-01,1.657979e-01,-1.164733e-01,-8.730403e-02,1.028983e-01,-1.207426e-01,1.047109e-01,-3.017080e-01,-1.179013e+00,1.902190e-01,2.178003e-01,4.358119e-01,1.345848e-02,-8.060346e-01,-6.714655e-01,5.596447e-01,-1.942678e+00,5.510247e-01,6.513844e-01,-5.159805e-01,-1.985686e-01,-2.638093e-01,7.331758e-01,3.669610e-02,1.117282e+00,3.079032e-02,-1.429785e+00,-2.561853e+00,1.219460e-01,2.486963e+00,-6.172729e-01,1.911546e-01,-1.125621e+00,2.470114e-02,-1.520442e-01,5.407710e-01,3.474019e-01,-3.425446e-01,1.156879e+00,-4.656288e-01,-1.462650e+00,1.330927e-01,8.812830e-01,-3.111381e-02,1.665520e+00,1.757204e-01,8.382150e-01,
-4.079649e-02,-1.743388e-01,6.383639e-01,1.978797e-01,7.821619e-01,-1.144951e+00,-9.284037e-02,-9.413470e-01,-3.874279e-01,-5.965963e-01,4.622957e-01,-1.427653e+00,-3.423630e-01,4.605193e-01,-1.380298e-01,-5.374897e-01,5.945499e-01,-5.652140e-01,-1.463637e-01,-3.546522e-01,-5.141619e-01,4.703791e-01,-8.800281e-02,2.184661e-01,-3.979794e-01,5.414259e-01,3.120160e-02,-5.862632e-01,-1.017480e+00,5.144478e-01,-2.905172e-01,-3.073854e+00,1.623290e+00,-3.241087e-01,6.794020e-01,-2.495073e+00,4.604968e-01,-5.967801e-01,-7.668884e-01,2.059771e-01,4.182546e-01,5.268984e-02,4.772591e-01,-9.412892e-01,9.957234e-03,-1.270993e+00,-4.636842e-02,8.325828e-01,2.089924e-01,2.680283e-01,
3.713094e-01,5.958109e-02,-1.909446e-01,-1.405425e-01,4.351587e-01,1.562616e+00,-3.823806e-01,-6.654417e-01,-1.625148e+00,3.120180e-01,-2.206281e-01,-3.293703e-01,4.184579e-01,-4.350570e-01,-9.318981e-01,-7.948269e-01,3.424659e-01,2.853724e-01,2.996784e-01,-6.457647e-01,5.851592e-01,-4.902996e-02,-7.883840e-01,5.775164e-02,-7.412118e-01,-3.992961e-01,-4.485054e-02,-1.314526e+00,-5.110098e-01,4.911224e-01,9.562605e-02,1.026883e+00,4.765105e-01,1.164166e+00,4.843188e-01,4.262570e-01,1.387688e+00,-3.739680e-01,-3.355117e-01,6.399599e-01,-1.026717e+00,-8.911003e-02,-5.403646e-02,-1.413583e-01,7.359324e-01,4.417357e-01,-3.527538e-02,7.598613e-01,2.096472e-01,2.566434e-01,
