// The contents of this file are licensed under the Creative Commons
// Attribution 4.0 International License: https://creativecommons.org/licenses/by/4.0/
// Neural Network File Format by Kyle Julian, Stanford 2016 (generated on 11/02/2022 13:07:23)
7,5,5,50,
5,50,50,50,50,50,50,5,
0,
0.0,-3.141593,-3.141593,100.0,0.0,
60760.0,3.141593,3.141593,1200.0,1200.0,
19791.091,0.0,0.0,650.0,600.0,7.5188840201005975,
60261.0,6.28318530718,6.28318530718,1100.0,1200.0,373.94992,
-2.117021e-02,2.549734e-01,-2.282686e-01,-1.513739e+00,-5.375282e-01,
7.321569e-01,4.601689e-02,2.040667e-01,6.516615e-02,-1.404137e-01,
-2.914879e-02,4.763728e-03,1.638262e+00,6.371242e-02,-4.676766e-02,
8.481082e-02,1.457153e-03,1.541805e-02,-6.544661e-01,-1.468327e+00,
-7.766014e-02,1.679972e-01,-3.955046e-01,-3.287297e-01,2.534088e-02,
6.010207e-02,-1.574201e+00,6.899074e-03,4.332786e-02,-9.225679e-02,
6.058635e-02,-1.369570e-01,1.563262e-01,-6.601033e-02,-1.312591e+00,
-5.837093e-03,-1.023982e-01,-3.652689e-02,-1.132619e+00,6.318607e-01,
-4.758023e-01,-1.007488e-01,1.104854e-01,-4.408843e-01,2.073237e-01,
4.940201e-02,1.204245e+00,-1.266117e+00,-7.112129e-02,5.108449e-01,
-6.338445e-03,4.675138e-03,1.208406e+00,5.918921e-02,-4.937088e-02,
-1.903996e-01,1.209105e+00,1.714929e+00,6.520088e-01,-3.134877e-01,
-1.634352e+00,3.977118e-02,-4.761896e-02,-2.507731e-01,1.702684e-01,
4.804242e-02,7.087777e-01,1.313243e-01,-8.698834e-01,-4.377417e-02,
5.640681e-02,-1.124925e-01,-8.793892e-03,-5.787024e-01,-1.505304e+00,
-3.932767e-03,-2.529567e-01,3.852373e-01,-2.204190e-01,-1.678570e+00,
-2.796048e-02,1.063945e+00,6.712264e-01,4.793197e-03,-3.760097e-02,
4.863299e-02,9.947447e-03,-6.282856e-03,-1.290291e+00,-7.363212e-01,
-9.952169e-04,-5.964709e-02,1.151478e-01,6.169782e-01,-9.961995e-01,
2.032383e-01,1.025220e-01,-1.196438e-01,-5.474131e-01,-1.199909e+00,
-1.442010e-03,-1.215009e-01,1.011388e-01,-1.472272e+00,-6.143363e-01,
-1.241037e+00,5.089312e-03,2.179803e-03,-8.117522e-02,-5.470299e-01,
3.314034e-02,-7.805752e-01,-1.197591e+00,1.346612e-01,-1.116273e-01,
-2.068889e+00,-1.894211e-01,-2.745043e-02,1.051609e-01,1.567001e-01,
-1.823038e-02,-1.695740e+00,1.815268e+00,-4.678157e-02,3.451283e-01,
1.357428e-01,-1.915718e+00,4.130228e-01,-1.614566e-01,-7.621547e-01,
1.121815e-01,2.515414e-02,-2.573991e-01,3.117522e-01,-9.902719e-01,
-6.595409e-03,3.280812e-02,2.066901e-02,-7.690175e-01,-1.041505e+00,
-2.117216e-02,2.382620e-02,-7.317954e-03,9.934860e-03,-2.017265e-03,
-7.977834e-01,-5.272868e-02,-9.811203e-02,-1.111257e-01,-7.350378e-02,
2.206394e-03,-1.104181e-02,-1.993472e-02,-1.075639e+00,-1.229779e+00,
-1.215287e+00,1.331646e-02,4.747563e-03,-4.380260e-01,-2.978358e-01,
-2.210730e-02,2.204210e-03,-1.958874e-02,-4.701085e-02,1.089783e+00,
-3.012029e-02,-1.610446e+00,1.269502e+00,2.881492e-02,-3.296875e-01,
1.923840e-02,1.954836e-01,5.988042e-01,-4.820729e-01,5.041665e-01,
-5.217207e-01,-6.396918e-01,6.076895e-01,2.669518e-01,-4.443327e-01,
5.155075e-02,-1.924689e-01,-1.299726e-01,-3.233180e-01,-1.077390e-01,
-6.492234e-02,-7.853956e-02,3.403676e-01,-7.628808e-02,-1.630902e+00,
-7.556924e-01,4.104878e-02,-4.598620e-01,-1.000035e-02,3.261310e-01,
-1.507529e+00,-6.894078e-02,7.674587e-01,1.448880e-01,3.940615e-02,
-1.538717e-01,1.014542e+00,-1.375606e+00,2.649904e-01,-5.132439e-01,
-3.138544e-01,-3.907295e-02,-1.689931e-01,-1.227492e+00,8.052335e-02,
-1.763741e+00,1.586517e-02,1.926643e-02,1.480652e-01,-2.758422e-01,
2.517072e-02,-1.222558e+00,-3.073541e-02,1.606000e-01,-1.643715e-01,
-2.222637e-02,3.312958e-01,4.389813e-01,-2.381411e-01,4.537294e-02,
-2.021993e+00,1.586705e-01,1.335612e-02,8.422691e-02,-1.290095e-01,
-2.257698e-02,-2.504620e-03,8.030580e-03,4.777200e-03,6.413400e-03,
-5.166057e-02,2.680547e-01,-3.933209e-01,-5.170157e-01,-1.501843e+00,
2.897167e-01,2.197196e+00,-6.448830e-01,1.798690e-01,-2.559952e-01,
-1.428682e+00,-7.799963e-03,-1.368334e-01,-1.184479e-01,-9.049653e-02,
-4.338896e-01,
2.554709e-01,
6.447144e-02,
-7.672150e-01,
-4.215388e-02,
1.345652e-02,
-2.662014e-01,
-8.822990e-02,
-1.092892e-01,
-2.846827e-01,
1.945112e-01,
-1.338845e-01,
-4.456449e-01,
-3.692993e-01,
-6.850932e-01,
-1.719729e-01,
-3.009907e-01,
-7.468963e-01,
1.605166e-01,
-6.400760e-01,
-6.355203e-01,
-5.800084e-01,
4.377077e-02,
-3.730773e-01,
-1.311015e-01,
-2.977720e-01,
1.364625e-01,
-1.202072e-01,
-3.123073e-02,
2.100355e-03,
-1.008977e+00,
-5.759224e-01,
1.783141e-01,
3.488081e-02,
3.216166e-02,
-5.802834e-02,
1.088485e-01,
-6.283680e-01,
-1.377038e-01,
-4.014034e-01,
2.230699e-01,
-5.294890e-01,
-5.014524e-01,
6.718492e-02,
4.638511e-02,
-3.787434e-01,
-1.859057e-02,
-5.805142e-01,
2.740231e-02,
-2.159446e-01,
-1.965261e-01,-7.811901e-03,-9.478791e-02,1.122666e+00,3.201038e-01,-2.445024e+00,2.355064e-01,-1.413881e-01,6.460250e-01,1.445400e+00,-1.204853e-01,-1.383939e-01,-4.630179e-01,-8.580291e-01,6.907517e-01,1.965029e-01,-1.537079e-01,6.493202e-01,-3.148020e-03,7.695941e-01,-2.877882e-02,8.112307e-01,3.211110e-01,3.598293e-01,4.069081e-01,7.523097e-02,-4.827743e-01,-2.586237e-01,-1.006684e-02,6.081141e-01,2.393611e+00,1.101659e+00,-6.953468e-01,-1.148965e-01,-1.084374e+00,4.858776e-01,-5.552369e-02,8.487884e-01,1.715260e-01,5.401463e-01,-1.983419e-01,1.063599e+00,1.488171e-01,-1.188805e+00,-4.414518e-02,3.148006e-01,4.432410e-02,2.954390e-02,-8.212901e-01,4.814227e-01,
8.725555e-01,-1.675831e+00,-6.716486e-01,-3.625517e-01,3.684008e-01,-7.928466e-02,2.164590e-01,1.868191e-01,1.042859e-01,-7.344580e-02,6.139919e-01,4.121985e-01,9.183090e-01,5.201145e-02,-1.121361e+00,-3.665203e-01,-2.304821e-01,1.129173e+00,-7.400467e-01,1.116202e+00,-2.871599e-01,5.634315e-01,4.806593e-01,5.542570e-01,-2.492703e-01,9.749179e-02,-1.221776e+00,8.704237e-02,-2.977679e-02,4.938105e-02,1.831710e+00,7.067860e-01,-4.112687e-01,1.110078e-01,9.035690e-01,-5.054117e-02,-5.834136e-01,-5.895205e-01,1.401688e-01,-1.177589e+00,-7.507834e-01,5.695598e-02,7.633259e-01,1.624915e-01,8.269087e-01,9.367607e-01,-2.569520e-02,2.892894e-01,-1.739433e-01,6.076275e-01,
2.170947e-01,1.784506e+00,-3.436852e-01,9.629168e-02,1.253812e-01,5.204343e-01,1.223053e-01,-8.354525e-02,-2.755250e-01,1.619479e-01,3.437872e-01,1.732882e-01,-5.158384e-01,-7.380898e-02,1.697335e-01,-1.979887e-02,-1.453351e-01,6.928352e-01,-8.994722e-01,-3.335820e-01,-7.854841e-02,-5.999266e-01,-4.327308e-01,7.324857e-02,-9.725373e-02,1.376636e-01,5.469680e-01,1.511765e-01,-4.715556e-02,-1.515624e+00,-2.015092e-01,-9.272997e-01,-2.487728e-01,3.941810e-02,-2.486698e-01,-6.623188e-01,8.960392e-01,-9.181801e-01,-3.236682e-01,4.402461e-01,9.028238e-02,4.031466e-02,-2.022014e-01,1.871757e-01,1.760229e-01,-7.034951e-01,-1.870264e-02,2.763249e-01,-5.588223e-02,-1.136615e+00,
-1.179535e+00,8.427594e-02,-2.318726e-01,1.175875e+00,-9.356828e-01,-7.239262e-02,1.003410e+00,2.091417e+00,2.521147e-01,5.057114e-01,-1.876145e-01,1.798332e-02,2.865157e-01,7.834991e-01,-1.624114e+00,-1.389748e+00,-4.323775e-02,1.153350e+00,-1.706041e-01,-5.593333e-01,8.451985e-01,1.481850e-01,-2.609381e-01,8.544032e-02,-4.793249e-01,1.973297e-01,6.477464e-01,1.241144e+00,3.892090e-03,3.201284e-01,-3.332019e+00,-4.415157e-01,-3.609007e-01,8.254331e-01,9.699317e-01,1.204352e-02,5.177913e-01,1.344992e+00,-2.343322e-01,-1.602865e-01,9.006547e-01,9.422221e-01,9.584115e-02,-3.269982e-01,9.830950e-02,-3.222592e-02,-1.728896e-02,8.875946e-01,-2.844149e-01,-1.560378e-01,
5.720292e-01,-1.289848e-02,3.298534e-01,1.712073e+00,-5.027358e-01,-5.874975e-01,2.787896e-01,-5.475974e-02,1.170708e-01,-6.435316e-01,9.466521e-01,5.424764e-02,-2.322289e-01,-4.244486e-01,-1.131064e+00,-2.802527e-01,8.065201e-01,1.142994e+00,-2.624811e-01,-7.855532e-01,-8.601118e-01,-1.089493e+00,-9.610178e-01,1.047502e-01,-2.653908e-01,-3.868392e-01,1.670854e-01,5.032952e-01,-6.231387e-03,-1.238956e-01,5.926655e-01,3.766226e-01,-1.436984e-01,-1.066812e+00,-3.293476e-01,-1.372238e-01,-1.557360e-01,-7.575815e-02,-2.564391e-01,1.221725e-01,1.608066e-01,-1.406413e-01,-4.523822e-01,-5.236437e-01,-2.254083e-02,-2.357124e-01,3.788750e-02,2.432935e-02,1.467726e+00,-2.448444e-01,
-4.691341e-01,3.356433e-03,-6.131229e-01,5.295734e-01,-4.257309e-01,6.080057e-03,3.293140e-01,-4.728091e-01,1.747258e-01,-1.293206e-01,5.062294e-01,2.923852e-01,4.104576e-01,2.231176e-01,9.394197e-01,-8.730331e-01,-3.091926e-01,5.152647e-01,-1.306524e-01,-9.328648e-01,1.466741e+00,-5.905896e-03,3.437292e-01,-1.472632e-01,-6.603855e-01,2.888369e-01,3.479118e-01,8.581464e-01,1.238190e-02,-2.907360e-02,-1.580957e+00,-1.390819e-01,6.044279e-01,-8.056310e-01,1.580660e-01,-4.471384e-01,1.255684e+00,-3.744750e+00,2.661159e-01,-2.147880e-01,-7.965680e-01,-2.305789e-01,-2.080229e-01,-9.825581e-01,-6.188384e-02,-4.022737e-01,9.671420e-03,-6.390604e-01,-1.559142e-01,6.076979e-02,
1.424428e-01,-7.349616e-02,-1.211620e+00,-3.255068e-01,1.549384e-01,4.480420e-02,-3.487332e-01,-1.797319e-01,2.757235e-01,-1.960440e-01,-1.335076e+00,1.051305e-01,1.427984e-01,-1.965806e-01,2.892022e-01,-1.790222e-02,7.318096e-01,-4.418690e-01,-2.249716e-01,-2.703297e-01,1.881782e-01,-7.277836e-01,1.969032e-01,-2.286909e-03,-4.349772e-01,4.939231e-01,-8.226229e-03,7.324471e-02,2.488560e-02,-1.067791e-01,3.750982e-01,6.284287e-01,4.542515e-01,-2.122428e-01,-9.066585e-01,-9.492727e-02,4.023861e-02,-2.129659e+00,2.636779e-02,-9.038178e-01,1.097186e-01,1.254685e-01,4.970688e-01,1.052663e-01,-1.807444e-01,1.550047e-01,-1.214669e-03,-9.241983e-02,-4.217634e-01,-7.446416e-02,
5.225045e-01,-5.304490e-02,5.356815e-01,-1.460942e+00,5.703996e-02,5.163562e-01,1.595990e-01,-1.006447e-01,-5.421384e-01,-1.293052e+00,-1.225288e+00,6.816296e-02,-2.383543e-01,-2.922038e-01,5.646642e-01,-4.507538e-02,1.036154e+00,7.549518e-01,-6.724283e-01,1.757193e-02,5.437459e-01,5.240474e-01,8.446993e-01,-4.955762e-02,-7.788705e-01,-8.958271e-01,3.614928e-01,1.809273e-01,3.750310e-03,1.877468e-01,-3.481977e+00,1.327745e-01,3.520734e-01,-4.016413e-01,1.449994e+00,-1.114398e-01,-4.120577e-01,-5.081175e-01,1.490592e-01,-1.285450e-01,-1.170801e+00,-3.052147e-01,-3.252555e-02,8.957388e-01,1.042808e+00,1.927418e-01,-2.709734e-02,-1.348476e+00,-3.081852e-01,1.870703e-01,
2.744579e-01,-1.257589e-01,2.130586e-02,-1.102563e+00,-1.409678e-01,-5.040645e-02,1.194409e+00,-3.421042e-01,9.974149e-02,-1.309037e-01,-3.260413e-01,-6.642861e-02,1.367339e-01,4.821113e-01,7.789426e-01,3.436904e-01,3.795200e-02,9.182172e-01,-1.006652e+00,-9.392559e-01,1.528819e-01,-1.092294e+00,-1.317112e-01,5.589665e-02,2.791088e-01,4.968369e-02,-6.958649e-01,-8.034587e-01,2.919470e-02,2.692616e-02,4.475710e-01,9.692722e-01,-1.590938e+00,6.186437e-02,-1.254221e-01,-2.848105e-01,6.954764e-01,1.371551e-01,-1.597499e-01,3.106089e-02,2.583734e-02,3.731834e-01,-3.661568e-01,-1.780025e-01,3.895530e-01,-2.956223e-01,2.532130e-02,7.318768e-01,-1.479059e-01,1.499052e-01,
6.480269e-01,-6.688511e-01,3.944583e-01,-9.166423e-01,-1.362741e+00,1.094354e+00,7.717127e-01,-1.866947e+00,-1.677025e+00,-2.152648e+00,2.896042e-01,-5.694715e-01,-1.877350e+00,-5.638652e-01,6.993855e-01,7.694564e-01,5.885320e-01,-2.376436e-01,1.143746e-03,1.120224e+00,-2.153545e-01,-5.810313e-01,-2.222843e-01,-1.851013e-01,6.358506e-02,2.026126e-01,-9.827838e-01,-4.976898e-01,-3.541696e-03,2.394367e-01,1.747179e+00,2.206320e+00,-1.716619e+00,-4.512636e-01,-2.412528e-01,-3.689491e-01,-1.397463e+00,2.062123e-01,-4.304422e-01,-7.720190e-01,4.430390e-02,-2.336617e+00,2.081853e+00,8.361396e-01,-1.549264e+00,-2.075625e-01,-3.095510e-02,2.456079e-01,1.242262e+00,2.247636e-01,
-6.958845e-01,-2.369803e-02,-9.190782e-01,1.938556e-01,-5.717654e-01,2.505681e-01,-5.564276e-01,-4.733437e-01,2.382466e-01,1.264174e+00,-1.634610e-01,1.883468e-01,-6.369829e-02,-9.808360e-02,4.254725e-01,-4.851465e-01,-1.564127e-01,1.564335e+00,1.909707e-01,1.851661e+00,-3.302252e-01,5.450765e-01,-6.274574e-02,-6.066556e-02,-6.973522e-01,3.310695e-01,-2.380948e-01,6.463750e-01,4.580470e-03,-8.064076e-02,-8.102948e-01,9.699765e-01,7.810857e-01,5.575958e-01,-1.281227e-01,4.346813e-01,5.085235e-01,-9.162499e-01,9.118557e-02,7.058842e-02,-8.420219e-01,-1.630912e-01,-6.644818e-01,-3.529449e-01,6.344121e-01,-8.786106e-02,4.305310e-02,-4.287550e-01,-3.539554e-01,2.077973e-01,
5.162576e-02,5.902838e-02,-6.567640e-01,1.709388e-02,7.636442e-02,-1.094488e-01,3.676581e-01,4.334677e-01,1.505995e-01,1.139333e-01,-1.090410e+00,-3.446174e-01,2.178766e-01,-2.666093e-01,-8.166581e-01,-3.272156e-01,-5.136765e-01,5.928054e-01,-2.892291e-01,-2.259058e-01,3.633379e-01,1.000254e-01,9.268857e-01,-1.424305e-02,-3.259404e-01,2.103484e-01,-6.480513e-01,8.682121e-02,-2.944986e-02,-4.953888e-01,1.188146e-01,-2.630064e-01,-4.754995e-01,6.208272e-02,8.922548e-01,2.056536e-01,-5.320959e-02,2.508430e-01,2.707406e-01,-3.876600e-03,-4.361504e-01,-9.561387e-02,3.447830e-02,-1.187693e-01,6.023578e-01,-2.633916e-01,1.272300e-02,-2.039328e-01,4.517901e-02,-4.686345e-01,
-2.148817e-01,6.683293e-02,3.111300e-02,9.212184e-01,6.450306e-01,4.175734e-01,-1.307956e+00,-3.045422e-01,3.342546e-01,6.012147e-01,5.644307e-01,-3.055217e-01,-7.079931e-01,-1.377913e-01,6.520752e-01,-3.518418e-01,-3.885953e-01,-1.942673e-01,1.876488e+00,1.072101e-01,-1.919137e-01,1.622036e+00,-1.020959e-01,-2.651395e-02,9.367356e-01,-1.638483e-01,-7.333177e-01,8.984402e-01,1.223870e-02,-4.982069e-01,1.357213e+00,7.642043e-01,2.525502e-01,6.122320e-01,-1.202237e+00,-1.250636e-01,-8.450491e-02,2.106752e-01,4.157633e-01,5.790603e-01,8.169961e-01,-4.531001e-01,-7.061804e-01,-1.364029e-01,-2.106360e-01,1.803570e-01,-2.473349e-02,-7.396945e-01,5.782393e-01,9.611400e-02,
-5.845178e-01,-4.176794e-01,-1.856173e+00,-3.187149e-01,8.787919e-01,5.128982e-01,-2.371904e-01,-2.745424e-02,7.262617e-02,9.039450e-01,-1.438797e+00,-3.025264e-01,2.900455e-01,-6.469687e-01,2.164955e-01,-2.291523e-01,-1.274295e+00,1.608959e+00,2.938440e-01,-1.385473e+00,5.518379e-01,5.020463e-01,1.373491e-02,5.798777e-01,-1.276942e-02,-1.012570e+00,-2.067581e-01,8.854965e-01,7.177800e-03,-1.735818e-01,-2.122737e+00,9.129792e-01,-6.853960e-01,-1.075629e+00,-4.899494e-01,8.891330e-01,5.698440e-01,4.469489e-01,4.012366e-02,1.231468e+00,3.160241e-01,1.700674e-01,-1.387688e-01,-5.219958e-01,3.301182e-03,-8.793285e-01,-1.429444e-03,-1.030371e+00,1.247342e+00,-4.017463e-02,
2.139238e-01,4.120347e-02,-5.114063e-01,-9.869068e-01,1.114625e-01,4.174521e-02,-5.990295e-01,-3.931335e-01,-1.408175e-01,-4.484682e-01,-4.135378e-01,4.920384e-02,-1.285244e-01,-9.649009e-02,1.745556e+00,1.859539e-01,1.340783e+00,4.790658e-01,3.701433e-01,6.625332e-01,-9.786329e-02,-5.459525e-03,3.859766e-01,-1.185581e-02,7.060433e-02,-3.593464e-01,2.583886e-01,3.207247e-01,-4.660987e-02,1.253337e-01,6.857039e-02,3.265459e-01,5.133030e-01,-2.028739e-01,-8.613313e-02,1.541272e-01,6.119759e-01,3.880408e-01,-4.238759e-01,1.310283e-01,-1.967382e-01,-1.044647e+00,-7.126312e-01,9.906417e-01,-8.818231e-01,-3.065321e-01,-1.839456e-02,-1.199373e+00,-4.993759e-01,1.412400e-01,
-8.429602e-03,-3.585831e-02,3.892730e-02,-2.056467e-02,-2.928681e-02,-5.461379e-02,-4.570954e-02,2.977830e-02,-4.365398e-02,-9.097125e-04,-3.497097e-02,-4.569070e-02,-4.268372e-02,-2.586124e-02,1.617580e-03,-2.002701e-02,-3.108262e-02,-3.600396e-03,-4.220157e-02,-4.029308e-03,5.056900e-03,2.683620e-02,1.434360e-02,-2.186865e-02,1.299420e-02,-1.925647e-03,-8.567766e-03,2.097650e-02,-2.273828e-02,-1.504006e-04,-5.238034e-02,-2.919082e-02,-4.335012e-02,-2.568099e-02,3.494690e-02,2.783580e-02,2.310510e-02,-4.381599e-02,3.671790e-02,-1.892707e-02,-5.174823e-02,2.244730e-02,-4.081746e-04,1.446940e-02,-2.686662e-02,3.436760e-02,1.252520e-02,1.565540e-02,-2.348668e-02,1.245460e-02,
-1.911721e-01,-3.040323e-02,6.476962e-01,1.330667e+00,6.123018e-03,-4.023077e+00,-1.910351e-01,-3.868155e-01,-1.028529e+00,3.066519e-01,-9.101121e-01,-1.016408e-02,-8.044042e-01,-1.281557e-02,-1.304505e+00,5.298945e-01,-3.213147e-01,2.698830e-01,-2.179779e-01,-6.042680e-01,3.139814e-01,1.621093e+00,-6.594266e-01,4.348062e-02,-3.489928e-02,-5.129967e-01,2.866738e-01,-1.354697e-01,2.007430e-02,1.173685e-01,1.471864e+00,1.912844e+00,2.892848e-02,-4.085392e-01,4.670106e-01,-1.353811e-02,-1.403344e-01,9.139379e-02,9.242837e-01,9.069633e-01,6.893492e-02,-4.241797e-01,1.457903e+00,-1.293330e-01,2.641194e-01,2.597681e-01,7.167190e-03,-7.816505e-02,6.170670e-01,1.619963e-01,
-3.362559e+00,6.889144e-02,2.267598e-01,-6.811184e+00,7.817304e-02,-2.237242e-02,-2.001599e-01,5.189723e-01,3.631200e-01,-2.698157e+00,2.356848e-01,-9.542332e-02,-2.590295e-01,6.895148e-01,1.114522e+00,-1.524771e+00,-1.165424e-01,1.297298e+00,7.542612e-01,2.902080e+00,-1.261966e-01,2.094742e-01,-1.609251e-01,2.011693e-02,-6.173192e-01,6.645234e-01,-2.073225e+00,1.490729e+00,-3.005179e-02,1.107881e-01,-4.929034e-03,3.026052e+00,-2.131873e+00,5.220003e-01,-4.752286e-01,-1.935010e-01,-2.511398e-01,-3.531530e-01,1.340059e-01,-2.746031e-02,7.457207e-03,-2.562774e+00,-4.897464e-01,-6.404087e-02,1.329870e-01,-1.242365e-01,2.316150e-02,-8.634953e-02,-1.715928e+00,2.477265e-01,
-2.735587e-01,-1.479605e-01,-6.178094e-01,-4.738875e-01,1.192101e+00,1.354227e-01,3.541538e-01,8.015140e-01,5.627333e-01,-2.459104e-01,-7.323660e-01,-8.135146e-02,2.932245e-02,8.417680e-02,5.572537e-01,3.494561e-02,4.981069e-01,1.214224e+00,-7.705821e-02,2.538981e-01,-4.087442e-01,1.433088e+00,-1.672514e-01,-3.934013e-01,-6.033802e-01,7.837523e-01,-1.498259e+00,-3.097581e-01,6.189630e-02,4.696203e-01,6.109198e-01,5.487311e-01,-7.295655e-01,1.025523e-01,-3.729692e-01,7.866119e-01,-6.173130e-01,-3.985039e-01,-3.177983e-01,1.467340e+00,2.534193e-01,-1.722788e+00,8.044115e-01,1.064313e-01,2.824762e-01,-3.562420e-01,-4.380827e-02,5.013071e-01,-4.874083e-02,7.311146e-01,
1.984480e-01,1.214967e-01,1.703836e-02,1.579338e+00,3.222751e-01,-2.532193e-01,8.986894e-01,6.143658e-01,1.059691e-01,-1.232045e+00,3.477300e-01,1.805868e-01,4.998505e-01,-3.500239e-01,-1.259051e+00,-3.233036e-01,-1.596809e-01,-5.454488e-01,-3.736644e-02,-9.509732e-01,4.122033e-01,-8.351199e-01,1.463924e-01,1.491835e-01,-7.707644e-01,3.081253e-01,-1.726270e-01,2.591491e-02,-7.531525e-03,-2.002083e-01,-1.357962e-01,6.284378e-02,5.344678e-02,-1.064577e+00,1.259814e-01,3.038059e-01,-1.617862e-01,7.158629e-01,2.438373e-01,-3.028148e-01,-1.963695e-01,-5.059123e-02,-2.719385e-01,2.657606e-02,-6.382900e-02,3.968054e-01,-4.178730e-02,-9.516180e-02,-3.912187e-01,1.104603e-01,
-1.665860e-01,1.977558e-01,6.214645e-01,1.662479e+00,4.885702e-02,-1.408247e-01,-5.261199e-02,1.406416e+00,6.287795e-01,-1.109732e+00,4.468334e-01,7.295098e-01,1.651726e-01,-1.543404e-01,-8.463396e-01,3.406805e-05,7.385289e-01,2.852685e-02,-3.889166e-01,1.080339e+00,1.451683e-01,-9.367747e-02,1.653860e-01,3.872211e-02,-1.510804e+00,1.153417e-01,-1.972625e-01,1.066146e-01,-3.855475e-02,2.431266e-02,-3.377164e+00,-1.654561e-01,4.807146e-01,-1.709151e+00,5.897490e-01,-4.446160e-02,4.629781e-01,-1.943517e-01,-5.899006e-01,-2.147540e-01,-9.835315e-01,1.040632e+00,-5.601006e-01,5.184563e-02,1.945054e-01,1.241828e-01,-3.285174e-02,-1.116366e+00,-1.064412e+00,1.223073e-01,
-1.938223e-01,-4.237482e-01,-9.235165e-01,-7.249160e-01,2.334877e-01,-6.178022e-01,-5.239671e-01,-4.356096e-01,5.368698e-01,-3.722904e-01,-1.492769e+00,-8.693849e-02,2.125260e-01,5.092919e-01,3.110894e-01,-1.999920e-01,1.291090e-01,6.436387e-01,3.895542e-01,-6.246136e-01,1.505215e-01,1.199283e+00,-3.582329e-02,9.323014e-01,-3.495274e-01,1.053354e-01,-2.303399e-01,1.412237e-01,4.932190e-02,1.452972e-01,-5.456858e-01,6.156155e-01,1.296944e-01,9.336704e-01,-2.164504e-01,1.905953e-01,-2.804906e-01,-5.131491e-01,1.016799e+00,-7.183900e-02,6.218101e-01,-4.356189e-01,-7.911070e-02,-7.567225e-02,2.627885e-01,6.820155e-02,-2.550136e-02,-8.793913e-02,-1.719472e-01,8.861899e-01,
-7.384822e-02,-3.310719e-02,9.658611e-01,1.644046e+00,4.409477e-01,-2.748040e-01,-2.883969e-01,-3.046452e-01,-2.828720e-02,8.778051e-01,4.288273e-01,-4.733272e-02,-2.547458e-01,-2.944780e-01,3.697187e-01,1.577181e-01,9.870817e-02,-2.088438e+00,2.417502e-01,-2.738296e-01,6.184569e-01,3.778948e+00,-4.021501e-01,-2.003113e-01,-2.527939e-01,5.684724e-02,-9.217727e-02,3.331475e-01,-1.739114e-02,6.834276e-01,-1.205646e+00,3.034247e-01,3.328888e-01,-8.154324e-01,2.660352e-01,1.200996e+00,-2.972951e-01,-7.143030e-01,-6.756625e-01,1.579707e+00,1.211705e-01,4.084977e-01,1.491033e+00,9.019817e-01,-4.244166e-01,9.114537e-01,1.060180e-02,-3.042795e-01,-4.748558e-01,8.508270e-01,
2.137560e-03,-1.826417e-02,-3.833361e-02,3.548550e-02,-3.911301e-02,1.174280e-02,-1.256003e-02,3.758510e-02,-1.226153e-02,-3.445865e-02,-8.516843e-03,-2.226510e-02,-4.510977e-02,2.040180e-02,-3.095037e-03,-3.310430e-02,-1.118776e-02,3.422460e-02,3.970440e-02,-1.368901e-02,2.810590e-02,-1.343553e-02,7.959630e-03,-2.776313e-02,-5.421889e-02,-1.520177e-02,3.081600e-02,-5.644142e-02,1.579450e-03,-3.014624e-02,-3.642378e-02,-4.619982e-02,-1.741833e-02,-5.839080e-03,-4.434634e-03,-4.477977e-02,-4.404053e-02,-2.080034e-02,2.870310e-02,-1.437241e-02,-5.934448e-02,-4.727937e-02,2.868910e-02,-5.401124e-02,-2.221329e-02,3.304150e-02,3.525930e-02,1.254680e-02,2.451620e-02,-5.255420e-02,
3.011000e-02,-4.174373e-02,1.080450e-02,4.011390e-02,1.902380e-02,3.243520e-02,-4.994944e-03,-1.682907e-03,-1.423542e-02,-4.940477e-02,-3.699059e-02,-2.811787e-02,-3.938287e-02,-3.205803e-02,-6.085404e-02,2.680270e-02,-4.052648e-02,3.934250e-02,1.536310e-02,-4.026806e-02,7.002560e-03,1.143340e-02,-8.049903e-03,-1.227430e-02,-4.279743e-02,-2.121851e-02,-5.781823e-02,3.233430e-02,-3.867248e-02,1.854210e-02,4.154880e-02,-5.093741e-02,-4.955762e-02,3.136410e-02,1.125390e-02,-9.480934e-03,-5.747060e-02,3.316310e-03,-1.262955e-02,-2.812302e-02,-2.685674e-02,3.492130e-02,-7.060835e-04,-3.053291e-02,-9.686027e-03,-3.834494e-02,-2.438381e-02,1.146870e-02,-3.523238e-02,-1.714219e-02,
1.323316e-01,-2.578481e-01,6.052393e-01,-7.518474e-01,3.374388e-01,7.697280e-01,-1.263903e-01,-1.614576e+00,-6.018877e-01,-7.194437e-01,-2.747185e-01,-3.479804e-01,4.678570e-01,8.901569e-01,9.692609e-01,3.980182e-01,-1.201629e+00,-1.562067e+00,2.001362e-01,5.794852e-01,4.728519e-01,-8.450058e-01,-3.470327e-01,2.338954e-02,2.390517e-01,7.127405e-01,7.426786e-02,-6.047449e-01,3.588430e-02,2.587506e-01,1.649401e+00,-1.113451e+00,-2.176596e-01,2.788750e-01,7.424138e-01,-7.140722e-02,-4.486206e-01,7.011374e-01,-1.733634e-01,-4.104756e-01,-1.270587e-01,-1.390459e+00,6.355691e-02,-6.130323e-02,-3.972792e-01,2.285750e-01,2.302520e-02,1.332508e-01,6.883392e-01,3.764333e-02,
1.017018e-01,-3.103740e-01,-1.286501e+00,-5.437153e-03,1.110360e+00,4.142761e-01,-7.543699e-01,7.476302e-01,5.487871e-01,9.145447e-01,-5.357637e-01,8.084624e-02,1.766599e+00,-9.588765e-02,-4.478347e-01,-2.794874e-01,8.359353e-01,3.898128e-01,-1.906046e-01,9.307956e-01,-3.794870e-01,4.416887e-01,-9.679919e-01,5.813536e-01,-3.652442e-01,2.408669e-01,6.177054e-02,5.362011e-01,7.830360e-03,9.508985e-01,-1.036098e+00,1.062115e+00,2.903511e-01,-2.322289e-01,-7.674654e-01,5.077038e-01,-7.327657e-01,-9.955290e-01,-3.364227e-01,1.392649e+00,1.716938e-01,1.669334e+00,-1.091615e-01,7.492709e-01,5.513444e-01,1.356118e-01,-1.907375e-02,-6.023749e-01,-1.674110e-02,7.219115e-02,
-1.151519e-01,-3.957559e-01,-1.637659e-02,4.975845e-01,4.706989e-01,-5.013071e-01,-2.468045e-01,3.741218e-01,-9.753224e-01,-2.676980e-01,-5.713636e-01,-2.498193e-01,1.179569e-01,-2.735536e-01,-2.320909e-02,7.874118e-02,-6.710079e-01,1.119425e-01,3.587930e-01,-1.132475e+00,3.773501e-01,-6.855402e-01,-5.131800e-01,1.819369e+00,4.642857e-03,2.411003e-02,2.575971e-02,1.206748e-02,6.378470e-04,2.162817e-01,-1.591257e-01,5.905444e-01,-1.340421e-01,-5.066539e-02,-6.493933e-01,2.279267e-01,6.270872e-01,1.842030e-01,1.397212e+00,-8.821970e-01,-2.926941e-01,-8.075447e-01,1.227518e+00,-2.606466e-01,1.127654e-01,1.355844e+00,1.916360e-02,-3.253193e-01,3.191449e-01,8.967906e-01,
-3.725469e-01,-1.605286e-01,3.681694e-01,5.390810e-02,3.511364e-01,-3.437501e-01,1.948366e-01,1.018283e+00,1.244158e-02,9.706874e-01,1.749434e-01,4.898567e-01,4.594353e-01,2.141695e-01,4.806742e-01,3.667416e-01,1.418800e-01,-1.515017e+00,-1.319420e+00,8.669540e-01,1.139478e+00,1.157310e+00,-2.394400e-01,-1.090111e-01,-6.594194e-01,3.706372e-01,6.313563e-01,-7.431563e-01,-2.376519e-02,-2.580840e-01,3.002480e-01,-5.436319e-01,9.289379e-02,7.654362e-01,1.213144e-01,3.773302e-01,-2.708323e-04,-9.879369e-01,-7.917929e-02,1.385053e-01,-1.260545e+00,5.429423e-01,3.662361e-01,-4.310200e-01,-3.825718e-01,1.792308e-01,2.760810e-02,2.217200e-01,-2.496689e-01,-4.419204e-01,
-5.299608e-01,7.498602e-01,5.798478e-01,-7.038093e-02,5.506627e-01,4.196869e-03,-2.418182e-01,-5.477427e-01,3.266849e-01,-6.670383e-01,4.772306e-01,-4.644991e-01,1.585850e+00,5.244658e-01,-2.219547e-01,1.119285e-01,-4.170604e-02,5.842494e-01,-5.067558e-01,-5.603488e-01,-3.955632e-02,-1.154702e+00,-6.649422e-01,1.647937e+00,-4.244764e-01,4.277569e-01,-2.164123e-01,4.763398e-01,1.518990e-02,2.740949e-01,3.536834e-01,2.341435e-01,-3.613116e-01,-3.163408e-01,-4.502068e-01,5.755639e-01,-2.395986e-01,-1.092263e+00,1.876884e-01,5.568768e-01,-5.124857e-01,-8.910674e-01,1.555346e+00,-2.133006e-01,-1.142764e-01,3.963220e-01,-3.945909e-02,5.330502e-01,2.946470e-01,3.222819e-01,
5.032901e-02,2.627255e-01,3.277963e-01,-3.202496e-01,-3.435585e-01,2.433748e-01,-1.227935e+00,-1.479780e-01,4.284894e-01,5.484904e-01,-2.965576e-01,-1.054421e+00,-5.280892e-01,5.352227e-01,-8.565346e-01,-3.741671e-01,1.647206e+00,2.124278e+00,-1.445481e+00,-8.625395e-01,-3.080318e-02,-2.234008e+00,5.353935e-01,6.853372e-01,2.987510e-01,5.556163e-01,2.570966e-01,1.942677e-01,5.725810e-03,8.612239e-01,7.541869e-01,1.020522e+00,1.276788e-01,4.740787e-01,3.886261e-01,-7.355158e-01,1.858442e-01,1.391553e+00,5.854756e-01,-4.751379e-01,7.647975e-01,-3.335387e-01,-1.378542e+00,1.095955e-01,-1.596902e+00,5.535845e-01,2.035180e-02,6.027183e-02,4.979165e-01,1.096183e+00,
5.121446e-01,-5.603468e-02,-1.047211e+00,-6.014829e-01,-1.086413e+00,5.137177e-01,-3.109601e-01,-2.817864e-01,-1.285224e-02,1.839621e+00,-1.536698e-01,-5.970673e-01,6.292091e-02,-5.388908e-01,-8.370882e-01,5.935457e-02,4.666678e-02,-1.864248e-03,-2.923397e-01,2.145223e-01,1.256142e+00,4.631317e-01,-1.131908e-01,-2.372832e-02,8.563738e-03,-5.524714e-01,-7.147510e-01,6.148376e-01,3.700080e-02,5.285345e-02,-2.387241e+00,4.086517e-01,6.044744e-01,6.141015e-01,-3.398907e-02,-1.840342e-01,2.751624e-01,-8.966088e-01,-4.138159e-02,9.985313e-02,-8.652350e-01,-1.311592e-01,-7.703885e-03,1.543609e-01,5.359582e-01,4.205492e-03,3.665020e-02,7.818510e-02,-5.307065e-01,2.501360e-02,
-4.573200e-02,-4.808277e-01,-3.298492e-01,7.032999e-01,-1.200630e-01,9.726436e-02,1.949375e-01,-4.357364e-01,1.728952e-01,2.012120e-01,8.115503e-02,-2.781546e-02,1.514673e+00,1.767750e-01,7.891397e-01,-1.069253e-01,4.824910e-01,4.693652e-01,-4.973334e-01,5.154306e-01,5.127518e-01,1.658059e+00,1.209503e-01,2.102859e+00,2.052122e-02,4.006066e-01,-4.279938e-01,-2.898564e-01,3.744140e-02,-3.164974e-01,1.084829e+00,1.193981e+00,-4.642951e+00,8.657595e-02,1.679971e-01,-2.015205e-01,-1.350495e-01,5.408746e-01,-1.146297e-01,-1.254561e-01,6.288335e-02,2.441132e-01,2.014454e+00,-7.459393e-02,-3.012719e-01,6.454535e-01,1.844950e-02,-8.096665e-02,-1.947318e-01,7.651787e-02,
-8.622295e-01,-4.651964e-01,-2.339892e-01,-1.948194e+00,6.765110e-01,5.791240e-01,-9.402149e-01,-3.746738e+00,2.875584e-01,1.231900e+00,1.293621e-02,-3.268829e-01,-2.639303e-01,6.205915e-01,7.337750e-01,2.767158e-01,4.713880e-01,-1.462806e+00,4.687458e-02,7.245403e-01,2.113766e+00,-1.382044e+00,5.287722e-01,3.029560e-01,-9.494221e-01,3.141267e-01,1.784470e+00,3.042541e-01,-2.813239e-02,-1.844493e-01,2.556590e+00,3.077956e-01,4.191337e-01,3.525524e-01,2.093444e-02,-1.508981e-01,-9.352729e-01,-8.226764e-01,-1.124667e-01,-5.030767e-01,-9.001098e-01,8.589612e-01,-1.035675e-01,2.575496e-01,-1.021497e+00,-1.187539e-01,-2.862648e-03,8.607732e-01,2.018619e-01,1.572953e-01,
9.874250e-01,-1.223125e-01,1.142734e-01,1.541840e-02,-3.850263e-01,5.880002e-02,-5.346267e-01,7.277090e-01,9.444320e-01,2.365151e-01,-8.779947e-01,3.078618e-01,5.409510e-02,7.533900e-01,6.440770e-03,1.561398e-02,-1.297687e-01,2.714440e-02,1.637690e+00,5.450910e-03,-4.365830e-02,-5.686671e+00,2.913211e-01,-3.461923e-01,1.667951e-01,-5.105370e-02,1.141724e+00,-3.049840e+00,-1.173901e-02,-2.899131e-01,3.026310e-02,-2.920575e-02,1.143070e+00,2.616674e-01,8.893998e-02,-1.822966e-02,-9.559677e-01,2.789961e-01,1.480300e-01,-2.495216e-02,-3.061160e-01,-9.328586e-01,2.733198e-01,-7.385265e-01,-9.087361e-01,2.039091e-01,-5.048349e-02,1.208911e-01,-2.498996e-01,2.039905e-01,
2.151214e-01,-1.961851e+00,-1.206037e-01,-1.661956e+00,-1.132413e+00,2.560933e-01,5.248535e-01,-2.873999e-01,9.241184e-01,9.585375e-01,1.225640e-01,-1.470428e-01,2.606518e-01,1.840042e+00,-1.666674e-02,-2.224728e-01,-1.702497e-01,4.092754e-02,-6.113575e-01,5.161299e-01,3.185052e-01,-2.959231e-01,3.594041e-01,1.762999e+00,4.303603e-01,6.407709e-01,1.050304e-01,2.989618e-02,-1.532104e-02,-1.511669e-01,2.033413e+00,-2.230630e-01,8.980569e-03,-7.851741e-02,2.231115e-01,5.116838e-01,9.642582e-02,1.496382e+00,-4.018720e-01,5.307984e-01,2.929598e-01,-6.295411e-01,-1.426766e+00,2.373364e-01,-2.579965e+00,1.064608e+00,-3.126647e-03,2.267099e-01,1.991474e-01,2.155533e-01,
2.138491e-02,5.368989e-02,-5.649251e-02,2.587647e+00,-5.829079e-01,1.734206e-01,7.036012e-01,4.499703e-01,-2.446167e-01,4.632924e-01,-2.184002e-01,2.864119e-02,-1.932785e-01,-1.221322e-01,2.768695e+00,-1.494108e-01,-2.398242e-01,-1.969648e-01,1.316765e+00,-5.097429e-01,-4.781013e-01,-1.654942e+00,-3.506573e-02,1.581638e-01,-1.372073e-01,3.424874e-02,6.492608e-01,-1.402376e+00,-5.043364e-02,-2.686312e-01,4.375306e-01,1.549442e+00,2.313040e+00,-2.631722e-01,5.210153e-01,4.216027e-01,-7.586084e-01,1.017705e+00,2.711093e-01,3.739682e-03,2.550906e-02,6.974354e-01,-2.145387e-01,-2.338533e-01,-1.951438e-01,-1.502399e-03,-2.256349e-02,1.194943e+00,-8.256109e-02,-7.852555e-02,
-6.984007e-01,1.105703e+00,-2.356125e-01,5.407088e-01,-5.888335e-01,8.669618e-01,7.904947e-01,1.643403e-01,-2.161331e-01,-3.885891e-01,1.986473e-01,1.489619e-01,-4.335569e-01,3.782446e-01,2.265158e-01,-3.658024e-01,5.033033e-01,5.567933e-02,2.939430e-01,8.994951e-01,2.851226e-01,6.059194e-01,5.374062e-01,-1.180164e-01,-7.110214e-01,-1.241098e-01,6.553689e-01,4.517222e-01,-2.943760e-03,-5.639250e-02,1.604977e+00,-2.001197e+00,1.792473e-01,-4.763750e-01,-2.720930e-01,-1.917057e-01,-2.178944e-01,1.297802e-01,-2.038761e-01,-2.940454e-01,-4.486371e-01,-5.766424e-01,-7.043985e-02,2.113911e-01,1.277931e+00,-4.949222e-01,8.341160e-03,2.546279e-01,4.964509e-02,-4.058869e-01,
-3.119169e-01,-6.379511e-01,2.314944e-01,-8.348243e-01,-3.492318e-01,-3.083408e-01,6.055827e-01,2.389343e-01,-8.178632e-01,3.142813e-01,2.020821e-01,1.637717e-01,7.582529e-01,-1.816508e-02,1.669676e-01,-2.021560e-01,-3.550204e-01,-9.947853e-01,-4.223948e-01,-1.420380e+00,-2.035826e-01,1.313766e+00,5.039280e-02,2.319154e+00,1.407460e-01,5.147063e-03,-1.051506e-02,-5.924972e-01,-2.533810e-02,5.350345e-01,-3.288028e+00,3.600988e-01,-5.426472e-01,-1.371445e-01,5.308762e-01,-5.476211e-03,-6.569340e-01,1.512576e-02,-4.590030e-03,1.113822e+00,4.781295e-01,2.531914e-01,6.565582e-01,-2.619465e-02,-6.829456e-01,1.224683e+00,2.342080e-04,8.024023e-02,-1.880965e-01,1.185457e+00,
3.435917e-01,6.663594e-02,5.077864e-02,1.093960e+00,-1.208705e-01,1.254850e-02,-6.135720e-01,1.287527e+00,4.024607e-02,1.083705e+00,-1.365100e-01,1.475197e-01,-2.733579e-01,-5.724379e-01,1.344143e+00,1.312563e+00,3.249519e-01,1.925350e+00,-2.019150e+00,-1.158987e+00,-2.287321e+00,6.886888e-01,2.678686e-01,1.820005e-01,4.912156e-01,-6.378790e-02,-1.041835e+00,-1.065607e-01,2.686430e-02,3.213398e-01,-3.966386e+00,-3.427150e-01,-7.596878e-01,7.037089e-01,-1.556011e-01,-3.687420e-01,9.287652e-01,-5.820726e-01,-3.569259e-01,-9.997983e-02,4.748267e-01,-3.343040e-01,-2.014587e-01,-1.250204e-02,7.311555e-01,-6.242191e-03,2.502000e-02,1.535305e-01,3.466589e-01,-2.654629e-02,
-4.322961e-01,2.979539e-01,-7.045767e-02,-2.936149e-01,7.296205e-01,-3.059543e-01,-6.585624e-01,6.390275e-01,2.482475e-01,9.214554e-01,-1.805724e-01,3.797531e-01,1.060859e-01,-7.362368e-01,-1.504603e-01,1.980042e-01,6.732334e-01,8.623714e-01,-6.315744e-03,7.584860e-01,2.612139e-01,2.401702e+00,1.220900e+00,-7.021809e-01,6.940253e-01,-3.429138e-01,2.423836e-01,5.341247e-01,1.930440e-02,-3.578416e-01,-1.324168e+00,8.527147e-01,-1.575962e-01,3.438252e-01,1.300747e+00,4.567769e-02,-3.479371e-01,1.543435e+00,8.700348e-01,5.915990e-01,3.052668e-01,2.931204e-01,-1.732583e-01,-3.512918e-01,3.784145e-01,3.241963e-01,-1.753369e-02,2.833196e-01,-2.365755e-01,2.884144e-01,
6.223208e-01,-2.579913e-01,1.714048e-01,-4.998858e-01,5.029906e-01,4.075765e-01,7.417464e-01,-5.161402e-01,3.763713e-04,2.779739e-01,-2.055808e-01,-7.083279e-02,-9.313466e-02,1.033306e-01,1.914040e+00,-5.665896e-01,-2.448681e-01,-4.651737e-02,3.578078e-02,-1.043637e+00,-1.227193e+00,-3.757718e-01,-8.776826e-02,1.764190e-01,1.972790e-01,-7.110646e-01,-1.114450e-01,-1.100699e+00,4.380910e-02,5.535096e-02,3.070636e-01,1.320038e+00,-3.510003e+00,-1.437736e-02,7.968987e-01,9.059764e-02,1.194798e+00,3.012840e-01,-4.343706e-01,-3.754164e-01,1.597706e-01,9.886166e-01,1.663742e-01,-3.252503e-01,3.058575e-02,-7.726070e-02,4.245720e-02,-2.693913e-02,1.272776e-01,1.963467e-01,
6.204532e-01,-1.410297e-01,1.871140e-01,1.777952e+00,-1.353914e+00,3.523903e-01,-7.244031e-01,1.886815e-01,8.404245e-02,-4.032759e-01,2.369244e-01,-1.345880e-01,1.010682e+00,6.943716e-02,4.341187e-02,-1.160295e-02,-6.322181e-02,1.592585e-02,-2.921193e-01,5.421844e-01,-1.054308e+00,1.668792e+00,-5.358101e-01,-3.678315e-01,2.247587e-01,4.012638e-01,8.063601e-01,-6.721646e-01,1.236120e-02,9.832793e-01,-9.491151e-02,1.853283e+00,-2.832016e-01,3.849484e-03,4.852268e-01,-6.011626e-02,-5.584629e-01,-5.239537e-01,1.399439e+00,-1.543908e-01,6.474663e-02,2.220563e-01,-1.946113e-01,-1.494582e-01,6.918874e-01,-2.375551e-01,2.992550e-02,-4.469644e-01,1.148296e-01,1.094655e+00,
4.699223e-01,-7.137715e-01,3.857552e-01,-1.978043e+00,1.271458e+00,-1.303949e-01,-1.158596e+00,-8.555509e-01,9.251663e-01,4.692447e-01,3.441989e-01,-9.789696e-02,-7.657237e-02,-5.275670e-01,-7.395059e-01,3.545108e-01,5.983627e-01,1.054314e+00,-3.331185e-01,-9.990557e-01,-3.444135e-01,-2.023878e+00,-1.189310e+00,9.322779e-01,6.219097e-01,-4.422047e-01,-5.328870e-01,-2.192468e-01,1.942350e-02,7.763386e-01,-4.467440e-02,7.326333e-01,1.102706e-01,-2.008387e-01,2.698306e-01,6.279364e-01,8.233111e-01,2.343837e-02,-1.208839e+00,8.582432e-01,-5.579582e-01,-1.186683e-02,-1.311087e+00,-1.021008e-01,-7.338863e-01,3.002596e-01,3.643090e-02,3.438262e-01,4.992359e-01,-6.848779e-02,
1.620987e-01,7.823749e-02,1.066457e-01,-2.225624e+00,1.511677e+00,-2.276207e-01,5.329083e-01,-1.299747e+00,3.340659e-01,1.011923e+00,2.200309e-02,2.063685e-02,5.495387e-01,9.321240e-01,-3.003336e-01,-9.138973e-01,5.818007e-01,1.020975e+00,3.045984e-01,-7.498513e-01,-1.576775e-02,-6.492409e-02,2.624141e-01,-5.488828e-01,1.439199e+00,4.671413e-01,-1.064567e+00,5.675519e-01,-1.981174e-02,-8.661558e-02,9.402250e-01,9.503632e-01,3.597827e-02,6.914626e-01,8.914497e-01,-4.706121e-01,1.073936e-01,-7.771989e-01,2.913793e-02,-2.628292e-01,7.354424e-01,7.079506e-02,-8.241050e-01,4.622845e-01,2.768341e-01,1.858655e-01,-1.654963e-02,6.098642e-01,8.612718e-02,4.294589e-01,
-1.423254e-02,-2.923923e+00,1.119836e-01,1.443952e+00,3.055830e-01,-3.022380e-01,3.290395e-01,8.101789e-01,-7.522780e-01,3.195190e-01,1.730926e-01,2.442528e-01,-8.913136e-01,-5.525147e-01,-7.511058e-04,2.196342e-01,-1.283545e+00,6.577551e-01,4.318227e-01,1.962310e-01,2.977968e-01,1.506091e+00,1.696559e-02,3.618362e-02,-1.073414e+00,2.146658e-01,-5.717139e-01,6.491211e-03,-1.950583e-02,3.651749e-01,1.112587e+00,6.543892e-01,-6.678386e-01,-1.591185e-01,6.136734e-01,3.736537e-01,-8.466970e-02,1.034515e+00,-3.866197e-01,5.585513e-01,1.704038e-01,-8.289574e-01,9.351218e-01,5.476638e-01,1.598017e-01,-1.112318e+00,-2.314637e-02,1.906390e-01,6.931309e-02,-6.420041e-01,
9.039838e-01,-6.135483e-03,3.262838e-01,-1.742945e-01,-1.015180e+00,1.372550e-01,-8.042106e-01,-2.448598e-01,1.068260e-01,-5.964359e-01,9.601186e-02,-6.368954e-01,7.420109e-02,7.786885e-01,1.218575e+00,1.008790e+00,-2.425557e-01,-1.433801e+00,-5.107142e-01,5.150983e-01,-1.025091e+00,-1.715815e+00,-3.713933e-01,3.630863e-02,1.306823e+00,-1.070881e-01,4.181961e-03,-1.523195e+00,-3.424945e-02,-1.930951e-01,1.264790e+00,6.324862e-01,-4.485959e-01,7.398180e-01,-6.985284e-02,4.324415e-01,-2.444963e-01,-6.931498e-01,-1.793281e-01,-3.140109e-01,1.513423e+00,2.271449e-01,-3.417942e-01,2.416891e-01,-5.112900e-01,-9.084827e-02,-3.306589e-02,1.458147e+00,-2.385428e+00,-8.170053e-02,
-6.530890e-01,-4.245979e-01,-3.971402e+00,8.572252e-01,5.807245e-02,-6.925761e-01,-1.012546e+00,-4.164980e-02,3.655801e-01,1.980837e+00,-7.116507e-01,-3.168084e-01,3.001879e-01,-1.042916e-01,-7.443264e-01,3.948404e-01,1.762345e-01,1.593366e+00,1.041014e-01,-1.431597e-01,-9.426240e-01,-9.341440e-01,-5.975195e-01,3.419677e-01,-2.089891e-01,-6.033575e-01,-1.411687e-01,3.815621e-01,-4.495693e-02,-3.305754e-01,-7.610124e-01,3.948866e-01,-8.544427e-01,-4.056439e-01,-5.110252e-01,7.069059e-01,-1.337754e-01,1.432942e-01,-1.031411e-01,-2.515661e+00,6.331132e-01,5.914555e-01,-5.508306e-02,-6.985449e-01,-1.048736e+00,6.467708e-03,9.204750e-03,6.947121e-01,6.013243e-01,-4.299982e-01,
-2.312309e-01,-2.390403e-01,-9.205779e-01,1.155267e+00,1.372570e-02,-7.854553e-01,8.773961e-01,-6.857029e-01,-4.308922e-01,1.424561e+00,-8.615311e-01,2.737553e-01,8.919218e-01,4.428972e-01,4.415553e-01,4.011222e-01,-1.027551e+00,-5.382069e-01,6.347767e-01,3.773889e-02,-3.239824e-01,1.732674e-01,8.828591e-02,-5.345442e-01,7.866448e-01,-8.033526e-01,4.891293e-01,-2.654186e-01,-3.277460e-02,1.168481e-01,9.117785e-01,1.736274e-01,-2.014628e-01,7.696174e-01,-7.844211e-01,-1.545752e-01,-2.345866e-02,1.309927e+00,3.957823e-02,-2.976906e-01,5.944758e-01,-6.545135e-01,-7.173424e-02,-1.586560e+00,-9.550428e-01,-3.233345e-01,-7.264477e-03,-8.156879e-02,6.673648e-01,5.274462e-01,
-1.688530e-01,-5.827235e-02,-3.041868e-01,1.042008e+00,3.471677e-01,1.955627e-01,-6.064248e-01,1.259385e-01,2.283525e-01,-2.881198e-01,3.580143e-01,1.361674e-01,1.481305e+00,-3.832929e-01,-8.265812e-01,-4.230992e-02,-2.711145e-02,1.301086e+00,-5.168231e-01,3.832908e-01,-2.135077e-01,1.854546e+00,-5.594270e-02,2.584495e+00,-9.069016e-02,2.196691e-01,-1.638431e-01,1.111205e+00,-1.387358e-02,1.929592e-01,-2.746474e-01,1.805812e+00,-4.249327e-01,-7.550858e-02,-1.696358e-01,-4.749639e-02,3.672025e-01,1.439782e-01,-1.860128e-01,-4.648812e-02,2.629219e-01,1.027758e-01,1.054429e+00,-2.735917e-01,3.204531e-02,2.474606e+00,2.142200e-02,-4.326010e-02,5.823620e-02,1.102048e+00,
-8.639867e-01,
-4.573859e-01,
7.711064e-01,
-2.703544e-01,
7.316148e-01,
6.920825e-01,
4.756269e-01,
7.683943e-01,
8.620904e-01,
4.455618e-01,
-1.803715e-01,
9.214583e-01,
-9.566784e-01,
-4.878873e-01,
4.261249e-01,
-1.028459e-02,
-3.595503e-01,
5.181118e-01,
3.997748e-01,
7.081451e-01,
9.296490e-01,
-3.470482e-01,
-4.033521e-01,
-9.450950e-03,
-2.013403e-02,
-3.590796e-01,
-4.669495e-01,
-7.926365e-01,
-6.112576e-01,
-3.326282e-01,
-9.484096e-01,
2.971865e-01,
-9.806311e-01,
-1.079965e-01,
-1.207438e+00,
-1.129107e+00,
-1.455493e+00,
2.005475e-01,
-3.068050e-01,
-1.150314e+00,
-9.215028e-01,
1.533784e-01,
-6.366193e-01,
-4.167730e-01,
-1.255385e+00,
-6.187683e-01,
-1.107168e+00,
-6.872355e-01,
-5.522180e-01,
-4.663005e-01,
2.844913e-01,-2.252136e-01,-5.656585e-01,2.210824e-01,-1.182183e-01,1.103327e-01,-7.269122e-02,2.174294e-02,7.854213e-01,4.628181e-02,-1.310891e-01,2.067090e-04,-3.527946e-01,5.838277e-02,8.150435e-02,-6.125781e-04,1.024980e-01,1.132753e-01,2.071689e-01,8.085804e-02,-2.731817e-01,-1.971461e-01,1.604012e-01,-3.304096e-02,4.093820e-03,-1.874930e-01,3.363640e-01,-3.678933e-01,6.600003e-01,2.134939e-01,-2.024022e-01,1.257146e-01,2.128062e-01,4.821783e-01,-1.355964e-01,6.795816e-03,-3.537061e-01,-1.216790e-01,-2.199555e-02,-4.077121e-01,3.614608e-02,2.994943e-01,3.522075e-02,-1.483478e-01,-3.112608e-01,-1.440620e-01,2.713065e-02,2.591047e-01,-3.700027e-01,4.850280e-01,
1.249490e+00,1.121114e+00,3.576588e-01,-2.608629e-01,1.560866e-01,3.740835e-01,-3.460141e-01,-1.707266e-01,1.506103e-01,-1.247814e-01,8.031711e-01,-2.933749e-01,-1.341091e+00,3.778936e-01,1.079495e-01,-4.239305e-02,3.342097e-01,1.046466e+00,-4.375533e-01,-1.110340e-01,-5.050420e-01,8.095619e-01,2.745850e-01,-1.145999e-02,-4.506095e-02,2.948970e-01,2.426843e-01,4.861649e-01,1.489510e-01,4.335728e-01,-1.130765e-01,6.102307e-01,1.016842e+00,2.206256e-01,-3.098734e+00,3.271255e-01,-2.695541e-01,-5.984351e-01,-8.639619e-01,-3.865714e-02,4.430607e-02,-3.018683e-02,4.042974e-01,-6.891503e-01,-2.952495e-01,-5.245481e-01,7.924638e-01,5.864359e-01,-5.258438e-02,4.752036e-01,
5.011883e-01,1.936376e-01,1.492830e-01,6.632890e-02,-2.252970e-02,3.660683e-01,-3.314179e-01,-6.420124e-01,8.531810e-02,-3.028499e-01,8.852304e-02,-3.982320e-02,-2.070310e-01,-4.560129e-01,9.609926e-01,-4.428671e-02,-1.732553e-01,-4.116024e-01,-6.084220e-02,2.054819e-01,-1.514316e-02,-4.727236e-01,-2.596867e-01,-3.157794e-02,1.724760e-02,1.542882e-01,3.390792e-01,4.891292e-01,-2.700814e-01,2.424176e-01,2.688303e-01,-4.333591e-01,-4.429391e-01,1.377739e-01,5.540902e-02,-2.396460e-01,-1.702580e-01,3.480040e-02,2.675815e-01,1.221482e-01,2.852983e-01,6.177329e-02,-2.467210e-02,-1.908827e-01,4.367251e-01,1.446311e-01,-6.185191e-01,-7.502005e-01,9.542948e-02,-8.001771e-02,
-5.390660e-01,-1.212104e+00,2.322180e-01,2.852663e-01,-2.988143e-02,2.834932e-01,-4.971625e-02,2.764748e-01,1.173099e-01,-1.184788e-01,-2.231103e-01,4.881908e-01,3.658627e-01,-6.479174e-01,1.959856e-01,-4.066244e-02,2.630926e-01,-2.501211e-01,-1.766852e-01,-6.986253e-01,6.775703e-01,-4.055388e-01,-9.082972e-02,2.975980e-02,4.353180e-02,3.112284e-01,3.101752e-01,-1.173808e+00,1.206884e-01,1.105177e-02,-2.842584e-01,-2.477068e-01,-1.352153e-01,-9.209858e-01,-4.203172e-01,-3.482028e-01,-7.784462e-01,-9.012201e-01,-6.339310e-02,1.785187e-01,-2.093949e-01,5.569399e-01,2.010810e-01,-1.959493e-01,1.120990e-01,4.877469e-01,1.357311e-02,1.331566e-01,4.274190e-01,-1.730555e-01,
-4.779025e+00,1.549508e-01,1.545986e-01,-1.980659e-01,3.490719e-01,-3.911580e-01,7.786297e-02,3.713267e-01,6.833990e-01,-4.371402e-01,3.526833e-01,5.894350e-01,-5.289627e-01,-5.202994e-01,6.157522e-01,1.694580e-02,-1.731162e-02,-1.234352e-01,-1.886311e-01,-2.214273e-01,4.214990e-02,-5.931173e-01,-9.899834e-01,-1.737558e-02,9.110160e-03,8.716323e-01,2.113627e-01,-7.306655e-01,-1.406990e+00,3.223612e-01,-2.577678e-01,1.279007e-01,-2.271830e-01,3.201242e-01,-9.845749e-01,1.514625e-01,6.192180e-01,1.743779e-01,2.307817e-01,8.416064e-01,-2.397593e-01,4.290194e-01,3.776792e-01,1.841366e-01,3.654116e-01,-4.930105e-01,-8.918018e-02,9.651020e-01,-8.936228e-01,1.134875e-01,
7.209863e-01,-1.139705e-01,8.978550e-03,-5.685240e-02,1.077658e+00,-1.098320e-01,-1.751319e+00,2.094628e-01,-1.009064e-01,1.745067e-02,1.083383e+00,-5.063459e-01,-3.151017e-01,-3.942181e-01,-9.089956e-01,3.580070e-02,-9.525357e-01,6.091998e-01,-6.749538e-01,2.569469e-01,4.690823e-01,2.114134e-01,-3.342443e-02,1.290950e-02,-1.837458e-02,-5.180138e-01,-3.150244e-01,-9.698768e-01,-5.910552e-01,-2.121913e-01,-7.619352e-01,5.162353e-01,-1.134257e-02,4.913059e-01,8.969988e-01,9.514806e-01,-1.317761e+00,-2.110748e-01,-3.381129e-03,-1.647011e+00,-4.461671e-02,1.094035e-01,-1.646218e-01,-4.508588e-01,-6.769788e-01,3.903959e-01,-7.725999e-01,-1.702765e+00,7.678052e-01,8.288309e-02,
-6.278025e-01,-1.831783e-01,-3.426913e-02,-1.722747e-01,1.458624e-01,-4.078676e-01,-2.240075e+00,-1.101770e+00,-6.776699e-01,-3.447266e-01,3.307632e-01,2.749989e-01,-1.787689e-02,-4.113954e-02,-1.126480e+00,-4.846273e-02,5.826965e-01,-2.861958e+00,-3.721936e-01,-3.737890e-03,1.625060e-01,4.308102e-01,-1.983522e-01,1.848350e-02,3.582750e-02,4.208374e-01,3.303653e-02,3.353630e-01,-1.975560e-01,4.939785e-01,5.627514e-01,6.776110e-02,-7.056983e-01,-1.166990e+00,1.014009e-01,2.359884e-01,-1.015573e-01,-1.161541e-02,-4.803425e-01,3.497535e-01,2.086121e-01,-3.507923e-02,-6.532919e-02,-2.127300e-01,-1.487124e-02,5.114471e-01,4.993579e-01,-4.258947e-02,3.854695e-01,3.508138e-01,
6.372638e-02,4.160718e-01,2.261056e-02,1.772083e-01,-6.671742e-01,-2.441419e-01,-1.150438e+00,-3.490289e-01,-4.571356e-01,7.022306e-01,-1.902801e+00,-1.228306e+00,1.947576e-01,4.373294e-01,-1.819701e-01,-8.542223e-03,-1.717968e+00,-3.125988e-01,9.674674e-02,-6.895500e-01,-1.175858e+00,-1.710140e-01,-8.096181e-02,4.466100e-03,2.026690e-02,6.958587e-01,4.956962e-02,-7.660852e-02,7.044418e-01,-7.580274e-02,1.791192e-02,-4.500894e-01,4.409543e-01,2.107699e-01,-6.967476e-01,-1.279033e-01,1.821136e+00,2.890948e-01,-7.588494e-02,7.705762e-01,3.278319e-01,5.743127e-01,-4.182037e-02,7.802706e-02,3.280276e-01,5.887840e-01,1.007036e+00,-2.360925e-01,-7.240488e-01,4.846838e-03,
4.143760e-02,3.685680e-03,-1.984717e-02,-3.556456e-02,-1.440785e-02,-5.719188e-03,-3.190476e-02,2.612310e-04,1.071010e-02,-5.197112e-02,-5.090425e-02,3.177270e-02,-2.712546e-02,-3.158042e-02,5.376240e-03,1.726000e-02,-4.316112e-02,-1.876413e-03,1.905730e-02,-5.730838e-02,-5.239095e-02,-4.527931e-02,-5.761109e-02,3.887890e-02,-4.927994e-02,-2.263620e-02,3.906710e-04,-3.594844e-02,-3.158917e-02,3.571050e-02,2.255640e-02,-3.163120e-02,1.278690e-02,8.909710e-04,2.416780e-02,2.758350e-02,2.749310e-02,-1.352400e-02,-3.026696e-02,2.610360e-02,-6.243252e-02,-5.218896e-02,1.437240e-02,2.382130e-02,-3.062221e-02,2.036000e-03,3.404670e-02,-3.016396e-02,-1.851909e-02,-4.978783e-02,
1.099873e-02,6.229584e-01,2.443905e-03,-2.799354e-01,-1.970925e-01,-3.019270e-01,1.498688e-01,3.494183e-01,2.907267e-01,-3.329763e-01,5.436731e-01,-6.754276e-01,-5.077704e-01,8.053781e-01,1.527944e-01,2.096740e-03,6.075518e-01,1.725033e-01,-5.539144e-02,8.369257e-01,2.856902e-01,6.742679e-02,-2.102652e-01,-3.439633e-03,-1.127211e-02,2.719367e-01,-5.334246e-01,2.658996e-02,1.863795e-01,7.594864e-01,-6.972770e-03,2.993695e-01,-8.606721e-01,-2.064656e-02,-1.423717e+00,-1.708791e-01,2.278433e-03,2.184421e-01,2.837196e-02,9.062661e-01,8.413557e-02,5.988914e-01,2.523366e-01,8.393011e-02,4.635298e-02,-1.653356e-01,-9.898928e-01,-1.905284e+00,7.092659e-02,2.910595e-02,
-3.797558e-01,2.709755e-01,1.366846e-01,-3.376227e-01,-3.791286e-02,-1.199023e-01,5.970769e-02,1.315320e-01,8.233030e-01,5.820398e-02,-1.138480e+00,3.824128e-01,6.006579e-02,4.667135e-01,-7.652962e-01,3.632250e-02,-1.415992e+00,-2.617271e-01,-2.576195e-01,-4.401221e-01,-7.710580e-02,2.069673e+00,-4.249883e-01,2.068080e-02,-2.063986e-02,-2.789364e+00,3.622290e-01,5.839577e-02,-6.614320e-01,-1.818475e-01,1.821714e-01,-8.874243e-02,4.233990e-01,-1.702744e-02,-6.712819e-05,-6.838427e-02,1.168925e+00,-5.273806e-01,1.321253e-01,1.797080e-01,-8.003357e-02,-1.541436e+00,6.998113e-01,-7.226531e-02,-2.838381e-01,-1.659351e-01,1.570197e+00,4.796464e-01,-5.348409e-02,9.715414e-02,
3.196240e-01,1.544857e+00,2.361944e-01,-1.244693e+00,2.124705e-02,8.324903e-02,1.204146e-01,-8.350982e-01,2.578430e-02,-2.218919e-01,1.204030e+00,4.997195e-01,-8.629504e-01,-2.935294e-01,-5.782935e-03,-1.022537e-02,7.295346e-01,8.380924e-01,9.371399e-01,5.659304e-01,-4.828207e-01,2.267833e-01,1.122058e-01,1.214960e-02,-3.514432e-02,-8.403904e-02,-1.677499e-01,-2.787571e-01,5.814630e-01,-1.250544e-01,2.134656e-01,-4.170501e-01,7.591580e-01,2.712492e-01,-9.642674e-01,4.475861e-02,-6.067482e-01,-1.632777e-01,-1.701241e-02,8.231812e-01,-9.915059e-03,2.172177e+00,-1.122576e+00,4.047137e-01,-2.803248e-01,-3.412277e+00,-2.024836e-02,7.228025e-01,-1.135523e-01,-2.530607e-01,
-1.262852e-01,3.878983e-01,-3.235364e-01,-6.383621e-03,6.899368e-01,-8.478383e-02,-4.968740e-01,-2.564010e+00,-8.967139e-01,1.758203e-02,-1.140766e+00,-5.419592e-01,-2.502055e-01,5.025570e-01,5.411746e-02,4.547260e-02,8.300804e-02,-1.531043e+00,3.510016e-01,-5.532038e-01,-6.639184e-01,1.489803e-01,-2.505949e-02,-4.768869e-02,3.226000e-02,-1.669043e+00,1.416631e-01,1.578706e+00,-1.569277e+00,3.985839e-01,2.437164e-01,5.977275e-01,1.202240e+00,-1.247835e+00,-1.304320e+00,-2.463430e+00,1.966888e+00,1.118653e-01,-2.056591e-01,1.156243e+00,2.890038e-01,-6.155908e-01,-1.342698e+00,-9.479790e-01,5.738055e-01,-2.636408e+00,-1.386277e+00,1.286812e+00,2.056361e-01,-1.466112e-01,
1.562740e-02,1.685180e-02,-2.377693e-02,-5.966677e-02,-5.773521e-02,-4.214296e-02,-1.306792e-02,-3.683002e-02,3.664710e-02,1.067080e-02,3.594330e-02,-1.155382e-02,-1.936585e-02,-4.492613e-03,-2.977194e-02,-1.642150e-02,2.903830e-02,3.986300e-02,-4.442699e-02,3.925350e-02,-1.257414e-02,3.462900e-02,-2.105691e-02,-2.896957e-02,7.180580e-03,-3.202332e-02,-2.581499e-02,1.550470e-02,-7.553361e-03,1.358020e-02,2.109360e-02,3.341980e-02,-4.866492e-03,-2.473421e-02,-2.732971e-02,9.349590e-03,1.106000e-02,-4.993770e-02,-1.431793e-02,8.953360e-04,-3.008249e-02,-4.715319e-02,-2.243453e-02,1.918850e-02,-6.231088e-03,2.139420e-02,-4.944051e-02,-3.561915e-03,-1.890009e-03,9.545760e-03,
1.304020e+00,6.445264e-01,5.362878e-02,-2.763892e-01,1.471684e-01,1.596261e-01,8.497297e-01,7.947414e-01,5.242773e-01,3.290201e-01,-5.108954e-01,3.417669e-01,8.316480e-02,-1.568535e+00,-5.885265e-01,3.023440e-02,-1.345932e+00,9.181007e-01,-6.046697e-01,-1.218109e+00,-2.079282e-01,1.395866e+00,2.468718e-01,-7.639809e-03,-1.477875e-02,4.767366e-01,3.313252e-01,2.747690e-01,6.220639e-01,4.401479e-02,1.371095e-01,-1.917881e-01,-1.323179e-01,-4.971789e-02,3.750282e-02,1.163746e+00,-2.530751e-01,2.479116e-01,-1.579083e-01,-3.184606e-01,3.730756e-01,5.131552e-01,-1.401078e-01,-1.536080e-01,-4.938860e-01,-1.397761e-01,1.122067e+00,7.225753e-01,6.471084e-01,-4.125727e-01,
-4.236019e+00,-1.977332e-01,-5.009652e-02,-4.267516e-01,-1.128561e+00,8.485793e-01,-9.915068e-01,1.066516e+00,2.099080e-01,-1.695225e+00,6.445040e-01,5.434810e-02,-2.367167e+00,-1.459294e-01,-1.099257e+00,-2.766930e-02,-1.565003e-01,1.825844e-01,2.068641e-01,7.098897e-02,-1.530426e-01,-3.737221e-01,-3.874108e-01,-4.740811e-03,-7.722888e-03,-3.035626e+00,1.015891e+00,1.127130e-01,1.772229e+00,-6.692569e-01,-5.028718e-01,-5.080032e-01,-1.738753e+00,-3.556744e-01,1.753170e+00,7.051345e-01,-1.453371e+00,8.178051e-01,-3.893091e-02,-6.498631e-01,-3.070749e-01,3.048555e-01,4.623806e-01,-4.237791e-01,-1.472828e+00,2.580511e-01,-3.437635e+00,-2.686281e+00,-5.841171e-01,7.847669e-01,
9.246850e-01,-1.745603e+00,-2.645524e-02,-1.663965e+00,-1.429104e-01,5.111202e-01,-6.460808e-02,3.097637e-02,-6.007351e-01,4.651024e-01,-1.373567e+00,-7.066181e-01,-1.281783e+00,6.098362e-01,-6.760395e-01,1.810610e-02,-9.057469e-01,1.619703e+00,-2.766817e-01,-6.681301e-01,-2.557294e-01,2.015243e-03,1.698295e-01,3.939480e-02,-3.231429e-02,4.451611e-01,4.715412e-03,-3.253914e-01,1.196760e+00,6.882562e-02,1.395626e-01,5.448952e-01,-3.090206e-01,-3.270281e-02,-1.829939e+00,-1.841043e-01,1.734234e+00,1.777447e-01,8.621368e-02,-5.246480e-01,1.328735e-01,-5.077725e-01,-2.396141e-01,-9.999765e-02,-1.145906e-01,1.215210e+00,1.006297e+00,5.483947e-01,1.426060e+00,1.333081e-01,
8.627213e-01,-6.901082e-01,-1.421266e+00,-1.131774e-01,7.565115e-02,7.288220e-01,-3.352918e-02,-1.495241e-01,-3.614950e-01,-1.999045e-01,6.929880e-01,-8.195174e-01,3.403930e-01,-4.488410e-01,1.283905e-01,3.772290e-02,-9.535348e-01,-4.654055e-02,1.552648e-01,1.197347e-01,6.047514e-02,4.751610e-01,-2.017986e-01,2.453180e-02,-2.755868e-02,-2.423157e-01,1.017400e-01,4.963174e-01,5.685250e-02,9.493060e-01,-1.026601e+00,-1.070675e+00,1.205060e+00,5.080840e-02,1.442750e-02,-9.006248e-01,-1.365862e-01,9.700087e-02,-2.959561e+00,-1.845008e+00,8.602797e-02,4.791158e-02,-4.429505e-02,5.704570e-01,6.819000e-01,2.958607e-01,-1.209333e+00,-1.464825e-01,4.646258e-02,5.478730e-01,
1.486010e-03,-3.677234e-03,-6.354327e-02,-6.558669e-02,2.476950e-02,-3.139862e-02,-4.543494e-02,9.031430e-03,-2.291122e-02,1.126540e-02,-2.360945e-02,-3.842363e-02,-5.198719e-03,-2.879221e-02,1.738720e-02,3.936490e-02,1.160800e-02,-4.506961e-02,-4.152095e-02,-5.788796e-02,2.988040e-02,4.304990e-03,2.576760e-02,1.460790e-02,-1.922227e-02,2.590710e-02,1.243960e-02,3.038110e-02,-2.360070e-02,-4.739586e-02,2.731320e-02,-5.431664e-02,3.885130e-02,-5.524291e-03,-1.130765e-02,-3.821588e-02,-2.931792e-03,-6.830507e-02,-4.677333e-02,-4.760011e-02,-3.414862e-03,-3.761848e-02,2.912310e-02,-2.542380e-02,-2.854398e-02,5.485510e-03,-1.822873e-02,2.589070e-02,-4.262016e-02,1.214080e-02,
1.785340e+00,-6.150233e-02,-7.897329e-04,8.938385e-01,-7.308900e-01,3.808118e-01,1.947462e-01,4.254055e-03,-2.734825e+00,6.487991e-01,-2.797017e-01,-1.496209e-01,2.881240e-01,9.203564e-01,-1.873972e+00,4.204570e-02,-1.007108e+00,-7.748463e-02,-3.354102e-01,-4.264684e-01,-1.146977e+00,-3.801411e-01,-6.608758e-02,4.504830e-02,3.670670e-02,-6.842877e-02,6.538246e-01,-1.132557e-01,1.522741e+00,-1.020171e+00,5.298499e-01,2.083071e-01,2.360060e-02,7.836320e-01,-1.554775e+00,2.910611e-01,-1.816055e+00,1.209668e-01,-8.476818e-01,-1.395712e-01,5.666934e-02,-2.633185e+00,-1.726579e-01,2.982442e-01,1.077971e+00,-5.781627e+00,3.057867e-01,-7.707366e-02,-6.221756e-01,9.861215e-01,
-1.931888e-02,-3.432063e-02,-3.929800e-02,1.620840e-02,-3.733276e-02,-3.427408e-02,1.577860e-03,1.334170e-02,-1.984295e-02,1.371160e-02,4.242120e-02,-1.338135e-02,-5.633214e-02,-2.138754e-02,-3.010237e-02,-3.182381e-02,1.335150e-02,-3.447853e-02,7.502580e-03,4.009250e-03,-1.653819e-03,-4.091180e-02,-4.478811e-02,1.009430e-02,-1.043606e-02,2.166350e-04,-4.541352e-02,-4.725434e-02,2.404360e-02,-7.797461e-03,-2.097265e-02,1.460690e-02,3.674290e-03,-3.076507e-02,2.246760e-02,-4.849332e-03,-2.523129e-02,-4.691042e-02,-1.290775e-02,-1.623507e-03,-3.293415e-02,-1.860242e-02,-6.521445e-03,5.837720e-03,3.114520e-02,-5.108151e-04,-4.539169e-02,4.368740e-02,1.429280e-02,2.612170e-02,
-9.817352e-01,-1.770220e+00,-1.895025e+00,-1.918756e-02,-1.121103e-02,1.142641e-01,8.034209e-02,-8.619751e-01,-9.285975e-02,-1.524122e-01,5.094818e-01,-7.065141e-01,-6.983595e-01,3.066110e-01,-3.580672e-01,-5.290925e-03,8.476807e-01,-3.515987e-01,8.612766e-01,-7.538714e-01,-3.138276e-02,-1.136986e+00,3.553415e-01,-2.987546e-02,7.139520e-03,1.629008e-01,2.873577e-01,-3.005488e-01,-6.090071e-01,-6.460860e-02,-5.095080e-01,9.180934e-02,1.458434e+00,5.180275e-01,-2.702256e-02,8.862764e-02,-1.351638e-01,4.576974e-01,-1.309326e+00,-1.451023e+00,2.224313e-01,8.398948e-01,5.723248e-01,-1.227657e+00,-1.639863e-01,-2.857941e-01,9.896038e-02,-1.376389e-01,-3.327806e-02,4.840086e-01,
-4.379663e+00,2.082315e+00,-3.391780e-02,-3.290870e-01,3.870193e-01,3.833532e-02,-1.141188e+00,-4.571686e-01,-6.287830e-02,1.443554e-01,-9.882500e-01,-3.846669e-01,-3.158361e-01,-1.381415e-01,5.672492e-01,-4.663171e-02,6.010450e-02,5.620921e-01,9.174076e-02,-1.160038e-01,5.994329e-01,-9.476865e-01,-2.418718e-01,1.298660e-02,1.119950e-02,-1.218799e-03,-6.690756e-01,2.717240e+00,-5.344052e-01,-8.297288e-01,4.125447e-01,2.523506e-01,7.651090e-01,-1.235588e+00,1.025358e+00,-1.764400e+00,-1.831546e-01,2.723207e-01,-3.016221e-01,-9.729194e-01,-6.613753e-02,-8.259498e-01,-1.094004e+00,7.496247e-02,2.275998e-01,9.910344e-01,-2.906989e-01,2.285999e+00,-2.124684e+00,-3.804429e-01,
-5.999122e-01,8.578643e-01,-6.470203e-01,-1.066215e-01,-1.268548e-04,3.066694e-01,-2.689124e-01,3.141613e-02,2.064538e-01,1.780037e-01,-3.162265e-01,-2.993901e-01,-1.190371e-01,-1.908837e-01,-1.019272e-01,3.963520e-02,1.278848e-01,1.965876e-01,-2.022529e-01,9.653556e-02,-3.000205e-01,1.213937e+00,1.302070e-01,4.832100e-02,3.672090e-02,1.993418e-01,3.794499e-01,1.249575e+00,-1.910289e-01,1.828267e-01,1.914399e-01,6.082716e-02,-1.028887e-01,-2.173300e-01,2.091873e-01,3.299415e-01,-1.713333e-01,-2.951815e-02,-2.689824e-02,2.526905e-01,1.784499e-01,-3.637095e-01,1.083199e+00,-6.302828e-02,-2.601141e-02,3.323113e-01,1.208940e-01,-2.569541e-01,3.123041e-01,8.469505e-01,
1.368920e-01,7.214470e-02,-2.670656e-01,-2.144542e-02,-1.551767e-01,-9.221105e-02,2.456840e-02,-3.515823e-02,-1.258351e-01,-6.573398e-02,-2.907226e-02,-2.054932e-01,-6.862190e-02,3.291920e-02,-1.009225e-01,4.766240e-02,6.983890e-02,-4.477873e-02,4.750500e-02,-1.084466e-01,8.663040e-03,5.075660e-02,3.176750e-02,4.563780e-02,-3.661979e-02,2.657180e-02,7.906760e-02,3.724040e-02,9.987520e-02,4.706250e-02,2.017930e-02,-4.966876e-02,6.171730e-02,-3.103318e-02,4.718540e-02,8.809590e-02,-6.462354e-02,-5.295940e-02,-1.189228e-02,-1.773495e-02,-3.067062e-02,5.449370e-02,2.155430e-02,8.965980e-02,3.514070e-03,1.198850e-01,-4.954598e-02,-7.679999e-02,3.169460e-02,4.375330e-03,
-5.997546e-01,-1.140797e-01,2.092086e-01,-1.024177e-01,2.982761e-01,8.061509e-01,-2.723073e+00,1.293349e-01,3.346568e-02,-5.631741e-01,-1.636773e+00,-6.058552e-01,1.294979e-01,-1.405723e+00,4.348132e-02,4.323670e-03,1.938959e+00,-3.518469e-01,8.768830e-01,-1.413510e+00,2.223492e-01,-2.511583e+00,-3.961195e-01,1.853840e-02,-4.674047e-02,8.878119e-01,-5.676928e-01,4.071420e-01,4.819020e-01,1.930769e-01,-6.268477e-01,3.710337e-01,-3.894966e-01,6.457193e-01,-5.394254e-02,4.764543e-02,2.164429e-01,-4.228922e-01,8.739070e-01,8.507113e-01,-2.377436e-01,9.759737e-01,-6.488155e-02,2.393625e-01,5.138332e-02,4.121831e-01,-2.591985e-01,-1.091563e+00,-2.066272e+00,5.246589e-01,
7.963080e-01,-2.798871e-01,-4.175362e-01,1.551069e-01,-8.678553e-01,3.272828e-01,1.084712e-01,-1.563344e-02,-1.428517e-01,4.102411e-01,-3.160050e-01,7.606178e-02,-4.053730e-01,2.009685e-01,2.050192e-01,3.408840e-03,-4.828331e-01,1.247637e-01,-6.191670e-02,6.680448e-01,-2.744960e-01,1.839793e-01,6.831342e-02,-1.883324e-02,-2.072906e-02,5.345981e-01,-6.698677e-01,-6.474910e-01,7.591040e-01,-6.553653e-01,-6.268930e-01,-1.685956e-02,-2.472278e-01,1.047076e+00,-5.627250e-01,4.373972e-01,3.655562e-01,6.355974e-01,1.715209e-01,-3.649228e-01,-2.392463e-01,1.128964e-01,-3.429828e-01,-5.960836e-01,2.028183e-01,-5.956675e-01,4.382596e-01,9.036947e-01,1.056640e-01,9.050838e-02,
-1.707977e+00,-7.997425e-01,-1.425046e-02,-1.894046e-01,5.466018e-01,2.412749e-01,6.362492e-01,6.981177e-01,1.884982e-01,-1.234362e-01,-1.476752e-01,2.248761e-01,2.410702e-01,-6.170029e-01,1.771880e-01,-1.370971e-02,-1.063784e-01,-1.651832e-01,2.540549e-01,-6.056977e-01,2.495083e-01,-7.380455e-01,-2.344950e-01,-7.632155e-03,3.929120e-02,4.867984e-01,-2.536128e-01,-6.489844e-01,-5.126774e-04,-2.339872e-01,-3.983020e-01,4.206240e-02,4.807272e-01,7.024187e-01,-5.717654e-01,3.593016e-01,6.241795e-01,-6.294495e-02,1.660356e-01,2.618065e-01,-2.313236e-01,-6.088443e-02,-3.106954e-01,-6.386030e-01,2.008880e-01,-1.155804e-02,3.180950e-01,1.013126e+00,-2.642887e-01,6.116964e-01,
3.440313e-01,3.931130e-01,-4.755644e-01,2.228014e-02,2.315316e-02,5.627804e-01,1.578122e-02,1.265278e-01,-3.466578e-01,9.255704e-02,7.660022e-01,8.266800e-01,-4.996921e-02,-5.120459e-01,-1.360383e-01,-6.781798e-04,4.015311e-01,-1.078904e-01,-1.497280e-01,-1.839910e-01,4.931526e-01,-1.646311e-02,1.952028e-01,-3.935280e-02,-5.267543e-03,3.875983e-01,2.228129e-01,3.105834e-01,-2.680338e-01,-1.176105e-01,-6.929284e-02,-2.473926e-01,-7.206405e-01,6.478906e-01,-3.921354e-01,1.067725e-01,-5.765374e-01,6.971864e-01,1.217340e+00,-3.833505e-01,-6.526111e-01,4.011600e-01,2.220776e-01,7.287792e-01,-2.188699e-01,-8.055341e-01,6.801727e-02,6.960371e-01,-5.535416e-02,2.700694e-01,
-3.694260e-01,-2.148075e-01,-2.664847e-01,1.146452e-01,6.141014e-02,-4.679382e-01,1.769804e-01,-8.474665e-01,-7.065882e-01,7.669246e-01,-2.240600e+00,-4.307604e-01,-1.260566e-01,1.416291e+00,5.004142e-01,5.504660e-03,-4.559171e-01,1.970874e-01,1.206282e-01,-2.232803e-01,-8.375496e-01,7.895179e-01,-9.540632e-02,2.948410e-02,-2.418316e-02,8.255127e-01,-3.199654e-01,7.751076e-01,-1.216811e+00,-8.186481e-03,9.649570e-02,9.235107e-01,-2.747453e-01,-2.896988e-01,-3.956487e-01,8.093084e-02,1.579299e+00,3.292858e-01,6.902336e-02,8.298082e-01,6.148142e-01,-1.103902e+00,2.416008e-01,-1.962315e-01,4.720214e-01,4.485207e-01,2.314197e+00,1.660350e+00,3.523558e-01,6.377983e-02,
9.775235e-01,6.760840e-01,-5.314233e-01,-1.963829e-01,7.108024e-01,-2.062699e+00,-5.579109e-01,-4.479295e-01,3.748914e-01,2.481813e-01,2.311928e+00,-9.291825e-01,-6.502122e-01,1.369233e+00,-5.968458e-01,1.116820e-02,-1.565754e-01,2.937306e-01,-7.471898e-01,2.119770e-01,4.796369e-01,-3.903278e-01,3.297855e-01,-4.979834e-02,4.286190e-02,-1.399152e+00,-6.264213e-01,1.190947e-01,4.178779e-01,5.148478e-01,5.472517e-01,6.601631e-01,-4.294008e-01,-2.956079e-01,1.262232e+00,-3.165087e+00,-7.345476e-01,-9.995511e-01,-1.842165e-02,4.578070e-01,-4.286087e-02,-8.558475e-01,-8.616331e-01,-1.138366e+00,-3.951317e-01,-1.431844e+00,-2.892034e+00,-1.994430e+00,8.261413e-01,-1.710809e-01,
-5.315840e-01,5.345137e-01,9.575014e-01,-4.265992e-01,4.662274e-01,8.696157e-01,-6.722830e-01,8.068868e-01,8.025693e-01,2.273910e-01,4.507600e-01,4.134585e-01,2.480776e-01,-2.879200e-01,-2.752654e-01,-6.603206e-03,9.668218e-01,4.032960e-01,5.528185e-02,8.926958e-02,1.027467e+00,-6.435872e-01,-5.320125e-01,-5.086562e-02,1.880860e-03,1.354790e+00,-2.278020e-01,-1.787503e+00,4.362226e-01,-6.889763e-02,-3.645119e-02,5.687712e-01,3.752338e-02,2.745866e-01,1.954713e-01,-1.301415e-02,-8.800340e-01,1.121505e+00,1.586406e-01,-1.381570e-01,-1.255982e-01,3.455969e-01,6.094898e-01,1.330379e-02,-3.047090e-01,1.194584e-01,4.477839e-01,2.046778e+00,5.149413e-02,3.173084e-01,
-2.374521e-01,-8.440582e-03,-7.060649e-02,4.346454e-02,-2.306942e-01,-5.585824e-01,2.252342e-01,2.587556e-01,-1.445914e-01,8.345822e-02,1.788358e-01,-5.550536e-01,-1.759827e-02,-2.646616e-02,-2.216735e-01,-3.384631e-02,-2.306335e-01,8.388318e-02,1.702345e-01,-3.663020e-01,1.015231e-01,-6.948627e-03,1.826801e-02,8.935120e-03,6.645790e-03,2.189707e-01,-1.616770e-01,9.167010e-03,-2.218280e-01,1.104037e-01,4.069942e-01,3.592018e-01,-1.360671e-01,-3.398701e-01,-1.593070e-01,-2.310001e-02,-1.554672e-01,-9.772382e-02,1.677334e-01,-3.099785e-03,-1.528283e-01,-7.222494e-02,3.648073e-01,3.216154e-01,-2.464986e-02,1.176154e-01,-3.412998e-01,-2.161579e-01,3.351699e-02,2.632666e-01,
2.547370e+00,1.301343e-01,3.240867e-01,6.964416e-01,8.673341e-02,1.021169e+00,1.440993e-01,4.007769e-01,-3.285947e+00,-7.792115e-01,5.098871e-01,-4.463134e-01,-7.477182e-01,2.028778e-01,2.686017e-02,-5.592869e-04,-2.928661e-01,-8.722442e-01,6.614062e-01,-4.773401e-01,-3.576984e-01,1.373457e-01,-1.415282e-02,2.149140e-02,2.312830e-02,5.004929e-01,-3.046153e-01,-8.650115e-02,-3.404109e-01,-1.113739e-01,-8.106017e-03,1.781922e-01,2.263780e+00,3.979541e-01,7.630485e-01,-1.628224e-01,-8.259714e-01,-5.057897e-01,6.112484e-02,-1.220509e+00,-1.581143e-01,-2.174629e+00,-1.377687e-01,3.540873e-01,4.228997e-01,5.079680e-01,-2.464810e-01,4.296127e-01,8.728708e-02,2.366693e-02,
-2.296910e-01,1.166608e+00,-1.643087e+00,-2.984837e-01,-3.360746e-01,4.076153e-02,-2.581963e-01,1.835191e-01,-5.063830e-01,2.088740e-01,-2.443593e-01,-8.488827e-01,-3.192475e-01,1.519690e-01,-5.445950e-01,3.683990e-02,3.945940e-01,-3.968982e-01,1.934710e-01,3.153166e-01,-2.961703e-01,-1.210786e-01,1.964407e-01,-3.792429e-03,3.850670e-02,-3.771901e-01,3.576233e-01,5.409487e-01,4.885560e-01,8.015010e-01,5.529116e-02,-2.393421e-01,2.007450e+00,-3.559175e-01,2.531270e+00,4.396457e-01,9.010100e-02,-2.938744e-01,-1.377347e+00,9.743860e-01,1.989874e-01,6.338269e-02,3.874195e-01,1.793898e-01,3.489585e-02,-1.900855e-01,-8.812680e-01,-2.109018e-01,1.233462e-01,5.848043e-01,
1.310530e-02,-1.402304e-02,6.909734e-03,2.974794e-03,-5.809364e-02,-2.345073e-02,-5.226601e-03,-3.287451e-02,1.259402e-02,-4.231013e-02,2.996480e-02,-9.985191e-03,4.207632e-02,3.120880e-02,-3.934899e-02,4.314880e-02,-1.254045e-02,-4.860024e-03,1.323840e-02,3.630170e-02,2.317220e-03,-2.675240e-02,-5.378639e-02,-1.401387e-02,-2.406595e-02,-2.842429e-02,-9.949976e-03,5.966330e-03,4.908080e-03,3.068360e-03,-1.934062e-02,2.081105e-02,-1.815911e-02,-3.397506e-02,-2.728398e-02,-3.426532e-02,3.460790e-02,4.073104e-03,-4.318223e-02,1.845822e-02,-3.330217e-02,3.174680e-02,-5.361026e-02,-5.486120e-02,1.333026e-04,-2.463070e-02,-4.550715e-03,-3.299636e-02,1.111890e-02,8.764360e-03,
1.612080e+00,-4.001364e-01,-1.728896e-01,-6.742596e-02,1.775207e-01,6.773297e-01,-3.756317e-01,7.480437e-01,-5.503567e-01,5.226768e-01,-9.132268e-02,-1.681187e-01,1.116790e+00,-3.286452e-02,-9.380982e-02,-8.220594e-03,2.469358e-01,2.923910e-01,6.130895e-01,7.113777e-01,9.619539e-01,-2.945810e-01,-1.805920e-01,-3.289521e-02,-2.074307e-02,-1.573067e-01,-2.967667e-01,-6.562408e-01,-1.559132e+00,2.367238e-01,-2.445900e-01,5.762422e-01,-1.158420e+00,5.565550e-01,1.471577e-01,-3.677007e-01,-2.539897e+00,-1.994894e-01,5.415951e-02,-1.377223e+00,-2.529340e-01,-3.345100e-01,-7.546336e-02,2.439885e-02,-4.980235e-02,-2.549755e+00,-2.162742e+00,-2.244391e-02,1.072461e-01,1.752618e-01,
1.984080e+00,9.266281e-01,-6.182626e-02,3.425933e-01,-1.225721e+00,7.762775e-02,-7.945399e-01,-5.401042e-01,2.994914e-01,7.613084e-01,3.745229e-01,-9.729287e-01,7.750455e-01,-3.927689e-01,1.437918e+00,-2.058764e-03,-1.127407e+00,-3.523527e-01,-9.070200e-01,1.250078e-01,5.372985e-01,-6.724241e-01,-4.629953e-01,6.344360e-03,-1.557051e-02,3.373864e-01,2.027950e-01,6.408063e-03,2.053968e-01,-5.343681e-01,-8.208461e-02,-5.792349e-01,-1.596758e-02,-1.008202e-02,-5.536095e-01,-5.948538e-01,3.609457e-01,-6.919293e-01,-2.703245e-01,-7.401085e-01,8.825536e-02,-2.197495e-01,9.527263e-02,-3.692499e-01,6.968907e-01,-3.316250e+00,6.437289e-01,-4.409955e-01,-8.075941e-01,-3.603393e-01,
-8.717683e-01,5.053303e-02,-7.402754e-01,3.986788e-03,-2.403958e-01,2.854004e-01,-2.012270e-01,1.165091e-01,-1.669589e-01,1.692514e-01,6.664048e-01,3.555720e-01,-4.993625e-01,-5.860566e-01,-6.439787e-01,-4.940065e-02,1.081220e+00,-1.641233e-01,5.889081e-01,-9.010080e-02,-2.475873e-02,-1.089173e-01,1.594282e-01,6.937030e-03,-1.602495e-03,4.001071e-01,-7.907372e-02,-1.037076e+00,-4.761103e-01,4.476986e-03,3.378215e-01,-2.060752e-01,4.103231e-01,-1.934546e-02,3.120313e-01,-6.049324e-01,3.343224e-01,1.544909e-01,-1.207520e-02,-3.705487e-01,1.323413e-01,1.214955e-01,-1.004320e-01,-2.755271e-01,4.131092e-01,4.251539e-01,4.675317e-01,3.131397e-01,3.790556e-02,6.972588e-01,
1.111350e+00,2.670914e-02,3.677920e-01,2.105453e-01,-4.548737e-01,-1.458933e-01,3.141665e-01,-1.553559e-01,-1.511175e-02,7.461716e-01,-7.750070e-02,7.546028e-01,9.879159e-02,6.606224e-02,-2.373326e-02,2.588930e-02,9.158338e-01,-1.825304e-02,4.020679e-01,-2.457395e-01,-1.282834e-01,-3.357264e-02,-2.491034e-01,-2.216261e-02,2.054360e-02,3.155110e-01,3.341722e-01,-1.933197e-02,-1.699057e+00,9.270911e-02,3.125399e-01,-3.022741e-01,-1.136935e+00,5.003609e-01,-9.505293e-01,-2.111654e-01,3.055694e-01,-3.202023e-01,-7.431676e-02,8.710679e-01,7.086481e-01,8.668687e-01,5.479375e-01,1.029316e-01,-1.202463e-01,-8.387104e-01,-2.695304e-01,-5.393687e-01,-1.195109e+00,-1.406836e-01,
-1.046634e+00,-4.176640e+00,-2.707891e-01,-5.888623e-01,1.721459e-01,7.333636e-01,5.395858e-01,-7.952465e-01,-2.775129e+00,-1.034532e-01,-4.527303e+00,-1.549604e-01,7.871405e-01,-7.549684e-02,9.080471e-01,3.304990e-02,2.210300e-01,-1.180133e+00,-5.281901e-01,6.358292e-02,4.066812e-02,2.758371e-01,2.463189e-02,2.536690e-02,1.562940e-02,2.451549e-01,-3.014367e-02,1.842443e-03,1.973560e+00,4.061959e-01,-2.399776e-01,-3.180908e-01,1.800620e+00,1.466601e-01,-1.601671e+00,-9.085362e-01,1.020935e+00,3.028340e-01,-1.008872e-01,2.195603e+00,-2.251116e-01,2.775917e-01,1.022506e+00,-1.657332e-01,5.129186e-02,-6.878484e-01,-6.340443e-01,2.254649e-01,-8.532067e-02,2.522432e-02,
1.701140e-02,2.853270e-02,-4.224720e-02,-1.338382e-02,-1.722232e-03,-2.458064e-02,-3.365133e-02,-5.053819e-02,-4.562261e-02,-3.337592e-02,-8.110498e-03,-3.159041e-03,-5.238477e-02,8.639030e-03,-3.845464e-02,-4.286901e-03,-5.848433e-02,-9.614669e-03,-6.295638e-02,1.078850e-02,4.210920e-03,2.186800e-02,-5.079455e-02,3.067070e-02,-7.849423e-03,-2.877439e-02,-1.103295e-02,8.272010e-04,-2.820088e-02,-4.902563e-02,2.185510e-02,-3.601776e-02,3.864730e-03,-1.319286e-02,-4.144864e-02,8.324310e-03,1.722250e-02,-8.779719e-04,-1.311087e-03,-2.385737e-03,3.681540e-02,1.952990e-02,2.717650e-02,-4.567247e-02,1.187030e-02,-2.058826e-02,-3.667943e-02,-4.524388e-03,1.325660e-02,1.092790e-02,
4.860486e-02,5.852453e-01,-5.005007e-01,3.863918e-01,-7.437609e-01,-7.884083e-01,-2.014402e-01,-2.159992e-01,-6.127944e-01,2.854224e-01,-2.064738e-01,-6.975973e-01,-6.132218e-01,1.272892e-01,-1.939521e-01,-1.808278e-02,-6.534402e-01,-9.279919e-03,-6.484623e-02,-5.545828e-01,-1.663110e-01,9.753164e-02,5.765631e-01,5.985860e-02,-1.501915e-03,-7.618652e-01,5.213828e-01,3.562723e-01,-4.585168e-01,4.849732e-01,6.662513e-01,1.095537e-01,1.255004e+00,-4.556627e-01,-2.418718e-01,-4.595571e-01,-1.092027e-01,-4.760001e-01,6.982302e-01,-9.167618e-01,-3.048275e-01,-1.949728e-01,4.321188e-01,2.573803e-02,1.232540e-02,6.435757e-01,-3.366194e-01,-1.487948e+00,2.996631e-01,5.607708e-01,
1.045501e-01,-1.372980e+00,-4.911658e-01,-6.258033e-01,1.126897e+00,3.552848e-01,-4.925480e-01,-1.591432e+00,9.195639e-02,-3.878939e-01,3.751805e-01,-8.332205e-01,6.594981e-02,-1.327268e+00,-6.657220e-01,-1.536574e-02,-4.608261e-01,9.528703e-02,-3.516461e-01,-3.631327e-02,-6.102111e-01,-7.437754e-01,2.905635e-01,-3.184471e-02,9.428180e-03,3.034587e-01,-6.641945e-01,5.553111e-01,3.894992e+00,-2.232494e-01,-9.813015e-01,-3.164871e-02,-2.758649e-01,7.893967e-01,5.507495e-01,2.542792e+00,-1.313796e+00,1.083189e+00,3.717633e-02,1.134406e+00,9.815043e-01,1.309083e+00,-2.337677e+00,-3.547742e-01,-1.140921e-01,-5.902559e-01,8.489789e-01,-3.050777e+00,-6.556516e-01,3.593585e-01,
-1.223856e-01,-7.330551e-01,-4.983408e-01,-7.324865e-01,2.175898e-01,5.196103e-01,-1.103521e+00,1.407498e-01,4.552661e-01,-4.448570e-01,3.385313e-01,-4.518600e-01,8.748298e-02,3.944673e-01,5.056045e-01,-2.874400e-02,4.581065e-01,2.850051e-01,5.856168e-01,5.847444e-02,-4.341955e-01,2.174711e-01,-5.223778e-01,2.366100e-02,-3.047780e-03,-5.264989e-02,8.265183e-01,6.329453e-02,2.965895e+00,-1.639111e-01,-5.373375e-01,6.231933e-01,3.789329e-01,-9.520218e-02,-1.033141e+00,-3.061263e-01,1.636623e-01,1.691854e-01,3.716920e-01,-7.811654e-01,-7.676157e-01,-4.827177e-01,1.472584e-01,-7.534018e-01,8.381527e-02,-3.519561e+00,-1.073208e+00,-1.091553e+00,-2.350089e-01,3.648950e-01,
-2.381267e-02,-1.968629e-02,1.311360e-02,1.419950e-02,-2.573496e-02,-1.712190e-02,-5.500107e-03,-5.639651e-02,-1.233754e-02,-7.812674e-04,2.611000e-02,-3.220882e-02,-5.019550e-02,2.045410e-02,2.308530e-02,-2.749760e-02,2.768050e-02,-5.285332e-02,2.632190e-02,1.237330e-02,-5.128267e-02,-2.491209e-02,2.316730e-02,-1.579361e-02,4.885660e-03,-1.133536e-02,-1.696297e-02,-4.584118e-02,-2.588349e-02,-2.619506e-02,3.633590e-02,-5.550937e-04,5.127940e-03,-1.922711e-02,3.012950e-02,-4.843523e-02,-2.607826e-02,-5.912252e-03,1.266910e-02,-6.171729e-03,-5.198410e-02,-2.422982e-02,2.159160e-03,1.884860e-02,-4.892809e-03,-5.097686e-02,-4.436818e-02,9.856350e-03,-1.095075e-02,-5.612017e-02,
-9.260081e-03,-1.021219e-02,-6.738126e-02,-6.531364e-03,3.150860e-02,-3.829664e-03,2.011400e-02,2.623220e-02,-6.133207e-02,1.477160e-02,9.361780e-03,-4.666600e-02,-5.285404e-02,2.879640e-02,-3.598552e-02,2.727470e-02,-4.578298e-02,1.509100e-02,-1.192555e-02,1.061960e-02,-5.819294e-02,-2.058012e-02,-1.854577e-02,3.264670e-02,3.171710e-04,-4.569338e-02,4.187220e-02,-2.064748e-02,2.148280e-02,-1.597932e-03,-4.344808e-02,5.798270e-03,1.019290e-02,-5.796706e-03,-3.764217e-02,-1.307070e-03,-1.147801e-02,-2.488387e-02,2.156080e-02,-1.555444e-02,-4.265425e-02,-3.117645e-02,-1.346189e-02,3.102500e-02,-5.048071e-02,-3.618472e-02,4.099830e-02,-4.287333e-02,2.189090e-02,-2.574155e-02,
4.176770e-01,1.784559e-01,-1.639399e-01,7.337866e-03,3.523816e-01,2.840810e-01,-6.836903e-04,-3.605567e-01,-1.955712e-02,-3.096005e-01,-1.352019e-01,3.156273e-01,-4.098009e-01,2.333009e-01,3.256106e-01,1.967190e-03,8.668619e-02,-6.326105e-02,2.406737e-01,1.495575e-01,-1.137511e-01,4.557458e-01,-2.509193e-01,2.999080e-02,1.185840e-03,-1.447274e+00,5.886140e-02,6.649689e-02,9.022090e-01,-2.895505e-01,-1.987818e-01,2.232980e-01,-9.732171e-01,1.683833e-01,-3.335542e-01,-2.271274e-01,-1.685296e-01,1.667352e-01,-2.238839e-02,-3.809064e-01,8.786105e-02,-2.690463e-01,1.665706e-01,3.091800e-01,1.314907e-01,-2.150898e-01,1.046630e-01,5.867210e-02,-4.863948e-01,8.024704e-03,
-3.634190e-01,9.396309e-02,-3.018353e-01,4.312746e-01,-6.918994e-01,6.931484e-01,6.405550e-01,-9.449055e-01,-1.695308e-01,2.812205e-02,-2.932163e+00,-4.342428e-01,-3.969929e-01,8.889381e-01,-4.976074e-01,1.390700e-02,-4.158522e-01,-2.594621e+00,-4.731356e-01,1.082210e-01,-2.108328e-01,1.527322e-01,1.284183e-01,3.920360e-02,2.988770e-02,9.686605e-01,-5.457300e-01,-1.873776e-01,-7.423549e-01,-6.015921e-02,-7.161508e-01,-2.304955e+00,2.532641e-01,1.869850e-01,3.621660e-01,-9.032049e-01,8.787919e-01,6.362860e-01,-1.825953e-01,9.118713e-02,4.169380e-01,-2.273261e-01,-4.863248e-02,8.406880e-01,-1.014246e-03,6.426177e-01,6.317348e-03,7.790235e-01,2.997591e-01,2.684248e-01,
3.648208e-02,7.345655e-01,1.443156e-01,3.263364e-02,-4.749618e-01,2.992266e-01,1.004885e+00,6.301900e-01,3.617789e-01,-2.394997e-01,1.047959e+00,1.518828e+00,-2.683799e-01,-9.468501e-01,8.133993e-01,-6.521630e-04,-6.860408e-01,1.821156e-01,-1.450570e-01,6.720054e-01,-8.482823e-02,9.948086e-01,-5.389640e-01,-1.560913e-02,-1.692589e-02,-4.662418e-01,4.953703e-01,6.911840e-01,1.495607e+00,-6.139418e-01,-2.459702e-02,-6.783549e-01,-1.037642e+00,8.561442e-01,2.877302e-01,-2.682522e-01,-1.351916e+00,2.448722e-01,-8.654626e-03,-9.613566e-01,-2.545593e-01,3.657036e-01,5.582729e-01,-5.508862e-01,-6.104707e-01,7.994849e-01,-1.398379e+00,-1.364575e+00,-6.707103e-01,2.208959e-02,
8.847244e-01,
-1.140056e+00,
1.336602e-01,
-1.735128e-01,
-1.466936e+00,
8.107521e-01,
-1.278075e-01,
1.337327e+00,
-8.854220e-03,
-6.714117e-01,
1.410428e-01,
6.724067e-02,
-8.666997e-02,
-1.186127e-02,
-1.028636e+00,
2.118829e-01,
4.905727e-01,
-5.857537e-01,
-2.554266e-02,
-1.379458e-01,
-1.701251e-02,
-9.706493e-01,
-2.717840e-01,
7.424574e-01,
-1.131836e-01,
-8.509654e-01,
3.824982e-01,
-4.606870e-01,
3.076105e-01,
-2.443016e-01,
5.244722e-01,
-7.373028e-01,
6.396141e-01,
-2.952515e-01,
-1.028346e+00,
-2.441584e-02,
-2.198298e-01,
3.217829e-01,
-8.834063e-01,
-1.418063e+00,
-9.827168e-01,
-2.613975e-02,
3.003945e-02,
-7.718120e-01,
6.455782e-02,
-3.682508e-02,
-2.312855e-02,
-5.312874e-01,
-6.536493e-01,
-2.729747e-01,
2.637905e-01,5.273795e-01,4.099075e-01,-3.306619e-02,-2.122047e-01,3.814486e-01,7.801507e-01,3.568746e-01,1.230040e-02,1.873590e-01,2.060418e-01,6.350455e-01,-2.745125e-02,-3.871667e-03,3.072155e-01,4.880974e-01,-9.887021e-03,2.140924e-01,-3.309678e-02,1.754206e-02,2.883100e-02,-1.845595e+00,-2.243546e-01,-4.256073e-01,1.540190e-01,-2.931576e-01,-1.601022e-01,4.582057e-01,-1.801470e-01,-4.285449e-01,2.074694e-02,-4.655724e-01,4.594425e-01,1.184011e+00,-2.363716e+00,-2.297559e-02,-2.679576e-01,2.278220e-01,2.347044e-01,3.060175e-01,2.677802e-01,1.653370e-02,-3.324335e-01,-6.811627e-02,7.633347e-01,2.562360e-02,1.242320e-02,7.915467e-01,6.288122e-01,-3.349910e-02,
2.388072e-01,-2.445797e-02,1.605942e-01,-8.788743e-02,9.450100e-02,1.755089e-02,-2.004751e-02,4.430864e-03,1.453140e-02,-1.734211e-01,9.038781e-02,-2.339913e-02,4.703394e-02,9.949680e-03,6.605109e-02,-1.376894e-01,-1.543764e-01,4.523224e-02,2.489970e-02,-1.217913e-01,-5.418438e-02,2.819954e-02,-3.568713e-02,5.421941e-02,1.183430e-01,-2.739903e-01,-8.315045e-02,-2.377590e-01,-2.207661e-01,-1.029252e-01,-2.123613e-01,7.362485e-02,-2.564473e-01,1.415569e-01,-4.180481e-01,-2.299846e-02,-1.533588e-01,-8.837409e-02,-1.590145e-01,1.135763e-01,-8.049615e-04,-2.527156e-03,1.671523e-01,-6.594864e-02,8.443976e-02,4.126120e-02,4.296080e-02,1.401660e-02,2.070620e-02,-5.898614e-02,
3.563495e-01,2.690558e-01,-2.851009e-01,4.176936e-01,1.608929e-01,9.248300e-03,1.979304e-02,-6.135524e-02,-4.412190e-02,3.771030e-01,-4.255919e-02,-3.295155e-01,-6.672567e-01,-5.864305e-03,1.772287e-01,-1.094117e-01,4.272744e-02,7.498742e-01,-4.037785e-02,-9.018917e-02,4.820780e-02,1.005192e-01,1.128062e+00,1.968431e-01,1.157360e-01,-8.716446e-03,-1.130816e-01,5.409118e-01,1.156492e-01,-2.357835e-02,1.036115e-02,-1.752051e-01,-4.540291e-01,-4.172190e-01,-1.747673e-01,2.606620e-02,-4.281998e-01,-1.086465e-02,4.893231e-01,1.442477e-01,3.813555e-02,5.880110e-03,7.086142e-01,-1.121165e-02,1.005754e-01,-1.619211e-02,3.721950e-02,1.066602e+00,-1.928448e-02,-3.110384e-01,
-5.964668e-01,1.518280e+00,-2.769258e-02,-1.803169e+00,-1.835553e+00,-7.429184e-01,1.264686e+00,-9.110412e-02,2.147990e-02,1.604657e+00,-1.171440e+00,-3.284083e-01,-6.377327e-01,-2.566183e-02,1.092065e+00,-3.758418e-01,-1.696987e+00,1.939370e+00,-3.937443e-02,-1.525821e+00,2.498200e-02,1.190329e+00,-1.764215e+00,-9.127634e-01,9.781220e-02,-1.761341e-01,-2.553401e-01,3.180368e-01,9.387777e-01,-5.954584e-01,-7.831224e-01,1.988781e-02,-7.854172e-02,-1.534813e+00,3.574080e+00,5.917440e-03,-4.498092e-01,7.183889e-01,5.522200e-01,-2.245616e-01,5.980128e-01,-2.444602e-02,4.825848e-01,-9.033357e-02,-9.372475e-01,-5.037390e-02,3.302870e-02,-8.101712e-01,8.446848e-01,9.155384e-01,
-3.320679e-01,-7.349925e-02,6.276768e-01,-5.982704e-01,2.359564e-01,2.040420e-01,1.292248e+00,4.192770e-02,3.493820e-02,-2.979357e-01,3.910766e-01,-3.030455e-02,5.660313e-02,-3.443619e-02,-5.581024e-01,-4.704329e-01,-6.374896e-02,1.741472e-02,3.969130e-02,3.153674e-01,-1.146462e-02,3.597635e-01,-6.122475e-01,-1.961367e-02,3.264670e-03,5.451749e-01,-7.782886e-01,-3.652987e-01,7.028833e-01,7.767189e-01,1.482102e-01,1.628317e-01,4.602049e-01,9.567004e-02,-3.232336e+00,3.118042e-02,-8.166766e-02,3.687754e-01,-1.355737e-01,-3.275400e-02,-5.408200e-01,4.659380e-02,6.117572e-01,9.645507e-02,-2.359205e-01,1.755720e-02,1.358670e-03,-5.026596e-01,-5.733855e-01,-4.131268e-01,
-3.696237e-01,1.096356e+00,7.213929e-01,5.507771e-01,1.244694e+00,5.937244e-01,-1.109176e+00,-3.080081e-01,1.580990e-02,8.406205e-01,-9.722180e-01,1.730600e-01,3.525068e-01,-5.475027e-03,5.231443e-01,1.078424e+00,-1.312035e-01,5.667310e-01,-1.087371e-02,3.368080e-01,-2.956409e-02,-2.204900e-01,5.279817e-01,2.820339e-01,1.326680e-01,2.791671e-03,1.363733e-01,5.464883e-01,-3.135814e-01,-5.198596e-01,3.196383e-01,-4.851135e-01,2.914430e-01,-1.019337e+00,1.069397e-01,6.128240e-03,2.089283e-01,4.633098e-01,2.324473e-01,1.149499e+00,3.731551e-02,-3.985111e-02,2.247657e-01,2.978521e-02,-7.062184e-01,-2.703946e-02,-2.797099e-02,1.850750e+00,8.727750e-01,-1.670990e-01,
1.224268e+00,1.094124e-01,4.130672e-01,-1.189434e-01,2.330006e-01,-2.627674e-01,5.227485e-03,-6.431711e-01,2.119350e-02,-1.877463e-01,2.128031e-01,6.014870e-01,1.535355e-01,1.888720e-03,5.096710e-01,-9.395371e-02,2.150073e-01,4.916654e-01,1.482800e-02,-1.013922e-01,-4.221908e-02,-3.180939e-01,1.894596e-01,5.694725e-02,-6.848789e-02,1.380919e-01,-1.496930e-01,-1.499433e-01,-4.682401e-01,-2.226963e-01,2.284651e-01,4.958747e-02,4.743294e-01,7.502015e-01,-1.179917e+00,-2.218878e-02,7.605430e-02,1.733439e-01,-3.607647e-01,1.138037e-01,5.028480e-01,-6.840559e-03,-3.356306e-01,-7.166771e-02,-3.803131e-01,-1.663450e-02,1.440900e-03,6.813958e-01,1.933773e-01,-3.001533e-01,
-2.825177e-01,-1.240027e-01,-3.416005e-01,-5.813711e-01,-7.233464e-01,1.853505e-01,6.457697e-01,2.382810e-01,1.302510e-02,-4.112522e-01,-4.732788e-01,2.428026e-01,5.041371e-02,2.181590e-02,-1.254901e-01,3.362823e-01,-1.025583e-01,1.443510e-01,3.496630e-02,4.047393e-01,4.885710e-02,2.752572e-01,-5.479218e-01,3.633727e-01,1.311530e-01,1.141234e-01,-2.812652e-03,8.949055e-01,9.283521e-02,1.643641e-01,7.535445e-02,2.356169e-01,-4.279990e-01,-6.324911e-01,5.088490e-01,4.324620e-02,2.695766e-01,1.728186e-01,-1.077957e-01,-4.324671e-02,-1.001479e+00,-3.653224e-02,-3.161760e-01,1.580586e-01,3.572271e-01,-1.797402e-02,1.393380e-02,-1.933341e+00,-6.074703e-01,2.485654e-01,
3.163325e-01,1.377184e+00,1.579732e-01,-1.033378e+00,-2.640003e+00,-1.695431e-01,1.706056e+00,1.167647e-01,-4.182511e-02,-9.001417e-01,-4.389726e-01,4.978559e-01,-9.890544e-02,-1.273708e-02,-2.941618e-01,1.814602e-01,1.975890e-01,-2.513076e-01,3.247510e-02,5.205292e-01,-2.394554e-03,-5.416121e-01,-1.034089e-01,-1.947555e-01,1.383170e-01,5.753953e-01,2.303100e-01,-5.276988e-01,1.033331e-01,-2.435528e-01,-3.477476e-01,-3.599314e-01,-1.387595e+00,-9.020307e-01,-1.858748e+00,-4.996396e-02,2.680130e-01,-3.857195e-01,1.714960e-01,5.713164e-02,6.469929e-02,7.846800e-03,-6.465691e-02,-8.048677e-02,-2.779269e-02,-2.468931e-02,-9.697625e-03,-8.471564e-01,6.016561e-02,-8.542810e-02,
1.925554e-01,4.804517e-01,-7.971891e-01,1.407717e-01,-2.502529e-01,4.137254e-02,4.826613e-01,-2.892034e-01,1.888190e-03,3.240557e-02,1.191277e-01,5.061626e-01,-6.086929e-02,-4.825673e-02,-2.025588e+00,8.522534e-02,-6.771766e-01,-1.074630e+00,2.534870e-02,-2.300659e-01,-4.000582e-02,-1.451126e-01,7.994556e-01,2.482269e-01,2.858020e-02,2.772351e-01,-6.418599e-02,-6.610189e-02,4.040690e-02,-4.368735e-01,-2.009890e-01,-2.642362e-01,-6.454938e-01,5.775498e-03,-1.198848e+00,4.595980e-02,-8.102464e-03,-9.136130e-03,-3.524083e-01,6.201053e-01,1.259652e-01,2.554920e-02,-3.662175e-01,6.343393e-03,3.430199e-01,3.167550e-02,-3.681230e-02,6.170121e-01,4.457920e-01,1.361258e-01,
1.785697e-01,-1.807598e+00,-5.748245e-01,4.173571e-01,1.250834e-01,-5.814989e-01,1.884380e+00,4.513012e-01,1.990970e-02,-2.619980e-01,2.944590e-01,-1.463970e+00,-2.908256e+00,-3.192145e-02,-4.589330e-01,-2.702133e+00,1.090814e+00,-2.024825e+00,1.940180e-02,-4.487071e-01,3.238720e-02,1.419711e-01,1.952600e+00,-1.227266e-01,-3.684156e-02,-5.419036e-01,-5.097356e-01,3.513970e-01,-4.861466e-01,3.405069e-01,4.910092e-01,8.477238e-03,4.467597e-01,1.177671e-01,-1.852362e+00,-2.166389e-02,2.771600e-01,8.408038e-02,-4.405702e-02,4.070615e-01,-5.612820e+00,-3.870740e-02,1.688478e-01,5.505419e-01,8.078141e-01,-4.590761e-02,2.464020e-02,1.789970e+00,-1.153754e+00,-4.502717e-02,
8.557845e-02,-1.367809e+00,-1.204667e-01,-3.574595e-01,1.640406e-01,4.329935e-02,-2.705140e+00,-1.532166e+00,4.897980e-03,-3.385198e-01,-8.137134e-02,2.305140e-01,-7.143966e-01,2.528460e-02,4.910703e-01,-5.536518e-02,9.692240e-01,-7.991605e-01,9.282320e-04,6.433273e-02,-2.975588e-02,1.832215e-01,3.346898e-01,-3.661145e-01,4.371840e-03,-9.138252e-01,7.762309e-01,-2.693934e-01,-6.461592e-01,-7.313793e-03,-8.808354e-02,7.578299e-03,1.043871e+00,-9.303382e-01,-7.061731e-01,-8.778886e-03,1.900308e-01,3.924125e-01,4.746575e-01,-3.194988e-01,6.193867e-01,-3.051385e-02,-8.661218e-01,2.645394e-01,1.253011e+00,-4.185158e-02,-3.605690e-02,-6.977343e-01,3.099160e-01,7.597913e-02,
-8.093668e-02,6.369554e-01,-4.508804e-02,-3.948618e-01,-2.537014e-01,2.981345e-01,3.427819e-01,-1.548337e+00,-1.055987e-02,2.679324e-01,-4.869448e-01,-7.579842e-01,1.242654e-01,-3.830333e-02,-4.367694e-02,3.826213e-01,1.123009e+00,-4.985632e-01,3.291000e-02,1.098059e-01,-1.513842e-02,3.772205e-01,4.073372e-01,-1.929138e-01,-4.411037e-03,-7.295902e-01,-4.996725e-01,-2.277515e-01,1.026259e-01,5.128123e-01,3.602425e-01,4.892314e-01,-6.805859e-02,-2.031541e+00,-8.297721e-01,-9.966187e-03,5.380813e-01,-1.357931e-01,7.358398e-02,-7.978019e-01,-8.717312e-01,1.775520e-02,2.532961e-01,6.632808e-01,-2.562207e-01,-2.786789e-02,-3.891866e-02,2.054586e-01,1.852758e-01,2.788731e-02,
-3.467485e-01,5.690389e-01,-5.636582e-01,6.031577e-01,-8.288636e-01,7.460368e-02,1.027376e-02,2.298483e-01,4.798690e-03,8.924738e-01,3.676373e-01,-6.459995e-01,9.374352e-02,4.492990e-03,-3.398526e-01,-1.870809e+00,1.098748e-01,1.206840e+00,-4.394402e-03,1.152159e-01,4.092380e-02,6.092069e-01,-1.428909e+00,-3.279077e-01,8.055600e-02,3.725605e-02,-4.006092e-01,5.509940e-01,2.000509e-01,3.294052e-01,7.248247e-02,-5.216960e-02,-3.212333e-01,-6.092635e-01,2.188300e+00,-2.938363e-02,2.700131e-01,-5.050265e-01,9.731045e-01,4.426239e-01,-1.499237e+00,-6.625001e-03,2.509698e-01,2.071813e-01,-2.965164e-01,1.087330e-02,-4.357436e-02,-3.773920e-01,-1.174107e-01,3.134094e-01,
-1.926728e-01,3.791173e-01,3.907897e-01,4.455079e-02,5.755244e-01,-3.514607e-01,2.750572e-01,7.646539e-03,-5.058196e-03,-2.219114e-01,-1.646208e-01,-2.235955e-01,-6.886941e-01,2.069200e-02,7.031774e-02,-7.857231e-02,4.552778e-01,-7.343663e-01,2.890110e-02,-9.072332e-02,4.451020e-02,-5.635717e-01,-6.176827e-02,-8.686104e-02,1.396990e-01,3.160854e-01,4.330333e-02,-2.739450e-02,-8.053220e-02,-2.854758e-01,-2.237593e-01,-1.994049e-01,2.462558e-01,-1.340226e-01,1.093633e+00,5.809748e-02,5.179306e-01,-2.990739e-01,6.340207e-01,7.113622e-02,-4.985982e-01,-3.203784e-02,7.639507e-01,-6.753781e-02,-1.157689e-02,-2.684870e-02,1.090740e-02,6.926422e-01,2.261487e-02,-3.274092e-01,
-1.326918e-01,5.228892e-01,4.628035e-02,3.195646e-01,-1.789810e-01,4.191962e-01,-8.870473e-01,-1.074723e-01,4.708410e-02,-1.266272e+00,-1.128818e+00,-8.980004e-01,7.071815e-02,2.337870e-02,-9.230849e-01,8.051786e-01,-4.306523e-01,-4.758198e-01,4.374960e-02,7.248713e-01,-1.550449e-02,1.893943e-01,9.557652e-01,-1.918344e-01,1.671540e-01,1.409410e-01,-6.169020e-02,6.925053e-01,7.225549e-02,2.311588e-01,-1.027626e+00,-1.782497e-01,3.931527e-01,-5.730477e-01,1.355165e+00,1.912620e-02,-3.176365e-01,1.530951e-01,1.320345e+00,3.545127e-01,-6.380561e+00,4.530600e-05,-1.655941e-01,-2.756383e-01,3.848033e-01,-4.795196e-02,2.440710e-02,1.866988e-01,1.438724e-01,-2.914910e-01,
1.062635e+00,1.029568e+00,7.518820e-01,4.852416e-02,2.480290e-01,-4.328637e-01,-6.409896e-01,4.243081e-01,3.400210e-02,4.167771e-01,4.295461e-01,1.224701e+00,5.807575e-01,5.683100e-03,5.090541e-02,2.475007e-01,-3.343740e-01,7.693584e-01,2.135240e-02,1.275114e-01,-3.496026e-04,-7.173548e-01,-1.428394e-01,9.550310e-01,-2.129916e-02,2.005281e-01,-1.625876e-01,-5.607217e-01,6.080281e-01,-2.515610e-01,1.141498e-01,-3.087682e-01,8.859117e-01,6.487884e-01,-6.815459e-01,3.653505e-02,3.973828e-02,3.712995e-02,7.090159e-01,1.636177e-01,1.817111e-01,3.205250e-02,3.363516e-04,-3.784282e-01,-7.315677e-01,-2.820408e-02,1.954860e-02,6.981362e-01,6.385899e-02,-1.076443e-02,
-1.191679e+00,1.280700e+00,2.101272e-01,-2.284674e+00,-1.446130e+00,-7.459177e-01,2.017028e-01,4.097804e-01,4.078490e-02,-1.350134e+00,-3.945600e+00,-4.824232e+00,-5.581241e+00,-4.735311e-02,-2.542792e-02,-1.142136e-01,6.125880e-02,8.757440e-01,-3.132137e-02,1.639494e-01,9.536140e-03,1.411320e-01,1.508796e-01,-2.979089e-01,-7.168449e-03,1.465961e-01,9.074942e-01,-1.646754e-01,1.724117e-01,5.808059e-04,-1.265458e+00,2.781776e-01,6.365043e-01,-1.128592e+00,-9.789223e-01,-2.629229e-02,5.627164e-01,4.084961e-02,7.618371e-01,1.297026e-01,-4.463505e-01,3.923730e-04,5.428544e-01,1.390107e-01,9.806983e-01,-9.887340e-03,-2.747659e-02,-4.467398e+00,-3.142530e-01,-8.995979e-02,
-2.520801e-01,-2.024074e-01,3.854383e-01,-4.999084e-02,-1.368551e+00,1.406141e-01,2.326535e-01,4.118552e-01,4.931750e-02,-4.673542e-02,1.960428e-02,3.649414e-01,-4.323641e-01,-2.944141e-02,-9.323385e-02,1.089153e-01,-6.893481e-02,-2.032798e-01,1.265380e-02,-2.050308e-01,-9.652902e-04,-3.892061e-01,-1.211445e-01,-7.284026e-02,9.581200e-02,4.020999e-01,2.124484e-01,-3.041075e-01,-1.620180e-01,-2.289690e-01,-1.426457e-01,-3.771633e-02,3.414604e-01,2.010102e-01,8.473756e-01,4.225070e-02,1.522823e-01,-1.400398e-01,1.684386e-01,-5.645162e-01,-1.146565e-01,-5.224346e-02,1.273265e-03,-1.407814e-01,-7.243939e-02,-2.666938e-03,3.988670e-02,1.509757e+00,-1.210301e-01,-4.507218e-02,
-5.127978e-02,4.352270e-02,-3.978612e-02,2.091200e-02,2.190090e-02,-2.362779e-02,-1.384783e-02,-1.730276e-02,4.590240e-02,-5.119017e-02,-5.019489e-02,-7.637254e-03,-2.323464e-02,-1.190711e-02,2.338110e-02,-4.152393e-03,-3.175799e-03,-2.287733e-02,-1.575117e-02,-4.575003e-02,4.559970e-02,-4.273532e-02,-3.322646e-02,-4.741450e-02,-3.844619e-02,-2.266608e-02,-1.923916e-02,-3.445535e-02,-2.814454e-02,6.138560e-03,2.785060e-02,-4.673213e-02,-3.745543e-02,-4.302423e-02,2.572930e-02,-4.603688e-02,4.212580e-02,3.969700e-02,-3.567766e-02,3.671380e-02,1.860130e-02,-1.856451e-03,1.161250e-02,-3.818045e-02,-4.064194e-02,-2.687744e-02,3.711310e-02,2.608050e-02,2.322080e-02,-2.567254e-02,
-3.577416e-01,-7.533142e-01,8.968807e-01,-5.628311e-01,-1.890338e-01,-2.120399e-01,-1.078132e+00,2.520698e-01,-4.692773e-03,-4.232167e-01,-3.889331e-01,7.038847e-02,1.191490e+00,1.520720e-02,5.987131e-01,-3.156229e-01,1.898513e-01,-3.415264e-01,3.824950e-02,1.724379e-01,-3.549246e-02,4.982934e-01,1.288732e+00,-1.914852e-01,-2.268575e-02,-7.528877e-01,2.889335e-01,-2.968099e-03,-2.528042e-02,-1.788842e-01,-2.480796e-01,-2.537930e-01,-2.496545e-02,-9.199476e-02,4.005474e-01,2.706989e-02,5.722709e-01,3.561482e-01,5.729334e-02,-2.509698e-01,-1.360197e-01,2.480030e-02,5.382244e-01,2.681662e-01,-2.840771e-01,3.938650e-02,9.581020e-03,-3.617463e-01,1.989276e-01,3.445587e-02,
9.969466e-02,-1.484065e-01,-2.630702e-02,-7.148261e-02,5.794925e-01,1.834708e-02,-4.707234e-01,-7.141154e-01,1.685710e-02,-3.996338e-01,-3.322193e-02,-2.724556e-01,-1.907673e-01,-2.390578e-02,2.112825e-01,-5.618382e-01,2.984240e-01,-1.029465e+00,3.367870e-02,2.512481e-01,2.414570e-03,3.302734e-01,6.680060e-01,7.197740e-02,3.695560e-03,4.394800e-01,-2.473524e-03,-2.216251e-01,2.094320e-01,4.158316e-01,-1.809308e-01,5.048607e-02,-4.823892e-01,6.536918e-01,-2.082990e+00,8.227160e-03,3.109791e-01,-4.833882e-01,3.352521e-01,-3.659683e-01,6.192839e-01,-1.003683e-02,3.135135e-01,3.104750e-01,-7.591377e-01,3.263330e-02,4.005330e-02,-1.722387e+00,-2.245256e-01,-1.797824e-02,
1.671293e-01,-4.623351e-01,3.140305e-02,2.518062e-01,5.130941e-02,-1.211383e-01,-8.304982e-01,5.172467e-01,-4.215697e-02,-4.826250e-01,3.094737e-01,-4.274541e-01,1.030121e+00,-4.007266e-02,-1.681156e-01,2.254668e-01,-8.620811e-02,-4.107630e-02,-1.230356e-04,4.210236e-01,2.826740e-02,1.073888e+00,5.874931e-02,2.746264e-01,-2.026381e-03,2.512882e-01,-2.887039e-01,-4.471302e-01,-8.775415e-02,4.258533e-01,1.389496e-01,2.962064e-01,-2.920420e-01,4.735964e-01,-7.026927e-01,4.025878e-03,6.245520e-01,1.505023e-02,1.955596e-01,6.297725e-01,-6.510012e-01,1.511880e-03,-3.382149e-01,-1.519837e-01,-3.764537e-02,6.809900e-03,3.115270e-02,-1.183861e+00,-8.464292e-01,-6.840724e-01,
4.091579e-02,4.930588e-02,2.209961e-02,2.353113e-01,-1.017570e-01,6.752510e-02,-3.906398e-01,-3.067381e-01,2.066910e-02,-3.300903e-01,-1.544897e-01,2.446106e-01,1.408285e-02,-2.188719e-02,-2.895237e-02,-2.213789e-01,1.823455e-01,4.627094e-01,-1.053814e-02,1.111859e-01,-3.061263e-02,-3.533116e-01,-2.945450e-01,-1.326825e-01,1.430640e-01,-1.915615e-01,-6.416725e-02,-3.026542e-01,8.962063e-03,-6.427478e-02,-1.723736e-01,-1.026628e-02,5.696388e-01,-2.456550e-01,-5.053437e-01,-7.185156e-03,-2.494742e-01,1.130477e-01,3.089983e-01,-8.551719e-02,-1.338794e-01,2.036830e-02,-1.202772e-01,9.474155e-02,2.606889e-01,5.275230e-03,2.466920e-02,2.565058e-01,-2.680740e-01,-1.083158e-01,
-1.535318e-02,2.320070e-02,-4.345518e-02,2.292840e-03,1.924150e-02,1.014750e-03,-3.813678e-02,-2.168449e-02,-5.074552e-02,2.769100e-02,-3.631935e-02,3.600880e-02,1.833320e-02,-2.158581e-02,1.553210e-02,-4.659092e-02,-1.516778e-03,2.719820e-03,-4.493169e-02,-5.370420e-02,-6.706989e-03,-3.226104e-02,-2.406564e-02,-5.670428e-02,-4.654796e-02,2.555000e-03,-5.048843e-02,1.201240e-02,-5.690595e-02,-1.257609e-02,4.037790e-02,-5.053643e-02,1.884050e-02,-4.284687e-02,4.757790e-02,3.274410e-02,1.726640e-02,-5.382986e-03,3.336640e-02,2.444040e-02,4.500050e-02,2.844830e-02,-1.093479e-02,-1.793735e-02,-4.649853e-02,6.036110e-03,-4.421841e-02,1.842500e-02,-3.941686e-02,-2.667927e-02,
1.164116e-01,-2.471351e-01,4.677505e-01,7.402205e-01,-3.053414e-01,-4.084249e-01,3.770351e-02,-7.344250e-02,-2.174701e-02,8.542683e-02,-1.830032e-02,1.288082e-01,-5.615447e-02,-1.009744e-02,-3.198201e-01,5.748608e-01,-1.919848e-01,3.301346e-01,4.153840e-02,-1.008562e-02,4.198800e-02,1.549643e-01,2.046584e-01,-1.427714e-02,-3.419507e-02,-4.118496e-02,5.078222e-01,1.014775e-01,1.549866e-01,-6.008062e-02,-2.104774e-01,-1.901813e-01,-9.440351e-02,2.422701e-01,-1.187126e+00,3.873550e-02,-1.509928e-01,-5.814268e-02,-2.034188e-01,-5.165892e-02,1.152690e-01,4.081290e-02,-9.552652e-02,1.762568e-01,-1.271308e-01,4.762060e-04,-3.168012e-02,3.805126e-01,2.496800e-01,-5.148712e-02,
1.091803e-01,2.031922e-02,7.216612e-01,1.777244e-01,-6.855917e-01,-6.594668e-01,-1.731801e+00,1.573057e+00,2.622520e-02,-4.487123e-01,-6.296626e-02,1.291128e+00,-6.404818e-01,-1.823502e-02,4.272296e-01,-9.174323e-02,-9.595367e-01,-6.459717e-01,-3.769573e-02,-4.633331e-01,2.572740e-02,1.902105e-01,1.870616e-01,-7.528403e-02,-4.222238e-02,-1.096754e-02,9.318688e-01,1.722562e-01,-7.118237e-02,-1.176754e+00,-8.289717e-01,5.903280e-02,3.174907e-01,6.692981e-01,5.259994e-02,3.438611e-03,-1.905654e-01,-8.396755e-02,-1.416095e-01,-9.212783e-01,1.459210e+00,-1.687212e-02,-4.684646e-03,-6.456071e-01,1.512390e-01,-5.121819e-02,-2.949848e-02,-6.312798e-01,7.948273e-01,1.058974e+00,
1.015212e-02,-5.920337e-01,-3.600437e-01,-1.686172e-01,-3.979106e-01,2.950548e-01,-5.802082e-01,7.410695e-01,3.706900e-02,-3.343967e-01,5.092231e-02,-1.427601e-02,4.470604e-01,-5.635820e-02,-4.789438e-01,1.830012e-01,-2.191521e-01,-6.723603e-01,-4.064854e-02,1.882974e-01,-4.811470e-02,3.977314e-01,4.509724e-01,-8.077084e-02,-3.581145e-02,3.440929e-01,-3.658817e-01,3.303364e-01,-2.162052e-01,-5.704418e-03,3.509140e-01,7.137292e-01,-4.206036e-01,-2.746309e-01,-4.181243e-01,-6.668312e-03,2.696173e-01,6.312983e-01,-4.480830e-01,-3.649310e-02,6.543009e-01,-4.959275e-03,4.525341e-01,-9.813242e-02,8.834081e-02,3.449030e-02,5.427640e-02,-2.205189e-01,-2.330457e-04,5.450543e-01,
-1.574025e-01,3.457766e-01,1.399720e-01,-6.197819e-01,-2.224594e+00,1.118730e+00,-1.288293e+00,-1.855741e+00,4.708790e-02,8.882349e-01,-7.822540e-01,-1.046531e+00,-5.328035e-01,1.158140e-02,5.410010e-01,7.393816e-01,1.449898e+00,-5.331053e-01,5.429400e-03,7.142524e-02,-4.937737e-02,-5.992643e-01,-5.596526e-01,-2.881837e-01,6.986620e-02,-9.386338e-01,-8.487931e-01,-2.202634e-01,-8.853808e-02,3.034994e-01,-7.411385e-01,4.247358e-02,-6.058748e-01,-2.200162e+00,3.096304e-01,-3.666718e-03,3.211893e-02,-4.426044e-01,-4.209734e-01,2.994206e-01,-6.008587e-01,-3.184729e-02,7.226918e-01,4.848400e-01,-4.089862e-01,1.827160e-02,1.048900e-02,-1.166228e-01,5.098097e-01,-9.544855e-01,
6.444147e-01,8.920935e-01,3.537086e-01,1.031896e+00,4.312484e-01,6.273107e-01,-6.656550e-01,1.225731e+00,7.750870e-03,-1.798081e+00,-2.050905e-01,1.487010e+00,3.034616e-01,-2.464502e-02,1.065138e+00,4.185705e-03,-2.989420e-02,1.323535e+00,-7.855706e-04,1.950078e-01,-8.061903e-03,4.915086e-01,1.233210e+00,-9.733994e-02,9.551530e-02,2.802650e-01,-2.050730e-01,1.139537e-01,-5.516340e-01,-1.081912e-01,1.004454e+00,-1.298984e-01,-5.100549e-01,8.434858e-01,-1.816642e+00,-4.807566e-02,7.699676e-01,-1.282247e-01,1.514597e+00,-6.969351e-01,-2.162567e+00,3.300480e-04,-8.476962e-02,-2.467550e-01,8.999971e-01,3.262200e-02,6.390420e-03,6.093055e-01,5.732603e-01,4.508909e-01,
3.756790e-01,7.509463e-02,-1.553137e-01,8.880866e-02,-2.666371e-01,5.664830e-02,-2.079508e-01,7.401841e-02,-4.119629e-02,-1.859428e-02,-6.720708e-02,1.861186e-01,1.209417e-01,-1.022625e-02,-1.280341e-02,1.780551e-01,-1.558029e-01,4.957658e-01,-2.529031e-02,1.911943e-01,-1.720615e-02,4.052546e-01,4.996204e-02,5.236551e-01,9.681290e-03,1.538114e-01,-1.377903e-01,5.207974e-01,6.586016e-01,4.998393e-02,1.198796e-01,-2.581036e-01,3.515236e-01,-3.646602e-01,1.122603e+00,2.193390e-02,5.816302e-02,6.245047e-02,3.728316e-01,-2.782205e-01,-4.612330e-01,-3.938658e-02,-4.183592e-01,-3.060841e-03,4.212438e-01,-2.603541e-02,-3.022885e-02,-5.981488e-01,-1.209375e-01,-3.517337e-02,
9.501829e-02,-1.119270e-01,1.786916e-01,2.544359e-02,-6.919952e-01,1.624114e+00,1.688180e-01,-1.387173e-01,2.967960e-02,-3.269498e-01,-9.997252e-02,-6.010740e-01,5.886573e-01,-4.872744e-03,-6.473508e-01,9.588674e-01,3.650711e-01,-6.765328e-01,-2.759009e-02,5.842029e-01,2.746990e-02,1.145706e+00,1.568770e+00,-1.096651e-01,3.495250e-02,1.092346e+00,-7.483352e-01,3.368083e-01,-1.494654e-01,1.458748e+00,1.839372e-01,3.081749e-01,3.017592e-03,-4.441329e-01,-9.321840e-01,2.678780e-02,3.602672e-01,1.394424e-01,5.686625e-04,8.915222e-01,-9.178484e-01,-3.609398e-02,2.178620e-02,7.282883e-01,-7.909627e-02,-9.262028e-03,-4.477853e-02,-1.559132e-01,-6.529633e-01,-6.140870e-01,
7.687638e-01,-5.470124e-01,-3.662010e-01,4.756745e-01,1.542188e-01,-2.596990e-01,-6.952160e-03,9.993616e-01,2.937620e-02,-9.528890e-01,3.120939e-01,1.128236e+00,-2.616159e-01,2.118170e-03,-9.218912e-01,-3.070327e-01,-5.984372e-01,1.305870e-01,-2.610597e-02,5.638736e-02,3.060630e-03,6.546869e-01,-6.851817e-01,-4.862208e-01,-1.853526e-02,-7.880540e-01,-8.207627e-02,5.310857e-02,1.459747e-01,4.057044e-01,2.885750e-02,2.394616e-01,-7.566524e-01,8.329846e-01,-2.414649e+00,3.820830e-03,1.086235e-01,3.366442e-01,-9.643602e-02,2.576493e-02,-1.552488e-01,-2.304038e-02,-5.651867e-01,-5.098881e-01,2.733751e-01,1.017450e-02,-6.795775e-04,9.089502e-01,-2.314492e-01,4.135347e-01,
-1.024978e+00,-4.943495e-01,-6.234754e-01,-8.799156e-02,-9.555145e-01,1.102744e-01,-5.319672e-01,-4.043203e-01,1.811650e-02,-4.867564e-01,-5.392194e-01,-5.074532e-01,4.131472e-01,-5.231679e-02,4.703848e-01,5.151736e-01,-4.535512e-03,1.655480e-01,2.963100e-02,-3.160565e-01,-4.561355e-02,-8.328065e-01,-8.877457e-01,2.676448e-01,1.205660e-02,-2.439576e-01,-5.553616e-01,2.721740e-01,3.112995e-01,-4.140394e-01,-3.634973e-01,-3.405448e-01,2.921752e-01,1.136539e-01,7.433030e-02,2.347530e-02,-2.036495e-01,9.644448e-02,1.520661e-01,-6.677727e-01,7.599689e-01,1.067610e-02,-2.184053e-01,-1.975200e-01,5.689837e-02,-1.410049e-02,-1.988981e-02,-8.801731e-01,6.345170e-01,3.713521e-02,
-9.745602e-01,6.631420e-01,1.271988e-01,-2.676352e-03,1.893768e-01,-2.560539e-01,3.945058e-01,8.721484e-01,-4.703258e-02,-8.298525e-01,3.264448e-01,4.987488e-01,1.102182e+00,1.403410e-02,1.727502e-01,-8.829170e-01,-4.321365e-01,2.581050e-02,-1.619675e-02,3.610864e-01,3.786510e-02,-1.026671e+00,8.399657e-02,-4.829516e-01,-1.075196e-02,2.672114e-01,9.084435e-02,2.817006e-01,-7.853431e-02,-4.180090e-01,1.168714e+00,6.329716e-02,5.395418e-01,4.929414e-01,-3.572658e+00,-2.052244e-02,5.006461e-02,4.543268e-01,-3.562935e-01,3.278193e-02,4.655088e-01,-3.660074e-02,-1.074733e+00,-4.864247e-01,-5.379679e-01,9.323010e-03,-5.176440e-02,1.288723e+00,4.153433e-01,6.007557e-01,
4.635556e-01,1.447844e-01,-2.866490e-01,-3.099404e-01,-5.958251e-01,-5.924591e-02,5.352848e-02,3.360119e-03,3.124280e-02,2.168029e-01,7.339996e-02,-4.201401e-01,-2.239869e-01,1.888300e-02,-1.853073e-01,-2.783987e-01,1.294756e-01,2.275844e-01,-4.060692e-02,-5.888850e-02,1.809310e-02,1.440335e-01,2.529605e-01,2.289649e-01,1.017040e-01,1.970028e-01,7.948248e-02,9.155297e-02,-4.424869e-01,-2.043705e-01,-4.365758e-01,-9.904706e-02,-3.427747e-02,-6.338373e-02,5.753037e-01,2.207733e-02,1.511105e-01,-7.350770e-02,2.089384e-01,5.523117e-02,-2.076995e-02,-5.040933e-02,3.008970e-02,-1.406074e-01,4.232507e-01,2.837610e-02,-5.131223e-02,-7.953247e-01,-1.858645e-01,-9.160294e-02,
3.029718e-01,-4.031719e-01,2.540479e-01,-6.647815e-03,-2.499841e-01,7.954020e-02,1.544444e-01,2.768137e-01,-1.802366e-02,-2.815196e-01,-3.267767e-02,1.409205e-01,4.089326e-01,1.514670e-02,-5.820849e-02,-7.163207e-02,-3.888621e-02,-1.525965e-01,-4.470694e-02,8.926842e-02,1.969250e-02,3.424740e-01,-7.741295e-02,5.914760e-02,1.369090e-01,-6.814480e-03,-1.128798e-01,3.239451e-01,3.335558e-01,3.807958e-02,3.157913e-01,6.242833e-02,6.017696e-01,7.348497e-02,5.906475e-01,3.093980e-02,2.222580e-01,1.145977e-01,8.326286e-02,-5.632534e-01,1.171857e-01,2.122430e-03,-2.441254e-01,-1.704681e-03,5.897696e-02,2.514710e-02,4.690060e-03,-6.839921e-01,-4.244589e-02,1.467203e-01,
-8.959033e-03,1.675760e-02,-7.278021e-02,-6.852302e-02,1.799070e-02,-2.639097e-02,6.354550e-03,-3.780295e-02,3.545370e-02,-3.876219e-02,5.096220e-03,-4.594665e-02,1.656230e-02,-7.945584e-03,4.014890e-02,-1.764287e-02,-6.196727e-02,3.534410e-02,-3.945332e-02,-2.048124e-02,-1.515799e-02,3.445250e-02,3.045480e-02,-4.920300e-02,-5.019725e-02,2.599260e-02,-3.267726e-02,-6.279055e-02,-6.567877e-03,-3.009578e-02,-1.250688e-02,-2.840452e-02,2.173140e-02,3.727500e-02,1.476840e-02,3.194940e-02,1.413030e-02,-1.266663e-02,5.163980e-03,-4.115076e-02,-2.452152e-02,-2.207970e-02,-2.108400e-02,4.140330e-02,-4.021707e-02,1.890870e-03,-2.429368e-02,-4.091356e-02,-3.315683e-02,-8.961876e-03,
